{"version": "0.5.4", "metadata": {"date": {"year": 2025, "month": 9, "day": 4, "hour": 15, "minute": 37, "second": 37}, "loudness": -21.083778381347656, "gain": 0.7806847665647815, "name": null, "modeled_by": null, "gear_type": null, "gear_make": null, "gear_model": null, "tone_type": null, "input_level_dbu": null, "output_level_dbu": null, "training": {"settings": {"ignore_checks": true}, "data": {"latency": {"manual": -4, "calibration": {"algorithm_version": 1, "delays": [-4], "safety_factor": 0, "recommended": -4, "warnings": {"matches_lookahead": false, "disagreement_too_high": false}}}, "checks": {"version": 1, "passed": true}}, "validation_esr": 0.010057192106500504}}, "architecture": "WaveNet", "config": {"layers": [{"input_size": 1, "condition_size": 1, "head_size": 8, "channels": 16, "kernel_size": 3, "dilations": [1, 2, 4, 8, 16, 32, 64, 128, 256, 512], "activation": "Tanh", "gated": false, "head_bias": false}, {"input_size": 16, "condition_size": 1, "head_size": 1, "channels": 8, "kernel_size": 3, "dilations": [1, 2, 4, 8, 16, 32, 64, 128, 256, 512], "activation": "Tanh", "gated": false, "head_bias": true}], "head": null, "head_scale": 0.02}, "weights": [0.36484333872795105, 0.8799400925636292, -1.0737760066986084, -1.0881787538528442, -0.7308550477027893, 0.5403677821159363, -0.0852661207318306, 0.8088176846504211, -0.23539888858795166, 0.3986648917198181, -0.24155399203300476, -0.6680499315261841, -1.0733004808425903, -0.620812714099884, -0.6975902318954468, 0.1974637359380722, 0.39452049136161804, -0.07693124562501907, 0.1887238770723343, 0.2928523123264313, -0.06901533901691437, 0.2512860894203186, -0.3792431354522705, 0.23071561753749847, -0.14439977705478668, -0.3359621465206146, 0.249782994389534, -0.2521454393863678, -0.450344443321228, 0.09354224056005478, -0.17214246094226837, 0.49512922763824463, -0.22358353435993195, 0.048994965851306915, -0.4558086097240448, -0.0022665306460112333, -0.16614115238189697, 0.4668126702308655, -0.046799879521131516, 0.17799359560012817, -0.35409843921661377, 0.053487423807382584, -0.07393783330917358, 0.21437865495681763, -0.2156037837266922, 0.02876582182943821, -0.2447836995124817, 0.18322496116161346, -0.1723516583442688, -0.3824816346168518, 0.2428000271320343, -0.0475287027657032, -0.2890535593032837, 0.13507801294326782, -0.015710795298218727, -0.42550012469291687, 0.13263621926307678, -0.22277803719043732, -0.4595184922218323, 0.059196699410676956, -0.0632336288690567, 0.426667183637619, -0.27407848834991455, 0.2216891348361969, -0.2987312972545624, 0.05627745762467384, 0.05129126086831093, -0.17475372552871704, 0.20121465623378754, 0.23680193722248077, 0.09190168231725693, -0.16279128193855286, -0.03867647424340248, 0.31954216957092285, 0.01692815124988556, 0.03339512273669243, 0.23800551891326904, -0.23196683824062347, -0.0821094736456871, -0.29742631316185, -0.03737900033593178, 0.22885394096374512, 0.32213297486305237, -0.23240917921066284, -0.07692036777734756, -0.21376867592334747, 0.07938110083341599, 0.018941616639494896, 0.2621545195579529, -0.18193785846233368, -0.041896458715200424, -0.11809569597244263, 0.19952130317687988, 0.13436435163021088, 0.0406956747174263, -0.1969834417104721, -0.009556902572512627, 0.2888569235801697, -0.24932420253753662, -0.20084592700004578, 0.32866108417510986, -0.009361505508422852, -0.15171930193901062, 0.15345528721809387, -0.2398361712694168, -0.08262493461370468, 0.10674896836280823, -0.22464418411254883, -0.10556207597255707, -0.2779814302921295, 0.060866255313158035, 0.17887145280838013, -0.48184728622436523, 0.3123684823513031, 0.28907227516174316, -0.4087764620780945, 0.1921708881855011, 0.35945600271224976, 0.2984664738178253, -0.19451433420181274, -0.29346880316734314, 0.2859160602092743, -0.29739075899124146, -0.2814403176307678, 0.15533576905727386, -0.31955137848854065, -0.3952524960041046, -0.3675389587879181, 0.18288013339042664, 0.2590644359588623, 0.28926414251327515, -0.21634794771671295, -0.4482389986515045, -0.27078041434288025, 0.32235395908355713, 0.3243180811405182, 0.30729806423187256, -0.2435097098350525, -0.3281019330024719, -0.18004275858402252, 0.35344281792640686, 0.4294927716255188, 0.3979870676994324, -0.21919292211532593, -0.44497883319854736, 0.2884630262851715, -0.1444225162267685, -0.3385145962238312, 0.1978003978729248, -0.33384308218955994, -0.47804519534111023, 0.139015793800354, -0.2431822568178177, -0.25195443630218506, 0.37833428382873535, -0.370968759059906, -0.2588532567024231, -0.5232869982719421, 0.21813197433948517, 0.20380400121212006, 0.30223506689071655, -0.5196998715400696, -0.24929088354110718, -0.0075070979073643684, -0.4324808418750763, -0.08165385574102402, -0.17217135429382324, 0.4539276361465454, -0.0528976209461689, -0.11442878097295761, 0.5210403203964233, 0.018505452200770378, 0.020138520747423172, 0.46932530403137207, -0.056188929826021194, 0.19096846878528595, -0.42610669136047363, -0.14261621236801147, 0.016840044409036636, 0.28419026732444763, 0.06584562361240387, 0.06074848026037216, -0.2627585232257843, -0.031786080449819565, -0.034798357635736465, 0.44167381525039673, 0.0319487601518631, 0.058219753205776215, -0.47670042514801025, 0.014106759801506996, 0.023384306579828262, 0.44504228234291077, -0.04182310774922371, -0.18610906600952148, 0.42881035804748535, 0.010513744316995144, -0.18050718307495117, 0.4301949441432953, -0.012745160609483719, -0.09633476287126541, 0.3667985200881958, 0.16313843429088593, -0.2303738296031952, 0.3372596800327301, -0.010163387283682823, 0.31962403655052185, -0.6198417544364929, 0.07266099750995636, -0.10042797029018402, -0.17892032861709595, 0.19092606008052826, -0.3093297779560089, -0.36351242661476135, 0.10137651860713959, 0.28021854162216187, 0.3990294635295868, -0.2460148185491562, 0.20427823066711426, 0.49447160959243774, -0.24684694409370422, 0.28889667987823486, 0.5484689474105835, -0.0935734286904335, -0.32982781529426575, -0.5417059659957886, 0.22879496216773987, 0.1972912698984146, 0.3552435636520386, -0.20498651266098022, -0.2910252809524536, -0.3566715717315674, 0.24131517112255096, 0.3147404193878174, 0.5095011591911316, -0.06723019480705261, -0.36768394708633423, -0.29263216257095337, 0.030713414773344994, 0.18530672788619995, 0.37803536653518677, -0.06877201795578003, 0.3975484073162079, 0.39582180976867676, -0.16780579090118408, 0.3496723175048828, 0.23143276572227478, -0.02238277904689312, 0.1398586928844452, 0.3506719172000885, -0.14259059727191925, 0.22133927047252655, 0.4325975775718689, -0.03297758102416992, -0.32703477144241333, -0.5438941717147827, 0.17168113589286804, -0.6139888763427734, 0.0462309829890728, 0.09244883805513382, -0.32073765993118286, -0.17914429306983948, 0.3986605405807495, 0.2858978807926178, 0.20231328904628754, -0.2606055438518524, 0.16141438484191895, 0.052320096641778946, -0.27350175380706787, 0.33523237705230713, 0.14521466195583344, -0.3984949588775635, -0.2736262083053589, -0.2662493586540222, 0.3970918655395508, 0.1626100391149521, -0.012147813104093075, -0.22846071422100067, -0.28922849893569946, -0.10544724762439728, 0.35075098276138306, 0.23005467653274536, 0.016970982775092125, -0.4688638746738434, -0.07936696708202362, -0.07521229982376099, 0.4364781677722931, 0.15486958622932434, 0.12613771855831146, -0.31536900997161865, 0.30419060587882996, 0.01607493869960308, -0.21669209003448486, 0.24562190473079681, 0.08824747055768967, -0.3424931764602661, 0.10947220772504807, 0.18430502712726593, -0.4046452045440674, 0.28518134355545044, 0.0571230910718441, -0.3780719041824341, -0.3279309570789337, -0.19080862402915955, 0.22861753404140472, 0.20970295369625092, -0.28135156631469727, -0.026988981291651726, 0.19349700212478638, -0.07868853956460953, 0.1934230476617813, -0.24777358770370483, 0.10672244429588318, -0.16141930222511292, -0.17911159992218018, 0.18421457707881927, -0.11778967827558517, -0.2021128535270691, 0.14323793351650238, -0.16150718927383423, 0.14124254882335663, -0.1422595977783203, 0.2600364089012146, -0.2209099531173706, 0.1480807512998581, -0.12231077998876572, 0.2515881061553955, -0.03551047667860985, 0.22884048521518707, -0.052812062203884125, 0.07368653267621994, -0.3478735685348511, -0.0072991615161299706, 0.017748668789863586, 0.30228596925735474, -0.21452227234840393, 0.16788719594478607, -0.07989004254341125, 0.000530099670868367, 0.2935005724430084, -0.044542208313941956, -0.15660804510116577, 0.07308637350797653, -0.09187731891870499, -0.03855140507221222, 0.03022099658846855, -0.07249944657087326, -0.05970878154039383, 0.22461296617984772, -0.29464176297187805, 0.17289671301841736, -0.23864130675792694, 0.16457518935203552, 0.4107503294944763, 0.05919686332345009, -0.05372783541679382, 0.3818613886833191, 0.05713470280170441, 0.007719610817730427, -0.408909410238266, -0.07629621028900146, -0.03495221957564354, -0.4512564539909363, -0.22955046594142914, 0.1711973249912262, -0.24173134565353394, 0.02780773863196373, 0.18470646440982819, 0.19799089431762695, 0.010507643222808838, -0.08837005496025085, -0.40721118450164795, -0.0028655414935201406, -0.041054196655750275, 0.22406433522701263, -0.01720469817519188, -0.1273411214351654, -0.19636812806129456, 0.007673430722206831, 0.16389620304107666, 0.4093448221683502, 0.2550482749938965, -0.07786356657743454, -0.2159479260444641, 0.006902339868247509, 0.08959200978279114, -0.2209053486585617, 0.01597398705780506, 0.2062734216451645, -0.3511155843734741, -0.04896814748644829, 0.06789436936378479, -0.32600918412208557, -0.2049194723367691, -0.038476865738630295, -0.43724748492240906, -0.0036196561995893717, 0.1781785786151886, 0.3401443064212799, -0.04625547304749489, -0.029847057536244392, -0.23803792893886566, 0.24007545411586761, 0.25024813413619995, -0.07159670442342758, 0.4234870374202728, 0.12302588671445847, 0.333698570728302, -0.25493910908699036, -0.27852341532707214, 0.27599310874938965, -0.4432298243045807, -0.24697041511535645, 0.32830873131752014, -0.388037770986557, -0.3318539559841156, -0.2528999447822571, 0.3667758107185364, 0.21422678232192993, 0.2231062799692154, -0.2871640622615814, -0.21284453570842743, -0.271835058927536, 0.34737512469291687, 0.2802920341491699, 0.2801668643951416, -0.5099391341209412, -0.24771016836166382, -0.2912628650665283, 0.2835436761379242, 0.2618075907230377, 0.07692661136388779, -0.2617347836494446, -0.06855211406946182, 0.26864323019981384, -0.5229439735412598, -0.3122631013393402, 0.2190459668636322, -0.46391600370407104, -0.1447170525789261, 0.05197387933731079, -0.4659140706062317, -0.34435194730758667, 0.18347139656543732, -0.3025768995285034, -0.36556702852249146, -0.14343853294849396, 0.42576879262924194, 0.29226306080818176, 0.27411723136901855, -0.4160863757133484, 0.16922399401664734, 0.1502881944179535, -0.1704697608947754, 0.08426803350448608, -0.1657378226518631, 0.4281021058559418, -0.004507005214691162, 0.004195937421172857, 0.19335611164569855, -0.05310394987463951, -0.214298278093338, 0.26616501808166504, 0.01674566976726055, -0.03899681195616722, -0.29273396730422974, 0.08609484136104584, -0.02357976883649826, 0.24883970618247986, -0.12326201051473618, 0.011525722220540047, -0.23226957023143768, 0.1534235179424286, 0.021824410185217857, 0.31601864099502563, 0.03523756563663483, -0.08603191375732422, -0.4242164194583893, 0.0823516696691513, -0.13299158215522766, 0.34873172640800476, -0.11307921260595322, -0.21046747267246246, 0.21197736263275146, 0.053675223141908646, -0.07512693852186203, 0.41188839077949524, 0.0780138373374939, 0.02469843439757824, 0.2924582362174988, -0.05671372637152672, -0.12062408030033112, 0.3343810737133026, 0.05379169061779976, 0.0988083928823471, -0.20369073748588562, 0.030445190146565437, -0.007536771707236767, -0.1477191150188446, -0.10931742936372757, 0.23061220347881317, -0.20638911426067352, -0.042401351034641266, -0.028473200276494026, 0.15539206564426422, 0.2653215229511261, -0.17831721901893616, 0.11904770880937576, 0.20198768377304077, -0.13690344989299774, 0.13157841563224792, 0.11220014095306396, 0.1933981329202652, -0.14448080956935883, -0.2094292789697647, -0.045302823185920715, 0.16338147222995758, 0.11244115978479385, 0.11707848310470581, 0.01217595860362053, -0.14806924760341644, -0.05672813951969147, 0.06390300393104553, 0.2098618894815445, 0.0020419226493686438, -0.16418597102165222, -0.21076808869838715, 0.03355211019515991, 0.02574818953871727, 0.13255411386489868, -0.1284259557723999, 0.20253095030784607, 0.3243149518966675, -0.2095378339290619, -0.04558809474110603, 0.028378169983625412, -0.1043306291103363, 0.028915755450725555, 0.03523121401667595, -0.14024879038333893, 0.10165056586265564, 0.0813869759440422, 0.05519785359501839, -0.07427117228507996, -0.2931496798992157, 0.2731855809688568, 0.059901028871536255, -0.3484620749950409, 0.27269893884658813, -0.15340985357761383, -0.29791292548179626, -0.39556872844696045, -0.03761519119143486, 0.5799809098243713, -0.35315006971359253, 0.12509530782699585, 0.42094534635543823, -0.3064427077770233, 0.06169811263680458, 0.5426499843597412, 0.29066991806030273, -0.21931396424770355, -0.5587205290794373, -0.3681319057941437, 0.15392352640628815, 0.3408071994781494, 0.38940826058387756, -0.1255328357219696, -0.4436584413051605, -0.1795951873064041, 0.14862960577011108, 0.5627288222312927, 0.34503495693206787, -0.12978193163871765, -0.5164291858673096, -0.26085981726646423, 0.21194694936275482, 0.34251707792282104, -0.4315962791442871, 0.17274044454097748, 0.6003870964050293, -0.29733946919441223, -0.02263517677783966, 0.2956375479698181, -0.21405068039894104, 0.08368196338415146, 0.3342018127441406, -0.24441108107566833, 0.15515901148319244, 0.5675264596939087, 0.42624369263648987, -0.12846583127975464, -0.5661701560020447, -0.1811937838792801, 0.36280038952827454, -0.2370675951242447, 0.05176468938589096, 0.2910178005695343, -0.11127019673585892, 0.14639174938201904, -0.285230427980423, 0.11688712984323502, -0.043526407331228256, -0.5111711621284485, 0.3749958574771881, -0.04384893551468849, -0.4969089925289154, 0.3268814980983734, -0.09270046651363373, 0.36748337745666504, -0.27668318152427673, 0.03553713858127594, -0.5256889462471008, 0.3610805571079254, -0.07481466978788376, 0.4449273943901062, -0.10553708672523499, 0.10364127159118652, -0.39253705739974976, 0.37488657236099243, -0.0018202299252152443, 0.3215239942073822, -0.10663887858390808, 0.047210942953825, -0.5132289528846741, 0.18290841579437256, -0.09077917784452438, -0.34656062722206116, 0.24439294636249542, -0.12011691927909851, -0.41265445947647095, 0.3256146311759949, 0.04737995192408562, -0.34012502431869507, 0.24245959520339966, 0.07005737721920013, -0.4740115702152252, 0.19872307777404785, -0.16496583819389343, 0.35699519515037537, -0.23714828491210938, -0.17769619822502136, -0.24957670271396637, -0.028622396290302277, -0.11855104565620422, -0.2689582109451294, 0.13120423257350922, 0.04448063299059868, 0.2895980775356293, -0.1131349578499794, 0.09411218762397766, 0.24496695399284363, -0.059334252029657364, 0.25220078229904175, 0.07961928099393845, -0.12453044205904007, -0.1992231011390686, -0.15929071605205536, 0.13076558709144592, 0.07782065123319626, 0.23792751133441925, -0.06815138459205627, -0.16004237532615662, -0.0492539219558239, -0.11013942211866379, 0.14882108569145203, 0.30256780982017517, -0.03519324213266373, -0.01994136907160282, -0.20104020833969116, 0.11884044855833054, -0.014200310222804546, 0.12434857338666916, -0.03535151854157448, 0.16709622740745544, 0.3050735592842102, 0.1200525239109993, 0.10789136588573456, 0.1571919471025467, 0.09847722202539444, 0.08686688542366028, 0.277627170085907, -0.09891677647829056, 0.11339502781629562, 0.18421591818332672, 0.06515287607908249, -0.045027270913124084, -0.3653009831905365, -0.1362697333097458, -0.02683429978787899, 0.05052237957715988, -0.0006096977740526199, -0.050816040486097336, 0.18064317107200623, 0.06359127163887024, -0.03132344409823418, -0.2256704717874527, 0.17628633975982666, -0.15213164687156677, -0.0562269389629364, 0.09780830889940262, -0.10918295383453369, -0.038775742053985596, -0.04932660609483719, 0.08021640032529831, -0.011305615305900574, -0.1000870019197464, -0.025823256000876427, 0.05257946625351906, 0.015889564529061317, 0.14423049986362457, 0.07004521042108536, -0.14535602927207947, -0.17266683280467987, -0.20928113162517548, 0.22803868353366852, 0.015559558756649494, 0.09015730768442154, -0.04516191408038139, 0.04884070158004761, 0.0367659255862236, 0.19409775733947754, -0.0897764191031456, -0.10614364594221115, -0.0068928562104702, -0.13022415339946747, -0.05477314442396164, 0.21238093078136444, -0.16493545472621918, -0.00038371552363969386, 0.0031155224423855543, -0.05930599570274353, 0.026560328900814056, 0.04831228405237198, -0.03532366454601288, -0.026594532653689384, 0.032361578196287155, -0.14585839211940765, -0.3182108998298645, 0.23704411089420319, -0.2649194300174713, -0.38543128967285156, 0.28570741415023804, 0.2744344472885132, 0.22443480789661407, -0.20916041731834412, 0.287751168012619, 0.3612932860851288, -0.34933945536613464, 0.14712390303611755, 0.2338787168264389, -0.4034590721130371, -0.16754084825515747, -0.18297038972377777, 0.4168735146522522, 0.17146074771881104, 0.33281251788139343, -0.3224433362483978, -0.052234094589948654, -0.3151121437549591, 0.16593168675899506, 0.1812046766281128, 0.36167043447494507, -0.41813910007476807, -0.029831085354089737, -0.20134879648685455, 0.17346827685832977, 0.11459167301654816, 0.3605095446109772, -0.3731558918952942, 0.12318028509616852, 0.359317809343338, -0.4152771532535553, 0.23967523872852325, 0.3352706730365753, -0.18155120313167572, 0.06608891487121582, 0.3911711275577545, -0.35029658675193787, 0.3055264949798584, 0.14436155557632446, -0.41913723945617676, -0.05240258574485779, -0.3110833466053009, 0.3120388686656952, -0.04315095767378807, 0.013827391900122166, -0.015496895648539066, -0.014329715631902218, 0.05137770622968674, -0.01783975586295128, -0.0027470083441585302, 0.0024486237671226263, -0.01149157527834177, 0.06268911808729172, 0.007938683964312077, 0.01693638041615486, 0.002264335285872221, -0.04509453475475311, 0.04529804736375809, -0.008364652283489704, 0.5524538159370422, -0.3406356871128082, 1.1429857015609741, -0.7764667868614197, 0.12358960509300232, 1.2118715047836304, 1.2097574472427368, -0.6268805861473083, 0.39447689056396484, 0.12802469730377197, -0.6009316444396973, -0.7715305089950562, 0.04033048450946808, -0.6958585977554321, 0.09019612520933151, 0.7005472779273987, -0.30285561084747314, 0.26541489362716675, -0.002783628413453698, 0.17094539105892181, 0.21578563749790192, 0.005493844393640757, 0.03995419666171074, -0.21703067421913147, -0.08013119548559189, -0.11520253866910934, -0.11039192974567413, 0.04349074140191078, 0.08257715404033661, 0.10989494621753693, 0.17959696054458618, -0.015858525410294533, -0.0964139923453331, -0.02805301919579506, -0.2566866874694824, 0.2639869153499603, 0.03271655738353729, -0.10026497393846512, -0.09302740544080734, 0.02587209641933441, -0.2518254220485687, 0.12446330487728119, -0.24920810759067535, 0.1969289481639862, -0.25138160586357117, 0.06554561853408813, -0.0020465487614274025, 0.09953665733337402, 0.15913330018520355, 0.007130554411560297, 0.12338118255138397, 0.1255759298801422, 0.013535217382013798, 0.06036172807216644, 0.2349385768175125, -0.17520838975906372, 0.03081311658024788, -0.09996505826711655, 0.07748036831617355, -0.1410108506679535, 0.1251245141029358, 0.16383327543735504, -0.14505387842655182, -0.04247889667749405, -0.012491586618125439, 0.41091448068618774, -0.03434618562459946, -0.09925202280282974, -0.25319695472717285, -0.058913908898830414, 0.006745847873389721, -0.0034219324588775635, 0.035640615969896317, -0.23277050256729126, -0.13298150897026062, 0.06675851345062256, 0.26068440079689026, 0.2204315960407257, -0.5314547419548035, -0.07765407860279083, -0.01312651764601469, -0.13928180932998657, -0.12635818123817444, 0.11921896040439606, 0.12554362416267395, -0.0799112319946289, 0.11051756888628006, -0.05254103243350983, -0.10095103085041046, 0.14008505642414093, -0.20328882336616516, 0.07735238969326019, -0.03188316524028778, 0.06456081569194794, 0.029516343027353287, 0.022214684635400772, -0.04598524421453476, -0.33007320761680603, 0.26556873321533203, -0.07965202629566193, 0.08110756427049637, 0.2750922739505768, 0.15280501544475555, 0.22317180037498474, 0.3007911443710327, -0.13755054771900177, 0.17024564743041992, -0.2807081341743469, 0.02918425016105175, -0.17393316328525543, 0.27080366015434265, 0.14382918179035187, -0.038272321224212646, 0.3752332031726837, -0.12503530085086823, -0.11682256311178207, -0.19967235624790192, -0.25719499588012695, 0.028760939836502075, 0.04538532346487045, 0.02942105010151863, -0.2866838276386261, -0.40326592326164246, 0.21999070048332214, 0.3793501555919647, -0.113317109644413, -0.3435002565383911, -0.3249286711215973, 0.12038672715425491, -0.12580904364585876, 0.26245200634002686, -0.14933283627033234, -0.1445838361978531, 0.1922205537557602, 0.10002335906028748, -0.03068075142800808, 0.196757972240448, -0.1452041119337082, 0.2893400490283966, -0.21044965088367462, 0.10035520792007446, -0.07785329222679138, -0.1475050151348114, 0.06965391337871552, -0.12787014245986938, 0.23036134243011475, -0.2012931853532791, 0.09975100308656693, -0.0519997701048851, -0.09666477888822556, -0.24413879215717316, -0.04090593382716179, -0.29344120621681213, -0.16217513382434845, -0.25247156620025635, 0.1348869651556015, 0.09276974946260452, -0.042289625853300095, 0.07722260057926178, -0.1151043102145195, -0.13660909235477448, 0.005030504893511534, 0.10259068757295609, -0.13079781830310822, -0.05279224365949631, -0.005498179700225592, -0.075559601187706, -0.1425335854291916, 0.14489738643169403, 0.06526988744735718, 0.2139216959476471, -0.0851939395070076, 0.03613331913948059, 0.143764927983284, 0.03747577592730522, 0.03258923441171646, 0.09558502584695816, 0.12242256104946136, -0.2581281363964081, 0.22474947571754456, -0.06842130422592163, -0.17029885947704315, 0.019362686201930046, -0.09081676602363586, -0.13789494335651398, -0.07640893757343292, -0.3071678876876831, 0.16797073185443878, -0.05780492722988129, 0.13619622588157654, 0.04196874797344208, -0.03383561596274376, 0.06540782749652863, -0.21949739754199982, 0.20245876908302307, -0.037817616015672684, 0.09663782268762589, 0.006698728539049625, -0.02264525182545185, 0.05545821413397789, 0.16927409172058105, -0.15177512168884277, 0.1967993527650833, -0.16220730543136597, 0.13601011037826538, 0.1405550241470337, -0.24155889451503754, -0.1277126520872116, -0.09080003201961517, 0.11413272470235825, -0.17986324429512024, -0.008077566511929035, -0.08705368638038635, -0.2650613486766815, 0.08995135873556137, 0.10371466726064682, 0.047492172569036484, -0.014603963121771812, -0.11648532003164291, 0.20199324190616608, 0.23338031768798828, -0.14362813532352448, -0.3487236797809601, -0.2593541145324707, 0.3416077196598053, -0.4152628779411316, -0.04854527860879898, 0.054415263235569, -0.03131166845560074, 0.15917213261127472, 0.30475956201553345, 0.2805628776550293, -0.011449156329035759, 0.2317487895488739, 0.05660426989197731, -0.09026085585355759, -0.26725736260414124, -0.05498137325048447, -0.18214848637580872, 0.30185866355895996, 0.015669960528612137, 0.1553531140089035, -0.041431255638599396, 0.007434876170009375, 0.18319354951381683, 0.1555386185646057, 0.26607000827789307, 0.112521693110466, -0.18457385897636414, 0.13474656641483307, -0.05467758700251579, -0.02583646960556507, -0.007228691130876541, 0.10869742929935455, -0.11681219190359116, 0.13146696984767914, 0.29774507880210876, -0.2440694272518158, 0.21471941471099854, -0.058730438351631165, -0.10136958211660385, 0.23108388483524323, -0.00901737343519926, 0.17732711136341095, -0.015683334320783615, -0.13334928452968597, 0.3216184377670288, -0.24307438731193542, -0.15821687877178192, 0.11608721315860748, 0.1540360003709793, 0.23799248039722443, 0.09984119981527328, -0.05238667502999306, 0.1161772757768631, -0.03765583783388138, -0.01636129431426525, -0.042111195623874664, -0.0015780641697347164, -0.014560984447598457, 0.026582932099699974, -0.09259660542011261, 0.09749699383974075, 0.009530384093523026, 0.02552262507379055, 0.08980081230401993, 0.05288832634687424, -0.000625734101049602, 0.10243085771799088, 0.007189271971583366, 0.18517670035362244, 0.0747796893119812, -0.04251955822110176, 0.030758051201701164, 0.1568898856639862, 0.11115238815546036, 0.2902512848377228, -0.048420898616313934, -0.10456522554159164, -0.2341262251138687, -0.002820550464093685, -0.1331091672182083, -0.002599024213850498, -0.04285680502653122, -0.15278761088848114, 0.025895098224282265, -0.048148464411497116, -0.09061310440301895, -0.06137298047542572, -0.09960287809371948, -0.02499099262058735, -0.1687091737985611, 0.11873913556337357, 0.12250395864248276, -0.09526896476745605, -0.1378273367881775, -0.19913920760154724, -0.2110116183757782, -0.0033399604726582766, 0.13844913244247437, 0.08305071294307709, -0.2858577072620392, -0.42585301399230957, 0.3041490614414215, 0.02597474306821823, -0.11227641254663467, -0.04890307039022446, -0.05011114850640297, 0.08432637155056, -0.19252337515354156, -0.07965082675218582, 0.12124408781528473, 0.06520598381757736, -0.17835277318954468, -0.10036998242139816, -0.17113925516605377, -0.32127341628074646, -0.009078072383999825, 0.41865965723991394, -0.4948100745677948, 0.09663692861795425, 0.10961020737886429, 0.04257749021053314, -0.13078944385051727, 0.35222098231315613, -0.10265721380710602, 0.3645961582660675, -0.30020764470100403, -0.10131452977657318, 0.0625685378909111, 0.21531742811203003, -0.10634754598140717, -0.4332426190376282, 0.08319796621799469, 0.3210546374320984, 0.30882763862609863, -0.4841158986091614, 0.18357717990875244, -0.25522342324256897, 0.03676711395382881, -0.14358755946159363, 0.28938862681388855, -0.14678850769996643, 0.0960947722196579, -0.11041393131017685, 0.00957069918513298, -0.07941965758800507, 0.25883394479751587, -0.19484329223632812, -0.06354115158319473, -0.6233277320861816, 0.3369155824184418, -0.059667207300662994, 0.3613884449005127, -0.149018332362175, 0.08418168127536774, -0.15631982684135437, -0.20238669216632843, -0.2228425294160843, -0.1740385740995407, 0.21787288784980774, -0.015520100481808186, -0.1283557265996933, -0.15999847650527954, 0.12934188544750214, -0.026995912194252014, -0.1490289568901062, 0.3433310091495514, 0.08681024610996246, -0.29117849469184875, -0.060224756598472595, 0.16364315152168274, 0.08313900232315063, 0.23164385557174683, 0.16260749101638794, -0.03131856769323349, 0.2575627565383911, -0.09085951745510101, -0.034094490110874176, -0.2105352282524109, 0.22267787158489227, 0.384609192609787, 0.1570417433977127, -0.20535360276699066, -0.17955467104911804, -0.2132529318332672, 0.00849772710353136, 0.31611207127571106, 0.19286920130252838, -0.20394682884216309, -0.2600756585597992, -0.028434501960873604, 0.17104493081569672, -0.02022801712155342, 0.05487549677491188, -0.20403116941452026, -0.10297596454620361, -0.12472257763147354, 0.188520148396492, 0.4471977651119232, 0.18353664875030518, -0.06017809361219406, -0.045074161142110825, -0.25166982412338257, -0.060157410800457, 0.3012508153915405, 0.05360611528158188, 0.22523638606071472, 0.18840724229812622, -0.26564252376556396, 0.25772663950920105, 0.3153926134109497, -0.016513923183083534, -0.14221468567848206, -0.15955504775047302, 0.02298399619758129, 0.017999008297920227, 0.022224966436624527, 0.05453839153051376, 0.07390309125185013, -0.26403290033340454, 0.010348066687583923, 0.09626691788434982, -0.04227226972579956, 0.06328916549682617, -0.016632752493023872, -0.07703988999128342, -0.00973748229444027, 0.24838119745254517, 0.2083355337381363, -0.0614108107984066, -0.08830281347036362, 0.16740907728672028, -0.1326182633638382, 0.10957317054271698, 0.1967397779226303, 0.012889477424323559, -0.3398468494415283, -0.1601153016090393, 0.14405857026576996, 0.06925047934055328, 0.1853172481060028, 0.1010744497179985, -0.22768068313598633, -0.1681312918663025, -0.022950246930122375, 0.3308751583099365, 0.09865520894527435, -0.09228429943323135, 0.090926393866539, -0.129390150308609, -0.04048284888267517, -0.03514817729592323, -0.20120690762996674, -0.008075647987425327, 0.021750999614596367, -0.06389841437339783, 0.1307726502418518, 0.16572390496730804, 0.2802586555480957, 0.15629777312278748, 0.11244364082813263, -0.25924891233444214, 0.19726954400539398, 0.10238263010978699, -0.23119096457958221, 0.23247916996479034, 0.418001651763916, -0.13426297903060913, 0.02818489633500576, -0.19911682605743408, 0.27309563755989075, 0.06614518165588379, -0.07665503770112991, -0.28979021310806274, -0.23618049919605255, 0.23605763912200928, 0.0650387778878212, 0.2771300971508026, -0.38604429364204407, 0.2506985366344452, -0.11790916323661804, 0.19804523885250092, 0.30200979113578796, 0.2517501711845398, -0.12893524765968323, -0.21817709505558014, 0.1776837706565857, -0.14607559144496918, 0.06297886371612549, 0.23149967193603516, -0.14215530455112457, -0.09427095204591751, 0.07913899421691895, 0.3137567639350891, 0.11696363240480423, 0.019584696739912033, -0.49035829305648804, 0.10244935750961304, -0.5990105867385864, 0.16700375080108643, 0.15139295160770416, 0.11073748022317886, 0.050453461706638336, -0.33433184027671814, -0.1564621925354004, 0.1723002940416336, 0.1931765228509903, -0.06571070849895477, -0.17294567823410034, 0.03015837073326111, 0.05407759174704552, 0.13382753729820251, 0.33284327387809753, 9.020515426527709e-05, 0.21424396336078644, -0.08999165892601013, 0.17402520775794983, 0.3607428967952728, 0.14159946143627167, 0.17277446389198303, 0.2002650797367096, 0.2214304357767105, -0.12764088809490204, -0.3332197368144989, -0.378827840089798, 0.1414872407913208, -0.4007265269756317, -0.03467096760869026, -0.04947706684470177, -0.3747355341911316, -0.16368699073791504, 0.16521061956882477, 0.4229695498943329, 0.3024424910545349, 0.2078351080417633, -0.14340579509735107, 0.0016435650177299976, 0.26596397161483765, 0.16907310485839844, 0.36988145112991333, 0.3227323591709137, 0.34529775381088257, -0.09531701356172562, 0.1486905962228775, 0.03593187779188156, 0.10376912355422974, -0.16988475620746613, -0.05099309980869293, -0.09435649961233139, 0.03244126960635185, 0.22589290142059326, -0.02512473799288273, -0.17522895336151123, -0.06317561864852905, -0.4183990955352783, 0.09766945242881775, 0.1358802169561386, 0.18214792013168335, -0.012799670919775963, -0.008380013518035412, -0.004328242037445307, 0.10620025545358658, -0.07363175600767136, -0.17397592961788177, 0.09527858346700668, 0.05754959210753441, -0.11029055714607239, -0.09225008636713028, 0.004424042999744415, -0.08597935736179352, 0.14637550711631775, 0.17995989322662354, 0.16816627979278564, -0.1381915658712387, 0.04857826605439186, 0.36134618520736694, -0.059815406799316406, 0.17682687938213348, 0.0679984986782074, -0.009961689822375774, -0.15327739715576172, -0.12395837903022766, -0.05523790791630745, 0.19399364292621613, 0.06909538060426712, 0.0638386458158493, -0.18422266840934753, 0.03491019457578659, -0.09161566197872162, 0.1951202005147934, -0.26234540343284607, 0.10408268123865128, 0.0628552958369255, 0.03834051266312599, 0.151429682970047, -0.07431117445230484, -0.4113139510154724, 0.005387687124311924, -0.014103257097303867, -0.2512519657611847, -0.04073512181639671, -0.07588331401348114, -0.018718907609581947, -0.046022821217775345, -0.040445975959300995, 0.217823788523674, 0.2693297863006592, -0.29726359248161316, 0.03038259968161583, -0.204737588763237, 0.1358792632818222, -0.05048401281237602, -0.047012489289045334, 0.2005985826253891, 0.06842963397502899, 0.23093338310718536, -0.25233909487724304, 0.0021316190250217915, 0.10662613064050674, 0.07955363392829895, -0.07954203337430954, -0.3597514033317566, 0.2149435132741928, -0.02856156788766384, -0.052744947373867035, 0.08025994151830673, -0.05461512878537178, 0.021253570914268494, -0.26447999477386475, 0.15973034501075745, -0.009365965612232685, 0.3313371241092682, 0.09066175669431686, 0.11094482243061066, -0.36689332127571106, 0.003457914339378476, 0.01276711281388998, 0.09326107054948807, -0.03971168398857117, -0.016910701990127563, 0.0836767852306366, 0.02020976133644581, 0.1461389660835266, -0.2418910712003708, -0.16256992518901825, 0.13237214088439941, -0.18642987310886383, 0.2185109406709671, -0.1217326819896698, 0.13721038401126862, -0.04925098642706871, 0.1290932297706604, -0.03555542603135109, -0.12949101626873016, -0.10590752214193344, -0.04962163791060448, 0.03884978964924812, 0.13008692860603333, -0.2124451994895935, 0.14582782983779907, 0.07760397344827652, 0.05996185168623924, -0.007588432170450687, 0.08893821388483047, 0.10613776743412018, 0.1759498566389084, -0.00926453061401844, 0.01744162105023861, -0.34037819504737854, -0.13149972259998322, -0.13797131180763245, -0.16201427578926086, -0.10283612459897995, -0.17830808460712433, -0.14761002361774445, -0.1848883181810379, -0.02063390426337719, 0.33091604709625244, 0.13107120990753174, 0.04449758678674698, -0.2469051033258438, 0.04506268352270126, -0.0011998906265944242, 0.14516232907772064, 0.17983172833919525, -0.2615931034088135, -0.05873166769742966, -0.3373660445213318, 0.19206774234771729, 0.057626303285360336, -0.06654089689254761, 0.01781383715569973, -0.15751256048679352, 0.2147660106420517, -0.1285877227783203, 0.0035720174200832844, 0.07464562356472015, -0.01608891785144806, -0.17471331357955933, -0.1725923717021942, 0.2221834659576416, 0.10631066560745239, -0.3672495186328888, 0.19063305854797363, 0.023421481251716614, -0.0721089169383049, 0.008457409217953682, 0.12576855719089508, 0.02051280438899994, 0.30251213908195496, -0.2125445455312729, -0.06935418397188187, 0.2497623860836029, -0.08229895681142807, -0.04280076548457146, -0.4328148663043976, 0.25681978464126587, 0.3159838318824768, 0.18685907125473022, -0.10655836760997772, 0.04201304167509079, -0.2442253679037094, 0.2775229811668396, -0.16851550340652466, 0.4889686405658722, -0.20898111164569855, -0.0826154574751854, -0.4138615131378174, 0.25436607003211975, -0.1772254854440689, 0.2546919882297516, -0.03908133506774902, -0.07870510220527649, -0.4338269531726837, 0.3301756680011749, -0.058755841106176376, 0.25645601749420166, -0.28636080026626587, 0.21962903439998627, 0.1701418161392212, -0.0449509434401989, -0.2956211566925049, -0.09939020872116089, 0.15773509442806244, 0.09680674970149994, -0.18507187068462372, -0.05636676028370857, -0.20731116831302643, -0.09551823884248734, 0.046437934041023254, -0.12306787073612213, -0.18060165643692017, 0.24019664525985718, -0.2915584146976471, 0.060090843588113785, 0.11523129045963287, -0.1549234390258789, -0.04416649043560028, -0.17831237614154816, -0.11407332867383957, 0.001784206717275083, 0.00499538192525506, 0.31066831946372986, 0.12468504160642624, -0.18893349170684814, -0.4542351961135864, 0.33282315731048584, 0.23414655029773712, 0.1375240683555603, 0.15414442121982574, -0.05718109756708145, -0.17517180740833282, -0.2041480839252472, 0.2547980546951294, 0.03953796997666359, -0.11160558462142944, -0.190000981092453, -0.17420141398906708, -0.17226432263851166, 0.14601469039916992, -0.025563661009073257, 0.09570664912462234, -0.10841600596904755, -0.34659191966056824, 0.24426570534706116, 0.07458455860614777, 0.2078825831413269, -0.0567631721496582, -0.09603419899940491, 0.022762481123209, -0.16901268064975739, -0.09793398529291153, 0.12260351330041885, -0.16585129499435425, -0.12893524765968323, 0.028658399358391762, -0.0814349576830864, -0.225115567445755, -0.20486080646514893, -0.08077318221330643, -0.307759165763855, 0.03810495138168335, 0.2091471552848816, 0.103288434445858, -0.07107586413621902, 0.0030069162603467703, -0.09903546422719955, -0.003581359749659896, -0.07963956892490387, -0.19910447299480438, 0.388403981924057, 0.2451743185520172, 0.2244839072227478, -0.10075625777244568, -0.04898441955447197, -0.09269505739212036, 0.34964755177497864, 0.31728020310401917, 0.17592260241508484, -0.27848538756370544, -0.3044152557849884, -0.3437514305114746, 0.08564804494380951, 0.21635951101779938, 0.10373818129301071, -0.3401068449020386, -0.12370293587446213, -0.2348075956106186, 0.38325855135917664, -0.07813384383916855, 0.37697261571884155, 0.14169584214687347, -0.31217890977859497, 0.038939643651247025, 0.3100232183933258, -0.043869540095329285, 0.0212960634380579, 0.29424822330474854, -0.14888417720794678, -0.15087361633777618, 0.018411681056022644, 0.23191727697849274, 0.05983131751418114, -0.18744143843650818, 0.04160265251994133, 0.0833527073264122, 0.0621565580368042, -0.01865886151790619, 0.13649488985538483, -0.10010506957769394, 0.2810276448726654, -0.3961619436740875, 0.0446011908352375, 0.06258225440979004, -0.029964111745357513, 0.1283644139766693, -0.056553393602371216, -0.025358479470014572, -0.10577856004238129, -0.0043656351044774055, 0.11561127752065659, 0.05520504713058472, -0.2660214602947235, 0.07358680665493011, -0.07359866797924042, -0.02439471334218979, 0.045190032571554184, -0.13933409750461578, -0.09587215632200241, 0.19981081783771515, -0.1358976513147354, 0.21371081471443176, -0.10258352011442184, 0.09522171318531036, -0.017361881211400032, -0.032221440225839615, 0.01962057128548622, 0.28367695212364197, -0.3754335641860962, 0.06270965933799744, -0.3464980125427246, 0.0471850149333477, 0.1852109283208847, 0.06918113678693771, -0.5007286667823792, 0.03665687143802643, 0.026313912123441696, -0.10187405347824097, 0.16007882356643677, 0.23558996617794037, 0.031450238078832626, 0.08426869660615921, -0.32081034779548645, -0.12367387115955353, 0.15892155468463898, -0.30694571137428284, 0.22941137850284576, -0.08600707352161407, 0.18837125599384308, -0.057117678225040436, -0.3148142695426941, 0.20220568776130676, 0.11200026422739029, 0.036970313638448715, -0.1987738311290741, 0.1328197866678238, 0.03185107558965683, 0.2999524772167206, -0.28056785464286804, -0.5536449551582336, 0.5470148324966431, 0.2301110476255417, 0.124969482421875, 0.2889033257961273, -0.0847376212477684, -0.03682984784245491, -0.3805888891220093, 0.2135501652956009, 0.06058657541871071, 0.02895711548626423, -0.010402881540358067, -0.007719067856669426, -0.24172328412532806, 0.17154747247695923, 0.26574110984802246, 0.7252327799797058, -0.39622825384140015, -0.34433799982070923, 0.1528969258069992, -0.14769980311393738, 0.3004212975502014, -0.07798255980014801, 0.05665180832147598, 0.29674264788627625, -0.42466503381729126, -0.31114381551742554, -0.01816178672015667, 0.09476783871650696, 0.10485368967056274, -0.2992463707923889, 0.22588221728801727, -0.04981605336070061, -0.18294915556907654, 0.456797331571579, -0.0768841803073883, -0.16644428670406342, 0.047185856848955154, 0.1109449714422226, 0.20915009081363678, -0.09224024415016174, -0.0897400751709938, -0.14381982386112213, 0.3883950710296631, 0.05448615923523903, -0.07539711147546768, -0.37258580327033997, 0.1992933601140976, 0.40995216369628906, 0.06622520834207535, -0.15873630344867706, -0.02082635648548603, -0.25755447149276733, 0.06353604793548584, 0.2602991461753845, 0.19799447059631348, -0.28631624579429626, -0.06766346096992493, -0.14218926429748535, 0.21875816583633423, 0.010950051248073578, 0.3564843535423279, -0.08984135836362839, -0.3177444040775299, -0.12984874844551086, 0.2024170160293579, 0.22301268577575684, 0.2514086365699768, -0.0698411762714386, -0.1552189141511917, -0.1536412090063095, 0.09685727208852768, -0.4811486601829529, 0.21950146555900574, 0.10667258501052856, 0.059490106999874115, -0.4106922149658203, 0.14128108322620392, -0.27645233273506165, 0.15681402385234833, 0.2071642279624939, -0.2714667022228241, 0.2102624773979187, 0.2662321925163269, 0.2138427048921585, 0.13059964776039124, 0.15654830634593964, -0.29467469453811646, 0.2316170483827591, -0.43739262223243713, -0.22759488224983215, 0.1340431571006775, 0.13665054738521576, 0.15288275480270386, -0.4208710193634033, -0.10147824883460999, -0.015102270990610123, 0.12051542103290558, -0.49342313408851624, 0.24026785790920258, -0.3744349181652069, -0.24396544694900513, -0.39070045948028564, 0.23322835564613342, 0.02910676971077919, 0.02352040633559227, -0.14967143535614014, 0.240163192152977, -0.20742210745811462, 0.33488988876342773, -0.03177080675959587, 0.25414079427719116, -0.29498058557510376, 0.0680902898311615, -0.2616986930370331, 0.002088064793497324, -0.10618523508310318, 0.2951667308807373, 0.1512775719165802, -0.1860935240983963, -0.02802545204758644, -0.07948113977909088, 0.28104859590530396, 0.18353056907653809, -0.043264251202344894, -0.04618870094418526, 0.364227294921875, 0.04516000673174858, -0.0009022974409162998, -0.07777179777622223, -0.030876580625772476, -0.02893313206732273, 0.19795134663581848, 0.0791674554347992, -0.1433243453502655, 0.001170531497336924, 0.029017377644777298, 0.0962393507361412, 0.03351058065891266, 0.057111501693725586, 0.07585299760103226, -0.05777069553732872, -0.11417891085147858, 0.21202103793621063, 0.33251869678497314, -0.6374371647834778, 0.24336497485637665, -0.7817878127098083, 0.0023885557893663645, -0.42401236295700073, 0.7059746384620667, -0.742655873298645, -0.22738726437091827, -0.8709776997566223, 0.3038748800754547, -0.6461908221244812, 0.29494115710258484, -0.7269148230552673, -0.17984189093112946, -0.08028969168663025, 0.16843050718307495, 0.0524982251226902, 0.16878129541873932, -0.10106407850980759, -0.1551326960325241, -0.06448882818222046, 0.07673012465238571, -0.0764043927192688, -0.1000143364071846, 0.08639554679393768, -0.3522367477416992, 0.06827739626169205, -0.04349835216999054, -0.13773128390312195, 0.02094436250627041, -0.020770279690623283, -0.1516270488500595, 0.11382392793893814, -0.2079039365053177, 0.1678004115819931, 0.03240253031253815, -0.17724794149398804, 0.03265268728137016, -0.06252431869506836, 0.034501902759075165, 0.13535092771053314, -0.08815202862024307, -0.0006818004185333848, 0.00533406063914299, 0.06534740328788757, -0.4465145468711853, 0.06201375275850296, 0.023495206609368324, 0.48779627680778503, -0.14304900169372559, 0.16205112636089325, 0.05340613052248955, 0.09026399254798889, 0.12669090926647186, -0.024038227275013924, -0.2570264935493469, -0.3389475643634796, 0.19887675344944, -0.19253388047218323, 0.13405384123325348, 0.14773620665073395, 0.1727534979581833, -0.005578935611993074, -0.010215827263891697, -0.09399648755788803, -0.0688289999961853, -0.018205367028713226, -0.20021915435791016, -0.3765738308429718, 0.06737896054983139, 0.07370822131633759, 0.11673841625452042, 0.23488686978816986, 0.20909494161605835, -0.027251144871115685, -0.13242419064044952, 0.048071615397930145, 0.03695071116089821, -0.10288387537002563, 0.04957946389913559, -0.06618916988372803, 0.10031729191541672, -0.038568876683712006, 0.03009287267923355, 0.13396954536437988, 0.0977981835603714, -0.08930113911628723, -0.03593503311276436, 0.15868525207042694, -0.08865604549646378, 0.030663728713989258, -0.11285317689180374, -0.12484602630138397, -0.13452576100826263, 0.1950361728668213, -0.1630799025297165, 0.02752055414021015, -0.20192766189575195, -0.11883582919836044, 0.04114643111824989, 0.04893267899751663, 0.2854849398136139, 0.2611888349056244, -0.06864488124847412, -0.10220997780561447, -0.19877485930919647, -0.18044513463974, 0.27935338020324707, 0.13097915053367615, 0.0958184152841568, -0.1262601763010025, -0.004353449214249849, -0.28437963128089905, 0.2190195918083191, 0.1522841453552246, -0.2444123476743698, -0.26781851053237915, 0.19797182083129883, -0.09331129491329193, -0.20508289337158203, -0.0016862759366631508, 0.2712174952030182, -0.05326865613460541, -0.02575681358575821, -0.09608355909585953, 0.19350400567054749, 0.029563577845692635, 0.31710830330848694, -0.16771216690540314, 0.09346500039100647, -0.22655382752418518, -0.25886270403862, 0.14397065341472626, 0.2673337459564209, 0.15617185831069946, -0.30943578481674194, 0.08104173094034195, -0.19082169234752655, -0.028553670272231102, 0.23900127410888672, -0.06660787016153336, 0.02662630006670952, -0.058512941002845764, -0.18307267129421234, 0.0429641418159008, -0.100867360830307, -0.041952721774578094, 0.09361901879310608, -0.16521522402763367, -0.048646144568920135, -0.04052051901817322, 0.2157304435968399, -0.042457789182662964, -0.030750026926398277, 0.11441979557275772, -0.1736440658569336, 0.06051142141222954, 0.0033944626338779926, -0.01818251423537731, -0.010546870529651642, -0.07499673962593079, 0.05450437590479851, -0.19305332005023956, 0.142843097448349, -0.21216550469398499, 0.00047387537779286504, 0.018417319282889366, 0.07684247940778732, 0.2705438733100891, 0.02460440807044506, 0.09267386049032211, -0.025860268622636795, -0.15300609171390533, -0.34904608130455017, 0.0690084844827652, -0.005990360397845507, 0.31353288888931274, -0.08016040176153183, 0.019149236381053925, -0.11305153369903564, 0.11853009462356567, 0.11010083556175232, 0.05542523041367531, -0.11283624172210693, -0.02912001498043537, 0.09771892428398132, -0.11678972095251083, 0.0849633738398552, 0.04995300993323326, -0.01935466192662716, 0.1795559525489807, -0.16625452041625977, 0.11137574166059494, -0.18055780231952667, -0.07952245324850082, 0.3876441419124603, 0.10769252479076385, -0.1560395210981369, 0.1823551505804062, 0.11462277173995972, -0.11047046631574631, -0.06425724178552628, -0.1683395802974701, 0.08604741841554642, 0.18172284960746765, -0.358503520488739, 0.15279583632946014, -0.09920694679021835, 0.39932355284690857, -0.011893304996192455, -0.02755994163453579, -0.012134484946727753, -0.23914717137813568, -0.16651640832424164, 0.08623555302619934, -0.27367642521858215, -0.15089605748653412, 0.3897255063056946, -0.2043243646621704, 0.062405284494161606, 0.07398149371147156, 0.07103554904460907, 0.0524006187915802, -0.13405290246009827, 0.24512289464473724, -0.2789604663848877, 0.09794818609952927, -0.07654798030853271, -0.0409109853208065, 0.11773297935724258, 0.014994878321886063, -0.02527904137969017, -0.056390319019556046, 0.32138386368751526, -0.08597738295793533, 0.08600996434688568, 0.15556785464286804, -0.10716541111469269, 0.1971970945596695, -0.03791405260562897, 0.23761354386806488, -0.27564287185668945, -0.014947107061743736, 0.21396273374557495, -0.06346361339092255, -0.03621690347790718, 0.16421087086200714, -0.2004217952489853, -0.005303010810166597, -0.039179351180791855, -0.1333218663930893, 0.2074071764945984, 0.259015291929245, 0.15691934525966644, -0.17283819615840912, -0.0948265939950943, -0.09320221841335297, 0.027828248217701912, 0.18645434081554413, -0.22935235500335693, -0.09280814230442047, 0.2824395000934601, -0.20615747570991516, 0.28710228204727173, 0.022793369367718697, -0.2565177083015442, 0.279531329870224, -0.2515367865562439, -0.09829188138246536, -0.03069300763309002, -0.004794815089553595, 0.1662868857383728, -0.09288530051708221, -0.0011487421579658985, -0.025796430185437202, 0.0077376593835651875, 0.058566488325595856, 0.1070890724658966, 0.008325847797095776, 0.18848925828933716, -0.1363322138786316, 0.1691332459449768, -0.10747481137514114, -0.03701569885015488, -0.053636111319065094, 0.12596847116947174, -0.08960495889186859, -0.5115547180175781, 0.01392348762601614, -0.24421674013137817, 0.09635679423809052, -0.03794684633612633, -0.3370230793952942, -0.06378144025802612, 0.16966745257377625, 0.042433351278305054, -0.10449814051389694, 0.18594931066036224, 0.16807444393634796, -0.15759454667568207, -0.027276191860437393, -0.04696768894791603, 0.1593477725982666, -0.21039070188999176, -0.243015319108963, -0.07249005138874054, -0.05994633212685585, 0.06077224761247635, -0.30005452036857605, 0.0129801444709301, 0.23854152858257294, 0.2593466341495514, 0.1413019895553589, 0.20527799427509308, -0.20161710679531097, -0.14747783541679382, -0.1796582043170929, -0.018221909180283546, 0.07031305879354477, 0.20487183332443237, 0.3584413528442383, -0.03017456829547882, -0.1439668983221054, -0.07052981108427048, -0.19370323419570923, 0.05876149609684944, 0.1118532046675682, 0.17504166066646576, -0.0016142114764079452, -0.009319216944277287, 0.06711789965629578, -0.11966744065284729, -0.11082416027784348, 0.09184134006500244, -0.23633810877799988, 0.20056140422821045, -0.1132061630487442, 0.40425610542297363, 0.03169906884431839, 0.23609638214111328, 0.2318357527256012, 0.11248765140771866, -0.5040980577468872, 0.26416027545928955, -0.1310693770647049, 0.10834386199712753, -0.18968509137630463, 0.129535973072052, -0.004805644508451223, 0.31484368443489075, -0.1480102241039276, -0.23640333116054535, -0.034328870475292206, 0.04237973317503929, -0.014372936449944973, -0.04906603693962097, -0.03960099816322327, -0.14143666625022888, 0.03837243840098381, -0.00015000844723545015, 0.06850627064704895, 0.0727960541844368, 0.1124173104763031, 0.1823170781135559, 0.20120733976364136, 0.11041288077831268, 0.1489441841840744, 0.19176161289215088, -0.11443126946687698, -0.013231426477432251, 0.03399445861577988, -0.1617310494184494, -0.09435033053159714, 0.2534983158111572, -0.044706087559461594, 0.21078214049339294, 0.48031118512153625, 0.18480579555034637, -0.11948833614587784, -0.15033771097660065, 0.02362946979701519, -0.07144860923290253, 0.06479296088218689, -0.1451973021030426, 0.15789777040481567, 0.019331632182002068, -0.06580270826816559, -0.02129337377846241, 0.17395883798599243, 0.173117995262146, -0.046071428805589676, 0.19767454266548157, 0.1899988055229187, 0.027436021715402603, -0.08212975412607193, 0.00022487374371849, -0.16969729959964752, 0.20268641412258148, 0.3180452883243561, -0.1415187269449234, 0.1554913967847824, 0.03546030446887016, -0.23251716792583466, 0.17327794432640076, 0.07633869349956512, 0.3521890640258789, -0.10531134903430939, 0.09748199582099915, 0.03364742547273636, 0.046982623636722565, -0.0009162493515759706, -0.021734092384576797, 0.1950208991765976, -0.049551211297512054, -0.19575870037078857, 0.09942414611577988, 0.29587727785110474, 0.17066195607185364, 0.15758249163627625, 0.37936556339263916, 0.13351576030254364, 0.1817016303539276, 0.05734681338071823, 0.09950858354568481, 0.14543041586875916, 0.16360469162464142, -0.047945473343133926, -0.39997342228889465, -0.01641593500971794, -0.35857945680618286, -0.22957617044448853, 0.1250622570514679, -0.13464972376823425, 0.37647250294685364, 0.01949082687497139, -0.012814861722290516, 0.10412324219942093, -0.0877334401011467, 0.10624172538518906, 0.27701032161712646, -0.18772630393505096, -0.004589326214045286, -0.08412889391183853, 0.17764681577682495, -0.004211547318845987, -0.16727043688297272, -0.050309132784605026, -0.14865480363368988, -0.11848849803209305, -0.1643258035182953, 0.0002161933807656169, -0.15677066147327423, 0.10944116860628128, -0.05833445489406586, 0.24164004623889923, 0.10627760738134384, -0.014942486770451069, -0.12288585305213928, -0.07604201138019562, -0.07516857236623764, 0.2290508896112442, 0.04997413232922554, 0.31663742661476135, 0.3213171660900116, -0.06752762943506241, -0.09221392124891281, -0.18191079795360565, 0.1890072226524353, 0.18528765439987183, 0.16568931937217712, 0.12050473690032959, 0.15763074159622192, 0.24993786215782166, 0.11298874020576477, -0.045384276658296585, 0.0032800836488604546, 0.2770104706287384, 0.15160778164863586, 0.20393668115139008, -0.05011459067463875, 0.1390630006790161, -0.04875103756785393, 0.12795349955558777, 0.23798203468322754, 0.02739838883280754, -0.014585817232728004, 0.11657688021659851, -0.08618276566267014, 0.0853848084807396, 0.13245134055614471, 0.3190229535102844, -0.12143152952194214, -0.1968577802181244, -0.16052505373954773, -0.008956728503108025, -0.10393679887056351, -0.1456000953912735, 0.20849980413913727, -0.2336989939212799, -0.09456156939268112, -0.10333997756242752, 0.05613011494278908, -0.32683229446411133, 0.2237754911184311, -0.027752690017223358, 0.16000761091709137, 0.032624393701553345, 0.2562519311904907, -0.0063291979022324085, 0.07144752889871597, -0.11178548634052277, -0.3993682563304901, -0.0077071767300367355, 0.020685335621237755, -0.08620640635490417, -0.07960951328277588, 0.04956185072660446, -0.09423548728227615, 0.15200208127498627, 0.07398022711277008, -0.3666527569293976, 0.06637919694185257, 0.07721363008022308, 0.3501162827014923, 0.18574582040309906, 0.09527677297592163, 0.3435840606689453, 0.02794826589524746, -0.012260081246495247, -0.02165279909968376, -0.2529788315296173, -0.14057618379592896, -0.29152852296829224, -0.29404643177986145, 0.07369910925626755, 0.47806471586227417, 0.18551242351531982, 0.015279151499271393, 0.06495771557092667, 0.17340393364429474, -0.12416120618581772, -0.28678080439567566, 0.002344144508242607, -0.08201673626899719, -0.10666458308696747, -0.16840697824954987, 0.1042463555932045, 0.17324477434158325, 0.35632309317588806, 0.016255713999271393, -0.1533111184835434, -0.11467783153057098, 0.06773323565721512, 0.34452712535858154, 0.40488889813423157, -0.06013829633593559, -0.07197242975234985, -0.18093076348304749, -0.16904012858867645, -0.022891689091920853, -0.028715966269373894, 0.12831586599349976, -0.13104760646820068, -0.24741914868354797, -0.16828377544879913, -0.12527604401111603, -0.15343526005744934, -0.025756968185305595, -0.0933811292052269, -0.29573190212249756, 0.10121355950832367, -0.020704617723822594, 0.40877196192741394, -0.1803775429725647, 0.19323763251304626, -0.1675669401884079, 0.09247343242168427, -0.2181350737810135, -0.08700118958950043, 0.28038087487220764, -0.23236876726150513, -0.12988080084323883, -0.2822323143482208, -0.05558788403868675, 0.05824466422200203, 0.05833065137267113, 0.1895882934331894, -0.16101977229118347, 0.1557009369134903, -0.19450992345809937, 0.02619601972401142, -0.010029916651546955, -0.3045787513256073, -0.13645173609256744, 0.20383331179618835, -0.036316826939582825, -0.18310490250587463, -0.2705186903476715, 0.13279764354228973, 0.04868021979928017, -0.07767639309167862, 0.15502601861953735, -0.1951141655445099, -0.04202776029706001, 0.06552132964134216, -0.12351284176111221, 0.01751585304737091, -0.14695726335048676, -0.12433331459760666, -0.2901872992515564, -0.3783014714717865, -0.1174120232462883, 0.12373251467943192, -0.195962592959404, -0.03299736976623535, -0.04657655209302902, -0.20620694756507874, 8.690723188919947e-05, 0.11336705833673477, 0.07984330505132675, -0.12959767878055573, 0.0595923513174057, 0.15678176283836365, -0.007828321307897568, 0.19560246169567108, 0.011780776083469391, -0.0009494927944615483, 0.09892148524522781, 0.2505369484424591, -0.02251279726624489, -0.15093977749347687, 0.1758321225643158, -0.06895636022090912, -0.05904502421617508, 0.10953632742166519, -0.08674921095371246, 0.16215255856513977, 0.2360834926366806, -0.03975401073694229, -0.12996017932891846, -0.0022915152367204428, -0.2452099770307541, 0.04158532992005348, 0.36611559987068176, -0.1678106039762497, -0.003665030002593994, -0.12262140959501266, 0.17422907054424286, -0.17708532512187958, 0.1910793036222458, -0.012361004017293453, 0.24496892094612122, 0.0033170878887176514, -0.024513494223356247, 0.15469235181808472, 0.019541408866643906, 0.06792458146810532, 0.018275611102581024, 0.39704418182373047, 0.08573585748672485, -0.009348968043923378, 0.13609786331653595, -0.055761128664016724, 0.33366361260414124, 0.23797844350337982, -0.0838027149438858, -0.28652769327163696, -0.47123655676841736, 0.21243606507778168, 0.16121754050254822, -0.2633884847164154, 0.41933706402778625, 0.015032597817480564, 0.20643582940101624, 0.14654448628425598, 0.07662370800971985, 0.11601042002439499, -0.15463580191135406, -0.16554604470729828, 0.04172985255718231, 0.20158234238624573, 0.14887802302837372, -0.13486598432064056, 0.3092786967754364, -0.45382142066955566, 0.1513049304485321, -0.18623997271060944, 0.007848851382732391, -0.08763594180345535, -0.13228236138820648, -0.08282483369112015, -0.054996419697999954, 0.13114815950393677, 0.042173393070697784, -0.10439303517341614, -0.0033472897484898567, -0.08904686570167542, 0.08230628818273544, 0.2804632782936096, 0.048998650163412094, 0.013068699277937412, 0.01123374979943037, 0.0281726885586977, 0.2471625655889511, -0.13596969842910767, -0.02453448437154293, -0.20520412921905518, -0.24338510632514954, -0.03926170617341995, 0.36887139081954956, 0.0808899849653244, 0.10623525828123093, 0.3599787950515747, 0.042784370481967926, 0.06426441669464111, 0.07189003378152847, -0.007527125533670187, -0.0824487954378128, -0.1913212388753891, -0.2238141894340515, -0.25611454248428345, 0.17369037866592407, 0.11198907345533371, -0.14563710987567902, -0.1803610920906067, -0.00445707468315959, -0.10932974517345428, 0.00032351032132282853, -0.2727006673812866, -0.040498822927474976, -0.06722923368215561, 0.20237134397029877, -0.16955071687698364, 0.08669976890087128, -0.18726718425750732, -0.09351417422294617, 0.003512878203764558, -0.27759265899658203, 0.18818698823451996, -0.18560253083705902, -0.17806456983089447, -0.17064030468463898, -0.10846247524023056, 0.06431794166564941, 0.26893338561058044, 0.016664719209074974, -0.11119455844163895, -0.24645735323429108, -0.10310976207256317, -0.0784369707107544, -0.0696716457605362, 0.1949571669101715, -0.11730007827281952, 0.010825270786881447, -0.016198737546801567, -0.3303709924221039, -0.2680121660232544, -0.05115881189703941, 0.2661978304386139, -0.3139899969100952, 0.13702672719955444, -0.12730622291564941, 0.15226949751377106, 0.035578180104494095, 0.04078178107738495, 0.0869695395231247, -0.035868581384420395, 0.02239762805402279, -0.0865856483578682, -0.07224730402231216, 0.1405678242444992, -0.054901912808418274, -0.07174351066350937, 0.1491035521030426, 0.3770899176597595, -0.04390259087085724, -0.050439439713954926, 0.08647968620061874, 0.1567591279745102, 0.13513623178005219, 0.4439448416233063, -0.03951967880129814, 0.07681646943092346, 0.30597376823425293, 0.09014762192964554, 0.004167546983808279, 0.40823832154273987, 0.07532183080911636, 0.09358010441064835, -0.2506312131881714, 0.16947990655899048, -0.13511019945144653, 0.0815507248044014, 0.08432015776634216, -0.1633480191230774, -0.027943512424826622, -0.1346389502286911, 0.07355479151010513, 0.0026654787361621857, -0.2301938384771347, -0.13049688935279846, -0.03874971717596054, -0.15083637833595276, -0.02826087735593319, -0.06089917942881584, -0.32267484068870544, -0.06992828845977783, -0.1708383709192276, -0.09570953994989395, -0.14816297590732574, 0.06269438564777374, 0.04937112703919411, -0.3425419330596924, 0.053814176470041275, -0.05258281156420708, -0.13767461478710175, -0.14923034608364105, -0.19984157383441925, 0.2021569162607193, 0.03956244885921478, -0.03716336563229561, 0.31403428316116333, -0.19629596173763275, -0.07422030717134476, 0.04320255294442177, 0.020355558022856712, -0.16181759536266327, -0.5729676485061646, 0.11069579422473907, 0.2314678579568863, 0.3446369767189026, 0.061573002487421036, -0.013913889415562153, 0.2638615667819977, 0.19016867876052856, 0.02149529755115509, -0.18386875092983246, -0.12006547302007675, -0.03684919700026512, -0.04453223571181297, -0.033106036484241486, 0.08649669587612152, -0.22727888822555542, -0.06286273151636124, -0.1571042537689209, -0.0422559417784214, 0.07646667212247849, 0.05782930552959442, 0.43027839064598083, 0.026365341618657112, -0.014651892706751823, 0.17997321486473083, -0.08459898829460144, -0.16195335984230042, 0.15577362477779388, -0.1403718888759613, -0.17940440773963928, 0.336599200963974, 0.16445016860961914, -0.11002504080533981, -0.4413245618343353, 0.03124639391899109, -0.44849446415901184, 0.18226094543933868, -0.06330802291631699, 0.3729359209537506, 0.014259097166359425, -0.29085326194763184, 0.06936639547348022, 0.261958509683609, 0.15317022800445557, -0.0917874276638031, -0.19432231783866882, 0.1724793165922165, -0.2991853356361389, 0.12480875104665756, -0.37452390789985657, 0.16994312405586243, 0.11959221959114075, -0.3290804922580719, 0.14042308926582336, -0.054563749581575394, -0.0914640948176384, -0.27916279435157776, 0.10655873268842697, 0.405590295791626, 0.0985524132847786, -0.023004721850156784, -0.0014898506924510002, -0.12483346462249756, -0.15542830526828766, -0.03560498729348183, 0.3317202031612396, 0.14555566012859344, -0.057233165949583054, 0.4489121735095978, 0.06219129636883736, -0.19061878323554993, -0.032925643026828766, -0.13947802782058716, 0.0621294304728508, 0.41121354699134827, 0.3475179374217987, -0.27130696177482605, 0.3180975019931793, 0.11499612033367157, 0.46711698174476624, -0.07970530539751053, 0.10993457585573196, -0.18438942730426788, -0.3317691683769226, -0.20487022399902344, 0.16977590322494507, -0.006245133467018604, -0.042760591953992844, 0.08256682753562927, 0.056664302945137024, -0.025228457525372505, -0.12509937584400177, -0.31342533230781555, -0.21277889609336853, -0.14479520916938782, 0.08790247142314911, 0.024245217442512512, 0.05588683858513832, 0.14614100754261017, -0.1652277410030365, 0.026487264782190323, 0.08881856501102448, -0.0848182737827301, 0.06704878807067871, 0.15506520867347717, -0.08570539206266403, 0.11440121382474899, 0.03774267062544823, 0.03576391935348511, -0.03597687929868698, -0.16109512746334076, -0.04443221911787987, 0.14544762670993805, 0.12371914833784103, 0.18127886950969696, 0.04539874196052551, -0.01111312210559845, 0.05304490029811859, -0.19215929508209229, 0.1541614532470703, 0.15431822836399078, 0.15505161881446838, 0.2852530777454376, -0.03344679996371269, 0.059123579412698746, 0.17842137813568115, 0.05705278739333153, -0.1930912584066391, -0.2896464765071869, -0.45819586515426636, -0.16895540058612823, 0.7074922919273376, 0.07242042571306229, 0.3009900450706482, -0.1504422128200531, -0.014739081263542175, 0.13742969930171967, -0.24178458750247955, -0.091401107609272, 0.08222460001707077, -0.08707688003778458, 0.18502479791641235, -0.30043458938598633, 0.1535404473543167, -0.048419419676065445, 0.49434375762939453, -0.057770341634750366, -0.11673086136579514, -0.04395127668976784, -0.18846607208251953, -0.13376657664775848, 0.14696243405342102, 0.3676142394542694, 0.052914150059223175, 0.1566331833600998, -0.42811957001686096, 0.19032858312129974, 0.09638981521129608, 0.2215777039527893, 0.21691280603408813, 0.1387227177619934, -0.06931377202272415, 0.03517000377178192, 0.05254843458533287, -0.6405521631240845, 0.061553485691547394, -0.12460282444953918, -0.1386164277791977, -0.004408694803714752, 0.14551012217998505, -0.25681304931640625, -0.14680679142475128, 0.2404525876045227, -0.13748855888843536, -0.12299054116010666, -0.2125161737203598, 0.0005293752765282989, -0.08458198606967926, -0.0961504727602005, -0.05244554579257965, 0.18102982640266418, -0.0056168558076024055, 0.41850385069847107, 0.29573747515678406, -0.09366133064031601, 0.05781460553407669, 0.14017917215824127, -0.15453818440437317, 0.19022440910339355, -0.012857655063271523, -0.28959327936172485, 0.10541611164808273, 0.09797517210245132, 0.21045717597007751, -0.27522093057632446, -0.21932587027549744, 0.010160885751247406, -0.05991551652550697, -0.004791753366589546, -0.07066644728183746, -0.1537778228521347, -0.0506054051220417, 0.009412594139575958, 0.19974341988563538, 0.1351676881313324, -0.14790242910385132, -0.14968086779117584, 0.01699559949338436, -0.11972678452730179, 0.03649148717522621, -0.09755070507526398, 0.0013722998555749655, 0.12598884105682373, 0.14972582459449768, -0.25800779461860657, 0.08263256400823593, -0.12891177833080292, -0.0637945607304573, 0.26208266615867615, -0.06872647255659103, 0.07846038788557053, 0.058960314840078354, -0.034968599677085876, 0.020705804228782654, 0.1118738204240799, 0.36838605999946594, 0.0676274523139, 0.17069417238235474, 0.143466517329216, 0.07455510646104813, -0.02095024846494198, 0.15234753489494324, -0.09640748798847198, 0.11667465418577194, 0.11872147768735886, 0.009408394806087017, -0.09669077396392822, 0.10782647132873535, 0.0385998971760273, 0.1450052559375763, -0.027204962447285652, 0.04468667879700661, -0.31422337889671326, -0.23641672730445862, 0.7685813307762146, 0.3551928400993347, -0.25750160217285156, 0.015597610734403133, -0.20957641303539276, 0.009231749922037125, 0.5017162561416626, -0.7407332062721252, 0.8696046471595764, 0.7043286561965942, 0.0734255239367485, -0.1190364882349968, 0.18938665091991425, -0.523323118686676, 0.10534676164388657, -0.1723041534423828, -0.1866118162870407, -0.19687144458293915, 0.1344519853591919, 0.05377810075879097, 0.08236400783061981, -0.10877934098243713, 0.028638731688261032, 0.0384400337934494, 0.1083025112748146, -0.13930293917655945, -0.015689104795455933, 0.17253734171390533, 0.06105153635144234, -0.13059940934181213, 0.19481900334358215, -0.11412686109542847, 0.022374946624040604, 0.012998390942811966, 0.028220713138580322, 0.22652359306812286, 0.0915876254439354, -0.2081838846206665, -0.34350746870040894, 0.1185605376958847, 0.19267061352729797, -0.059335436671972275, 0.03591245412826538, 0.21381103992462158, -0.015381385572254658, -0.13210038840770721, 0.21221621334552765, -0.1650683581829071, 0.08351071178913116, -0.127120241522789, 0.12653490900993347, 0.008836672641336918, -0.06386009603738785, -0.24160465598106384, -0.13652156293392181, -0.08648909628391266, -0.02777542918920517, 0.38207530975341797, 0.15519306063652039, -0.3921692371368408, -0.08057615906000137, -0.10856007039546967, 0.2718604505062103, 0.10549791157245636, 0.06522146612405777, 0.05907431244850159, -0.2986357510089874, 0.1414595991373062, -0.06310684233903885, 0.11037346720695496, -0.03343408554792404, 0.09762006998062134, 0.09836317598819733, 0.2486228346824646, -0.06082766875624657, 0.11653819680213928, -0.046008456498384476, 0.017105739563703537, 0.07095728069543839, -0.27052804827690125, -0.09590407460927963, -0.16544616222381592, 0.15718980133533478, -0.05540963634848595, 0.2896438539028168, -0.023379096761345863, -0.05031028762459755, -0.18131192028522491, -0.0965411439538002, -0.12450061738491058, -0.23148487508296967, -0.06330370903015137, 0.2023063749074936, -0.21798881888389587, -0.21540296077728271, 0.06611407548189163, -0.16171880066394806, -0.08262623101472855, -0.19596068561077118, -0.1314401924610138, 0.12083196640014648, -2.075240627164021e-05, 0.16209569573402405, -0.26283758878707886, 0.04936853051185608, 0.23266161978244781, -0.12723028659820557, 0.13610289990901947, 0.13194428384304047, 0.006660138256847858, 0.04076497256755829, -0.1519683599472046, -0.23913642764091492, -0.10441799461841583, 0.3715212345123291, 0.07159941643476486, 0.10563206672668457, 0.0032384349033236504, -0.20785580575466156, 0.063056081533432, 0.10561765730381012, 0.017007986083626747, 0.07754683494567871, 0.15628430247306824, 0.0080748675391078, 0.02283211424946785, 0.19264404475688934, -0.14677628874778748, -0.243463933467865, -0.1915787160396576, 0.18947353959083557, -0.25758323073387146, 0.26218336820602417, -0.20879773795604706, 0.09003356844186783, 0.0110767912119627, 0.10371316969394684, -0.023373112082481384, 0.006326653994619846, 0.29060930013656616, 0.06578722596168518, -0.08519309014081955, -0.2414512187242508, 0.00031615750049240887, 0.14522910118103027, 0.17856886982917786, 0.03335535153746605, 0.07403290271759033, -0.0034111468121409416, 0.052848171442747116, -0.20132727921009064, -0.2590062916278839, 0.04623270407319069, 0.09995734691619873, -0.15940561890602112, 0.013298780657351017, -0.04488154128193855, 0.06165493652224541, 0.26551446318626404, -0.18547415733337402, -0.04517589882016182, -0.013424398377537727, -0.16397613286972046, -0.17079918086528778, 0.11120312660932541, -0.14973071217536926, -0.27384042739868164, 0.08100800216197968, 0.112635537981987, -0.032690469175577164, -0.05130549520254135, 0.20786187052726746, 0.15035028755664825, -0.20303761959075928, 0.03938644006848335, -0.040100548416376114, -0.039397988468408585, -0.12680527567863464, 0.01160510815680027, -0.040527887642383575, 0.004526366479694843, -0.09427960962057114, 0.12923699617385864, 0.10797147452831268, -0.0009482270106673241, 0.054983772337436676, 0.009871278889477253, -0.3474098742008209, 0.012723226100206375, 0.09246963262557983, 0.13623112440109253, 0.051516223698854446, 0.1609705239534378, 0.04053009673953056, -0.2970605790615082, 0.028945179656147957, 0.09368209540843964, 0.10720515251159668, -0.1685313731431961, -0.25972387194633484, -0.06001356244087219, 0.50749272108078, -0.09875038266181946, -0.05580576881766319, 0.175710991024971, -0.30094924569129944, -0.3860127925872803, 0.08589388430118561, -0.08342841267585754, 0.14911159873008728, 0.3658844530582428, 0.2399664968252182, -0.0805392935872078, 0.02477504126727581, 0.13348279893398285, -0.07642553001642227, -0.209405779838562, -0.14791151881217957, -0.07847609370946884, -0.32659363746643066, 0.07619240134954453, 0.12847498059272766, -0.3721058666706085, -0.08397067338228226, -0.15146006643772125, -0.00020756317826453596, 0.16828152537345886, -0.027441978454589844, 0.17110908031463623, -0.18228653073310852, 0.047281842678785324, -0.0700446292757988, -0.01639091968536377, -0.06250083446502686, -0.059454742819070816, 0.010467546060681343, -0.03268499672412872, 0.034403491765260696, 0.017647316679358482, -0.019481638446450233, -0.07872994244098663, -0.017262998968362808, -0.015649976208806038, 0.07204558700323105, 0.2535461485385895, -0.06920239329338074, 0.11758273839950562, -0.09852436929941177, 0.0804719552397728, 0.16806383430957794, -0.09922335296869278, 0.0560566708445549, 0.08488699793815613, -0.34156832098960876, -0.0020637153647840023, -0.16674639284610748, -0.2088673710823059, -0.26093462109565735, -0.21212980151176453, -0.2817360460758209, 0.2620638906955719, -0.17499347031116486, -0.12280019372701645, 0.17015662789344788, 0.24593672156333923, 0.11978307366371155, -0.06747476756572723, 0.25711533427238464, -0.03464926779270172, -0.10504946112632751, 0.1377297043800354, -0.02511892281472683, 0.15456491708755493, 0.10191439837217331, 0.06509163975715637, 0.0997532308101654, 0.07627270370721817, -0.060014836490154266, -0.1302649825811386, -0.13007763028144836, 0.11010615527629852, 0.008342262357473373, 0.16821961104869843, 0.1583816409111023, -0.035644907504320145, 0.08686771988868713, 0.06338445097208023, -0.09299832582473755, 0.01918826997280121, -0.15266568958759308, -0.2539536952972412, -0.03136002644896507, 0.21518844366073608, 0.11488858610391617, -0.02237851731479168, -0.043513230979442596, -0.16833288967609406, 0.14014004170894623, -0.09293309599161148, -0.2650126516819, -0.04284820333123207, 0.08567451685667038, -0.043736305087804794, 0.07682892680168152, 0.0023001311346888542, -0.22686070203781128, -0.38764700293540955, -0.24357300996780396, 0.1414688378572464, 0.09611492604017258, -0.0771607831120491, -0.35005590319633484, 0.26749953627586365, 0.05392157658934593, 0.09824690967798233, 0.112632155418396, -0.06047974154353142, -0.1768011450767517, 0.45917579531669617, 0.09822937101125717, -0.11673431098461151, 0.11140277981758118, -0.1703583151102066, -0.07905540615320206, -0.2524692416191101, -0.01945413090288639, -0.1225874125957489, -0.1647229790687561, -0.17124633491039276, -0.24678002297878265, -0.33135828375816345, 0.21769866347312927, 0.1475340723991394, 0.33486270904541016, 0.009773909114301205, 0.25051745772361755, -0.04338450729846954, 0.10689494758844376, -0.1971113234758377, 0.24656972289085388, -0.051328446716070175, -0.10129521787166595, -0.09987029433250427, 0.15135660767555237, -0.057714954018592834, 0.1538969874382019, -0.03492356464266777, 0.06218376383185387, 0.02616037055850029, -0.10701406002044678, 0.04625973850488663, -0.10520663857460022, -0.15809741616249084, 0.048557210713624954, 0.3228960931301117, 0.036614108830690384, 0.12338816374540329, -0.08797338604927063, 0.0013715435052290559, -0.016010332852602005, 0.025306597352027893, 0.0006314590573310852, 0.26225554943084717, 0.06409688293933868, -0.18977348506450653, -0.15260885655879974, -0.38829830288887024, -0.040282513946294785, -0.017697084695100784, -0.2853474020957947, 0.07519655674695969, -0.12673291563987732, -0.32467538118362427, -0.04896673187613487, 0.06348099559545517, -0.14089375734329224, -0.16430917382240295, -0.1726623922586441, 0.034584518522024155, -0.09548567235469818, 0.4335225522518158, -0.06030159816145897, -0.09443938732147217, -0.12448950111865997, -0.1188148558139801, -0.08169833570718765, -0.08421587944030762, -0.30930912494659424, -0.17154984176158905, -0.10129142552614212, 0.1759098768234253, 0.041740741580724716, 0.06263746321201324, 0.12133610248565674, 0.12705641984939575, -0.06958203762769699, -0.11432233452796936, -0.06802177429199219, -0.3346792757511139, 0.06248658150434494, 0.02491769939661026, -0.17624366283416748, -0.10445450991392136, 0.026972217485308647, -0.08683677762746811, 0.10935265570878983, -0.17636749148368835, -0.2680889368057251, -0.12188770622015, 0.11853917688131332, -0.0012236812617629766, 0.06282953172922134, -0.038963355123996735, -0.11716077476739883, -0.15768100321292877, 0.10477428138256073, -0.17228172719478607, 0.047389645129442215, 0.019118400290608406, -0.10304152965545654, -0.11205858737230301, -0.06204727292060852, 0.07729151844978333, -0.20138011872768402, 0.07852192968130112, -0.33618733286857605, -0.3287879526615143, 0.018404364585876465, 0.1625605821609497, 0.05884714797139168, 0.07325289398431778, 0.24121518433094025, -0.20852826535701752, 0.20279920101165771, 0.24418793618679047, 0.015016423538327217, 0.07853910326957703, 0.14473700523376465, -0.11817586421966553, -0.08052278310060501, 0.44941139221191406, 0.1021481305360794, 0.07070857286453247, 0.15286485850811005, -0.26415562629699707, -0.016762100160121918, -0.07786644250154495, -0.12948697805404663, 0.21193884313106537, 0.25921955704689026, 0.016048112884163857, 0.02517499029636383, -0.011120318435132504, -0.17456430196762085, 0.07121971249580383, 0.14427126944065094, 0.09345725178718567, -0.1489662379026413, -0.040128275752067566, -0.12794014811515808, -0.07001382857561111, 0.06876274198293686, -0.166233628988266, -0.09677907824516296, 0.5062115788459778, 0.08617523312568665, 0.0012246208498254418, 0.08394984155893326, 0.004042948130518198, 0.002980755642056465, 0.02732456848025322, -0.12736459076404572, 0.029347365722060204, 0.21389786899089813, -0.20269110798835754, -0.1200757771730423, 0.026074407622218132, -0.3519100546836853, 0.13199074566364288, -0.12694282829761505, -0.24614989757537842, 0.1142718717455864, 0.5947957634925842, -0.14728491008281708, -0.0226595401763916, 0.45757853984832764, -0.18315944075584412, 0.27010300755500793, 0.3098481595516205, 0.13830167055130005, 0.1244875118136406, -0.19365333020687103, -0.30876511335372925, -0.304380863904953, 0.25394201278686523, 0.11529339104890823, -0.12812986969947815, 0.18195626139640808, 0.03321576490998268, -0.0036785269621759653, -0.09028898179531097, -0.44881585240364075, -0.01148994266986847, 0.14488962292671204, 0.0633625015616417, -0.12064020335674286, -0.1809224635362625, -0.1972654163837433, 0.11418234556913376, 0.08372186124324799, -0.41786903142929077, 0.1486496776342392, 0.41908740997314453, 0.12362933158874512, -0.15726366639137268, -0.24028697609901428, -0.23683364689350128, -0.2409619688987732, -0.04606195166707039, -0.12123338133096695, -0.11276156455278397, 0.19403624534606934, -0.39872992038726807, 0.09214970469474792, -0.1342262625694275, -0.11843442171812057, -0.010660810396075249, 0.06448397040367126, -0.07730160653591156, -0.09623487293720245, 0.038404520601034164, -0.29263433814048767, 0.10131897032260895, 0.32103657722473145, 0.05518118292093277, -0.1520683318376541, -0.0836990624666214, -0.2327146977186203, 0.08805052936077118, -0.06200181692838669, -0.2436467856168747, -0.17821720242500305, -0.01935506798326969, 0.12323369085788727, -0.05207476392388344, 0.31344467401504517, -0.12055285274982452, 0.00022402152535505593, 0.14110685884952545, -0.052896175533533096, -0.14424419403076172, 0.08557742834091187, -0.005737433210015297, -0.02433769404888153, 0.035128213465213776, -0.12104269117116928, -0.12390776723623276, -0.24998368322849274, -0.39072152972221375, -0.11305539309978485, -0.06600203365087509, 0.2776940166950226, -0.05395560711622238, -0.0485067293047905, -0.1935720443725586, -0.15091323852539062, -0.07994275540113449, -0.1242060661315918, -0.08251439779996872, 0.22272568941116333, -0.07656676322221756, 0.00873587280511856, 0.08856985718011856, 0.045481566339731216, 0.12688405811786652, 0.09358664602041245, -0.2010611891746521, -0.11363288015127182, -0.4113883078098297, -0.0665748119354248, -0.023013431578874588, -0.1989923119544983, 0.3154861629009247, 0.04131966084241867, -0.2095802128314972, -0.25039994716644287, -0.0268864743411541, -0.030220767483115196, -0.30795273184776306, -0.10931601375341415, 0.009396422654390335, 0.10835234075784683, -0.251312255859375, -0.33400359749794006, -0.05373602360486984, 0.020203210413455963, 0.08989010751247406, 0.09475485235452652, 0.10110607743263245, -0.04183543846011162, -0.008180280216038227, -0.009907928295433521, 0.07610976696014404, -0.04696142300963402, 0.23799940943717957, -0.13109640777111053, 0.21702605485916138, 0.0934080109000206, -0.27844488620758057, -0.21373632550239563, 0.30196574330329895, -0.10473091900348663, 0.10740714520215988, -0.10804954916238785, -0.02289886586368084, 0.01755126751959324, 0.06136500462889671, -0.08167576044797897, 0.06438195705413818, 0.07771971821784973, -0.014855093322694302, -0.1927659958600998, -0.23458606004714966, -0.037950046360492706, 0.044709332287311554, -0.23570793867111206, 0.02990073338150978, 0.2655578851699829, -0.13700321316719055, -0.06928779929876328, 0.43570247292518616, -0.2746271789073944, -0.092946857213974, 0.1465238630771637, -0.14911414682865143, 0.21996288001537323, 0.1114082932472229, 0.2756591737270355, -0.04207765683531761, 0.08328361809253693, 0.05490428954362869, 0.03803088143467903, -0.0024662085343152285, -0.08874676376581192, 0.06032111495733261, 0.05518234893679619, 0.296597957611084, 0.036340560764074326, 0.11337557435035706, -0.22015675902366638, -0.06785096973180771, 0.1373327523469925, -0.2834662199020386, -0.030538739636540413, 0.19252808392047882, -0.13434448838233948, -0.19044271111488342, 0.10311707109212875, 0.17257648706436157, 0.19731590151786804, 0.1931784749031067, 0.3141179084777832, -0.0036805905401706696, -0.11336761713027954, 0.055642805993556976, 0.17359542846679688, 0.20441128313541412, -0.1578463613986969, -0.10658352822065353, 0.042678892612457275, -0.0005829765577800572, 0.32221364974975586, -0.052588023245334625, 0.17932946979999542, 0.07401582598686218, -0.07625970989465714, -0.06432464718818665, -0.26332950592041016, 0.13355806469917297, -0.05095117539167404, 0.03022981621325016, 0.04339186102151871, -0.09405801445245743, 0.20377115905284882, -0.2383992224931717, -0.014130493625998497, -0.11466959118843079, -0.08005006611347198, -0.023628080263733864, 0.020671343430876732, -0.048419106751680374, -0.00800340250134468, -0.019793333485722542, -0.22444693744182587, -0.10543674230575562, -0.023802923038601875, -0.11190612614154816, 0.2003859281539917, 0.18735647201538086, -0.27546215057373047, 0.004912600852549076, 0.09774655848741531, -0.11949983984231949, 0.1236962378025055, -0.08407147228717804, -0.1607334315776825, -0.04147035628557205, -0.15551283955574036, -0.16928203403949738, -0.18071836233139038, 0.02242927812039852, 0.0693410187959671, 0.002950263675302267, -0.06483305245637894, -0.14269456267356873, 0.21177011728286743, 0.0879688486456871, 0.03933842107653618, 0.019593922421336174, 0.04882289841771126, 0.012487925589084625, 0.2344379723072052, 0.08506284654140472, 0.14303907752037048, 0.20117084681987762, 0.12126147747039795, 0.1802733987569809, 0.06112628057599068, -0.029101183637976646, -0.28399425745010376, 0.10709057003259659, -0.20351313054561615, 0.07656987011432648, -0.12531083822250366, 0.31201985478401184, 0.1247435063123703, -0.10641505569219589, 0.008579973131418228, 0.355042427778244, -0.10747753083705902, -0.09203314781188965, -0.02311607636511326, -0.15746529400348663, -0.011565184220671654, -0.2784118354320526, -0.08359401673078537, -0.05483989790081978, -0.0580640509724617, -0.007587540429085493, 0.1518646478652954, -0.12446132302284241, -0.12360711395740509, -0.31933847069740295, -0.24045903980731964, 0.28085270524024963, -0.21567431092262268, 0.017046421766281128, -0.1969185322523117, 0.1162627711892128, -0.14425721764564514, -0.014390177093446255, 0.10508314520120621, -0.2989996671676636, 0.0909186378121376, -0.047325246036052704, 0.09443508833646774, -0.0175215732306242, -0.24161715805530548, -0.05192305147647858, 0.23381881415843964, 0.08175154775381088, -0.13926932215690613, 0.08293870091438293, 0.18334385752677917, 0.1419888585805893, 0.06811118125915527, -0.15307141840457916, -0.12707532942295074, -0.18598362803459167, -0.26775211095809937, -0.15638330578804016, -0.013262960128486156, 0.035905033349990845, 0.20080876350402832, 0.11115672439336777, 0.061684105545282364, -0.25156915187835693, 0.00440858444198966, -0.22490723431110382, -0.3366572856903076, 0.004841967951506376, 0.10193925350904465, 0.11251857131719589, -0.020855484530329704, -0.15922875702381134, -0.13358129560947418, 0.05228672921657562, 0.14400474727153778, 0.211835578083992, 0.11484405398368835, 0.0054541886784136295, -0.19169758260250092, -0.029151953756809235, -0.04839572682976723, 0.607012927532196, -0.043796077370643616, 0.24031813442707062, 0.1247793510556221, -0.012575809843838215, 0.09333481639623642, -0.07390373200178146, 0.03891810402274132, -0.03813259303569794, -0.18587765097618103, -0.04635545611381531, -0.07843883335590363, 0.1964988112449646, 0.01390631590038538, 0.1980942338705063, -0.2118992954492569, 0.074834905564785, 0.08845824003219604, -0.22067993879318237, -0.1628476083278656, -0.2467302531003952, -0.08089210838079453, -0.06336101144552231, -0.2820855975151062, 0.3253542482852936, -0.2886723279953003, -0.09638025611639023, -0.2389688640832901, -0.05420413613319397, 0.27839386463165283, -0.483104407787323, 0.04233695566654205, -0.15023934841156006, 0.25909942388534546, 0.10929344594478607, 0.10387851297855377, -0.04156358540058136, -0.1183905079960823, 0.04353151097893715, 0.29617568850517273, 0.21772640943527222, -0.10921037942171097, 0.011161700822412968, 0.35753557085990906, -0.09886078536510468, -0.010604922659695148, 0.07564158737659454, 0.21811969578266144, -0.07058792561292648, 0.08098775148391724, -0.03600537031888962, 0.007479322608560324, -0.005918456241488457, -0.3734741508960724, -0.2263595461845398, 0.07328324764966965, -0.20032796263694763, 0.23931646347045898, 0.030744409188628197, 0.1731662154197693, -0.06453737616539001, -0.09010322391986847, -0.2915579378604889, -0.03696309030056, -0.15217426419258118, -0.3314395248889923, -0.19853824377059937, 0.09044886380434036, -0.16702435910701752, -0.21001166105270386, -0.018784400075674057, 0.24324709177017212, -0.1457403600215912, 0.09576033800840378, -0.2130631059408188, -0.10342635214328766, -0.01043662428855896, -0.1991243213415146, 0.13169902563095093, 0.07807208597660065, 0.31229913234710693, 0.018713759258389473, 0.055110249668359756, -0.07738115638494492, -0.40382784605026245, -0.22573146224021912, 0.2661103308200836, -0.12350688874721527, -0.30249205231666565, -0.3420109450817108, -0.0677301287651062, -0.10732147842645645, 0.15301300585269928, -0.06886008381843567, 0.022854624316096306, -0.17392775416374207, 0.14842016994953156, 0.17869411408901215, -0.22775651514530182, 0.2855103015899658, -0.07368984073400497, -0.18917830288410187, 0.06764725595712662, -0.10869328677654266, 0.3496396541595459, -0.15046483278274536, -0.04114435240626335, -0.1608504056930542, 0.026655474677681923, 0.16352182626724243, 0.018156396225094795, -0.03875052556395531, -0.4238314628601074, -0.1547655463218689, -0.057862214744091034, 0.2670431137084961, 0.28150638937950134, 0.20593655109405518, 0.1495829075574875, -0.11069666594266891, 0.20626872777938843, -0.02381059154868126, 0.06090429425239563, 0.18506307899951935, -0.11741369217634201, 0.02148500457406044, -0.15336184203624725, -0.04965947940945625, 0.15111951529979706, -0.030649680644273758, -0.033574365079402924, -0.22712355852127075, 0.02635437622666359, -0.13417194783687592, -0.11346591264009476, 0.23188820481300354, -0.07155855000019073, -0.11962056905031204, 0.13127128779888153, 0.026205651462078094, 0.08078499883413315, 0.308929979801178, -0.07736140489578247, -0.17271265387535095, -0.3320601284503937, 0.03633353114128113, -0.10081064701080322, -0.0043204049579799175, 0.018146757036447525, -0.0321275033056736, 0.32476377487182617, -0.13282173871994019, -0.0002284427609993145, 0.1657681167125702, -0.16256804764270782, -0.09996981918811798, 0.133706197142601, -0.11651290953159332, -0.3899071216583252, 0.22966013848781586, -0.07220450788736343, -0.35119274258613586, 0.03588476777076721, -0.009356165304780006, -0.001147816190496087, 0.11498934775590897, -0.13565388321876526, -0.11349069327116013, -0.03875260427594185, 0.1484791487455368, -0.2716233730316162, -0.21137702465057373, 0.03214940056204796, -0.12544161081314087, -0.045462775975465775, -0.1108444333076477, 0.051994092762470245, 0.03599461540579796, 0.04894498363137245, 0.12241605669260025, 0.18440333008766174, -0.19438466429710388, 0.14944994449615479, 0.08650826662778854, -0.09906169772148132, -0.4076116979122162, 0.18744874000549316, 0.07614085078239441, -0.229775533080101, -0.2567993700504303, -0.30064284801483154, -0.10295339673757553, -0.332402765750885, 0.11069151014089584, 0.11119512468576431, 0.04146905615925789, -0.08276203274726868, -0.48400169610977173, 0.03965657204389572, -0.06180635839700699, 0.1392161101102829, 0.06835722178220749, -0.07797359675168991, 0.12790268659591675, 0.2217888981103897, -0.15348279476165771, -0.10116475820541382, -0.038539689034223557, -0.09261702001094818, -0.3537884056568146, -0.0754299983382225, 0.30244895815849304, -0.1803707331418991, 0.13169877231121063, -0.014444762840867043, 0.03481994941830635, 0.28187158703804016, -0.24524855613708496, -0.1743035614490509, -0.016425790265202522, 0.02179711125791073, -0.2649475634098053, -0.28280138969421387, -0.026737971231341362, 0.11683594435453415, 0.0232563354074955, 0.06656552106142044, -0.1784842163324356, -0.3743596374988556, -0.15341435372829437, -0.00945664756000042, 0.2147647738456726, -0.11481138318777084, -0.10956297814846039, 0.016823582351207733, 0.00912198144942522, -0.30772826075553894, -0.011068285442888737, -0.0597684420645237, -0.11388950794935226, -0.17886699736118317, -0.17945727705955505, -0.21928933262825012, 0.08317162096500397, 0.05134836956858635, -0.03975818678736687, 0.1865892857313156, -0.10629203170537949, -0.1944505274295807, 0.3407149314880371, 0.14539220929145813, -0.007513142190873623, 0.13934005796909332, -0.08570381999015808, 0.09428055584430695, 0.05555306747555733, 0.07750949263572693, -0.13282807171344757, 0.03512997552752495, -0.12716804444789886, 0.027465613558888435, 0.02616945281624794, -0.021079614758491516, 0.12534776329994202, -0.016498766839504242, 0.07919330894947052, 0.7387129068374634, 0.009713555686175823, 0.3899441063404083, -1.0967737436294556, -0.4866671562194824, -0.11387060582637787, 0.407751202583313, 0.11176249384880066, 0.023900724947452545, 0.3045334219932556, -0.11686975508928299, 0.3082619309425354, -0.2409704625606537, -0.5314831733703613, -0.08496706187725067, -0.317367285490036, -0.04603710025548935, -0.2398359477519989, -0.043147552758455276, -0.1652391403913498, -0.028682036325335503, 0.02443668060004711, -0.13026101887226105, 0.003681262955069542, -0.16488058865070343, -0.006914891302585602, 0.018376849591732025, 0.08266417682170868, 0.03851182758808136, -0.02526039443910122, 0.022457093000411987, 0.0676044300198555, -0.05362458899617195, -0.35176190733909607, 0.014948757365345955, -0.20118704438209534, -0.053250111639499664, -0.09868694096803665, -0.027831584215164185, -0.035561103373765945, -0.2699960470199585, -0.004766424652189016, -0.029766717925667763, 0.1202845647931099, -0.01496483851224184, 0.08342230319976807, 0.0825812891125679, 0.1819458156824112, 0.06712760031223297, 0.2658740282058716, -0.010329772718250751, -0.12286442518234253, -0.06841482222080231, 0.009438304230570793, 0.05267767608165741, 0.22513043880462646, 0.09426538646221161, -0.07826648652553558, -0.1214095801115036, -0.10549873113632202, -0.4180395305156708, 0.09410426765680313, 0.05651317164301872, -0.030696505680680275, -0.18910157680511475, 0.0865858644247055, -0.08748796582221985, 0.13900351524353027, 0.010235114023089409, 0.0002498904359526932, 0.19347040355205536, 0.05014832317829132, -0.15553151071071625, 0.22614578902721405, -0.11453021317720413, -0.14099611341953278, 0.2982293963432312, -0.0679776668548584, 0.06977813690900803, -0.10476989299058914, -0.048308033496141434, 0.02997155860066414, 0.03712313994765282, -0.03108767792582512, 0.11795151978731155, -0.12613165378570557, 0.06229158490896225, -0.1969878077507019, 0.1402394026517868, 0.25697875022888184, 0.09500807523727417, -0.020204447209835052, -0.24821829795837402, -0.1386387050151825, -0.21529333293437958, -0.1949308216571808, -0.20045578479766846, 0.29183024168014526, -0.07323861867189407, 0.20954814553260803, -0.17333993315696716, 0.11720607429742813, 0.04520897567272186, 0.11703560501337051, 0.2075173407793045, 0.007925030775368214, -0.05686972662806511, 0.30060601234436035, -0.07627614587545395, -0.20293235778808594, -0.2724364101886749, -0.02818184718489647, -0.19648461043834686, -0.234037846326828, -0.1384570300579071, -0.10526064038276672, -0.18949276208877563, -0.14466989040374756, -0.017217526212334633, 0.2636150121688843, -0.366836816072464, 0.053431760519742966, 0.06081495061516762, 0.12474717944860458, -0.16941002011299133, 0.06537236273288727, 0.19218213856220245, -0.06894926726818085, -0.2437659353017807, 0.23652620613574982, -0.08361738920211792, 0.03162891045212746, 0.07382737845182419, -0.19798292219638824, -0.2943713963031769, 0.12215077877044678, 0.06745350360870361, -0.08630146831274033, 0.2282867580652237, 0.010322041809558868, 0.0066568064503371716, 0.14061151444911957, 0.1321542114019394, 0.1921503245830536, -0.2903572618961334, 0.0890655368566513, 0.03821498155593872, -0.015064745210111141, 0.08815885335206985, -0.10200637578964233, -0.19748544692993164, -0.11430222541093826, 0.08658666908740997, 0.3993985056877136, 0.12289877980947495, -0.01789267733693123, 0.31998881697654724, -0.054870691150426865, 0.1384461671113968, 0.23497475683689117, 0.13858795166015625, 0.18645134568214417, 0.11035821586847305, -0.0186490248888731, 0.06645263731479645, 0.11430947482585907, -0.3232537508010864, -0.03654872626066208, -0.028461256995797157, -0.15859466791152954, 0.37994831800460815, -0.03828534856438637, 0.1315329670906067, 0.06638169288635254, 0.07296355813741684, 0.026144543662667274, -0.2925579249858856, 0.3066690266132355, -0.05607559159398079, 0.05296487361192703, -0.012500393204391003, -0.019389811903238297, 0.1835796982049942, -0.2628922462463379, 0.37143632769584656, 0.13440680503845215, -0.26203349232673645, -0.022227425128221512, 0.01465168409049511, -0.22065120935440063, -0.1615898758172989, -0.058122821152210236, 0.06244927644729614, 0.298209547996521, -0.017456043511629105, -0.08709263801574707, -0.08653111010789871, -0.17289817333221436, 0.05556454882025719, 0.11478161811828613, -0.14974193274974823, 0.032092634588479996, 0.2116357833147049, 0.11455240845680237, -0.4095998704433441, 0.20335596799850464, -0.15067216753959656, -0.21397458016872406, 0.11136548966169357, 0.2359447032213211, 0.17175140976905823, 0.11535485088825226, 0.027131006121635437, -0.03578866273164749, 0.0005740051856264472, -0.13044017553329468, 0.22254864871501923, 0.048420827835798264, -0.3492383062839508, -0.12487314641475677, -0.2722139358520508, 0.04544580727815628, -0.10385151952505112, -0.14834697544574738, -0.12470439821481705, 0.2180633395910263, 0.10225482285022736, 0.1342017501592636, 0.1447819322347641, 0.10582800954580307, 0.09986817091703415, -0.022338703274726868, 0.12284941971302032, 0.1958339959383011, -0.0997803658246994, -0.1838882565498352, -0.2236645221710205, -0.24492165446281433, -0.018651796504855156, -0.09691217541694641, 0.22325508296489716, 0.011977328918874264, 0.17466486990451813, 0.039316363632678986, -0.06717770546674728, 0.057441867887973785, 0.02796638011932373, 0.04995879530906677, -0.13775843381881714, 0.05709631368517876, -0.2764092683792114, 0.001158009865321219, -0.14500775933265686, -0.011466114781796932, 0.07627903670072556, 0.03378898650407791, -0.3049081265926361, 0.15563036501407623, -0.301725298166275, -0.23535816371440887, -0.15185917913913727, -0.19103403389453888, -0.01474158838391304, -0.14152958989143372, -0.11651917546987534, 0.2905314564704895, -0.0017474987544119358, 0.12216509878635406, 0.3240419328212738, -0.21710428595542908, 0.1317230612039566, 0.06385405361652374, -0.12472560256719589, 0.04277868941426277, 0.04106635972857475, 0.015207313001155853, 0.05398714169859886, -0.019482510164380074, 0.041336219757795334, 0.015867313370108604, 0.005392288323491812, 0.08316042274236679, 0.04820159450173378, 0.009176976047456264, 0.00024341390235349536, -0.09797973185777664, -0.030044078826904297, 0.07099901139736176, 0.15222330391407013, -0.0920116975903511, 0.12215003371238708, 0.03991152346134186, 0.04196808859705925, -0.04782889410853386, 0.12919458746910095, -0.10228630900382996, -0.08694837987422943, -0.22035281360149384, 0.06982466578483582, -0.14060498774051666, 0.01407591812312603, 0.04536917060613632, -0.02724258415400982, 0.09565939754247665, 0.12457770109176636, 0.10821092873811722, 0.12419811636209488, -0.009954560548067093, 0.16697804629802704, 0.06562606990337372, 0.09662383794784546, -0.03698000684380531, -0.030847230926156044, -0.19396021962165833, 0.034854914993047714, 0.1516977995634079, -0.1003921777009964, 0.0638904720544815, 0.07262692600488663, -0.020930839702486992, 0.050933435559272766, 0.5610712170600891, 0.057355742901563644, -0.06313078105449677, -0.04458633065223694, 0.10433590412139893, 0.030296243727207184, -0.33252406120300293, -0.0740957111120224, 0.13191930949687958, 0.2165646255016327, -0.023562269285321236, 0.11756746470928192, 0.1626850664615631, 0.0290149487555027, 0.0301502738147974, -0.08732014894485474, -0.01412335503846407, 0.12011346220970154, -0.1544346660375595, -0.11122451722621918, 0.1627151072025299, -0.15776726603507996, -0.1313244253396988, -0.01652069203555584, 0.04669051617383957, 0.21094146370887756, 0.06654108315706253, 0.14171606302261353, 0.07713881134986877, 0.11359020322561264, 0.14663776755332947, 0.09803169220685959, 0.2768052816390991, -0.25546684861183167, 0.17066878080368042, -0.008564629592001438, -0.13515810668468475, -0.09935203939676285, -0.056464314460754395, -0.08572667092084885, 0.2893441915512085, 0.23153254389762878, -0.14174656569957733, -0.014566250145435333, -0.02328430861234665, 0.0817985013127327, 0.012948291376233101, -0.061086155474185944, -0.2354784458875656, -0.26648563146591187, -0.2761741280555725, 0.1075778529047966, -0.15946567058563232, -0.17485791444778442, 0.007769776973873377, 0.033320363610982895, -0.025349559262394905, -0.0975668802857399, -0.06114814057946205, -0.03598055988550186, -0.4015118181705475, 0.06287974864244461, -0.03421689197421074, 0.07639031112194061, 0.02065836265683174, 0.010809757746756077, 0.18225102126598358, 0.008866962976753712, -0.09547597914934158, -0.1270720362663269, 0.06524491310119629, -0.037030257284641266, -0.162479430437088, 0.12233870476484299, -0.004777553956955671, 0.05267486348748207, -0.028767988085746765, -0.11895918846130371, -0.25715377926826477, 0.017648357897996902, -0.12808819115161896, 0.48165804147720337, 0.21854113042354584, -0.06956363469362259, 0.0041236900724470615, -0.028858963400125504, -0.0905158743262291, 0.078465037047863, -0.003304822137579322, 0.09029534459114075, 0.07097255438566208, -0.14154407382011414, 0.05310133472084999, -0.0966465100646019, -0.006011809688061476, 0.1663968712091446, 0.09908480197191238, 0.1900407373905182, 0.1873980611562729, -0.25346875190734863, 0.014552743174135685, 0.08661756664514542, 0.09156034141778946, 0.057566843926906586, 0.10688373446464539, 0.03730229288339615, 0.13066087663173676, -0.009986449033021927, 0.08225779235363007, -0.13314953446388245, -0.003584614023566246, 0.09924982488155365, 0.02279323898255825, 0.11523125320672989, 0.0009761401452124119, -0.015564294531941414, -0.1906595677137375, -0.004579461645334959, 0.03995528072118759, 0.027430135756731033, -0.09373144805431366, -0.10044019669294357, -0.02902861312031746, 0.1490597277879715, 0.012205403298139572, -0.15901519358158112, -0.20973671972751617, -0.26949331164360046, -0.10097617655992508, 0.2659081518650055, -0.07578074932098389, -0.1419575959444046, 0.08802640438079834, -0.11039958149194717, -0.13006402552127838, -0.20989805459976196, 0.0007527944399043918, 0.07925617694854736, 0.05976198613643646, 0.01086024846881628, 0.0449870228767395, 0.050814930349588394, 0.00836431048810482, 0.1392374336719513, -0.3798576891422272, 0.08102473616600037, 0.08318864554166794, -0.002159851836040616, 0.08843404799699783, -0.05711623653769493, -0.08988527953624725, -0.011201201006770134, -0.04647473245859146, 0.20834434032440186, -0.01774352602660656, 0.12128839641809464, 0.4773074984550476, -0.0318794921040535, 0.01456692535430193, 0.13737232983112335, 0.07125993072986603, 0.055703017860651016, -0.0029428238049149513, 0.02595602534711361, -0.20329350233078003, 0.16616712510585785, -0.0005400725640356541, 0.1109607070684433, -0.3854123055934906, -0.019654875621199608, 0.03205772489309311, 0.19798240065574646, 0.023737411946058273, -0.08326857537031174, 0.4700964689254761, 0.09052764624357224, -0.35254642367362976, 0.21170279383659363, 0.06978527456521988, -0.11717512458562851, 0.19044382870197296, 0.08705497533082962, 0.08679094910621643, -0.0767831802368164, 0.006415424402803183, 0.16831299662590027, 0.3834381103515625, -0.00012101216270821169, 0.0639415979385376, 0.033399902284145355, -0.0020891239400953054, -0.10872353613376617, 0.19114352762699127, -0.054007597267627716, 0.1675226241350174, -0.12275237590074539, -0.025841200724244118, -0.07473542541265488, -0.05324144288897514, 0.07045698165893555, 0.1910063475370407, 0.04113414138555527, -0.12017511576414108, -0.030132276937365532, 0.2803976535797119, 0.009861567057669163, -0.02417878434062004, -0.2291468381881714, 0.19529959559440613, -0.2671374976634979, 0.007944459095597267, 0.029014023020863533, 0.005948659032583237, -0.03393688052892685, -0.09247349947690964, -0.05133581534028053, -0.1671479195356369, -0.06069137901067734, 0.3435515761375427, -0.2490939050912857, 0.03626151755452156, 0.04038577899336815, -0.17114610970020294, -0.11208130419254303, -0.13349243998527527, 0.027995992451906204, -0.14020873606204987, -0.19027933478355408, -0.11776468902826309, 0.28340664505958557, -0.05980825424194336, 0.1266440451145172, 0.14205558598041534, 0.0007567879511043429, -0.06869696825742722, 0.3833126425743103, 0.0793723315000534, -1.7814983948483132e-05, 0.04580925777554512, -0.13020014762878418, -0.09641525149345398, 0.06833720207214355, 0.19658911228179932, 0.14679916203022003, 0.04547400027513504, 0.03126830235123634, -0.1350993812084198, -0.3052167296409607, -0.12589682638645172, -0.005718881264328957, 0.04169319197535515, 0.05322961136698723, -0.09172015637159348, 0.24886874854564667, -0.006112146656960249, -0.09820661693811417, 0.1676340401172638, -0.1602247655391693, 0.14221897721290588, 0.13966314494609833, 0.012982286512851715, -0.06092474237084389, -0.11686526983976364, 0.1706753969192505, 0.0718262642621994, 0.06400954723358154, 0.3354385793209076, -0.14598588645458221, 0.0015326199354603887, 0.1463453471660614, 0.04398062825202942, 0.06887467205524445, 0.4294580817222595, 0.2916431128978729, 0.191125750541687, -0.3709234893321991, -0.10760831087827682, 0.0941803827881813, 0.009597440250217915, -0.14415386319160461, -0.1281805783510208,