{"version": "0.5.4", "metadata": {"date": {"year": 2025, "month": 8, "day": 18, "hour": 15, "minute": 35, "second": 14}, "loudness": -17.04166030883789, "gain": 0.7501207332603613, "name": null, "modeled_by": null, "gear_type": null, "gear_make": null, "gear_model": null, "tone_type": null, "input_level_dbu": null, "output_level_dbu": null, "training": {"settings": {"ignore_checks": true}, "data": {"latency": {"manual": -4, "calibration": {"algorithm_version": 1, "delays": [-4], "safety_factor": 0, "recommended": -4, "warnings": {"matches_lookahead": false, "disagreement_too_high": false}}}, "checks": {"version": 1, "passed": true}}, "validation_esr": 0.0658598025971026}}, "architecture": "WaveNet", "config": {"layers": [{"input_size": 1, "condition_size": 1, "head_size": 8, "channels": 16, "kernel_size": 3, "dilations": [1, 2, 4, 8, 16, 32, 64, 128, 256, 512], "activation": "Tanh", "gated": false, "head_bias": false}, {"input_size": 16, "condition_size": 1, "head_size": 1, "channels": 8, "kernel_size": 3, "dilations": [1, 2, 4, 8, 16, 32, 64, 128, 256, 512], "activation": "Tanh", "gated": false, "head_bias": true}], "head": null, "head_scale": 0.02}, "weights": [0.004512660205364227, 0.5084899663925171, -0.7484819293022156, -0.7333080768585205, -0.32768896222114563, 0.12491573393344879, -0.004539909772574902, 0.6011132597923279, -0.013536672107875347, 0.04473229870200157, -0.06261920183897018, -0.08336345851421356, -0.9259243011474609, -0.6819811463356018, -0.42331087589263916, -0.017890548333525658, 0.18600334227085114, 0.061270155012607574, 0.04340801760554314, -0.08480264246463776, -0.0166015662252903, 0.37003442645072937, -0.011146321892738342, 0.1763237565755844, -0.2806347608566284, 0.03337977081537247, 0.20058386027812958, -0.3940417170524597, -0.06929529458284378, 0.0338328592479229, -0.29989638924598694, 0.10521844029426575, -0.14088690280914307, 0.17676877975463867, -0.03886055946350098, -0.022133685648441315, -0.019449183717370033, 0.10844341665506363, -0.0068099647760391235, 0.3298976421356201, 0.02258310839533806, -0.028003154322504997, -0.23835553228855133, -0.13372987508773804, -0.13209940493106842, 0.1790611892938614, 0.08733060956001282, 0.1215633749961853, -0.29493606090545654, 0.015105321072041988, 0.1450316309928894, -0.07558939605951309, 0.07801041007041931, 0.08997363597154617, -0.15852822363376617, -0.06498634815216064, 0.09597241878509521, -0.36428314447402954, -0.08169002830982208, -0.001121229724958539, -0.19879941642284393, 0.12764570116996765, -0.0644395500421524, -0.21608836948871613, -0.06275494396686554, -0.056822653859853745, -0.3662913739681244, 0.0613245964050293, -0.05223483964800835, 0.16562122106552124, -0.136619433760643, 0.09338174760341644, 0.015985717996954918, 0.09869958460330963, 0.2662838101387024, 0.09406780451536179, -0.0026824292726814747, 0.014999684877693653, -0.01010261382907629, -0.0801258385181427, -0.2363528311252594, 0.1304306536912918, 0.03139372169971466, -0.1290242075920105, 0.14248865842819214, -0.0014541897689923644, -0.1733541637659073, -0.02181539125740528, 0.0272107794880867, 0.049456752836704254, -0.016492988914251328, 0.09729597717523575, -0.025194674730300903, 0.10796751827001572, -0.15440674126148224, 0.014110908843576908, 0.047795552760362625, 0.0020482204854488373, -0.016525782644748688, -0.07464837282896042, 0.10750182718038559, 0.24397148191928864, -0.09682316333055496, -0.06088012456893921, 0.005126476287841797, -0.031101584434509277, -0.1300746500492096, 0.04838425666093826, -0.0675121322274208, -0.04642094299197197, 0.0004682541766669601, -0.13435544073581696, -0.012699454091489315, 0.07046487182378769, 0.010823762975633144, -0.11838879436254501, 0.03391696512699127, -0.04218196123838425, 0.012600002810359001, -0.03974582627415657, 0.11714774370193481, 0.00018637030734680593, -0.14200729131698608, 0.12537725269794464, -0.13715717196464539, -0.15236064791679382, 0.00984399113804102, -0.05491000786423683, -0.007351868320256472, -0.14310091733932495, -0.005497714504599571, 0.009121742099523544, -0.2469734251499176, -0.002087745815515518, 0.18842695653438568, -0.0874476358294487, -0.017899809405207634, -0.08411870896816254, 0.10259180516004562, 0.1078607439994812, 0.20561423897743225, 0.020367227494716644, 0.12417586147785187, -0.07309088110923767, -0.06837312877178192, -0.07368569821119308, 0.062612384557724, 0.011221376247704029, -0.07495482265949249, -0.1855841428041458, -0.07765918970108032, -0.12530149519443512, -0.10232354700565338, 0.13429418206214905, 0.0676673948764801, -0.22833451628684998, 0.16972416639328003, -0.1376165747642517, 0.029121290892362595, 0.005501377396285534, -0.15427783131599426, -0.03521478921175003, -0.07248549908399582, -0.33168068528175354, -0.31091421842575073, 0.0956234335899353, 0.14673136174678802, 0.3455203175544739, -0.23256543278694153, 0.20288769900798798, 0.41647869348526, -0.15836957097053528, 0.32907816767692566, 0.33428505063056946, -0.22408875823020935, -0.12044185400009155, -0.25934356451034546, -0.009679554961621761, 0.1309526115655899, 0.037178702652454376, 0.05544084683060646, -0.2359006702899933, -0.1951148808002472, 0.15410615503787994, 0.2669920325279236, 0.2912064790725708, -0.1309494972229004, -0.22759941220283508, -0.36906513571739197, 0.17827996611595154, 0.3110305964946747, 0.337441086769104, -0.19134996831417084, 0.2001562863588333, 0.1330009251832962, -0.13660839200019836, 0.12197405099868774, 0.34232833981513977, -0.18865357339382172, 0.20345303416252136, 0.2970768213272095, -0.006343730725347996, 0.10103031992912292, 0.20438741147518158, -0.20207937061786652, 0.07348383963108063, 0.05731045454740524, 0.08088229596614838, -0.0637214258313179, -0.033276643604040146, -0.10572116822004318, 0.02279275469481945, -0.1953141987323761, -0.06592712551355362, -0.04469025880098343, 0.23277297616004944, -0.09086238592863083, -0.11833126097917557, 0.32587766647338867, -0.08859746903181076, -0.06452228128910065, 0.3516828119754791, 0.0840391144156456, 0.03857414051890373, -0.2747552990913391, 0.004775338340550661, -0.13150401413440704, 0.14013957977294922, 0.019140610471367836, 0.018639111891388893, -0.21560241281986237, 0.10643003135919571, -0.0037466876674443483, 0.31450286507606506, 0.06856688857078552, -0.06183154508471489, -0.10814526677131653, -0.09303264319896698, -0.09262751787900925, 0.17767839133739471, 0.07364736497402191, 0.0517202764749527, 0.09882789105176926, 0.06410574913024902, 0.025183746591210365, 0.07936342805624008, 0.12824518978595734, -0.16642224788665771, 0.214509055018425, 0.005669145379215479, -0.10888110846281052, 0.2489686906337738, 0.12070541828870773, -0.009487718343734741, -0.06613874435424805, -0.12155009806156158, -0.02054877206683159, 0.057269077748060226, 0.08867982774972916, -0.24106837809085846, 0.13686205446720123, 0.20529162883758545, 0.21867690980434418, -0.11028613150119781, -0.06144242733716965, 0.08867353945970535, -0.25885918736457825, -0.07705201208591461, 0.2601791024208069, -0.17687425017356873, -0.19048035144805908, -0.1749759018421173, 0.02540496177971363, 0.1480342149734497, 0.15548938512802124, -0.1354922652244568, 0.40729644894599915, -0.22699914872646332, 0.20886100828647614, 0.14323458075523376, 0.09109865874052048, -0.2948114573955536, -0.1791587918996811, 0.027532268315553665, 0.20130592584609985, 0.19283688068389893, 0.021395254880189896, -0.11150544881820679, -0.12929823994636536, 0.09796611964702606, -0.23959572613239288, -0.08938969671726227, 0.18924975395202637, -0.22969341278076172, -0.14769040048122406, 0.05019906535744667, -0.11941847950220108, -0.22623589634895325, 0.19383394718170166, -0.2814966142177582, -0.16976894438266754, 0.18451881408691406, 0.058701928704977036, -0.1273919939994812, 0.002963712438941002, 0.007634379435330629, -0.0827750712633133, 0.1280011087656021, 0.32432764768600464, 0.02304919622838497, -0.19018349051475525, -0.2925664782524109, 0.020532045513391495, -0.12375283986330032, -0.21528153121471405, 0.06352894753217697, -0.13862143456935883, -0.2614854872226715, 0.014905453659594059, 0.07800817489624023, 0.2392382174730301, 0.06826435774564743, -0.04451010003685951, 0.004473242908716202, 0.020479610189795494, 0.19668997824192047, 0.36333128809928894, 0.03584037721157074, 0.0020199541468173265, -0.31794825196266174, -0.11050265282392502, -0.060439009219408035, 0.3766659200191498, 0.09721334278583527, -0.16166694462299347, -0.17057327926158905, 0.08576219528913498, 0.08116143941879272, -0.09215816855430603, 0.0400102436542511, -0.09973317384719849, -0.323301762342453, 0.08547145128250122, 0.014487558975815773, -0.3565426766872406, 0.09380576759576797, -0.003600561060011387, -0.20727786421775818, -0.1015818640589714, -0.07821521162986755, -0.04815404862165451, 0.1245620921254158, -0.03028581105172634, -0.050852663815021515, -0.18117856979370117, 0.11952806264162064, -0.09570933133363724, 0.035233885049819946, -0.15743736922740936, 0.08275894075632095, -0.07369305193424225, -0.1953037530183792, -0.07105902582406998, 0.14379724860191345, 0.01948791742324829, 0.17983943223953247, 0.1520785093307495, -0.08995971828699112, -0.0973486453294754, -0.08723009377717972, 0.01175741758197546, 0.07442955672740936, 0.05100875347852707, -0.014506762847304344, -0.19158445298671722, -0.10054781287908554, 0.06714747101068497, 0.1593850702047348, 0.08397392928600311, 0.16631747782230377, 0.09867759048938751, -0.03565998375415802, 0.015261398628354073, 0.12692908942699432, 0.09258002042770386, 0.0921025425195694, 0.07305837422609329, 0.16241249442100525, -0.10945383459329605, 0.11974430084228516, 0.04465341195464134, -0.09072045236825943, -0.035166166722774506, -0.04713825881481171, -0.16291970014572144, 0.15980012714862823, 0.10691400617361069, -0.14474184811115265, 0.12952548265457153, -0.07625502347946167, 0.1469702422618866, -0.029215507209300995, -0.0746486559510231, 0.22463834285736084, 0.16975520551204681, -0.13993299007415771, 0.041859932243824005, -0.003935834392905235, -0.009038535878062248, -0.01473630778491497, -0.19557377696037292, 0.017370371147990227, 0.03581150993704796, -0.10421138256788254, -0.07429904490709305, 0.03923638537526131, 0.04413464665412903, -0.037731483578681946, -0.005179186817258596, 0.11861078441143036, -0.15988963842391968, 0.0027742180973291397, 0.13416838645935059, 0.013207039795815945, -0.03837725147604942, -0.24876931309700012, 0.037697866559028625, -0.01516823098063469, 0.04340666905045509, -0.0052354359067976475, -0.1846923828125, -0.045960742980241776, 0.16155284643173218, -0.06990447640419006, -0.17391200363636017, -0.05773429572582245, -0.06102399528026581, -0.22653870284557343, 0.11122972518205643, -0.22242988646030426, -0.253652423620224, -0.10393156111240387, -0.13008758425712585, -0.036179911345243454, -0.07219402492046356, 0.10685575008392334, 0.07783296704292297, 0.10832439363002777, 0.19340550899505615, 0.265911728143692, 0.08521981537342072, 0.290383905172348, 0.17785890400409698, -0.014225884340703487, -0.3068632483482361, 0.08762916177511215, 0.08755005151033401, -0.14164113998413086, -0.15139715373516083, 0.040069062262773514, -0.3539034426212311, -0.09471222013235092, 0.12005239725112915, 0.06791913509368896, 0.11084022372961044, -0.018397046253085136, 0.1176462173461914, -0.1950015276670456, 0.14058917760849, 0.16539166867733002, 0.09501779079437256, 0.0707281157374382, -0.0980544313788414, -0.03900832682847977, 0.108803391456604, 0.03680634871125221, -0.07768025249242783, 0.011169868521392345, -0.24353580176830292, 0.004767304752022028, -0.02116391435265541, -0.2416130006313324, -0.18067511916160583, 0.19835881888866425, -0.23087380826473236, 0.07865836471319199, 0.17056170105934143, -0.13253197073936462, -0.032184042036533356, 0.038529664278030396, -0.24198105931282043, -0.007644424214959145, 0.13694091141223907, -0.04922164976596832, 0.10290782153606415, 0.10586720705032349, -0.061850711703300476, -0.055511124432086945, -0.08548425883054733, 0.23612000048160553, -0.10846389085054398, 0.06748469918966293, -0.030893763527274132, 0.06559710204601288, 0.1426558643579483, -0.1785886585712433, 0.021056324243545532, 0.08569089323282242, -0.14809872210025787, 0.02084648795425892, -0.004014028236269951, 0.1842932254076004, -0.0013116967165842652, -0.0895383358001709, 0.05901625379920006, -0.07793504744768143, 0.10402438789606094, 0.11201632767915726, 0.0985414907336235, -0.029675597324967384, -0.05886843055486679, -0.053092148154973984, 0.020287765190005302, -0.0044740354642271996, -0.05956878885626793, -0.06040066480636597, 0.048521894961595535, -0.06324782222509384, 0.023032471537590027, -0.16445666551589966, 0.09887447208166122, 0.20195715129375458, -0.21346542239189148, -0.13897505402565002, -0.0821554958820343, -0.1032821387052536, -0.06191733479499817, -0.06283105164766312, -0.1502295285463333, 0.014408322051167488, -0.07165899872779846, 0.0532684326171875, -0.10248265415430069, -0.06748951226472855, -0.1072065457701683, 0.10814104229211807, 0.43350350856781006, -0.26064369082450867, -0.013296270743012428, 0.06575489789247513, 0.12846194207668304, -0.17511452734470367, 0.22658215463161469, 0.17248409986495972, -0.008938862010836601, 0.06896559149026871, 0.23827673494815826, -0.07407379150390625, 0.16150449216365814, -0.2416887730360031, -0.13393908739089966, -0.1344461292028427, 0.14662733674049377, 0.029997332021594048, -0.31001222133636475, -0.12162818014621735, 0.006160358898341656, -0.11054618656635284, 0.3687335252761841, 0.027294661849737167, 0.24239270389080048, -0.1683223992586136, -0.03000323846936226, -0.18373696506023407, 0.23008520901203156, 0.11066780984401703, -0.0009417641558684409, 0.1264939159154892, 0.04145548492670059, 0.17297448217868805, 0.22606900334358215, -0.16078805923461914, -0.04923500493168831, 0.30111151933670044, -0.04980176314711571, 0.002426703693345189, 0.2881670594215393, 0.008666505105793476, 0.21678426861763, 0.13469119369983673, -0.10206205397844315, -0.020063206553459167, -0.03310815617442131, 0.233656108379364, 0.10997390747070312, 0.045529723167419434, -0.10628876835107803, 0.0974661260843277, 0.15137213468551636, 0.11284603178501129, -0.08615753799676895, -0.039765823632478714, -0.11569183319807053, 0.17144182324409485, -0.041457224637269974, -0.08306892961263657, 0.1150318831205368, -0.07181178778409958, -0.05757937952876091, -0.03715260699391365, -0.11569821089506149, -0.27767080068588257, -0.17398661375045776, -0.07974912226200104, 0.06778422743082047, 0.08994944393634796, 0.08726591616868973, 0.0065235174261033535, 0.17385931313037872, -0.006113302893936634, -0.04547767713665962, 0.0760609582066536, 0.051192644983530045, -0.15148726105690002, 0.006893656682223082, -0.07055766135454178, 0.11218640953302383, 0.024905085563659668, -0.11351733654737473, -0.027449732646346092, 0.12712594866752625, 0.05341102555394173, 0.027075020596385002, 0.05019062012434006, 0.06859827786684036, -0.05255366861820221, -0.01826048456132412, 0.007092575076967478, -0.18171262741088867, 0.12387644499540329, -0.10110890120267868, 0.01171891763806343, 0.047312285751104355, -0.03817874193191528, -0.13934743404388428, 0.14958254992961884, -0.03168700635433197, 0.16981106996536255, -0.13837459683418274, 0.015827545896172523, 0.128245010972023, -0.08038243651390076, 0.16435270011425018, -0.05546068772673607, -0.13267023861408234, -0.12047979235649109, -0.007915646769106388, 0.12822160124778748, 0.16880236566066742, 0.11270210146903992, 0.2431599199771881, -0.07848750054836273, 0.040267083793878555, -0.07421500980854034, 0.08441425114870071, 0.1908075511455536, -0.06919766217470169, 0.05545793101191521, -0.09804810583591461, 0.15950512886047363, -0.09076540172100067, 0.028918543830513954, -0.05754576250910759, 0.08914189040660858, 0.07438197731971741, 0.11945639550685883, 0.026164336130023003, 0.04594183713197708, 0.07830363512039185, 0.008977827616035938, 0.1773933619260788, -0.1142699345946312, 0.038063377141952515, 0.06292549520730972, 0.018567606806755066, 0.04005321487784386, -0.07292162626981735, -0.27894532680511475, 0.044452086091041565, 0.015552787110209465, -0.16539040207862854, 0.0018111218232661486, 0.05759952962398529, -0.014283846132457256, -0.0776170939207077, -0.09399589896202087, 0.2387498915195465, -0.19265471398830414, 0.06678079068660736, 0.16621719300746918, -0.15838465094566345, 0.08350156992673874, 0.02366417646408081, 0.10470666736364365, -0.09301592409610748, -0.17592740058898926, -0.04012606292963028, 0.13164883852005005, 0.017521290108561516, 0.17921319603919983, -0.0605255626142025, -0.20005598664283752, -0.20850054919719696, -0.11205925047397614, 0.21389447152614594, 0.04675032198429108, -0.010300487279891968, -0.0504101887345314, 0.024548890069127083, 0.12796196341514587, 0.2445947825908661, -0.18225102126598358, -0.02237379364669323, 0.0941159576177597, -0.17416642606258392, 0.07338948547840118, 0.2791529893875122, -0.20435261726379395, 0.12134476751089096, 0.07479874044656754, -0.11159393936395645, 0.15911157429218292, 0.09008102864027023, 0.022247230634093285, -0.05632048100233078, 0.05982337146997452, 0.008260764181613922, -0.047245725989341736, 0.24142417311668396, -0.43022677302360535, -0.1758832037448883, 0.08639316260814667, 0.4389020800590515, 0.022705169394612312, -0.016250744462013245, 0.4549504518508911, 0.15680958330631256, -0.1585269421339035, 0.30630436539649963, 0.015297068282961845, -0.196624755859375, -0.3066592514514923, 0.06897041201591492, 0.17417363822460175, 0.03927217423915863, 0.24716496467590332, -0.10324790328741074, -0.2117927074432373, -0.13380396366119385, -0.002054666867479682, 0.35765260457992554, 0.16139072179794312, -0.2425086945295334, -0.16931255161762238, -0.020206697285175323, 0.009107224643230438, 0.2502160668373108, 0.18323011696338654, -0.21037174761295319, 0.2625666558742523, 0.08356743305921555, -0.17642399668693542, 0.40699124336242676, 0.14088676869869232, 0.0034930636174976826, 0.23347516357898712, 0.20858725905418396, -0.17163008451461792, 0.47416502237319946, -0.0595039464533329, -0.23295794427394867, -0.1661163568496704, 0.00307556358166039, 0.11277057230472565, -0.3438529074192047, -0.045745402574539185, 0.15562769770622253, -0.12724457681179047, 0.25227317214012146, 0.04660449177026749, -0.03540029749274254, 0.049299247562885284, 0.017086174339056015, 0.24014908075332642, 0.026863491162657738, 0.1202472373843193, 0.005952848121523857, -0.31435123085975647, 0.05920322984457016, 0.5058255791664124, 0.7073112726211548, -0.38530081510543823, 0.731082022190094, -0.5919397473335266, -0.01471597608178854, 1.0106452703475952, 1.0192490816116333, -0.5996397137641907, 0.12934543192386627, 0.042493049055337906, -0.4886643588542938, -0.43401238322257996, 0.23459647595882416, -0.6668456196784973, 0.028245309367775917, 0.5241524577140808, 0.07380953431129456, 0.3520160913467407, -0.10048322379589081, 0.13054326176643372, 0.38048726320266724, -0.1712164282798767, 0.06290663778781891, 0.11177749931812286, -0.10104728490114212, -0.016801094636321068, 0.04875602200627327, -0.3798372447490692, -0.013393813744187355, 0.03470553830265999, 0.26742133498191833, -0.18331079185009003, -0.021666523069143295, 0.02752143144607544, -0.3320018947124481, 0.3259647786617279, 0.2568280100822449, -0.09812911599874496, -0.19618812203407288, 0.15671785175800323, -0.2407330423593521, 0.1352723240852356, 0.037669837474823, 0.13928253948688507, -0.012351157143712044, 0.0916217491030693, 0.18145331740379333, 0.33818987011909485, 0.10566245764493942, 0.10918817669153214, -0.07957440614700317, 0.27310994267463684, -0.022094540297985077, -0.17634600400924683, -0.007467304356396198, -0.04214277118444443, -0.15654687583446503, -0.09783272445201874, 0.21585074067115784, -0.10100287944078445, -0.0211197379976511, 0.2896372973918915, 0.16359204053878784, -0.005139654502272606, 0.37934306263923645, -0.04899085685610771, -0.09869563579559326, -0.08683041483163834, 0.03064333274960518, 0.09536991268396378, 0.09137609601020813, -0.014682840555906296, -0.194894939661026, 0.014745698310434818, -0.09265489131212234, -0.17766626179218292, 0.056283824145793915, 0.2801767885684967, -0.14740297198295593, 0.08965247869491577, -0.1088206097483635, -0.16341710090637207, -0.09716396778821945, 0.2755105793476105, 0.4395095407962799, 0.0854998305439949, 0.146063894033432, -0.1521558165550232, 0.09578587114810944, 0.16122904419898987, -0.07751233130693436, 0.2723280191421509, 0.025470111519098282, 0.09954831749200821, -0.049306537955999374, 0.29777008295059204, -0.3194487690925598, 0.18003569543361664, 0.08728370815515518, 0.11775538325309753, 0.41660210490226746, 0.3313691318035126, 0.40394118428230286, 0.30762526392936707, 0.10089413821697235, -0.11270482838153839, -0.07893737405538559, -0.06236829608678818, -0.012165901251137257, -0.02630709297955036, 0.24589644372463226, -0.08519722521305084, -0.014185590669512749, -0.04423614591360092, 0.2925729751586914, 0.14479634165763855, -0.35068073868751526, -0.22612281143665314, -0.013882352039217949, -0.09522316604852676, 0.16647319495677948, -0.3113284707069397, -0.2998952567577362, 0.32149800658226013, 0.0330934040248394, -0.3176615834236145, -0.07671528309583664, -0.2618779242038727, 0.26234471797943115, 0.11723718792200089, 0.2775508761405945, -0.35007840394973755, -0.2617213726043701, 0.30415529012680054, 0.2894841730594635, 0.07755478471517563, 0.24572505056858063, -0.1760369837284088, 0.15085753798484802, -0.33532774448394775, -0.015406688675284386, -0.19852294027805328, -0.1704602986574173, -0.03837791457772255, -0.044177476316690445, -0.0010980881052091718, -0.36501213908195496, -0.1540675163269043, 0.1503722220659256, -0.08281245827674866, -0.2998262643814087, -0.010164313949644566, -0.3637312650680542, -0.03686676174402237, 0.24976859986782074, 0.10277948528528214, -0.003079265123233199, -0.03625999391078949, 0.1856546550989151, 0.047506723552942276, -0.1931924670934677, 0.07619250565767288, 0.2168324887752533, -0.2808493375778198, -0.29019227623939514, -0.025498494505882263, 0.14660441875457764, -0.1684836745262146, 0.14145545661449432, 0.17216603457927704, 0.12658216059207916, -0.00027238402981311083, 0.010998276993632317, 0.08845322579145432, -0.16383294761180878, -0.18056562542915344, 0.052312202751636505, 0.1301148235797882, -0.11484349519014359, 0.2335343062877655, 0.10560599714517593, 0.008849349804222584, 0.21203888952732086, -0.2375667244195938, -0.048469237983226776, -0.2967033088207245, -0.31650346517562866, -0.04104411229491234, 0.013787376694381237, 0.16271831095218658, -0.08536423742771149, 0.4539055824279785, 0.04498983547091484, -0.021937251091003418, 0.1916312873363495, 0.1451186090707779, -0.04596347361803055, 0.03740794584155083, 0.10460995137691498, -0.08260710537433624, 0.018338892608880997, -0.4823431968688965, -0.13833923637866974, 0.198015958070755, -0.03324046730995178, 0.20852947235107422, -0.2835431694984436, -0.14969567954540253, -0.19433791935443878, -0.034538593143224716, 0.12288927286863327, 0.02354852668941021, 0.04579538851976395, -0.11438244581222534, 0.04746715724468231, 0.11557797342538834, 0.28123801946640015, -0.21090251207351685, -0.3130764365196228, 0.27428048849105835, 0.010884169489145279, -0.24814827740192413, -0.3353273272514343, -0.030601663514971733, -0.08662936836481094, -0.24393883347511292, 0.011523757129907608, 0.07790899276733398, -0.058372851461172104, 0.34169742465019226, 0.39047887921333313, 0.05350426957011223, 0.11544355750083923, -0.06536924839019775, 0.02345845103263855, -0.0793168917298317, -0.07362546771764755, -0.10618268698453903, -0.18199607729911804, 0.40908190608024597, -0.06381111592054367, 0.28907719254493713, -0.11661989241838455, -0.07720520347356796, 0.22711698710918427, -0.02473052404820919, 0.1688583940267563, 0.215873122215271, -0.3123672902584076, 0.1328263133764267, 0.03627973422408104, -0.04535216838121414, 0.047511644661426544, 0.235304057598114, -0.06894130259752274, 0.17000743746757507, 0.24007558822631836, 0.2218009978532791, 0.060148514807224274, 0.17955350875854492, 0.012751402333378792, 0.1052882969379425, 0.09467238187789917, 0.3478584289550781, -0.31007230281829834, -0.34859463572502136, -0.09768197685480118, -0.06168746575713158, -0.03098428063094616, 0.3878001570701599, 0.1241886243224144, -0.04124174267053604, 0.1810532957315445, -0.26587527990341187, 0.28847038745880127, -0.3123009502887726, -0.1491573601961136, 0.030310718342661858, 0.383892685174942, 0.2549413740634918, -0.03881330043077469, -0.03164206072688103, -0.0042794435285031796, -0.05509312450885773, 0.14613159000873566, -0.1588972806930542, -0.13329251110553741, -0.08004719763994217, -0.01185674499720335, 0.04431305080652237, -0.1612878292798996, 0.1339937448501587, -0.18561361730098724, 0.14843901991844177, -0.18496012687683105, -0.08636710792779922, 0.014600501395761967, -0.18964526057243347, -0.031454239040613174, -0.07499507069587708, -0.26139652729034424, -0.20021261274814606, 0.2775254249572754, 0.03526441007852554, -0.14438214898109436, 0.050045471638441086, -0.1606050282716751, -0.05052350461483002, 0.09478361159563065, 0.12510251998901367, -0.10824549198150635, -0.28578299283981323, -0.09761602431535721, 0.08517575263977051, -0.047199636697769165, -0.04073026031255722, 0.19724196195602417, -0.12145183235406876, -0.24042852222919464, -0.4321424961090088, 0.06541181355714798, -0.23367108404636383, -0.11088921874761581, 0.01482685562223196, -0.2630007863044739, 0.06181764602661133, 0.04062285274267197, -0.26471179723739624, -0.236680805683136, 0.14471934735774994, -0.24475130438804626, 0.0010842680931091309, 0.05960877612233162, 0.0587398037314415, -0.19523487985134125, -0.18672043085098267, 0.17907385528087616, 0.5249677896499634, 0.025892945006489754, -0.3412892520427704, 0.18362309038639069, 0.2827433943748474, -0.024136770516633987, 0.17251311242580414, 0.2705242931842804, -0.12774455547332764, -0.18467554450035095, -0.05685330554842949, 0.03856077790260315, -0.4642855226993561, 0.3765731155872345, -0.014010480605065823, -0.08447178453207016, -0.09994584321975708, 0.21344652771949768, -0.32985782623291016, -0.18785516917705536, 0.28801554441452026, -0.17945119738578796, -0.14386068284511566, -0.29260510206222534, 0.2401437610387802, 0.16802379488945007, 0.09047991782426834, -0.27991852164268494, -0.46456384658813477, 0.048057761043310165, 0.12933506071567535, 0.33829036355018616, -0.11496414244174957, -0.20099614560604095, 0.0971943587064743, -0.061711642891168594, -0.2096584141254425, 0.0747305154800415, 0.3141741454601288, -0.18366065621376038, 0.3167562186717987, -0.14728944003582, 0.1742246150970459, 0.13981173932552338, -0.06257273256778717, 0.3430061936378479, -0.06501832604408264, 0.21495820581912994, 0.15722793340682983, 0.09542693942785263, 0.2708324193954468, 0.18587717413902283, -0.312112420797348, -0.0696384459733963, 0.06509529799222946, 0.19920435547828674, -0.06528916954994202, -0.0555320680141449, -0.12023303657770157, -0.04266269877552986, 0.038223229348659515, 0.14676909148693085, 0.09151723980903625, 0.42922157049179077, 0.20647257566452026, 0.053502537310123444, -0.3465135097503662, -0.027550803497433662, -0.0059090834110975266, -0.05600659176707268, 0.08484792709350586, 0.060845546424388885, -0.029646744951605797, -0.016087399795651436, -0.17031441628932953, -0.03918340802192688, -0.012353668920695782, -0.0910564586520195, 0.029195217415690422, 0.030313502997159958, -0.0015886850887909532, -0.26872268319129944, -0.0006769775063730776, -0.08947380632162094, -0.07895413786172867, 0.2583811283111572, -0.2811663746833801, 0.15898925065994263, 0.20495034754276276, -0.08893847465515137, 0.2300708293914795, 0.19928790628910065, 0.03580055758357048, 0.15424306690692902, -0.04733864590525627, 0.0059274714440107346, 0.14849412441253662, 0.0814995989203453, -0.30114415287971497, 0.19266963005065918, -0.10329029709100723, -0.13767671585083008, 0.08309096097946167, -0.10458400100469589, 0.01378320250660181, 0.15312615036964417, 0.04323534667491913, -0.009373662993311882, -0.1740856170654297, -0.2124091386795044, 0.28997066617012024, 0.2690422534942627, 0.12303569912910461, 0.16745950281620026, -0.09863060712814331, 0.010319101624190807, -0.0003422947775106877, -0.017058314755558968, 0.13611964881420135, -0.07058372348546982, -0.004221132956445217, 0.03593706339597702, 0.3057500123977661, -0.3472840487957001, 0.10184797644615173, -0.1383371204137802, 0.04897567629814148, -0.14909182488918304, 0.17389261722564697, -0.024753030389547348, 0.24548280239105225, 0.1501033753156662, 0.005588715896010399, -0.0016841439064592123, 0.13367395102977753, -0.1120021864771843, -0.1891608089208603, -0.18374693393707275, 0.2195071429014206, 0.16152594983577728, -0.007059505674988031, 0.36455580592155457, 0.16866253316402435, -0.1523418426513672, 0.1615830659866333, -0.09405980259180069, 0.24107013642787933, 0.25137197971343994, -0.18942128121852875, -0.06756728142499924, 0.12271718680858612, -0.14346612989902496, -0.15362045168876648, 0.22676344215869904, -0.003911994863301516, 0.012102301232516766, -0.19410045444965363, -0.21281473338603973, -0.14274156093597412, -0.09665387868881226, -0.009352664463222027, -0.03251441940665245, -0.3420602083206177, 0.050492141395807266, -0.008095022290945053, 0.052350614219903946, 0.21498781442642212, 0.15220153331756592, 0.17479237914085388, -0.15229345858097076, -0.10392551869153976, -0.26956281065940857, 0.2307158261537552, 0.19441953301429749, 0.06567612290382385, -0.1917090266942978, -0.10319100320339203, 0.047168128192424774, 0.1502903699874878, -0.22931155562400818, -0.3335781693458557, 0.13378110527992249, 0.05272578448057175, -0.08802610635757446, 0.12477840483188629, 0.039173394441604614, -0.0028132472652941942, -0.1762486845254898, 0.1740838885307312, 0.2703566551208496, -0.18549592792987823, 0.2557564973831177, 0.01655186526477337, -0.08650515973567963, -0.30775830149650574, 0.27680671215057373, -0.03590875491499901, -0.041214220225811005, 0.0725271925330162, -0.008167524822056293, -0.09884893894195557, 0.02764018438756466, 0.05068059638142586, -0.2830151617527008, 0.147451713681221, 0.16972756385803223, 0.07889454811811447, -0.09446053206920624, 0.13958092033863068, 0.19171036779880524, -0.23705051839351654, -0.07480699568986893, 0.14209884405136108, -0.2208823412656784, 0.23991522192955017, 0.12840870022773743, 0.3487411141395569, -0.09042494744062424, 0.27600371837615967, -0.32119855284690857, 0.10367751866579056, -0.20888513326644897, 0.38035011291503906, 0.08031374216079712, 0.02066551335155964, -0.06664519011974335, 0.052419282495975494, 0.15115439891815186, 0.03725901246070862, 0.18793977797031403, -0.17356553673744202, -0.014558263123035431, 0.3610038161277771, -0.08797010034322739, 0.29433301091194153, -0.14797262847423553, -0.1511363387107849, 0.07787136733531952, -0.0008009629673324525, -0.06528478115797043, 0.038231443613767624, 0.5670380592346191, -0.11974643915891647, 0.2509690821170807, -0.20986419916152954, 0.029614713042974472, -0.2258571833372116, 0.16276857256889343, 0.23950274288654327, -0.14041754603385925, -0.09641266614198685, 0.2925659716129303, 0.17674678564071655, -0.2769649922847748, 0.3393003046512604, 0.4810754656791687, 0.3058551251888275, 0.19487230479717255, -0.15172383189201355, -0.021270176395773888, -0.09235867857933044, 0.2689131498336792, 0.00510605052113533, -0.060291118919849396, -0.21002110838890076, -0.0305340513586998, 0.022760439664125443, -0.029740100726485252, -0.1749284863471985, 0.18487034738063812, 0.06669401377439499, -0.028228402137756348, 0.14426842331886292, 0.04491991177201271, -0.24293529987335205, 0.28957444429397583, -0.08589300513267517, 0.2588012218475342, 0.37614479660987854, 0.2032705396413803, -0.25035667419433594, -0.07774209976196289, -0.0393572561442852, 0.08279943466186523, -0.120241679251194, 0.04781193286180496, -0.005654690787196159, 0.05984402075409889, -0.1346638798713684, 0.16743572056293488, 0.15784010291099548, -0.2866739332675934, -0.32864221930503845, 0.029177650809288025, -0.1369858831167221, 0.013535188511013985, -0.6248676180839539, -0.45247721672058105, -0.5605305433273315, -0.06020009517669678, -0.0017756473971530795, -0.32592859864234924, 0.11945711076259613, 0.16396188735961914, 0.21787872910499573, 0.02525796927511692, 0.4034842252731323, 0.22793753445148468, -0.00856517069041729, 0.19731676578521729, 0.1646607518196106, 0.16031406819820404, -0.3896320164203644, 0.10294350981712341, -0.051591549068689346, 0.16169708967208862, -0.020776528865098953, 0.10506553202867508, -0.21383036673069, -0.3388397693634033, -0.42326948046684265, -0.01673007383942604, -0.1104736402630806, -0.02077930048108101, 0.04809824377298355, -0.038979705423116684, -0.30110955238342285, 0.25942736864089966, -0.30428123474121094, 0.07356910407543182, -0.33594223856925964, -0.0708945244550705, -0.27827614545822144, -0.23039929568767548, -0.2038922905921936, 0.12142714112997055, 0.018907561898231506, 0.20202931761741638, -0.36304643750190735, -0.16692087054252625, -0.02495315670967102, 0.15643829107284546, -0.04702441766858101, 0.1276955008506775, -0.02672092616558075, -0.18942612409591675, -0.3082844913005829, -0.034408487379550934, 0.3305535316467285, -0.07247307151556015, -0.4640621840953827, -0.051042575389146805, -0.11764872819185257, 0.35545116662979126, 0.17086628079414368, -0.03971032425761223, -0.11728587001562119, 0.05341879650950432, -0.027292469516396523, -0.010163212195038795, -0.2983580529689789, 0.3441263735294342, -0.06347015500068665, 0.11347023397684097, -0.22407811880111694, 0.08699467778205872, 0.08565111458301544, -0.09505508840084076, -0.07736814022064209, -0.12076626718044281, -0.2118481546640396, 0.20656630396842957, 0.18357548117637634, -0.043628934770822525, 0.11310116946697235, 0.20774370431900024, -0.30248475074768066, -0.15368227660655975, -0.3315921425819397, 0.017232663929462433, -0.20588546991348267, -0.26866796612739563, -0.18173891305923462, 0.07156519591808319, -0.017848694697022438, -0.014585372991859913, 0.21083319187164307, 0.07142793387174606, 0.26801836490631104, 0.05291074514389038, -0.0011572091607376933, -0.10688696056604385, 0.08787000924348831, 0.22641126811504364, -0.016146229580044746, 0.3751029968261719, 0.14031407237052917, 0.04005749523639679, -0.31517159938812256, -0.10363615304231644, 0.17450563609600067, -0.19220282137393951, -0.08080907166004181, -0.05190574750304222, -0.4307572543621063, 0.029730400070548058, 0.18974736332893372, 0.25792405009269714, 0.08692347258329391, -0.026641588658094406, -0.28378501534461975, -0.05164433270692825, 0.0798478052020073, 0.30777183175086975, 0.12327244877815247, 0.012915358878672123, 0.017115188762545586, 0.05488528311252594, -0.0953400731086731, 0.008072313852608204, -0.01230195164680481, -0.1889072060585022, -0.02164144068956375, 0.21829432249069214, -0.06304824352264404, 0.25383925437927246, -0.043783918023109436, 0.07249757647514343, 0.03816944733262062, -0.003264797618612647, 0.03174734488129616, -0.2079509049654007, -0.00032325275242328644, -0.09394442290067673, -0.20209088921546936, -0.18537688255310059, 0.04319731518626213, -0.16679126024246216, -0.10766792297363281, 0.1737356036901474, -0.20491434633731842, -0.043301668018102646, 0.028953412547707558, -0.16178861260414124, 0.05777475982904434, -0.017985863611102104, 0.094118133187294, 0.09011945873498917, -0.1346735805273056, 0.10087038576602936, 0.3883535861968994, 0.08059869706630707, 0.13155174255371094, 0.22817732393741608, -0.04355200380086899, -0.1745816171169281, -0.21008025109767914, 0.22300519049167633, 0.049402207136154175, 0.034095946699380875, -0.1865144968032837, -0.045036040246486664, -0.23178014159202576, 0.07210459560155869, 0.056709859520196915, 0.0755816102027893, -0.1831773817539215, -0.06572744250297546, 0.22295814752578735, 0.06470146030187607, 0.020361991599202156, 0.028571730479598045, 0.04578544944524765, -0.15516014397144318, -0.2074577957391739, 0.03634899854660034, -0.009072684682905674, -0.4538148045539856, 0.03463594615459442, 0.08226200938224792, -0.062039799988269806, -0.07834959030151367, 0.3351573944091797, -0.3057519793510437, -0.24361099302768707, 0.11687151342630386, 0.008886976167559624, 0.19366182386875153, 0.2219703197479248, 0.20228806138038635, 0.046367790549993515, -0.02288571372628212, 0.05644283443689346, -0.1996280699968338, -0.3862013518810272, 0.1716194450855255, -0.11335142701864243, -0.3454059362411499, 9.367115126224235e-05, 0.20005346834659576, -0.04966432973742485, 0.43670424818992615, -0.024597933515906334, 0.35603827238082886, -0.4965357482433319, -0.14040571451187134, -0.4170418083667755, 0.4518536925315857, 0.011500310152769089, 0.24096882343292236, -0.25519731640815735, -0.22263802587985992, -0.09966400265693665, -0.06411752104759216, 0.09665704518556595, -0.29453155398368835, -0.05231628566980362, 0.0601755753159523, 0.03064356930553913, 0.07850480079650879, -0.13410532474517822, 0.33387404680252075, -0.2730086147785187, -0.09149084240198135, 0.2695923447608948, -0.11902666091918945, 0.0693933293223381, -0.12894462049007416, 0.051596783101558685, -0.07750439643859863, 0.16590194404125214, 0.18379716575145721, 0.0037576144095510244, 0.059439610689878464, 0.18277350068092346, -0.17020553350448608, 0.012654127553105354, 0.0070648458786308765, -0.20205242931842804, 0.2052597999572754, 0.0823025032877922, -0.0385759063065052, -0.22920583188533783, -0.04245090112090111, 0.3099932372570038, -0.06687670946121216, -0.17703478038311005, 0.05447349324822426, -0.09834783524274826, -0.17811965942382812, 0.17640134692192078, -0.07184863090515137, 0.2191067785024643, 0.04549338296055794, -0.034005362540483475, -0.03515098989009857, 0.0484452098608017, 0.28364261984825134, 0.2617446482181549, -0.12822580337524414, 0.08200425654649734, -0.20705841481685638, -0.04766667261719704, 0.06129021570086479, -0.054049745202064514, 0.07012956589460373, 0.08122493326663971, 0.04386164993047714, -0.21391306817531586, 0.01259866263717413, 0.035042013972997665, -0.10543316602706909, 0.011171368882060051, 0.12847334146499634, 0.013746364042162895, -0.0011963446158915758, -0.13363996148109436, 0.5190596580505371, -0.10999162495136261, -0.019563689827919006, 0.16804660856723785, 0.11359250545501709, -0.179127499461174, 0.3163398802280426, -0.10134729743003845, -0.09404150396585464, 0.03526835888624191, -0.10583944618701935, 0.0207429938018322, -0.024825377389788628, -0.18632175028324127, 0.11303878575563431, -0.21316492557525635, 0.23563912510871887, 0.3558109402656555, -0.06222473457455635, 0.1465686857700348, 0.2246311902999878, -0.19351577758789062, -0.02586604468524456, -0.24151156842708588, 0.3326157033443451, 0.05782599002122879, -0.025664983317255974, -0.1868608444929123, -0.02699001133441925, -0.06226201727986336, 0.04615309461951256, 0.050213124603033066, 0.06055764853954315, -0.23227670788764954, -0.08136722445487976, -0.07455360889434814, 0.013582734391093254, 0.10334473848342896, 0.1946539431810379, -0.24667973816394806, -0.09095395356416702, -0.2258676141500473, 0.11019063740968704, -0.07967628538608551, -0.17035262286663055, 0.23733235895633698, 0.029775474220514297, 0.02473490685224533, -0.10337978601455688, -0.2663368284702301, 0.10354867577552795, -0.21618829667568207, -0.011995825916528702, 0.3526787757873535, 0.021614858880639076, -0.15462571382522583, -0.06661605089902878, -0.14211907982826233, 0.33945485949516296, 0.1813664436340332, -0.12911440432071686, 0.21349376440048218, -0.2754577100276947, 0.028715886175632477, 0.18316207826137543, 0.1065642237663269, 0.26656943559646606, 0.013185547664761543, -0.14359793066978455, -0.00716041773557663, 0.01717970333993435, 0.05711466073989868, -0.043666575103998184, 0.020226119086146355, -0.2690155506134033, 0.14129643142223358, -0.021565327420830727, 0.25452950596809387, -0.0035257816780358553, 0.07991326600313187, 0.10249638557434082, 0.026378102600574493, 0.462361216545105, 0.2262861728668213, 0.13103275001049042, 0.044793590903282166, 0.27350401878356934, -0.0790347084403038, -0.12582139670848846, 0.1856812834739685, -0.19467057287693024, -0.2265866994857788, 0.02244742587208748, -0.11082421988248825, -0.2402428537607193, -0.09218024462461472, -0.3933737277984619, -0.120070680975914, 0.18378116190433502, 0.11941283941268921, -0.05950409546494484, 0.15957249701023102, -0.021071698516607285, 0.25716274976730347, 0.20925113558769226, 0.289357990026474, 0.09304281324148178, 0.42764630913734436, 0.2234511822462082, 0.01612989418208599, -0.07611814141273499, -0.2671142518520355, 0.15478144586086273, 0.03444188833236694, -0.1675681173801422, 0.02734292484819889, -0.500881016254425, -0.19965946674346924, -0.19490481913089752, 0.10107536613941193, -0.12646733224391937, 0.08158492296934128, 0.16721417009830475, 0.3204575181007385, -0.1318906545639038, 0.17699578404426575, -0.03567105159163475, 0.28112781047821045, 0.10124886780977249, 0.30686038732528687, 0.06311427801847458, 0.13373017311096191, 0.08608806878328323, -0.026699664071202278, 0.20677697658538818, -0.1384560465812683, 0.02072175033390522, 0.1391436606645584, -0.03769191354513168, -0.06374718993902206, 0.033634696155786514, 0.0699317529797554, 0.16749756038188934, 0.3006137013435364, 0.03641548752784729, 0.04374997317790985, -0.16629864275455475, 0.1362994760274887, 0.354841023683548, 0.593287467956543, 0.13706110417842865, -0.17384105920791626, 0.12277986109256744, -0.026289131492376328, 0.07259571552276611, 0.22563116252422333, 0.1560748964548111, -0.29062965512275696, -0.42524251341819763, 0.2198314517736435, 0.059312161058187485, -0.723648190498352, 0.14177840948104858, -0.8587994575500488, -0.46638116240501404, -0.26914623379707336, 0.9536288976669312, -0.8370248079299927, -0.6379717588424683, -0.9838890433311462, 0.3172700107097626, -0.9596271514892578, 0.38461339473724365, -0.7428469061851501, -0.23580165207386017, -0.08372341096401215, 0.2273125797510147, 0.34739744663238525, 0.30834516882896423, 0.11005206406116486, -0.2998543381690979, -0.13709713518619537, -0.23517641425132751, -0.14777855575084686, 0.048973407596349716, 0.12405966967344284, -0.0005883966805413365, -0.01435824204236269, -0.10436150431632996, -0.1601588875055313, 0.08422363549470901, -0.0023524316493421793, -0.09348148107528687, -0.08412370085716248, -0.17621637880802155, 0.13930459320545197, -0.10032746195793152, -0.1768934279680252, 0.2262192666530609, -0.1855081170797348, 0.251615434885025, 0.4037790298461914, -0.0905018150806427, -0.04592917114496231, -0.03963839262723923, 0.22305232286453247, 0.13387233018875122, -0.07479505985975266, -0.11423488706350327, 0.13504305481910706, -0.15544447302818298, 0.08710924535989761, -0.1483416110277176, 0.07866331189870834, -0.021802373230457306, -0.03914381563663483, -0.08692511171102524, -0.09717367589473724, -0.08335191756486893, 0.39230066537857056, -0.07954935729503632, 0.06712379306554794, 0.1889868974685669, 0.04961749166250229, -0.15905824303627014, -0.2763310968875885, -0.01826404593884945, -0.09659520536661148, -0.09847747534513474, 0.14346522092819214, 0.29339662194252014, 0.47078028321266174, 0.0363885872066021, 0.2727544605731964, 0.07950514554977417, -0.031717367470264435, -0.09592587500810623, -0.0904608964920044, 0.052966538816690445, -0.036079686135053635, -0.028032584115862846, -0.1591855138540268, 0.2993663549423218, -0.13534270226955414, -0.17837145924568176, 0.2669427692890167, 0.04839404299855232, -0.021631084382534027, -0.19475512206554413, 0.24205711483955383, -0.13367082178592682, -0.17884017527103424, 0.14579220116138458, -0.18172422051429749, -0.3859885036945343, -0.2865096628665924, -0.3154909014701843, 0.1826123297214508, 0.14979170262813568, -0.22363777458667755, -0.18172065913677216, 0.15806615352630615, 0.2029687613248825, 0.24271920323371887, -0.18507081270217896, 0.03993583843111992, -0.11259377747774124, -0.18733297288417816, 0.23668190836906433, 0.05389046669006348, 0.16516566276550293, 0.03824950009584427, 0.1240505501627922, -0.1532438099384308, 0.08536718040704727, 0.21555723249912262, -0.454458087682724, -0.028690487146377563, 0.1747075617313385, -0.055538397282361984, -0.21085324883460999, -0.024919822812080383, 0.06191030517220497, -0.12541000545024872, 0.0019876158330589533, 0.2588026523590088, 0.1079457551240921, 0.06614577770233154, -0.14757040143013, 0.3008039891719818, 0.12754981219768524, -0.19509011507034302, -0.22573967278003693, 0.2161472588777542, -0.16979870200157166, 0.02839171700179577, -0.07478401809930801, 0.08685653656721115, -0.2540756165981293, 0.01267797127366066, 0.08394189178943634, 0.045326560735702515, 0.013377205468714237, 0.1796979457139969, -0.315885066986084, -0.1546713262796402, -0.36874261498451233, -0.23306524753570557, 0.051086097955703735, -0.08526982367038727, 0.17385293543338776, -0.006729626562446356, 0.3189917802810669, 0.036545343697071075, -0.17078790068626404, 0.30523258447647095, -0.28169503808021545, 0.33689582347869873, -0.24774689972400665, -0.17235340178012848, -0.22060665488243103, 0.09725141525268555, 0.19978564977645874, -0.23449325561523438, 0.11399315297603607, 0.03714362159371376, -0.12570196390151978, -0.0756133496761322, 0.11548289656639099, 0.30591121315956116, 0.16670823097229004, 0.12638796865940094, 0.1385410577058792, -0.12530578672885895, -0.03721723333001137, -0.05468621104955673, -0.16998575627803802, -0.007654440123587847, 0.030317317694425583, -0.24473337829113007, 0.13296981155872345, 0.059877268970012665, 0.3813474774360657, 0.16476815938949585, -0.16105633974075317, 0.2619689702987671, 0.1157367080450058, 0.058651238679885864, -0.22485774755477905, -0.015993209555745125, -0.06805726140737534, 0.05138109624385834, -0.3025149405002594, -0.2071976512670517, -0.021813543513417244, -0.14694105088710785, -0.005526703782379627, 0.18925167620182037, -0.29698124527931213, 0.0520172119140625, 0.28702205419540405, -0.12646423280239105, -0.2675480246543884, -0.17224502563476562, 0.17355377972126007, -0.17838531732559204, -0.2342233955860138, -0.4248623251914978, -0.389356791973114, 0.3100718855857849, 0.06778640300035477, -0.2266324758529663, -0.061178144067525864, 0.16056150197982788, -0.17696218192577362, -0.0851680263876915, -0.19634824991226196, 0.04906625673174858, 0.2891978919506073, -0.044921740889549255, 0.14185282588005066, 0.035437263548374176, 0.11671246588230133, 0.23075856268405914, 0.058848414570093155, 0.31571659445762634, -0.32773178815841675, 0.21734386682510376, 0.10975007712841034, -0.12115088850259781, 0.3228302299976349, 0.19643954932689667, -0.13665977120399475, -0.33438125252723694, 0.43931499123573303, 0.0016228884924203157, 0.08996862173080444, 0.07811742275953293, 0.06288601458072662, 0.29304593801498413, 0.05246785283088684, -0.06337430328130722, -0.33301490545272827, -0.022143833339214325, 0.28318873047828674, -0.2174113392829895, 0.12780338525772095, 0.10311009734869003, -0.14762365818023682, -0.06417474150657654, -0.018993742763996124, 0.15734751522541046, 0.12245766818523407, 0.12994463741779327, 0.10584522783756256, -0.20451439917087555, -0.2740302085876465, 0.19861434400081635, -0.2526095509529114, 0.04508787393569946, -0.1777951419353485, 0.0936645045876503, 0.12738919258117676, -0.29014745354652405, 0.3777617812156677, 0.09356971830129623, -0.25349441170692444, 0.3551219701766968, -0.2144540399312973, -0.1426616609096527, -0.06052311509847641, 0.024413108825683594, 0.07797785848379135, -0.08142401278018951, -0.06462104618549347, 0.14934302866458893, 0.23529145121574402, 0.34105923771858215, 0.07138048112392426, 0.19007711112499237, 0.016788877546787262, -0.2663007378578186, 0.1426408588886261, -0.4086454510688782, -0.30156686902046204, -0.08353663235902786, -0.11034052819013596, 0.006253058090806007, -0.14128483831882477, 0.3137954771518707, 0.06725091487169266, -0.13010510802268982, 0.07601378858089447, 0.06472644954919815, 0.02477717399597168, -0.14120078086853027, -0.3453315198421478, -0.4695751667022705, -0.13962852954864502, -0.3053569495677948, -0.19703736901283264, 0.07617039233446121, -0.43922895193099976, 0.00333164120092988, -0.0873062014579773, 0.1357143372297287, 0.09881963580846786, 0.10851659625768661, 0.08236026018857956, -0.009536194615066051, 0.001338257105089724, 0.2764633297920227, 0.12821988761425018, 0.12250157445669174, -0.4116734564304352, -0.18458832800388336, -0.2554123103618622, -0.26073700189590454, 0.012718931771814823, -0.12432225793600082, -0.2189519852399826, -0.1670854091644287, -0.08023574948310852, -0.48218005895614624, -0.22147400677204132, -0.15244047343730927, 0.07354401051998138, -0.010824017226696014, 0.1839938461780548, 0.20324797928333282, -0.06051047518849373, 0.4434300363063812, -0.1104484349489212, -0.029169229790568352, -0.3786759674549103, -0.3259873390197754, 0.06028980016708374, 0.051671989262104034, 0.13182762265205383, -0.3104637861251831, 0.16522322595119476, -0.056331802159547806, 0.11374153196811676, -0.2087128460407257, -0.08885259181261063, -0.10734741389751434, 0.04411814361810684, -0.08335259556770325, -0.3402939736843109, 0.05984753742814064, 0.08824776113033295, -0.09962661564350128, 0.3395663797855377, 0.18766182661056519, 0.16742107272148132, -0.06429518014192581, -0.01939326524734497, 0.24391958117485046, 0.18557913601398468, 0.03220515698194504, -0.10426904261112213, 0.3305549621582031, 0.11423465609550476, 0.24874131381511688, 0.0324125774204731, 0.0467069149017334, 0.0016263192519545555, 0.020606432110071182, 0.003697614185512066, -0.641784131526947, 0.23844602704048157, -0.18850022554397583, 0.10253625363111496, 0.066407710313797, 0.04235950857400894, -0.16196629405021667, -0.0677797868847847, -0.0776592418551445, -0.11885738372802734, 0.1207462027668953, -0.02749226614832878, -0.358737587928772, 0.09055706858634949, 0.06125516816973686, 0.062650166451931, -0.1276164948940277, -0.014658678323030472, -0.1725894659757614, 0.24561919271945953, 0.12464212626218796, 0.06161956116557121, 0.01730610616505146, -0.13610650599002838, -0.14990787208080292, 0.04620940983295441, -0.34996935725212097, 0.09724236279726028, -0.0450783334672451, -0.012687069363892078, -0.06207120418548584, -0.14898717403411865, 0.057178184390068054, -0.00022800812439527363, -0.2534051239490509, 0.04398970305919647, 0.057772547006607056, 0.20785869657993317, -0.12476935237646103, 0.03539662808179855, 0.1968696266412735, 0.08264035731554031, -0.06704581528902054, -0.0821591466665268, -0.044733982533216476, -0.3598374128341675, -0.07329246401786804, -0.026710329577326775, -0.04458700492978096, 0.26051369309425354, 0.027486873790621758, -0.07108134031295776, 0.004937231540679932, 0.02077650837600231, -0.12281204015016556, 0.39618876576423645, -0.038676466792821884, 0.021014975383877754, -0.22489096224308014, -0.023234494030475616, 0.19631174206733704, -0.2620679438114166, -0.2203606814146042, 0.08234161138534546, 0.08841344714164734, 0.1063031330704689, 0.020032456144690514, 0.21316884458065033, 0.12932467460632324, -0.00658200541511178, 0.030077217146754265, 0.034331098198890686, -0.18361668288707733, 0.11905379593372345, -0.16613657772541046, 0.10984509438276291, 0.20009854435920715, -0.032514747232198715, -0.07521811127662659, 0.33301517367362976, -0.14592868089675903, 0.03282126411795616, -0.00899125449359417, 0.03518587350845337, 0.11115994304418564, 0.008179222233593464, 0.13895274698734283, 0.04664769023656845, -0.007278010249137878, -0.17337164282798767, -0.18584036827087402, -0.1351892203092575, 0.12558051943778992, -0.204851895570755, 0.21359536051750183, -0.10123207420110703, 0.06423727422952652, 0.48365136981010437, -0.27139949798583984, 0.22803375124931335, 0.09347863495349884, 0.1323745846748352, -0.045642685145139694, -0.005222371779382229, 0.04439418390393257, 0.0024738565552979708, 0.07940192520618439, -0.13425074517726898, 0.30508244037628174, -0.12386024743318558, -0.005922170355916023, 0.029421472921967506, -0.0012825587764382362, -0.10188379883766174, -0.018744219094514847, 0.11099594831466675, 0.058210648596286774, -0.1675870418548584, 0.06020139157772064, 0.08481765538454056, -0.18164077401161194, -0.2261316478252411, 0.0675799548625946, -0.18861767649650574, 0.017208842560648918, 0.08786098659038544, 0.03663086146116257, -0.46059322357177734, -0.10240799188613892, 0.03254926949739456, -0.20054563879966736, 0.02882874384522438, 0.10524064302444458, 0.15466688573360443, -0.35743874311447144, 0.11914926022291183, 0.09940701723098755, 0.27898290753364563, 0.10791382938623428, 0.05493326857686043, -0.08333498239517212, 0.01080942340195179, -0.032565753906965256, -0.07715223729610443, -0.22051729261875153, -0.026513151824474335, 0.18405380845069885, -0.2745988965034485, 0.0314023494720459, -0.3043716549873352, 0.007917452603578568, 0.20405665040016174, -0.2159413844347, 0.24064545333385468, 0.11313030868768692, -0.10068478435277939, 0.033243726938962936, -0.1659982055425644, -0.07449158281087875, -0.03043944761157036, 0.35714274644851685, -0.19788727164268494, -0.1352776288986206, -0.07629454135894775, -0.21955092251300812, 0.039263587445020676, -0.355716347694397, -0.3226756155490875, -0.19013160467147827, -0.19554682075977325, -0.2786113917827606, -0.09500516206026077, 0.009769350290298462, -0.20831497013568878, -0.11862450838088989, -0.2997068762779236, 0.1252351850271225, 0.021777279675006866, 0.002746434649452567, -0.0025917550083249807, 0.06221688166260719, 0.15146902203559875, -0.07529177516698837, 0.005656910128891468, 0.12290837615728378, -0.11977248638868332, 0.09848329424858093, -0.16269904375076294, -0.09456943720579147, -0.054941173642873764, -0.0010686725145205855, 0.04414902254939079, -0.2211313396692276, 0.013627520762383938, -0.5289846062660217, 0.004168374463915825, -0.12202426791191101, -0.006092583294957876, -0.05211250111460686, 0.12539976835250854, -0.03720838949084282, 0.1186128556728363, 0.27666175365448, -0.29222115874290466, 0.018348727375268936, 0.05792003870010376, -0.2189275026321411, 0.037000756710767746, -0.16373500227928162, -0.03040950745344162, -0.02799038589000702, -0.002207099227234721, -0.1732078343629837, -0.1783674657344818, 0.02000308223068714, 0.21632277965545654, 0.238015815615654, 0.2839480936527252, -0.05017724260687828, -0.09535795450210571, -0.28054407238960266, 0.053032878786325455, -0.05249354615807533, 0.08572577685117722, -0.1772335320711136, -0.05569005385041237, 0.17700092494487762, 0.08779899775981903, -0.14683380722999573, -0.41082075238227844, 0.10283159464597702, 0.0750654861330986, -0.27749142050743103, -0.03832949325442314, -0.1017836183309555, -0.06682036072015762, 0.2840828001499176, -0.04268192499876022, -0.04901815950870514, -0.08471500873565674, 0.015618976205587387, -0.13319367170333862, -0.25937899947166443, 0.10005153715610504, -0.09185048192739487, 0.04718460887670517, 0.031003907322883606, -0.36382022500038147, 0.13381001353263855, -0.008170229382812977, 0.01920223981142044, -0.08848720788955688, -0.19148918986320496, 0.20591853559017181, 0.3961230218410492, -0.02770317904651165, 0.1433788239955902, 0.058046966791152954, 0.07942157238721848, -0.26744240522384644, 0.15016619861125946, -0.031584106385707855, 0.06687173247337341, -0.024733243510127068, 0.02670869790017605, -0.176334410905838, -0.3811456859111786, 0.18650703132152557, 0.30610525608062744, 0.10975399613380432, -0.04881231486797333, -0.14412851631641388, -0.3587658703327179, 0.10852660983800888, -0.46456173062324524, 0.029623985290527344, -0.06676662713289261, -0.15122531354427338, 0.0852145329117775, -0.14003625512123108, -0.03655121475458145, 0.21534287929534912, 0.16132432222366333, 0.20460404455661774, -0.16823768615722656, -0.02395402267575264, 0.08262801915407181, -0.028348753228783607, 0.06948389112949371, 0.109836645424366, -0.06094546616077423, 0.21167343854904175, 0.04871606454253197, -0.18395216763019562, -0.11820016801357269, 0.23137465119361877, 0.020391590893268585, -0.0835258737206459, -0.2941376566886902, -0.054016705602407455, 0.13499467074871063, -0.27763861417770386, 0.20721200108528137, 0.09547591209411621, 0.45352646708488464, -0.05686813220381737, 0.0689164400100708, 0.09150787442922592, -0.02360275760293007, -0.09036333858966827, -0.1031961664557457, 0.003918438218533993, 0.1757717877626419, -0.40594467520713806, -0.13593965768814087, 0.04066180810332298, -0.21705059707164764, 0.1626112461090088, -0.05999141186475754, -0.1798577457666397, 0.12407015264034271, 0.0858701765537262, -0.11747138202190399, -0.04541470855474472, 0.0040273810736835, 0.720495879650116, -0.17866382002830505, 0.08628463745117188, 0.0364401713013649, 0.08045410364866257, 0.07642698287963867, -0.08758096396923065, 0.08757424354553223, -0.05003799870610237, 0.14145779609680176, -0.21839970350265503, -0.2939874529838562, -0.1388501524925232, 0.04549209028482437, -0.17343167960643768, 0.03367982432246208, -0.042894769459962845, 0.101781465113163, 0.35793012380599976, 0.03134112432599068, -0.051991719752550125, 0.3735990822315216, -0.12902843952178955, -0.032215360552072525, -0.2537067234516144, -0.3101693391799927, -0.02808031439781189, 0.034375615417957306, 0.05575468763709068, -0.19546224176883698, 0.06458405405282974, 0.16266365349292755, 0.14351224899291992, -0.066416896879673, -0.17012278735637665, -0.3295474946498871, 0.05069589987397194, 0.23638470470905304, -0.12696725130081177, -0.21921706199645996, 0.214076966047287, 0.09101127088069916, 0.1772451400756836, 0.20552805066108704, -0.2614850699901581, -0.04921313747763634, -0.10412579774856567, 0.05711331591010094, -0.01516302116215229, -0.020993925631046295, 0.05931989103555679, 0.041041988879442215, 0.11863221973180771, 0.1549854725599289, 0.10498090088367462, 0.002332475734874606, -0.16109752655029297, -0.2898460626602173, 0.40189674496650696, -0.7436568737030029, 0.29569438099861145, 0.1964481920003891, 0.16417117416858673, 0.018977155908942223, -0.054946813732385635, -0.11763730645179749, -0.057177089154720306, 0.03075988031923771, -0.24068711698055267, -0.055524855852127075, 0.23931482434272766, -0.20762883126735687, -0.009656398557126522, 0.11264543235301971, -0.15417031943798065, 0.08341401815414429, 0.11372487246990204, 0.18616418540477753, 0.0021900427527725697, -0.011664613150060177, 0.2608480155467987, -0.3080560266971588, -0.14718060195446014, 0.17808713018894196, -0.15353648364543915, 0.035516828298568726, 0.1595776528120041, 0.5014483332633972, -0.08570325374603271, -0.14806737005710602, 0.2614768445491791, 0.13323713839054108, -0.043380264192819595, 0.44807809591293335, 0.07618755102157593, -0.08247339725494385, -0.04113055393099785, 0.26552513241767883, 0.08297593146562576, -0.040004655718803406, -0.2726452052593231, -0.28345224261283875, 0.42014428973197937, -0.09609869867563248, 0.33641791343688965, -0.21861837804317474, -0.27313610911369324, -0.05100015550851822, 0.12415154278278351, -0.14681366086006165, 0.05987601727247238, 0.2831687331199646, -0.4115564227104187, 0.12382050603628159, -0.2665625214576721, 0.0954640656709671, -0.10983198881149292, -0.03155064210295677, -0.017611591145396233, -0.21222944557666779, 0.09953320771455765, -0.0163953248411417, 0.03733639419078827, -0.007398122921586037, -0.20007111132144928, 0.015073101967573166, -0.016797363758087158, 0.014432568103075027, 0.3715636432170868, -0.1637023240327835, 0.012851228006184101, 0.11652487516403198, 0.08223526924848557, 0.06854011118412018, -0.17211392521858215, -0.10122643411159515, 0.03568064793944359, -0.37660640478134155, -0.07876475155353546, -0.08419796079397202, 0.24004101753234863, 0.26577550172805786, 0.06755674630403519, -0.3415425717830658, -0.15252619981765747, 0.08212360739707947, -0.04613109678030014, -0.058736156672239304, 0.09319069236516953, -0.42758500576019287, -0.30703070759773254, -0.23860284686088562, 0.002761701587587595, 0.2069161981344223, 0.08781026303768158, -0.24123656749725342, -0.07386242598295212, 0.07197446376085281, 0.009604177437722683, -0.2999019920825958, -0.21408508718013763, 0.4666896164417267, -0.16934531927108765, -0.23649974167346954, 0.28664541244506836, 0.30822309851646423, 0.12493067979812622, -0.4291938841342926, 0.15938611328601837, 0.09754569828510284, 0.1628054529428482, 0.06030631437897682, 0.0234419833868742, -0.019236400723457336, -0.168462336063385, 0.008186975494027138, 0.017145318910479546, 0.025710931047797203, 0.007389345206320286, -0.21918103098869324, 0.2737710475921631, 0.0015471731312572956, 0.1679224967956543, -0.16287870705127716, -0.2638583183288574, 0.001926554017700255, -0.2859596908092499, -0.07648308575153351, -0.2883991003036499, -0.15968580543994904, -0.3090120553970337, -0.06575101613998413, -0.06874965131282806, -0.135120689868927, 0.010081585496664047, -0.3419238030910492, 0.05924597755074501, -0.027261026203632355, 0.038032907992601395, -0.052751488983631134, -0.2593970000743866, -0.05980876833200455, -0.11328265815973282, 0.18062403798103333, -0.44361454248428345, 0.019546085968613625, -0.40429753065109253, 0.13399267196655273, 0.09805332124233246, -0.012312659993767738, 0.1745196282863617, 0.2356860339641571, -0.0293715912848711, -0.16236083209514618, -0.08127494156360626, 0.20931249856948853, -0.5410573482513428, -0.1226457804441452, -0.12605468928813934, 0.24869492650032043, 0.01430443860590458, -0.057719726115465164, 0.13889582455158234, 0.1186886727809906, -0.013368641026318073, -0.30409061908721924, -0.2687637507915497, -0.08858278393745422, 0.12256038933992386, -0.08694780617952347, -0.031259506940841675, 0.1745060533285141, -0.35872939229011536, -0.02617093361914158, 0.20156097412109375, 0.2470186948776245, 0.12324352562427521, 0.19827264547348022, 0.052419718354940414, 0.11201576143503189, 0.11890202015638351, 0.18792876601219177, 0.04212600737810135, 0.1698220819234848, -0.14028353989124298, 0.14181841909885406, 0.010623329319059849, -0.28427183628082275, -0.2085491120815277, 0.11919226497411728, -0.5107887983322144, 0.06685233861207962, 0.12841176986694336, -0.010011867620050907, -0.20078818500041962, 0.028975743800401688, 0.04912853240966797, -0.24012984335422516, -0.16471430659294128, 0.049649398773908615, -0.1309269368648529, -0.03179687261581421, -0.3651740849018097, 0.1548774093389511, 0.046269383281469345, 0.15671658515930176, 0.05335571616888046, -0.07773983478546143, -0.15901605784893036, -0.027857737615704536, -0.023024337366223335, -0.18539594113826752, 0.23252908885478973, -0.11962373554706573, 0.17527630925178528, -0.009756078943610191, 0.1692570447921753, 0.21934358775615692, -0.5894185900688171, 0.2565581798553467, 0.24205845594406128, -0.26505663990974426, 0.22681686282157898, 0.21741072833538055, 0.07008390128612518, -0.007819894701242447, 0.2848456799983978, -0.152853325009346, -0.13258174061775208, -0.3842045068740845, 0.3123685419559479, -0.007639546412974596, 0.27668583393096924, -0.5067707300186157, 0.1657746136188507, 0.0975932702422142, 0.12544427812099457, -0.24342194199562073, 0.2809843420982361, -0.1634480357170105, -0.04002157598733902, 0.44048893451690674, -0.21452929079532623, -0.02435748092830181, -0.4533161520957947, 0.16424648463726044, 0.02595776505768299, -0.4553601145744324, 0.11428942531347275, -0.24031369388103485, -0.0026085516437888145, -0.01923976093530655, -0.19574454426765442, -0.1050141453742981, -0.10787013173103333, 0.08673691749572754, 0.09600135684013367, 0.38716620206832886, 0.23521488904953003, 0.15360622107982635, 0.13889603316783905, -0.19802694022655487, -0.010923611931502819, -0.017827646806836128, -0.03622787818312645, 0.2307630181312561, 0.17956337332725525, 0.00496708694845438, 0.01505773514509201, -0.3377373218536377, 0.21907953917980194, 0.001847876817919314, -0.023754747584462166, -0.10954225063323975, 0.15871772170066833, 0.10769233107566833, 0.23408536612987518, 0.06878137588500977, 0.524549126625061, -0.3027794659137726, 0.19632488489151, -0.08023273944854736, -0.10748609155416489, -0.04517850652337074, 0.035949140787124634, -0.23623503744602203, 0.06871642917394638, 0.09238878637552261, -0.024191398173570633, 0.3358193337917328, -0.12578657269477844, 0.16143175959587097, 0.039184898138046265, -0.2807721495628357, 0.3695323169231415, 0.052126042544841766, 0.12464850395917892, -0.03042256459593773, -0.027371611446142197, 0.33472350239753723, 0.33864787220954895, 0.16791264712810516, 0.023763025179505348, -0.0390433631837368, 0.10504718124866486, 0.18388108909130096, -0.07167929410934448, -0.4523935317993164, 0.12849430739879608, 0.29557564854621887, 0.2418568879365921, 0.08111844211816788, -0.3488633632659912, 0.18488924205303192, -0.028131850063800812, 0.18954677879810333, 0.06952742487192154, -0.38037344813346863, 0.7902207970619202, 0.14061157405376434, -0.25345465540885925, -0.011334423907101154, -0.18758870661258698, -0.21299397945404053, 0.5039955377578735, -0.8905087113380432, 0.8287547826766968, 0.3385893702507019, 0.1085982620716095, -0.11604117602109909, 0.32591554522514343, -0.6805928945541382, 0.26079872250556946, -0.11867335438728333, 0.10535645484924316, -0.46916908025741577, 0.13653558492660522, 0.15459343791007996, 0.26343831419944763, 0.002420419827103615, 0.1437469720840454, 0.03776508569717407, 0.116433285176754, 0.11758830398321152, -0.2758580148220062, -0.07060887664556503, -0.09668907523155212, 0.0324406623840332, 0.18183723092079163, -0.06221001222729683, 0.009732715785503387, 0.22064262628555298, 0.22498735785484314, 0.15723083913326263, 0.02882826142013073, -0.17109988629817963, -0.16740085184574127, 0.007238402962684631, -0.08351971209049225, -0.3048413395881653, 0.13548853993415833, -0.0048014260828495026, 0.4251891076564789, -0.06817606836557388, 0.041052695363759995, 0.023957083001732826, -0.06610345095396042, -0.40495726466178894, 0.0028791625518351793, -0.28453853726387024, 0.07661261409521103, 0.06814134865999222, -0.1087912917137146, 0.1349857896566391, -0.010294570587575436, -0.12174707651138306, 0.04889887198805809, -0.39653900265693665, 0.1278999000787735, 0.13324180245399475, 0.41920843720436096, -0.08024250715970993, 0.34834662079811096, -0.059615541249513626, 0.14416621625423431, 0.4487195312976837, -0.46393758058547974, 0.36205217242240906, 0.2665095031261444, -0.1542164534330368, -0.06448893249034882, 0.2829737663269043, 0.05998615175485611, 0.11762557178735733, 0.26669037342071533, -0.16266818344593048, 0.003389592282474041, -0.2765522003173828, 0.06735412031412125, -0.1628056764602661, 0.15442439913749695, -0.13566723465919495, 0.10922494530677795, -0.12718351185321808, 0.27000167965888977, -0.04493740573525429, -0.2501080632209778, 0.02093946374952793, -0.29472365975379944, 0.02745303325355053, 0.17857249081134796, 0.10533937811851501, -0.2805400490760803, -0.06577343493700027, -0.17346544563770294, -0.08102459460496902, -0.01509639248251915, -0.22805428504943848, 0.26931244134902954, -0.25267094373703003, -0.12772710621356964, -0.3361375331878662, 0.22184446454048157, 0.1472242921590805, -0.2565939724445343, 0.16876979172229767, 0.2967912554740906, 0.06275607645511627, -0.07713712751865387, -0.107663594186306, 0.04048203304409981, 0.3610086739063263, 0.06568983942270279, -0.24606285989284515, 0.11461452394723892, -0.11028802394866943, -0.19371701776981354, -0.028107410296797752, 0.07637512683868408, -0.19201965630054474, 0.1692650020122528, 0.2412004917860031, 0.214045450091362, 0.16546431183815002, 0.05994606018066406, 0.016593623906373978, -0.27084407210350037, -0.09634868055582047, 0.0927066057920456, -0.1032390370965004, 0.05781129375100136, -0.05291226506233215, -0.07022783160209656, -0.10200665891170502, -0.11508608609437943, 0.10486779361963272, -0.0030018219258636236, 0.03613702207803726, 0.08407146483659744, -0.1904378980398178, -0.13738800585269928, 0.41060924530029297, 0.028558630496263504, 0.11238551139831543, 0.19685231149196625, 0.06070639193058014, -0.257883220911026, 0.1639566272497177, -0.06453826278448105, 0.28271445631980896, -0.02258884720504284, 0.31776031851768494, -0.19485202431678772, -0.29372572898864746, -0.03673087805509567, -0.016033481806516647, 0.10603789985179901, -0.34180548787117004, -0.12099788337945938, 0.4805551767349243, -0.05597627907991409, 0.03075356036424637, -0.057196568697690964, -0.31185969710350037, -0.0999598577618599, -0.26948967576026917, -0.005978185683488846, -0.19552980363368988, -0.09259561449289322, 0.2576139569282532, 0.2487950474023819, -0.07158995419740677, 0.33475250005722046, 0.0466826893389225, 0.08903443813323975, -0.27085772156715393, 0.15727046132087708, 0.06563679873943329, 0.06062060967087746, 0.015226251445710659, 0.28829067945480347, 0.19609226286411285, -0.276895672082901, 0.08298103511333466, 0.1453215777873993, -0.44537413120269775, 0.04219720512628555, 0.15695802867412567, -0.26793161034584045, 0.06365007907152176, -0.059399284422397614, 0.09260506182909012, 0.01817946881055832, 0.09225109219551086, 0.11326947063207626, 0.11124389618635178, -0.24283680319786072, -0.14690113067626953, 0.05752125009894371, 0.618610143661499, -0.32356423139572144, -0.22113078832626343, 0.1231643334031105, -0.12304218113422394, -0.1694338172674179, -0.542117714881897, 0.12637116014957428, 0.07556899636983871, 0.08261294662952423, 0.08682353794574738, -0.24616439640522003, -0.22466622292995453, 0.31508031487464905, 0.10729353874921799, -0.2869755029678345, -0.4479861557483673, -0.1477777510881424, 0.08123588562011719, 0.08273915946483612, 0.03232834115624428, -0.10530674457550049, 0.10007568448781967, 0.10325067490339279, 0.1915060132741928, -0.16821706295013428, -0.15062718093395233, 0.049899447709321976, -0.0980289876461029, 0.09926734864711761, -0.023530026897788048, 0.01587439328432083, -0.3509593904018402, 0.26578012108802795, 0.2591424882411957, -0.23730996251106262, -0.19100290536880493, -0.2517085671424866, 0.5142252445220947, -0.124478280544281, -0.03634737432003021, -0.17180608212947845, -0.3336792588233948, 0.12526683509349823, -0.2474583387374878, 0.10660990327596664, 0.222597137093544, 0.2709570825099945, 0.3698093891143799, -0.23097959160804749, 0.0021594667341560125, -0.04933227226138115, -0.39053916931152344, -0.3744168281555176, 0.14705047011375427, -0.1522918939590454, -0.3442915678024292, -0.04732760787010193, -0.21811507642269135, -0.08378966152667999, -0.2790747582912445, 0.06437542289495468, 0.3178927004337311, 0.24818852543830872, 0.2836396396160126, -0.2947430908679962, -0.35793933272361755, -0.12207629531621933, 0.07849116623401642, 0.3662252724170685, 0.06615401804447174, 0.19294396042823792, 0.21841822564601898, 0.11407280713319778, 0.5169727206230164, 0.15532170236110687, 0.17239166796207428, -0.2809046506881714, -0.061412837356328964, 0.0743355005979538, 0.140975683927536, 0.23847153782844543, -0.09526238590478897, 0.008886067196726799, -0.020634284242987633, -0.04701144993305206, 0.10074741393327713, 0.09797912836074829, 0.06513451784849167, -0.217516228556633, 0.02257034182548523, 0.11675696820020676, -0.13100701570510864, 0.24322359263896942, 0.04806336387991905, 0.0398092158138752, 0.12640897929668427, 0.02078774757683277, -0.34795621037483215, -0.07401124387979507, -0.021007409319281578, 0.1347961276769638, 0.22160156071186066, 0.15846920013427734, 0.03734870254993439, -0.08574351668357849, -0.36068129539489746, 0.15214404463768005, 0.07191313803195953, 0.019419288262724876, -0.574391782283783, -0.03319152817130089, -0.19035136699676514, 0.18712642788887024, 0.008542012423276901, 0.0014106552116572857, -0.27019134163856506, 0.042218610644340515, -0.08800078928470612, -0.22179698944091797, -0.02352607436478138, -0.11701057851314545, 0.0050278776325285435, -0.03630080819129944, 0.12399456650018692, -0.039419736713171005, -0.16100703179836273, -0.0464121475815773, -0.3299320638179779, -0.07017774134874344, -0.09229864180088043, -0.37294653058052063, 0.11593232303857803, 0.18189957737922668, -0.19711755216121674, -0.06366520375013351, 0.17444168031215668, -0.1779921054840088, -0.008745672181248665, 0.01626516878604889, -0.11411383748054504, 0.07069399952888489, -0.22250275313854218, 0.3896621763706207, 0.32728487253189087, -0.1612909436225891, -0.07924143970012665, 0.09824530780315399, 0.4099270701408386, -0.3282039165496826, -0.013457306660711765, -0.0184981357306242, 0.09861694276332855, 0.07438984513282776, 0.192682147026062, -0.2522684335708618, -0.17265315353870392, 0.1974310725927353, 0.1575910449028015, -0.15173497796058655, 0.13823716342449188, -0.07832419872283936, -0.01964448019862175, -0.1645318567752838, 0.32083627581596375, 0.10999061912298203, 0.4234670102596283, -0.20346322655677795, -0.1766463816165924, -0.30852723121643066, 0.2532322108745575, -0.03537079691886902, -0.30893170833587646, 0.3619219660758972, -0.13278327882289886, 0.26057499647140503, 0.2793506681919098, -0.08353608101606369, 0.3558386266231537, -0.02929377369582653, -0.07920108735561371, -0.13653850555419922, -0.33017730712890625, 0.06780990213155746, -0.27689316868782043, 0.21483269333839417, -0.07331337034702301, -0.22175003588199615, -0.16131849586963654, 0.32488498091697693, -0.10453405231237411, 0.08001840859651566, -0.10106751322746277, -0.10349459201097488, -0.16276997327804565, 0.40879330039024353, -0.38940709829330444, -0.1572839468717575, 0.01978841796517372, -0.22022689878940582, -0.1292475461959839, -0.05733869597315788, -0.0918813943862915, 0.013514656573534012, 0.20286564528942108, 0.10140033066272736, -0.0011438094079494476, 0.11637040972709656, -0.12591761350631714, 0.0810096338391304, 0.08494631201028824, 0.13257625699043274, 0.04862521216273308, -0.044855017215013504, -0.055911727249622345, -0.04560695216059685, 0.27705004811286926, -0.08447325974702835, -0.4330099821090698, 0.23286210000514984, 0.08508258312940598, 0.02353142760694027, -0.19067248702049255, 0.2825791835784912, -0.25545498728752136, -0.17329762876033783, -0.32050326466560364, -0.02835124172270298, 0.4191270172595978, -0.18838809430599213, 0.08224983513355255, 0.28876692056655884, 0.29077470302581787, 0.24738655984401703, 0.21796415746212006, 0.30455413460731506, 0.21740585565567017, -0.09320782124996185, 0.04534872993826866, 0.10299431532621384, -0.30333083868026733, -0.12894774973392487, -0.2748974859714508, 0.1938772350549698, -0.022989166900515556, -0.07621116191148758, 0.41784587502479553, 0.2187710404396057, -0.056652333587408066, 0.12494660168886185, -0.03707856312394142, -0.10118434578180313, 0.5130494236946106, 0.11907327175140381, 0.14459754526615143, -0.2506040930747986, -0.32172444462776184, -0.09190627932548523, 0.3293308615684509, 0.3277701735496521, 0.2527182400226593, -0.0369160957634449, -0.009603152051568031, 0.11959931999444962, 0.1069050207734108, -0.03801318258047104, 0.26455143094062805, 0.2115471065044403, 0.21323952078819275, 0.2227039784193039, -0.28898102045059204, 0.046565596014261246, 0.21473903954029083, -0.16185198724269867, -0.24018222093582153, 0.06403372436761856, 0.1003904640674591, 0.23897600173950195, -0.014250014908611774, -0.19521845877170563, 0.08929987251758575, 0.1698683500289917, 0.09017740190029144, 0.055947959423065186, 0.20536218583583832, -0.1874086707830429, -0.04100927710533142, -0.15885351598262787, 0.27800244092941284, 0.002948824781924486, -0.09896276891231537, -0.26818156242370605, -0.05836786329746246, 0.10472807288169861, 0.026620076969265938, 0.021648027002811432, -0.10120219737291336, 0.1006954237818718, 0.1715875267982483, 0.0004475449677556753, -0.0003135168517474085, -0.15881627798080444, 0.6285234689712524, -0.08030340075492859, -0.03122732788324356, -0.14344380795955658, 0.02535267546772957, -0.043046966195106506, 0.16978605091571808, 0.06248722970485687, -0.05445198342204094, -0.16686171293258667, -0.2263411283493042, -0.0805601105093956, 0.14604602754116058, -0.06911323964595795, -0.20962901413440704, -0.09603511542081833, 0.009209471754729748, -0.0866447389125824, 0.22899459302425385, -0.02248110994696617, 0.01185478176921606, 0.21782828867435455, -0.12420595437288284, -0.43141335248947144, -0.2159503549337387, -0.12357667088508606, -0.22867217659950256, 0.06572054326534271, -0.1222597286105156, 0.06739858537912369, 0.16545332968235016, 0.1137816309928894, 0.014959688298404217, 0.18135449290275574, -0.4048289656639099, 0.1690448820590973, -0.21388213336467743, 0.0032348751556128263, -0.18172359466552734, -0.33979371190071106, 0.11086543649435043, 0.06302855908870697, -0.15988147258758545, -0.19852374494075775, -0.19655589759349823, -0.21963109076023102, -0.10228481143712997, -0.10945983976125717, 0.31616145372390747, -0.17514364421367645, -0.0648251622915268, -0.08492583781480789, 0.018484175205230713, -0.1709381490945816, 0.10867326706647873, 0.10385263711214066, 0.10831055045127869, -0.029311157763004303, 0.27817782759666443, 0.15028980374336243, -0.0847310721874237, -0.1594308763742447, 0.023601053282618523, 0.11523202806711197, 0.016664035618305206, -0.08206961303949356, 0.10334505885839462, -0.051972370594739914, -0.13432163000106812, 0.30476275086402893, 0.16617345809936523, 0.04608317092061043, -0.12280752509832382, -0.11250007152557373, 0.0917295515537262, -0.33304813504219055, 0.25836965441703796, 0.033095430582761765, -0.08026029914617538, -0.08166183531284332, 0.10863565653562546, -0.06928257644176483, -0.11019700020551682, -0.2240322381258011, -0.13648009300231934, -0.12213316559791565, 0.03202258422970772, -0.20125068724155426, 0.14238318800926208, -0.22525575757026672, 0.0032139967661350965, 0.14131519198417664, 0.2198290377855301, 0.056440435349941254, 0.07295151054859161, -0.03221331909298897, 0.014197543263435364, 0.07337183505296707, -0.03318694233894348, -0.20024333894252777, 0.30592602491378784, 0.20780299603939056, 0.07391366362571716, -0.13194523751735687, -0.053861599415540695, -0.19762669503688812, -0.04782465100288391, 0.13071642816066742, -0.32034167647361755, -0.17597414553165436, -0.10567567497491837, 0.2928430438041687, -0.18769757449626923, -0.11346065998077393, 0.2029685080051422, 0.18130481243133545, 0.039866287261247635, -0.057189978659152985, -0.10117911547422409, -0.13450945913791656, -0.09935122728347778, -0.027364935725927353, 0.32249391078948975, 0.2677328586578369, 0.29590997099876404, 0.09982995688915253, -0.18342484533786774, -0.0953998938202858, 0.07763286679983139, 0.24548299610614777, 0.18111611902713776, -0.18960124254226685, 0.3571600914001465, 0.2715887427330017, -0.30025985836982727, -0.026329878717660904, 0.03524068370461464, 0.2681425213813782, -0.13815400004386902, 0.15943889319896698, -0.2722104787826538, 0.08466549962759018, 0.18248063325881958, 0.15013757348060608, -0.22227779030799866, 0.07061412185430527, -0.23230642080307007, 0.10709318518638611, 0.16232779622077942, -0.022845027968287468, -0.010942245833575726, -0.15353389084339142, -0.2575726807117462, -0.1768045872449875, 0.3783053159713745, 0.3028276860713959, 0.37276512384414673, 0.09931845963001251, 0.164486825466156, -0.21836702525615692, -0.19443601369857788, -0.02570425346493721, -0.556900680065155, -0.13412705063819885, -0.26866599917411804, -0.0997505933046341, 0.18871831893920898, -0.0011069325264543295, 0.3886534571647644, 0.055120572447776794, 0.15105998516082764, -0.1640111804008484, 0.07894958555698395, 0.05510161072015762, -0.1162155345082283, -0.030667828395962715, 0.18118201196193695, 0.02297879569232464, 0.03824318200349808, 0.009132088162004948, 0.05530847609043121, 0.056715384125709534, -0.026204921305179596, -0.07102522253990173, -0.2246505618095398, -0.17243973910808563, -0.1491571068763733, -0.03158969804644585, 0.13703608512878418, -0.09410782903432846, -0.0989108458161354, -0.09788186848163605, 0.0323893204331398, -0.08481506258249283, -0.03554897755384445, 0.09603802859783173, 0.12434420734643936, 0.12493451684713364, -0.1937134712934494, -0.24782231450080872, 0.17981426417827606, 0.2097560316324234, 0.0502382330596447, -0.017069026827812195, -0.058496978133916855, 0.10307320207357407, -0.18376342952251434, -0.018441304564476013, 0.1128782406449318, -0.09324732422828674, 0.2208939641714096, 0.020819222554564476, 0.1740332990884781, 0.04348801448941231, 0.17176814377307892, -0.11867716163396835, 0.008628667332231998, 0.5477853417396545, -0.0868152603507042, -0.6412440538406372, 0.12097475677728653, 0.03335456922650337, -0.2620202898979187, 0.14626751840114594, 0.16416645050048828, -0.1617339849472046, -0.4835444688796997, -0.07623385637998581, -0.06827519834041595, 0.2865685522556305, 0.13287658989429474, -0.3925747275352478, 0.3039526045322418, 0.2718478739261627, 0.058579303324222565, 0.5877071022987366, -0.03353606164455414, 0.11825189739465714, 0.43132269382476807, 0.23092257976531982, -0.39419594407081604, 0.032003629952669144, -0.1663142889738083, 0.13139717280864716, 0.12824168801307678, -0.20703095197677612, -0.06883682310581207, -0.23626478016376495, 0.10212676972150803, -0.49695199728012085, -0.16355842351913452, 0.5637623071670532, 0.2012515813112259, -0.13621170818805695, 0.08525346219539642, 0.42887815833091736, -0.4762471616268158, 0.41962549090385437, 0.1116325855255127, 0.09741726517677307, 0.030436206609010696, -0.3523229658603668, 0.3034471571445465, -0.08587814122438431, -0.19096645712852478, -0.07260173559188843, -0.25557640194892883, 0.1765260249376297, 0.34381672739982605, -0.29120364785194397, 0.14132675528526306, 0.25701507925987244, 0.19336572289466858, -0.053419359028339386, -0.09114283323287964, -0.18508678674697876, -0.08585146814584732, -0.04862328991293907, 0.1870030015707016, 0.23125825822353363, 0.02876324951648712, 0.22786766290664673, 0.10904663056135178, -0.05643833428621292, 0.11916188895702362, 0.14509287476539612, -0.020761912688612938, -0.15544678270816803, 0.43301501870155334, 0.2021343857049942, 0.06406444311141968, 0.010074024088680744, -0.09752850979566574, -0.07385632395744324, -0.04568064212799072, 0.16412575542926788, -0.022481819614768028, 0.25031575560569763, -0.1596670299768448, 0.15015295147895813, -0.19874438643455505, 0.17094247043132782, 0.03564123436808586, -0.14505532383918762, 0.1774033010005951, -0.06060779094696045, 0.26509150862693787, 0.1914491206407547, 0.0001963401009561494, 0.28232380747795105, 0.001637299545109272, -0.1260117143392563, 0.07995839416980743, 0.056181520223617554, 0.1964312493801117, 0.47251251339912415, -0.07479022443294525, -0.0018172364216297865, 0.04219973832368851, 0.3594655692577362, -0.06339121609926224, -0.03578673303127289, 0.11047139018774033, -0.09677150845527649, 0.1677771955728531, -0.030896436423063278, -0.11343730986118317, 0.038777921348810196, -0.1577945202589035, 0.11325264722108841, 0.27439889311790466, -0.22199910879135132, 0.01879790797829628, 0.07536528259515762, 0.11096346378326416, -0.1560298502445221, -0.08994059264659882, 0.1716664582490921, -0.2066994309425354, 0.28128474950790405, -0.0400887168943882, 0.1886814534664154, -0.18623484671115875, 0.263240784406662, -0.03265133872628212, 0.04919208958745003, -0.10698024183511734, 0.03300687298178673, 0.1798594444990158, 0.16220256686210632, 0.2250560075044632, -0.2639141082763672, 0.10746508836746216, -0.09665397554636002, -0.44558560848236084, -0.15145619213581085, -0.05345498025417328, -0.09281091392040253, 0.1431841254234314, -0.07653652876615524, 0.07124833762645721, -0.08502944558858871, 0.08543764054775238, 0.1744873821735382, -0.37624847888946533, 0.2624998986721039, 0.00197869585826993, -0.13258183002471924, -0.093480184674263, 0.09873492270708084, -0.4338933527469635, -0.1325443834066391, 0.4335595369338989, 0.07899581640958786, -0.0017552254721522331, 0.036062438040971756, -0.1769835203886032, -0.07343234866857529, 0.27796775102615356, 0.11643285304307938, -0.06260917335748672, 0.0972777009010315, 0.09486692398786545, -0.13245607912540436, 0.03364653140306473, -0.12136693298816681, -0.2392704039812088, 0.28702959418296814, -0.08356620371341705, 0.04304064065217972, -0.025125078856945038, -0.20745322108268738, -0.27166926860809326, 0.005424433387815952, 0.1920996457338333, 0.049154821783304214, 0.5130182504653931, -0.1573762595653534, 0.19991271197795868, -0.21245233714580536, 0.04552571475505829, -0.10076797753572464, -0.5133025050163269, 0.052304722368717194, -0.14149129390716553, 0.04283620044589043, 0.05627463385462761, 0.4320201575756073, -0.17147418856620789, -0.10658290237188339, -0.12332240492105484, 0.21435509622097015, -0.05034875497221947, -0.16095365583896637, 0.18765002489089966, -0.07223692536354065, 0.0889836922287941, 0.195542573928833, -0.13740186393260956, 0.007195478770881891, 0.17695605754852295, 0.20223109424114227, 0.2438782900571823, 0.06632740795612335, 0.020708195865154266, -0.20011988282203674, 0.20051050186157227, 0.3028120994567871, 0.19932429492473602, -0.10106415301561356, -0.11168696731328964, -0.166675865650177, 0.3076635003089905, 0.06400769203901291, -0.020982272922992706, -0.2392839789390564, 0.0008533340296708047, 0.07817316800355911, 0.2264893352985382, 0.31410616636276245, 0.1508333832025528, 0.012948393821716309, -0.20914354920387268, -0.21636468172073364, -0.20748090744018555, 0.06729967892169952, -0.1809537708759308, -0.1419532150030136, 0.2538908123970032, -0.21123892068862915, 0.1530464142560959, 0.1892225444316864, 0.23044180870056152, 0.4862249791622162, -0.04961168393492699, 0.1378871202468872, -0.2317918986082077, 0.15541194379329681, -0.1485820710659027, -0.12576907873153687, 0.19394490122795105, -0.27392879128456116, -0.17556028068065643, 0.08641917258501053, -0.13819463551044464, 0.25353580713272095, -0.02140182815492153, -0.1023944765329361, -0.42460209131240845, 0.14496661722660065, 0.08442138880491257, -0.29665407538414, 0.14944592118263245, 0.11484787613153458, -0.34076452255249023, 0.1364731788635254, 0.025948937982320786, -0.11647458374500275, -0.01641964167356491, -0.10927513241767883, -0.0132013950496912, 0.11905278265476227, 0.012913310900330544, 0.03486406430602074, 0.09167498350143433, -0.09013617038726807, -0.05531971901655197, -0.3380078077316284, 0.20016466081142426, -0.2691113352775574, -0.046818967908620834, -0.5273905396461487, -0.11435292661190033, -0.13513028621673584, -0.07306808233261108, 0.4410155713558197, -0.20557333528995514, 0.012462207116186619, 0.3144087791442871, -0.10742229223251343, -0.06460103392601013, -0.16921216249465942, 0.07069339603185654, -0.08185478299856186, 0.265830397605896, 0.18025191128253937, -0.10411402583122253, 0.003544004401192069, 0.08285893499851227, -0.11436758190393448, -0.22867518663406372, -0.12487341463565826, 0.02198885567486286, 0.05506909638643265, 0.30068695545196533, -0.043854162096977234, 0.15256324410438538, -0.034048691391944885, -0.19565989077091217, 0.13753530383110046, 0.08287061750888824, 0.10799450427293777, 0.09300926327705383, -0.10064846277236938, -0.09536988288164139, 0.2777749001979828, -0.09047184139490128, 0.0743376836180687, -0.34442245960235596, 0.05537696182727814, -0.246678426861763, 0.2792360782623291, 0.13482427597045898, -0.18980444967746735, -0.1145746186375618, -0.15333032608032227, 0.004983467049896717, -0.05045686662197113, -0.044867176562547684, -0.2209307998418808, 0.2579738199710846, 0.05141863971948624, -0.15188375115394592, -0.08050384372472763, 0.09867140650749207, 0.09892354160547256, -0.2123357355594635, 0.08499470353126526, -0.09358122199773788, -0.1947808712720871, 0.03066655993461609, 0.10508871078491211, 0.03519919514656067, -0.06541736423969269, -0.08320386707782745, 0.2464599460363388, -0.07259006798267365, -0.023392047733068466, -0.11204791814088821, 0.03032790683209896, 0.43408557772636414, 0.06157505884766579, 0.01920277439057827, 0.1260731816291809, 0.2075522392988205, 0.12597429752349854, 0.14886119961738586, 0.5568428039550781, 0.19238822162151337, 0.4710777997970581, -0.5612961649894714, -0.3126189708709717, 0.1225077360868454, 0.1992192268371582, 0.15191899240016937, 0.23346500098705292, 0.08371875435113907, -0.7369293570518494, 0.3642106354236603, -0.17091888189315796, -0.5656173229217529, -0.08976215124130249, -0.3544424772262573, -0.026848044246435165, -0.15942254662513733, 0.18808938562870026, 0.1796342432498932, 0.1264948844909668, 0.09437577426433563, 0.18308749794960022, -0.03671983256936073, -0.20455992221832275, 0.052742473781108856, -0.15825456380844116, -0.015221651643514633, 0.16124214231967926, -0.04140922799706459, 0.21483787894248962, -0.057046178728342056, -0.10181044787168503, -0.18133753538131714, -0.012361650355160236, -0.3165161609649658, 0.1377216875553131, 0.1405046135187149, 0.1498890072107315, -0.10756698250770569, 0.2092755138874054, -0.047510139644145966, -0.2507767975330353, 0.009367508813738823, 0.1470240205526352, -0.22963540256023407, 0.07266876101493835, -0.128778338432312, 0.019583256915211678, 0.1933443695306778, -0.2984997034072876, -0.12587910890579224, 0.06024058908224106, -0.14100179076194763, -0.5169175863265991, -0.06518440693616867, -0.14672084152698517, 0.022749178111553192, -0.12460114061832428, -0.17580918967723846, 0.19497080147266388, 0.01364729180932045, -0.2983338236808777, 0.29689136147499084, -0.24285292625427246, -0.03316117823123932, -0.1497029811143875, 0.31663551926612854, 0.37324798107147217, 0.4106013774871826, 0.40133655071258545, 0.165395125746727, -0.31953269243240356, 0.03387138992547989, 0.02217479795217514, -0.2692364454269409, 0.10686929523944855, 0.22917219996452332, 0.09697176516056061, -0.29128411412239075, 0.25060778856277466, -0.21646100282669067, -0.30042198300361633, 0.1401563584804535, -0.03272111341357231, -0.2192343771457672, 0.008874527178704739, -0.06078435480594635, 0.23176045715808868, -0.06458807736635208, 0.07438844442367554, 0.11594706773757935, 0.05004884675145149, -0.19990631937980652, -0.4350471496582031, -0.12443991750478745, -0.14863978326320648, 0.17014941573143005, 0.027624880895018578, 0.12059742957353592, -0.1473359614610672, 0.1448861062526703, -0.1035706177353859, -0.0799756720662117, 0.29194891452789307, -0.06985806673765182, -0.1704748421907425, 0.2513229250907898, -0.06683562695980072, 0.038248587399721146, -0.28940054774284363, 0.01718844845890999, 0.0020516742952167988, -0.3101156949996948, -0.1935068666934967, -0.02042839676141739, -0.13527779281139374, -0.07076093554496765, -0.054282963275909424, 0.08534370362758636, -0.15500779449939728, -0.16357383131980896, 0.0901193618774414, 0.3107764422893524, 0.10964030772447586, -0.22815613448619843, 0.11358773708343506, -0.2480027824640274, -0.0032484966795891523, 0.20373836159706116, -0.22283445298671722, -0.05741231143474579, 0.2596788704395294, -0.187570720911026, -0.1577957421541214, 0.16811016201972961, 0.043866004794836044, 0.05987878888845444, -0.02395939640700817, 0.12896941602230072, -0.07942252606153488, 0.020429832860827446, 0.2929198145866394, -0.07050322741270065, -0.10980995744466782, -0.0433213897049427, 0.00868612714111805, -0.018030712381005287, 0.3405875563621521, 0.19879598915576935, -0.21571972966194153, -0.02063562348484993, -0.2363797277212143, -0.121060810983181, -0.04367263242602348, -0.030581532046198845, 0.3058857321739197, 0.2437531054019928, -0.13624753057956696, 0.006947054527699947, 0.11649171262979507, 0.23415018618106842, -0.05647044628858566, -0.10516052693128586, -0.18232548236846924, 0.059558793902397156, -0.5500296354293823, -0.11424306780099869, -0.325549453496933, -0.08078312128782272, 0.1221928671002388, -0.22273729741573334, 0.16822482645511627, -0.41660428047180176, 0.4876825511455536, -0.042187806218862534, -0.1755121350288391, 0.3143138587474823, -0.164414182305336, -0.24336758255958557, -0.11857891827821732, 0.18359346687793732, -0.10186067223548889, -0.33611974120140076, 0.03993578255176544, 0.18228031694889069, -0.13385048508644104, -0.007307393942028284, -0.09044823050498962, 0.06179157271981239, 0.23630087077617645, 0.02732054516673088, -0.08192991465330124, 0.3754422068595886, -0.3930583596229553, -0.43387672305107117, -0.25060728192329407, -0.27897074818611145, -0.0258254986256361, -0.21519853174686432, -0.24260014295578003, 0.05356195569038391, 0.25121599435806274, 0.05930878594517708, -0.17875054478645325, 0.08685620129108429, -0.2372017800807953, -0.19655779004096985, 0.022705253213644028, 0.12224112451076508, 0.18737050890922546, 0.2036948800086975, -0.04872928559780121, 0.27124568819999695, -0.1427442878484726, -0.038691822439432144, 0.2346317321062088, 0.30555978417396545, -0.17771901190280914, -0.2136339247226715, -0.324372798204422, 0.22203166782855988, 0.09833437204360962, -0.30994778871536255, -0.05603012815117836, 0.17417797446250916, 0.16540999710559845, 0.16559292376041412, 0.0809357538819313, 0.3077893853187561, 0.0037420319858938456, -0.19288533926010132, -0.14472922682762146, 0.3993576467037201, 0.13237522542476654, -0.09746498614549637, -0.2838095724582672, -0.2886204123497009, 0.10482145100831985, 0.20608222484588623, 0.40005257725715637, -0.01749158650636673, 0.17094457149505615, 0.2302095741033554, -0.27476343512535095, -0.2889569401741028, -0.07669697701931, 0.22497038543224335, -0.14759308099746704, -0.06947718560695648, -0.3363674283027649, 0.17285960912704468, 0.10392909497022629, -0.12730079889297485, -0.050678789615631104, 0.11769493669271469, -0.05082400143146515, 0.2025608867406845, -0.18000510334968567, -0.045907117426395416, -0.262029230594635, -0.24992363154888153, 0.18858587741851807, 0.0953589379787445, -0.2051222175359726, -0.18040738999843597, -0.2674090564250946, -0.024918073788285255, 0.1720590889453888, -0.16239072382450104, 0.06816818565130234, 0.03634460270404816, -0.13020730018615723, 0.11800231039524078, 0.21077746152877808, -0.05468234792351723, 0.07212930172681808, 0.10669779777526855, 0.11092246323823929, 0.06982754170894623, -0.20259590446949005, 0.369974821805954, -0.014703297056257725, 0.08553832769393921, 0.0033091814257204533, -0.28865286707878113, -0.05173860862851143, -0.01298366766422987, 0.0323161780834198, -0.122685007750988, 0.27539148926734924, 0.18779395520687103, 0.06985276937484741, -0.12772291898727417, 0.05305097624659538, 0.08479868620634079, 0.011225534602999687, -0.15531018376350403, 0.3253098726272583, -0.027319131419062614, 0.03897649794816971, 0.008122939616441727, -0.27586087584495544, 0.05074985697865486, -0.024271255359053612, -0.05511131137609482, 0.22666670382022858, 0.0668911337852478, 0.1700720340013504, 0.06933815777301788, 0.07319856435060501, -0.09530892223119736, -0.09174853563308716, 0.10558481514453888, 0.07888676226139069, 0.03949589282274246, 0.030863860622048378, 0.25804778933525085, 0.12643466889858246, 0.2120678722858429, 0.12868115305900574, 0.1426422894001007, 0.03396441787481308, 0.08548956364393234, 0.1463945508003235, 0.4476834535598755, 0.19116786122322083, -0.20747222006320953, -0.03984832018613815, 0.03409167379140854, 0.05735531076788902, -0.462645024061203, 0.015756698325276375, -0.09295923262834549, 0.01681642420589924, 0.09464564174413681, -0.2421737015247345, 0.35102811455726624, 0.120280422270298, -0.018533993512392044, -0.032560549676418304, -0.0029557044617831707, -0.0834512710571289, -0.3966837227344513, -0.01202006358653307, -0.12945066392421722, 0.03772725909948349, -0.0023361491039395332, 0.0017230595694854856, 0.12405486404895782, -0.015600096434354782, -0.03529792279005051, -0.0025770110078155994, 0.10572902113199234, 0.029608694836497307, 0.305479496717453, -0.12512190639972687, -0.3381096124649048, 0.07805357873439789, -0.10264572501182556, 0.04246162623167038, 0.1106473058462143, 0.14298421144485474, 0.07861527800559998, 0.37889474630355835, -0.18539923429489136, 0.10852236300706863, -0.38226863741874695, 0.029842108488082886, -0.1905394196510315, -0.2783811688423157, -0.1024474948644638, -0.09506110101938248, -0.43752989172935486, 0.11800756305456161, 0.318498432636261, -0.3888873755931854, -0.03917230665683746, 0.5179697275161743, 0.21081112325191498, -0.005490063223987818, -0.20793454349040985, 0.3204333782196045, -0.011533749289810658, -0.09903650730848312, -0.019469229504466057, 0.12163954973220825, -0.1051631048321724, 0.13015887141227722, 0.22071370482444763, -0.16051606833934784, -0.2938019931316376, 0.014630202203989029, -0.2316182553768158, 0.2194862812757492, -0.11767850071191788, -0.0679224357008934, -0.2354351133108139, 0.0017268599476665258, 0.1518024057149887, -0.061135709285736084, 0.12338507175445557, -0.07903952151536942, -0.040313441306352615, -0.08293207734823227, -0.054209187626838684, 0.000316930643748492, -0.08693612366914749, -0.044462379068136215, -0.15113693475723267, -0.03533470630645752, 0.054930128157138824, -0.24035802483558655, 0.01122026052325964, 0.08456534892320633, 0.40128380060195923, 0.054871778935194016, 0.13446073234081268, 0.21713842451572418, 0.0960230678319931, -0.07585480809211731, -0.02062596194446087, -0.010888826102018356, 0.07559321075677872, 0.15062464773654938, -0.04693446308374405, 0.008303551934659481, -0.41567882895469666, 0.002143765799701214, -0.0919785350561142, -0.3736429512500763, -0.007702902890741825, 0.2171938121318817, -0.3260367512702942, 0.2624688744544983, -0.11884283274412155, 0.1552654653787613, -0.4206647574901581, -0.08139803260564804, 0.31007689237594604, -0.05680280178785324, -0.0034162169322371483, 0.07586000114679337, 0.0649821013212204, 0.16754920780658722, 0.04335946589708328, 0.25122418999671936, -0.04135184735059738, -0.10039998590946198, 0.12054748833179474, 0.3143579959869385, -0.1634599268436432, 0.27372419834136963, 0.22192063927650452, -0.058474913239479065, -0.04735862463712692, -0.15343160927295685, 0.10511672496795654, -0.07736234366893768, -0.0933518260717392, -0.17594151198863983, 0.03780901059508324, -0.07967812567949295, 0.37147024273872375, -0.02275765687227249, 0.09039757400751114, 0.20650552213191986, -0.01603039540350437, -0.21105825901031494, 0.16419437527656555, 0.005936325062066317, -0.2182110995054245, 0.258368581533432, -0.20462913811206818, 0.20371957123279572, -0.31905677914619446, 0.04576127231121063, 0.1290111541748047, -0.20048888027668, -0.14427262544631958, -0.0006257199565880001, -0.0688057690858841, 0.11438021808862686, 0.0400678813457489, 0.21653133630752563, -0.04678134620189667, 0.247242733836174, 0.024456605315208435, 0.2382238656282425, -0.17781145870685577, 0.2616557776927948, 0.08658521622419357, -0.009413781575858593, -0.39906957745552063, 0.05116208270192146, 0.015901576727628708, -0.2297719120979309, -0.27479949593544006, 0.24612200260162354, -0.23488543927669525, 0.050018973648548126, 0.08246223628520966, 0.07671796530485153, 0.10009688138961792, 0.003280743258073926, -0.020095359534025192, 0.1800951510667801, -0.03406132757663727, 0.21403494477272034, 0.18670754134655, 0.1336313933134079, 0.2460125833749771, 0.02659536898136139, 0.4372178614139557, -0.17938224971294403, 0.03246098384261131, -0.3963506519794464, 0.315026193857193, 0.21294966340065002, -0.050684958696365356, 0.3037276268005371, -0.03581511601805687, -0.2585359215736389, -0.14722397923469543, -0.08482666313648224, -0.10242760181427002, 0.17889083921909332, 0.04557017982006073, -0.3235611617565155, 0.020467344671487808, -0.211972177028656, -0.16268233954906464, -0.06181725114583969, 0.06392897665500641, 0.09085538238286972, -0.05700130760669708, 0.05517174303531647, -0.03573599085211754, -0.2117617428302765, -0.13554297387599945, -0.053964998573064804, 0.03988173231482506, -0.17270606756210327, -0.04736717417836189, 0.13629160821437836, 0.08250228315591812, 0.24785877764225006, 0.08801767975091934, -0.06193535029888153, -0.0913546159863472, 0.08852370828390121, -0.08351800590753555, -0.005856460426002741, -0.4107398986816406, 0.02431095764040947, -0.10208221524953842, 0.33044666051864624, -0.2359381914138794, 0.14872746169567108, -0.029044272378087044, -0.11292817443609238, -0.10287578403949738, -0.08700599521398544, -0.1120719462633133, 0.07322145253419876, 0.3844491243362427, -0.13742481172084808, -0.04716004803776741, 0.015532729215919971, -0.019689757376909256, -0.023130618035793304, 0.36530160903930664, -0.019318219274282455, -0.07801635563373566, 0.5208507776260376, 0.03625433146953583, 0.08459508419036865, -0.01943305879831314, -0.015210573561489582, 0.33849820494651794, -0.2604379653930664, -0.20466318726539612, 0.037443675100803375, 0.07914865016937256, 0.029349105432629585, 0.043519798666238785, -0.443339079618454, 0.05231522396206856, 0.06475798785686493, 0.25622567534446716, -0.17691460251808167, 0.06462788581848145, 0.12235784530639648, 0.21704839169979095, -0.0036414184141904116, 0.25465187430381775, -0.1275571584701538, -0.08421096950769424, -0.06363726407289505, -0.11231736838817596, -0.1619584560394287, 