{"version": "0.5.4", "metadata": {"date": {"year": 2025, "month": 8, "day": 25, "hour": 13, "minute": 17, "second": 35}, "loudness": -21.587324142456055, "gain": 0.8264030616512829, "name": null, "modeled_by": null, "gear_type": null, "gear_make": null, "gear_model": null, "tone_type": null, "input_level_dbu": null, "output_level_dbu": null, "training": {"settings": {"ignore_checks": true}, "data": {"latency": {"manual": -4, "calibration": {"algorithm_version": 1, "delays": [-4], "safety_factor": 0, "recommended": -4, "warnings": {"matches_lookahead": false, "disagreement_too_high": false}}}, "checks": {"version": 1, "passed": true}}, "validation_esr": 0.031753172654540106}}, "architecture": "WaveNet", "config": {"layers": [{"input_size": 1, "condition_size": 1, "head_size": 8, "channels": 16, "kernel_size": 3, "dilations": [1, 2, 4, 8, 16, 32, 64, 128, 256, 512], "activation": "Tanh", "gated": false, "head_bias": false}, {"input_size": 16, "condition_size": 1, "head_size": 1, "channels": 8, "kernel_size": 3, "dilations": [1, 2, 4, 8, 16, 32, 64, 128, 256, 512], "activation": "Tanh", "gated": false, "head_bias": true}], "head": null, "head_scale": 0.02}, "weights": [-0.08912472426891327, 0.8105522990226746, -0.8165097832679749, -0.7521914839744568, -0.3961775302886963, -0.07380980998277664, 0.011564644984900951, 0.6941768527030945, -0.044969942420721054, 0.2000662237405777, -0.4605241119861603, -0.13308507204055786, -0.9909236431121826, -0.5900213122367859, -0.5745177268981934, -0.014170602895319462, 0.08076614141464233, 0.06918942183256149, 0.2306409329175949, 0.05557991936802864, 0.27118799090385437, -0.1074499636888504, -0.14831006526947021, -0.10959705710411072, 0.200020432472229, -0.1071750819683075, -0.08920708298683167, 0.08292131125926971, -0.20758561789989471, -0.2535164952278137, 0.1681734323501587, 0.2425912618637085, 0.1100272536277771, -0.30863335728645325, -0.17801529169082642, -0.18168948590755463, 0.09333717823028564, 0.24492336809635162, 0.2829616963863373, -0.14998649060726166, -0.0921553373336792, -0.26715829968452454, 0.2523955702781677, -0.017787402495741844, 0.10811199247837067, -0.2962528169155121, -0.03088366985321045, -0.13927528262138367, 0.15706370770931244, -0.12310003489255905, -0.09026719629764557, 0.34512031078338623, -0.062842458486557, -0.20004446804523468, 0.31846410036087036, -0.20550808310508728, -0.1881699115037918, 0.10807076096534729, -0.21494169533252716, -0.2898600995540619, 0.2940976917743683, 0.06874298304319382, -0.09738950431346893, -0.16195645928382874, -0.12850485742092133, -0.13543522357940674, 0.06971864402294159, 0.25054097175598145, 0.2456328421831131, 0.0014259966555982828, -0.32736217975616455, -0.20788852870464325, 0.1917436122894287, -0.09594614058732986, -0.03129345178604126, 0.25703397393226624, -0.18295429646968842, -0.2792675197124481, 0.1492880880832672, 0.013601367361843586, 0.017821546643972397, 0.07218287140130997, 0.04927188903093338, -0.2751900255680084, -0.0429137758910656, 0.19026929140090942, 0.13250619173049927, -0.19698955118656158, -0.12823911011219025, -0.22097863256931305, 0.17463569343090057, 0.2789519727230072, 0.25393518805503845, -0.08110316097736359, -0.3572271466255188, -0.25071239471435547, 0.20479068160057068, -0.16906295716762543, -0.25108227133750916, 0.04553835839033127, -0.08118781447410583, -0.06019384041428566, 0.0704328715801239, -0.2511623799800873, -0.29217854142189026, 0.1261318176984787, -0.32316306233406067, -0.2666611075401306, 0.1302841603755951, 0.13941623270511627, 0.07030534744262695, 0.01078328862786293, -0.04646597057580948, -0.09475068747997284, -0.1382986158132553, -0.1572248935699463, 0.17520400881767273, 0.26109936833381653, 0.053958069533109665, -0.17703934013843536, -0.18810971081256866, 0.042559992522001266, -0.2746420204639435, -0.1739232838153839, -0.10156851261854172, -0.2930382192134857, -0.27110862731933594, -0.059003476053476334, 0.07823191583156586, 0.11541356146335602, -0.12091334909200668, 0.07381869107484818, -0.11965402215719223, -0.03801972046494484, 0.31198355555534363, 0.22381608188152313, 0.047833189368247986, -0.18065178394317627, -0.18444174528121948, 0.05484374240040779, 0.329298734664917, 0.3155433237552643, 0.17580962181091309, -0.21247625350952148, -0.3811952471733093, -0.05041540041565895, -0.07030825316905975, -0.18340398371219635, -0.03942207619547844, -0.32188037037849426, -0.3793945610523224, -0.09231563657522202, -0.236746683716774, -0.1553666740655899, 0.11638175696134567, -0.34717458486557007, -0.15825900435447693, -0.0447656586766243, 0.07327303290367126, -0.14949814975261688, 0.02786261960864067, 0.08148409426212311, -0.09124793857336044, -0.26699551939964294, -0.21678988635540009, 0.00921232532709837, 0.07737896591424942, 0.24529661238193512, -0.14117324352264404, 0.13513678312301636, 0.3178696930408478, -0.06674844771623611, 0.27031224966049194, 0.24227993190288544, -0.1472381204366684, -0.07327106595039368, -0.23253634572029114, 0.014510921202600002, 0.2665247321128845, 0.0013851890107616782, -0.07130913436412811, -0.17393219470977783, -0.08809185028076172, 0.052097998559474945, 0.19778257608413696, 0.21919584274291992, -0.04293743893504143, -0.1704125553369522, -0.29965633153915405, 0.10263397544622421, 0.25766903162002563, 0.2942085266113281, -0.108785480260849, 0.14815059304237366, 0.050458312034606934, -0.11484448611736298, 0.06007325276732445, 0.24227286875247955, -0.09704403579235077, 0.1410418152809143, 0.19386117160320282, 0.08167039602994919, 0.03137785941362381, 0.09380611777305603, -0.09632439911365509, 0.0033103374298661947, -0.06398391723632812, 0.38195475935935974, -0.13260629773139954, -0.005097517743706703, 0.009213065728545189, 0.04815342277288437, -0.13517582416534424, -0.1254451423883438, -0.07737220078706741, 0.17121611535549164, -0.01845182478427887, -0.14930382370948792, 0.270498663187027, -0.023588599637150764, -0.08925992995500565, 0.29127922654151917, 0.14004266262054443, 0.0148996002972126, -0.3793026804924011, 0.08033487945795059, -0.0706736370921135, 0.13456162810325623, -0.112035371363163, 0.05272134765982628, -0.1511811465024948, 0.027600616216659546, -0.0785844549536705, 0.2580457627773285, 0.15068335831165314, -0.013778653927147388, -0.08297084271907806, -0.18252715468406677, -0.13658131659030914, 0.19822096824645996, 0.1405971646308899, 0.048365090042352676, 0.09773912280797958, 0.0800282433629036, -0.00038496823981404305, 0.014407021924853325, 0.19834934175014496, -0.1946340650320053, 0.1516081839799881, 0.06674028933048248, -0.15419815480709076, 0.16962765157222748, 0.2085922807455063, 0.0007292113150469959, -0.10128097981214523, 0.02389204502105713, -0.16132067143917084, 0.2120274305343628, -0.3347075879573822, -0.08350925892591476, -0.2673141062259674, 0.35344216227531433, 0.056571271270513535, 0.28804564476013184, -0.2109796702861786, -0.07030478119850159, 0.13552545011043549, -0.21874146163463593, 0.09154190868139267, 0.2101891189813614, -0.3311215043067932, -0.03393857181072235, -0.30699479579925537, 0.19025662541389465, -0.2728229761123657, -0.1269853264093399, 0.1602209359407425, -0.06912074238061905, -0.18960045278072357, 0.300610214471817, -0.029691902920603752, 0.061141181737184525, -0.3773709535598755, 0.1436113715171814, -0.1473136842250824, 0.3701637089252472, -0.06325771659612656, 0.22322595119476318, -0.30217498540878296, -0.039647284895181656, 0.07621601969003677, -0.14148573577404022, 0.025120096281170845, 0.17476868629455566, -0.29401513934135437, -0.1180543377995491, 0.27064037322998047, -0.3644116520881653, 0.04206439107656479, 0.13156260550022125, -0.33719873428344727, 0.24056972563266754, -0.045142464339733124, -0.17548654973506927, -0.2018238753080368, -0.10303594917058945, -0.07804881036281586, 0.3448695242404938, -0.04257550835609436, -0.007950738072395325, -0.3962942659854889, 0.07343980669975281, 0.042051833122968674, -0.3279961943626404, 0.1514357179403305, 0.08698395639657974, -0.3551160395145416, 0.09114886820316315, 0.04941586032509804, 0.20971527695655823, -0.13147084414958954, 0.011226591654121876, -0.10656464844942093, 0.06709254533052444, 0.11198894679546356, 0.40406081080436707, -0.00994679145514965, 0.026940843090415, -0.1924438178539276, 0.02239752933382988, -0.14069786667823792, 0.1463787853717804, 0.04448224604129791, 0.09236858785152435, -0.3823925256729126, 0.15459425747394562, 0.09728207439184189, -0.0651455968618393, 0.2502266764640808, 0.1505611538887024, -0.31112414598464966, 0.04593459889292717, 0.11169538646936417, -0.19166791439056396, 0.00531295919790864, 0.12083731591701508, -0.2142602652311325, 0.17528590559959412, -0.09952492266893387, 0.03269653767347336, -0.04249820485711098, -0.019915251061320305, -0.08912424743175507, 0.1455308496952057, 0.18188920617103577, 0.2962120473384857, -0.020038984715938568, -0.038954246789216995, -0.3343304991722107, 0.0029476131312549114, 0.013639102689921856, -0.3779597878456116, -0.14858180284500122, 0.21876360476016998, -0.15070778131484985, 0.09963423013687134, 0.22564692795276642, 0.02503475360572338, -0.01837410032749176, -0.049173012375831604, -0.08833947032690048, 0.050139956176280975, -0.11236266791820526, 0.16139772534370422, -0.10581664741039276, -0.19028012454509735, -0.09436251223087311, 0.0836954340338707, 0.18147236108779907, 0.33636748790740967, 0.1593008041381836, -0.14515185356140137, -0.1736019253730774, 0.09221801906824112, 0.1478874832391739, -0.037310004234313965, 0.09204383194446564, 0.23873485624790192, -0.284934401512146, 0.03657333180308342, 0.12691937386989594, -0.26545214653015137, -0.11269067227840424, 0.028271183371543884, -0.34232819080352783, 0.06611733883619308, 0.21430984139442444, -0.08936665952205658, -0.005690632853657007, -0.11032591015100479, 0.06643965095281601, 0.09359178692102432, 0.07807976007461548, 0.19788801670074463, 0.04416758567094803, -0.2795802056789398, 0.06980012357234955, 0.11951848119497299, 0.10827399790287018, 0.015759386122226715, -0.07212630659341812, 0.13352414965629578, 0.057073406875133514, 0.015449361875653267, 0.056570470333099365, 0.009364633820950985, -0.0223308764398098, -0.06024188548326492, -0.036504000425338745, 0.06048544868826866, -0.18339496850967407, -0.020289501175284386, 6.440119614126161e-05, -0.08605588227510452, 0.03216651454567909, -0.1051182746887207, 0.11615800857543945, -0.0455588698387146, -0.07056555896997452, -0.09993442893028259, -0.164372980594635, 0.06581815332174301, 0.28774088621139526, -0.05409671738743782, -0.09162165224552155, 0.0680060014128685, -0.03672723099589348, -0.10051484405994415, 0.23231282830238342, -0.19990111887454987, -0.13156922161579132, 0.009072725661098957, -0.09141127020120621, 0.1131770983338356, 0.032595422118902206, 0.18319058418273926, 0.022838246077299118, 0.05271679162979126, -0.1327514499425888, 0.11713005602359772, 0.1502024084329605, 0.1776624470949173, -0.16298449039459229, 0.05202300101518631, -0.19530248641967773, 0.4215245544910431, 0.02907346747815609, -0.03026813454926014, 0.18503664433956146, -0.02176445536315441, -0.2444862276315689, 0.24109622836112976, 0.047192733734846115, -0.06088825315237045, -0.17244909703731537, 0.08396880328655243, 0.016418050974607468, -0.0029749476816505194, -0.11732931435108185, 0.054350417107343674, -0.23550726473331451, 0.12288866937160492, -0.04140621796250343, 0.25331830978393555, 0.0483255572617054, -0.039011143147945404, -0.41530174016952515, 0.05506810173392296, -0.1827707439661026, 0.37552008032798767, -0.08183813095092773, -0.15050092339515686, 0.16344939172267914, 0.09662100672721863, -0.11320057511329651, 0.41363388299942017, 0.1111426129937172, -0.019607901573181152, 0.3018520176410675, -0.025304410606622696, -0.13225984573364258, 0.32251954078674316, 0.08989032357931137, -0.07475703954696655, 0.11392177641391754, -0.017713375389575958, -0.06978700309991837, -0.09187006205320358, 0.26480019092559814, 0.17981208860874176, 0.08810194581747055, 0.07726176083087921, 0.02444317750632763, -0.13408130407333374, 0.1430143266916275, -0.12609785795211792, -0.17458230257034302, 0.07414283603429794, -0.08641232550144196, -0.16635547578334808, -0.017590630799531937, 0.06642904877662659, 0.17336048185825348, -0.08300037682056427, 0.09883098304271698, 0.007750350050628185, -0.07967044413089752, 0.060591887682676315, 0.3025306463241577, -0.032915160059928894, 0.02924404852092266, -0.2200385332107544, 0.07272469252347946, -0.06416967511177063, 0.12475056201219559, -0.09517969191074371, 0.08657039701938629, -0.2627844512462616, 0.01737925410270691, -0.1193896159529686, -0.046248357743024826, 0.14916999638080597, -0.1580866277217865, -0.33803078532218933, -0.08977066725492477, -0.047341905534267426, -0.2507197856903076, -0.07698379456996918, -0.098008893430233, -0.19086703658103943, -0.04874508082866669, -0.00397183233872056, -0.1296505331993103, -0.20723819732666016, 0.2647087275981903, 0.3259218633174896, 0.1023598164319992, -0.23488017916679382, -0.2623010575771332, 0.12883180379867554, 0.10166845470666885, 0.06605858355760574, 0.1536882221698761, 0.14483360946178436, 0.22877037525177002, -0.0033460163976997137, 0.20312945544719696, 0.16799816489219666, 0.09881909936666489, -0.10683645308017731, -0.2761629521846771, -0.06525880843400955, -0.002298276638612151, 0.1278989166021347, -0.09753534942865372, -0.10096373409032822, -0.2347729355096817, -0.036011770367622375, 0.32430797815322876, 0.25215959548950195, 0.1300947517156601, -0.14322420954704285, -0.2348058968782425, -0.09109465032815933, 0.22446151077747345, 0.3253604769706726, -0.041531309485435486, 0.0859871506690979, 0.2358911782503128, 0.12419556081295013, 0.19798727333545685, 0.08562426269054413, -0.12004638463258743, 0.2733180820941925, 0.1885938048362732, -0.06022591516375542, 0.2672390341758728, 0.26133325695991516, 0.12420486658811569, 0.07422435283660889, -0.03325454890727997, -0.06742052733898163, -0.3023080825805664, -0.031127607449889183, -0.05157938599586487, -0.025195816531777382, -0.16574528813362122, 0.1663299947977066, 0.2230944186449051, 0.16802985966205597, -0.1579483598470688, 0.03611857444047928, -0.06030069291591644, 0.10375873744487762, 0.024198584258556366, -0.025663774460554123, 0.04162481054663658, -0.1640738844871521, -0.14966721832752228, -0.00886362511664629, -0.045491114258766174, -0.19589459896087646, -0.023152779787778854, -0.1507878303527832, 0.013144810684025288, 0.1610085368156433, 0.14373426139354706, 0.03838476911187172, 0.09038414806127548, -0.06879466027021408, -0.10008616745471954, 0.1740879863500595, 0.12980712950229645, -0.09441625326871872, -0.0678873360157013, -0.04925180971622467, 0.10772615671157837, -0.11139257997274399, -0.04345880076289177, 0.03021777980029583, 0.055260468274354935, 0.12234972417354584, 0.07878915965557098, -0.024443207308650017, 0.13892896473407745, 0.004710731562227011, -0.09301789104938507, -0.04607776552438736, -0.041382934898138046, 0.2551814317703247, -0.0896480530500412, -0.018132653087377548, -0.001961770001798868, -0.014298389665782452, -0.09399215131998062, 0.1325327754020691, -0.05913423374295235, 0.12202824652194977, -0.1091974601149559, -0.0076762777753174305, 0.08075209707021713, -0.050509288907051086, 0.1436997652053833, -0.09704273194074631, -0.12175636738538742, -0.11368411779403687, 0.0019657625816762447, 0.14050251245498657, 0.0857376977801323, 0.13744696974754333, 0.08811114728450775, -0.057970982044935226, 0.10089931637048721, -0.11775325983762741, 0.0288028996437788, 0.1199837177991867, -0.021481066942214966, 0.08549115806818008, -0.04604226350784302, 0.10902997106313705, -0.11407917737960815, -0.019826415926218033, -0.01702903024852276, 0.0768715888261795, 0.06221991032361984, 0.13232332468032837, 0.00536774005740881, -0.0009392374777235091, 0.1056298092007637, -0.01280311681330204, 0.13070626556873322, -0.08961810171604156, 0.007066890597343445, -0.008096102625131607, 0.06728549301624298, 0.03578251227736473, -0.10429133474826813, -0.14206156134605408, 0.12577103078365326, 0.21226978302001953, 0.061474476009607315, 0.00926404632627964, 0.03547808900475502, 0.10272356867790222, -0.08793557435274124, -0.07925177365541458, 0.1371801495552063, -0.20743612945079803, 0.08560952544212341, 0.053264640271663666, -0.1692008078098297, 0.09874742478132248, -0.09645920246839523, 0.14146475493907928, -0.13537585735321045, -0.061667148023843765, -0.01155372615903616, 0.12814290821552277, -0.01859394833445549, 0.19339652359485626, -0.07055754959583282, -0.10381622612476349, -0.21215619146823883, -0.0847126841545105, 0.14955352246761322, 0.06513870507478714, -0.04272445663809776, 0.00579371303319931, -0.0030003956053406, 0.17126891016960144, 0.14389130473136902, -0.15165814757347107, 0.07269734889268875, 0.005331189837306738, -0.1837303787469864, 0.08838079869747162, 0.17136891186237335, -0.21474474668502808, 0.1419837474822998, -0.0392923466861248, -0.1267324835062027, 0.169205442070961, 0.0020933449268341064, -0.06860185414552689, -0.16940578818321228, -0.1048067957162857, -0.1957022249698639, 0.11088551580905914, -0.12943275272846222, 0.04075141251087189, -0.41350826621055603, 0.15573832392692566, -0.028412986546754837, 0.2509104311466217, -0.07745695114135742, -0.018631521612405777, 0.3872067332267761, -0.21824483573436737, -0.1625290960073471, 0.2416224330663681, -0.2638157904148102, 0.04715459793806076, -0.09425071626901627, 0.1467023342847824, -0.0004609657626133412, 0.015248372219502926, 0.028715748339891434, 0.2511497437953949, -0.34942197799682617, 0.04207225888967514, -0.1375301033258438, 0.34630221128463745, -0.2806151807308197, 0.27840954065322876, -0.2286664843559265, 0.04105350002646446, -0.17559485137462616, 0.4219471514225006, -0.2555572986602783, -0.16118095815181732, 0.3259350061416626, -0.21871137619018555, -0.06319011002779007, 0.3682240843772888, -0.053897079080343246, -0.23476137220859528, 0.43117374181747437, -0.22736962139606476, -0.001596158486790955, 0.15549075603485107, -0.2769084870815277, 0.12975846230983734, 0.1282251924276352, -0.03300495073199272, -0.0536932647228241, 0.0022751863580197096, -0.009563225321471691, -0.1788417249917984, 0.03107292577624321, 0.03941819816827774, -0.10064344108104706, 0.04776482284069061, 0.054052334278821945, -0.01654062792658806, -0.04891044646501541, 0.007119478192180395, -0.03028404340147972, 0.040243737399578094, 0.007513399235904217, 0.02725920081138611, 0.22775156795978546, -0.5579130053520203, 1.044440746307373, -0.6943413019180298, -0.09520381689071655, 1.159258484840393, 1.0000537633895874, -0.6888464689254761, 0.019133243709802628, 0.09322065860033035, -0.48362797498703003, -0.35755324363708496, 0.3051818907260895, -0.707390308380127, 0.1272745132446289, 0.5721856355667114, -0.23701350390911102, -0.07901553064584732, 0.10750239342451096, 0.05034659057855606, 0.3657377362251282, 0.11198095232248306, 0.09115321189165115, -0.1518520712852478, 0.04716184362769127, 0.1409171223640442, -0.14306648075580597, -0.14856120944023132, 0.017990287393331528, 0.05072883144021034, 0.10232433676719666, 0.11656859517097473, -0.11113418638706207, -0.1868899017572403, -0.23706790804862976, 0.21075892448425293, 0.09864439815282822, 0.019260471686720848, 0.015035196207463741, -0.07873140275478363, -0.037819135934114456, 0.21102425456047058, -0.08694634586572647, 0.10556352883577347, 0.13554543256759644, -0.12181214988231659, 0.05135028064250946, 0.25067850947380066, -0.16961488127708435, -0.13149422407150269, 0.11811249703168869, 0.2362925112247467, -0.08780079334974289, -0.0018759181257337332, 0.12516599893569946, -0.38364917039871216, -0.1303459107875824, 0.01630035974085331, -0.05378099903464317, -0.2359934002161026, 0.2731347680091858, 0.23819948732852936, -0.10581017285585403, 0.05127263069152832, 0.21194922924041748, -0.09010592848062515, 0.050500981509685516, -0.2945021390914917, -0.010396969504654408, 0.04222450405359268, 0.03246644511818886, 0.1717677265405655, -0.03801637887954712, 0.1499667465686798, 0.03281298652291298, -0.046548113226890564, 0.09503340721130371, 0.13879026472568512, -0.07685094326734543, -0.11510943621397018, -0.1994524896144867, -0.37007850408554077, -0.20709340274333954, 0.23468805849552155, 0.3639433979988098, 0.05470513179898262, 0.04828674718737602, -0.20357930660247803, 0.028223179280757904, 0.27775484323501587, -0.2930653393268585, 0.20149804651737213, 0.10203050076961517, 0.034786105155944824, -0.23211462795734406, 0.006577163934707642, -0.24648453295230865, -0.20566746592521667, 0.11174196749925613, 0.04701973870396614, 0.4192868769168854, 0.30335167050361633, 0.31537872552871704, 0.026100680232048035, 0.23918405175209045, 0.15788328647613525, -0.28051885962486267, -0.09631635993719101, -0.1067851111292839, -0.027542555704712868, 0.22807441651821136, 0.19759348034858704, -0.011273082345724106, 0.09601683914661407, 0.19215857982635498, 0.2462163269519806, -0.3247896730899811, -0.3146073520183563, 0.13701482117176056, -0.08666793256998062, 0.02602994628250599, -0.20800401270389557, -0.1432589590549469, 0.18333648145198822, 0.22681675851345062, -0.15483137965202332, 0.04606035724282265, -0.23106567561626434, 0.3110016882419586, 0.15613049268722534, 0.25836384296417236, -0.295693039894104, -0.2711647152900696, 0.13575434684753418, 0.35657477378845215, 0.18256443738937378, 0.15395942330360413, -0.26629430055618286, 0.22837777435779572, -0.307662695646286, -0.06030920892953873, 0.05065334588289261, 0.05498308315873146, 0.03274738788604736, -0.04640395939350128, 0.03150268271565437, -0.20971912145614624, -0.3306300938129425, -0.1731954962015152, -0.17363841831684113, -0.2493649572134018, -0.0005589607171714306, -0.06984184682369232, -0.34661227464675903, 0.2679663598537445, 0.04646716266870499, 0.09758799523115158, -0.25699305534362793, -0.04657692089676857, -0.11793866753578186, -0.2411215752363205, -0.04538656771183014, 0.04724723845720291, -0.15876995027065277, -0.1874784231185913, 0.035169314593076706, 0.21901580691337585, -0.15410834550857544, 0.1155581995844841, 0.2649601697921753, 0.017072701826691628, 0.14478212594985962, 0.17922329902648926, 0.24841120839118958, 0.02619878575205803, 0.09791019558906555, 0.15031182765960693, 0.3287893533706665, -0.2419019639492035, 0.10986892133951187, -0.2336978316307068, -0.3816445469856262, 0.0719374492764473, 0.28743675351142883, -0.08139015734195709, -0.163896843791008, -0.07695221900939941, -0.0453333854675293, 0.06339024007320404, -0.06213380768895149, -0.056598249822854996, -0.23714686930179596, 0.030274605378508568, -0.10421216487884521, 0.2563542127609253, 0.017374688759446144, 0.009662131778895855, -0.11136841028928757, -0.22543296217918396, -0.2937060594558716, 0.025308307260274887, -0.17345663905143738, -0.1191808432340622, -0.12264478206634521, 0.019659683108329773, 0.18663594126701355, -0.4190082848072052, -0.16779884696006775, -0.03829677030444145, 0.010242540389299393, 0.3098354637622833, 0.005228708032518625, -0.13982082903385162, -0.2879636883735657, -0.1286691427230835, 0.09141944348812103, 0.03427678719162941, -0.2262427657842636, -0.04518743231892586, -0.012494198977947235, 0.2899453639984131, -0.30872851610183716, -0.3778752088546753, -0.19617746770381927, -0.0025162380188703537, -0.19490854442119598, -0.17021523416042328, 0.03864997625350952, -0.13617156445980072, 0.19353310763835907, 0.2557007670402527, 0.07983555644750595, 0.09818827360868454, 0.03532699868083, 0.0530368834733963, -0.042900919914245605, -0.09863606840372086, -0.21133187413215637, 0.0024525290355086327, 0.17543306946754456, -0.14214646816253662, 0.17575666308403015, 0.010634352453052998, -0.2160218060016632, 0.24225465953350067, 0.015894386917352676, 0.08859273046255112, 0.30505111813545227, -0.3652595281600952, 0.2695857584476471, -0.18748609721660614, -0.12215036898851395, 0.21630780398845673, 0.14216549694538116, -0.1637345403432846, 0.10225469619035721, 0.25449371337890625, 0.0892665833234787, 0.04004053398966789, -0.08099306374788284, -0.15701474249362946, 0.1320202797651291, 0.02814236655831337, 0.3153548538684845, -0.09827303886413574, -0.2327093929052353, -0.02060590498149395, -0.030176876112818718, 0.10458347201347351, 0.17763155698776245, 0.2682360112667084, -0.026249075308442116, 0.078793004155159, -0.15453751385211945, 0.1269168257713318, -0.20504121482372284, -0.04813136160373688, -0.008162298239767551, 0.10918684303760529, 0.033739425241947174, -0.02857661060988903, -0.0613846480846405, 0.07186998426914215, -0.030146347358822823, 0.07464971393346786, 0.0379447415471077, 0.022493356838822365, -0.10934822261333466, -0.00036396621726453304, -0.2318345606327057, 0.09309549629688263, 0.004417449701577425, -0.26335668563842773, 0.23788195848464966, -0.1571849286556244, -0.19563357532024384, 0.0546797513961792, -0.05319574475288391, 0.08669956028461456, 0.08946612477302551, -0.10815898329019547, -0.2696216404438019, 0.2770634889602661, 0.2424909919500351, -0.33860090374946594, 0.054476045072078705, -0.11419562250375748, 0.05984770506620407, -0.1975630819797516, 0.0948382318019867, 0.08248940110206604, -0.36639249324798584, -0.128371924161911, 0.31996315717697144, -0.23725074529647827, -0.0466756634414196, 0.054110802710056305, -0.24759210646152496, -0.3471095561981201, 0.5404952764511108, 0.06893249601125717, 0.1364365518093109, 0.039468783885240555, -0.2963222861289978, -0.18245135247707367, 0.03423969820141792, -0.08041247725486755, -0.13326573371887207, -0.04605122655630112, -0.027272894978523254, -0.14135390520095825, 0.12643830478191376, 0.1755467802286148, 0.22299480438232422, 0.15840013325214386, -0.27159345149993896, -0.04761917516589165, -0.07142239063978195, 0.10528676956892014, -0.25880154967308044, 0.05038219690322876, -0.10190161317586899, -0.04407617822289467, 0.01796218380331993, 0.05614505708217621, 0.05139625817537308, 0.10867217183113098, -0.010196962393820286, 0.10078068822622299, 0.02372138947248459, 0.02483506128191948, -0.32094869017601013, -0.1640833616256714, -0.04361272230744362, 0.10845640301704407, -0.3230310380458832, -0.1599506288766861, -0.02314944379031658, -0.15944889187812805, 0.0010134702315554023, 0.03108564391732216, -0.03554946929216385, -0.20042763650417328, 0.023117583245038986, 0.04225350171327591, -0.14106829464435577, 0.21006959676742554, -0.047351837158203125, -0.0459919199347496, -0.07946386188268661, 0.20333163440227509, 0.4419465959072113, 0.18775154650211334, 0.12146183103322983, 0.1542038470506668, 0.045011065900325775, -0.0946422666311264, -0.1580865979194641, 0.14370079338550568, -0.08832452446222305, 0.01968672126531601, -0.09054381400346756, -0.05840219557285309, -0.09517528116703033, -0.09734076261520386, -0.06287660449743271, -0.1585361212491989, 0.14032301306724548, 0.28878703713417053, -0.3117371201515198, -0.01618887297809124, 0.0647735670208931, 0.08004770427942276, 0.029296761378645897, -0.18212518095970154, -0.12785807251930237, 0.10154160112142563, 0.06773553788661957, -0.09916815906763077, -0.07231388241052628, 0.27102699875831604, -0.06743898242712021, 0.07795589417219162, -0.3389533758163452, 0.1259509027004242, -0.08613499999046326, -0.12066580355167389, 0.2916145622730255, 0.03348211944103241, -0.3017985224723816, 0.15087537467479706, -0.12383493036031723, 0.012930542230606079, -0.05566208437085152, 0.025591228157281876, -0.1924266368150711, 0.08709664642810822, -0.13493598997592926, -0.6427027583122253, 0.5709958672523499, 0.04931472986936569, -0.1735653579235077, 0.15533174574375153, -0.050987087190151215, -0.03288091719150543, 0.04218897596001625, -0.13074970245361328, 0.04165764898061752, -0.08008214086294174, -0.1034570261836052, 0.08820798248052597, 0.29424405097961426, -0.09356621652841568, -0.09150347858667374, -0.060860082507133484, -0.09157117456197739, 0.19172082841396332, 0.03185781463980675, 0.08328364789485931, -0.024334508925676346, -0.2713549733161926, 0.048838041722774506, 0.0167106781154871, -0.11747674643993378, -0.02896958403289318, -0.0505371131002903, -0.1377270221710205, -0.20937645435333252, 0.19121286273002625, -0.0001473015727242455, 0.1253643035888672, 0.21827572584152222, -0.01425087545067072, -0.20457196235656738, 0.08585883677005768, 0.12722136080265045, 0.21493110060691833, -0.24006237089633942, 0.31215229630470276, 0.10518743097782135, -0.011821111664175987, 0.014457780867815018, 0.1395808458328247, -0.6634842753410339, 0.19051899015903473, 0.42995309829711914, 0.39295297861099243, -0.14922015368938446, 0.22406093776226044, 0.12953171133995056, -0.16126732528209686, -0.019680770114064217, -0.27038970589637756, -0.16472381353378296, -0.04852400720119476, -0.28830456733703613, 0.11359993368387222, 0.126386359333992, 0.013513400219380856, 0.25724151730537415, -0.34996068477630615, -0.23072472214698792, -0.06250546127557755, 0.23700670897960663, 0.29110682010650635, 0.20670127868652344, -0.1841096431016922, -0.07711289077997208, -0.0844171866774559, 0.023269502446055412, 0.24160270392894745, 0.3372669816017151, -0.0694735050201416, -0.07084757089614868, -0.01585906371474266, -0.141862154006958, 0.04879355430603027, -0.07165833562612534, -0.0895540788769722, -0.19606752693653107, -0.06994606554508209, 0.09358856081962585, 0.21460723876953125, 0.08278331160545349, 0.07155073434114456, 0.0289615448564291, -0.18302510678768158, 0.09046724438667297, 0.05308922752737999, -0.0008640562882646918, 0.10031982511281967, -0.05631399527192116, 0.0018604596843943, -0.25615939497947693, 0.18269453942775726, 0.09079796820878983, -0.4244251251220703, -0.20416413247585297, 0.17276735603809357, -0.09347899258136749, -0.3869584798812866, -0.15432293713092804, -0.43071621656417847, -0.21186292171478271, -0.0910356417298317, 0.18418562412261963, 0.13345013558864594, -0.06599272042512894, -0.15256325900554657, -0.15816695988178253, -0.04868246987462044, -0.19441398978233337, 0.0335150845348835, 0.16724714636802673, -0.2138216346502304, -0.14643213152885437, 0.12565195560455322, 0.13680008053779602, 0.26037052273750305, 0.1589513123035431, -0.12490979582071304, 0.06861703097820282, 0.2231827825307846, 0.210939422249794, -0.4451877772808075, -0.25020259618759155, 0.11937292665243149, -0.15889392793178558, -0.062143757939338684, 0.2852393686771393, -0.18578119575977325, -0.0555899441242218, 0.10725925117731094, 0.5615759491920471, 0.06566937267780304, 0.3215259909629822, -0.2513764798641205, -0.11657802760601044, 0.10093561559915543, 0.7338465452194214, 0.4003038704395294, -0.07434451580047607, -0.8049331307411194, 0.05935388803482056, 0.010597818531095982, -0.008389703929424286, 0.06361580640077591, -0.04533345624804497, -0.08048225194215775, -0.046993523836135864, -0.053168099373579025, 0.2964985966682434, -0.025558169931173325, 0.06245078146457672, 0.0684034451842308, -0.25140345096588135, -0.07749945670366287, 0.047265321016311646, -0.05699838325381279, 0.00574808195233345, 0.386984646320343, -0.02459988184273243, -0.17661155760288239, -0.05432581156492233, 0.11330319195985794, 0.1050889790058136, -0.0184548981487751, 0.01457084808498621, -0.17129702866077423, 0.22173914313316345, 0.011407547630369663, 0.1280003786087036, 0.31135621666908264, 0.180060014128685, 0.1148831844329834, -0.2753571569919586, 0.11087826639413834, -0.0016163826221600175, 0.09713678807020187, 0.012138108722865582, 0.2693471312522888, -0.3004968762397766, -0.06565546244382858, 0.08722143620252609, 0.13114577531814575, 0.09441769123077393, 0.26316601037979126, -0.4893761873245239, -0.18635262548923492, -0.3434680700302124, -0.1930527538061142, -0.03535913676023483, 0.031217526644468307, 0.008856020867824554, 0.17315728962421417, -0.11634211987257004, -0.016147950664162636, -0.23208722472190857, -0.11355017870664597, -0.06582438200712204, -0.03486979007720947, 0.03928852826356888, -0.15729181468486786, -0.03621857240796089, -0.08272611349821091, 0.026994574815034866, 0.004207603633403778, -0.06826230138540268, 0.13069164752960205, 0.012087458744645119, -0.040057502686977386, -0.003150440752506256, 0.11278682947158813, 0.04375351965427399, -0.04332399740815163, -0.05102664977312088, -0.11490608006715775, -0.02912300080060959, -0.09042651206254959, 0.2916107177734375, 0.09045108407735825, -0.19884757697582245, 0.025629442185163498, -0.434201717376709, 0.14419718086719513, 0.11644762009382248, -0.0528378039598465, -0.06618747115135193, -0.1354089081287384, -0.03565894439816475, 0.3385716378688812, 0.22545798122882843, 0.17149204015731812, -0.16332091391086578, 0.1251993328332901, -0.3065029978752136, 0.03862879425287247, -0.14445878565311432, -0.20664702355861664, 0.09175072610378265, -0.03785416856408119, -0.1471431851387024, 0.03240487724542618, 0.02006632648408413, 0.17125707864761353, -0.029383374378085136, 0.19458234310150146, 0.12492594122886658, 0.06101043149828911, 0.12452419102191925, -0.005742778070271015, -0.02619750052690506, 0.24489420652389526, 0.2173108160495758, -0.07812853157520294, -0.051940176635980606, -0.11854404956102371, -0.002747026039287448, -0.00025690600159578025, -0.10336193442344666, 0.108637735247612, 0.02166794426739216, -0.06489208340644836, -0.09315869212150574, 0.109193354845047, 0.08073517680168152, 0.16354422271251678, 0.1375417560338974, 0.24472583830356598, 0.10493157804012299, 0.014783037826418877, 0.07819397002458572, -0.14283858239650726, 0.0032520245295017958, -0.07471586018800735, -0.010567007586359978, -0.17785920202732086, -0.28968554735183716, -0.05194784328341484, 0.21865367889404297, 0.08728586137294769, -0.13852424919605255, -0.2352994978427887, -0.09775833040475845, -0.12553061544895172, -0.0035529376473277807, -0.10801662504673004, -0.06943380832672119, -0.13589932024478912, 0.1015334278345108, 0.053881652653217316, -0.26454830169677734, -0.23676887154579163, 0.049236610531806946, 0.13618478178977966, -0.048405423760414124, 0.016959818080067635, -0.02701348252594471, 0.051023706793785095, -0.10619953274726868, 0.061188891530036926, 0.15698584914207458, -0.13047842681407928, -0.061912283301353455, 0.19208091497421265, 0.0030074561946094036, -0.09911168366670609, 0.0808771401643753, -0.10224025696516037, -0.0548241063952446, 0.05549527704715729, -0.08083096891641617, 0.16981470584869385, 0.12533257901668549, -0.19724340736865997, -0.4077196717262268, 0.26172715425491333, 0.08321337401866913, 0.20748978853225708, 0.02066434547305107, 0.2433338463306427, -0.18347379565238953, 0.003556590061634779, 0.2775740623474121, 0.25529852509498596, -0.33415329456329346, -0.09753331542015076, -0.15079587697982788, 0.015939101576805115, 0.16321852803230286, 0.2543363869190216, -0.5069169402122498, 0.10076209902763367, -0.0838291123509407, 0.11218774318695068, -0.2590862810611725, -0.017450861632823944, -0.13621138036251068, -0.2169191688299179, -0.14944669604301453, 0.07579228281974792, -0.06811224669218063, -0.058960236608982086, -0.23989690840244293, 0.005764984991401434, -0.15257400274276733, -0.14347468316555023, 0.10161406546831131, -0.13990511000156403, -0.030485473573207855, -0.2334100902080536, 0.03174977004528046, 0.08158501237630844, -0.1902344673871994, 0.11955554783344269, 0.03525911644101143, 0.0840349867939949, -0.019307758659124374, 0.011674696579575539, 0.1131678968667984, 0.14108774065971375, 0.06024195998907089, -0.1897861212491989, -0.1296994537115097, -0.12474562972784042, -0.06179532781243324, -0.080780528485775, 0.06400035321712494, 0.045039303600788116, -0.1835927814245224, -0.02455262281000614, 0.09490003436803818, 0.04217860475182533, 0.09325958043336868, -0.10501723736524582, -0.05750887095928192, -0.15602107346057892, 0.02571532130241394, 0.14995652437210083, 0.07792013883590698, 0.03817295283079147, 0.3359728455543518, 0.23467816412448883, -0.12368706613779068, 0.20622698962688446, 0.08838170021772385, 0.08791234344244003, -0.045843858271837234, -0.27088335156440735, -0.20860935747623444, 0.10251755267381668, -0.023372134193778038, 0.04559457302093506, -0.20584076642990112, -0.1886354386806488, 0.1089804396033287, 0.13863758742809296, 0.07326887547969818, -0.14912253618240356, -0.045744020491838455, 0.07981801778078079, -0.24702441692352295, -0.062137383967638016, 0.19697780907154083, 0.06890865415334702, 0.12170608341693878, 0.07959143072366714, 0.044350456446409225, 0.1116633489727974, 0.21111662685871124, -0.08899743109941483, 0.05396653339266777, 0.3192811906337738, 0.030482525005936623, -0.22010160982608795, -0.39503228664398193, 0.024371718987822533, 0.07329273223876953, 0.034444063901901245, 0.05599967762827873, 0.16698534786701202, -0.3110579550266266, -0.03431389853358269, -0.16070538759231567, 0.10494059324264526, -0.024794265627861023, -0.09327273815870285, -0.3043956458568573, -0.08285760134458542, -0.331585168838501, -0.020118389278650284, 0.24878354370594025, -0.04948727414011955, -0.07207587361335754, 0.16581735014915466, 0.18956242501735687, 0.0919690728187561, -0.14843830466270447, 0.24091047048568726, 0.07254878431558609, -0.08080349117517471, -0.14608117938041687, -0.07610926777124405, 0.17713135480880737, -0.18428441882133484, -0.07696350663900375, -0.05837631598114967, 0.17825032770633698, -0.03268047422170639, -0.10854341834783554, -0.005914974492043257, 0.13014791905879974, -0.03751246631145477, 0.06225477531552315, 0.10794378072023392, 0.07878468185663223, 0.17305079102516174, -0.05596824362874031, -0.1724970042705536, -0.15649735927581787, -0.17556345462799072, 0.21955427527427673, -0.28430870175361633, -0.006942666135728359, -0.1158493384718895, -0.15168584883213043, -0.11225609481334686, 0.07727020978927612, 0.06889650970697403, 0.09182175993919373, -0.1281513273715973, 0.019261138513684273, 0.05419091507792473, -0.048828937113285065, 0.024799535050988197, 0.09636405855417252, 0.10548990219831467, 0.19155104458332062, 0.15958505868911743, -0.26633554697036743, 0.013107683509588242, -0.03580247238278389, 0.06877975910902023, -0.05960896238684654, -0.022960936650633812, -0.1188199520111084, 0.0904700830578804, -0.21611864864826202, 0.10025522112846375, 0.06105095520615578, 0.11314553767442703, 0.11252373456954956, -0.09287818521261215, -0.08225797861814499, -0.07329865545034409, 0.22535397112369537, 0.26779332756996155, -0.0001550704037072137, -0.01621400937438011, -0.12813948094844818, -0.018506916239857674, -0.11016978323459625, -0.21026766300201416, -0.09929551184177399, 0.11547629535198212, 0.13941127061843872, 0.03175538778305054, -0.23374636471271515, 0.04183625429868698, -0.12040914595127106, -0.022243866696953773, 0.11140681058168411, 0.1282368004322052, 0.045324791222810745, 0.008513670414686203, 0.08480013161897659, 0.2296292781829834, -0.07575594633817673, 0.0703652948141098, 0.0740673616528511, -0.06623238325119019, 0.27206093072891235, 0.014434470795094967, -0.050949059426784515, -0.13452084362506866, -0.222761869430542, -0.043798621743917465, 0.08209843188524246, -0.23715083301067352, -0.138046994805336, -0.09570986777544022, -0.2003243863582611, 0.05573103204369545, -0.30568626523017883, -0.058063726872205734, -0.23091158270835876, -0.21363186836242676, -0.15203146636486053, -0.13061127066612244, 0.20703256130218506, 0.022451989352703094, -0.08887283504009247, -0.08527390658855438, 0.2437087595462799, 0.08602249622344971, -0.013158181682229042, 0.11828624457120895, 0.13211093842983246, 0.18619506061077118, 0.005148906726390123, 0.020840680226683617, 0.13565126061439514, 0.21982994675636292, -0.04229983687400818, 0.08440034091472626, 0.3652677834033966, -0.18629659712314606, -0.16006723046302795, -0.17803554236888885, 0.4836238920688629, 0.1573072373867035, -0.11370999366044998, 0.17136000096797943, -0.0861649438738823, -0.5174437761306763, -0.35318195819854736, -0.16127340495586395, 0.03367035090923309, 0.08305791765451431, 0.13992498815059662, -0.4800880253314972, 0.3449496626853943, 0.2416529357433319, 0.20108556747436523, 0.18785615265369415, 0.023318592458963394, -0.06815499812364578, 0.10063118487596512, 0.1483847200870514, -0.08868583291769028, -0.11442039161920547, -0.03166850283741951, -0.2120702564716339, 0.015014898963272572, -0.05114955082535744, -0.021223677322268486, 0.17362093925476074, 0.0016307717887684703, -0.41830888390541077, -0.15768003463745117, -0.32642862200737, 0.5278928875923157, 0.3157178461551666, 0.20922352373600006, -0.1648770421743393, 0.014321544207632542, -0.0999763086438179, 0.27592557668685913, 0.32175832986831665, 0.0930136889219284, 0.2609138786792755, 0.22653315961360931, 0.010674120858311653, -0.2761220335960388, -0.25978991389274597, -0.06682741641998291, -0.2567952275276184, 0.1449321210384369, -0.27510377764701843, -0.16986751556396484, -0.3403170704841614, -0.13523469865322113, 0.002451482228934765, -0.16434423625469208, -0.27639222145080566, -0.09372024238109589, 0.20984718203544617, 0.30048978328704834, -0.010098056867718697, 0.06359196454286575, -0.10102842003107071, 0.011597459204494953, 0.04460897669196129, 0.03487546741962433, -0.0738159716129303, 0.007626217789947987, -0.02664368227124214, -0.022137152031064034, 0.19822171330451965, -0.35239651799201965, -0.09723062813282013, -0.30590391159057617, -0.040258120745420456, -0.12714676558971405, 0.004222654737532139, 0.16891160607337952, 0.0851994976401329, 0.054151397198438644, 0.03651030361652374, 0.09728285670280457, -0.4844978153705597, 0.017665904015302658, 0.07749095559120178, 0.09067951142787933, -0.060263391584157944, -0.08196267485618591, -0.02322957292199135, 0.0673668384552002, 0.026146475225687027, 0.02078954316675663, -0.023023860529065132, -0.40932223200798035, -0.5622277855873108, 0.19424021244049072, 0.44322216510772705, -0.5444444417953491, 0.12036757171154022, -0.8231850862503052, -0.2510833144187927, -0.4612067937850952, 0.8338454365730286, -0.7795524001121521, -0.6263719201087952, -1.0468876361846924, 0.17622347176074982, -0.6328871250152588, 0.23463314771652222, -0.584316611289978, -0.1115214079618454, 0.010394236072897911, 0.0903962254524231, 0.2662316858768463, -0.08977341651916504, -0.23425108194351196, -0.03560085594654083, -0.013306000269949436, 0.026851221919059753, -0.15568667650222778, 0.022019682452082634, 0.06772883981466293, -0.03567470610141754, 0.040580060333013535, -0.2721262276172638, 0.14236363768577576, 0.15076929330825806, 0.05531974509358406, -0.10218026489019394, -0.08689036965370178, -0.383752703666687, 0.17881597578525543, 0.18887251615524292, -0.20653089880943298, 0.2874847948551178, -0.14923126995563507, 0.07697219401597977, 0.18257668614387512, 0.06467217206954956, 0.15274113416671753, -0.10919087380170822, 0.1325611025094986, 0.32569456100463867, -0.1563834697008133, -0.27779069542884827, 0.08757053315639496, 0.09999558329582214, 0.14231105148792267, -0.07909867912530899, 0.034466370940208435, 0.13061834871768951, -0.044047825038433075, -0.3025738596916199, -0.12570860981941223, 0.10109609365463257, 0.0799078494310379, 0.07114473730325699, 0.04838009551167488, -0.06679412722587585, 0.1919720619916916, -0.037721388041973114, -0.05164787918329239, -0.32540464401245117, -0.055741388350725174, 0.10916673392057419, -0.12328783422708511, -0.0025926625821739435, 0.09824369102716446, 0.15306410193443298, 0.33622780442237854, 0.2380513995885849, -0.06590718775987625, -0.21785739064216614, 0.015695180743932724, 0.5659612417221069, 0.033515118062496185, -0.449300080537796, -0.20921999216079712, 0.24200975894927979, -0.024597279727458954, 0.10810516774654388, 0.25186291337013245, 0.1410326212644577, -0.2732098400592804, -0.25012388825416565, 0.1545235961675644, -0.3385563790798187, -0.16009826958179474, -0.13851173222064972, -0.25371089577674866, 0.0347854346036911, -0.16559627652168274, -0.3201092779636383, -0.18689477443695068, 0.07941783219575882, -0.2040378749370575, -0.19260936975479126, -0.08825485408306122, 0.2904563546180725, 0.05458338186144829, -0.08348627388477325, -0.11775504797697067, -0.18853376805782318, -0.06594698876142502, 0.08609575033187866, 0.0416693389415741, -0.005454380530864, -0.0005260794423520565, 0.06734166294336319, -0.09333235770463943, -0.1324138194322586, 0.18352730572223663, -0.11440826952457428, -0.22645001113414764, 0.24205997586250305, 0.13393749296665192, 0.04660945385694504, 0.08756709843873978, 0.25111502408981323, -0.023510076105594635, 0.05858572944998741, 0.3807067573070526, 0.004181485157459974, -0.14602436125278473, 0.13550353050231934, 0.0521167516708374, 0.17974506318569183, -0.12169262766838074, -0.08372265845537186, 0.18889150023460388, -0.16663618385791779, 0.26364052295684814, -0.11227590590715408, -0.038242705166339874, -0.07789783179759979, 0.07552160322666168, 0.1308976411819458, 0.3440588414669037, -0.030889416113495827, 0.1749844253063202, -0.11350373923778534, -0.013947367668151855, -0.5855204463005066, -0.1436256766319275, -0.20796166360378265, -0.11876888573169708, 0.10947584360837936, 0.05626794323325157, 0.3358306586742401, 0.00020984176080673933, 0.19085891544818878, 0.1576458215713501, 0.0691676065325737, 0.4808748662471771, -0.1421506106853485, -0.2233666479587555, 0.04295315593481064, 0.012938257306814194, 0.24993838369846344, -0.22654710710048676, 0.030391111969947815, -0.0916694775223732, -0.062233295291662216, 0.0032140484545379877, 0.11441236734390259, -0.08199767023324966, 0.1247735470533371, 0.11495782434940338, 0.15308615565299988, -0.244672492146492, -0.41712626814842224, -0.10347413271665573, 0.09110499173402786, 0.123867467045784, 0.03433080017566681, -0.0962047278881073, 0.16307412087917328, 0.086131252348423, 0.22279182076454163, 0.27683722972869873, -0.1360539048910141, 0.28739404678344727, -0.014829927124083042, 0.03367963805794716, -0.016115203499794006, 0.08507683128118515, -0.08050611615180969, 0.25208964943885803, -0.05735410749912262, -0.19317463040351868, -0.23043738305568695, -0.049605414271354675, -0.19927522540092468, -0.16885767877101898, -0.26855406165122986, 0.11623939126729965, 0.17059490084648132, -0.15912362933158875, 0.05242752656340599, -0.26017341017723083, 0.1203986257314682, -0.19797967374324799, 0.18585121631622314, -0.015440978109836578, -0.47587838768959045, 0.027266917750239372, 0.24481870234012604, 0.27747008204460144, -0.13172249495983124, -0.016416756436228752, -0.46356385946273804, -0.1110190600156784, -0.19875028729438782, -0.16289667785167694, 0.3178945779800415, -0.495086133480072, -0.07793104648590088, 0.09909706562757492, 0.04828358814120293, 0.1576390415430069, -0.12039180099964142, 0.14663635194301605, -0.4438064694404602, 0.028856849297881126, -0.0616651326417923, -0.19964295625686646, 0.33133575320243835, 0.25956714153289795, 0.19544553756713867, -0.08142953366041183, 0.20446404814720154, 0.2747434377670288, 0.2975183427333832, -0.2869437038898468, 0.020005276426672935, 0.13075003027915955, 0.07579687237739563, 0.14534717798233032, -0.1609881967306137, -0.17521096765995026, -0.0924341008067131, 0.11206671595573425, -0.19246074557304382, -0.14116494357585907, -0.1430792212486267, 0.12898077070713043, -0.13524296879768372, -0.10647907108068466, -0.011521774344146252, 0.19683660566806793, 0.1713722199201584, -0.2873119115829468, 0.027530252933502197, 0.14375390112400055, -0.20981226861476898, 0.2125145047903061, 0.14514265954494476, 0.21282130479812622, 0.048039790242910385, -0.20125587284564972, 0.12433606386184692, 0.03511715307831764, -0.2808085083961487, 0.2470121830701828, -0.22631943225860596, -0.13219678401947021, -0.1403384804725647, 0.015037886798381805, 0.034781984984874725, -0.10247446596622467, -0.08132440596818924, 0.03135812282562256, 0.17862555384635925, 0.1751643568277359, 0.060926154255867004, 0.0707031860947609, 0.062459662556648254, -0.27663224935531616, 0.1188054233789444, -0.38441187143325806, -0.1346617490053177, -0.20891201496124268, -0.2488449215888977, -0.04428080841898918, -0.17367534339427948, 0.05586957558989525, -0.3028644621372223, -0.06573505699634552, 0.23186108469963074, -0.008926082402467728, -0.10781731456518173, 0.021202970296144485, -0.2229703813791275, -0.17866745591163635, 0.40831100940704346, 0.04633323475718498, -0.014004760421812534, 0.0399450808763504, 0.06398309767246246, 0.1067621037364006, -0.1348055601119995, -0.12562617659568787, 0.02101299725472927, -0.13340547680854797, 0.1361260712146759, -0.06834516674280167, -0.20108838379383087, -0.0077489218674600124, -0.017040595412254333, -0.14013728499412537, 0.12943364679813385, -0.04536359757184982, 0.1980835348367691, 0.7391272187232971, 0.0904451385140419, -0.30851244926452637, -0.357990026473999, -0.3317252993583679, 0.36230751872062683, 0.15854611992835999, -0.04157928749918938, -0.24444837868213654, -0.1309649497270584, -0.17096686363220215, 0.2045363336801529, 0.14377614855766296, -0.2881779074668884, 0.04347982630133629, -0.19862458109855652, -0.0935501679778099, -0.38793259859085083, -0.2913190424442291, 0.06419261544942856, -0.2542998790740967, 0.23896510899066925, -0.07129507511854172, 0.3324364423751831, 0.35406437516212463, -0.023395687341690063, -0.2124721258878708, -0.002676950767636299, -0.0005010523600503802, 0.08187971264123917, 0.2658240497112274, -0.058811236172914505, 0.10862866789102554, -0.08423951268196106, -0.22226913273334503, 0.03180178999900818, -0.11686775833368301, 0.17599323391914368, 0.09241989254951477, -0.27179139852523804, -0.11063797771930695, -0.14301970601081848, -0.04560793191194534, -0.07991816103458405, 0.2368471622467041, -0.10004006326198578, 0.011489856988191605, 0.003927754703909159, -0.15883280336856842, 0.15861093997955322, -0.1487044394016266, 0.027524704113602638, 0.13021109998226166, 0.5354202389717102, 0.4488224685192108, -0.12441078573465347, -0.17787189781665802, 0.044109683483839035, 0.023676162585616112, -0.1766473799943924, 0.052980128675699234, -0.1363770216703415, 0.3072393536567688, -0.05762011557817459, -0.08020474016666412, 0.2694495916366577, -0.11692394316196442, -0.006489116232842207, 0.24589218199253082, -0.12412510067224503, -0.18510238826274872, 0.07383549958467484, -0.2977111041545868, -0.012051532976329327, -0.04049335792660713, -0.09290114045143127, -0.00045861612306907773, -0.09217501431703568, -0.513213038444519, 0.008036913350224495, 0.10925394296646118, -0.22319380939006805, -0.05253980681300163, 0.11616559326648712, 0.15871436893939972, -0.10456937551498413, -0.1672225296497345, 0.2356133908033371, 0.13333521783351898, 0.1981065720319748, -0.01717676967382431, -0.15799273550510406, -0.06115341931581497, 0.21520625054836273, 0.0031492444686591625, -0.22016556560993195, 0.3268151879310608, 0.14515100419521332, 0.0974399596452713, 0.16874520480632782, -0.05734224617481232, 0.1444067806005478, -0.08613209426403046, 0.0822833701968193, 0.12254929542541504, -0.12501783668994904, -0.08650597929954529, 0.15255053341388702, -0.25329187512397766, 0.09537561237812042, -0.240950807929039, 0.052172817289829254, 0.19502533972263336, -0.48649242520332336, -0.066139355301857, -0.06076880171895027, -0.24724173545837402, 0.12494286894798279, -0.04039588198065758, 0.013901467435061932, 0.18292739987373352, 0.13090895116329193, 0.08624981343746185, 0.07174530625343323, -0.064398393034935, -0.0632631927728653, -0.25896480679512024, -0.1217479407787323, -0.0778614953160286, -0.29339858889579773, -0.034727614372968674, -0.19402912259101868, -0.0053257872350513935, 0.03061290644109249, 0.03749828785657883, 0.030514797195792198, 0.0482696108520031, -0.18177546560764313, 0.10987605899572372, 0.02538716420531273, 0.052307866513729095, -0.11441367119550705, -0.21269655227661133, -0.35265007615089417, 0.1561068594455719, 0.2627102732658386, 0.15358246862888336, -0.04299986734986305, -0.1116834208369255, 0.12448301911354065, -0.16095605492591858, 0.15266720950603485, 0.21713973581790924, 0.36071673035621643, 0.14958415925502777, 0.03394428640604019, -0.3248666822910309, -0.2663627862930298, 0.053551774471998215, 0.16059085726737976, 0.02318253554403782, 0.08614346385002136, 0.0321611724793911, -0.07193601131439209, -0.1916554868221283, 0.18750602006912231, 0.1667810082435608, 0.13287124037742615, 0.28976455330848694, -0.061572685837745667, -0.149005725979805, 0.22049495577812195, -0.030558211728930473, -0.07646382600069046, 0.35396745800971985, -0.0006711953901685774, 0.24060697853565216, 0.18394485116004944, -0.001903480850160122, -0.2814856469631195, -0.06503113359212875, 0.24405992031097412, 0.1475297510623932, -0.19343240559101105, 0.014301523566246033, -0.19038616120815277, -0.09572385251522064, 0.2405765801668167, 0.20669184625148773, -0.033531755208969116, -0.009202229790389538, -0.0066840630024671555, -0.09081976115703583, -0.028232287615537643, -0.24903136491775513, -0.03924239054322243, -0.12959526479244232, -0.09317860007286072, 0.13105005025863647, -0.01875511184334755, -0.22142815589904785, -0.05633852258324623, 0.22074805200099945, -0.06879202276468277, -0.0418049581348896, 0.1133323535323143, 0.21181850135326385, -0.1338120549917221, -0.16980798542499542, -0.04235357418656349, 0.20241667330265045, -0.1402108371257782, -0.05512114614248276, -0.04406582564115524, 0.013277558609843254, -0.13792821764945984, -0.026113644242286682, 0.23542962968349457, -0.06489244848489761, -0.11292443424463272, 0.17965830862522125, -0.144758403301239, -0.20242956280708313, 0.0326402448117733, -0.33346500992774963, 0.18704113364219666, 0.10407544672489166, -0.20425976812839508, 0.05030609667301178, 0.3574239909648895, -0.02786182425916195, -0.058105915784835815, 0.04392118379473686, -0.047285422682762146, -0.0378151573240757, -0.09065563231706619, 0.019983040168881416, 0.036219578236341476, -0.02948869578540325, 0.018456699326634407, 0.007379693444818258, 0.21873268485069275, 0.05051577091217041, -0.24807272851467133, -0.08017432689666748, 0.239656001329422, -0.2341153472661972, -0.009406011551618576, -0.08577559888362885, 0.1430923193693161, 0.2874270975589752, -0.2162228673696518, -0.10973982512950897, -0.2141283005475998, 0.18233731389045715, 0.08859312534332275, -0.08319354057312012, -0.06218463554978371, 0.08189181983470917, -0.07369069755077362, 0.22337475419044495, -0.06099709868431091, -0.05544155836105347, 0.14510750770568848, -0.28603121638298035, 0.06843960285186768, 0.07412268966436386, 0.12836243212223053, -0.051145926117897034, 0.06533919274806976, -0.24410201609134674, 0.10130955278873444, -0.28186026215553284, 0.11236356198787689, -0.0963883101940155, 0.04809249937534332, 0.029020601883530617, -0.11807715147733688, -0.06056443229317665, 0.12592032551765442, -0.09576684981584549, 0.047551389783620834, 0.00447084940969944, 0.0647478997707367, -0.26095226407051086, 0.23700453341007233, -0.08294422179460526, 0.018177568912506104, 0.2941887080669403, -0.01588391698896885, -0.19274260103702545, -0.1873762011528015, -0.18931995332241058, -0.3172970414161682, -0.42524099349975586, 0.15797832608222961, 0.11996275186538696, -0.09193313121795654, -0.10703796148300171, 0.02092479169368744, 0.009414981119334698, 0.024844184517860413, 0.11065438389778137, -0.10353205353021622, 0.04750869423151016, 0.035732679069042206, 0.1330392211675644, -0.15566386282444, -0.009871070273220539, -0.004781304858624935, 0.14954060316085815, -0.2259030044078827, 0.2416466623544693, 0.16297827661037445, -0.06004488095641136, -0.07528956979513168, 0.05911192297935486, -0.40019258856773376, -0.24224258959293365, -0.13166174292564392, 0.09442026168107986, 0.008332343772053719, 0.028531385585665703, 0.08305422961711884, 0.12457797676324844, 0.3839524984359741, 0.11554833501577377, 0.3310961127281189, 0.042065076529979706, 0.17183621227741241, 0.1286894977092743, 0.03180497884750366, -0.023595042526721954, 0.0887066051363945, -0.15617609024047852, -0.09183815866708755, -0.24889905750751495, 0.060139451175928116, -0.06098052114248276, 0.0005323259392753243, -0.15047380328178406, 0.08171990513801575, 0.29995596408843994, 0.1905764639377594, -0.11455223709344864, -0.2555733919143677, 0.20888924598693848, 0.1372995674610138, -0.054699622094631195, -0.20074178278446198, -0.15459202229976654, -0.033099230378866196, -0.08370889723300934, 0.16270405054092407, -0.1168283000588417, -0.13283871114253998, 0.1885901540517807, -0.15491437911987305, 6.628739356528968e-05, -0.22634677588939667, -0.06311195343732834, 0.14668376743793488, 0.13464973866939545, 0.08734490722417831, 0.08525685966014862, -0.1596088856458664, -0.14187738299369812, 0.0910988375544548, -0.3449946343898773, -0.2044396698474884, -0.35024771094322205, 0.11024199426174164, -0.17693588137626648, 0.018575631082057953, -0.062460269778966904, 0.040178097784519196, 0.020023446530103683, 0.18099771440029144, -0.15726271271705627, 0.012852951884269714, -0.09723038226366043, 0.2595294117927551, 0.028778929263353348, 0.14204055070877075, -0.027395084500312805, -0.2207646369934082, 0.13227134943008423, -0.01469868142157793, -0.04813187196850777, -0.10498526692390442, 0.002061518607661128, 0.26195812225341797, 0.0739159882068634, -0.06928342580795288, -0.010219015181064606, 0.21681585907936096, 0.13389569520950317, 0.021990448236465454, 0.019149942323565483, 0.21834397315979004, 0.0816311165690422, 0.08535277098417282, 0.13571298122406006, -0.05489550530910492, -0.11703332513570786, 0.2508436143398285, 0.24935275316238403, -0.13680629432201385, 0.07121311128139496, -0.02615238167345524, -0.15805816650390625, 0.08733173459768295, 0.036183834075927734, -0.019132506102323532, 0.4080049693584442, 0.15981051325798035, 0.013708380982279778, -0.13385488092899323, -0.0716710090637207, -0.36364319920539856, 0.027176445350050926, -0.0151436198502779, 0.21774734556674957, -0.280520498752594, -0.2187192440032959, -0.20936740934848785, -0.0650825947523117, 0.31351161003112793, 0.22037295997142792, -0.323097825050354, -0.14144493639469147, 0.08395697176456451, 0.08854721486568451, -0.3101855218410492, -0.17605926096439362, 0.06877521425485611, 0.13604624569416046, -0.09696201980113983, -0.07184917479753494, -0.020739324390888214, -0.2486686259508133, -0.12625910341739655, 0.13673824071884155, 0.1364889293909073, 0.3145362138748169, 0.05941101908683777, 0.36277875304222107, 0.04059690609574318, -0.1963261216878891, -0.1277436912059784, -0.03475385904312134, -0.07357492297887802, -0.1000531017780304, -0.08396559953689575, 0.32569190859794617, -0.059589218348264694, 0.13272683322429657, 0.1744382530450821, 0.019725048914551735, 0.13241079449653625, 0.3507497012615204, 0.04563905671238899, -0.446956992149353, 0.12786920368671417, -0.14957070350646973, 0.16932791471481323, -0.1184733584523201, 0.10836614668369293, 0.14129281044006348, 0.0406879261136055, 0.14095796644687653, 0.38510042428970337, -0.15131725370883942, -0.030247870832681656, 0.1875241994857788, 0.0021767227444797754, -0.1479770690202713, -0.05304478108882904, -0.11352593451738358, -0.07965527474880219, -0.32057878375053406, 0.21053338050842285, 0.12736627459526062, -0.17980161309242249, 0.051236726343631744, 0.13140907883644104, 0.24282194674015045, -0.03716015815734863, -0.2149815410375595, -0.05997296795248985, 0.13344530761241913, 0.007460455875843763, 0.20522713661193848, -0.42100638151168823, 0.1652885377407074, 0.12494336068630219, -0.026378922164440155, 0.24379731714725494, 0.8449566960334778, -0.305769681930542, 0.11727925390005112, 0.003516346914693713, 0.034464143216609955, 0.1410374641418457, -0.048729997128248215, 0.09280634671449661, 0.029706226661801338, 0.03548094257712364, -0.0855226069688797, 0.12024682760238647, 0.08443322777748108, 0.03590639680624008, -0.10400557518005371, 0.08937680721282959, 0.08055398613214493, 0.055978626012802124, 0.08704227209091187, 0.11481157690286636, 0.04375690966844559, 0.020666027441620827, -0.057434696704149246, 0.05761590600013733, 0.1274578720331192, -0.13017389178276062, -0.31653138995170593, -0.06318220496177673, -0.09365598857402802, 0.15821023285388947, -0.40404418110847473, 0.08313120156526566, 0.0751120001077652, 0.03851784020662308, -0.16519390046596527, 0.46656668186187744, -0.13960224390029907, 0.16910678148269653, -0.14132674038410187, -0.27045977115631104, 0.03517865762114525, 0.47449707984924316, -0.12841011583805084, 0.15615378320217133, -0.05752880871295929, -0.1918758898973465, -0.04108722507953644, -0.5211672186851501, -0.4740533232688904, -0.00809373427182436, 0.003298971801996231, -0.12594428658485413, -0.25351372361183167, -0.1906261146068573, -0.19576217234134674, -0.20117320120334625, -0.18385538458824158, -0.08665577322244644, -0.033872298896312714, 0.06626708805561066, 0.02580484189093113, 0.09867056459188461, 0.16539989411830902, 0.10696685314178467, 0.003416494932025671, -0.1918439269065857, 0.08838927000761032, -0.21711252629756927, 0.16707538068294525, -0.1269797831773758, -0.0492074117064476, -0.13006238639354706, -0.2705894112586975, 0.025867870077490807, -0.11112368106842041, 0.19045670330524445, -0.0015992209082469344, 0.029328983277082443, 0.08593019843101501, -0.029506266117095947, -0.16603480279445648, 0.27217939496040344, 0.32703346014022827, -0.2430046945810318, 0.25924453139305115, -0.12730403244495392, 0.026991840451955795, 0.11791747063398361, 0.06698565930128098, -0.23886439204216003, -0.1560153067111969, -0.1501757800579071, 0.3282584846019745, -0.18690995872020721, 0.11211401224136353, 0.09809426218271255, -0.09266690909862518, 0.037068214267492294, -0.12248527258634567, -0.023632580414414406, 0.03245750814676285, 0.012631728313863277, 0.15427255630493164, -0.1762465089559555, -0.2531757652759552, -0.0016532730078324676, 0.24151059985160828, -0.13066808879375458, 0.21210825443267822, 0.17041270434856415, 0.10620330274105072, -0.16304455697536469, 0.03212793171405792, -0.1484522968530655, 0.048351578414440155, 0.0500921830534935, 0.26418787240982056, 0.011235225014388561, -0.08577774465084076, -0.17778250575065613, 0.07869577407836914, 0.05580288916826248, 0.18341675400733948, -0.18640343844890594, 0.04802527651190758, -0.15259984135627747, -0.272266685962677, -0.38730740547180176, -0.04916590452194214, 0.24643826484680176, 0.19285863637924194, -0.2821336090564728, 0.30846694111824036, -0.060382142663002014, -0.19474191963672638, 0.0966375544667244, -0.024528896436095238, -0.0988408774137497, 0.03547150641679764, 0.08501186966896057, 0.11365342140197754, -0.028350574895739555, -0.03951169550418854, 0.213531494140625, -0.1642085611820221, -0.07458573579788208, 0.03547048568725586, -0.05602210760116577, -0.03700423240661621, 0.05355234816670418, 0.029540495947003365, 0.0777006521821022, -0.11433478444814682, -0.1740034967660904, -0.041025806218385696, 0.08270549029111862, 0.017455972731113434, -0.06649580597877502, 0.07909237593412399, 0.3101666569709778, -0.14124739170074463, -0.048514511436223984, 0.12267524749040604, -0.13980954885482788, -0.04452342540025711, -0.0915805846452713, -0.026267819106578827, -0.004725990816950798, -0.21815623342990875, 0.09581387042999268, -0.04093390703201294, 0.14460664987564087, -0.0033769046422094107, 0.20789599418640137, 0.03144589439034462, -0.05210810899734497, -0.38915684819221497, 0.18992401659488678, -0.1629740595817566, 0.03800654038786888, 0.25011128187179565, 0.1265157014131546, -0.05733529478311539, -0.2664114832878113, 0.19667327404022217, 0.13333085179328918, -0.2695517838001251, 0.11171605437994003, -0.19427503645420074, -0.3431113362312317, -0.08719710260629654, -0.5241303443908691, -0.0434332937002182, 0.20183725655078888, -0.08416740596294403, 0.14127545058727264, 0.1262587308883667, 0.14722603559494019, 0.030074195936322212, -0.19387465715408325, -0.3499634265899658, 0.12401017546653748, 0.13965947926044464, 0.08043301105499268, 0.31399405002593994, -0.07615320384502411, 0.38434338569641113, -0.1543055921792984, -0.048356153070926666, 0.06827466934919357, 0.12502634525299072, 0.0788821280002594, 0.16041211783885956, -0.04118874669075012, 0.09915361553430557, -0.13526631891727448, 0.07006881386041641, 0.05591694265604019, -0.04595865681767464, -0.23001278936862946, 0.027871565893292427, 0.03067464753985405, -0.0018185328226536512, 0.1705634444952011, -0.32928356528282166, 0.1359163224697113, 0.16672950983047485, -0.03566683828830719, 0.26259279251098633, -0.23232968151569366, -0.22169338166713715, 0.10482971370220184, 0.058757342398166656, 0.03366006538271904, -0.0778384804725647, 0.148531973361969, -0.001020011492073536, -0.20076608657836914, 0.015481377951800823, 0.08996308594942093, 0.0036343515384942293, -0.002168867504224181, -0.12514276802539825, 0.07883776724338531, -0.07827305793762207, -0.03476578742265701, 0.012429925613105297, 0.03580300137400627, 0.09728410840034485, 0.06110873445868492, 0.1500721275806427, -0.11745171248912811, 0.062417637556791306, 0.009963097050786018, 0.01522581372410059, -0.23809020221233368, -0.47260621190071106, 0.8169729709625244, 0.1688583791255951, -0.286061555147171, -0.14341586828231812, -0.31170374155044556, -0.007285584695637226, 0.42453861236572266, -0.6957184672355652, 0.8833892345428467, 0.5697958469390869, 0.07992052286863327, -0.22976964712142944, -0.056898463517427444, -0.6147255897521973, 0.31414496898651123, -0.001311635016463697, -0.052227508276700974, -0.18200986087322235, 0.2871033549308777, 0.14172835648059845, -0.005935579538345337, 0.12452331930398941, -0.02270595170557499, 0.297821044921875, 0.1989077925682068, 0.24628925323486328, -0.15527576208114624, 0.23611822724342346, -0.0694996789097786, -0.030452871695160866, -0.023540358990430832, 0.09354368597269058, -0.06595524400472641, 0.10905880481004715, 0.2414722740650177, 0.1867194026708603, -0.05087266117334366, -0.20474690198898315, -0.28970643877983093, 0.22702258825302124, -0.08916418999433517, -0.22527079284191132, 0.24990177154541016, 0.29417723417282104, 0.19178123772144318, 0.06409389525651932, 0.08075303584337234, -0.20621250569820404, 0.23617951571941376, -0.3571265637874603, -0.20513245463371277, -0.44962263107299805, 0.1208220049738884, -0.4592095613479614, -0.09598523378372192, -0.21052145957946777, -0.5135934948921204, 0.1102663055062294, 0.5109219551086426, -0.47124922275543213, 0.20823350548744202, 0.04578248783946037, 0.3251033127307892, -0.018229486420750618, 0.10319919884204865, -0.09672083705663681, -0.049864381551742554, -0.1304999440908432, -0.015321681275963783, 0.10458869487047195, 0.05558796599507332, -0.03603404760360718, 0.050757694989442825, 0.3957452178001404, 0.13043762743473053, 0.026548156514763832, 0.15362870693206787, 0.09723374992609024, 0.22416085004806519, -0.240454763174057, 0.35596323013305664, -0.08675717562437057, -0.10050877183675766, -0.06506428867578506, 0.21024928987026215, 0.0025837502907961607, 0.19672565162181854, -0.1838604062795639, -0.04647059738636017, -0.008733230642974377, -0.2250940054655075, -0.31358087062835693, 0.0484413243830204, -0.24073000252246857, -0.14385786652565002, -0.1135542094707489, 0.13170179724693298, -0.21067668497562408, -0.08184440433979034, -0.2916863262653351, 0.002531221369281411, 0.4087618291378021, -0.08513429760932922, -0.5515827536582947, 0.06589588522911072, -0.07739673554897308, -0.01893301121890545, 0.05360301584005356, 0.2111768275499344, 0.09122379124164581, 0.15888608992099762, 0.1995357871055603, -0.21628770232200623, -0.11466223746538162, 0.32882317900657654, -0.22558902204036713, -0.04072251543402672, -0.13069342076778412, -0.2602417767047882, 0.30646196007728577, 0.021630598232150078, -0.07583624124526978, 0.2128690630197525, 0.15888413786888123, 0.195669025182724, 0.3596054017543793, 0.161794975399971, 0.10934167355298996, -0.17460627853870392, -0.08749563992023468, 0.21819545328617096, -0.30121949315071106, -0.04091935604810715, -0.10041462630033493, -0.07083312422037125, 0.07070217281579971, -0.12217926234006882, 0.00551459938287735, 0.07284677028656006, 0.22599664330482483, 0.21450559794902802, 0.14708928763866425, -0.17853593826293945, 0.15884628891944885, -0.10599705576896667, -0.10576280951499939, 0.28522738814353943, -0.06736824661493301, -0.1588452309370041, 0.15454795956611633, 0.021454336121678352, 0.169541135430336, -0.11476202309131622, 0.31619521975517273, -0.24917954206466675, 0.013911386020481586, 0.05630363151431084, 0.11623869091272354, -0.13255004584789276, -0.03696388751268387, -0.22432436048984528, 0.07959434390068054, 0.12321591377258301, 0.12228429317474365, -0.03859745338559151, -0.13371066749095917, -0.06640978157520294, 0.07858671247959137, -0.0660446360707283, -0.16698986291885376, 0.1741666942834854, 0.034419964998960495, 0.3504815697669983, 0.05235673114657402, 0.3425246477127075, -0.08632510900497437, -0.03246024623513222, -0.24875271320343018, 0.04831138998270035, -0.29612666368484497, 0.07146116346120834, -0.37123826146125793, 0.24422375857830048, 0.09939651191234589, -0.30446165800094604, -0.04530053213238716, 0.2896849811077118, -0.22649449110031128, 0.02593131549656391, 0.24818359315395355, 0.04415491968393326, 0.012870043516159058, 0.07812748104333878, 0.19515004754066467, -0.24461685121059418, 0.1769917607307434, 0.23689790070056915, 0.023075565695762634, -0.19080601632595062, -0.3906185030937195, -0.049020200967788696, 0.18572993576526642, -0.30496513843536377, -0.42542627453804016, -0.07784277945756912, 0.06966166943311691, -0.19609732925891876, -0.2721012830734253, -0.02222793735563755, -0.24936333298683167, 0.025013014674186707, -0.15763863921165466, -0.176515132188797, -0.0889517143368721, -0.0023602484725415707, 0.19159448146820068, -0.23804177343845367, -0.02313336543738842, 0.40960729122161865, 0.18357950448989868, 0.33897945284843445, -0.16845552623271942, -0.6789497137069702, 0.14209040999412537, -0.14249153435230255, -0.3702486455440521, 0.07565923035144806, -0.5241393446922302, 0.013887240551412106, -0.2169509083032608, 0.07942847907543182, 0.012728982605040073, -0.154216006398201, -0.23965199291706085, -0.01572619564831257, 0.16670075058937073, -0.1284622699022293, 0.016569532454013824, 0.23386889696121216, -0.07742787897586823, 0.039707329124212265, 0.0908157154917717, 0.00249272002838552, 0.10143734514713287, 0.04844341427087784, -0.08676829189062119, 0.1812576949596405, 0.2615506052970886, 0.4162916839122772, 0.16533568501472473, -0.29640084505081177, 0.08515353500843048, -0.305569052696228, -0.1777169108390808, -0.05620298534631729, -0.1805988997220993, 0.049548763781785965, -0.2476920783519745, -0.2191641628742218, -0.3193373680114746, 0.13905328512191772, -0.26557213068008423, 0.13299228250980377, 0.08031517267227173, 0.2446662038564682, 0.20721842348575592, -0.3236106038093567, -0.024627208709716797, -0.23277215659618378, 0.04161553084850311, 0.05935440585017204, 0.012903014197945595, 0.06410140544176102, -0.03216959163546562, -0.07505155354738235, 0.09497945010662079, 0.11046367883682251, 0.023607566952705383, -0.10340244323015213, -0.08954784274101257, -0.011055728420615196, 0.07043386250734329, 0.06258910894393921, -0.02891918085515499, 0.018864013254642487, -0.03315732255578041, 0.18748804926872253, -0.11200810223817825, 0.13393092155456543, 0.05213551223278046, 0.03893715888261795, -0.2792835533618927, 0.32091277837753296, 0.16756071150302887, 0.08998928964138031, 0.16509920358657837, 0.17263741791248322, 0.11466769874095917, 0.3040405213832855, -0.0361715592443943, -0.14046652615070343, -0.04457968473434448, -0.033809155225753784, 0.4068738520145416, 0.19114281237125397, -0.003004021942615509, -0.3023480772972107, -0.303656667470932, -0.08384691923856735, 0.30099108815193176, 0.15741877257823944, -0.01606002449989319, -0.3245929777622223, -0.1688641458749771, -0.02528509683907032, 0.06424034386873245, 0.3067878186702728, -0.06915967911481857, 0.15328694880008698, 0.1408137083053589, 0.0022407607175409794, -0.1372174769639969, 0.019799739122390747, 0.18885916471481323, -0.030111199244856834, 0.18755505979061127, 0.06761924922466278, -0.31021857261657715, -0.009381438605487347, -0.0695517286658287, -0.08488823473453522, 0.06927860528230667, -0.10178226977586746, 0.5390105843544006, 0.11613362282514572, 0.38321453332901, -0.09388364106416702, 0.15411591529846191, 0.37107136845588684, -0.2696469724178314, -0.016533244401216507, -0.6996350884437561, 0.5819718241691589, -0.02979399263858795, 0.21388863027095795, 0.3488615155220032, -0.07019049674272537, 0.21186570823192596, 0.30080991983413696, 0.03290574997663498, -0.7292265892028809, -0.0884304866194725, -0.021081088110804558, 0.4763168394565582, -0.02663864567875862, 0.045034393668174744, -0.3416770100593567, -0.21832850575447083, 0.03312202915549278, 0.3382052481174469, -0.16416160762310028, -0.12110570073127747, -0.191300630569458, 0.049215156584978104, -0.03446875140070915, 0.06121479719877243, 0.2455310970544815, 0.054141029715538025, -1.2048848867416382, 0.6805019974708557, 0.09876099973917007, 0.41030338406562805, -0.06690799444913864, -0.2834150493144989, 0.3764822483062744, -0.3946272134780884, 0.21201811730861664, 0.3806076645851135, 0.33485913276672363, 0.0009452071972191334, 0.07257188111543655, 0.14658722281455994, -0.04754972830414772, -0.011536327190697193, -0.0021110817324370146, -0.08583085983991623, -0.013280469924211502, -0.1807318776845932, -0.31263893842697144, 0.1185186505317688, 0.21777993440628052, 0.09737483412027359, 0.09792768955230713, -0.014019719325006008, -0.018467789515852928, 0.1270487904548645, -0.04136387258768082, -0.07294507324695587, -0.09109963476657867, -0.14363925158977509, -0.04474954307079315, 0.0913584753870964, -0.05276399478316307, 0.03963092342019081, 0.06739810854196548, 0.11852886527776718, -0.21723231673240662, 0.009049857035279274, 0.11798127740621567, 0.14757339656352997, -0.07646678388118744, 0.03171105310320854, -0.3414509892463684, 0.01724959909915924, -0.0027543127071112394, -0.07356688380241394, 0.009243509732186794, 0.08686769008636475, -0.13129177689552307, 0.09528534859418869, 0.06382348388433456, -0.23411574959754944, 0.0718325600028038, 0.12174974381923676, 0.049806274473667145, -0.05651983618736267, 0.028612259775400162, -0.13144592940807343, 0.03154156729578972, 0.1237437054514885, 0.19945712387561798, 0.19969144463539124, 0.05627052113413811, 0.17128890752792358, -0.015805337578058243, -0.1342111974954605, 0.22524841129779816, 0.41593363881111145, 0.13356436789035797, 0.1195862889289856, 0.10410353541374207, 0.06884857267141342, 0.22771595418453217, 0.33304905891418457, 0.0744929164648056, 0.07421420514583588, -0.17173859477043152, 0.35728219151496887, 0.17640399932861328, -0.0004994826158508658, -0.1995764970779419, -0.011410761624574661, -0.07416750490665436, 0.17186973989009857, 0.0475304014980793, -0.15059833228588104, -0.28586915135383606, -0.16791944205760956, -0.07062651216983795, -0.004640680737793446, 0.23544371128082275, 0.3969278335571289, -0.14112167060375214, -0.15175612270832062, 0.2650701403617859, 0.29722005128860474, -0.09632586687803268, 0.1316329836845398, -0.007487719878554344, 0.0013947635889053345, 0.011345923878252506, -0.34807491302490234, -0.10351236909627914, 0.22625061869621277, 0.13226720690727234, -0.13379615545272827, -0.037462640553712845, 0.11641698330640793, 0.16110193729400635, 0.09618587791919708, -0.14641913771629333, -0.0216683316975832, 0.09625057131052017, -0.03857843205332756, -0.022011123597621918, 0.05724548548460007, -0.05920954421162605, 0.1611301302909851, 0.0021369014866650105, -0.019042154774069786, 0.11511760205030441, -0.13750417530536652, -0.12460000067949295, -0.3230256140232086, 0.10970582813024521, 0.03147897496819496, -0.039218176156282425, -0.02147839404642582, 0.02547837421298027, 0.22803954780101776, 0.08685562014579773, -0.0810125395655632, -0.18444094061851501, 0.12077207863330841, 0.0017345818923786283, -0.048328377306461334, 0.004661635961383581, 0.1940784901380539, -0.024536624550819397, -0.08591018617153168, -0.01838703639805317, 0.12200801819562912, -0.16415861248970032, 0.24760378897190094, 0.13040989637374878, 0.1083327904343605, 0.1270362287759781, -0.24569442868232727, -0.020921356976032257, 0.22876541316509247, 0.26190754771232605, -0.06546027958393097, 0.07441442459821701, 0.0694626122713089, -0.16498449444770813, 0.15495356917381287, -0.009890221059322357, -0.01288077887147665, -0.008601021021604538, -0.19264185428619385, -0.051675450056791306, -0.056914329528808594, -0.025689994916319847, 0.169491246342659, 0.34990885853767395, -0.07826941460371017, 0.09789824485778809, -0.0795346200466156, 0.06755219399929047, 0.08061427623033524, -0.14722943305969238, -0.25218436121940613, -0.05216076225042343, -0.10883578658103943, -0.07894239574670792, -0.029841598123311996, 0.11825079470872879, 0.10424516350030899, 0.06779363006353378, -0.12570592761039734, -0.19854521751403809, -0.0554029755294323, 0.03882574290037155, 0.08808904886245728, 0.13189002871513367, 0.011015212163329124, -0.07570978254079819, 0.04577658697962761, -0.07547013461589813, 0.09989234060049057, -0.012901965528726578, 0.26955854892730713, -0.05983329564332962, -0.07493970543146133, -0.07591681182384491, -0.11507615447044373, -0.04603911563754082, 0.19552110135555267, -0.1079900935292244, 0.175072580575943, -0.0014673706609755754, -0.09484730660915375, 0.23992975056171417, 0.06287271529436111, 0.010019171051681042, 0.007491986732929945, -0.14232073724269867, 0.07879355549812317, -0.1026136577129364, -0.11600644886493683, 0.35003381967544556, 0.19679592549800873, -0.09145945310592651, -0.13164609670639038, 0.09863337129354477, -0.24591036140918732, -0.08817918598651886, 0.11085528135299683, -0.06412730365991592, -0.3627254366874695, -0.15292198956012726, -0.14447833597660065, -0.17466586828231812, -0.1444774717092514, -0.15355819463729858, 0.09546118974685669, -0.24987906217575073, -0.17678368091583252, -0.2879781723022461, -0.0589183047413826, 0.007239943835884333, 0.045223627239465714, 0.00853322260081768, 0.0895010381937027, 0.1393435150384903, 0.23527206480503082, 0.052829544991254807, -0.054457101970911026, -0.10056009888648987, 0.08525150269269943, 0.37143853306770325, 0.15884116291999817, 0.09395667910575867, -0.021109549328684807, 0.23108167946338654, 0.2302790880203247, -0.4187779426574707, 0.062070608139038086, 0.21457767486572266, -0.02106071263551712, -0.22436664998531342, -0.17668677866458893, -0.06389661133289337, 0.04828891530632973, -0.08511289209127426, 0.09972993284463882, -0.024352120235562325, 0.11850347369909286, -0.09571975469589233, -0.11868564039468765, 0.36043471097946167, -0.1904269903898239, 0.07701081037521362, 0.05690306797623634, -0.2891322672367096, -0.0005421239766292274, 0.04461180418729782, 0.22882533073425293, -0.03585314005613327, 0.19982437789440155, 0.16349807381629944, -0.11054490506649017, -0.04071621596813202, 0.0702080950140953, 0.11334343254566193, -0.002895729849115014, 0.13000401854515076, -0.00451390678063035, 1.1578076737350784e-05, -0.18486276268959045, -0.0737910345196724, -0.18862077593803406, -0.19841830432415009, -0.0759807750582695, 0.03069879487156868, -0.1642037332057953, -0.11280921846628189, -0.057721879333257675, 0.08368363231420517, -0.04588853567838669, -0.08324077725410461, -0.05365230515599251, -0.16486746072769165, -0.2205541431903839, -0.18692870438098907, 0.12438947707414627, -0.265764445066452, -0.03391968831419945, -0.12582017481327057, 0.15953445434570312, -0.4557630121707916, -0.3575053811073303, 0.011834695003926754, -0.12932051718235016, -0.1509169638156891, 0.1976635903120041, -0.07188981771469116, 0.18255849182605743, -0.3362880349159241, -0.5972350835800171, 0.22541049122810364, -0.15871450304985046, -0.09460734575986862, 0.07306628674268723, 0.04123980179429054, 0.014525419101119041, 0.3832497298717499, -0.12296126037836075, -0.27384012937545776, -0.3119387626647949, 0.049051713198423386, 0.03430825099349022, -0.1570035070180893, -0.1167859137058258, -0.1434640735387802, -0.04372783005237579, -0.0002186108467867598, 0.274375319480896, 0.14177538454532623, -0.030631709843873978, 0.028409207239747047, -0.10306192934513092, -0.36128997802734375, 0.016345134004950523, 0.1954917311668396, -0.18723182380199432, 0.04469425603747368, -0.056275028735399246, -0.15608488023281097, -0.17806364595890045, 0.0560663603246212, 0.08468117564916611, -0.11021777987480164, -0.07493405789136887, -0.045662589371204376, -0.0589374341070652, -0.23409588634967804, -0.02258603274822235, 0.07355847209692001, 0.17443959414958954, 0.17927666008472443, 0.05632838234305382, 0.025112489238381386, 0.02734386920928955, 0.06176957115530968, 0.06946250051259995, -0.21630114316940308, 0.16123870015144348, -0.015129358507692814, -0.05806969478726387, 0.020034629851579666, 0.21177205443382263, 0.11599913239479065, -0.04440860077738762, -0.008794146589934826, -0.01494052167981863, -0.07810113579034805, -0.021303948014974594, 0.06624957919120789, -0.0938817709684372, -0.07295539975166321, 0.27451828122138977, 0.20262517035007477, 0.22192808985710144, -0.06020515039563179, -0.11701411008834839, -0.032751262187957764, -0.04042867198586464, -0.06470286846160889, 0.07576452195644379, -0.13811653852462769, 0.06118424981832504, -0.042349159717559814, -0.20813260972499847, -0.10352939367294312, -0.12571024894714355, -0.11750973016023636, 0.18647882342338562, 0.14151987433433533, -0.3563099205493927, 0.25993770360946655, 0.00029069220181554556, 0.05418676510453224, 0.35484182834625244, 0.016892142593860626, 0.059849537909030914, 0.09178590029478073, -0.04828740656375885, 0.12011917680501938, 0.1981741487979889, -0.01623431034386158, 0.06909875571727753, 0.16898687183856964, 0.15033482015132904, 0.02598465047776699, 0.12367753684520721, -0.008740220218896866, -0.2566661834716797, -0.045355264097452164, -0.052121423184871674, -0.07364746928215027, 0.34270885586738586, 0.04175302013754845, 0.14462299644947052, 0.12246162444353104, 0.1821562498807907, -0.1625182032585144, -0.035160645842552185, -0.10000911355018616, 0.21188588440418243, 0.07115910202264786, 0.06360151618719101, 0.01667902059853077, -0.03562622889876366, 0.03098072111606598, 0.025458859279751778, 0.18008923530578613, -0.04143066704273224, -0.11835519224405289, -0.03511379659175873, 0.05337875336408615, -0.279987096786499, 0.15054140985012054, 0.05335664749145508, 0.11771747469902039, -0.005336575210094452, -0.11228633671998978, -0.19999350607395172, -0.04991713911294937, 0.004738149233162403, 0.011210140772163868, 0.027520667761564255, -0.14046619832515717, 0.06077000871300697, -0.18173393607139587, -0.03498394414782524, 0.02529473416507244, -0.08974035084247589, 0.026499737054109573, -0.19388635456562042, 0.08470961451530457, 0.09737631678581238, 0.24221926927566528, -0.08852519094944, -0.03142688795924187, -0.0014055154751986265, 0.07675071060657501, -0.20410043001174927, 0.28146010637283325, -0.15786732733249664, -0.08671634644269943, 0.027061235159635544, -0.057039253413677216, -0.1343136578798294, -0.2615087926387787, -0.08264294266700745, -0.17233332991600037, 0.12003006041049957, -0.0897146537899971, 0.0004507519188337028, -0.18374086916446686, -0.1972968429327011, 0.047580767422914505, 0.0870337262749672, 0.3084010183811188, -0.11680666357278824, 0.004472693894058466, 0.36867639422416687, 0.36890384554862976, 0.07971595972776413, 0.09210395812988281, -0.08225210011005402, -0.1680491715669632, 0.18136392533779144, 0.037347741425037384, -0.06848500669002533, -0.05640745535492897, -0.008253904990851879, 0.10562790930271149, 0.2877248227596283, 0.022837422788143158, 0.18702907860279083, 0.366563618183136, 0.1723208874464035, 0.15403050184249878, -0.3137160837650299, -0.09651975333690643, 0.017155515030026436, 0.017241938039660454, -0.14690165221691132, -0.01690264604985714, -0.1290763020515442, 0.04364502802491188, -0.07530872523784637, 0.031848546117544174, 0.21352854371070862, 0.12841898202896118, 0.047465454787015915, 0.031236790120601654, -0.21663987636566162, -0.22588898241519928, 0.03645318001508713, 0.03808934986591339, 0.07564184814691544, 0.1360456943511963, -0.033859435468912125, -0.12865036725997925, 0.024813471361994743, -0.014020225964486599, -0.1614730954170227, 0.07875276356935501, -0.005563878919929266, -0.1951914280653, -0.19034694135189056, -0.03052172064781189, -0.02378944866359234, -0.03690961003303528, 0.26981890201568604, 0.07814878970384598, 0.038683947175741196, -0.10191436111927032, 0.21979154646396637, 0.02886958234012127, 0.29047057032585144, -0.020891256630420685, -0.037431616336107254, 0.08389820903539658, 0.3415676951408386, 0.24322037398815155, -0.06198551133275032, 0.18356619775295258, 0.009026282466948032, -0.03987438231706619, -0.07223565131425858, 0.15255092084407806, 0.03675196319818497, -0.2944674789905548, 0.12284621596336365, 0.15495336055755615, 0.0797792375087738, 0.017651334404945374, 0.009951846674084663, 0.2959343194961548, 0.046896014362573624, 0.10314865410327911, 0.047625355422496796, 0.08512523025274277, 0.039666809141635895, -0.0865589827299118, 0.12509417533874512, 0.23725244402885437, 0.04437968134880066, 0.10621469467878342, 0.004176721908152103, 0.07569585740566254, 0.014918864704668522, 0.005928038619458675, -0.10360638797283173, -0.13333751261234283, 0.16855362057685852, 0.21974626183509827, 0.13143186271190643, 0.09110158681869507, 0.19162678718566895, -0.055313222110271454, 0.3431567847728729, -0.20663516223430634, -0.10794493556022644, -0.27322879433631897, -0.012682436034083366, -0.07795954495668411, -0.044816214591264725, -0.004566778428852558, -0.06286599487066269, 0.02987075410783291, 0.165935680270195, 0.2167334407567978, 0.1139155849814415, 0.08062578737735748, 0.008564535528421402, 0.3529188930988312, -0.21671417355537415, -0.3858644366264343, -0.02206656150519848, 0.062033992260694504, 0.23557496070861816, 0.08138488233089447, 0.049690503627061844, 0.03885668143630028, 0.253143846988678, -0.14245393872261047, -0.06158657371997833, -0.05097527801990509, 0.22068338096141815, 0.19401328265666962, 0.08034226298332214, 0.052683889865875244, -0.26706886291503906, 0.12775568664073944, -0.022101188078522682, 0.163363516330719, 0.09368133544921875, -0.011371738277375698, -0.05959378182888031, 0.18133217096328735, -0.15061533451080322, 0.09269260615110397, -0.07291283458471298, 0.0023475084453821182, -0.14317934215068817, 0.17063501477241516, 0.2295418381690979, 0.2018062323331833, -0.3205321431159973, 0.018521463498473167, 0.06496934592723846, -0.018758928403258324, 0.058282118290662766, -0.048018377274274826, 0.11081525683403015, 0.11451705545186996, 0.17040617763996124, 0.060826096683740616, 0.10184452682733536, 0.34935709834098816, 0.25385600328445435, 0.06729024648666382, 0.07390067726373672, -0.11238697171211243, -0.13485510647296906, 0.1530538946390152, 0.07870301604270935, -0.1139429435133934, -0.10052760690450668, -0.32238173484802246, 0.025175586342811584, 0.03132692724466324, -0.03789149597287178, 0.008352396078407764, 0.14442840218544006, -0.024075649678707123, -0.08963540941476822, -0.173431396484375, -0.06676467508077621, 0.011832566931843758, -0.015079858712852001, -0.027799012139439583, -0.20923854410648346, 0.027061494067311287, -0.07114364206790924, 0.05556732043623924, -0.06590007245540619, -0.0662892684340477, -0.010849845595657825, -0.019242562353610992, 0.22924412786960602, -0.20303037762641907, 0.19204604625701904, -0.3167877197265625, 0.18643508851528168, 0.06685204058885574, 0.0037720699328929186, -0.2891891598701477, -0.0679478868842125, 0.0017561856657266617, 0.045168422162532806, 0.1507083922624588, 0.016376474872231483, 0.1511273980140686, -0.04771712049841881, -0.06647816300392151, 0.030113810673356056, 0.0785117894411087, 0.11256065219640732, 0.10034835338592529, 0.07548670470714569, 0.08012904226779938, -0.040477853268384933, 0.05615190044045448, 0.07861413806676865, -0.040931586176157, -0.04254887253046036, -0.06381349265575409, 0.1379796713590622, -0.003906641621142626, -0.015375853516161442, 0.12092114239931107, 0.06109226122498512, 0.09790841490030289, 0.03308265283703804, 0.7587014436721802, -0.05746663734316826, 0.5280404090881348, -0.9263217449188232, -0.5200099349021912, 0.09060604125261307, 0.25902584195137024, -0.02456456609070301, 0.05312833935022354, 0.32475703954696655, -0.7323419451713562, 0.28071022033691406, -0.2515866160392761, -0.45884498953819275, 0.4770844280719757, -0.4883852005004883, -0.1625150889158249, -0.23493453860282898, 0.23353411257266998, -0.1948218196630478, 0.0291685052216053, 0.22393080592155457, -0.07769515365362167, -0.04299458488821983, -0.17787976562976837, -0.0731167420744896, -0.15401621162891388, -0.09541918337345123, 0.10396111011505127, -0.16016623377799988, 0.2584095299243927, -0.033963095396757126, 0.04647047445178032, -0.24964775145053864, 0.1758524477481842, -0.10581382364034653, 0.053671639412641525, 0.10753034055233002, 0.23885028064250946, -0.10597608983516693, -0.14921870827674866, 0.010294653475284576, -0.19410176575183868, 0.061458855867385864, -0.047112226486206055, 0.04262011498212814, 0.19457821547985077, 0.2359134554862976, -0.1458560973405838, 0.40518540143966675, 0.29674845933914185, 0.039437562227249146, 0.0009622267680242658, 0.008506352081894875, -0.1576908677816391, -0.05572311952710152, 0.22686509788036346, -0.12576232850551605, -0.1625909060239792, -0.08501148223876953, 0.07536500692367554, 0.27700498700141907, -0.24719512462615967, 0.37025323510169983, -0.11286140978336334, 0.11025698482990265, -0.05609702691435814, 0.16959969699382782, 0.03776269033551216, 0.23373953998088837, 0.46567147970199585, 0.04688737913966179, -0.08668949455022812, 0.03304735943675041, -0.14015142619609833, -0.047000985592603683, 0.19346921145915985, 0.20267346501350403, -0.009083177894353867, 0.0012351599289104342, 0.3055529296398163, -0.09727024286985397, 0.032601505517959595, -0.0012051038211211562, 0.22382095456123352, 0.011547310277819633, 0.1532021164894104, -0.2196519374847412, 0.2649596035480499, 0.21861347556114197, 0.11653503030538559, 0.11888059973716736, -0.046619147062301636, -0.037584468722343445, -0.180872842669487, -0.10026282072067261, -0.07492242008447647, 0.1457725316286087, 0.1848897635936737, 0.16308048367500305, -0.012459073215723038, 0.3151310384273529, 0.036922115832567215, -0.01009087823331356, 0.12483756244182587, 0.14090877771377563, -0.3144632577896118, 0.1665719896554947, 0.0818450078368187, 0.16439494490623474, -0.24268017709255219, 0.044280752539634705, -0.16362708806991577, -0.1820230633020401, -0.21294209361076355, -0.14090609550476074, -0.14367267489433289, -0.3695577383041382, 0.21717017889022827, 0.2028423249721527, -0.24363553524017334, -0.02946564555168152, 0.21358145773410797, -0.00015211354184430093, -0.12135923653841019, -0.23937340080738068, 0.167188361287117, -0.4970911145210266, -0.161471426486969, 0.25766047835350037, -0.1440935730934143, 0.0222741961479187, 0.14522385597229004, 0.07973507791757584, -0.28010693192481995, 0.39280882477760315, -0.09468978643417358, -0.2167883664369583, 0.057213280349969864, -0.06873317062854767, 0.064838707447052, 0.05993780121207237, 0.10968621075153351, -0.19804497063159943, -0.23354338109493256, 0.0361381359398365, -0.09782027453184128, -0.15937760472297668, 0.14166101813316345, 0.0911448672413826, -0.6025187969207764, -0.2308017611503601, -0.1537042260169983, 0.318791002035141, -0.08368425816297531, -0.11809901893138885, 0.11382981389760971, 0.43022269010543823, 0.1607346385717392, 0.2860057055950165, 0.22247305512428284, 0.08031552284955978, -0.03264923393726349, 0.15181930363178253, -0.1229281947016716, 0.020556969568133354, -0.09301097691059113, 0.2867462635040283, -0.14704950153827667, -0.22419984638690948, 0.0355621762573719, -0.016690365970134735, 0.1637505441904068, -0.22676633298397064, 0.2150205671787262, 0.013744850642979145, 0.11634570360183716, -0.17894673347473145, -0.26387420296669006, -0.13200515508651733, -0.3238510191440582, 0.058446966111660004, -0.05622340366244316, -0.0687723308801651, 0.47233110666275024, 0.35073718428611755, -0.3495219349861145, 0.12691223621368408, -0.314433217048645, 0.3343077600002289, 0.22352354228496552, 0.17570745944976807, -0.03679758682847023, 0.15497486293315887, -0.21448346972465515, 0.0847860723733902, -0.2589925229549408, -0.35476845502853394, -0.2699750065803528, 0.2104816883802414, 0.010014812462031841, 0.137755885720253, 0.3337016999721527, 0.14345777034759521, -0.1641898900270462, 0.025916041806340218, -0.1053825318813324, -0.00796456728130579, 0.2756379544734955, -0.1225738525390625, 0.10645662248134613, 0.15561515092849731, 0.04349517077207565, -0.20468272268772125, -0.24997839331626892, 0.14378559589385986, 0.2938181459903717, 0.11274345219135284, -0.06637675315141678, -0.17444665729999542, -0.259000301361084, 0.09941904246807098, 0.029092762619256973, -0.29228612780570984, -0.11707647889852524, 0.05947253480553627, -0.013871785253286362, 0.28180691599845886, -0.16447749733924866, -0.17821469902992249, -0.09599480777978897, 0.2790195047855377, -0.03309306502342224, 0.3414737582206726, 0.3387221097946167, -0.1804378777742386, -0.40643906593322754, -0.3712286949157715, 0.00248166685923934, -0.21306537091732025, -0.005436956882476807, -0.0986056923866272, 0.007858561351895332, 0.03922700509428978, -0.19042901694774628, -0.06832694262266159, -0.08093871921300888, 0.11477126181125641, -0.09500299394130707, 0.04701787605881691, -0.34462887048721313, -0.03843018785119057, 0.015818968415260315, 0.08700785785913467, 0.13637341558933258, 0.07345729321241379, -0.012560876086354256, 0.20170266926288605, -0.15760664641857147, -0.06623536348342896, -0.18552997708320618, -0.1862308830022812, 0.14053983986377716, 0.004058452323079109, -0.1311558037996292, 0.05750757455825806, -0.4330624043941498, 0.13146378099918365, 0.29613199830055237, 0.011599806137382984, -0.022106898948550224, 0.20834995806217194, -0.18728342652320862, 0.06990525871515274, 0.09376073628664017, -0.14055000245571136, 0.06083456799387932, -0.00500654149800539, -0.02791375294327736, 0.08249571919441223, -0.12570713460445404, 0.01995355449616909, 0.07780343294143677, 0.007308092899620533, -0.000191410887055099, -0.15770640969276428, -0.1314527839422226, -0.03080381266772747, 0.006564033683389425, -0.36767908930778503, 0.10203081369400024, 0.08966487646102905, -0.2585882842540741, -0.20832312107086182, 0.07099855691194534, 0.12726110219955444, -0.19076962769031525, 0.1510801613330841, -0.10644973814487457, -0.022337637841701508, 0.2204289585351944, 0.27475520968437195, 0.02022709511220455, 0.11328351497650146, 0.010270337574183941, 0.1174028068780899, 0.13542446494102478, -0.2053973227739334, 0.11288175731897354, -0.06160468980669975, 0.193101167678833, -0.08320143073797226, 0.22667020559310913, -0.2830218970775604, 0.08957847207784653, -0.08451172709465027, -0.18621580302715302, -0.025188954547047615, 0.23100939393043518, 0.16021747887134552, 0.10624054819345474, 0.11648380011320114, 0.08353341370820999, -0.056229036301374435, 0.15783829987049103, 0.306731641292572, 0.10429685562849045, 0.06752747297286987, -0.15850038826465607, -0.1098284050822258, 0.09408635646104813, 0.022231752052903175, 0.2548862099647522, -0.13026155531406403, 0.12669382989406586, 0.058253832161426544, -0.057893697172403336, 0.1610390543937683, -0.0022548309061676264, -0.007119340356439352, 0.21431763470172882, -0.1292647272348404, -0.07070973515510559, 0.11477275937795639, -0.11295335739850998, -0.07653648406267166, 0.3391863703727722, -0.00934392586350441, 0.004996212664991617, -0.1508973091840744, -0.06138196215033531, 0.12979421019554138, -0.10621051490306854, 0.10484795272350311, -0.199314683675766, 0.3048262596130371, 0.1314309686422348, 0.07431554049253464, -0.21955253183841705, 0.017032723873853683, -0.17865444719791412, 0.43996143341064453, 0.010052595287561417, 0.08720195293426514, -0.2523633539676666, 0.11065006256103516, 0.07585852593183517, -0.16466790437698364, 0.10429098457098007, -0.28635576367378235, -0.08924491703510284, -0.10160844773054123, -0.014266259968280792, -0.3174871504306793, -0.02584584802389145, -0.25186052918434143, 0.0951366126537323, 0.014623813331127167, 0.1561969816684723, -0.10828818380832672, -0.08845929056406021, -0.10541271418333054, -0.17044657468795776, -0.029586762189865112, -0.3709472417831421, -0.14465907216072083, 0.09632935374975204, 0.018395254388451576, -0.35507068037986755, 0.15234997868537903, -0.0859403908252716, -0.3479847013950348, 0.24654272198677063, 0.02321513369679451, -0.2405279576778412, 0.019552579149603844, 0.11800713837146759, 0.20087210834026337, -0.14238029718399048, -0.008745579980313778, 0.18013833463191986, -0.06499537080526352, -0.026057206094264984, -0.17593346536159515, 0.07902627438306808, -0.4379870593547821, -0.053237076848745346, -0.04511112719774246, 0.09147513657808304, -0.46644699573516846, -0.2501087188720703, -0.009590912610292435, 0.02772515080869198, 0.06602787971496582, 0.24781271815299988, 0.22609354555606842, -0.0878540426492691, 0.24103334546089172, 0.1815069019794464, 0.07547371089458466, -0.31334030628204346, 0.3143826723098755, 0.11610762029886246, 0.13168884813785553, 0.045017700642347336, 0.18404521048069, 0.07109860330820084, -0.011733168736100197, 0.019642161205410957, -0.0921948179602623, -0.2875843346118927, -0.10569837689399719, -0.11879944801330566, -0.1442296952009201, 0.07010471075773239, 0.05559225752949715, -0.29044926166534424, -0.20062048733234406, 0.10649100691080093, -0.03787172958254814, -0.034712690860033035, 0.14714552462100983, -0.3097560405731201, 0.03811933100223541, 0.11140003800392151, 0.3708525002002716, 0.027421720325946808, -0.08704034984111786, 0.11466217041015625, -0.11125549674034119, 0.17336660623550415, -0.2996620833873749, 0.14310535788536072, -0.043652281165122986, 0.12665699422359467, 0.010795453563332558, 0.1540154218673706, -0.32846635580062866, 0.05207390710711479, -0.2076423168182373, 0.15804679691791534, 0.14472578465938568, -0.04479295015335083, 0.11728920787572861, 0.07749322056770325, 0.0045611965470016, 0.00013750686775892973, 0.05761594697833061, 0.09767449647188187, 0.10706024616956711, -0.051778849214315414, 0.14942382276058197, -0.03391735628247261, -0.26706570386886597, 0.012197785079479218, -0.02034304291009903, 0.10887717455625534, -0.012245460413396358, -0.005329983774572611, 0.11146561056375504, -0.00777952978387475, 0.014096745289862156, 0.3370042145252228, -0.10220344364643097, 0.16102521121501923, 0.05964631587266922, 0.030590467154979706, 0.23142026364803314, 0.19494150578975677, -0.006292274687439203, 0.09957800060510635, 0.12385062128305435, -0.010854637250304222, 0.0762411504983902, -0.05922934412956238, 0.09276626259088516, 0.21286088228225708, 0.0850139781832695, 0.09741152077913284, 0.14527049660682678, -0.2981823682785034, -0.061147842556238174, 0.22719600796699524, 0.014677727594971657, 0.06371340900659561, 0.060191743075847626, 0.23726040124893188, -0.10365540534257889, 0.024976180866360664, 0.00505196675658226, -0.005087564699351788, 0.18992091715335846, 0.03342291712760925, 0.044035784900188446, -0.08839427679777145, -0.23599182069301605, -0.016966771334409714, 0.263029545545578, -0.012118537910282612, -0.008211489766836166, 0.06435344368219376, -0.33777928352355957, -0.03048025816679001, -0.33012887835502625, -0.057863034307956696, -0.07117915898561478, -0.1188739463686943, 0.20196080207824707, -0.06005607172846794, -0.057637590914964676, -0.24063155055046082, 0.03249764442443848, -0.27051737904548645, -0.07141716033220291, 0.28972169756889343, 0.06365655362606049, -0.24661600589752197, -0.0950809046626091, -0.03584599122405052, -0.10755009949207306, 0.037802740931510925, -0.2502893805503845, -0.11220944672822952, -0.012467477470636368, -0.06975321471691132, -0.21665354073047638, 0.20168226957321167, -0.14264439046382904, -0.006556369364261627, -0.03153657168149948, 0.13132262229919434, 0.1490723192691803, 0.09618707746267319, -0.16304029524326324, -0.025237418711185455, -0.12447052448987961, -0.0135579202324152, -0.06429947912693024, 0.024199115112423897, -0.040965478867292404, -0.20178435742855072, 0.04092615842819214, 0.2622252106666565, 0.019713114947080612, 0.02322183921933174, -0.17259086668491364, -0.0007515002507716417, 0.06252865493297577, -0.08575276285409927, 0.06403401494026184, 0.057513076812028885, 0.2475663125514984, 0.07363138347864151, -0.11440577358007431, 0.09930583834648132, 0.019768841564655304, -0.2039201557636261, 0.4909484386444092, 0.04982011765241623, -0.035152729600667953, 0.16705285012722015, -0.13153958320617676, -0.1532970517873764, -0.9044703245162964, -0.010039900429546833, -0.28435996174812317, -0.3880528509616852, 0.048278361558914185, 0.20035167038440704, 0.5006563067436218, -0.2036166489124298, 0.21818560361862183, -0.3868327736854553, 0.30829450488090515, -0.13071481883525848, 0.38056638836860657, 