{"version": "0.5.4", "metadata": {"date": {"year": 2025, "month": 9, "day": 4, "hour": 17, "minute": 5, "second": 55}, "loudness": -23.910417556762695, "gain": 0.8382756778882365, "name": null, "modeled_by": null, "gear_type": null, "gear_make": null, "gear_model": null, "tone_type": null, "input_level_dbu": null, "output_level_dbu": null, "training": {"settings": {"ignore_checks": true}, "data": {"latency": {"manual": -4, "calibration": {"algorithm_version": 1, "delays": [-4], "safety_factor": 0, "recommended": -4, "warnings": {"matches_lookahead": false, "disagreement_too_high": false}}}, "checks": {"version": 1, "passed": true}}, "validation_esr": 0.019111333497245735}}, "architecture": "WaveNet", "config": {"layers": [{"input_size": 1, "condition_size": 1, "head_size": 8, "channels": 16, "kernel_size": 3, "dilations": [1, 2, 4, 8, 16, 32, 64, 128, 256, 512], "activation": "Tanh", "gated": false, "head_bias": false}, {"input_size": 16, "condition_size": 1, "head_size": 1, "channels": 8, "kernel_size": 3, "dilations": [1, 2, 4, 8, 16, 32, 64, 128, 256, 512], "activation": "Tanh", "gated": false, "head_bias": true}], "head": null, "head_scale": 0.02}, "weights": [0.19196617603302002, 1.0395580530166626, -0.9587493538856506, -1.0262751579284668, -0.53286212682724, 0.5819671750068665, -0.03452705591917038, 0.9125510454177856, -0.24957507848739624, 0.4067592918872833, -0.3245997130870819, -0.4428807497024536, -1.1643644571304321, -0.6629602909088135, -0.5452858805656433, -0.22786761820316315, 0.04941476508975029, 0.02659323811531067, 0.06600353866815567, -0.001891400432214141, 0.012836088426411152, 0.28112170100212097, -0.09595897793769836, 0.15205557644367218, -0.16723817586898804, -0.04982838034629822, 0.17672693729400635, -0.2789041996002197, -0.1498386561870575, 0.01619989238679409, -0.1916174292564392, 0.18668051064014435, -0.1350664347410202, 0.09130655974149704, -0.20079603791236877, -0.10083646327257156, -0.19194641709327698, 0.18638382852077484, 0.013721945695579052, 0.20699402689933777, -0.04479523375630379, -0.01447670254856348, -0.10338804125785828, -0.07137887179851532, -0.1549842357635498, 0.057831164449453354, 0.022036917507648468, 0.12958002090454102, -0.19982679188251495, -0.07171151787042618, 0.1252259463071823, -0.020882857963442802, -0.006489862222224474, 0.06787445396184921, -0.041160039603710175, -0.1511034518480301, 0.07827910780906677, -0.23876722157001495, -0.16437172889709473, -0.03160664439201355, -0.07492677867412567, 0.1469985842704773, -0.11590390652418137, -0.285286009311676, 0.09983338415622711, -0.027584442868828773, 0.08478906750679016, 0.10853500664234161, 0.1502911001443863, 0.26607444882392883, -0.1856558471918106, -0.1115228533744812, -0.05186847969889641, 0.04463896527886391, 0.06479823589324951, 0.01768169365823269, -0.04215824604034424, -0.18273931741714478, -0.09139816462993622, -0.017700934782624245, -0.07563044875860214, 0.2464131861925125, -0.024163365364074707, -0.2763090431690216, -0.08725405484437943, 0.04672384634613991, 0.03410375118255615, 0.03712580353021622, -0.01797344721853733, -0.14581957459449768, -0.052022624760866165, 0.14082936942577362, 0.1541443020105362, 0.15021950006484985, -0.21975937485694885, -0.1547919660806656, -0.032655101269483566, -0.0495816208422184, -0.1767578274011612, -0.21328897774219513, 0.06278626620769501, 0.04132945463061333, -0.16890139877796173, -0.10934167355298996, -0.1917709857225418, -0.09812944382429123, -0.18419092893600464, -0.16457301378250122, -0.12050269544124603, 0.09642059355974197, 0.01251754816621542, -0.12110722064971924, -0.47958266735076904, 0.3724340796470642, 0.38028720021247864, -0.48671966791152954, 0.16046570241451263, 0.2883588373661041, 0.36149802803993225, -0.15842334926128387, -0.2189701646566391, 0.3559270203113556, -0.2644086182117462, -0.20939511060714722, 0.21357883512973785, -0.2778365910053253, -0.3088235557079315, -0.4444102644920349, 0.15999123454093933, 0.1660137176513672, 0.3037262558937073, -0.17855243384838104, -0.3250484764575958, -0.34916695952415466, 0.2964920997619629, 0.26075461506843567, 0.3851553201675415, -0.20730474591255188, -0.23531627655029297, -0.25283780694007874, 0.322044312953949, 0.35559985041618347, 0.4737178385257721, -0.20604141056537628, -0.4017215967178345, 0.30069607496261597, -0.08653386682271957, -0.27076640725135803, 0.2668446898460388, -0.3032527565956116, -0.4142378866672516, 0.20637238025665283, -0.21820564568042755, -0.1946709305047989, 0.4205956757068634, -0.3257991075515747, -0.18533587455749512, 0.12901775538921356, -0.01675013080239296, -0.16304577887058258, 0.17370261251926422, -0.28779637813568115, -0.604634702205658, 0.028901301324367523, -0.2747208774089813, -0.44383615255355835, -0.20204035937786102, 0.29987382888793945, 0.2909274399280548, -0.15192964673042297, 0.3747672736644745, 0.36822956800460815, -0.018497582525014877, 0.2968427836894989, 0.29092881083488464, 0.2566021680831909, -0.2825911045074463, -0.5151134133338928, -0.03735773637890816, 0.11670971661806107, 0.33508598804473877, 0.10968659073114395, -0.14401133358478546, -0.38133859634399414, -0.10003159195184708, 0.29561588168144226, 0.3794653117656708, 0.11438845843076706, -0.35408228635787964, -0.324859619140625, -0.025547021999955177, 0.3393385410308838, 0.3038683235645294, -0.15027493238449097, 0.13941232860088348, 0.3508939743041992, -0.22076646983623505, 0.2937498986721039, 0.33593714237213135, -0.1354752480983734, 0.24465802311897278, 0.4993726313114166, -0.24675798416137695, 0.1406332552433014, 0.33719706535339355, -0.029778076335787773, -0.056520771235227585, 0.36885395646095276, 0.19358482956886292, -0.2568332850933075, 0.1607530266046524, 0.04816656559705734, -0.26320528984069824, 0.06284205615520477, -0.06375973671674728, 0.284390926361084, -0.2083544284105301, -0.14115211367607117, 0.38351184129714966, -0.21375088393688202, -0.08376659452915192, 0.40121138095855713, -0.0513598658144474, 0.08423780649900436, -0.40727972984313965, 0.17493414878845215, -0.1333552896976471, 0.1895529329776764, -0.13937190175056458, 0.04074105992913246, -0.2613479197025299, 0.2140594869852066, -0.07578546553850174, 0.3784334063529968, -0.03810565173625946, -0.020309608429670334, -0.18954168260097504, 0.005330289714038372, -0.12420917302370071, 0.29858383536338806, -0.05219986289739609, 0.028702929615974426, 0.2314634472131729, -0.09751463681459427, 0.011796492151916027, 0.1251731663942337, 0.010636725462973118, -0.17615216970443726, 0.2581612169742584, -0.11849898099899292, -0.14504872262477875, 0.2859075367450714, 0.02340772934257984, -0.14963506162166595, 0.1276988834142685, -0.08292319625616074, -0.4602828025817871, -0.2526177167892456, 0.4013477861881256, -0.3888234794139862, -0.35147804021835327, 0.4695163667201996, 0.348280668258667, 0.34986114501953125, -0.3172580897808075, 0.2296125590801239, 0.204070046544075, -0.3340992331504822, 0.39921531081199646, 0.2891881763935089, -0.44691142439842224, -0.3711518347263336, -0.4076593220233917, 0.43689432740211487, 0.2003934532403946, 0.12961050868034363, -0.23689335584640503, -0.36690688133239746, -0.2543726861476898, 0.41346320509910583, 0.31183600425720215, 0.17981640994548798, -0.5108614563941956, -0.15941347181797028, -0.2163918912410736, 0.4847007691860199, 0.22045086324214935, 0.282397598028183, -0.4041483700275421, 0.291141152381897, 0.18468999862670898, -0.32417693734169006, 0.315411776304245, 0.23486900329589844, -0.402813196182251, 0.17163757979869843, 0.3239983320236206, -0.4699130356311798, 0.33186307549476624, 0.19500058889389038, -0.434590220451355, 0.2781580090522766, 0.3096647262573242, -0.08391202241182327, -0.3722618520259857, -0.116079181432724, 0.5711238384246826, -0.3492637574672699, -0.003924517892301083, 0.4608319401741028, 0.26898178458213806, 0.033628493547439575, -0.40856289863586426, 0.3406168520450592, 0.11304210871458054, -0.36502742767333984, 0.3196096122264862, 0.059667814522981644, -0.40125879645347595, -0.4045967161655426, -0.04346311837434769, 0.5114639401435852, 0.24267758429050446, 0.0531117282807827, -0.31151774525642395, -0.2575972378253937, 0.028591670095920563, 0.4742123782634735, 0.4875836968421936, 0.0034519415348768234, -0.5866237878799438, -0.5135555267333984, 0.08305730670690536, 0.5396287441253662, 0.2806220054626465, 0.10743369162082672, -0.3471166491508484, 0.5587499737739563, 0.19543468952178955, -0.35400518774986267, 0.3528708219528198, 0.004786117002367973, -0.3403753638267517, 0.456478476524353, -0.033150359988212585, -0.31838926672935486, 0.4612279236316681, 0.1378120630979538, -0.5513485670089722, 0.3188665509223938, 0.010465152561664581, -0.1875632256269455, -0.27422812581062317, -0.031750913709402084, 0.23028011620044708, -0.08351481705904007, -0.056076668202877045, 0.2802102267742157, 0.027199240401387215, 0.035349041223526, -0.2933517098426819, -0.012002194300293922, -0.11294793337583542, -0.08230306208133698, 0.21236728131771088, 0.14215517044067383, -0.07596846669912338, -0.2826976478099823, -0.10628358274698257, 0.18870733678340912, 0.030292680487036705, 0.10158009082078934, -0.2615322768688202, -0.19328685104846954, -0.13793092966079712, 0.11380423605442047, 0.26972514390945435, 0.13028684258460999, -0.09077733010053635, -0.012638922780752182, 0.12662439048290253, 0.15675568580627441, 0.18985962867736816, 0.1320854276418686, -0.14223644137382507, 0.28323447704315186, 0.07789768278598785, -0.12240544706583023, 0.07244572043418884, 0.06953878700733185, -0.18047401309013367, 0.07992639392614365, -0.08247101306915283, -0.2701333463191986, 0.013087522238492966, 0.09794069826602936, -0.10077201575040817, 0.30023300647735596, 0.07690772414207458, -0.006260338239371777, 0.00043102289782837033, 0.26784664392471313, -0.028255131095647812, 0.06975272297859192, 0.2809576988220215, -0.06819698214530945, 0.1925683319568634, -0.10417736321687698, -0.1009880006313324, 0.13871531188488007, -0.29637500643730164, -0.07052779942750931, 0.1834336519241333, -0.20613084733486176, -0.14512421190738678, -0.1177636981010437, 0.18748341500759125, 0.008265726268291473, 0.06767873466014862, -0.06658189743757248, -0.021429400891065598, -0.14419949054718018, 0.22078180313110352, 0.11999008059501648, 0.15035773813724518, -0.34193360805511475, -0.05014016106724739, -0.16735568642616272, 0.14509166777133942, 0.0936509370803833, -0.04954982548952103, -0.15980128943920135, 0.0744740292429924, 0.07942407578229904, -0.30744338035583496, -0.08350164443254471, 0.0842173844575882, -0.3248165249824524, 0.018940864130854607, -0.07973221689462662, -0.34727707505226135, -0.19354505836963654, 0.029747074469923973, -0.1122850775718689, -0.1771894097328186, 0.20522363483905792, -0.15469574928283691, 0.01116518396884203, -0.08711612224578857, -0.5411925315856934, 0.39717897772789, -0.10199996829032898, -0.25348901748657227, 0.2953137159347534, 0.07823429256677628, 0.4829762876033783, -0.21111711859703064, 0.2466713786125183, 0.25235337018966675, -0.2607518434524536, 0.033903393894433975, 0.3069044053554535, -0.19157655537128448, -0.30081725120544434, -0.35020485520362854, 0.30774354934692383, 0.24701464176177979, 0.22956547141075134, -0.2856270372867584, -0.2205537110567093, -0.2942740321159363, 0.35997483134269714, 0.26921045780181885, 0.3669760525226593, -0.1794327348470688, -0.30768701434135437, -0.4764120578765869, 0.29399749636650085, 0.09300007671117783, 0.4238106310367584, -0.3184961676597595, 0.10719266533851624, 0.27986636757850647, -0.1447778344154358, 0.15577667951583862, 0.4700123369693756, -0.12992018461227417, 0.24677926301956177, 0.34616032242774963, -0.262381374835968, 0.13002333045005798, 0.3830166459083557, -0.15297465026378632, -0.134469673037529, 0.5053125023841858, -0.1275322288274765, 0.07263533771038055, -0.3994091749191284, 0.11310374736785889, 0.3033079206943512, -0.38277292251586914, 0.11810247600078583, -0.08956684917211533, 0.3051736354827881, 0.09865564852952957, -0.2361225038766861, 0.2729915380477905, 0.036694396287202835, -0.19638516008853912, 0.27604940533638, -0.06570769101381302, 0.25894197821617126, -0.2973370850086212, -0.0320114828646183, 0.0030157659202814102, 0.3038955330848694, -0.06391221284866333, 0.1666393131017685, -0.13629408180713654, 0.010304274968802929, -0.11486884206533432, 0.20914682745933533, 0.02073468454182148, 0.0578727200627327, -0.2956676483154297, -0.04262825846672058, -0.01800612173974514, 0.1779589205980301, -0.026791220530867577, -0.24399660527706146, 0.38616591691970825, 0.12295833975076675, -0.2670125961303711, 0.1020093634724617, -0.13206824660301208, -0.1527521312236786, 0.1672627329826355, -0.12203311175107956, -0.22000186145305634, 0.24421530961990356, -0.09831029921770096, -0.1508593112230301, 0.2837699353694916, 0.1051613986492157, -0.22394011914730072, 0.10764216631650925, -0.26951926946640015, -0.18970005214214325, -0.07491306960582733, -0.05428303778171539, 0.048764292150735855, -0.11107677966356277, 0.33517852425575256, 0.09262726455926895, 0.0565241277217865, 0.18315447866916656, 0.15019673109054565, -0.008367338217794895, 0.28199833631515503, -0.18646399676799774, -0.16076326370239258, -0.28682148456573486, 0.07328852266073227, 0.08713547140359879, 0.011220538057386875, -0.043673139065504074, -0.0636693611741066, -0.2214825451374054, 0.291728138923645, 0.08493451029062271, 0.3076394498348236, -0.09417474269866943, -0.06239284574985504, -0.2805970311164856, 0.17124541103839874, 0.14404046535491943, 0.13373097777366638, 0.06153370812535286, 0.07640942186117172, 0.33298489451408386, 0.14346840977668762, -0.09184198081493378, 0.06310807168483734, 0.21223430335521698, 0.015557386912405491, 0.11649131774902344, 0.21894821524620056, 0.07064566761255264, 0.3078043758869171, 0.2254692018032074, -0.19600100815296173, -0.23170384764671326, -0.2591710388660431, 0.03595800697803497, -0.07023081928491592, -0.050611913204193115, -0.17370179295539856, 0.0626630187034607, 0.2441278100013733, 0.16719749569892883, -0.054529063403606415, 0.061093565076589584, -0.05372437834739685, 0.20904535055160522, 0.060494598001241684, -0.012712797150015831, 0.15357859432697296, -0.18457217514514923, -0.12495200335979462, -0.0857938826084137, 0.04993802309036255, -0.10289233922958374, 0.1461092233657837, -0.18386897444725037, 0.0021784722339361906, 0.049454838037490845, 0.20524989068508148, 0.08710716664791107, 0.2133311927318573, -0.10119849443435669, -0.11371905356645584, 0.05480176582932472, 0.15159757435321808, -0.09116636216640472, 0.03915907442569733, 0.008303054608404636, 0.16504143178462982, 0.041050028055906296, -0.014039235189557076, 0.03578416258096695, 0.16577446460723877, 0.15538154542446136, 0.08679808676242828, 0.0891980454325676, 0.1623269021511078, -0.0034573127049952745, 0.009825997985899448, -0.27194011211395264, -0.11262542009353638, 0.07454385608434677, -0.023151610046625137, -0.010849342681467533, -0.11218274384737015, 0.06184626370668411, -0.12441165000200272, 0.032720960676670074, -0.12923897802829742, 0.1529756635427475, -0.007882630452513695, -0.08248180150985718, 0.11199323832988739, 0.04811553284525871, 0.07569883018732071, -0.06285348534584045, -0.011584879830479622, -0.011628220789134502, -0.014486826956272125, 0.018124500289559364, -0.14328931272029877, 0.07634741067886353, 0.05736584961414337, 0.010940272361040115, 0.06744435429573059, -0.22192777693271637, -0.03964106738567352, 0.16649962961673737, 0.09312637150287628, 0.15298907458782196, -0.08147633075714111, 0.004588553216308355, -0.18002884089946747, 0.02047964558005333, 0.08914696425199509, -0.01126510463654995, 0.07793073356151581, 0.20799225568771362, -0.06221766769886017, 0.03187902644276619, 0.20984555780887604, -0.07790863513946533, 0.16520582139492035, 0.015883754938840866, -0.06164504960179329, 0.02211262844502926, 0.17019511759281158, 0.023692375048995018, -0.07443246245384216, -0.14434896409511566, 0.07411383092403412, 0.1255650818347931, -0.07044537365436554, -0.07032302767038345, 0.20347657799720764, 0.04942534491419792, -0.009264932945370674, -0.249019056558609, 0.17326493561267853, -0.12695316970348358, -0.08103339374065399, 0.09469787031412125, -0.0872647687792778, -0.06297514587640762, -0.054022569209337234, 0.04649638384580612, 0.026202447712421417, -0.1086459532380104, 0.011067768558859825, 0.030710913240909576, 0.026812676340341568, 0.1135561540722847, 0.09783025085926056, -0.13687650859355927, -0.14025993645191193, -0.2439030110836029, 0.23159053921699524, -0.013473547995090485, 0.1226682960987091, -0.03138210251927376, 0.06964582949876785, 0.004504753742367029, 0.18214410543441772, -0.11656372994184494, -0.12270492315292358, 0.01205871906131506, -0.10706165432929993, -0.08057541400194168, 0.20346926152706146, -0.14024005830287933, -0.027753589674830437, -0.013077177107334137, -0.04743544012308121, 0.008480878546833992, 0.0462668314576149, 0.038251928985118866, -0.08970183879137039, 0.2117592841386795, 0.03607618063688278, -0.2550338804721832, 0.26872268319129944, -0.12268765270709991, -0.29813772439956665, 0.1478612869977951, 0.12953048944473267, 0.12537410855293274, -0.07217859476804733, 0.13969187438488007, 0.26241815090179443, -0.21798869967460632, -0.0020878142677247524, 0.11790216714143753, -0.2635631859302521, -0.013667541556060314, -0.06496832519769669, 0.2781362235546112, 0.11672789603471756, 0.22770389914512634, -0.17471252381801605, 0.09692999720573425, -0.21947380900382996, 0.04546434432268143, 0.039346031844615936, 0.25424084067344666, -0.28645309805870056, 0.12242729961872101, -0.1061592698097229, 0.04668636620044708, -0.014580012299120426, 0.2867994010448456, -0.2556735873222351, -0.015236535109579563, 0.23946715891361237, -0.25649765133857727, 0.08885221928358078, 0.23619937896728516, -0.054640475660562515, -0.0836171954870224, 0.29741790890693665, -0.2301061749458313, 0.15483754873275757, 0.03146802634000778, -0.2674844264984131, 0.056087177246809006, 0.24873732030391693, 0.08349353820085526, -0.18166673183441162, -0.5637701153755188, 0.003995366860181093, -0.05114380642771721, -0.009409092366695404, 0.004018762148916721, 0.013459567911922932, -0.04870564118027687, -0.06977709382772446, 0.0897839367389679, -0.060194823890924454, -0.09789681434631348, -0.2192631959915161, -0.11933888494968414, -0.09732852131128311, -0.21683521568775177, 0.5850688219070435, -0.32175734639167786, 1.0771633386611938, -1.121556043624878, 0.09268482774496078, 1.2657697200775146, 1.4492480754852295, -0.3846852779388428, 0.2332361340522766, 0.3320609927177429, -0.44478103518486023, -0.5427336096763611, 0.19997479021549225, -0.8044860363006592, 0.10230258107185364, 0.5729116797447205, 0.10145354270935059, 0.4920414984226227, -0.006757053546607494, 0.13506244122982025, 0.24345479905605316, -0.15293428301811218, -0.03324205428361893, -0.1498313695192337, -0.11491455882787704, 0.09119327366352081, 0.07847472280263901, -0.07671350240707397, 0.17399966716766357, 0.1432134062051773, 0.11844325065612793, -0.14372017979621887, -0.14459632337093353, -0.4276825189590454, -0.2461273968219757, 0.20218534767627716, 0.04280673339962959, 0.04254009202122688, -0.0585705004632473, -0.09513451904058456, -0.26512810587882996, 0.3148204982280731, -0.09524056315422058, 0.25705084204673767, 0.06436289101839066, -0.07332909107208252, 0.03995887190103531, 0.06381621211767197, 0.13699471950531006, 0.21593450009822845, -0.019824039191007614, 0.05905032902956009, -0.050683774054050446, -0.2960926592350006, -0.11612195521593094, 0.1463928371667862, 0.005236254073679447, -0.3528260886669159, 0.20564459264278412, -0.2466389387845993, 0.23390883207321167, 0.012016016989946365, -0.20961515605449677, -0.05889841541647911, 0.07273511588573456, -0.13848991692066193, 0.0811784416437149, -0.2547931373119354, -0.10110567510128021, 0.16640344262123108, 0.18902426958084106, 0.045233242213726044, -0.22411030530929565, 0.09180806577205658, -0.27851536870002747, 0.0036060225684195757, 0.15014250576496124, 0.1273282766342163, -0.3667202889919281, -0.006337381433695555, 0.022049639374017715, -0.14251106977462769, -0.19976544380187988, 0.1752828061580658, -0.10917064547538757, -0.019916744902729988, -0.00840157549828291, 0.030826706439256668, -0.1018817201256752, -0.03262478858232498, -0.1891566663980484, 0.28551772236824036, -0.08257590979337692, 0.08902037888765335, -0.12808862328529358, -0.10366182029247284, -0.23503875732421875, -0.04984620586037636, 0.3785516619682312, -0.011952654458582401, 0.23707492649555206, 0.2790195643901825, 0.31595486402511597, -0.17533855140209198, 0.20575174689292908, 0.08034697920084, 0.06933289021253586, 0.012801007367670536, -0.015999792143702507, -0.025551341474056244, 0.28794193267822266, 0.26901766657829285, 0.09496532380580902, 0.3627261817455292, -0.03614182397723198, 0.36575639247894287, -0.3480347692966461, -0.2714844346046448, -0.23494775593280792, 0.09932040423154831, 0.10595374554395676, -0.37891191244125366, -0.330390065908432, 0.4270015060901642, 0.24793069064617157, -0.1351562887430191, 0.017165958881378174, -0.3181447684764862, 0.23213517665863037, 0.15342749655246735, 0.3123109042644501, -0.21962910890579224, -0.026808861643075943, 0.2258651852607727, 0.41204503178596497, -0.19176656007766724, 0.05145438760519028, -0.029600840061903, 0.1240105852484703, -0.1977584958076477, 0.10423628240823746, 0.11151246726512909, 0.0064879730343818665, 0.18376514315605164, 0.01600639894604683, 0.03040817566215992, -0.14882658421993256, -0.038578759878873825, -0.054309435188770294, -0.1350301057100296, -0.19161225855350494, 0.2504088878631592, -0.030443836003541946, -0.24426032602787018, -0.06609958410263062, 0.059465594589710236, -0.06494852155447006, -0.35368838906288147, -0.28007352352142334, -0.006777504924684763, -0.17325016856193542, 0.12656787037849426, 0.09774386137723923, -0.23292218148708344, 0.11043992638587952, 0.043454885482788086, 0.0924341008067131, -0.4971206784248352, -0.039299093186855316, 0.1975851058959961, -0.03429527208209038, 0.1445854753255844, 0.20246297121047974, 0.35721370577812195, -0.09706678241491318, 0.15061908960342407, 0.10634808987379074, 0.15437354147434235, -0.155523419380188, 0.09427011758089066, -0.06384409219026566, -0.044654931873083115, -0.04733183607459068, 0.3191256523132324, -0.11808109283447266, -0.2209894210100174, 0.15356920659542084, 0.057602133601903915, 0.0456608422100544, -0.16634933650493622, -0.32248151302337646, 0.09979654848575592, 0.1152246743440628, 0.12173357605934143, -0.015813879668712616, 0.0352199450135231, -0.09796763211488724, -0.2101915329694748, -0.17549768090248108, 0.057142943143844604, 0.018005911260843277, -0.20193500816822052, -0.13671760261058807, -0.22034652531147003, 0.1258266568183899, 0.14298583567142487, -0.2939881980419159, -0.10876959562301636, -0.10732132196426392, -0.11360655725002289, -0.09904098510742188, 0.15632735192775726, 0.03673773258924484, -0.23602591454982758, -0.21418626606464386, 0.3743610084056854, 0.2640785872936249, -0.19974344968795776, 0.01598501205444336, -0.040213461965322495, 0.03211990371346474, -0.29003000259399414, -0.22119691967964172, 0.09030421823263168, 0.08553124219179153, -0.15123143792152405, -0.03353045880794525, 0.24658799171447754, -0.0014261811738833785, 0.10443076491355896, 0.02412855066359043, 0.15789994597434998, -0.05880758911371231, -0.03879397734999657, 0.12498506903648376, 0.05131307616829872, -0.17957457900047302, -0.07190147787332535, -0.11367423087358475, 0.1716361790895462, 0.07505861669778824, 0.275628000497818, -0.030745847150683403, -0.22469918429851532, 0.3786236643791199, 0.14222575724124908, 0.08917872607707977, -0.06272878497838974, -0.38201767206192017, 0.19053173065185547, 0.008583897724747658, -0.22443445026874542, 0.2462565153837204, 0.03798454627394676, -0.1559872031211853, 0.1289806365966797, 0.2764091491699219, 0.24099628627300262, 0.13567988574504852, -0.06406199187040329, -0.13547512888908386, 0.1397932916879654, 0.1079445481300354, 0.12163069099187851, -0.006085584405809641, -0.07541852444410324, -0.17521172761917114, -0.1556071639060974, 0.01753314398229122, 0.24025647342205048, 0.000369394343579188, -0.18010534346103668, 0.26803475618362427, -0.16793005168437958, 0.17586714029312134, -0.12198943644762039, -0.10736432671546936, -0.015614067204296589, 0.13311493396759033, 0.07380499690771103, -0.02989860810339451, 0.07698540389537811, 0.12240695208311081, 0.14521782100200653, -0.04429096356034279, -0.048270199447870255, 0.11335994303226471, 0.14961186051368713, 0.24103909730911255, 0.19932880997657776, -0.19548392295837402, -0.004621222615242004, -0.24234940111637115, 0.27314287424087524, -0.13667231798171997, -0.043914955109357834, 0.045510224997997284, -0.29145753383636475, 0.005837857257574797, 0.21462199091911316, -0.22151048481464386, -0.11366942524909973, 0.3130987584590912, 0.320475697517395, -0.14703023433685303, -0.2650727927684784, -0.49982187151908875, -0.21353629231452942, 0.45892423391342163, 0.2072669267654419, -0.09413250535726547, -0.4380359947681427, -0.20382905006408691, 0.03892497718334198, 0.2128465473651886, 0.08051440119743347, 0.09126175194978714, -0.08905479311943054, -0.3073616027832031, -0.014001610688865185, 0.29138654470443726, -0.1932460069656372, -0.06388697028160095, 0.2286682426929474, -0.32372352480888367, 0.051903821527957916, 0.26109594106674194, -0.25937849283218384, 0.07335997372865677, -0.040521007031202316, 0.1744660884141922, 0.3478544056415558, -0.3294827342033386, 0.2753140926361084, 0.00011953384091611952, -0.312869131565094, 0.2726157009601593, 0.6203446388244629, 0.07246313989162445, -0.32434624433517456, 0.2347191721200943, 0.5113016366958618, -0.13912345468997955, -0.02277519181370735, -0.1774386316537857, -0.3904995322227478, 0.09069062024354935, 0.03292308375239372, -0.1444782018661499, 0.04341799393296242, 0.33192887902259827, 0.053021807223558426, -0.4486531913280487, -0.052945759147405624, -0.19912588596343994, 0.011981027200818062, -0.2394951730966568, 0.34668517112731934, -0.23049098253250122, -0.07950130105018616, -0.2993012070655823, 0.21194729208946228, -0.16267912089824677, 0.32917189598083496, -0.39722731709480286, 0.12567460536956787, -0.08807169646024704, 0.39864563941955566, 0.009148767217993736, -0.3428407311439514, 0.1249784529209137, -0.4345429539680481, -0.31737780570983887, -0.006357291713356972, -0.07180434465408325, -0.2565732002258301, 0.19891396164894104, 0.21517807245254517, -0.24530872702598572, -0.22088223695755005, 0.19324232637882233, 0.12015416473150253, 0.021804675459861755, -0.25686115026474, -0.07455611228942871, -0.22711659967899323, -0.07162441313266754, 0.33564454317092896, 0.16660453379154205, -0.2402314692735672, 0.04027608782052994, -0.17921699583530426, -0.12548959255218506, 0.31532004475593567, -0.033719368278980255, -0.09487488120794296, 0.28964754939079285, -0.0802592858672142, -0.0849752202630043, -0.11627457290887833, 0.26096200942993164, 0.3447273373603821, 0.24711304903030396, -0.26132410764694214, -0.2404792755842209, -0.235984206199646, -0.007042637560516596, 0.3145478367805481, -0.10595635324716568, -0.18436112999916077, 0.008777329698204994, 0.1111893504858017, 0.20146675407886505, -0.0674743726849556, -0.1321432888507843, -0.33629804849624634, -0.17941901087760925, 0.19069629907608032, -0.1616077721118927, 0.13722507655620575, 0.21680818498134613, -0.15384715795516968, -0.265934020280838, 0.07236745953559875, -0.08735217899084091, -0.08153365552425385, 0.06712926179170609, 0.18789325654506683, 0.028186697512865067, -0.26720836758613586, 0.1397770792245865, 0.32238173484802246, -0.20469669997692108, -0.11555223166942596, -0.08814184367656708, 0.162328839302063, 0.15167874097824097, -0.0955866128206253, 0.12343085557222366, -0.16710910201072693, -0.2490491420030594, 0.3230159878730774, 0.1809988021850586, -0.27400851249694824, 0.1750166416168213, -0.06381689012050629, -0.3043479323387146, -0.2150489240884781, 0.2989223003387451, 0.352713406085968, 0.5192232131958008, 0.053092826157808304, -0.13139842450618744, -0.3105723559856415, 0.15477357804775238, 0.3563438653945923, 0.13572318851947784, -0.49620455503463745, -0.27585044503211975, 0.1523737758398056, 0.19623586535453796, 0.17131008207798004, 0.4017758071422577, -0.08381234854459763, -0.15320156514644623, -0.07488826662302017, -0.32842668890953064, -0.10225608944892883, 0.304842084646225, -0.012924835085868835, -0.3554704785346985, 0.23558004200458527, -0.12388822436332703, -0.2445455640554428, -0.09743272513151169, 0.23289895057678223, 0.25497716665267944, -0.10606585443019867, 0.108684241771698, 0.3272649645805359, -0.12903393805027008, -0.268246591091156, -0.10698063671588898, 0.14951784908771515, 0.09157990664243698, -0.009156974032521248, -0.18215616047382355, 0.016687897965312004, -0.015654727816581726, -0.09781110286712646, 0.11234927922487259, 0.23277312517166138, 0.02378416247665882, 0.05729670822620392, -0.11484063416719437, -0.07204675674438477, 0.06984015554189682, 0.026584027335047722, 0.32409557700157166, 0.24089807271957397, -0.13523301482200623, -0.04734516143798828, 0.011996674351394176, 0.17996609210968018, -0.1535319834947586, -0.012323214672505856, -0.14143013954162598, 0.13994745910167694, -0.057916559278964996, 0.09887202084064484, 0.0278903990983963, 0.05714297294616699, -0.039019305258989334, -0.17215435206890106, 0.013123719021677971, 0.09338163584470749, -0.19156573712825775, -0.03912344574928284, 0.0906619131565094, -0.03352832421660423, -0.01254879217594862, 0.23907269537448883, -0.33734315633773804, -0.5234730243682861, 0.3329407274723053, 0.06336496770381927, 0.01852308213710785, -0.03138883039355278, 0.018911046907305717, -0.4956228733062744, -0.267513632774353, -0.24498440325260162, 0.012684871442615986, 0.1645437777042389, -0.09436742216348648, -0.48184385895729065, -0.12293323874473572, 0.1465885043144226, -0.04705303907394409, 0.2710335850715637, -0.18974170088768005, -0.10420037806034088, 0.22229184210300446, 0.09368154406547546, 0.127001091837883, -0.33588460087776184, -0.11642297357320786, -0.4322895109653473, 0.2872702479362488, 0.16917654871940613, 0.0521656796336174, -0.1558796465396881, 0.24099349975585938, -0.16669216752052307, 0.23668478429317474, 0.3180982172489166, 0.25232335925102234, -0.2923843264579773, -0.04027758538722992, -0.3078133761882782, 0.37969979643821716, 0.553898811340332, -0.4591391980648041, 0.3167121708393097, 0.07163382321596146, -0.10502643883228302, 0.23637357354164124, -0.17746828496456146, -0.23132792115211487, 0.16907761991024017, 0.26618969440460205, 0.2272033989429474, -0.5091931223869324, 0.0690668597817421, 0.08673619478940964, -0.10847041755914688, -0.011819214560091496, 0.4125959873199463, 0.008036701008677483, -0.11949598044157028, 0.2524358332157135, -0.255433052778244, 0.03640348091721535, 0.25996503233909607, 0.2578902244567871, 0.2251560539007187, 0.3781292140483856, -0.04983365163207054, -0.05381573736667633, 0.3311535716056824, -0.09738365560770035, 0.029454223811626434, -0.19504065811634064, 0.25521785020828247, 0.16729606688022614, -0.04932113736867905, -0.061799269169569016, -0.09456107020378113, -0.1240251213312149, 0.12858310341835022, 0.09086368978023529, 0.033606842160224915, -0.2681026756763458, 0.13162605464458466, 0.036517489701509476, 0.21911004185676575, 0.04855605214834213, 0.033170659095048904, -0.17422886192798615, 0.19638794660568237, 0.20903640985488892, 0.14623786509037018, 0.11510127782821655, 0.2064439207315445, -0.019173307344317436, -0.18578442931175232, 0.1691027730703354, -0.43131551146507263, -0.2114526331424713, 0.45546743273735046, 0.1552380919456482, -0.06174692139029503, -0.13528192043304443, 0.16164302825927734, 0.38969022035598755, -0.19868218898773193, 0.20757107436656952, 0.48977750539779663, -0.2522793412208557, -0.010364886373281479, -0.1748584508895874, -0.29350611567497253, 0.14437639713287354, 0.018543226644396782, -0.22531665861606598, -0.16440050303936005, 0.16978952288627625, -0.36167728900909424, -0.05890105292201042, 0.15071415901184082, 0.38094383478164673, -0.15916921198368073, -0.11164538562297821, -0.2700933814048767, 0.20564314723014832, -0.02921774424612522, 0.21643568575382233, -0.0845809206366539, -0.15699169039726257, -0.4919511675834656, 0.2362430989742279, 0.2757320702075958, 0.4613219201564789, -0.27914226055145264, 0.23249715566635132, -0.3878162205219269, 0.36831116676330566, -0.596737265586853, -0.6499544978141785, 0.17361731827259064, -0.11932528018951416, -0.27628427743911743, 0.06054732948541641, 0.028093596920371056, -0.17212337255477905, -0.010418514721095562, 0.12010245770215988, 0.05999728664755821, -0.27490201592445374, -0.2640012204647064, 0.18070106208324432, -0.07352609187364578, -0.07280818372964859, 0.40507209300994873, -0.018901130184531212, -0.08624425530433655, 0.01322925928980112, 0.02205469273030758, 0.05970190465450287, 0.01242009922862053, 0.10005588829517365, 0.20603860914707184, -0.08412215858697891, -0.025030074641108513, 0.203571155667305, 0.10817970335483551, 0.09796539694070816, -0.23002299666404724, 0.16444168984889984, -0.12904544174671173, 0.08757685869932175, -0.014296520501375198, 0.012599237263202667, -0.2500694692134857, -0.07051984965801239, -0.02702048048377037, 0.13783636689186096, -0.2260788232088089, -0.010212047025561333, -0.2611423432826996, 0.29294779896736145, 0.009931168518960476, 0.1390325129032135, -0.15360970795154572, -0.15276432037353516, 0.18868349492549896, -0.05078794062137604, 0.19637347757816315, 0.05589553713798523, -0.0017827984411269426, 0.016187934204936028, 0.13666224479675293, -0.09453964978456497, -0.11675293743610382, 0.06687469780445099, -0.1008913591504097, 0.003959383349865675, -0.08184807002544403, -0.09483758360147476, -0.20338410139083862, 0.14748015999794006, 0.5330805778503418, 0.18865567445755005, -0.38166460394859314, 0.11749608814716339, 0.02035224623978138, 0.14304226636886597, 0.4090505838394165, -0.07668617367744446, -0.10104675590991974, 0.3266792893409729, -0.23203247785568237, 0.06542085856199265, 0.21897540986537933, -0.17128068208694458, -0.23536783456802368, -0.42465054988861084, 0.1372167468070984, 0.13582365214824677, -0.023379914462566376, -0.09578650444746017, -0.13619378209114075, -0.17784538865089417, 0.274562805891037, 0.03883473947644234, 0.3720836639404297, -0.11818160861730576, -0.33969739079475403, -0.17223575711250305, 0.21849389374256134, -0.023502252995967865, 0.3215925693511963, 0.048958197236061096, 0.5512663722038269, 0.2832362651824951, -0.14087069034576416, 0.08337826281785965, 0.05856039747595787, -0.29929792881011963, -0.12722286581993103, 0.1938953995704651, -0.07124213874340057, -0.10004714131355286, 0.2930172383785248, 0.5311323404312134, 0.04670330509543419, -0.15818452835083008, 0.007753071375191212, 0.01773216761648655, 0.4194015562534332, 0.02881092205643654, -0.3548716902732849, -0.03451348468661308, -0.22771599888801575, 0.14402522146701813, 0.12168427556753159, 0.40493661165237427, -0.17096741497516632, -0.05022023618221283, 0.07129696011543274, -0.1140989437699318, -0.013183198869228363, -0.1299608051776886, 0.11550913751125336, -0.010138256475329399, -0.028302062302827835, 0.22419989109039307, 0.028515314683318138, 0.1830589771270752, 0.12113336473703384, 0.07607460021972656, 0.06278736144304276, -0.1869598627090454, 0.0593014694750309, 0.28623974323272705, -0.029898205772042274, -0.27050289511680603, -0.1759253442287445, -0.018230238929390907, 0.19189712405204773, 0.06690094619989395, 0.14673185348510742, 0.019000057131052017, 0.07393576949834824, -0.09015017002820969, 0.041801344603300095, 0.19344988465309143, -0.1323944628238678, 0.13233743607997894, 0.21103717386722565, -0.12836888432502747, 0.42374637722969055, 0.45648154616355896, 0.3347654342651367, -0.09703488647937775, 0.01672595925629139, 0.7631757259368896, 0.7437263131141663, 0.11026065796613693, 0.12281691282987595, -0.3898850977420807, -0.1355045735836029, -0.06411328166723251, 0.28798356652259827, 0.22534656524658203, 0.05102332681417465, 0.10927897691726685, 0.09074985235929489, 0.017366478219628334, -0.012616833671927452, -0.07052145153284073, 0.06855162233114243, 0.03502998501062393, -0.13682523369789124, -0.0021035170648247004, 0.36109164357185364, 0.3056729733943939, 0.19188424944877625, 0.14950428903102875, -0.04437919333577156, -0.12358704209327698, -0.08504236489534378, 0.047953441739082336, 0.15073470771312714, 0.2507932186126709, 0.12118691951036453, -0.17186377942562103, 0.11571354418992996, 0.09061688184738159, -0.04299774020910263, 0.4549713134765625, 0.24358640611171722, -0.21119113266468048, -0.06898663192987442, 0.22539585828781128, 0.05772900581359863, -0.14985641837120056, -0.13850778341293335, 0.5518606305122375, 0.14886078238487244, 0.11163321882486343, 0.003761984407901764, 0.3314421772956848, 0.03797852620482445, -0.2549111545085907, -0.17553143203258514, -0.3464941382408142, 0.09546827524900436, 0.15548154711723328, 0.18778583407402039, 0.06870601326227188, -0.11971695721149445, -0.3159719705581665, 0.03668689727783203, 0.06329362839460373, -0.04835369437932968, 0.12394363433122635, -0.05230680853128433, -0.11868052184581757, -0.23634769022464752, -0.007526389788836241, 0.08850301057100296, -0.028707453981041908, -0.3826001286506653, -0.11461758613586426, -0.17815184593200684, -0.0828050971031189, -0.01686776615679264, 0.22290188074111938, -0.24624213576316833, -0.021670645102858543, -0.27687573432922363, 0.2666919529438019, -0.08479759097099304, 0.2042255848646164, -0.19318683445453644, -0.12897224724292755, 0.325493723154068, -0.2608821988105774, -0.09632479399442673, 0.16014300286769867, -0.24649721384048462, 0.0235312357544899, -0.06776733696460724, -0.09949421137571335, -0.24772803485393524, -0.07048191875219345, -0.03752412647008896, -0.17158804833889008, 0.022093815729022026, 0.062341008335351944, -0.08234494924545288, 0.664451539516449, -0.1410842388868332, 0.003999747335910797, 0.046034812927246094, -0.22038649022579193, -0.15267275273799896, 0.2152882069349289, -0.18921825289726257, 0.25345322489738464, 0.013669862411916256, 0.10349339991807938, 0.05094306170940399, -0.0065092891454696655, -0.03350035473704338, 0.007947847247123718, -0.3522648215293884, 0.11457078158855438, -0.13665147125720978, 0.2785895764827728, 0.07443553954362869, 0.15765920281410217, 0.0421832837164402, 0.09153718501329422, 0.01798703521490097, 0.21034562587738037, -0.45371589064598083, 0.2772064507007599, -0.0503699965775013, 0.1414768248796463, -0.0253002867102623, 0.1686173975467682, -0.2413700819015503, 0.013248533941805363, 0.2390287071466446, 0.09387832134962082, 0.16409435868263245, -0.18266020715236664, -0.11307574808597565, 0.09310367703437805, -0.06746484339237213, 0.027266724035143852, -0.1526404172182083, -0.09331372380256653, 0.05669321119785309, 0.06464655697345734, 0.03877721726894379, 0.13809984922409058, 0.12691862881183624, -0.3835776448249817, 0.11229658871889114, -0.40803080797195435, -0.6169143915176392, 0.2896345257759094, 0.2633930742740631, 0.017546210438013077, 0.26200148463249207, -0.2829644978046417, -0.04735022410750389, 0.13428713381290436, 0.15693320333957672, -0.22472397983074188, 0.27370744943618774, 0.14009572565555573, 0.30173662304878235, -0.2655315101146698, 0.06553266942501068, -0.015119385905563831, 0.312949538230896, -0.25379708409309387, 0.1987985223531723, -0.18996644020080566, -0.07824262976646423, -0.187041774392128, 0.038247961550951004, -0.2356671541929245, 0.21615497767925262, -0.4258960783481598, 0.4867572784423828, -0.2578113377094269, 0.30883052945137024, -0.07876333594322205, 0.36683785915374756, 0.23900429904460907, -0.5315101742744446, -0.0212186798453331, 0.2274976521730423, -0.12333419919013977, -0.33734095096588135, 0.12654583156108856, 0.03697581589221954, -0.22317536175251007, 0.007649157661944628, 0.251858651638031, 0.46269652247428894, -0.16853639483451843, -0.05266692489385605, 0.1677476167678833, 0.15076614916324615, 0.46021389961242676, -0.33757293224334717, 0.0714651420712471, 0.6456724405288696, 0.09186867624521255, 0.24372467398643494, -0.004252317827194929, -0.21044760942459106, 0.03556697070598602, -0.14908874034881592, -0.33795881271362305, -0.037105195224285126, 0.262694388628006, 0.18233364820480347, -0.2807700037956238, -0.21751044690608978, -0.10740037262439728, 0.15514935553073883, -0.32356128096580505, 0.34459370374679565, -0.17389972507953644, -0.26876533031463623, -0.533111572265625, 0.07451069355010986, -0.04872056469321251, -0.06521712243556976, -0.01743100956082344, 0.23707884550094604, -0.3356165885925293, 0.15120039880275726, 0.03740023076534271, 0.05223141610622406, 0.13835792243480682, -0.3544011116027832, -0.3247250020503998, -0.03224559873342514, -0.10822989791631699, -0.0837537944316864, 0.17599773406982422, 0.19805632531642914, 0.14983896911144257, 0.059868644922971725, 0.5135018825531006, 0.3331368565559387, 0.10918086022138596, -0.08876682072877884, 0.0591159462928772, 0.0057597653940320015, 0.12572439014911652, 0.0159658994525671, -0.0010802908800542355, 0.10968581587076187, 0.0275811105966568, 0.04404276981949806, -0.045023977756500244, -0.06529617309570312, 0.0530695840716362, 0.12857335805892944, 0.08508846163749695, 0.10430937260389328, 0.022586030885577202, -0.011880743317306042, -0.5807085037231445, 0.3544820547103882, 0.5093224048614502, -0.2913665771484375, 0.06596103310585022, -1.0129386186599731, -0.2313430905342102, -0.34627339243888855, 0.7827553153038025, -0.7584138512611389, -0.8122022747993469, -1.1496092081069946, 0.3041141927242279, -0.8053569793701172, 0.3447425663471222, -0.6948589086532593, 0.017962420359253883, -0.013785147108137608, 0.04735168442130089, 0.08593539893627167, 0.3926551342010498, -0.01660946011543274, -0.10762562602758408, -0.06320071220397949, -0.12213292717933655, -0.12978655099868774, 0.04621788486838341, 0.0632220059633255, -0.09689987450838089, 0.0211345162242651, 0.09018504619598389, -0.04213299602270126, 0.2985627055168152, 0.09398099035024643, -0.3079240322113037, -0.22013716399669647, -0.5047442317008972, 0.4070058763027191, 0.10989268869161606, 0.020701978355646133, 0.07618516683578491, 0.036643728613853455, 0.21037553250789642, 0.1347532570362091, 0.22499912977218628, 0.4339419901371002, 0.017640264704823494, 0.20007790625095367, -0.03625626489520073, -0.0546126663684845, -0.13983988761901855, 0.11231090128421783, 0.11995949596166611, -0.019973749294877052, -0.046878110617399216, -0.1133536547422409, 0.08513304591178894, 0.008433632552623749, -0.21300561726093292, -0.23559340834617615, 0.05310860648751259, -0.17762424051761627, 0.16865672171115875, -0.019286466762423515, 0.23736320436000824, -0.06326287239789963, -0.040858060121536255, -0.3719061017036438, -0.3779160976409912, 0.36357221007347107, -0.08373401314020157, 0.03400073200464249, 0.004999543074518442, -0.03863898664712906, 0.110508032143116, 0.21841426193714142, 0.22563107311725616, 0.10402729362249374, 0.1107860803604126, 0.15959331393241882, 0.19536106288433075, -0.4349727928638458, 0.037909023463726044, 0.07687734812498093, -0.16351956129074097, 0.23620229959487915, -0.04434065520763397, 0.38505125045776367, -0.06235096603631973, -0.16436251997947693, 0.09498513489961624, 0.518841028213501, 0.11968991905450821, -0.026733649894595146, -0.4479126036167145, -0.3559735417366028, -0.016271892935037613, 0.3323625326156616, -0.19171690940856934, -0.020384658128023148, 0.010282997973263264, -0.2805735766887665, 0.036198217421770096, -0.17586058378219604, -0.12588953971862793, 0.2391415238380432, -0.20632058382034302, -0.4661952555179596, -0.09727936238050461, -0.27242419123649597, 0.22176699340343475, 0.2663477659225464, 0.37729284167289734, 0.030052997171878815, -0.12629351019859314, -0.3034173846244812, 0.2388543039560318, 0.2275114357471466, -0.35977399349212646, 0.051778294146060944, 0.23541560769081116, -0.18742360174655914, -0.2386343777179718, 0.06759881973266602, 0.16156533360481262, 0.16940616071224213, -0.011835680343210697, 0.15752752125263214, 0.048152703791856766, 0.19511862099170685, 0.11736147105693817, -0.009451040998101234, 0.18697668612003326, -0.0007291485671885312, 0.05729670077562332, 0.03765906020998955, -0.09225448220968246, 0.24183614552021027, -0.23178188502788544, 0.011780839413404465, 0.02928767539560795, 0.21419396996498108, 0.09737186878919601, 0.21103344857692719, 0.07565930485725403, 0.15530864894390106, -0.21544039249420166, -0.1243358626961708, -0.2884597182273865, -0.057766787707805634, 0.2120005488395691, 0.050347745418548584, 0.15005017817020416, 0.0978068858385086, -0.2604510486125946, -0.11351858079433441, 0.1239306628704071, 0.07489435374736786, -0.009615952149033546, 0.15641379356384277, -0.020755665376782417, 0.03205093368887901, -0.03635089471936226, 0.004897840786725283, -0.16938985884189606, 0.01126408763229847, 0.09196437895298004, -0.03681686148047447, -0.18866565823554993, -0.008486142382025719, 0.3525179624557495, 0.2863653004169464, 0.01808803156018257, 0.3766753673553467, 0.13478101789951324, 0.00271434779278934, -0.18537451326847076, -0.12102918326854706, -0.13750626146793365, 0.17849063873291016, -0.16325044631958008, -0.18721620738506317, 0.10287326574325562, -0.006059726700186729, 0.09872505068778992, 0.23869763314723969, 0.041297025978565216, 0.04274355247616768, -0.07389642298221588, 0.016235584393143654, 0.0070143090561032295, 0.0432540625333786, 0.21783657371997833, 0.23884537816047668, -0.22044342756271362, -0.13809196650981903, -0.18930982053279877, -0.08459905534982681, -0.01595955155789852, 0.05931631103157997, -0.12365873903036118, 0.005582256242632866, 0.12610837817192078, -0.09104101359844208, -0.034710511565208435, -0.1857813447713852, 0.015016927383840084, 0.07917653024196625, -0.16246403753757477, -0.4451518654823303, -0.1352696269750595, 0.2054060399532318, -0.07178947329521179, -0.09621947258710861, -0.13601814210414886, 0.13106103241443634, -0.012338166125118732, -0.030398542061448097, -0.46426650881767273, -0.1946098655462265, -0.0009024512837640941, -0.5096865892410278, -0.27385270595550537, -0.18265946209430695, -0.09534401446580887, -0.10214538872241974, -0.20485806465148926, 0.2155541330575943, -0.34062954783439636, -0.04245037958025932, 0.2053549885749817, -0.01258465088903904, 0.37560296058654785, 0.18535609543323517, -0.4715333878993988, -0.30033421516418457, 0.18622100353240967, -0.16332224011421204, -0.10919296741485596, 0.019220365211367607, 0.18564076721668243, 0.40764954686164856, -0.15302486717700958, -0.26564258337020874, -0.3298951983451843, 0.02503991313278675, 0.26637041568756104, -0.16176162660121918, 0.014000164344906807, 0.2522345185279846, -0.1507967859506607, -0.2466830313205719, 0.11437546461820602, -0.07222151756286621, 0.3259587585926056, 0.4397447407245636, 0.1197044849395752, -0.36093080043792725, 0.08628670871257782, 0.06070940941572189, 0.2051689475774765, 0.02274009771645069, -0.5841078758239746, 0.20039521157741547, 0.05533818528056145, -0.3175884485244751, 0.393137127161026, 0.3380489647388458, -0.25766631960868835, 0.18038427829742432, -0.2761942446231842, -0.304082989692688, 0.03174066171050072, -0.025693928822875023, -0.036396920680999756, -0.08507204055786133, -0.0793624222278595, -0.018214130774140358, 0.00820431113243103, 0.12527549266815186, 0.07324673235416412, 0.03820976987481117, 0.07173103839159012, -0.07166943699121475, 0.027870681136846542, -0.11171556264162064, -0.07016290724277496, -0.022297538816928864, -0.018822336569428444, 0.2551587224006653, 0.046915486454963684, -0.021507713943719864, -0.14543825387954712, -0.34709644317626953, 0.20627456903457642, -0.12446736544370651, -0.060142576694488525, 0.005898831412196159, -0.2752953767776489, -0.4083193838596344, 0.15937478840351105, 0.18941780924797058, 0.0681123435497284, 0.17326419055461884, 0.18305808305740356, 0.19599677622318268, -0.01187522429972887, 0.17185302078723907, -0.0479598194360733, -0.11396533250808716, 0.23271024227142334, -0.1886814683675766, -0.018815210089087486, -0.01832055300474167, -0.13924777507781982, -0.19512204825878143, 0.12101931124925613, -0.0607621967792511, 0.08551407605409622, -0.039660289883613586, 0.005049144383519888, 0.08226326107978821, -0.10531405359506607, 0.19791334867477417, 0.1852416843175888, -0.21443405747413635, 0.07954002171754837, 0.09276118874549866, -0.07915543764829636, -0.1206660345196724, 0.21552883088588715, -0.00037425686605274677, -0.22870957851409912, 0.008279634639620781, 0.06315256655216217, 0.15462179481983185, -0.26079607009887695, 0.03681836277246475, 0.14746807515621185, -0.00457710400223732, 0.16937418282032013, -0.15450192987918854, 0.19759732484817505, 0.11378540098667145, -0.0338333323597908, 0.19566957652568817, -0.09514717757701874, -0.12509974837303162, -3.2131945317814825e-06, -0.37444743514060974, 0.022234873846173286, 0.02978801168501377, 0.18946751952171326, -0.1946818232536316, 0.157832071185112, -0.1756390929222107, -0.01636418327689171, -0.23056742548942566, -0.04367760196328163, 0.14446359872817993, 0.14152763783931732, -0.010725323110818863, -0.2587131857872009, 0.07008899003267288, 0.203040212392807, 0.14324499666690826, 0.2513459622859955, 0.03978021442890167, -0.21405524015426636, 0.042659372091293335, -0.07432740181684494, -0.10066908597946167, -0.03343311697244644, -0.04807879403233528, -0.24856743216514587, 0.1237194612622261, -0.024020569398999214, -0.21375668048858643, 0.17630226910114288, 0.3278237581253052, 0.07589741051197052, -0.06172517314553261, -0.16312845051288605, 0.08715710043907166, 0.18308252096176147, -0.1845902055501938, 0.11146535724401474, 0.09694214910268784, 0.09152667969465256, -0.23948077857494354, 0.16255277395248413, 0.0278264582157135, 0.08036288619041443, -0.282133549451828, 0.10621955990791321, 0.05586633086204529, -0.08500908315181732, -0.011434762738645077, 0.38797199726104736, 0.15889482200145721, 0.2186475545167923, -0.2559453845024109, -0.0011897317599505186, 0.17923662066459656, 0.1221742033958435, -0.14080019295215607, 0.08948630094528198, -0.04129225015640259, 0.08256284892559052, 0.06498086452484131, -0.10569468885660172, -0.1991262286901474, 0.0099032549187541, 0.010035891085863113, -0.008974002674221992, 0.06452303379774094, 0.0137179559096694, 0.11215327680110931, 0.4848974049091339, 0.1125333309173584, 0.18155179917812347, 0.008661412633955479, 0.08746066689491272, 0.021557269617915154, 0.03850539028644562, -0.05109386518597603, 0.09595036506652832, 0.031047241762280464, -0.2165321260690689, -0.17575742304325104, -0.17833107709884644, 0.23181650042533875, -0.21559086441993713, -0.09040069580078125, 0.20092777907848358, -0.14421561360359192, 0.11212749034166336, -0.20643126964569092, 0.17418129742145538, 0.15314613282680511, -0.12261421978473663, 0.26072102785110474, 0.0019948408007621765, -0.23745454847812653, 0.14044949412345886, -0.15429429709911346, -0.26327794790267944, -0.12325236201286316, -0.010451318696141243, 0.036289017647504807, 0.07417502999305725, -0.16157303750514984, -0.3455135226249695, -0.18262529373168945, 0.06253676861524582, 0.17863145470619202, 0.04856434836983681, 0.04384246841073036, -0.09496305137872696, -0.1507015824317932, -0.0439283587038517, -0.029760967940092087, 0.18106473982334137, 0.10701999068260193, -0.030896682292222977, 0.3817773759365082, -0.09167646616697311, 0.15559948980808258, 0.3367058038711548, -0.08684448152780533, -0.08061305433511734, 0.24097388982772827, 0.0014666204806417227, -0.0003573498979676515, 0.07719246298074722, 0.05028200149536133, -0.049289073795080185, -0.14446526765823364, -0.03679599240422249, 0.1638680100440979, 0.08421014994382858, -0.07468806207180023, -0.2769627273082733, -0.14124178886413574, 0.04079774394631386, 0.41548290848731995, -0.054369695484638214, 0.042020123451948166, 0.027600711211562157, -0.03038668818771839, 0.16228251159191132, 0.33148786425590515, -0.22892870008945465, 0.515420138835907, -0.15770356357097626, 0.2189648300409317, -0.33471596240997314, 0.19345401227474213, -0.2820231318473816, -0.08468956500291824, 0.419940322637558, 0.11039494723081589, -0.1358722746372223, -0.030939681455492973, -0.09210517257452011, -0.21548785269260406, 0.30340632796287537, 0.23080720007419586, 0.12880030274391174, 0.107244111597538, -0.20396368205547333, -0.1323028951883316, 0.10287734866142273, 0.11063369363546371, 0.04908997565507889, 0.630262017250061, -0.1355428844690323, 0.16840767860412598, 0.00011179274588357657, -0.17269521951675415, -0.147852823138237, 0.18526263535022736, -0.05583376809954643, -0.3269025981426239, 0.43980544805526733, 0.14121113717556, 0.03803249076008797, -0.30111244320869446, 0.19276569783687592, 0.0805046409368515, -0.16368691623210907, -0.018070587888360023, -0.08516419678926468, -0.06493319571018219, 0.05152270942926407, 0.06916573643684387, -0.14513802528381348, -0.021245969459414482, -0.400983065366745, 0.06595289707183838, 0.017818106338381767, -0.6869689226150513, 0.08646415919065475, -0.3418477177619934, 0.311168372631073, 0.11526348441839218, -0.09201521426439285, 0.13299870491027832, 0.009620574302971363, -0.2040671408176422, -0.0340891070663929, 0.15953755378723145, 0.0135387247428298, 0.03133992850780487, -0.12525899708271027, 0.10705922544002533, -0.15182171761989594, -0.12521888315677643, 0.034989163279533386, 0.004423458129167557, -0.19817785918712616, 0.04057406634092331, 0.16240455210208893, -0.01389030460268259, 0.1479625105857849, -0.16673266887664795, -0.1035224124789238, -0.12584656476974487, 0.04477357491850853, 0.12406240403652191, -0.14807695150375366, 0.003938984125852585, -0.06526345759630203, 0.1809941828250885, -0.13569512963294983, 0.0220817718654871, -0.032682422548532486, -0.0776614099740982, -0.19291052222251892, 0.054466456174850464, -0.06596909463405609, -0.009332617744803429, 0.04104490578174591, -0.013163928873836994, -0.027209872379899025, -0.05220013111829758, 0.17412367463111877, 0.06449410319328308, -0.2262754738330841, 0.022496098652482033, 0.12456472218036652, -0.06259538978338242, -0.32655805349349976, 0.037317905575037, -0.01674063131213188, 0.12636448442935944, 0.018968554213643074, 0.25606685876846313, -0.0032276937272399664, -0.15346196293830872, -0.16446132957935333, 0.020155569538474083, 0.20496302843093872, 0.17278283834457397, 0.03651018813252449, -0.2864161431789398, -0.3522668182849884, -0.009444276802241802, -0.14527752995491028, 0.08503451943397522, -0.05445622652769089, -0.24590840935707092, -0.37434685230255127, -0.06538075953722, 0.32654911279678345, -0.18927079439163208, -0.07800014317035675, 0.1147298738360405, -0.20130597054958344, -0.0936245322227478, 0.02432193234562874, 0.25027087330818176, -0.039217595010995865, -0.09104246646165848, -0.051612209528684616, 0.11016622185707092, 0.09185577929019928, 0.10398469865322113, 0.09074106812477112, -0.0444968119263649, -0.08660608530044556, -0.1230190247297287, -0.23832838237285614, -0.2591345012187958, 0.04291583597660065, 0.09692303091287613, -0.1381741166114807, 0.3166891038417816, 0.05976038798689842, 0.30428847670555115, -0.2443176656961441, -0.2947355806827545, 0.03558654710650444, -0.153539776802063, 0.03435807302594185, -0.07335159927606583, 0.06885931640863419, 0.022661684080958366, 0.11718257516622543, -0.001767936279065907, -0.275015264749527, -0.45508307218551636, 0.05004311352968216, 0.08731897175312042, 0.034107912331819534, -0.3654507100582123, -0.1546519547700882, -0.1139354407787323, -0.20626333355903625, -0.0783204659819603, 0.052721552550792694, 0.07991119474172592, 0.07452818006277084, 0.02714799903333187, -0.07972164452075958, -0.1722770780324936, 0.15321366488933563, -0.019793840125203133, -0.2140248864889145, -0.31444868445396423, -0.009195879101753235, 0.17401669919490814, -0.04181312024593353, -0.11186046898365021, -0.19129641354084015, -0.009310657158493996, 0.004051147494465113, 0.203399196267128, -0.12714636325836182, 0.14039210975170135, 0.13469363749027252, 0.0058687785640358925, 0.25225362181663513, 0.09329129010438919, -0.06687386333942413, 0.14570994675159454, -0.36077654361724854, -0.3147813081741333, -0.3725038468837738, 0.35220029950141907, 0.08397699147462845, 0.09070996940135956, -0.06503767520189285, 0.1659313589334488, -0.2076931893825531, -0.12172295898199081, -0.04319925978779793, -0.02563394047319889, 0.2628931701183319, 0.11024664342403412, -0.011098170652985573, -0.12005617469549179, -0.20330530405044556, -0.018335141241550446, 0.00376170058734715, 0.08536406606435776, 0.29339131712913513, -0.18213099241256714, -0.19773271679878235, 0.27264338731765747, 0.11051023751497269, -0.09248072654008865, 0.01350143738090992, 0.3346104919910431, -0.038309063762426376, 0.08450193703174591, 0.25105682015419006, 0.27923524379730225, 0.0689772441983223, -0.32300880551338196, 0.05311932787299156, -0.020774828270077705, -0.38514089584350586, -0.10271820425987244, 0.14896966516971588, 0.1737402081489563, 0.015787864103913307, 0.07210583239793777, 0.10222689807415009, -0.07977375388145447, 0.01571585237979889, -0.13770273327827454, -0.08854127675294876, 0.24908074736595154, -0.15617404878139496, -0.11269243061542511, -0.19018107652664185, 0.20502087473869324, -0.1831684112548828, 0.03849995881319046, 0.1286391317844391, 0.10885630548000336, -0.24931582808494568, -0.07924620807170868, -0.1809566766023636, -0.14303508400917053, 0.18386173248291016, 0.3687233328819275, -0.05935056880116463, -0.0010089242132380605, -0.05877935141324997, 0.05427812039852142, -0.07041678577661514, -0.10759326070547104, 0.3512079119682312, -0.2521045506000519, -0.11683005094528198, 0.0695611909031868, -0.02757951430976391, -0.19388963282108307, -0.10915902256965637, 0.044586919248104095, -0.12065001577138901, 0.1014971137046814, -0.06328050047159195, 0.2602253556251526, 0.028402559459209442, -0.1639987826347351, -0.12475066632032394, -0.13221804797649384, 0.18236228823661804, 0.07008090615272522, 0.17859826982021332, -0.07642572373151779, 0.18181419372558594, 0.0044089509174227715, -0.08471231907606125, 0.06836017221212387, 0.12229842692613602, -0.04060189798474312, 0.0900607705116272, -0.15077468752861023, 0.3014700412750244, 0.1372898817062378, 0.3267683684825897, -0.2457738071680069, 0.06971254199743271, 0.1006280854344368, -0.38546502590179443, -0.12474539130926132, 0.1812286376953125, 0.0948009192943573, 0.08197449892759323, 0.11939949542284012, -0.20387747883796692, -0.26001471281051636, 0.06474348157644272, 0.1132471039891243, 0.25034621357917786, -0.02789410576224327, -0.04273661598563194, -0.027405595406889915, -0.06656425446271896, -0.015128254890441895, 0.23553739488124847, -0.1258108913898468, -0.12436794489622116, 0.2824728488922119, -0.1448414921760559, -0.1943000704050064, 0.04073597863316536, 0.23164010047912598, -0.3451661467552185, -0.16036179661750793, -0.21693173050880432, 0.23021112382411957, 0.17728900909423828, -0.07624920457601547, -0.07547320425510406, -0.09104207158088684, -0.07502575218677521, 0.18327981233596802, -0.044279471039772034, -0.037220943719148636, 0.16538769006729126, -0.2588007152080536, -0.0811351090669632, 0.04375452548265457, -0.13889357447624207, -0.08118133991956711, -0.03192717581987381, 0.16297419369220734, 0.1057218685746193, 0.303780198097229, -0.1498904675245285, 0.257214218378067, 0.3203830122947693, 0.30540961027145386, 0.03730040788650513, -0.0989050418138504, -0.21537666022777557, 0.09577853232622147, 5.613273606286384e-05, -0.04563264176249504, -0.1365428864955902, -0.22938255965709686, -0.30100613832473755, -0.2905406355857849, -0.25192731618881226, -0.07898899167776108, -0.08745674788951874, 0.12310957908630371, -0.1551823616027832, 0.01944374479353428, 0.028518667444586754, -0.199248805642128, -0.1810661107301712, 0.18550686538219452, -0.09449565410614014, -0.22812014818191528, 0.2139543890953064, 0.05471764877438545, -0.12629151344299316, -0.2982669174671173, -0.148825004696846, -0.15384620428085327, 0.11151307076215744, 0.07712595909833908, 0.17641836404800415, -0.21145933866500854, 0.07881928235292435, -0.3079971671104431, 0.20459602773189545, -0.00568365165963769, 0.17965203523635864, -0.15447227656841278, 0.0652179941534996, 0.43844932317733765, -0.41328492760658264, -0.10567066073417664, -0.346836119890213, 0.3091309666633606, -0.15432338416576385, -0.04988005384802818, -0.23648034036159515, -0.09535298496484756, -0.028364986181259155, -0.096075639128685, 0.02100425399839878, -0.11210373044013977, 0.08095471560955048, 0.0014412517193704844, -0.06170251965522766, 0.282870352268219, 0.18491175770759583, 0.0845373123884201, 0.3456956446170807, 0.038739707320928574, 0.0489356592297554, -0.1700613796710968, 0.10363651067018509, -0.03909943252801895, -0.08046188205480576, 0.13421770930290222, 0.27164095640182495, -0.015471315011382103, -0.00843119714409113, 0.17674295604228973, -0.10937443375587463, 0.10704710334539413, 0.03173893690109253, -0.015935439616441727, -0.07041298598051071, -0.019201183691620827, 0.07628440856933594, 0.08737137168645859, -0.1780858039855957, -0.04386365786194801, 0.18235069513320923, -0.016910091042518616, -0.18551701307296753, -0.12611427903175354, -0.204774409532547, 0.17235854268074036, -0.1046869233250618, 0.08495891839265823, 0.10983103513717651, 0.26316651701927185, 0.1552443653345108, -0.2218281477689743, 0.059038084000349045, -0.28232690691947937, -0.11617937684059143, -0.032558001577854156, 0.11315299570560455, 0.015631835907697678, 0.03838084638118744, -0.08544866740703583, -0.15416355431079865, -0.2647433280944824, -0.03503977879881859, 0.3865727186203003, 0.04827824607491493, -0.030562372878193855, -0.23876893520355225, -0.10598281770944595, -0.18809814751148224, 0.2106856256723404, 0.11957073211669922, 0.07657980173826218, -0.23182348906993866, 0.11642120778560638, 0.05873420089483261, -0.22310583293437958, -0.025897087529301643, -0.04710429906845093, -0.03152797743678093, -0.18627431988716125, -0.026868732646107674, 0.12345187366008759, 0.10076919198036194, 0.36821427941322327, -0.10194297134876251, -0.2638660967350006, -0.24816566705703735, 0.12124162912368774, 0.1589517593383789, -0.036718107759952545, 0.23997268080711365, -0.07946906238794327, -0.6999996900558472, -0.05712438002228737, -0.16185149550437927, 0.17953525483608246, -0.23315322399139404, 0.39510872960090637, 0.1430141031742096, 0.24356797337532043, -0.11211855709552765, -0.2017957866191864, 0.17229938507080078, -0.20410573482513428, 0.03788556158542633, 0.08586811274290085, 0.07146809250116348, -0.36907055974006653, 0.11532820761203766, -0.07138627767562866, -0.059776660054922104, 0.13932396471500397, 0.2859351933002472, 0.11957643181085587, 0.27581632137298584, 0.5683891773223877, -0.45697715878486633, 0.32147592306137085, 0.3572179973125458, 0.10930735617876053, 0.08320003747940063, -0.03525077924132347, -0.1884324550628662, -0.028621669858694077, 0.05744536221027374, -0.4312134385108948, 0.06879156082868576, -0.026987385004758835, 0.3356020748615265, -0.04786032810807228, 0.11985301971435547, 0.19669800996780396, -0.06940607726573944, -0.166670024394989, -0.06075472757220268, 0.5800889134407043, -0.23858286440372467, 0.07870155572891235, 0.11808384954929352, -0.2659289538860321, 0.023235300555825233, 0.39178261160850525, -0.11158131808042526, 0.21611268818378448, 0.2016671746969223, 0.16794085502624512, -0.4374520778656006, -0.06985495239496231, -0.012478968128561974, -0.01741802878677845, 0.3801794648170471, 0.21877680718898773, 0.0007018358446657658, 0.02771005406975746, -0.1545259803533554, -0.11957410722970963, 0.20627732574939728, 0.13227778673171997, -0.02012157067656517, -0.053432054817676544, -0.2073657065629959, -0.14515171945095062, 0.1534617841243744, -0.4446466267108917, 0.03579745441675186, 0.38837963342666626, -0.26861587166786194, 0.17529882490634918, -0.15367814898490906, -0.2224251925945282, 0.050171636044979095, 0.06663963943719864, -0.06654255837202072, -0.19905097782611847, 0.2890965938568115, 0.07862810045480728, 0.0560840368270874, -0.023781966418027878, -0.22308798134326935, 0.06040288507938385, -0.005452663172036409, -0.044279519468545914, 0.042248889803886414, -0.019275538623332977, -0.000495122920256108, 0.01456550881266594, 0.09145502746105194, -0.03746306523680687, -0.0040273102931678295, 0.0541207417845726, -0.036591898649930954, -0.05443689599633217, -0.13054168224334717, 0.04228568077087402, 0.2334611862897873, -0.15646791458129883, 0.7555819153785706, 0.374583899974823, -0.6134929656982422, 0.354404479265213, -0.2922551929950714, -0.0594528429210186, 0.33758440613746643, -0.8342102766036987, 1.1275930404663086, 0.7193021774291992, -0.44853243231773376, -0.22458094358444214, 0.426192969083786, -0.7977648377418518, -0.2193639576435089, -0.2532120645046234, 0.00011451021418906748, -0.24103941023349762, 0.07810964435338974, 0.0432438887655735, 0.21973168849945068, -0.07343734055757523, 0.03406864404678345, 0.11172593384981155, 0.018098175525665283, 0.034769248217344284, 0.054318759590387344, -0.02658112533390522, -0.06119508296251297, -0.09851288050413132, 0.42825186252593994, 0.115262471139431, 0.04992511868476868, 0.14195188879966736, -0.107180655002594, 0.2137337327003479, 0.09623044729232788, -0.33222776651382446, -0.3271424472332001, 0.1435844898223877, 0.17677073180675507, -0.17499081790447235, -0.007571548689156771, 0.08318138867616653, 0.3614267408847809, -0.1310613453388214, 0.007140976842492819, -0.1044846922159195, -0.07587989419698715, -0.06255756318569183, 0.17490573227405548, -0.07671790570020676, -0.05632415786385536, -0.03421934321522713, 0.15475915372371674, 0.17423900961875916, -0.26729077100753784, 0.15329858660697937, 0.13595832884311676, -0.2775511145591736, -0.12189940363168716, 0.16245901584625244, 0.3825945556163788, 0.10943780094385147, -0.07609645277261734, -0.0666385293006897, 0.0820513442158699, -0.12774601578712463, -0.2347514033317566, 0.053017400205135345, -0.053126245737075806, 0.023334776982665062, 0.1132727563381195, 0.25535741448402405, -0.18125750124454498, 0.1773945540189743, 0.2357158660888672, 0.11911220103502274, -0.0454428493976593, 0.11012953519821167, -0.17749178409576416, -0.3420430123806, 0.09040779620409012, -0.05521048605442047, 0.2650872766971588, 0.04942493140697479, 0.005716376006603241, 0.05095376446843147, -0.0031216759234666824, 0.13465678691864014, -0.670911431312561, 0.048428285866975784, -0.17509232461452484, 0.18050304055213928, -0.19583986699581146, -0.11666712909936905, -0.086689293384552, -0.09541797637939453, 0.10867705196142197, -0.03781474381685257, 0.08671102672815323, 0.12304636836051941, -0.04685742408037186, -0.2917247414588928, -0.19240257143974304, 0.13991530239582062, -0.05506650358438492, 0.448772132396698, 0.20658959448337555, 0.21884258091449738, 0.07217679172754288, 0.08625141531229019, 0.05059146136045456, -0.16242030262947083, 0.12870138883590698, -0.20871584117412567, -0.292316198348999, 0.2665024697780609, -0.3112986087799072, 0.040671803057193756, 0.21135875582695007, -0.1632550060749054, 0.13223856687545776, 0.20911750197410583, 0.18674491345882416, 0.22259293496608734, 0.03616348281502724, 0.1703583002090454, -0.06708329916000366, -0.1282796710729599, 0.05439078435301781, -0.09715230762958527, -0.02303975820541382, -0.07444502413272858, 0.0386321134865284, -0.2733694911003113, 0.27729907631874084, 0.0650104209780693, -0.22220593690872192, 0.17727114260196686, 0.09513747692108154, -0.04822717607021332, 0.1582377701997757, 0.3382986783981323, -0.14861851930618286, 0.23350735008716583, 0.06710351258516312, 0.21045257151126862, -0.25812894105911255, -0.28941085934638977, 0.10078931599855423, 0.0005512084462679923, 0.06487395614385605, 0.1700943261384964, -0.2426370233297348, -0.1367998719215393, 0.03758698329329491, 0.1139645054936409, 0.08744050562381744, -0.11170335859060287, -0.07776416093111038, 0.04576624929904938, 0.13699966669082642, 0.0364602692425251, -0.00626776460558176, -0.25708848237991333, -0.12576404213905334, -0.035258740186691284, 0.21927303075790405, -0.07755943387746811, 0.08540681004524231, 0.04387037456035614, 0.24276326596736908, -0.13913044333457947, 0.2522802948951721, -0.18935613334178925, -0.3620525896549225, -0.24309991300106049, 0.3608568608760834, -0.09220006316900253, 0.1749645471572876, -0.055637750774621964, 0.3057713806629181, 0.3205767273902893, -0.6243606209754944, 0.17721803486347198, 0.0368029922246933, -0.1491076648235321, 0.08710885792970657, 0.40284106135368347, 0.050123751163482666, 0.16389606893062592, -0.19857554137706757, -0.0158294215798378, -0.0960409939289093, 0.2839004099369049, 0.34412139654159546, -0.09658781439065933, -0.01822231151163578, -0.04918849095702171, -0.17399537563323975, 0.12228633463382721, -0.35115721821784973, 0.0068947868421673775, -0.041692689061164856, 0.18599583208560944, -0.1683688759803772, -0.16743557155132294, 0.07496815919876099, 0.09511645138263702, 0.21217688918113708, 0.1319148689508438, -0.19074903428554535, -0.3466418981552124, 0.11047728359699249, 0.14326727390289307, -0.2684055268764496, 0.20683376491069794, -0.06750719994306564, 0.16348819434642792, 0.2133500576019287, 0.14962702989578247, -0.07081937789916992, 0.1778797060251236, 0.042174119502305984, -0.02913571521639824, 0.058044690638780594, -0.0913114920258522, -0.043141622096300125, -0.047110360115766525, 0.04838870093226433, 0.04609202221035957, 0.0027211576234549284, -0.08511832356452942, -0.02367493323981762, 0.013841810636222363, -0.19783912599086761, 0.02558673359453678, 0.2219938486814499, 0.19182884693145752, -0.1671953648328781, -0.0731910765171051, -0.03725380077958107, 0.3786512017250061, 0.16243954002857208, -0.30898594856262207, 0.2857723534107208, 0.08637440949678421, -0.0065363263711333275, 0.4043509066104889, -0.39219212532043457, -0.012472649104893208, 0.009472626261413097, -0.06578799337148666, -0.26608768105506897, -0.13450363278388977, 0.0471961684525013, -0.3120698034763336, 0.020397549495100975, -0.14472231268882751, -0.012879814952611923, 0.20750866830348969, -0.20215554535388947, 0.0008434768533334136, 0.2002357691526413, 0.10276393592357635, -0.0210324265062809, -0.011771745048463345, -0.10324880480766296, 0.046871598809957504, -0.10005906224250793, 0.12108661234378815, -0.03309069946408272, 0.14931274950504303, -0.08568060398101807, 0.09788378328084946, 0.071126289665699, 0.01926444098353386, -0.03095642849802971, -0.05859867110848427, 0.01957501843571663, 0.04982250556349754, 0.08703356981277466, 0.12249843031167984, 0.0744922012090683, -0.0418473444879055, 0.06511645764112473, -0.18917213380336761, -0.15338128805160522, -0.01996907964348793, 0.08753357827663422, 0.003363104071468115, 0.18270181119441986, -0.14354747533798218, 0.10354942828416824, 0.2344745546579361, 0.21902091801166534, 0.6045704483985901, -0.03551984205842018, -0.6437267065048218, -0.24288970232009888, 0.014698883518576622, 0.002874487079679966, 0.5491269826889038, -0.030804404988884926, 0.026451624929904938, -0.016719432547688484, -0.14314758777618408, 0.023678461089730263, 0.06558236479759216, -0.018928823992609978, -0.13281922042369843, -0.15114383399486542, 0.05512299761176109, 0.3561027944087982, 0.10187222063541412, 0.06281144917011261, -0.3494890332221985, 0.560451328754425, -0.23630081117153168, -0.4654914438724518, -0.26919591426849365, -0.1621733009815216, -0.1220284104347229, -0.0668962150812149, 0.022110672667622566, -0.14995177090168, -0.25579890608787537, -0.026787763461470604, -0.4717344045639038, -0.692408561706543, -0.035451870411634445, -0.13926251232624054, -0.04773600399494171, -0.034894607961177826, 0.12517957389354706, 0.16603460907936096, -0.03785271942615509, -0.15213198959827423, 0.09931180626153946, 0.03807397931814194, -0.20884522795677185, 0.03144305571913719, -0.09170962870121002, 0.010647837072610855, 0.19349241256713867, 0.16696488857269287, -0.009698024950921535, -0.23202382028102875, 0.05400009825825691, 0.3138824999332428, -0.36226198077201843, -0.14157184958457947, 0.005645149853080511, 0.08062062412500381, 0.056766875088214874, -0.0717005506157875, -0.19181688129901886, 0.023158980533480644, 0.039316218346357346, -0.08789233863353729, -0.034127380698919296, 0.10099222511053085, 0.08015313744544983, 0.08607465028762817, -0.06363777071237564, -0.07770121097564697, 0.3392486572265625, -0.05372024327516556, -0.2793896198272705, -0.004132656846195459, -0.03850545734167099, -0.1492542028427124, -0.18196013569831848, 0.03848612681031227, -0.13708899915218353, -0.011532207019627094, -0.1493103802204132, 0.061704713851213455, 0.012627657502889633, 0.12425380945205688, -0.2044740617275238, -0.14947262406349182, -0.13112932443618774, 0.26685431599617004, 0.33306172490119934, 0.498615562915802, -0.22316695749759674, 0.02302541397511959, 0.03315717354416847, -0.15041182935237885, 0.08130446821451187, 0.3950475752353668, -0.3863958418369293, 0.12958411872386932, 0.059429995715618134, -0.4050601124763489, -0.3631047308444977, -0.6049710512161255, 0.13313248753547668, 0.20462371408939362, 0.1551104038953781, -0.30569350719451904, -0.14364464581012726, -0.11130144447088242, 0.15085093677043915, 0.009111940860748291, 0.09723362326622009, -0.1840355396270752, -0.02494693361222744, -0.022692382335662842, 0.23630362749099731, 0.1568198800086975, 0.14506560564041138, -0.32447105646133423, -0.2590894103050232, 0.019313441589474678, -0.13483509421348572, -0.028491301462054253, -0.03026529774069786, -0.32659193873405457, 0.019386956468224525, 0.02489667572081089, -0.1994999498128891, 0.08019958436489105, -0.021142328158020973, -0.31655311584472656, -0.2313268482685089, -0.05503741279244423, 0.14185474812984467, -0.23472382128238678, 0.0631883516907692, 0.08682795614004135, 0.42124491930007935, 0.24190255999565125, 0.49365633726119995, 0.16652435064315796, -0.059919845312833786, -0.3884107172489166, 0.13864830136299133, -0.0853097066283226, -0.11155874282121658, -0.1545393019914627, -0.19867874681949615, -0.23816706240177155, -0.07762488722801208, -0.22654129564762115, 0.3135646879673004, 0.30488815903663635, 0.12254348397254944, -0.007433725520968437, -0.10602822154760361, -0.01855619065463543, 0.32556402683258057, 0.12505732476711273, -0.123029924929142, -0.27702024579048157, -0.16489091515541077, 0.11128873378038406, 0.26992982625961304, -0.0542832650244236, -0.05620933324098587, -0.41809943318367004, -0.394010066986084, 0.02152058109641075, 0.112347811460495, 0.08034855127334595, 0.07135333865880966, -0.26700177788734436, 0.1662789285182953, 0.04068220406770706, -0.25449666380882263, -0.0955168604850769, 0.0321388840675354, -0.21568897366523743, -0.3002050518989563, 0.0374644473195076, 0.08139455318450928, 0.19612912833690643, 0.05145527049899101, -0.30676618218421936, 0.047546517103910446, 0.07152967154979706, 0.04773387685418129, -0.16697658598423004, 0.1648710072040558, -0.05042152851819992, 0.0773896723985672, 0.2605196237564087, -0.12270522117614746, 0.15817131102085114, 0.05861208960413933, -0.002270977245643735, -0.1681249886751175, -0.14087894558906555, 0.03461143374443054, -0.11834612488746643, -0.009908300824463367, -0.10337530076503754, 0.118209108710289, -0.03613665699958801, -0.03201155364513397, -0.22644653916358948, 0.10914740711450577, 0.18150758743286133, -0.031797781586647034, 0.0013475560117512941, -0.028865450993180275, 0.006980257574468851, 0.16646623611450195, -0.36703845858573914, 0.12847858667373657, 0.1400543600320816, -0.04569251462817192, -0.11085057258605957, 0.05910218507051468, 0.05155227333307266, -0.26702365279197693, -0.12886406481266022, 0.08085566759109497, -0.14898033440113068, -0.04673054814338684, 0.3574331998825073, 0.17559181153774261, -0.09630213677883148, -0.16890636086463928, -0.0535150021314621, -0.08347693085670471, 0.10843104124069214, -0.05969295650720596, 0.11878056824207306, -0.2810472846031189, 0.11161628365516663, 0.04086964204907417, 0.2135801911354065, -0.10508330166339874, -0.3859155774116516, -0.4440515637397766, 0.08897463977336884, 0.0053817047737538815, -0.3390747606754303, 0.07903680950403214, 0.01802530698478222, -0.24623516201972961, -0.04984307289123535, -0.13452382385730743, 0.08918384462594986, -0.06687482446432114, -0.017529450356960297, -0.07722276449203491, -0.08701982349157333, -0.010604442097246647, -0.2950914204120636, -0.10975027084350586, -0.09049957990646362, -0.07549432665109634, 0.039198003709316254, -0.24820661544799805, -0.012671288102865219, 0.15301364660263062, -0.1541116088628769, 0.052116431295871735, 0.06719858944416046, 0.10420685261487961, -0.3731955289840698, 0.05493569001555443, 0.05638780817389488, -0.24911285936832428, 0.20285798609256744, -0.06148828938603401, -0.13025885820388794, -0.0037753127980977297, 0.14860239624977112, 0.2419435679912567, 0.24338239431381226, 0.049832962453365326, -0.33473995327949524, -0.2114531397819519, -0.531897783279419, 0.30754533410072327, -0.13022305071353912, 0.09820076078176498, 0.26765742897987366, -0.23864392936229706, -0.10230151563882828, 0.314437597990036, -0.13239413499832153, 0.01319991983473301, 0.15719373524188995, 0.24523013830184937, 0.38053300976753235, 0.3154996335506439, -0.20713335275650024, -0.21266038715839386, 0.18706382811069489, 0.3244225084781647, 0.03951535373926163, -0.13353559374809265, -0.10744258016347885, 0.08244284242391586, 0.22493089735507965, 0.056614287197589874, 0.043300285935401917, -0.11515166610479355, -0.07546786218881607, -0.11665085703134537, 0.186146080493927, 0.09722884744405746, -0.1718297302722931, 0.010528923012316227, 0.09687050431966782, 0.007131166290491819, 0.2050895243883133, -0.18317338824272156, -0.0026727779768407345, 0.0017427979037165642, -0.0421215295791626, 0.08459676802158356, 0.29010143876075745, 0.18980573117733002, 0.07668871432542801, -0.3558189570903778, -0.11542414128780365, -0.26409244537353516, 0.16290247440338135, 0.2500600516796112, -0.07057856768369675, 0.0984424352645874, -0.05543225631117821, -0.11065533757209778, 0.10124150663614273, 0.01608077436685562, 0.1623958945274353, 0.028159039095044136, -0.13600383698940277, -0.059231776744127274, 0.208763986825943, 0.1062765046954155, -0.22288548946380615, 0.20792904496192932, 0.261355996131897, -0.01765846461057663, -0.11547975242137909, -0.1794406920671463, -0.0075562321580946445, -0.014653824269771576, 0.19114814698696136, 0.15967781841754913, -0.02536063641309738, -0.054117754101753235, -0.0385512039065361, 0.13912169635295868, -0.006649626884609461, -0.10864008963108063, -0.04380809888243675, -0.19011226296424866, 0.011599358171224594, 0.4106353521347046, 0.1265656054019928, -0.06754609197378159, 0.06595655530691147, 0.10663239657878876, -0.11370597779750824, -0.17970852553844452, -0.004213807638734579, 0.12818309664726257, 0.020005229860544205, -0.21442823112010956, -0.20823940634727478, 0.12426669150590897, 0.18937918543815613, 0.23404008150100708, -0.028130127117037773, 0.06875769048929214, 0.0809163972735405, -0.14201796054840088, 0.025766802951693535, -0.2928711175918579, 0.32380419969558716, -0.28272658586502075, -0.3572766184806824, -0.1274956911802292, 0.04941876232624054, -0.10957338660955429, -0.0800110399723053, 0.11366767436265945, 0.03810141980648041, 0.040776852518320084, -0.11597243696451187, -0.039731260389089584, 0.0954129695892334, 0.10643936693668365, -0.0967455580830574, -0.3121739327907562, -0.0858287662267685, -0.14181335270404816, 0.058287687599658966, 0.2197037637233734, 0.24668574333190918, -0.22899705171585083, 0.19405828416347504, -0.3386882543563843, 0.393492728471756, 0.2755239009857178, -0.30374887585639954, -0.42269405722618103, 0.08404021710157394, -0.1117134541273117, 0.14874430000782013, -0.22511641681194305, 0.05271713063120842, 0.1664976328611374, 0.13715682923793793, -0.205171138048172, -0.07947573065757751, 0.13860440254211426, 0.01030012033879757, -0.07297191768884659, -0.3102595806121826, -0.04479323700070381, 0.14195629954338074, 0.0680297240614891, 0.027478966861963272, 0.16950488090515137, 0.23455382883548737, 0.023523058742284775, -0.2600938081741333, 0.18698552250862122, -0.00037186400732025504, 0.32162216305732727, -0.08558012545108795, -0.052950937300920486, 0.30789345502853394, 0.038578134030103683, -0.04389140009880066, 0.16584691405296326, -0.012959805317223072, -0.1894223541021347, 0.14306749403476715, -0.18273338675498962, 0.03837604820728302, 0.12264721840620041, 0.17652760446071625, 0.05458316579461098, -0.26424574851989746, -0.2906738817691803, 0.03452468290925026, 0.14290736615657806, -0.09249010682106018, 0.06908784061670303, -0.33695048093795776, -0.3290141522884369, -0.11017297208309174, 0.027140408754348755, 0.07415236532688141, -0.1739209145307541, -0.3513478934764862, 0.07284615933895111, 0.12017937004566193, -0.2334611564874649, 0.14850278198719025, 0.18713387846946716, -0.5084468722343445, -0.14573484659194946, -0.12215639650821686, 0.29543107748031616, 0.2706213593482971, -0.10145401209592819, -0.046059150248765945, -0.11470413208007812, -0.3491158187389374, 0.22599592804908752, -0.2849780023097992, -0.1698143631219864, 0.14540594816207886, -0.2973158061504364, -0.17200981080532074, -0.100176602602005, -0.09978821128606796, -0.14897757768630981, 0.11320678144693375, -0.028174258768558502, -0.2214023768901825, -0.07657821476459503, 0.08088859915733337, 0.17003247141838074, 0.03930533304810524, 0.05383077636361122, 0.07454503327608109, 0.05958212912082672, -0.12866854667663574, 0.050054606050252914, 0.3326902687549591, 0.13796767592430115, 0.11802445352077484, -0.18151287734508514, -0.08969640731811523, -0.05996692553162575, -0.1339595913887024, 0.14639797806739807, 0.1483922004699707, -0.1005663201212883, -0.04329046607017517, -0.15221843123435974, 0.19334591925144196, -0.11463567614555359, -0.05345708504319191, 0.29222291707992554, -0.1249864473938942, 0.003943318035453558, 0.5400216579437256, 0.16578742861747742, 0.08357446640729904, -0.21476911008358002, -0.2721876800060272, -0.027791855856776237, 0.1144547238945961, -0.15955062210559845, -0.16580362617969513, -0.4687068462371826, 0.11326934397220612, -0.2659207880496979, -0.07428430765867233, 0.09865566343069077, -0.5684800148010254, 0.6059979200363159, -0.2538016736507416, -0.4401027262210846, 0.26703962683677673, -0.0048293303698301315, -0.47850286960601807, 0.16920232772827148, 0.09217403829097748, -0.17731429636478424, -0.15395808219909668, 0.011794324964284897, 0.00840994156897068, 0.3636656105518341, 0.14653849601745605, -0.031788792461156845, -0.2276414930820465, -0.28432413935661316, 0.10981573909521103, 0.233448326587677, -0.1347532868385315, -1.062361240386963, -0.008507135324180126, -0.1026277020573616, -0.09090825915336609, 0.2233445942401886, 0.10583609342575073, -0.09488444775342941, -0.24712419509887695, 0.36325427889823914, -0.014058277010917664, -0.16734956204891205, 0.270229309797287, -0.2811226546764374, -0.3465186357498169, -0.1516120582818985, -0.03966907411813736, 0.44877517223358154, -0.07899581640958786, 0.033018808811903, 0.019763171672821045, -0.02630576677620411, -0.40461909770965576, -0.2831234335899353, 0.33236953616142273, 0.24654161930084229, -0.4322599470615387, 0.10300970822572708, 0.26846274733543396, -0.5150392055511475, 0.1775854080915451, 0.6131389737129211, -0.19888585805892944, 0.06140046939253807, 0.42171719670295715, -0.3270520567893982, 0.037825215607881546, 0.05933858081698418, -0.3507012128829956, -0.10601440072059631, -0.06881509721279144, 0.2294173538684845, 0.005140017252415419, 0.1841583549976349, -0.27272558212280273, -0.2317655086517334, -0.07418523728847504, 0.17349693179130554, 0.19281688332557678, 0.5550076365470886, -0.8237506747245789, -0.022392014041543007, 0.23851288855075836, 0.21981783211231232, 0.17121081054210663, 0.23665738105773926, -0.3136332035064697, 0.23944342136383057, 0.09537798911333084, -0.08725125342607498, 0.1153755784034729, 0.33442193269729614, 0.02189495973289013, -0.00937527883797884, 0.0018408338073641062, 0.23694047331809998, 0.17161816358566284, -0.03590397536754608, -0.015184168703854084, -0.1568520963191986, 0.15525799989700317, 0.3412516415119171, -0.21916887164115906, -0.12328801304101944, 0.16438451409339905, 0.0875193327665329, -0.024958018213510513, 0.6100476384162903, 0.09019241482019424, -0.41973763704299927, 0.36885544657707214, 0.14272627234458923, 0.2682339549064636, 0.25283199548721313, -0.21785171329975128, -0.002703140489757061, 0.2682267725467682, 0.060302734375, 0.07992593199014664, -0.1122143343091011, -0.1357450783252716, -0.005473777651786804, 0.25691288709640503, 0.046729978173971176, -0.04270988330245018, 0.0015054099494591355, 0.023335305973887444, -0.24934907257556915, 0.44049108028411865, 0.06509391963481903, -0.3225351870059967, -0.03692280501127243, -0.058842312544584274, -0.12812191247940063, 0.15195469558238983, -0.1436612606048584, -0.09965382516384125, 0.19746890664100647, -0.08505015075206757, -0.17082318663597107, 0.3750320076942444, 0.16056014597415924, 0.12817339599132538, -0.02803812362253666, -0.23261818289756775, -0.16131649911403656, 0.23634853959083557, 0.05925382301211357, 0.11317498981952667, 0.09271921962499619, 0.013450715690851212, 0.15277914702892303, -0.07336690276861191, 0.03048154152929783, 0.18772204220294952, 0.07024984806776047, -0.10715696960687637, -0.09106675535440445, 0.1402919739484787, 0.24443407356739044, -0.23607316613197327, -0.042170200496912, 0.0993904173374176, -0.16782069206237793, 0.05134469270706177, -0.12245944887399673, 0.002930873539298773, 0.06018354743719101, 0.04510895162820816, 0.1779804676771164, -0.023476796224713326, -0.1339723914861679, 0.03378007188439369, 0.1360311061143875, 0.06375382095575333, 0.13237179815769196, 0.03783251345157623, 0.020397085696458817, 0.05766167491674423, -0.004117586649954319, -0.1010812371969223, 0.05157520994544029, -0.11708416044712067, -0.008031509816646576, 0.17204812169075012, -0.1571330577135086, -0.11695762723684311, 0.23147159814834595, -0.2518986165523529, -0.1049116849899292, -0.058213748037815094, 0.24472635984420776, -0.16408249735832214, 0.04030710458755493, 0.2270253598690033, 0.0810714066028595, -0.060346197336912155, 0.09330901503562927, 0.0122676445171237, -0.03845805302262306, -0.17071375250816345, 0.17893075942993164, 0.16015668213367462, 0.18302123248577118, -0.06835668534040451, 0.16772274672985077, 0.2353925108909607, -0.16592425107955933, -0.09710341691970825, 0.02387305162847042, 0.13763977587223053, 0.020011860877275467, -0.18818464875221252, -0.21108925342559814, 0.09597089141607285, 0.031024400144815445, 0.18117068707942963, -0.013101370073854923, -0.04829423502087593, -0.19965186715126038, -0.07877060025930405, 0.24175520241260529, 0.013490031473338604, 0.17445418238639832, 0.047924790531396866, -0.202347531914711, -0.10089841485023499, 0.12056639790534973, -0.042142923921346664, -0.026807133108377457, -0.14609450101852417, 0.015681540593504906, 0.10593214631080627, -0.13601575791835785, 0.06430388242006302, 0.036792099475860596, -0.030820943415164948, -0.12418387085199356, -0.03850557655096054, 0.28035736083984375, -0.07098500430583954, -0.14604048430919647, 0.1018349826335907, -0.18796537816524506, 0.07938671857118607, 0.09015099704265594, -0.07173918932676315, -0.04708251729607582, -0.05346778407692909, 0.07278536260128021, 0.032053392380476, 0.015908047556877136, 0.08441032469272614, 0.010199658572673798, 0.007062319666147232, 0.12966607511043549, 0.5344536900520325, 0.2005600929260254, 0.6410661935806274, -0.5023893117904663, -0.5181557536125183, 0.18808682262897491, 0.15533007681369781, 0.0002096992830047384, 0.2524239718914032, 0.37645742297172546, -0.6911598443984985, 0.4398152828216553, -0.009434896521270275, -0.7784745693206787, 0.055448420345783234, -0.03310057893395424, -0.06300920993089676, -0.118696428835392, 0.2373884618282318, 0.022929437458515167, -0.12210430204868317, 0.12171996384859085, -0.11300361901521683, -0.10532213002443314, -0.1898549199104309, 0.2883250117301941, -0.317905068397522, 0.24489319324493408, 0.3509776294231415, -0.2471170872449875, 0.03953881934285164, 0.03772701323032379, 0.022202694788575172, -0.1281501054763794, -0.00285161635838449, -0.0037697749212384224, 0.026583107188344002, -0.024399735033512115, 0.17970560491085052, 0.04601485654711723, -0.14516086876392365, 0.14997251331806183, -0.2687097489833832, 0.169439435005188, 0.08244428783655167, 0.23477159440517426, 0.14837582409381866, -0.1022414118051529, 0.06204359233379364, 0.18183264136314392, -0.3057723343372345, -0.3456604480743408, -0.13228148221969604, 0.05976821109652519, 0.01397410687059164, -0.11312167346477509, 0.19915175437927246, -0.41983968019485474, -0.06905899941921234, -0.27965688705444336, -0.13203096389770508, 0.05712958052754402, -0.0170612633228302, 0.24723657965660095, -0.12073774635791779, -0.10628148913383484, -0.338847279548645, -0.017554650083184242, 0.18620100617408752, 0.01684710755944252, 0.31399714946746826, 0.030228296294808388, 0.09236974269151688, -0.17993591725826263, 0.18849387764930725, -0.2385932356119156, -0.10367545485496521, 0.29769793152809143, -0.114548459649086, -0.2867920696735382, 0.2654706835746765, 0.09988229721784592, -0.22573822736740112, 0.08786072582006454, -0.016377462074160576, 0.01874002441763878, 0.19099114835262299, -0.32618963718414307, 0.12783142924308777, 0.17377732694149017, -0.007829132489860058, 0.03386281058192253, -0.1664259135723114, -0.061794038861989975, -0.07435982674360275, -0.3457452952861786, -0.02378757856786251, 0.33477783203125, 0.12214615195989609, 0.12884633243083954, -0.19796901941299438, 0.2231939136981964, -0.02085091732442379, -0.07970436662435532, 0.07933875173330307, 0.17076042294502258, 0.0072566065937280655, 0.09089688956737518, -0.02353818528354168, -0.041501402854919434, -0.3824850022792816, -0.1593826860189438, -0.24930350482463837, -0.20645004510879517, 0.003241062629967928, 0.05804067105054855, -0.3472587764263153, -0.23130746185779572, 0.06915250420570374, 0.27964088320732117, -0.20292307436466217, 0.3978012204170227, 0.023825209587812424, 0.033872395753860474, 0.18122684955596924, 0.09549923241138458, 0.20228128135204315, -0.11776535958051682, -0.18254807591438293, 0.24244220554828644, 0.021640099585056305, 0.29270610213279724, 0.22971336543560028, -0.2916068434715271, 0.05511477589607239, 0.2557075321674347, 0.10310489684343338, 0.010954704135656357, 0.5020073056221008, -0.15702436864376068, -0.04244095832109451, 0.03520828112959862, -0.07393129914999008, -0.43387991189956665, 0.09088186174631119, 0.13156604766845703, -0.11513790488243103, -0.15760882198810577, 0.11882799863815308, -0.33533087372779846, 0.0463954322040081, 0.16709794104099274, -0.07762926071882248, -0.30573490262031555, 0.018648559227585793, 0.036180250346660614, -0.034475672990083694, 0.16836188733577728, 0.1810905784368515, 0.21725012362003326, -0.2397090047597885, 0.14744894206523895, 0.2709192931652069, 0.0445108637213707, 0.144623801112175, -0.020360538735985756, -0.14109212160110474, 0.1454170048236847, -0.25479862093925476, 0.15975210070610046, 0.14236557483673096, 0.03641862794756889, 0.3358951807022095, -0.15202374756336212, 0.14755453169345856, -0.11072926968336105, 0.21497470140457153, 0.351985365152359, -0.28568875789642334, -0.3142934739589691, -0.08116304874420166, 0.0663304254412651, 0.0851975530385971, -0.36347514390945435, 0.27986663579940796, -0.3442882299423218, -0.2699122428894043, -0.041683848947286606, -0.11053623259067535, -0.008036628365516663, 0.09189267456531525, 0.17751269042491913, 0.2434728890657425, 0.14772461354732513, -0.1601775735616684, -0.0416685976088047, -0.04566095769405365, -0.28831028938293457, 0.09508432447910309, -0.04091176763176918, -0.008832762949168682, -0.0970366820693016, 0.04090071842074394, 0.06944654136896133, -0.20110027492046356, 0.16157905757427216, -0.028111491352319717, 0.003291117725893855, 0.2519547641277313, 0.10552475601434708, -0.0853315070271492, -0.06152455881237984, -0.2241315245628357, 0.21512921154499054, -0.04035075753927231, -0.10340984910726547, 0.2432771921157837, 0.008940665982663631, -0.4955688416957855, 0.14654891192913055, -0.09174831211566925, 0.016807492822408676, 0.10466888546943665, 0.03495047613978386, 0.1715223640203476, 0.009311359375715256, -0.008899401873350143, 0.0005089217447675765, -0.1275700032711029, 0.24627681076526642, 0.0020494163036346436, -0.02081110142171383, 0.11245663464069366, 0.043923456221818924, 0.026800470426678658, 0.022038180381059647, -0.21983839571475983, -0.10014012455940247, 0.005597230046987534, 0.25829577445983887, 0.15732838213443756, -0.1019410640001297, 0.06518394500017166, 0.01737987995147705, 0.16888481378555298, -0.02162323147058487, 0.1346607357263565, 0.0569307841360569, -0.1869482696056366, -0.0862651839852333, -0.2456243336200714, 0.35632458329200745, 0.12168166041374207, 0.044672880321741104, -0.1919362097978592, 0.19359280169010162, -0.2702549397945404, 0.11760778725147247, 0.006197838112711906, -0.061435356736183167, -0.016197167336940765, 0.05881926417350769, -0.031717512756586075, -0.2832777202129364, -0.21792221069335938, 0.14047855138778687, -0.31040507555007935, -0.03341302275657654, 0.24085533618927002, -0.10182364284992218, 0.2796119153499603, -0.18519438803195953, -0.16426075994968414, 0.03061039187014103, 0.04341980442404747, -0.08937282115221024, 0.09559124708175659, 0.02775055728852749, -0.07060903310775757, 0.04926905035972595, -0.03573927655816078, 0.14995495975017548, 0.05746077373623848, 0.012714076787233353, 0.055628977715969086, -0.11863701045513153, -0.05363445729017258, -0.054553817957639694, 0.06867735087871552, -0.016940075904130936, 0.10660091042518616, -0.20702077448368073, -0.0016043620416894555, -0.18965581059455872, -0.10566961765289307, 0.04516284167766571, -0.17025713622570038, 0.04706798121333122, -0.022377895191311836, -0.05367251858115196, 0.1309671700000763, 0.09425675868988037, -0.29781004786491394, 0.03754403442144394, 0.16634167730808258, -0.09583668410778046, -0.0247828159481287, -0.028752896934747696, 0.2285759001970291, 0.14655722677707672, 0.06099873036146164, -0.16024547815322876, -0.00920870155096054, -0.23324500024318695, 0.11490248143672943, 0.09435435384511948, 0.001024060184136033, 0.12220460176467896, -0.025600610300898552, 0.03253714367747307, -0.1428937017917633, 0.10360056161880493, 0.060545843094587326, -0.08114571869373322, -0.07946949452161789, 0.029972979798913002, 0.3003303110599518, -0.05547207593917847, -0.24803386628627777, 0.1511126160621643, -0.18617460131645203, -0.007072258275002241, 0.13638156652450562, 0.07389780879020691, 0.1572156548500061, -0.07831814140081406, -0.46857157349586487, 0.07668913900852203, 0.09436772018671036, 0.4879297614097595, -0.15009109675884247, 0.12230134755373001, 0.18576358258724213, -0.027949228882789612, 0.008441531099379063, 0.08074276894330978, 0.33044999837875366, 0.03471188247203827, 0.18639349937438965, -0.17053431272506714, 0.006043694913387299, -0.05686808004975319, -0.15176300704479218, 0.08910857141017914, -0.32571378350257874, 0.20925919711589813, 0.13214969635009766, -0.19377249479293823, 0.25699669122695923, 0.04739497974514961, -0.08102721720933914, 0.2744580805301666, 0.21002505719661713, 0.156873419880867, 0.15930554270744324, 0.06117865443229675, 0.384011834859848, -0.10855871438980103, -0.051524411886930466, 0.0942435935139656, -0.19802574813365936, -0.19549287855625153, 0.02190806157886982, -0.6486314535140991, -0.12689219415187836, -0.03223202005028725, -0.006617623381316662, 0.12525658309459686, 0.08379571884870529, -0.30718520283699036, -0.25934460759162903, -0.1924421191215515, -0.06609681993722916, -0.26118898391723633, 0.42315980792045593, 0.03446822986006737, 0.05598112568259239, -0.11696629971265793, -0.021241849288344383, 0.1675897240638733, -0.36159709095954895, -0.009819896891713142, -0.06029142439365387, -0.3312646150588989, 0.04328170418739319, -0.07057878375053406, -0.20184268057346344, 0.025567956268787384, -0.2282465249300003, 0.1608043909072876, -0.10455508530139923, -0.3179156184196472, 0.22061800956726074, -0.02376703917980194, -0.17736855149269104, -0.26928210258483887, 0.018627619370818138, -0.026106934994459152, -0.05808981880545616, -0.15322749316692352, -0.23935307562351227, 0.27589285373687744, 0.0829995796084404, -0.09140638262033463, -0.15856440365314484, 0.12282907962799072, 0.06185687333345413, -0.2178981751203537, 0.08532623201608658, 0.069943368434906, 0.15429699420928955, 0.03302345424890518, 0.03410593420267105, 0.0629114881157875, 0.06972575187683105, 0.20283174514770508, -0.45481055974960327, -0.025192048400640488, 0.2767411470413208, 0.14170485734939575, -0.0711914673447609, 0.12152745574712753, -0.0058554247952997684, 0.0013337566051632166, 0.023424938321113586, -0.1831580102443695, 0.09460314363241196, 0.08198326081037521, -0.0805598720908165, 0.19017571210861206, -0.06682860851287842, 0.07028044760227203, -0.07665235549211502, 0.04504954814910889, -0.21021214127540588, -0.016521329060196877, 0.19453217089176178, -0.01149662770330906, -0.11759234964847565, 0.19908730685710907, 0.2980027496814728, -0.06672094017267227, 0.10441557317972183, -0.015524018555879593, -0.03100557252764702, -0.276769757270813, 0.06614256650209427, -0.049769327044487, -0.15961050987243652, 0.09505125135183334, 0.2748457193374634, 0.04675322026014328, -0.16105663776397705, 0.19888414442539215, 0.24041470885276794, -0.31810417771339417, -0.0864526629447937, 0.3670141398906708, 0.0944744348526001, -0.14248566329479218, 0.4728449583053589, -0.06355929374694824, -0.06792669743299484, -0.09400375932455063, -0.037155888974666595, 0.1691269725561142, 0.2698553800582886, 0.13041141629219055, 0.10915174335241318, 0.16466772556304932, -0.03266763687133789, 0.05961763113737106, -0.02633850648999214, 0.12905143201351166, 0.041503291577100754, -0.31729453802108765, -0.09732791781425476, 0.16042561829090118, 0.14232219755649567, -0.035183586180210114, 0.16026192903518677, 0.11907601356506348, -0.19198134541511536, -0.11387570202350616, 0.005223318003118038, 0.2533520758152008, -0.13601882755756378, -0.17441193759441376, 0.4926368296146393, 0.08829899877309799, 0.027452295646071434, 0.00518647488206625, 0.07419928908348083, 0.11644653975963593, -0.03003617748618126, 0.024367645382881165, 0.027162916958332062, 0.1893368363380432, 0.10447484254837036, 0.24408340454101562, -0.368133008480072, 0.002918485552072525, -0.00614516157656908, -0.13198530673980713, -0.22776861488819122, 0.04683695733547211, -0.01984179951250553, 0.02523203380405903, -0.08326257020235062, 0.015242687426507473, 0.056659724563360214, -0.08962748199701309, 0.01762145571410656, 0.12963134050369263, 0.2211620807647705, -0.13302215933799744, 0.03567038103938103, 0.20431868731975555, -0.07627291232347488, 0.8003451824188232, -0.023830294609069824, -0.2149849385023117, 0.15355470776557922, 0.06211461126804352, 0.09867945313453674, -0.8802486062049866, 0.00201211916282773, -0.011446096003055573, -0.7642771005630493, -0.0453709177672863, -0.3606775104999542, -0.1323980689048767, 0.0007338215364143252, -0.3187437057495117, 0.3049452304840088, -0.03327812999486923, 0.3796329200267792, 0.22118563950061798, -0.1723136454820633, -0.39535075426101685, 0.006874267477542162, 0.025269169360399246, 0.17965573072433472, -0.2853541076183319, -0.19400852918624878, -0.32853201031684875, 0.7096079587936401, -0.11109679937362671, -0.1554008573293686, -0.5242560505867004, 0.04529552906751633, -0.41036635637283325, 0.05067000165581703, 0.1517542153596878, 0.0071408674120903015, 0.29052191972732544, -0.13257639110088348, 0.16195006668567657, -0.2077556997537613, -0.3014932870864868, 0.4771621525287628, 0.2308376431465149, 0.16971762478351593, -0.12507545948028564, 0.34313729405403137, 0.24346856772899628, -0.19109424948692322, 0.0007184052956290543, 0.14184772968292236, -0.0651034340262413, -0.13165755569934845, -0.14921405911445618, 0.029044928029179573, -0.10081635415554047, 0.022331038489937782, -0.11358987540006638, -0.09880130738019943, -0.04495769739151001, -0.2166525423526764, 0.127291738986969, 0.09989923983812332, -0.08686414361000061, 0.009950155392289162, -0.1663990616798401, 0.08437731862068176, 0.050512924790382385, -0.1409238874912262, -0.33373427391052246, -0.3053465187549591, -0.28849491477012634, 0.14850789308547974, -0.00851996149867773, 0.07361585646867752, -0.08446942269802094, 0.017344441264867783, -0.11765605956315994, 0.004437203519046307, 0.2686682641506195, 0.03984767571091652, -0.1252555549144745, 0.2837798297405243, 0.24714820086956024, 