{"version": "0.5.4", "metadata": {"date": {"year": 2025, "month": 9, "day": 22, "hour": 12, "minute": 31, "second": 5}, "loudness": -14.456949234008789, "gain": 0.792062274855561, "name": null, "modeled_by": null, "gear_type": null, "gear_make": null, "gear_model": null, "tone_type": null, "input_level_dbu": null, "output_level_dbu": null, "training": {"settings": {"ignore_checks": true}, "data": {"latency": {"manual": -4, "calibration": {"algorithm_version": 1, "delays": [-4], "safety_factor": 0, "recommended": -4, "warnings": {"matches_lookahead": false, "disagreement_too_high": false}}}, "checks": {"version": 1, "passed": true}}, "validation_esr": 0.034128609196243984}}, "architecture": "WaveNet", "config": {"layers": [{"input_size": 1, "condition_size": 1, "head_size": 8, "channels": 16, "kernel_size": 3, "dilations": [1, 2, 4, 8, 16, 32, 64, 128, 256, 512], "activation": "Tanh", "gated": false, "head_bias": false}, {"input_size": 16, "condition_size": 1, "head_size": 1, "channels": 8, "kernel_size": 3, "dilations": [1, 2, 4, 8, 16, 32, 64, 128, 256, 512], "activation": "Tanh", "gated": false, "head_bias": true}], "head": null, "head_scale": 0.02}, "weights": [0.12988971173763275, 0.5588916540145874, -1.25127375125885, -1.0026878118515015, -0.5255676507949829, -0.03903822600841522, -0.007185229100286961, 0.8614490032196045, -0.0740976557135582, 0.028222065418958664, -0.12281933426856995, 0.008032653480768204, -0.9164420366287231, -0.4727628231048584, -0.8165499567985535, 0.0415923111140728, 0.19834409654140472, 0.1256956160068512, -0.014718467369675636, 0.09807579219341278, 0.033174898475408554, 0.12687113881111145, -0.19073832035064697, 0.12398546189069748, -0.0466947928071022, -0.15018302202224731, 0.1454310119152069, -0.15745247900485992, -0.2518300712108612, -0.022892113775014877, -0.08645056188106537, 0.22947683930397034, -0.15020617842674255, -0.015124863013625145, -0.17448732256889343, -0.05687457695603371, 0.0781920775771141, 0.2843262851238251, 0.04485785961151123, 0.08803677558898926, -0.14241060614585876, -0.042921315878629684, 0.01815691590309143, 0.006492448505014181, -0.14944462478160858, -0.08644101768732071, -0.058264635503292084, 0.12446331977844238, -0.055941782891750336, -0.08184728026390076, 0.15293173491954803, 0.20042604207992554, -0.10239221900701523, 0.045075852423906326, 0.0894385278224945, -0.24429181218147278, 0.055218327790498734, -0.11283998191356659, -0.2631165683269501, -0.06715793162584305, 0.028499040752649307, 0.1760949343442917, -0.0704054906964302, -0.21996058523654938, 0.2876233160495758, -0.0929066464304924, -0.2673751711845398, 0.26093563437461853, 0.04943882301449776, -0.048888858407735825, -0.3511725068092346, -0.0023435538168996572, 0.25471627712249756, -0.11874288320541382, 0.1706535816192627, 0.3161856234073639, -0.21279305219650269, -0.07463255524635315, 0.2083580046892166, 0.07463863492012024, -0.16304968297481537, 0.040534038096666336, 0.018136119470000267, -0.1414903849363327, 0.16035062074661255, 0.2091992348432541, -0.07469485700130463, -0.26363205909729004, -0.162128746509552, -0.028454788029193878, 0.23293454945087433, 0.2637292146682739, 0.056822825223207474, -0.1155909076333046, -0.3389572203159332, -0.05485283583402634, 0.25687870383262634, 0.0005333116860128939, -0.164220929145813, 0.08476884663105011, -0.08956439793109894, 0.1420993059873581, 0.1278933882713318, -0.25470149517059326, -0.0959889367222786, 0.1794012039899826, -0.36043137311935425, -0.055993787944316864, 0.19467954337596893, 0.03458065167069435, -0.01625232957303524, -0.2554641664028168, -0.06940654665231705, 0.07695403695106506, 0.07961637526750565, -0.12164284288883209, -0.03424964100122452, 0.1221294179558754, 0.02056426741182804, 0.02142324112355709, -0.043207503855228424, 0.012497675605118275, -0.08063797652721405, -0.03667989373207092, -0.1328824758529663, -0.09997442364692688, -0.13164085149765015, -0.0009759898530319333, 0.01752975769340992, -0.11093434691429138, 0.01000104658305645, 0.08623666316270828, -0.37724101543426514, -0.008920137770473957, 0.11722523719072342, 0.08624186366796494, -0.01975950226187706, 0.005801781080663204, -0.017608344554901123, 0.10875140130519867, 0.1427830457687378, 0.16826534271240234, 0.13741149008274078, -0.020146101713180542, -0.2214934527873993, -0.0389409177005291, 0.07930862158536911, -0.12706398963928223, -0.06749803572893143, -0.12338395416736603, -0.24120736122131348, -0.12029097974300385, -0.035005129873752594, -0.028911901637911797, 0.07860411703586578, -0.1465044468641281, -0.012185058556497097, -0.04103032872080803, -0.11438765376806259, -0.005972822196781635, -0.11469177156686783, 0.008775629103183746, -0.27249544858932495, -0.16829784214496613, -0.032842230051755905, -0.15963232517242432, -0.01717235893011093, 0.06335229426622391, 0.02998020499944687, 0.03332427889108658, 0.1376141458749771, 0.10221146792173386, 0.17331475019454956, 0.060064878314733505, 0.026637116447091103, 0.005455298814922571, -0.007757822051644325, -0.2602190375328064, 0.18347753584384918, -0.19405825436115265, -0.006440567784011364, -0.07561015337705612, 0.09761068224906921, -0.1167643815279007, 0.1069876179099083, 0.035482604056596756, 0.1431526243686676, -0.08185919374227524, -0.10485834628343582, -0.07140050083398819, 0.15845468640327454, 0.08757314831018448, 0.04328649491071701, 0.04741283878684044, -0.09684046357870102, 0.016589859500527382, -0.04206923022866249, 0.05539269372820854, 0.06861747056245804, 0.04096074774861336, 0.010871957056224346, 0.2517874240875244, -0.051978614181280136, -0.0930173322558403, 0.08092796802520752, -0.0030060510616749525, -0.045345861464738846, 0.01616201363503933, -0.126018688082695, 0.01711728423833847, 0.04487157613039017, -0.20249679684638977, 0.07601111382246017, 0.06702632457017899, 0.18254415690898895, -0.040986549109220505, -0.22014161944389343, 0.10370320081710815, 0.05812007561326027, -0.2192278653383255, 0.1715855747461319, 0.08440036326646805, -0.05386386811733246, -0.15328019857406616, -0.09663090109825134, 0.15290600061416626, 0.034684259444475174, -0.11560603231191635, -0.12448933720588684, -0.19851601123809814, 0.06357017904520035, 0.22914418578147888, 0.17644335329532623, 0.0542973130941391, -0.02799791283905506, -0.24091969430446625, 0.12121903151273727, 0.012878775596618652, 0.0903996080160141, -0.008524610660970211, -0.06746738404035568, 0.1601412147283554, -0.08420661091804504, -0.15569911897182465, 0.24498818814754486, -0.19856902956962585, -0.0032562341075390577, 0.04729378595948219, -0.05487052723765373, -0.12702614068984985, 0.11644623428583145, -0.042980365455150604, 0.00816827081143856, -0.08950012177228928, 0.01736428774893284, 0.053864486515522, -0.09031014144420624, 0.011352119036018848, -0.11687183380126953, -0.06878883391618729, -0.05570429936051369, 0.11074410378932953, 0.04077795520424843, 0.07308454066514969, 0.028691453859210014, -0.07935494184494019, -0.07417993247509003, 0.015070957131683826, 0.08826174587011337, 0.001261953148059547, -0.08568918704986572, -0.0453200601041317, -0.10239902883768082, 0.03336525335907936, 0.013403174467384815, -0.06023501232266426, 0.11832644045352936, -0.059541523456573486, 0.019879942759871483, 0.0676921084523201, -0.02388160303235054, -0.08384917676448822, -0.11089805513620377, 0.14080965518951416, 0.05051774904131889, 0.1393706202507019, -0.059368401765823364, 0.024656005203723907, -0.03781009092926979, 0.07541123777627945, -0.07729300856590271, 0.08020970225334167, 0.016490472480654716, -0.03580153360962868, -0.06153445318341255, -0.1109224483370781, 0.0743267610669136, -0.1361977458000183, 0.021060239523649216, -0.0840902104973793, -0.08430616557598114, -0.0027083694003522396, -0.036870915442705154, -0.018913421779870987, 0.020996136590838432, 0.011444787494838238, 0.13473445177078247, 0.10049912333488464, 0.17574730515480042, 0.14325149357318878, -0.15902464091777802, -0.15127667784690857, -0.103988878428936, -0.09235327690839767, -0.06948910653591156, -0.05931229889392853, -0.11225312948226929, -0.1269548237323761, -0.0950702652335167, 0.09614121168851852, 0.10869629681110382, 0.06121821701526642, -0.07779498398303986, -0.1125120297074318, -0.07632235437631607, 0.16949288547039032, 0.21075750887393951, 0.1676241159439087, 0.01962471939623356, -0.17045001685619354, -0.21675041317939758, -0.08031323552131653, 0.249982088804245, 0.19810155034065247, -0.12539023160934448, -0.0743851438164711, -0.02814885787665844, 0.1778034120798111, 0.024047184735536575, 0.04453781992197037, -0.07009897381067276, -0.17511512339115143, -0.030961818993091583, 0.04289920628070831, -0.207194983959198, -0.0193403959274292, 0.0312783308327198, -0.05011492595076561, -0.2548660933971405, 0.06551805138587952, -0.02784714102745056, 0.1701965481042862, 0.013756398111581802, 0.17785945534706116, -0.2228326052427292, 0.08972693234682083, 0.10217371582984924, -0.06626837700605392, -0.12824591994285583, -0.11022590100765228, 0.05658404901623726, -0.1707136332988739, -0.2609215974807739, 0.26118820905685425, 0.04402092471718788, -0.009684843011200428, 0.2699872553348541, -0.09466570615768433, 0.06881990283727646, -0.15451492369174957, -0.05360397323966026, -0.13964742422103882, -0.13737043738365173, -0.04404621943831444, 0.004922517575323582, -0.2335507720708847, 0.08414339274168015, -0.05207175761461258, 0.263210654258728, 0.12691326439380646, 0.29594284296035767, -0.16495859622955322, 0.04632207006216049, -0.05230192095041275, 0.17606888711452484, 0.12848708033561707, -0.12587681412696838, 0.13572275638580322, -0.07250574231147766, -0.07948922365903854, 0.15897783637046814, -0.052924081683158875, -0.23760388791561127, 0.05539070442318916, -0.13823238015174866, -0.04227564111351967, 0.26516789197921753, -0.022714965045452118, 0.04826119542121887, -0.108390673995018, 0.1506667286157608, 0.19070027768611908, -0.16493618488311768, 0.15317969024181366, 0.22643563151359558, -0.1713595688343048, 0.10723932087421417, -0.06989084929227829, 0.02078668773174286, 0.05865979567170143, -0.25399401783943176, 0.04974150285124779, 0.09332665801048279, -0.17054782807826996, -0.023462237790226936, -0.03680241107940674, 0.12016832828521729, -0.15179692208766937, 0.024702485650777817, -0.04609151557087898, -0.11354855448007584, -0.06078631803393364, 0.18729433417320251, 0.001413381309248507, 0.039127167314291, -0.28373903036117554, 0.0863659456372261, -0.08196665346622467, 0.11290904134511948, -0.02344357594847679, -0.118679940700531, -0.12781532108783722, 0.19233621656894684, 0.09060728549957275, -0.20847271382808685, 0.005702995229512453, 0.009622014127671719, -0.28883451223373413, 0.13290131092071533, -0.14621798694133759, -0.3114243745803833, -0.07601738721132278, -0.06152442842721939, -0.08028437942266464, -0.05312735587358475, 0.18330620229244232, 0.014392370358109474, 0.031330619007349014, 0.0816546082496643, -0.3812900483608246, 0.3542463779449463, 0.09955767542123795, -0.0022361918818205595, 0.2875659763813019, -0.12940983474254608, 0.26521843671798706, -0.22182752192020416, 0.04169302061200142, 0.027078384533524513, -0.2626279294490814, -0.17239776253700256, 0.0937863141298294, -0.19376714527606964, -0.11481012403964996, -0.10041046887636185, 0.2696860432624817, 0.07890653610229492, -0.011074473150074482, -0.21950498223304749, -0.012438052333891392, -0.07657742500305176, 0.36870768666267395, 0.06585647165775299, 0.1368972212076187, -0.17119403183460236, -0.12476087361574173, -0.24043697118759155, 0.27800947427749634, -0.09112732112407684, 0.21319836378097534, -0.31776881217956543, 0.013560052029788494, 0.030512455850839615, -0.053528811782598495, -0.03964953124523163, 0.24486525356769562, -0.13334143161773682, 0.06416779011487961, 0.13839086890220642, -0.26255324482917786, -0.07310491055250168, 0.1787635236978531, -0.15906047821044922, -0.06933343410491943, 0.02545587345957756, 0.2294999212026596, -0.06404045969247818, -0.29736512899398804, 0.18845656514167786, 0.14737676084041595, -0.3112470209598541, 0.15345844626426697, 0.06494554132223129, 0.2741142213344574, 0.06165251135826111, -0.08850137144327164, 0.22743165493011475, -0.0017787141259759665, -0.04716609790921211, 0.23505541682243347, -0.09937062859535217, 0.133355975151062, -0.16462521255016327, 0.08648858219385147, 0.006979108322411776, 0.2816086411476135, 0.1490471512079239, 0.017733922228217125, -0.10309405624866486, 0.04476827755570412, 0.024063585326075554, 0.1379040628671646, -0.04757579043507576, -0.08315395563840866, -0.25980862975120544, -0.0029253356624394655, 0.10561623424291611, 0.15649496018886566, -0.04656028002500534, -0.16177454590797424, 0.23224496841430664, 0.10272421687841415, -0.11874645948410034, 0.07104440033435822, -0.1625417321920395, -0.021606070920825005, 0.1472140997648239, -0.15039512515068054, -0.061960309743881226, 0.21447747945785522, -0.13703292608261108, -0.006056647747755051, -0.08511365205049515, -0.04604680836200714, 0.015950830653309822, -0.10732521861791611, -0.20973803102970123, -0.03017464093863964, -0.2624642550945282, 0.013278289698064327, -0.10490981489419937, 0.08890044689178467, 0.25548917055130005, -0.06165681406855583, 0.25155991315841675, 0.10058087855577469, -0.0030520670115947723, 0.1997331827878952, 0.19840340316295624, -0.10809990763664246, -0.2643027901649475, -0.15818382799625397, -0.11976855993270874, 0.053333431482315063, 0.23665466904640198, 0.10545520484447479, -0.25610366463661194, -0.1343977302312851, 0.1554451286792755, 0.2585448622703552, 0.20931567251682281, 0.03626931458711624, -0.20607027411460876, -0.20712488889694214, 0.025004465132951736, 0.30307668447494507, 0.08513665199279785, -0.036621011793613434, 0.06565720587968826, 0.38851696252822876, -0.0126725435256958, 0.09658724069595337, -0.01732002943754196, 0.06890974938869476, 0.1901872158050537, 0.049436163157224655, 0.05971749871969223, 0.2861058712005615, 0.23406895995140076, -0.11272406578063965, -0.07636405527591705, -0.16375009715557098, -0.1351017951965332, 0.08176999539136887, 0.20515571534633636, 0.07000283151865005, -0.12082676589488983, 0.28977856040000916, 0.12067564576864243, 0.12077674269676208, -0.29126712679862976, -0.06732117384672165, -0.1076609268784523, -0.027059484273195267, -0.07331670820713043, -0.07112599909305573, -0.09153961390256882, -0.0733627900481224, -0.1076185554265976, 0.12341184169054031, 0.08293654769659042, -0.20469169318675995, -0.050106488168239594, -0.048770103603601456, 0.05806256830692291, 0.2878762483596802, 0.0650976374745369, 0.03258072957396507, -0.023527152836322784, 0.019997186958789825, -0.053864337503910065, 0.2668975591659546, 0.03856363520026207, -0.1456388384103775, -0.19315296411514282, 0.039621565490961075, 0.18590860068798065, -0.051532257348299026, -0.14353160560131073, -0.020764771848917007, -0.07089968770742416, 0.03276003524661064, 0.03349738568067551, -0.14388462901115417, 0.03816446289420128, -0.03673049807548523, -0.2301129400730133, -0.15621702373027802, -0.10530765354633331, -0.00712604308500886, 0.11608931422233582, -0.2192302793264389, 0.0003307057486381382, 0.22108639776706696, -0.35075095295906067, 0.07159259915351868, -0.2926553189754486, 0.38920339941978455, -0.047027960419654846, -0.24650461971759796, 0.3409385681152344, 0.006108047440648079, -0.09122159332036972, 0.16827650368213654, -0.0582166388630867, 0.11548580974340439, -0.19778753817081451, 0.1212969720363617, -0.21332953870296478, 0.13467954099178314, 0.06955605000257492, 0.17291350662708282, -0.16345447301864624, -0.18234823644161224, -0.18713557720184326, 0.3777115046977997, 0.0353287011384964, 0.297927588224411, -0.2838149666786194, 0.0517730638384819, -0.34102579951286316, 0.2251538336277008, 0.025481510907411575, -0.12928077578544617, 0.19991092383861542, 0.08695819973945618, -0.2258271425962448, 0.25735974311828613, 0.1692749708890915, -0.24665632843971252, 0.3779163062572479, -0.029485855251550674, -0.23076137900352478, 0.2671571969985962, 0.12709516286849976, 0.21586444973945618, -0.2550429105758667, -0.2504632771015167, 0.03975272551178932, 0.22485016286373138, -0.0017364999512210488, -0.14888536930084229, 0.27455365657806396, 0.1411716192960739, 0.0622565895318985, -0.33039361238479614, 0.10089287906885147, -0.051428910344839096, -0.1529405266046524, 0.020450565963983536, -0.017830057069659233, -0.14199112355709076, -0.12498249858617783, -0.028720656409859657, 0.08286330103874207, -0.10161950439214706, 0.15268729627132416, -0.1294974684715271, -0.2727815508842468, 0.042625512927770615, 0.1742781549692154, -0.06603793054819107, -0.06889629364013672, -0.29957452416419983, 0.17936085164546967, -0.09165740758180618, 0.19816741347312927, 0.026060499250888824, 0.16990645229816437, -0.08180006593465805, 0.11667045950889587, 0.07695368677377701, -0.1448516994714737, -0.01858031004667282, -0.026133526116609573, -0.15751875936985016, 0.12787769734859467, -0.049563318490982056, -0.09999920427799225, -0.07817156612873077, 0.024571431800723076, -0.07994559407234192, -0.024189729243516922, 0.02300378493964672, -0.034354060888290405, 0.02752724103629589, -0.2771501839160919, -0.09207218885421753, 0.11687517166137695, -0.3670213222503662, -0.16512423753738403, -0.026273304596543312, 0.3838919699192047, 0.013199551962316036, 0.08459720760583878, 0.38716670870780945, 0.15191887319087982, -0.05302762985229492, 0.24755260348320007, 0.011817779392004013, -0.10035046190023422, -0.18731334805488586, 0.10004887729883194, 0.11542311310768127, 0.2320694923400879, -0.06877095997333527, 0.10303739458322525, -0.15553800761699677, -0.11268305778503418, -0.1147233322262764, 0.25377562642097473, 0.107249915599823, -0.14461421966552734, -0.10749941319227219, 0.028468502685427666, -0.11739175766706467, 0.21291501820087433, 0.15770965814590454, -0.08486896753311157, 0.11100064218044281, -0.03364640474319458, -0.0689319521188736, 0.33635470271110535, 0.12801137566566467, 0.11042769253253937, 0.1617177128791809, 0.18970614671707153, -0.056785766035318375, 0.42040419578552246, -0.08736087381839752, -0.1127505823969841, -0.11617875099182129, 0.09940527379512787, -0.0246450062841177, -0.06379178911447525, -0.1155301034450531, -0.018111836165189743, -0.16610953211784363, 0.027412520721554756, -0.16339273750782013, -0.0686028003692627, 0.013035439886152744, -0.09052662551403046, -0.13286688923835754, 0.0023700029123574495, -0.09083874523639679, -0.3352777063846588, 0.16807135939598083, -0.21915118396282196, 0.005807334091514349, 0.46345970034599304, -0.6196790933609009, 0.9076800346374512, -0.8563876152038574, 0.10834014415740967, 0.9297257661819458, 1.1498796939849854, -0.7214065194129944, 0.11418447643518448, 0.3394022285938263, -0.4138444662094116, -0.46384769678115845, 0.43510007858276367, -0.7639026045799255, 0.17251785099506378, 0.408563494682312, 0.2688816785812378, 0.14113378524780273, -0.060561537742614746, 0.011187823489308357, 0.1816573143005371, 0.0008382236701436341, 0.05219068378210068, -0.20150485634803772, -0.09719826281070709, 0.04303577542304993, 0.10650389641523361, -0.021919507533311844, 0.20215757191181183, 0.05254595726728439, 0.13235247135162354, -0.1034122183918953, 0.21553179621696472, 0.04911993816494942, -0.33008161187171936, 0.24193120002746582, 0.1526232212781906, -0.04647998884320259, -0.2709185779094696, 0.13096019625663757, -0.0829089805483818, 0.18990327417850494, 0.09901777654886246, 0.08179254829883575, 0.16477765142917633, 0.05032007768750191, 0.08532103151082993, 0.40943384170532227, -0.04185627028346062, -0.0172597486525774, 0.033174723386764526, 0.10911154001951218, 0.13826359808444977, -0.17496143281459808, 0.0504915714263916, -0.3062857985496521, 0.13899581134319305, -0.002015285426750779, 0.027611805126070976, -0.3034178614616394, 0.18168406188488007, 0.4442610740661621, 0.28287556767463684, -0.13225315511226654, 0.3343566060066223, 0.1586901992559433, 0.04567307233810425, -0.32158222794532776, -0.15965543687343597, -0.09018341451883316, 0.08317620307207108, -0.03000280074775219, -0.07911913096904755, 0.048579972237348557, 0.0240445826202631, -0.08908428251743317, 0.07018686830997467, 0.07338464260101318, -0.12704238295555115, -0.13943666219711304, -0.025547169148921967, -0.33968016505241394, -0.13711309432983398, 0.14376632869243622, 0.18464425206184387, 0.08824241906404495, 0.1936606615781784, -0.30315813422203064, 0.06404080241918564, 0.27680277824401855, -0.13206598162651062, 0.1999567449092865, 0.03800506517291069, 0.12914472818374634, -0.04118743911385536, 0.09312129765748978, -0.2414797842502594, 0.05344369634985924, 0.06868930906057358, 0.02956726960837841, 0.08677215874195099, 0.4088231027126312, 0.2744384706020355, 0.04947306588292122, 0.39782682061195374, 0.15527403354644775, -0.3706992268562317, -0.06386976689100266, 0.10316075384616852, -0.22517801821231842, 0.43858128786087036, 0.037094034254550934, -0.173591747879982, 0.09224814921617508, 0.17334450781345367, 0.4022674560546875, -0.1960527002811432, -0.4555845260620117, 0.20433542132377625, 0.23803812265396118, 0.2730853259563446, -0.29345929622650146, -0.5741423964500427, 0.12660878896713257, -0.03448367491364479, -0.10235456377267838, 0.35712847113609314, -0.2869866192340851, 0.03165815398097038, 0.06669585406780243, 0.3840571939945221, -0.2812846302986145, -0.14886139333248138, 0.1704683005809784, 0.44672173261642456, 0.28381267189979553, 0.14157304167747498, -0.2735150158405304, 0.13666367530822754, -0.3397289514541626, 0.060335882008075714, -0.12161348015069962, -0.08106120675802231, -0.23223567008972168, -0.1937655359506607, 0.0789000391960144, -0.18429571390151978, -0.14092671871185303, 0.1452713906764984, -0.08229406177997589, -0.12227167189121246, 0.11029230058193207, -0.30145686864852905, -0.3481278121471405, 0.1910201758146286, 0.09991005063056946, 0.059636179357767105, 0.01648593693971634, -0.09743745625019073, 0.20864616334438324, 0.032620515674352646, 0.07188121229410172, 0.15049341320991516, -0.29615241289138794, -0.37498629093170166, 0.19242210686206818, 0.03428330272436142, -0.4006430208683014, -0.05200209468603134, 0.34916552901268005, 0.15882854163646698, 0.20027947425842285, 0.3549707233905792, -0.008115755394101143, -0.12479900568723679, 0.07859385013580322, -0.120562344789505, 0.057214103639125824, -0.17369939386844635, 0.2869794964790344, 0.2243291288614273, -0.43934938311576843, 0.14706100523471832, -0.01486395113170147, -0.10144905000925064, -0.24115398526191711, -0.13837018609046936, -0.17563091218471527, -0.2857644855976105, 0.1753167361021042, -0.14610429108142853, 0.30322685837745667, -0.15548892319202423, -0.22697055339813232, 0.23158930242061615, 0.11334200203418732, 0.2262018620967865, -0.29923850297927856, 0.04625430703163147, 0.2596064507961273, -0.06524111330509186, -0.46442094445228577, -0.11878535896539688, -0.3040617108345032, -0.3224002420902252, 0.2792859673500061, -0.17234911024570465, -0.18825070559978485, -0.14159955084323883, -0.09282350540161133, 0.02678055502474308, 0.0657527819275856, 0.14327073097229004, -0.2972871661186218, -0.01762264594435692, 0.1239367127418518, 0.2952516973018646, 0.19414572417736053, -0.2731805443763733, -0.033602844923734665, 0.017617806792259216, -0.37223148345947266, -0.05527837947010994, 0.22721798717975616, -0.20853400230407715, -0.36738115549087524, 0.06658279895782471, -0.005481218919157982, 0.010893088765442371, 0.08304233849048615, 0.4274023771286011, -0.0302888210862875, 0.14130322635173798, 0.04956920072436333, -0.2232515662908554, -0.24421964585781097, -0.28587886691093445, -0.1879281848669052, -0.12684467434883118, 0.07844642549753189, 0.046313103288412094, 0.34435468912124634, -0.052653245627880096, -0.2629985213279724, -0.039049576967954636, -0.002551114885136485, 0.1429653912782669, 0.08509794622659683, -0.37518683075904846, 0.1610594391822815, 0.06395251303911209, 0.09808327257633209, 0.19807548820972443, 0.3372286260128021, -0.21971936523914337, -0.04897790029644966, 0.2549406886100769, 0.205733060836792, 0.2770037353038788, -0.06169682368636131, 0.09652496129274368, 0.1548217236995697, 0.15996065735816956, 0.33237144351005554, -0.20188230276107788, -0.30349457263946533, 0.06835241615772247, -0.2842252254486084, 0.08953936398029327, 0.33496084809303284, -0.07140018045902252, -0.014001953415572643, 0.25267091393470764, -0.24742330610752106, 0.06814771890640259, -0.28883233666419983, -0.307201623916626, -0.03290974348783493, 0.19339369237422943, 0.11970386654138565, -0.05225047841668129, -0.3295906186103821, -0.027728715911507607, -0.22188976407051086, 0.05708751082420349, 0.1517590582370758, 0.13297563791275024, -0.11764166504144669, 0.1908157914876938, 0.03116241842508316, 6.814971857238561e-05, -0.0023624978493899107, -0.014940043911337852, 0.05034424364566803, -0.0998760238289833, -0.2232021987438202, 0.03082539141178131, -0.19943413138389587, -0.12529897689819336, 0.03704924136400223, -0.16959327459335327, -0.20504049956798553, 0.03783439099788666, 0.17462287843227386, -0.04012591391801834, -0.14299161732196808, -0.07812579721212387, -0.32097551226615906, 0.07130394130945206, 0.12696753442287445, 0.03423577547073364, -0.26923882961273193, -0.10690001398324966, 0.009960233233869076, 0.05023142322897911, -0.06943817436695099, 0.14286386966705322, -0.22734366357326508, -0.25015121698379517, -0.21671664714813232, 0.0971071720123291, -0.31101855635643005, -0.5380650162696838, 0.20430698990821838, -0.1829131841659546, -0.20387902855873108, 0.011681225150823593, -0.10001156479120255, -0.08827123045921326, -0.06229252740740776, -0.11150834709405899, 0.07509611546993256, 0.22965851426124573, 0.2060544639825821, -0.07631617039442062, -0.15172918140888214, 0.14242419600486755, 0.17668555676937103, 0.2508235275745392, -0.4987650215625763, -0.6144633889198303, -0.15172001719474792, 0.26741012930870056, -0.1741565316915512, 0.37994036078453064, -0.47392213344573975, -0.3066123127937317, -0.2788991630077362, 0.06488250195980072, -0.7086511850357056, 0.03853319585323334, -0.24478845298290253, 0.1229688748717308, 0.021805206313729286, 0.1616087555885315, 0.21266980469226837, 0.2714938521385193, 0.06873501092195511, 0.4308985471725464, -0.031026173382997513, 0.022188333794474602, -0.2510332465171814, -0.07169586420059204, -0.09732969850301743, -0.042860906571149826, -0.2910802960395813, 0.13627652823925018, -0.1492411345243454, 0.0172803346067667, 0.30191728472709656, -0.03267016261816025, -0.11120574921369553, -0.031010525301098824, -0.27826809883117676, 0.2063952386379242, 0.32503727078437805, 0.040782660245895386, 0.23955568671226501, -0.058333948254585266, -0.08281838148832321, -0.1290556639432907, -0.09867305308580399, 0.12096165120601654, -0.46936172246932983, -0.19735346734523773, -0.11070722341537476, -0.0033487777691334486, 0.28902921080589294, 0.21950647234916687, -0.09392057359218597, 0.03065461479127407, 0.02637307532131672, -0.09927602857351303, 0.04497358575463295, 0.14724159240722656, -0.1290195733308792, 0.20313787460327148, 0.07302592694759369, 0.1284365952014923, -0.012326418422162533, 0.05758465453982353, 0.2978277802467346, 0.1702393740415573, -0.47694629430770874, -0.0345919243991375, -0.08159921318292618, -0.16626738011837006, 0.24331504106521606, -0.045718178153038025, -0.08037996292114258, -0.22820773720741272, -0.06432272493839264, 0.19178801774978638, 0.005859994795173407, -0.10247962176799774, -0.22535255551338196, -0.053472042083740234, 0.09179466962814331, -0.5587884783744812, 0.14226868748664856, 0.009728322736918926, 0.10273964703083038, -0.18317553400993347, -0.1189388856291771, -0.029789181426167488, -0.12280067801475525, -0.21560843288898468, 0.21431970596313477, 0.03361471742391586, -0.07270415127277374, -0.07059043645858765, 0.24527640640735626, 0.10587632656097412, -0.1390078365802765, 0.1722596287727356, -0.4126398265361786, -0.12601971626281738, 0.08002392202615738, 0.1856590062379837, -0.036295074969530106, 0.19589240849018097, 0.26804250478744507, -0.11511677503585815, 0.04829222708940506, -0.13264769315719604, -0.10934288054704666, -0.01821591705083847, 0.03332771733403206, 0.16519559919834137, -0.27916115522384644, 0.2870943546295166, 0.33122706413269043, -0.33111992478370667, -0.0561385303735733, 0.033136121928691864, -0.05469592660665512, -0.026649342849850655, -0.22551396489143372, 0.2663270831108093, 0.20107558369636536, -0.28424566984176636, 0.08740116655826569, 0.010978825390338898, -0.033232979476451874, 0.00585221778601408, -0.12010034918785095, 0.315579891204834, -0.09848547726869583, 0.1138312965631485, 0.2763986587524414, -0.17904989421367645, 0.07970353215932846, -0.06584346294403076, -0.09733016788959503, 0.12338890135288239, -0.29654258489608765, 0.5373591780662537, 0.1215716078877449, -0.1482631415128708, 0.1737925112247467, -0.3418065011501312, 0.055179230868816376, -0.010408928617835045, 0.20889678597450256, 0.24269284307956696, -0.20530106127262115, -0.048944294452667236, -0.1532961130142212, 0.03824277222156525, -0.22099252045154572, -0.06021944805979729, 0.14280374348163605, 0.02163379266858101, 0.09502460062503815, -0.09930026531219482, -0.2273070365190506, 0.11816241592168808, 0.06340506672859192, 0.1584681272506714, -0.7431556582450867, 0.30142277479171753, -0.04712168127298355, 0.11442448198795319, 0.24262478947639465, 0.19012045860290527, 0.03437696769833565, -0.25676798820495605, -0.24548614025115967, 0.09153895080089569, 0.016616035252809525, 0.2989899516105652, -0.15849116444587708, -0.0432085245847702, 0.16614308953285217, -0.4950597882270813, 0.21819095313549042, -0.1434415876865387, -0.30281227827072144, 0.12454310059547424, 0.07242792099714279, -0.09113326668739319, 0.051582686603069305, -0.03208149969577789, -0.06500139832496643, -0.161143496632576, 0.1566893607378006, -0.06384279578924179, 0.04130885377526283, -0.04127361625432968, -0.05190824344754219, 0.1413021683692932, -0.036399051547050476, 0.24925757944583893, -0.3065343499183655, -0.11670001596212387, 0.10892954468727112, 0.16226200759410858, -0.36259832978248596, 0.17160570621490479, 0.06608875840902328, -0.28412050008773804, 0.1784306913614273, 0.15118177235126495, 0.16978056728839874, -0.19592882692813873, 0.022771891206502914, 0.3726809620857239, -0.3496955633163452, -0.18799170851707458, 0.23570311069488525, -0.21679449081420898, 0.16925287246704102, 0.18958237767219543, 0.2771434187889099, -0.07754915952682495, -0.0395149402320385, 0.007177676539868116, 0.10777410864830017, 0.21474671363830566, 0.08757901191711426, -0.03638356924057007, 0.4964551627635956, -0.2541557848453522, 0.14018121361732483, 0.03544074296951294, 0.10555552691221237, -0.008385865949094296, 0.01909516006708145, -0.06206110492348671, 0.10535793751478195, -0.21795016527175903, 0.2829625606536865, 0.18335475027561188, 0.14284862577915192, 0.05497300624847412, -0.08230575919151306, -0.020429005846381187, -0.014441678300499916, -0.031461797654628754, 0.2255553901195526, 0.28535401821136475, 0.18349558115005493, -0.23126257956027985, 0.1261240690946579, -0.016180243343114853, -0.055453382432460785, -0.14323139190673828, -0.0453299954533577, -0.08507715910673141, 0.5079459547996521, 0.20177032053470612, 0.2349444478750229, 0.45371437072753906, 0.22131209075450897, 0.0513259656727314, 0.1011253073811531, 0.019005265086889267, 0.01448973547667265, -0.23775391280651093, -0.1295868307352066, -0.077456533908844, -0.4089198112487793, -0.1071874350309372, 0.026948880404233932, 0.16648675501346588, 0.08025980740785599, 0.14012029767036438, -0.16118675470352173, 0.00097158073913306, 0.12815597653388977, -0.276369571685791, -0.18156811594963074, 0.02810969017446041, 0.33562108874320984, 0.23103289306163788, -0.08988325297832489, -0.07337956130504608, -0.1401488035917282, -0.38094303011894226, -0.20597274601459503, -0.24123336374759674, 0.015457847155630589, -0.546990692615509, 0.032765135169029236, -0.06727815419435501, 0.07713332027196884, 0.08657702058553696, 0.03405863791704178, -0.0055785528384149075, -0.12696902453899384, -0.002429707907140255, -0.09823396056890488, 0.11001002043485641, 0.06311753392219543, -0.11006428301334381, 0.04050369933247566, 0.0015949496300891042, -0.16809199750423431, -0.2187393605709076, 0.18004295229911804, -0.008504346944391727, -0.2294376790523529, -0.04566691815853119, -0.3138924539089203, 0.012889638543128967, -0.0027089735958725214, -0.006643153727054596, -0.09411690384149551, 0.020116183906793594, -0.15014302730560303, 0.2865470349788666, 0.13458235561847687, 0.19293007254600525, -0.14937333762645721, 0.044499799609184265, -0.2755597233772278, 0.08364494144916534, -0.2212962657213211, -0.44572657346725464, 0.3309791386127472, 0.15434184670448303, 0.02561880648136139, 0.004457887262105942, -0.08770079910755157, -0.02283564954996109, -0.052580684423446655, 0.13961198925971985, 0.10771898180246353, 0.28088340163230896, -0.09556834399700165, -0.16007110476493835, 0.20702366530895233, 0.2555655837059021, 0.1165236234664917, -0.14962153136730194, -0.27024945616722107, -0.19593177735805511, -0.06523832678794861, 0.18429310619831085, 0.3444519340991974, 0.35893121361732483, 0.001966496231034398, 0.20454041659832, 0.03534771129488945, 0.022908858954906464, 0.17100349068641663, 0.14057736098766327, 0.1271790862083435, 0.07188738137483597, -0.2190806269645691, 0.3997630774974823, 0.2895030677318573, -0.06375882774591446, 0.16167272627353668, -0.22421739995479584, -0.22260133922100067, -0.2530326247215271, -0.09434576332569122, 0.3818729817867279, 0.06902117282152176, 0.021642064675688744, -0.2835374176502228, -0.09772317111492157, 0.08561556041240692, 0.17883074283599854, 0.04144597798585892, -0.01705401949584484, 0.1995745599269867, -0.1972939521074295, 0.46860700845718384, 0.31907549500465393, -0.13262350857257843, 0.03891407325863838, -0.045096706598997116, -0.13611117005348206, 0.027390746399760246, 0.25391000509262085, 0.08214549720287323, -0.04185090586543083, -0.1705179065465927, 0.17187951505184174, 0.11950592696666718, 0.03703189268708229, 0.024380773305892944, 0.08691447973251343, 0.07814138382673264, -0.29662156105041504, -0.08562126010656357, 0.2829445004463196, -0.26898011565208435, 0.17197664082050323, 0.10574983060359955, 0.06685430556535721, -0.004391450900584459, 0.0043901498429477215, 0.011524587869644165, 0.18970495462417603, 0.11731406301259995, 0.05323353409767151, -0.03557904064655304, 0.42164477705955505, 0.04042496532201767, 0.13975533843040466, 0.10411090403795242, -0.07842046767473221, -0.027925066649913788, -0.06976916640996933, -0.025629160925745964, 0.08371496945619583, 0.02182302065193653, -0.18254579603672028, -0.20542900264263153, 0.1572282761335373, 0.1404537707567215, -0.4797259271144867, 0.1986619234085083, -0.21286313235759735, -0.009705407544970512, 0.14247813820838928, -0.1918765753507614, -0.04313930124044418, 0.08689902722835541, -0.4180128574371338, -0.21612897515296936, 0.04869062080979347, 0.0365445576608181, -0.1711120754480362, -0.15326443314552307, -0.11252729594707489, 0.23143461346626282, -0.008283392526209354, -0.016485262662172318, -0.05665213614702225, -0.2990603744983673, 0.027177106589078903, 0.3084931969642639, 0.2800987958908081, -0.35015833377838135, 0.10077757388353348, -0.01568930223584175, -0.05840904638171196, -0.02332472614943981, -0.09504584223031998, -0.028128162026405334, -0.254599004983902, 0.044242192059755325, -0.008907654322683811, -0.2409714311361313, -0.03389422968029976, -0.20136764645576477, 0.030813513323664665, 0.18478217720985413, 0.19416306912899017, 0.13766437768936157, 0.06883124262094498, -0.20170411467552185, -0.22883479297161102, 0.05625277757644653, 0.32846516370773315, 0.013698340393602848, -0.139377623796463, -0.08555304259061813, 0.055993810296058655, -0.11066443473100662, 0.2829188406467438, -0.0536455474793911, -0.0636783242225647, 0.206318199634552, 0.08412095159292221, 0.13386057317256927, -0.04363952577114105, 0.6231208443641663, 0.26811596751213074, -0.25361841917037964, 0.03375224024057388, 0.13321559131145477, 0.18888399004936218, 0.05779760703444481, -0.21331673860549927, -0.08964195102453232, 0.08416251093149185, -0.08511345833539963, -0.07221738994121552, -0.3009537160396576, 0.059439510107040405, 0.34183618426322937, 0.03325141966342926, -0.034505560994148254, -0.03636027127504349, -0.002317211590707302, 0.0030769999139010906, -0.12596236169338226, 0.09045358002185822, -0.004301578737795353, -0.13174079358577728, -0.27004003524780273, -0.05458969250321388, 0.2653849720954895, 0.1767529845237732, -0.05052696168422699, 0.081536203622818, -0.07731277495622635, -0.06094900891184807, 0.0359322763979435, 0.2076118290424347, 0.042778704315423965, -0.24781091511249542, -0.04460013657808304, -0.05453479662537575, -0.12745806574821472, -0.12519323825836182, -0.050859637558460236, -0.4628487229347229, -0.17779165506362915, 0.12734955549240112, -0.10249646753072739, -0.08687260001897812, -0.09877703338861465, 0.47183993458747864, -0.02975309081375599, -0.10679440200328827, 0.35797038674354553, -0.02380804531276226, -0.11631287634372711, -0.2554387152194977, -0.15457621216773987, -0.2686176300048828, 0.24790939688682556, 0.35314682126045227, 0.0662018284201622, 0.16024534404277802, 0.20643897354602814, -0.10488109290599823, 0.11861969530582428, 0.17235828936100006, 0.04400060698390007, 0.4514644145965576, 0.26930731534957886, -0.04205533117055893, -0.04019198939204216, -0.3167197108268738, 0.331201434135437, -0.06119031831622124, -0.25831541419029236, -0.032353442162275314, -0.2633427083492279, -0.4181228280067444, 0.28826379776000977, -0.20632976293563843, 0.15945564210414886, -0.12141036242246628, 0.0667593777179718, 0.11500298231840134, -0.01318909041583538, 0.1852690726518631, 0.2987304925918579, 0.027481138706207275, 0.22437742352485657, 0.024948973208665848, 0.2826433777809143, 0.0789463222026825, -0.1408003717660904, -0.050191156566143036, -0.03922796621918678, -0.13019238412380219, -0.2549574077129364, -0.1462949514389038, -0.17498214542865753, -0.12679462134838104, -0.0308972280472517, 0.09208770841360092, 0.25707724690437317, -0.0006544244824908674, -0.06302785128355026, 0.06970775872468948, -0.0945904552936554, -0.022586865350604057, 0.09552028030157089, -0.03920270875096321, 0.015085328370332718, 0.38739877939224243, -0.19671949744224548, 0.12177328765392303, 0.2143695056438446, -0.095220647752285, 0.06563017517328262, 0.1930248737335205, 0.14767122268676758, 0.15830832719802856, -0.37730899453163147, 0.3975920081138611, 0.33444660902023315, -0.038846250623464584, 0.2518412172794342, 0.0736718475818634, -0.23866963386535645, -0.14146338403224945, -0.17112530767917633, 0.28354838490486145, 0.15267735719680786, -0.07307306677103043, 0.01165436115115881, -0.10805059224367142, -0.06958191096782684, 0.10112437605857849, 0.05212841182947159, -0.032093387097120285, 0.06207368150353432, -0.08085072040557861, 0.13498802483081818, 0.09787535667419434, 0.20888200402259827, 0.17020682990550995, -0.09043382108211517, -0.30135419964790344, -0.2325693964958191, 0.3285779654979706, -0.04111454263329506, -0.2738785147666931, 0.028441431000828743, -0.1749027818441391, -0.1532617062330246, -0.18497243523597717, -0.10787305980920792, 0.110113225877285, 0.04993545636534691, -0.1455504298210144, 0.22219018638134003, -0.00591430114582181, -0.06168895214796066, -0.03256732597947121, -0.059898048639297485, -0.021340031176805496, 0.156533345580101, 0.09570033103227615, 0.1511617749929428, 0.00984239298850298, 0.1618623435497284, 0.17413263022899628, 0.42523083090782166, 0.28338441252708435, 0.08685155212879181, 0.043485045433044434, -0.045365698635578156, -0.03020518831908703, -0.22409184277057648, -0.18920566141605377, -0.11824735254049301, -0.21843409538269043, 0.10055114328861237, 0.02593720145523548, 0.2218901813030243, 0.07350597530603409, 0.4053703546524048, 0.456587016582489, -0.054128341376781464, 0.0010957170743495226, 0.18670068681240082, 0.13747842609882355, -0.11990433186292648, 0.07361801713705063, -0.036257363855838776, -0.1750478446483612, -0.14015088975429535, -0.4337431490421295, 0.18110956251621246, 0.12572164833545685, -0.12287916243076324, -0.034438230097293854, 0.05534354969859123, -0.22852091491222382, 0.1390882283449173, 0.061069127172231674, 0.16342492401599884, -0.19009864330291748, 0.43462541699409485, 0.06607820093631744, 0.10491131246089935, 0.25043052434921265, -0.09653327614068985, -0.18797114491462708, 0.2760585844516754, 0.16180512309074402, -0.05395805835723877, -0.2622140049934387, -0.1422044336795807, 0.003542740596458316, 0.16769035160541534, -0.42249760031700134, 0.18993748724460602, -0.3918082118034363, -0.15619497001171112, -0.08474065363407135, -0.007088278885930777, 0.06722789257764816, 0.008847713470458984, 0.07784496992826462, 0.2553309202194214, -0.11645779013633728, 0.255455881357193, -0.04068874567747116, -0.11602650582790375, 0.11372817307710648, 0.1250486969947815, -0.31084200739860535, 0.15647946298122406, -0.17667560279369354, -0.14790168404579163, 0.25025489926338196, -0.14020365476608276, 0.08522729575634003, 0.044651664793491364, 0.18246054649353027, 0.16767847537994385, -0.00047872765571810305, 0.1723122000694275, 0.18078774213790894, 0.4717973470687866, -0.08342424780130386, 0.18401244282722473, -0.1649712324142456, 0.13559503853321075, 0.01568540185689926, 0.13033851981163025, -0.07469519227743149, -0.07999850809574127, 0.1705687940120697, 0.030492635443806648, -0.1149265244603157, 0.07625839859247208, -0.01668105274438858, -0.13610079884529114, -0.49001917243003845, 0.2868272662162781, 0.47341519594192505, -0.6605932116508484, 0.022597752511501312, -0.839775800704956, -0.46572428941726685, -0.5172610878944397, 0.42653658986091614, -1.1179734468460083, -0.5587161779403687, -0.8982215523719788, 0.40987271070480347, -1.0682787895202637, 0.276241272687912, -0.6038257479667664, -0.25705620646476746, -0.22073610126972198, 0.04090700298547745, 0.11481951177120209, 0.2382163405418396, 0.19624437391757965, -0.3273313343524933, -0.24753190577030182, 0.0859149917960167, -0.10098467767238617, 0.2604773938655853, -0.06873743236064911, 0.2843466103076935, -0.08876744657754898, -0.07093245536088943, 0.18964830040931702, 0.07270102947950363, -0.25315403938293457, -0.17088550329208374, -0.00418844074010849, -0.23054473102092743, 0.3970513343811035, -0.1641051173210144, -0.21362121403217316, 0.23276692628860474, -0.26547473669052124, 0.4088318645954132, 0.1679016500711441, 0.17232705652713776, 0.09727349877357483, -0.04047549143433571, 0.2236684411764145, -0.24317075312137604, -0.17782528698444366, -0.0014146663015708327, 0.4898836314678192, 0.08255090564489365, 0.165903240442276, 0.020991522818803787, 0.12501174211502075, -0.1647624671459198, -0.14773669838905334, -0.09551266580820084, -0.25029268860816956, -0.0364585816860199, 0.28618475794792175, 0.05070960149168968, 0.0304179098457098, 0.05246027931571007, 0.11756344884634018, -0.15610626339912415, -0.027117222547531128, -0.2844933271408081, -0.09787473827600479, -0.2457103580236435, 0.0032830368727445602, -0.2414775937795639, 0.11554566770792007, 0.1718910187482834, 0.19191284477710724, 0.11744149029254913, -0.1836174726486206, -0.13509134948253632, 0.15831024944782257, 0.1814039796590805, -0.06525163352489471, -0.0845961794257164, -0.023115182295441628, 0.053769271820783615, -0.09676425158977509, -0.2675342857837677, 0.2112378031015396, 0.10493958741426468, -0.09256914258003235, -0.0932731181383133, 0.23728202283382416, -0.15346162021160126, -0.13257452845573425, -0.22618408501148224, -0.1200142651796341, -0.4225442707538605, -0.06405565142631531, -0.35769468545913696, -0.2796383202075958, 0.0611758753657341, 0.012506936676800251, 0.09909112006425858, -0.3509348928928375, 0.3525097072124481, 0.2159617394208908, -0.16636765003204346, -0.03985127434134483, -0.2650293707847595, -0.1967039704322815, 0.11177686601877213, -0.23961836099624634, 0.19129429757595062, -0.20462502539157867, 0.1409083604812622, -0.36464861035346985, 0.10436613857746124, 0.46878740191459656, -0.3594783544540405, 0.061653755605220795, 0.21112412214279175, 0.15415267646312714, -0.11756116151809692, 0.3333340287208557, 0.10428053885698318, -0.0001404252980137244, 0.034077826887369156, 0.39762651920318604, 0.3604360520839691, 0.16339948773384094, 0.06134539097547531, 0.007877959869801998, -0.006296643987298012, -0.09115864336490631, -0.03479023277759552, 0.2952199876308441, -0.2692332863807678, 0.35000136494636536, -0.24658817052841187, 0.20194049179553986, -0.19461920857429504, 0.070167675614357, -0.07639123499393463, 0.017245693132281303, -0.06599237769842148, 0.13668181002140045, -0.20617161691188812, 0.06501396000385284, -0.08314628154039383, -0.20641325414180756, 0.28832218050956726, -0.22842760384082794, 0.01726711355149746, -0.2500951290130615, 0.3931085765361786, -0.02275056578218937, -0.11295320093631744, 0.24649956822395325, -0.12542574107646942, -0.005555651616305113, -0.17732274532318115, 0.0787016749382019, -0.04328325390815735, -0.14469324052333832, 0.09689383953809738, 0.03061011992394924, 0.0645463690161705, -0.3353624641895294, 0.26930373907089233, -0.044135842472314835, 0.15284690260887146, 0.20954379439353943, 0.02214588038623333, -0.18237297236919403, 0.20578019320964813, -0.26836124062538147, -0.17421934008598328, -0.08014416694641113, -0.3041439354419708, 0.23397381603717804, -0.20733091235160828, -0.07810872048139572, 0.09615666419267654, 0.15157687664031982, 0.3096662163734436, 0.2324216067790985, -0.15070438385009766, 0.08757862448692322, 0.10931232571601868, 0.3086988627910614, 0.06711438298225403, 0.08234042674303055, 0.12767371535301208, 0.23613804578781128, -0.15867573022842407, -0.1276831030845642, -0.09305201470851898, -0.5036590099334717, -0.013899574056267738, 0.19360604882240295, -0.32112956047058105, 0.038649268448352814, 0.043497804552316666, 0.02237635664641857, 0.035968419164419174, -0.19012975692749023, -0.14160245656967163, -0.11984729021787643, -0.1788025200366974, -0.3562459945678711, -0.3680221438407898, 0.11765043437480927, 0.11137045174837112, -0.13414745032787323, -0.5530423521995544, 0.23368802666664124, -0.39700332283973694, -0.2571539282798767, -0.0058341738767921925, 0.03554832935333252, 0.28358763456344604, -0.4497140645980835, -0.1977149248123169, -0.03269912675023079, 0.11862368881702423, -0.08636969327926636, -0.3066449463367462, 0.36752092838287354, -0.5198598504066467, -0.04954913631081581, 0.05689940229058266, 0.14481301605701447, 0.0770321637392044, 0.18046307563781738, 0.18036848306655884, 0.03355218097567558, 0.3639174997806549, 0.12914352118968964, 0.0801507756114006, -0.06858626008033752, -0.19207201898097992, 0.24999381601810455, 0.08942701667547226, 0.008913513273000717, -0.31988954544067383, -0.3956480622291565, 0.40506404638290405, -0.01027443166822195, 0.049974747002124786, -0.10764586925506592, -0.491712361574173, -0.1919063776731491, -0.3061230480670929, 0.23327887058258057, 0.11131565272808075, 0.1414254903793335, 0.22186951339244843, -0.3767331540584564, 0.23517589271068573, 0.058746904134750366, -0.2436516284942627, -0.019908230751752853, -0.3660285472869873, 0.17393724620342255, -0.18618004024028778, -0.10171504318714142, 0.17896361649036407, 0.08582045137882233, -0.09098445624113083, 0.5311965942382812, -0.2623717784881592, 0.10180825740098953, -0.06469424068927765, -0.011297381483018398, -0.08934508264064789, -0.15576773881912231, -0.3132422864437103, -0.07609991729259491, 0.12161455303430557, 0.27866658568382263, -0.12623658776283264, -0.07614284753799438, 0.10879765450954437, -0.23830606043338776, 0.05428364872932434, -0.31880006194114685, -0.11404193192720413, -0.12913906574249268, 0.16968883574008942, -0.40938371419906616, 0.021375317126512527, 0.23777897655963898, -0.42794930934906006, -0.0073591866530478, 0.09512083977460861, -0.06306280195713043, -0.057552531361579895, -0.10111517459154129, -0.04450425133109093, -0.05435081571340561, 0.05007702857255936, 0.17997561395168304, -0.13220228254795074, 0.06790316849946976, 0.07398729771375656, -0.02770119346678257, -0.33896777033805847, -0.3678818345069885, -0.024161458015441895, -0.2264915108680725, 0.1418999433517456, -0.21398207545280457, 0.06372294574975967, 0.1572662889957428, 0.10210802406072617, 0.11477009952068329, 0.10573291778564453, -0.05882776528596878, -0.22255077958106995, -0.06331907212734222, -0.09873339533805847, -0.32138460874557495, 0.31741029024124146, 0.06283800303936005, 0.10937826335430145, -0.14970572292804718, 0.09000690281391144, 0.13701336085796356, 0.05967428535223007, 0.02447722852230072, 0.09755632281303406, 0.5339855551719666, -0.23313255608081818, -0.10102915018796921, -0.0020257525611668825, -0.022631846368312836, -0.14996366202831268, 0.12448441237211227, 0.12813858687877655, -0.12742382287979126, 0.3716473877429962, -0.17456622421741486, 0.03300567343831062, 0.1382385492324829, 0.2560826539993286, 0.059430357068777084, 0.2972091734409332, -0.169430211186409, 0.41263073682785034, 0.20202934741973877, -0.004174051806330681, 0.003566478844732046, 0.00820063054561615, -0.061502862721681595, 0.277178555727005, 0.247359961271286, 0.371588796377182, 0.11790210008621216, -0.16988129913806915, -0.03185519203543663, -0.23823384940624237, -0.13896432518959045, -0.30950862169265747, 0.27219295501708984, 0.203883096575737, 0.03152592480182648, 0.15200446546077728, 0.05208410322666168, 0.18756547570228577, -0.5880662798881531, -0.4423069655895233, -0.07966706156730652, -0.2242736965417862, 0.26635071635246277, 0.03793524205684662, -0.0847826898097992, -0.007350843865424395, 0.027615966275334358, 0.11712761968374252, -0.15753649175167084, 0.1700073778629303, 0.4998379349708557, 0.3679635226726532, -0.051178593188524246, 0.5453137755393982, -0.2626301050186157, -0.06511672586202621, 0.18361659348011017, 0.003954898100346327, -0.11545763164758682, 0.18161901831626892, 0.2599640190601349, -0.03403502702713013, -0.10972084105014801, 0.011477859690785408, -0.14306847751140594, -0.10662443190813065, -0.10585948079824448, -0.09834708273410797, -0.008936244994401932, 0.09933269023895264, 0.09808817505836487, -0.16981850564479828, -0.09800685197114944, 0.03817032277584076, -0.23299048840999603, 0.0541764497756958, 0.10024693608283997, 0.23498068749904633, 0.02372964657843113, 0.07979948818683624, -0.13481944799423218, -0.06447459012269974, -0.1672869771718979, -0.001339003792963922, 0.24030016362667084, 0.01205067615956068, 0.27087175846099854, 0.22212982177734375, 0.19204258918762207, 0.4644549489021301, 0.1279066801071167, -0.1036531999707222, 0.01712241768836975, 0.14892956614494324, 0.12726666033267975, -0.16672831773757935, 0.10671774297952652, -0.09701068699359894, -0.11555860936641693, -0.15708668529987335, 0.3352525234222412, -0.10752934962511063, -0.14894118905067444, 0.1836693435907364, -0.026155050843954086, 0.20049718022346497, -0.030780339613556862, 0.12420427799224854, 0.12689843773841858, -0.1027274876832962, 0.39820852875709534, -0.1255635768175125, -0.001708208117634058, 0.01882176101207733, -0.07589329034090042, -0.017074471339583397, -0.1998758763074875, -0.012309767305850983, 0.20162545144557953, 0.22583609819412231, -0.02635091356933117, -0.05514514446258545, -0.12088162451982498, -0.011019974946975708, 0.24747739732265472, 0.1641230285167694, 0.042928457260131836, -0.013563397340476513, -0.1428924947977066, -0.16572438180446625, -0.13247083127498627, 0.0831579640507698, 0.12937451899051666, 0.07819448411464691, 0.04259867966175079, -0.03243099898099899, -0.06728194653987885, 0.07269208878278732, -0.003775212913751602, -0.07968761771917343, 0.04333234578371048, 0.06957747787237167, 0.14131897687911987, -0.1016635000705719, -0.2595207989215851, 0.18131867051124573, -0.12873904407024384, -0.0030117067508399487, -0.01038087997585535, -0.09691081941127777, -0.18729501962661743, -0.10972849279642105, -0.17425167560577393, 0.005905198398977518, 0.20626042783260345, 0.034562818706035614, 0.064445361495018, 0.09461060166358948, -0.04044380411505699, 0.07524330914020538, -0.1270134001970291, -0.08496521413326263, 0.0571545846760273, -0.06410838663578033, 0.05425097420811653, 0.13149233162403107, -0.11229413002729416, -0.44224005937576294, -0.27374231815338135, 0.16636008024215698, 0.06301596015691757, -0.020123155787587166, -0.14542758464813232, -0.04432860389351845, -0.1545332968235016, 0.2768111228942871, 0.20657365024089813, 0.1927022486925125, -0.06750550866127014, -0.24126330018043518, -0.14920882880687714, 0.2212507575750351, 0.03984669968485832, 0.13121744990348816, 0.049296390265226364, -0.21318143606185913, -0.02633371204137802, 0.14578299224376678, -0.1769193857908249, -0.1721460223197937, 0.3416605293750763, 0.2671150863170624, 0.06462224572896957, 0.07414606958627701, 0.35833433270454407, -0.11578595638275146, -0.34174835681915283, 0.40514132380485535, -0.14582723379135132, -0.2151976227760315, 0.18471284210681915, 0.07864288240671158, -0.22646844387054443, -0.011435187421739101, -0.035323336720466614, -0.2533624768257141, 0.10911614447832108, -0.18153659999370575, 0.09915285557508469, -0.11869844049215317, -0.052525535225868225, 0.008471374399960041, -0.2531381845474243, -0.0645497515797615, 0.22276528179645538, 0.052962735295295715, 0.18040348589420319, 0.26132017374038696, -0.18951942026615143, -0.1881033331155777, 0.28584155440330505, 0.17429916560649872, 0.07535547763109207, -0.3370654284954071, -0.20348244905471802, -0.13934780657291412, 0.06159325689077377, 0.15198065340518951, 0.2178450971841812, -0.12906420230865479, -0.17753265798091888, 0.024907877668738365, 0.10598818957805634, 0.18685303628444672, 0.029472414404153824, -0.23050393164157867, -0.062271106988191605, 0.183929905295372, -0.15844875574111938, -0.0027037346735596657, 0.002252310048788786, -0.14774160087108612, 0.07062014192342758, -0.12729577720165253, -0.12013830244541168, -0.1165316104888916, -0.17107310891151428, -0.2033797800540924, 0.2560892403125763, -0.21177741885185242, -0.0966290682554245, 0.23965224623680115, -0.1786971092224121, -0.1296185404062271, 0.05510010942816734, 0.12766681611537933, -0.06230727210640907, 0.198032945394516, -0.10737927258014679, -0.07187692821025848, -0.1761607676744461, 0.055657848715782166, 0.08719917386770248, -0.12265242636203766, 0.00038873442099429667, 0.05289209261536598, -0.05778715759515762, 0.11775538325309753, -0.10466160625219345, 0.012197144329547882, -0.07802754640579224, 0.16392336785793304, -0.06318681687116623, 0.12318353354930878, -0.06335578858852386, -0.07647472620010376, -0.03897107020020485, -0.11419593542814255, -0.03367149457335472, -0.08804742991924286, -0.017584411427378654, -0.013695464469492435, -0.09229086339473724, 0.1271742880344391, 0.09646175056695938, -0.1856192648410797, -0.05492468178272247, -0.20868244767189026, 0.17066967487335205, -0.1811469942331314, 0.23598936200141907, -0.07420508563518524, -0.07744985073804855, -0.060193054378032684, 0.29228976368904114, -0.16557829082012177, -0.0006201076321303844, 0.1468896120786667, 0.04473035782575607, -0.23644088208675385, 0.014524266123771667, 0.02651485614478588, -0.5101138949394226, -0.13087177276611328, -0.029990486800670624, -0.23763170838356018, -0.05735205486416817, -0.03653928264975548, -0.023611905053257942, 0.03498699888586998, -0.01344594731926918, -0.6107193231582642, -0.027998311445116997, 0.016054915264248848, -0.15241754055023193, -0.028641050681471825, -0.030089883133769035, 0.11686045676469803, 0.12120944261550903, -0.055080097168684006, -0.054827865213155746, 0.1401480883359909, -0.09230159968137741, -0.04538097605109215, -0.3465096354484558, 0.11741634458303452, 0.40345194935798645, -0.19962243735790253, -0.06833131611347198, -0.18404890596866608, -0.0450054407119751, 0.01860620826482773, -0.28607529401779175, -0.3081930875778198, 0.10676160454750061, -0.0009945828933268785, -0.24213574826717377, 0.1604429930448532, -0.03758572041988373, -0.10694172978401184, 0.1254311501979828, 0.025830548256635666, -0.36159348487854004, -0.27338171005249023, 0.1680288016796112, -0.5734261870384216, -0.007189124822616577, 0.10020928084850311, 0.3705604374408722, -0.09361086040735245, 0.3671550452709198, 0.25692638754844666, 0.04520958662033081, 0.14462724328041077, 0.19139085710048676, 0.02393808402121067, 0.0009973653359338641, 0.04215184599161148, -0.15114158391952515, 0.33549028635025024, -0.09426986426115036, -0.08442533761262894, -0.009463567286729813, -0.005856117699295282, 0.07142307609319687, 0.022172370925545692, -0.18822239339351654, 0.017615195363759995, 0.002319743623957038, 0.10840544104576111, 0.01263461634516716, 0.024274714291095734, -0.004779017996042967, -0.07734415680170059, 0.08727309107780457, 0.2689777910709381, 0.09607575088739395, 0.11015651375055313, 0.27793949842453003, 0.005375976674258709, -0.13941901922225952, -0.20789770781993866, 0.11808943003416061, 0.09969142079353333, 0.5891500115394592, 0.001521204481832683, 0.19978003203868866, 0.1523343324661255, 0.10697275400161743, -0.09312406927347183, -0.1899549663066864, -0.35173162817955017, -0.059860795736312866, 0.044009171426296234, 0.13422688841819763, -0.1088704839348793, -0.1368674784898758, 0.13028086721897125, -0.1925952136516571, -0.3103000223636627, -0.34264257550239563, -0.1010948121547699, -0.026723230257630348, 0.02996453084051609, 0.13327355682849884, -0.04000430926680565, -0.06822772324085236, -0.19111204147338867, -0.527817964553833, -0.18418410420417786, 0.10047049820423126, -0.02616131491959095, -0.13655109703540802, -0.06137421354651451, -0.1394207626581192, 0.170101597905159, 0.20626403391361237, 0.019019044935703278, -0.09829902648925781, 0.058011773973703384, 0.013682950288057327, 0.005285595543682575, -0.010552182793617249, -0.08493334800004959, -0.15821419656276703, 0.036715779453516006, -0.06045867130160332, 0.046492986381053925, 0.07222653180360794, -0.230049729347229, 0.1129162535071373, -0.1058097556233406, 0.6429105997085571, -0.07197941839694977, -0.10994789749383926, -0.2952878773212433, -0.36904504895210266, 0.3724368214607239, -0.10169430077075958, 0.09808845072984695, 0.12829802930355072, 0.20284831523895264, 0.22398851811885834, 0.060533616691827774, 0.014025953598320484, -0.12087222933769226, -0.21671803295612335, 0.0477420911192894, -0.04114065691828728, -0.015181385912001133, -0.08158933371305466, 0.08065325021743774, -0.04336579144001007, -0.004398834891617298, 0.07063892483711243, -0.14202018082141876, -0.051219239830970764, -0.05477949604392052, -0.09415251016616821, 0.055731236934661865, 0.0779133141040802, 0.07970505207777023, 0.15896636247634888, -0.10379467159509659, -0.01633008010685444, -0.05780191719532013, 0.11828470975160599, 0.0522935651242733, 0.06641336530447006, -0.06541185826063156, -0.33987322449684143, -0.2647832930088043, -0.22959904372692108, 0.06909781694412231, 0.054808858782052994, -0.07894132286310196, 0.05421731248497963, -0.07945919781923294, -0.21079809963703156, -0.1839451938867569, 0.014805872924625874, -0.30358970165252686, -0.24910755455493927, -0.12348885089159012, -0.055317603051662445, -0.16953018307685852, -0.1722123771905899, 0.10202302038669586, 0.03779623284935951, -0.2493973970413208, 0.02141483873128891, -0.07626920938491821, 0.049374256283044815, 0.15264815092086792, -0.23088359832763672, -0.14999540150165558, 0.16047728061676025, -0.014581127092242241, -0.10594679415225983, -0.14149653911590576, -0.009958854876458645, 0.11092361062765121, -0.0659441277384758, -0.013510601595044136, 0.20620979368686676, 0.14533276855945587, 0.20059329271316528, 0.024732088670134544, -0.21874786913394928, -0.14378993213176727, -0.10823870450258255, -0.05239509791135788, -0.13401424884796143, 0.056700631976127625, -0.18124166131019592, 0.1610756814479828, -0.17174306511878967, -0.16309301555156708, 0.07147213816642761, -0.11237536370754242, 0.14595746994018555, -0.07477877289056778, -0.09490152448415756, 0.12383904308080673, -0.01773037761449814, -0.07832410931587219, 0.06206861510872841, 0.21246373653411865, 0.0178095493465662, -0.01067177765071392, -0.04111054539680481, -0.28190287947654724, -0.13315021991729736, -0.312517374753952, 0.2942306399345398, 0.44774720072746277, 0.013036930002272129, 0.07118718326091766, -0.05223168432712555, -0.3925771713256836, -0.03795769810676575, -0.034674108028411865, -0.11811122298240662, 0.3279579281806946, 0.06407333165407181, 0.124177947640419, -0.008267863653600216, 0.2615658938884735, -0.04387814179062843, -0.10504470765590668, 0.10099592059850693, 0.07146596163511276, 0.22655285894870758, -0.14351731538772583, 0.25468796491622925, -0.18015077710151672, -0.07741165906190872, -0.04048226773738861, -0.18771986663341522, 0.030803009867668152, -0.18230576813220978, 0.009178449399769306, 0.076921746134758, 0.0407526008784771, -0.11404898762702942, 0.020590441301465034, 0.17238003015518188, -0.10106775909662247, 0.14256511628627777, -0.21632853150367737, 0.15743900835514069, 0.10435428470373154, -0.12703560292720795, -0.030429916456341743, 0.22529922425746918, 0.039575185626745224, -0.25822019577026367, -0.045682311058044434, 0.1838405281305313, 0.0855880081653595, -0.014541393145918846, -0.05739821493625641, -0.5277984738349915, 0.41596731543540955, -0.08766185492277145, -0.029002921655774117, 0.27868732810020447, 0.1176239475607872, 0.18793722987174988, -0.1064540445804596, -0.3038763701915741, 0.1779858022928238, 0.21181067824363708, -0.18320833146572113, 0.08513015508651733, 0.16180992126464844, 0.026625167578458786, -0.29207178950309753, -0.22087258100509644, -0.10532671213150024, 0.11388827860355377, 0.1308305561542511, 0.19727882742881775, 0.06590911000967026, -0.31066733598709106, -0.09470656514167786, 0.013108517043292522, 0.008257479406893253, 0.06630363315343857, -0.29973238706588745, 0.14530940353870392, 0.00357396830804646, 0.23278990387916565, -0.2442447990179062, -0.2038469761610031, 0.1120733916759491, -0.3950202763080597, -0.377851665019989, 0.08592655509710312, 0.10722888261079788, -0.021031636744737625, 0.24468091130256653, -0.22530022263526917, 0.07176214456558228, 0.32710564136505127, 0.05218014493584633, -0.06955724209547043, 0.3437321186065674, -0.10009084641933441, -0.13303616642951965, 0.21910429000854492, -0.044521231204271317, -0.17525222897529602, 0.018587470054626465, -0.24145454168319702, -0.08371535688638687, -0.07434703409671783, 0.34657400846481323, -0.5354440212249756, 0.16142724454402924, 0.2992873787879944, -0.32233646512031555, -0.2933664321899414, -0.29929909110069275, 0.07594936341047287, -0.355438232421875, -0.2786897122859955, -0.42264318466186523, 0.01253539975732565, 0.05531170591711998, 0.22749848663806915, 0.11683163046836853, 0.37690600752830505, 0.22464008629322052, 0.12803640961647034, 0.1260397583246231, 0.05699249729514122, -0.13102348148822784, -0.12250135838985443, -0.30997398495674133, -0.06442227959632874, 0.0774117112159729, 0.07484254240989685, -0.23613977432250977, -0.31178292632102966, -0.1920154094696045, -0.2296208292245865, -0.09904395788908005, -0.17109087109565735, -0.12817765772342682, 0.020496491342782974, -0.12312117218971252, 0.030819738283753395, 0.1943429559469223, -0.10185869038105011, 0.23140349984169006, -0.03443847969174385, -0.06948975473642349, 0.06162358075380325, 0.035747312009334564, -0.025831347331404686, -0.09750362485647202, 0.2553750276565552, -0.2638234794139862, -0.02865390107035637, 0.41173961758613586, -0.21098433434963226, 0.09060549736022949, 0.05338968336582184, 0.13587386906147003, 0.12866361439228058, 0.017361551523208618, 0.229409322142601, 0.004590385127812624, -0.3109232783317566, -0.05906858667731285, 0.028520775958895683, -0.1851593255996704, 0.1647225171327591, 0.17373040318489075, -0.08102784305810928, -0.11698684841394424, -0.14212408661842346, 0.2215072512626648, 0.06922659277915955, 0.09362129867076874, -0.1777721494436264, -0.2320452481508255, -0.2686688005924225, 0.33083149790763855, -0.231107696890831, 0.24638468027114868, 0.022413508966565132, -0.17195910215377808, 0.04706989973783493, -0.045393288135528564, -0.1476464718580246, -0.05129997059702873, 0.2027621865272522, 0.17685262858867645, 0.04813740402460098, 0.5152548551559448, -0.06255196779966354, -0.03129573538899422, 0.24015413224697113, 0.1459973156452179, -0.17074915766716003, 0.11650912463665009, 0.04047587886452675, 0.016905590891838074, 0.1391880363225937, 0.023958904668688774, -0.09556901454925537, 0.058153778314590454, 0.08503469079732895, 0.10909103602170944, 0.08337268978357315, -0.21764805912971497, 0.07627393305301666, 0.38906338810920715, -0.033851057291030884, -0.42690739035606384, -0.7557905316352844, 0.960509181022644, 0.45624732971191406, -0.7634477019309998, 0.22496742010116577, -0.35463038086891174, -0.06679950654506683, 0.5401410460472107, -0.8671108484268188, 1.2865620851516724, 0.47558102011680603, -0.14345534145832062, -0.6680042147636414, 0.05283572897315025, -0.8906095623970032, 0.4624931514263153, -0.21127963066101074, 0.11411634087562561, -0.2269321233034134, 0.0986776277422905, 0.15091656148433685, 0.39083394408226013, -0.05414353683590889, 0.5694370865821838, 0.12559789419174194, 0.11808101832866669, 0.26536303758621216, -0.3556344509124756, -0.021587317809462547, -0.2672152519226074, -0.18314316868782043, 0.23528487980365753, -0.16094550490379333, 0.04558487981557846, 0.23730874061584473, 0.15680061280727386, 0.06083626300096512, 0.10140926390886307, -0.2751086354255676, -0.09480644017457962, 0.16953682899475098, 0.21852664649486542, -0.361715167760849, 0.11907172203063965, 0.2796778976917267, -0.2107783704996109, -0.1400400847196579, -0.2926032841205597, -0.0451715849339962, 0.1529194861650467, -0.10633967071771622, -0.03368288278579712, -0.09421218931674957, -0.11828286945819855, -0.057933323085308075, -0.025718603283166885, -0.025592824444174767, -0.11511870473623276, 0.22492438554763794, 0.3519955277442932, -0.053774524480104446, 0.004906711634248495, 0.1120036169886589, 0.41299769282341003, -0.15303316712379456, 0.20620335638523102, -0.02719702571630478, 0.050483934581279755, -0.05636834353208542, -0.11585202068090439, 0.38562536239624023, 0.24351747334003448, 0.2987074553966522, 0.19493140280246735, 0.2340412139892578, -0.03768334165215492, 0.09484196454286575, 0.017613103613257408, 0.06920622289180756, 0.2436397522687912, -0.42206424474716187, 0.2901048958301544, -0.11771641671657562, 0.03974614292383194, -0.15095628798007965, 0.3265374004840851, -0.05271484702825546, 0.22843581438064575, -0.0683060958981514, -0.3025411069393158, 0.07613944262266159, -0.14679734408855438, 0.02096172608435154, 0.19721290469169617, -0.020939791575074196, -0.14306972920894623, -0.17486654222011566, 0.06427064538002014, -0.20811894536018372, 0.0731353685259819, 0.04957091063261032, 0.3022202253341675, 0.27291521430015564, -0.3529549837112427, -0.21645939350128174, -0.07769899070262909, 0.011515135876834393, 0.25096115469932556, 0.02249649539589882, 0.3389493525028229, 0.04152154177427292, -0.0313420295715332, -0.01487741619348526, -0.06747066229581833, 0.06112093850970268, 0.2237473428249359, -0.19934125244617462, -0.13367098569869995, 0.2941489815711975, -0.40281224250793457, 0.18909379839897156, 0.22677889466285706, -0.21685007214546204, -0.06342289596796036, 0.2595144212245941, 0.11578185111284256, 0.17235571146011353, 0.27835506200790405, 0.22266021370887756, -0.3630068004131317, -0.40986597537994385, 0.21582819521427155, -0.20712809264659882, 0.010149138979613781, -0.2444297820329666, 0.2834548056125641, 0.12843057513237, -0.1690899282693863, 0.5370862483978271, -0.19157248735427856, 0.23465585708618164, -0.1545114368200302, 0.08605123311281204, -0.0733456090092659, 0.09361416101455688, 0.07094317674636841, 0.4052048623561859, 0.004514720290899277, 0.11050596088171005, -0.11501871794462204, 0.07906587421894073, -0.007387708406895399, 0.08813638985157013, -0.029913073405623436, 0.12463304400444031, -0.15095722675323486, -0.01132035069167614, 0.1350174993276596, -0.0910198986530304, 0.15637846291065216, -0.24509583413600922, -0.07824927568435669, 0.1291854977607727, 0.13312990963459015, 0.3487306237220764, -0.13954462110996246, -0.03758426383137703, -0.014082441106438637, 0.015245040878653526, 0.06998084485530853, -0.12248481065034866, 0.10935135185718536, 0.07932239025831223, 0.3763006925582886, -0.15831199288368225, 0.2099149227142334, -0.1205129623413086, -0.17147307097911835, -0.1650846004486084, 0.34266287088394165, -0.42425256967544556, 0.09342638403177261, -0.13385573029518127, 0.3083239495754242, 0.3210464417934418, -0.3511630594730377, 0.20249415934085846, -0.10644267499446869, 3.952929182560183e-05, -0.03346093371510506, 0.4771910309791565, -0.3538074493408203, 0.11431939154863358, -0.12375994026660919, 0.009763060137629509, -0.2785712778568268, 0.1750432848930359, -0.06265248358249664, 0.1087486743927002, -0.1917649209499359, -0.07966123521327972, -0.09538089483976364, 0.16323807835578918, -0.340457022190094, -0.7963258028030396, -0.0547909252345562, 0.22128847241401672, -0.19157113134860992, -0.10179074108600616, -0.18919655680656433, -0.2414902299642563, 0.017655272036790848, -0.029397502541542053, -0.10010987520217896, -0.10765309631824493, 0.028033694252371788, -0.24022185802459717, -0.06243645027279854, -0.14215068519115448, 0.03344249352812767, 0.30328285694122314, -0.044617123901844025, -0.024601805955171585, 0.01045658253133297, 0.1697685420513153, -0.21313528716564178, 0.09645223617553711, -0.20355072617530823, -0.1509672999382019, 0.3206463158130646, -0.21462415158748627, 0.1855461597442627, 0.11014112830162048, 0.11729630082845688, -0.3058964014053345, -0.30209964513778687, 0.08420440554618835, -0.2546645700931549, 0.08474311232566833, 0.23321214318275452, 0.13084913790225983, 0.08125409483909607, 0.10231892764568329, -0.22581495344638824, 0.1924198865890503, 0.07113485783338547, -0.30413520336151123, 0.2879534363746643, 0.24745787680149078, 0.12078169733285904, 0.21718233823776245, -0.21286875009536743, 0.10748178511857986, -0.06162915751338005, -0.29185011982917786, 0.1305607259273529, -0.26845017075538635, 0.043640751391649246, -0.4640198349952698, -0.2681104242801666, -0.1539681851863861, -0.19511064887046814, -0.32576438784599304, -0.2205229550600052, 0.256350040435791, 0.3957824409008026, 0.07972393184900284, -0.09373927861452103, 0.0169808492064476, -0.24204625189304352, 0.21144011616706848, -0.025651508942246437, -0.028368216007947922, 0.05401008576154709, -0.011547640897333622, -0.28414610028266907, -0.0003207894042134285, 0.05500715225934982, 0.316460520029068, -0.5052921772003174, -0.21153798699378967, 0.11481272429227829, -0.004764396697282791, 0.1858801543712616, 0.21602272987365723, 0.07303231209516525, 0.01159693393856287, 0.07606218755245209, 0.30309852957725525, -0.24695241451263428, 0.03756624087691307, 0.07262488454580307, 0.0041573201306164265, 0.21143046021461487, -0.04360619932413101, 0.04139174893498421, 0.027274342253804207, 0.3320600092411041, 0.19642919301986694, -0.12093263864517212, -0.1574474275112152, -0.23690958321094513, -0.06855010986328125, -0.11984720826148987, 0.10045821219682693, 0.18930630385875702, -0.007747734896838665, -0.2470107525587082, -0.21441763639450073, 0.09689097106456757, 0.17088454961776733, 0.10047920793294907, -0.10014048218727112, -0.09224642068147659, -0.19555729627609253, 0.04699333757162094, -0.11121150851249695, -0.0012045977637171745, 0.02297750860452652, 0.0637446716427803, -0.12365477532148361, -0.1426028162240982, -0.0954272449016571, 0.004805414006114006, 0.06281569600105286, -0.11396174132823944, 0.11749769002199173, -0.03892097249627113, -0.2712709605693817, 0.04701830819249153, -0.43223893642425537, -0.13025902211666107, -0.13215066492557526, 0.034739647060632706, 0.25220638513565063, -0.018968399614095688, 0.4198042154312134, -0.22389620542526245, 0.2156742662191391, -0.14285840094089508, -0.07683496922254562, 0.2547083795070648, -0.1438475102186203, 0.03190188109874725, -0.039877407252788544, 0.033022962510585785, 0.1828468143939972, -0.027474818751215935, 0.0925411805510521, 0.13628044724464417, 0.11083228886127472, 0.14258386194705963, -0.0122727295383811, -0.32726702094078064, 0.008999924175441265, 0.02792193740606308, -0.07233744859695435, -0.05351068824529648, -0.15842771530151367, 0.054747357964515686, -0.039770036935806274, -0.009149393998086452, 0.2408435344696045, 0.19682356715202332, 0.04373101517558098, -0.08544493466615677, 0.182314932346344, 0.014483689330518246, -0.019119789823889732, 0.02680758759379387, -0.2535880506038666, -0.14861799776554108, -0.02243196591734886, 0.0457107350230217, -0.16866852343082428, 0.1918618381023407, -0.27500206232070923, 0.22597621381282806, 0.5011693239212036, -0.1057843267917633, -0.07272659987211227, 0.16624711453914642, -0.34018242359161377, 0.013382640667259693, 0.049579694867134094, 0.18264257907867432, 0.2352471947669983, 0.1632143259048462, -0.35935449600219727, -0.12343008071184158, 0.049623411148786545, -0.2863726317882538, -0.18493534624576569, 0.12491314858198166, -0.22296400368213654, 0.018113840371370316, -0.10448597371578217, -0.016815239563584328, -0.1913672685623169, -0.20604757964611053, 0.2535763382911682, 0.06672057509422302, 0.18867263197898865, -0.25776734948158264, -0.0574316680431366, -0.06280111521482468, 0.21369785070419312, 0.019493114203214645, 0.12398446351289749, -0.12363671511411667, 0.03896937146782875, -0.12160708755254745, 0.25483131408691406, 0.008898631669580936, 0.4427432715892792, -0.4513140618801117, -0.1620718240737915, -0.26662564277648926, 0.17166991531848907, 0.020005961880087852, 0.09832224249839783, -0.1511346846818924, -0.06281013041734695, 0.29447829723358154, -0.1948757767677307, 0.14432203769683838, -0.18507477641105652, -0.22771571576595306, -0.11895428597927094, -0.2792868912220001, -0.07888283580541611, 0.09445799142122269, -0.4243248999118805, -0.16102334856987, 0.0065782926976680756, 0.04430773854255676, -0.07881824672222137, 0.30467113852500916, -0.13527287542819977, 0.2186519056558609, 0.07161998003721237, -0.0882018506526947, -0.18660570681095123, -0.006803454365581274, 0.011510002426803112, -0.22234933078289032, -0.15944474935531616, -0.43409499526023865, 0.050245653837919235, -0.027519548311829567, 0.19033809006214142, 0.016977116465568542, 0.12306142598390579, 0.0637984350323677, 0.34249332547187805, 0.087094746530056, 0.012278488837182522, -0.15082994103431702, -0.2052440643310547, 0.09579265117645264, 0.12494665384292603, -0.0223808903247118, 0.03474079445004463, 0.1290258914232254, 0.027891788631677628, -0.03460106626152992, 0.1876646727323532, 0.27982786297798157, 0.21649125218391418, 0.030232595279812813, 0.29640257358551025, 0.2880604565143585, 0.15719150006771088, -0.29591724276542664, -0.07122344523668289, -0.11165818572044373, 0.32694029808044434, 0.23760737478733063, -0.05791712924838066, -0.025951042771339417, -0.1685473620891571, 0.05183088779449463, 0.011998685076832771, 0.0743604302406311, -0.057701654732227325, 0.32791054248809814, -0.019197281450033188, -0.007178858853876591, 0.1230325698852539, -0.24066151678562164, -0.2212297022342682, -0.12071283906698227, -0.22030191123485565, -0.22224679589271545, -0.5151227116584778, -0.021220803260803223, -0.06054544821381569, 0.021330222487449646, -0.24066098034381866, 0.05134907364845276, 0.08429781347513199, 0.020957570523023605, 0.009155512787401676, 0.059519555419683456, 0.27948471903800964, 0.027037400752305984, -0.643566906452179, -0.20276078581809998, -0.10116869956254959, -0.0061102560721337795, -0.002987500047311187, -0.0008445648709312081, -0.06400306522846222, -0.12203524261713028, -0.01622394286096096, 0.06470204889774323, -0.06858371943235397, 0.09749770909547806, -0.2468317598104477, 0.08203674852848053, 0.05866960436105728, -0.06579458713531494, -0.17272785305976868, 0.03665819391608238, 0.3829104006290436, -0.48386088013648987, 0.03652295470237732, 0.06323022395372391, -0.2578850984573364, -0.060838133096694946, -0.07006950676441193, 0.1382872313261032, 0.031899344176054, -0.40205222368240356, -0.1932445913553238, 0.14058338105678558, -0.24104195833206177, -0.005088099278509617, -0.0990905687212944, 0.020436016842722893, -0.08699988573789597, -0.1333211362361908, -0.17326094210147858, -0.18539397418498993, 0.04847923666238785, -0.014520959928631783, 0.09442497789859772, 0.03793441131711006, 0.1150190606713295, -0.21443502604961395, 0.003794105490669608, -0.14741133153438568, 0.19823792576789856, -0.06292784214019775, -0.15566842257976532, 0.10086193680763245, -0.002415438648313284, 0.06787111610174179, -0.15897314250469208, -0.023754889145493507, 0.07232549786567688, -0.02177339419722557, 0.18691404163837433, -0.023564433678984642, 0.10454089939594269, -0.05126899108290672, 0.0866413563489914, 0.06377051770687103, 0.06647112965583801, -0.030989857390522957, -0.1587935835123062, 0.160914346575737, -0.031256936490535736, -0.04002722352743149, 0.13788709044456482, 0.32244476675987244, -0.19759494066238403, -0.04983460530638695, -0.13168717920780182, -0.12342230975627899, 0.037872664630413055, 0.10617607086896896, 0.10808051377534866, 0.058238763362169266, -0.34736067056655884, 0.06454259902238846, -0.08235210925340652, -0.2769256830215454, 0.009090038947761059, 0.025689642876386642, -0.3390974700450897, -0.058472927659749985, 0.011658416129648685, -0.25086191296577454, -0.06017668545246124, -0.06377899646759033, 0.23429150879383087, -0.2057502120733261, -0.06482601165771484, -0.03389784321188927, 0.3268870711326599, 0.019182415679097176, -0.35645750164985657, 0.06234017387032509, 0.07079780101776123, 0.2546286880970001, -0.005813824012875557, 0.038934797048568726, -0.06430991739034653, -0.37648653984069824, 0.11756111681461334, 0.14600864052772522, -0.0857694149017334, 0.1506294310092926, -0.0627909004688263, -0.05129566416144371, -0.07489969581365585, 0.24488011002540588, 0.33892399072647095, 0.009171772748231888, 0.057985350489616394, -0.4894530773162842, -0.057896364480257034, -0.004277112893760204, 0.23884999752044678, 0.03401563689112663, 0.0503283329308033, 0.034237224608659744, 0.1769489049911499, 0.09648753702640533, -0.13707280158996582, 0.16491247713565826, -0.476910799741745, -0.06259363889694214, 0.2753368020057678, 0.03428930416703224, 0.431940495967865, 0.24791602790355682, 0.2645893096923828, -0.04749476537108421, -0.15101897716522217, -0.06721045821905136, -0.26267173886299133, 0.18029940128326416, -0.025776326656341553, -0.10804690420627594, -0.14218705892562866, -0.09572187066078186, 0.04802916198968887, -0.059019818902015686, 0.27422869205474854, 0.04846155643463135, -0.13801835477352142, -0.12489798665046692, -0.029362769797444344, -0.05179179087281227, -0.36764439940452576, -0.2262396365404129, 0.0212234053760767, -0.15333035588264465, -0.212190642952919, 0.027848556637763977, 0.023256776854395866, -0.3746580481529236, 0.005861534271389246, 0.13992808759212494, 0.4833793640136719, 0.0237044095993042, -0.13570353388786316, -0.13714221119880676, 0.13932828605175018, 0.03324953839182854, 0.10296735912561417, -0.045473504811525345, -0.08734560012817383, -0.14378798007965088, 0.0875866562128067, -0.17507058382034302, -0.13250567018985748, -0.0837518721818924, -0.14906610548496246, -0.3541080057621002, 0.05079907551407814, -0.17858360707759857, -0.02794230356812477, -0.09654959291219711, -0.03404240682721138, 0.10976254194974899, -0.0162738636136055, -0.24894148111343384, -0.2283552885055542, 0.11355146765708923, 0.3203301429748535, 0.08526285737752914, -0.1373051404953003, -0.21751952171325684, -0.09226500242948532, 0.006266912445425987, -0.019113875925540924, 0.18354158103466034, -0.1865023821592331, 0.1035914421081543, -0.20067468285560608, -0.3882145285606384, 0.22985762357711792, -0.05674870312213898, -0.1399829089641571, 0.20118018984794617, -0.12527932226657867, 0.08050383627414703, 0.01738106459379196, 0.10305854678153992, 0.16508331894874573, -0.10503728687763214, 0.10696994513273239, 0.029392048716545105, 0.18113760650157928, 0.06579618901014328, -0.006599273066967726, -0.04963407665491104, 1.0056935548782349, -0.1095062792301178, 0.245130717754364, -0.21421664953231812, 0.037831470370292664, 0.330460786819458, -0.06938629597425461, -0.1062479242682457, 0.16470186412334442, 0.006177973467856646, -0.07204891741275787, -0.11591284722089767, 0.15882107615470886, -0.030472181737422943, -0.23749639093875885, -0.052073199301958084, -0.06953476369380951, 0.021613504737615585, -0.26625365018844604, -0.0033425656147301197, -0.21217986941337585, 0.23729589581489563, 0.0760665237903595, 0.19161644577980042, -0.13491691648960114, 0.029355138540267944, -0.5513020157814026, -0.07672186195850372, -0.1255839318037033, -0.3099559545516968, 0.3501020669937134, -0.00422359723597765, -0.13917793333530426, 0.13877685368061066, -0.11811001598834991, 0.24331295490264893, -0.21117253601551056, -0.02661379612982273, 0.014048503711819649, 0.13512888550758362, 0.025684714317321777, 0.07048012316226959, 0.3602481484413147, 0.017133917659521103, 0.03903769701719284, -0.1303863525390625, -0.031577952206134796, 0.08522657305002213, -0.29760682582855225, 0.19999463856220245, 0.008263157680630684, -0.2675638794898987, 0.1542316973209381, -0.33397555351257324, -0.1164623275399208, 0.12751634418964386, 0.09197991341352463, -0.1690705120563507, -0.09194313734769821, -0.013172309845685959, -0.09451086074113846, -0.14073629677295685, 0.04626359045505524, 0.22364500164985657, -0.13819868862628937, 0.1560038924217224, 0.10931558907032013, 0.013255022466182709, -0.02212594822049141, 0.0333215668797493, -0.00020323593344073743, -0.053673770278692245, -0.05216861888766289, 0.2317580282688141, -0.12177986651659012, 0.09925175458192825, -0.23172694444656372, -0.025598600506782532, -0.1682325154542923, -0.09962047636508942, 0.012671899050474167, 0.32950010895729065, -0.02895066700875759, 0.3510655462741852, -0.1537068784236908, 0.20830604434013367, 0.312052845954895, -0.1367393583059311, 0.4308527112007141, 0.12885238230228424, -0.09084039181470871, 0.17353568971157074, -0.04248815029859543, -0.09317999333143234, 0.23507408797740936, 0.001392047037370503, -0.2744622528553009, 0.05378032475709915, 0.23081782460212708, 0.077469103038311, -0.48384225368499756, 0.11674041301012039, 0.05336048826575279, -0.0937855988740921, 0.05112652853131294, -0.15229465067386627, 0.06577116996049881, -0.33276689052581787, -0.33271360397338867, 0.3238905668258667, -0.3615192770957947, -0.18929746747016907, 0.24595321714878082, 0.19399631023406982, -0.13851696252822876, -0.40071579813957214, -0.3329787254333496, -0.1808634251356125, 0.41327396035194397, 0.13001662492752075, 0.06610050797462463, -0.20727860927581787, -0.3475480377674103, 0.13369356095790863, 0.2696249485015869, -0.0883672758936882, -0.46006473898887634, 0.18329085409641266, 0.20372378826141357, -0.09771827608346939, 0.5036445260047913, 0.3043467700481415, 0.2190946489572525, -0.27218639850616455, 0.3848709464073181, -0.03222852572798729, -0.09972754865884781, -0.26299482583999634, 0.26414749026298523, 0.09133721888065338, 0.10448125749826431, -0.22267873585224152, 0.33190205693244934, -0.145131453871727, 0.17731420695781708, 0.051248133182525635, 0.16305534541606903, 0.07310524582862854, -0.19518499076366425, 0.20177985727787018, -0.10175289213657379, -0.4062047302722931, 0.004145284183323383, -0.01801353693008423, -0.47279417514801025, 0.0568343922495842, -0.09786785393953323, -0.12622293829917908, 0.02224148064851761, -0.14468559622764587, -0.008413469418883324, 0.1245732381939888, -0.04614809900522232, -0.39037927985191345, -0.14762134850025177, -0.12742459774017334, 0.12481512874364853, -0.010352613404393196, 0.12700845301151276, -0.2871924936771393, -0.1398453265428543, 0.19232933223247528, 0.34635359048843384, -0.0874035507440567, -0.44829249382019043, -0.8790680766105652, -0.06818021088838577, -0.23460280895233154, 0.2044975459575653, 0.24770747125148773, 0.04752051830291748, -0.17987561225891113, 0.0880470871925354, -0.03318614512681961, -0.19446974992752075, -0.1441531777381897, -0.1302410066127777, 0.27967244386672974, -0.04261792451143265, 0.5175329446792603, 0.06088107451796532, 0.22912812232971191, -0.02808610163629055, 0.03002023696899414, -0.130872443318367, -0.0010146948043256998, 0.01610480807721615, -0.3159506022930145, 0.06322693824768066, 0.33359718322753906, -0.05537377670407295, -0.02256103977560997, 0.16692422330379486, 0.1148800328373909, 0.08350294828414917, 0.13116410374641418, 0.20804545283317566, 0.12018465250730515, -0.16280287504196167, -0.12503556907176971, 0.36851266026496887, 0.30953267216682434, 0.057832445949316025, 0.12282011657953262, -0.11385077983140945, -0.19764450192451477, -0.09337616711854935, 0.1935853362083435, 0.04668441787362099, -0.1442728042602539, -0.15840308368206024, 0.013549931347370148, 0.08464906364679337, 0.40304261445999146, 0.18307475745677948, -0.023873837664723396, 0.03988828882575035, -0.08691679686307907, 0.05061863735318184, -0.0636938214302063, -0.04462185502052307, -0.1405499279499054, 0.16929395496845245, -0.034811075776815414, 0.15672266483306885, 0.45163679122924805, -0.23705434799194336, -0.2765135169029236, 0.49098530411720276, 0.2657567858695984, 0.23948879539966583, 0.2964829206466675, -0.01575012318789959, -0.032993391156196594, 0.2873544991016388, -0.3771490454673767, -0.42458558082580566, 0.07355374097824097, 0.147879958152771, -0.07709740102291107, 0.38923418521881104, 0.06079556792974472, -0.12748882174491882, -0.10173720866441727, 0.28805041313171387, 0.12911634147167206, -0.16804751753807068, -0.04044347628951073, -0.5236820578575134, 0.12416671216487885, -0.03640269115567207, -0.16193848848342896, -0.1593545377254486, -0.13324835896492004, 0.014537476934492588, 0.11549397557973862, 0.1980423629283905, 0.4106955826282501, -0.013800743967294693, -0.15594550967216492, -0.7465328574180603, -0.049236781895160675, -0.21282511949539185, 0.037935275584459305, -0.45000869035720825, -0.2805768549442291, -0.08878734707832336, -0.024779222905635834, -0.380442351102829, -0.22158339619636536, 0.0011929924366995692, 0.005885230377316475, -0.0476810522377491, -0.20720961689949036, 0.4588254392147064, -0.294123113155365, 0.25824493169784546, -0.23868754506111145, 0.6458531618118286, -0.09062771499156952, -0.10966898500919342, 0.0490708090364933, -0.0027923111338168383, -0.1339201182126999, -0.26519322395324707, -0.07179218530654907, 0.4165237247943878, 0.2727294862270355, 0.1372651755809784, -0.08925189822912216, 0.26145613193511963, 0.005911072250455618, -0.15064476430416107, -0.005407864693552256, 0.02036144584417343, 0.31068289279937744, 0.05255566164851189, -0.0191093347966671, -0.10227040946483612, 0.24210166931152344, 0.01847817748785019, 0.16150760650634766, -0.11998520791530609, -0.0669550821185112, -0.07996560633182526, -0.01843038946390152, 0.015622458420693874, -0.04353858157992363, 0.3077806532382965, -0.06676805019378662, -0.021046467125415802, -0.11833664774894714, -0.054366376250982285, -0.2598511576652527, -0.1650574952363968, -0.04104800522327423, -0.29233846068382263, 0.08634334802627563, 0.1623833328485489, 0.3187531530857086, 0.5125836730003357, -0.111953504383564, 0.13925869762897491, -0.13925574719905853, 0.08371910452842712, 0.1906701624393463, -0.09128909558057785, 0.09390553086996078, 0.015645800158381462, 0.20831875503063202, 0.19530194997787476, -0.09663714468479156, -0.2785010039806366, 0.1858968734741211, 0.34189364314079285, 0.052716948091983795, 0.010147779248654842, 0.008355414494872093, -0.008881224319338799, -0.04914867877960205, 0.06240079924464226, 1.025266408920288, -0.10999152064323425, 0.821418046951294, -0.8088914752006531, -0.17844681441783905, 0.2656165659427643, 0.2735596299171448, -0.22114214301109314, 0.3583926260471344, 0.3686729967594147, -1.2322678565979004, 0.6437150239944458, 0.24285264313220978, -1.0517243146896362, -0.028692765161395073, -0.2784314751625061, 0.057372864335775375, 0.1475227177143097, -0.09863097965717316, -0.1335362046957016, 0.013819360174238682, 0.12510082125663757, 0.10427206754684448, -0.124371238052845, -0.3264979422092438, 0.2989189326763153, -0.08857208490371704, 0.15227778255939484, 0.21236710250377655, -0.36055347323417664, 0.2329370677471161, 0.10628160089254379, -0.09967412799596786, 0.09592577815055847, 0.013544127345085144, 0.0535082146525383, -0.386399507522583, -0.29286065697669983, -0.17039044201374054, -0.09316148608922958, 0.22379906475543976, 0.11527148634195328, -0.5429889559745789, 0.18273909389972687, -0.12501543760299683, 0.10996806621551514, 0.052269551903009415, 0.45945975184440613, 0.03176296874880791, 0.24986831843852997, -0.3284865915775299, -0.4189881384372711, -0.2131367027759552, -0.30854374170303345, -0.35098183155059814, 0.18009258806705475, 0.35226064920425415, 0.2579675018787384, -0.027726557105779648, -0.27935880422592163, 0.026330847293138504, 0.15348438918590546, 0.17676687240600586, 0.3708600699901581, -0.2045835703611374, -0.152184396982193, -0.2554034888744354, 0.33601751923561096, 0.3415755033493042, 0.31399980187416077, 0.2146477848291397, 0.17823782563209534, -0.19341841340065002, -0.5952283143997192, 0.12111864238977432, -0.3033790588378906, 0.028824392706155777, 0.21067248284816742, 0.21672844886779785, -0.47941890358924866, -0.007221853826195002, -0.2146526277065277, -0.1859639286994934, 0.3756614923477173, 0.25284847617149353, 0.155133455991745, 0.04686171934008598, -0.1102907657623291, 0.08519753813743591, -0.07408720254898071, 0.24151387810707092, 0.3760613799095154, -0.13723474740982056, -0.12989355623722076, 0.13470341265201569, -0.28625941276550293, -0.2938506603240967, 0.042059533298015594, 0.14780545234680176, 0.08976226300001144, -0.0458960197865963, 0.3930925130844116, 0.12341636419296265, -0.1500004678964615, 0.07032354176044464, 0.2594606876373291, 0.005798058584332466, 0.3059177100658417, 0.0929986983537674, -0.11086582392454147, -0.2217612862586975, -0.17517350614070892, 0.009083820506930351, 0.1615697741508484, -0.11969750374555588, -0.2725680470466614, -0.03824484348297119, -0.23161153495311737, 0.2516283392906189, 0.1632411926984787, -0.6132347583770752, 0.45230910181999207, -0.18809759616851807, 0.3040005564689636, -0.08723064512014389, -0.05850062891840935, 0.20315496623516083, 0.18938329815864563, -0.20372800529003143, 0.23088975250720978, -0.28158673644065857, -0.17225207388401031, 0.1531035304069519, -0.42956000566482544, -0.22671423852443695, 0.21102477610111237, 0.056523654609918594, 0.24528223276138306, 0.07927993685007095, 0.049565911293029785, -0.14267966151237488, 0.12391826510429382, 0.3572011888027191, 0.21681535243988037, -0.041653357446193695, 0.28775352239608765, -0.10419321805238724, -0.12585969269275665, -0.06284056603908539, -0.12050916999578476, -0.31887710094451904, 0.021201778203248978, 0.2443675398826599, 0.06557559967041016, -0.11567667126655579, -0.3585270345211029, 0.03554798290133476, 0.17199890315532684, -0.002865576185286045, 0.32544204592704773, 0.10868500173091888, 0.4657107889652252, 0.10592092573642731, -0.06206968426704407, -0.2504573464393616, -0.0014120216947048903, -0.22244378924369812, 0.1930789202451706, -0.30837368965148926, 0.3413630723953247, 0.10705504566431046, -0.13363327085971832, 0.3558783531188965, -0.27297210693359375, 0.3303844630718231, 0.27015867829322815, -0.286663681268692, 0.14775869250297546, -0.4004790484905243, -0.3190440535545349, -0.13086701929569244, 0.010675618425011635, 0.06830994039773941, -0.25716736912727356, 0.2942105233669281, 0.06117560341954231, 0.038875024765729904, 0.09340643137693405, -0.14340278506278992, -0.007374794688075781, 0.18367262184619904, -0.0030551247764378786, 0.13927112519741058, 0.5484099984169006, 0.042164307087659836, -0.09389258921146393, -0.24768789112567902, -0.42140334844589233, -0.3611304759979248, 0.16057032346725464, -0.35165709257125854, 0.6381067037582397, 0.1419072300195694, -0.004767599515616894, -0.15492570400238037, 0.2708977162837982, -0.22550730407238007, 0.26398518681526184, 0.11026285588741302, 0.512789785861969, 0.14714188873767853, 0.07880283147096634, -0.38617995381355286, -0.17147713899612427, -0.1998738944530487, 0.17806680500507355, 0.5121052265167236, 0.3918071687221527, -0.2568613290786743, -0.24692168831825256, -0.22259005904197693, 0.0829474925994873, 0.02192642353475094, 0.0516413077712059, 0.16159400343894958, 0.28118157386779785, -0.10295139253139496, 0.2264973223209381, -0.15132014453411102, -0.24778440594673157, -0.27399104833602905, 0.08769015967845917, -0.01216103695333004, 0.7712007164955139, 0.15938502550125122, -0.027721239253878593, -0.21959927678108215, -0.25906798243522644, -0.0450427383184433, 0.1474744975566864, 0.2539293169975281, -0.0785028263926506, 0.1497696489095688, 0.2025662213563919, -0.2747839093208313, -0.18102413415908813, 0.05918528884649277, 0.058785080909729004, -0.21223443746566772, 0.349651575088501, -0.29741135239601135, 0.045673880726099014, 0.3113749325275421, -0.05397355556488037, -0.11864974349737167, 0.2922452688217163, 0.116763636469841, 0.3025103509426117, 0.010750813409686089, 0.11170654743909836, -0.31064414978027344, -0.1784902811050415, 0.17809779942035675, -0.0328902006149292, -0.2769739627838135, 0.31901320815086365, -0.3279134929180145, -0.14692972600460052, 0.04192035272717476, -0.04087207466363907, -0.09572545439004898, 0.4398478865623474, -0.31140485405921936, 0.05916920676827431, 0.12039549648761749, -0.018064269796013832, -0.06853970885276794, -0.07825898379087448, -0.007827497087419033, 0.15393514931201935, -0.18650031089782715, 0.06440244615077972, 0.14337849617004395, 0.04057002067565918, 0.13776981830596924, -0.14345508813858032, -0.07190458476543427, 0.03479043021798134, 0.05545258894562721, -0.28717225790023804, 0.27411022782325745, -0.2971149981021881, 0.048558808863162994, 0.08713985234498978, -0.06838236004114151, 0.29469457268714905, -0.2452118992805481, -0.001809669192880392, 0.11598954349756241, 0.33245211839675903, 0.25545504689216614, 0.16560600697994232, -0.14269812405109406, 0.12136932462453842, -0.11452420055866241, -0.01302909292280674, -0.14338546991348267, -0.22319857776165009, 0.12065616995096207, 0.31032735109329224, 0.2015077769756317, -0.2882753908634186, -0.1400810033082962, 0.10049019753932953, 0.2396068274974823, 0.04050128534436226, -0.15114782750606537, 0.09783714264631271, 0.09594990313053131, 0.17173531651496887, -0.16267266869544983, 0.34015122056007385, 0.10847276449203491, -0.3136026859283447, -0.19644813239574432, -0.05300367251038551, -0.07456648349761963, -0.04883153364062309, 0.19186894595623016, -0.09955053776502609, 0.04353710263967514, -0.15877221524715424, -0.2123669683933258, 0.3087819218635559, 0.24168360233306885, 0.10453638434410095, -0.3044944107532501, 0.249562606215477, -0.1266307830810547, 0.017834914848208427, -0.052941057831048965, 0.009130160324275494, -0.1550353765487671, -0.060394976288080215, 0.07564868032932281, -0.14079980552196503, -0.13943694531917572, -0.2940799593925476, -0.04110106825828552, -0.20071923732757568, -0.09641268849372864, 0.04825098067522049, -0.00431199511513114, 0.18578577041625977, 0.2978518605232239, -0.07645880430936813, 0.1321856528520584, -0.15584133565425873, -0.131581112742424, 0.035826344043016434, 0.11353979259729385, -0.010245260782539845, 0.04887262359261513, -0.14659792184829712, 0.3243841230869293, 0.19599121809005737, 0.051628477871418, -0.25429755449295044, 0.0811186283826828, -0.10907852649688721, -0.23567359149456024, 0.032045960426330566, 0.23554784059524536, -0.3954290449619293, 0.17544469237327576, -0.00241446471773088, -0.3257907032966614, 0.0842246413230896, 0.18240535259246826, 0.15325644612312317, -0.09595721960067749, -0.28198662400245667, -0.14067459106445312, -0.05492493882775307, -0.053999677300453186, -0.2807723879814148, 0.07888949662446976, 0.0073447213508188725, 0.3492080271244049, 0.016218075528740883, -0.027195068076252937, 0.2281171679496765, 0.19286829233169556, -0.1262124478816986, 0.28280115127563477, -0.2305876761674881, -0.3808791935443878, -0.04919688403606415, -0.11671414971351624, -0.04466790333390236, -0.2442265748977661, 0.11136655509471893, -0.007972221821546555, -0.14994730055332184, 0.11209054291248322, -0.05669689550995827, 0.014000286348164082, -0.12517449259757996, 0.04369387403130531, 0.2409680038690567, -0.039229799062013626, -0.15472190082073212, -0.43537893891334534, 0.0809125304222107, 0.2323950231075287, 0.482033371925354, 0.2077765166759491, -0.17736147344112396, 0.1121460422873497, -0.01750725507736206, 0.011199983768165112, 0.141042560338974, 0.023034362122416496, 0.11054085195064545, 0.4342597723007202, 0.07993514090776443, -0.10886599868535995, -0.05502817779779434, -0.061345264315605164, -0.033102329820394516, -0.19544260203838348, 0.08274935930967331, -0.06843908876180649, -0.3262370228767395, 0.28705763816833496, -0.03585098683834076, -0.15134508907794952, -0.175420880317688, 0.10879338532686234, 0.3447546064853668, -0.05571766570210457, -0.029857410117983818, -0.11825420707464218, 0.13159774243831635, -0.09143262356519699, -0.09366203844547272, 0.012698009610176086, 0.02787931263446808, -0.20886902511119843, 0.03743937611579895, -0.04125196114182472, -0.21432003378868103, 0.12132237106561661, 0.24043241143226624, 0.025771362707018852, -0.18589532375335693, -0.15855750441551208, 0.02419622242450714, 0.1110561192035675, -0.23954099416732788, -0.2135268896818161, 0.18915846943855286, 0.17522569000720978, 0.1828499585390091, 0.057279881089925766, -0.1432487666606903, -0.035197269171476364, 0.07616674154996872, -0.017654169350862503, 0.2055283486843109, -0.1528545320034027, -0.08280055969953537, 0.2569389343261719, -0.13924942910671234, 0.10364436358213425, -0.08905989676713943, 0.11702931672334671, 0.22558116912841797, -0.11691354215145111, 0.06616397202014923, -0.0265034306794405, 0.0013690540799871087, 0.30015817284584045, -0.16906273365020752, 0.24279484152793884, -0.031007420271635056, 0.18791350722312927, 0.3142039477825165, 0.1211530864238739, -0.2622559666633606, 0.33868297934532166, 0.3143475651741028, -0.08105715364217758, 0.036507394164800644, 0.18953123688697815, 0.2838413417339325, -0.23431137204170227, -0.4327051341533661, 0.19144345819950104, 0.3105558156967163, -0.14173682034015656, 0.27030423283576965, 0.18467086553573608, -0.02675401233136654, -0.19790732860565186, 0.03611784428358078, 0.1765075922012329, 0.03201207146048546, 0.06677628308534622, 0.19795894622802734, 0.05692913383245468, 0.21248795092105865, -0.044537849724292755, 0.22719205915927887, -0.13531768321990967, -0.23494954407215118, -0.08476798981428146, 0.5490842461585999, -0.2696893811225891, 0.09186267852783203, -0.12341301143169403, -0.016217108815908432, -0.2503334879875183, -0.4270324110984802, 0.04910137504339218, -0.2714187502861023, 0.34267041087150574, 0.14603275060653687, -0.24855059385299683, 0.04523434489965439, -0.17436914145946503, 0.12959735095500946, -0.1658826619386673, 0.04958462715148926, 0.058026023209095, 0.02395632304251194, 0.06079742684960365, -0.08248049020767212, 0.028130976483225822, -0.4157291054725647, 0.12379656732082367, -0.07241539657115936, -0.019382448866963387, -0.04679376631975174, -0.20449326932430267, 0.20616954565048218, 0.31185394525527954, -0.36481550335884094, 0.0559399388730526, -0.2906454801559448, -0.010963221080601215, 0.11817178875207901, -0.07944347709417343, -0.13296669721603394, -0.1395387500524521, -0.1284753531217575, 0.17302396893501282, -0.11572083830833435, 0.11408203095197678, -0.22290489077568054, -0.10130206495523453, -0.3508729338645935, -0.07643652707338333, 0.07009674608707428, 0.09654441475868225, -0.4620148539543152, -0.2611754536628723, 0.048971060663461685, -0.2354556918144226, 0.3182406425476074, 0.12131524085998535, 0.6879104971885681, -0.03528674691915512, 0.09840710461139679, 0.12711672484874725, -0.08913563191890717, -0.13018375635147095, 0.20272773504257202, -0.08669286966323853, 0.14723984897136688, 0.029994742944836617, -0.13801170885562897, -0.0669054165482521, -0.34684890508651733, 0.12403034418821335, 0.05390027165412903, -0.16493412852287292, -0.16200733184814453, 0.19946902990341187, 0.13336171209812164, -0.1279672384262085, -0.0011585146421566606, 0.40682652592658997, 0.11146567016839981, 0.1708991378545761, 0.05207206308841705, -0.03190392628312111, -0.31320294737815857, -0.17717498540878296, 0.13064466416835785, 0.07732867449522018, -0.08851055800914764, 0.02860383875668049, 0.036350317299366, 