{"version": "0.5.4", "metadata": {"date": {"year": 2025, "month": 9, "day": 19, "hour": 10, "minute": 25, "second": 36}, "loudness": -18.8039608001709, "gain": 0.7744488571906979, "name": null, "modeled_by": null, "gear_type": null, "gear_make": null, "gear_model": null, "tone_type": null, "input_level_dbu": null, "output_level_dbu": null, "training": {"settings": {"ignore_checks": true}, "data": {"latency": {"manual": -4, "calibration": {"algorithm_version": 1, "delays": [-4], "safety_factor": 0, "recommended": -4, "warnings": {"matches_lookahead": false, "disagreement_too_high": false}}}, "checks": {"version": 1, "passed": true}}, "validation_esr": 0.010363321618968475}}, "architecture": "WaveNet", "config": {"layers": [{"input_size": 1, "condition_size": 1, "head_size": 8, "channels": 16, "kernel_size": 3, "dilations": [1, 2, 4, 8, 16, 32, 64, 128, 256, 512], "activation": "Tanh", "gated": false, "head_bias": false}, {"input_size": 16, "condition_size": 1, "head_size": 1, "channels": 8, "kernel_size": 3, "dilations": [1, 2, 4, 8, 16, 32, 64, 128, 256, 512], "activation": "Tanh", "gated": false, "head_bias": true}], "head": null, "head_scale": 0.02}, "weights": [-0.0060400404036045074, 0.4941514730453491, -0.6030700206756592, -0.7628275156021118, -0.2830614149570465, 0.08388408273458481, 0.025106774643063545, 0.4872489869594574, 0.008153312839567661, 0.1340092271566391, -0.12653255462646484, -0.09989658743143082, -0.9337133169174194, -0.4627433121204376, -0.3221355378627777, -0.001893930952064693, 0.23041631281375885, 0.013444739393889904, -0.06270089745521545, -0.053959548473358154, 0.18349647521972656, 0.04527615010738373, -0.03929298743605614, -0.020454837009310722, 0.04737140238285065, 0.00574488053098321, 0.00011904126586159691, -0.06257045269012451, -0.10229789465665817, -0.1636863350868225, 0.017868798226118088, 0.12792803347110748, 0.027431201189756393, -0.10852271318435669, -0.23694084584712982, -0.21798892319202423, -0.002718444913625717, 0.1289420872926712, 0.1953253597021103, -0.0024698697961866856, -0.059172701090574265, -0.13301783800125122, 0.09587210416793823, -0.10598937422037125, 0.008027305826544762, -0.12415346503257751, 0.07689333707094193, -0.03569797798991203, -0.0036586534697562456, 0.006454017478972673, -0.07799594849348068, 0.2668735384941101, 0.052962273359298706, -0.11518578976392746, 0.17140421271324158, -0.09632639586925507, -0.10176977515220642, -0.0381796769797802, -0.10379525274038315, -0.21019905805587769, 0.1537235826253891, 0.00692443223670125, 0.05250495299696922, -0.36027875542640686, -0.1388646811246872, 0.02150772139430046, -0.1834716647863388, -0.09587227553129196, 0.0513475239276886, 0.27151399850845337, 0.022777793928980827, -0.014523142948746681, -0.07156363129615784, 0.25582098960876465, 0.16274721920490265, 0.0012941431486979127, 0.1640823632478714, -0.09410793334245682, -0.10489313304424286, -0.2052699774503708, -0.15883028507232666, 0.24923616647720337, 0.11747482419013977, -0.02645264007151127, -0.1999811977148056, -0.15634629130363464, -0.05833687260746956, 0.0554899126291275, 0.12282881885766983, -0.06535950303077698, -0.051418811082839966, -0.06413523852825165, 0.08479607105255127, 0.16129162907600403, -0.023005278781056404, -0.06093081459403038, -0.05784083902835846, 0.14014852046966553, -0.09849276393651962, -0.22854454815387726, 0.2706950306892395, 0.1354515552520752, -0.19054807722568512, 0.10176961123943329, -0.10137958824634552, -0.12280299514532089, 0.022282375022768974, -0.07445570081472397, -0.1370217651128769, -0.09116886556148529, -0.10210346430540085, -0.09050945192575455, 0.03136352449655533, 0.22580310702323914, 0.10262162983417511, -0.13527190685272217, 0.1968793123960495, 0.020875969901680946, 0.04000334069132805, -0.2063622623682022, 0.0517987497150898, 0.02552727609872818, -0.30938875675201416, 0.059397611767053604, -0.11353141814470291, -0.3314729630947113, -0.03577892854809761, -0.06800070405006409, 0.18253889679908752, -0.12770012021064758, -0.06814771145582199, -0.24609017372131348, -0.05864967405796051, -0.03455948457121849, 0.3523440361022949, -0.021134980022907257, -0.01985166221857071, -0.2582525610923767, 0.047049276530742645, 0.0679318755865097, 0.37373122572898865, 0.09585238248109818, 0.1561805009841919, -0.2572830617427826, -0.11303402483463287, -0.023491142317652702, -0.139810249209404, -0.021994715556502342, -0.04512731358408928, -0.3592849671840668, -0.13202540576457977, -0.09359780699014664, -0.27746519446372986, 0.07977074384689331, 0.09672228246927261, -0.3755328953266144, 0.08778386563062668, -0.024231061339378357, 0.0971897691488266, -0.10113256424665451, -0.13284321129322052, -0.15103627741336823, -0.15013058483600616, -0.2933557629585266, -0.35716572403907776, -0.08775846660137177, 0.09783080965280533, 0.3945575952529907, -0.049750491976737976, 0.1609387844800949, 0.4694768786430359, 0.02727496065199375, 0.2884168326854706, 0.3916301727294922, -0.05458846688270569, -0.07821839302778244, -0.3116488754749298, -0.14678239822387695, 0.1297512799501419, 0.17418517172336578, -0.10711430758237839, -0.1823084056377411, -0.23847514390945435, -0.03262590244412422, 0.24949799478054047, 0.3024786412715912, 0.010773628950119019, -0.19426262378692627, -0.4367959499359131, -0.004020600579679012, 0.2746974527835846, 0.4249163269996643, -0.02408304251730442, 0.14385327696800232, 0.21678008139133453, 0.0031462423503398895, 0.07503227144479752, 0.3998487591743469, -0.008736074902117252, 0.15370717644691467, 0.34883439540863037, 0.17047293484210968, 0.057850562036037445, 0.23966050148010254, -0.0003066984936594963, -0.11600831151008606, -0.09438254684209824, 0.05055639520287514, -0.04705584794282913, 0.030661949887871742, -0.19058631360530853, -0.07995180040597916, -0.028784122318029404, -0.11657751351594925, 0.05208086594939232, 0.06540467590093613, -0.02780105546116829, -0.023941798135638237, 0.16641582548618317, -0.028889818117022514, 0.03867741674184799, 0.19487521052360535, 0.12095258384943008, -0.05277057737112045, -0.15433594584465027, -0.0210768673568964, 0.030499909073114395, -0.061849817633628845, 0.0029461984522640705, -0.06688915938138962, -0.05172572284936905, 0.046597130596637726, 0.08789810538291931, 0.13581645488739014, 0.10665580630302429, -0.138221874833107, 0.017402948811650276, -0.16383512318134308, -0.005279241129755974, 0.07954010367393494, 0.12475048750638962, 0.11063626408576965, 0.03637595474720001, -0.012482977472245693, 0.12022925168275833, -0.08403071016073227, 0.18344169855117798, -0.07138180732727051, 0.05691244825720787, 0.0480819046497345, -0.03622186928987503, 0.07751244306564331, 0.18158748745918274, -0.013232599012553692, -0.025683296844363213, 0.12360168993473053, -0.014086452312767506, -0.02744508907198906, 0.2486894577741623, -0.045075640082359314, -0.06307278573513031, 0.1891900897026062, 0.027449551969766617, 0.08535954356193542, -0.04489651322364807, -0.09558919817209244, -0.06159002333879471, -0.06456359475851059, 0.06979876011610031, 0.016519520431756973, -0.17930474877357483, -0.014077053405344486, -0.09787418693304062, 0.12343408912420273, -0.22157756984233856, -0.2804442048072815, 0.2093905210494995, -0.05594424903392792, 0.02148660458624363, 0.13148260116577148, -0.1040722206234932, -0.1379128098487854, -0.231477752327919, 0.17029675841331482, 0.04311402514576912, 0.22863703966140747, -0.09501323103904724, 0.007096226327121258, -0.11723154783248901, -0.07844013720750809, -0.0590779148042202, -0.08190234005451202, 0.008851686492562294, -0.0343150831758976, -0.12812958657741547, -0.13200107216835022, 0.0704120323061943, -0.20570187270641327, 0.00626826798543334, -0.06067931279540062, -0.17597223818302155, 0.08804440498352051, 0.013090983033180237, 0.2129157930612564, 0.11801957339048386, 0.19343170523643494, -0.1488191932439804, 0.3286025822162628, 0.4120974540710449, 0.029879579320549965, -0.37810617685317993, -0.38373738527297974, 0.012441384606063366, -0.31976383924484253, -0.3091117739677429, 0.05330928415060043, -0.32927823066711426, -0.36118653416633606, 0.025127749890089035, 0.2447424978017807, 0.3724614083766937, 0.016543149948120117, -0.2072772979736328, -0.16981130838394165, 0.11579422652721405, 0.37244054675102234, 0.45667943358421326, 0.038731757551431656, -0.19997450709342957, -0.31689342856407166, -0.15436860918998718, 0.12949593365192413, 0.48892879486083984, 0.1280883550643921, -0.35154685378074646, -0.29940035939216614, 0.08927212655544281, -0.0911455824971199, -0.19635064899921417, 0.043198153376579285, -0.2868754267692566, -0.4252493679523468, 0.0888659730553627, -0.17116309702396393, -0.4533695876598358, 0.09946088492870331, -0.19543465971946716, -0.2773703932762146, -0.1287907361984253, 0.139158695936203, 0.15826867520809174, -0.1038813591003418, 0.168375164270401, 0.019410884007811546, 0.3540513813495636, 0.239351287484169, 0.11992423236370087, 0.049111686646938324, -0.2737461030483246, -0.1390356868505478, -0.07289448380470276, -0.32300159335136414, -0.28776490688323975, 0.13885252177715302, -0.10066627711057663, -0.0300114918500185, 0.13861997425556183, 0.005515553988516331, 0.08410002291202545, -0.03503180667757988, -0.1485435664653778, 0.0003150505945086479, -0.19672498106956482, 0.09713125973939896, 0.03424978628754616, -0.10513552278280258, -0.03465937450528145, 0.015348988585174084, 0.1272800713777542, 0.2935938239097595, 0.2801420986652374, -0.03848044201731682, -0.10304088890552521, -0.041319139301776886, 0.07571972161531448, -0.047645941376686096, -0.062407467514276505, 0.137678861618042, -0.22638173401355743, -0.10455381870269775, 0.042854879051446915, -0.21472039818763733, -0.2506142556667328, -0.05772287771105766, -0.296723335981369, -0.06922685354948044, 0.14054326713085175, -0.05705883353948593, -0.016763998195528984, -0.19181373715400696, 0.15742124617099762, 0.01042106281965971, -0.039013903588056564, 0.09699138253927231, 0.1386626660823822, -0.10712666064500809, 0.17595170438289642, 0.029551327228546143, -0.05132684484124184, 0.11990867555141449, -0.16711604595184326, -0.018910398706793785, 0.16123396158218384, -0.08353885263204575, -0.087086521089077, -0.10095509886741638, 0.0581899955868721, -0.05771036073565483, -0.027647804468870163, 0.2051359862089157, -0.22939008474349976, -0.1305912435054779, 0.09670178592205048, 0.056724030524492264, 0.11883800476789474, -0.15353794395923615, -0.01988067291676998, -0.14146788418293, 0.018471097573637962, 0.04283859580755234, -0.06122485175728798, -0.041788410395383835, 0.1408497393131256, 0.015172656625509262, -0.1565711349248886, -0.033570051193237305, 0.07401806861162186, -0.19683021306991577, 0.0781274288892746, -0.0927930474281311, -0.22986915707588196, -0.13064804673194885, 0.010015894658863544, 0.0016374245751649141, -0.11204088479280472, 0.1774521917104721, 0.23167771100997925, -0.18686571717262268, 0.06870865821838379, -0.014689735136926174, 0.011678973212838173, 0.0865577682852745, 0.06549648195505142, -0.008712236769497395, -0.10264278948307037, 0.1969684213399887, 0.09089036285877228, 0.05939383804798126, -0.0343683697283268, 0.04114815965294838, -0.1470121294260025, 0.017893165349960327, 0.10385444760322571, -0.09057892858982086, -0.026565928012132645, -0.010277890600264072, 0.12084472179412842, -0.21055954694747925, 0.15979358553886414, -0.03310737386345863, -0.011873948387801647, 0.06341908127069473, 0.09908881038427353, -0.025429267436265945, 0.13877113163471222, -0.14001335203647614, -0.19207841157913208, -0.01296502910554409, -0.09408214688301086, 0.13190670311450958, -0.01766684092581272, -0.0918717160820961, -0.02065316028892994, 0.09176363050937653, -0.025298399850726128, 0.19063800573349, 0.171695739030838, 0.07119810581207275, 0.07830048352479935, 0.03402389958500862, -0.051352716982364655, 0.09500221163034439, 0.13216401636600494, 0.10850133001804352, 0.020779015496373177, 0.3169863224029541, -0.044635795056819916, 0.01058527547866106, 0.04713016375899315, 0.29920822381973267, 0.18363991379737854, 0.07433946430683136, -0.09226591885089874, -0.2364518642425537, 0.1555255651473999, -0.24383240938186646, -0.2802215814590454, 0.09165868163108826, -0.19796593487262726, -0.275845468044281, -0.003911039792001247, 0.2520512640476227, 0.2537401616573334, -0.06976623088121414, -0.03907834365963936, -0.0981072261929512, -0.06526969373226166, 0.162000373005867, 0.413768470287323, -0.060297850519418716, -0.12620103359222412, -0.23902486264705658, 0.047487806528806686, 0.061164140701293945, 0.21573323011398315, -0.09864550083875656, -0.021463986486196518, -0.3540467321872711, 0.04472576081752777, -0.20253102481365204, -0.14719033241271973, 0.16898219287395477, -0.26180121302604675, -0.45422640442848206, -0.06409257650375366, -0.15610407292842865, -0.36659684777259827, -0.04971493035554886, -0.2127791941165924, -0.2967381775379181, -0.02925715036690235, 0.17925232648849487, 0.09884441643953323, -0.15794242918491364, -0.10371904820203781, -0.0575038343667984, 0.033496685326099396, -0.16373871266841888, -0.26800480484962463, -0.03165378421545029, 0.022933194413781166, 0.08484151214361191, 0.30376672744750977, 0.0717053934931755, 0.25532111525535583, 0.151871919631958, 0.12128543853759766, 0.19735796749591827, 0.24474970996379852, -0.14480189979076385, -0.3610943853855133, -0.2118266522884369, -0.06200374290347099, 0.29491522908210754, -0.09292629361152649, -0.014314484782516956, -0.258379727602005, -0.17898018658161163, 0.1825534850358963, 0.3243914544582367, 0.2180784046649933, -0.08804894238710403, -0.24580609798431396, -0.26357898116111755, 0.13435201346874237, 0.35157716274261475, 0.09808114916086197, 0.054360147565603256, 0.22553518414497375, 0.3543905019760132, 0.11483804136514664, 0.1099456250667572, 0.031481899321079254, 0.1920178234577179, 0.21274533867835999, 0.08955308049917221, 0.19382737576961517, 0.27570340037345886, 0.28384992480278015, -0.007617124356329441, -0.16066622734069824, -0.0693170577287674, -0.24048928916454315, 0.15103180706501007, 0.18218061327934265, -0.14068467915058136, 0.02861824259161949, 0.31668660044670105, 0.34959301352500916, -0.035364773124456406, -0.2980402708053589, 0.16078339517116547, -0.26445528864860535, -0.04576190561056137, 0.15403015911579132, -0.2335628867149353, -0.08589426428079605, -0.2486725151538849, 0.05404709652066231, 0.14540477097034454, -0.1515144556760788, -0.022221341729164124, 0.06498201936483383, -0.2833763360977173, 0.2235131412744522, 0.2799932658672333, 0.22706741094589233, -0.09575961530208588, -0.030994052067399025, -0.20306003093719482, 0.09889912605285645, 0.2850218713283539, 0.23651665449142456, -0.30926188826560974, -0.1743757426738739, 0.10757876932621002, -0.048483312129974365, -0.14874723553657532, 0.09025722742080688, -0.18454080820083618, -0.07799157500267029, 0.258260577917099, -0.13471728563308716, -0.1404472291469574, 0.26015615463256836, -0.21214784681797028, -0.2211056798696518, -0.2863296568393707, 0.06434696167707443, -0.09099411219358444, -0.07537128031253815, -0.018477628007531166, 0.03856685757637024, -0.043018888682127, -0.18274857103824615, 0.20006363093852997, -0.03085094876587391, 0.2086583971977234, -0.18184258043766022, 0.016460174694657326, 0.17118802666664124, -0.12921196222305298, 0.16420899331569672, 0.00764730479568243, -0.2029350996017456, -0.1153133362531662, -0.08991232514381409, 0.19942563772201538, -0.03973323479294777, 0.17324362695217133, 0.0696931779384613, -0.08114393800497055, 0.005418669432401657, -0.03937757760286331, 0.02140740118920803, 0.20120517909526825, -0.04866405576467514, 0.05009710043668747, -0.13197320699691772, 0.17093878984451294, -0.09941583126783371, 0.08718257397413254, -0.09985402226448059, 0.10439268499612808, 0.15352177619934082, 0.029132748022675514, 0.02646181359887123, 0.09006251394748688, 0.025249240919947624, 0.00942132156342268, 0.22502446174621582, -0.16595831513404846, 0.026165803894400597, 0.0890464261174202, -0.019258135929703712, 0.015636470168828964, -0.1421235352754593, -0.043649859726428986, 0.2546812891960144, 0.12755149602890015, -0.17978955805301666, 0.07217374444007874, 0.23118025064468384, -0.026202775537967682, -0.14527761936187744, -0.2754019796848297, 0.2677288353443146, -0.26935744285583496, -0.10721346735954285, 0.1863127499818802, -0.2225395292043686, -0.09765849262475967, 0.043300069868564606, 0.1853293478488922, 0.052301790565252304, -0.17560146749019623, -0.018381629139184952, -0.10635560005903244, 0.07782161980867386, 0.23975196480751038, 0.1337803602218628, -0.24321216344833374, -0.27147388458251953, -0.26735934615135193, 0.25269052386283875, 0.12917424738407135, 0.13852320611476898, -0.1153896227478981, -0.05727829411625862, -0.021097438409924507, 0.28416943550109863, -0.2500738501548767, -0.1524757742881775, 0.09830430150032043, -0.2323591411113739, -0.11599340289831161, 0.31166940927505493, -0.26916560530662537, -0.06185467541217804, 0.10042790323495865, -0.185593381524086, -0.02755006216466427, 0.14642104506492615, 0.32947665452957153, -0.05505402013659477, -0.13132381439208984, -0.12606632709503174, -0.15470924973487854, 0.05961257219314575, -0.1520964354276657, -0.30464842915534973, -0.08196461200714111, 0.15995439887046814, 0.15697959065437317, 0.14793141186237335, 0.16957397758960724, 0.2941414713859558, 0.011582549661397934, 0.0224294513463974, 0.15507815778255463, -0.04330306127667427, -0.058673176914453506, -0.0719982460141182, 0.053756825625896454, 0.13647256791591644, 0.12327603995800018, 0.06095127761363983, 0.07529603689908981, -0.26544347405433655, -0.16667205095291138, 0.11813227087259293, 0.22215473651885986, -0.017163235694169998, 0.0832008570432663, -0.13311119377613068, -0.17954255640506744, 0.008782289922237396, 0.32277828454971313, -0.052126578986644745, -0.025645224377512932, 0.22214461863040924, -0.03676783666014671, 0.11207073926925659, 0.2846575677394867, 0.16277264058589935, -0.05672486126422882, 0.34970417618751526, -0.01715441420674324, 0.18151533603668213, 0.06310990452766418, -0.05982102453708649, 0.05346084386110306, -0.2442082166671753, 0.30643948912620544, -0.06076023355126381, -0.1157199889421463, -0.27345019578933716, -0.15273521840572357, 0.10492275655269623, 0.04978598281741142, -0.2913573384284973, 0.2556910216808319, 0.13016365468502045, 0.03195268660783768, -0.12558597326278687, -0.026554273441433907, -0.44095703959465027, -0.06033544987440109, -0.42181089520454407, 0.0933963805437088, 0.3736930787563324, -0.3029211461544037, 0.7972819805145264, -0.7786623239517212, -0.08771713823080063, 0.991058886051178, 1.0264123678207397, -0.6074687242507935, 0.1745186150074005, 0.032228995114564896, -0.5133209824562073, -0.5042063593864441, 0.4501207172870636, -0.624844491481781, -0.008620699867606163, 0.3563196361064911, -0.06650867313146591, 0.1324179321527481, 0.04573175683617592, 0.16588248312473297, 0.2433452159166336, -0.009880408644676208, 0.1390979140996933, -0.3086974024772644, -0.147632896900177, 0.10074575990438461, -0.023160064592957497, -0.08601897954940796, 0.2453521490097046, 0.08850971609354019, 0.3476002812385559, 0.07053056359291077, -0.039301883429288864, -0.18790632486343384, -0.06452228128910065, 0.09826275706291199, -0.07374121248722076, -0.2318890541791916, -0.22559399902820587, 0.036138761788606644, -0.04202829673886299, 0.05008549243211746, 0.015167485922574997, 0.12172675877809525, 0.18509359657764435, -0.05281387269496918, -0.04849085584282875, 0.1159820556640625, -0.044540971517562866, 0.15684348344802856, 0.04227433726191521, 0.19551774859428406, -0.057805176824331284, -0.24497294425964355, 0.04914854094386101, -0.3053777813911438, 0.013293499127030373, -0.023122014477849007, 0.09671705961227417, -0.2790837287902832, -0.008481823839247227, 0.21632827818393707, 0.07522357255220413, 0.072524294257164, 0.12788981199264526, 0.17090289294719696, -0.1909889429807663, -0.10160832852125168, -0.12464915961027145, 0.28637680411338806, 0.07037260383367538, -0.00594067620113492, -0.005688439588993788, -0.14326068758964539, 0.01820422150194645, -0.14425498247146606, 0.02433341182768345, 0.025878747925162315, -0.1014758050441742, -0.013497651554644108, -0.10599619150161743, -0.23248536884784698, -0.22193677723407745, 0.2760414779186249, 0.10222434997558594, 0.2130017876625061, -0.09884689748287201, -0.021357860416173935, 0.08538156747817993, 0.09753324836492538, -0.07076071947813034, 0.2581713795661926, -0.04896321892738342, 0.19333010911941528, -0.11690306663513184, 0.07182115316390991, -0.08997706323862076, -0.035169634968042374, 0.20837707817554474, 0.08611839264631271, 0.13674765825271606, 0.22198373079299927, 0.3590361773967743, 0.14869172871112823, 0.1564657837152481, -0.04631100594997406, -0.06865993142127991, 0.09557279944419861, 0.21173828840255737, -0.19718606770038605, 0.19727590680122375, 0.0007967572310008109, 0.14157718420028687, 0.1259843111038208, 0.08378084748983383, 0.4537263810634613, -0.19482210278511047, -0.35008636116981506, -0.02496768720448017, 0.06074853241443634, 0.19345992803573608, -0.28457891941070557, -0.2836613655090332, 0.18893544375896454, 0.05017639324069023, -0.1840263456106186, -0.008409770205616951, -0.06399230659008026, 0.043206483125686646, 0.11474095284938812, 0.16860029101371765, -0.1640801876783371, -0.09022878855466843, -0.0576787032186985, 0.35523438453674316, 0.012716428376734257, 0.11510395258665085, -0.13849814236164093, 0.29752233624458313, 0.018490256741642952, 0.19089928269386292, -0.10601646453142166, -0.011076911352574825, 0.06627301126718521, -0.055731114000082016, -0.1081765815615654, -0.269107848405838, -0.3499617576599121, 0.061614613980054855, -0.1418338418006897, -0.16012199223041534, -0.030624886974692345, -0.31334760785102844, 0.012709430418908596, 0.010887932032346725, 0.03078080713748932, -0.08035289496183395, -0.028812598437070847, 0.07114973664283752, 0.05496891960501671, -0.22168514132499695, -0.12499324977397919, 0.2086929827928543, -0.06668449193239212, -0.08474385738372803, -0.11608275771141052, 0.07245679944753647, -0.010237711481750011, -0.20863768458366394, 0.17160123586654663, 0.12310273200273514, 0.1935926377773285, 0.2554991841316223, 0.3093434274196625, -0.19691258668899536, 0.12021671235561371, 0.07792825996875763, 0.14315155148506165, -0.30840909481048584, 0.028553912416100502, -0.07217373698949814, -0.2028132677078247, -0.013393973931670189, 0.03845135495066643, -0.025860335677862167, -0.0168985053896904, -0.1412225365638733, -0.0600910410284996, -0.20532935857772827, 0.15233023464679718, 0.003578734351322055, 0.13385623693466187, -0.028423352167010307, 0.03736671432852745, 0.29119759798049927, 0.06247178837656975, 0.13701258599758148, -0.09438915550708771, -0.008327874355018139, -0.24892061948776245, -0.029768116772174835, 0.008030164986848831, -0.03898804262280464, 0.003507773857563734, -0.01748492568731308, 0.15346631407737732, -0.17784631252288818, -0.07982960343360901, -0.06542732566595078, 0.08833661675453186, -0.0009025367326103151, -0.008564711548388004, 0.012983045540750027, -0.16443295776844025, -0.13219964504241943, 0.17589204013347626, 0.3465513586997986, -0.055392444133758545, -0.3050944209098816, -0.10030946135520935, -0.09843583405017853, -0.26669979095458984, -0.3368609547615051, 0.25882184505462646, 0.1097501665353775, -0.21772129833698273, -0.12389577180147171, 0.0938623696565628, -0.23340925574302673, 0.22415517270565033, 0.038192268460989, 0.17511077225208282, 0.02194989286363125, -0.15591545403003693, -0.0297556035220623, 0.05503630265593529, -0.2787354290485382, -0.10022810846567154, -0.1895267218351364, 0.12441777437925339, -0.1628810167312622, 0.31870871782302856, 0.10617848485708237, -0.1569538712501526, 0.15336909890174866, 0.23337601125240326, 0.1098785474896431, 0.021601613610982895, -0.3199722468852997, 0.14521557092666626, -0.15947793424129486, -0.07450127601623535, 0.16988864541053772, 0.24910517036914825, -0.3376741409301758, 0.15203332901000977, 0.11913038790225983, 0.02599950321018696, 0.049948398023843765, -0.10562757402658463, -0.06971853971481323, 0.2232983559370041, 0.06395744532346725, 0.3413081765174866, -0.13960149884223938, -0.05709769204258919, 0.0445903055369854, -0.13899509608745575, 0.06952948123216629, 0.22487320005893707, 0.23979146778583527, 0.035291336476802826, 0.3201744556427002, -0.276075154542923, 0.19367565214633942, -0.3226602375507355, -0.1271836906671524, 0.2259618192911148, -0.10489299148321152, 0.12255571037530899, -0.045249659568071365, -0.14784111082553864, -0.03347248584032059, 0.14364826679229736, -0.05625024810433388, -0.0047683678567409515, -0.025357075035572052, 0.046783991158008575, 0.1095724031329155, 0.11055673658847809, 0.16277502477169037, 0.2052970975637436, -0.010737800039350986, -0.09071069955825806, -0.229054793715477, -0.12293566018342972, 0.10405492782592773, -0.49995264410972595, -0.2810652554035187, -0.12465652823448181, -0.12292386591434479, -0.041397880762815475, 0.17331482470035553, 0.16130350530147552, -0.17912425100803375, -0.10529476404190063, -0.2946234345436096, -0.0748768299818039, 0.1571912318468094, 0.12116176635026932, -0.15809711813926697, -0.2852028012275696, -0.18565402925014496, 0.25059598684310913, 0.2021268755197525, 0.0071811373345553875, -0.31342288851737976, -0.45036470890045166, -0.20310235023498535, 0.09424325823783875, 0.18370750546455383, 0.049496736377477646, -0.17431168258190155, -0.41501331329345703, -0.35596004128456116, -0.06782638281583786, -0.051665354520082474, -0.08632075041532516, 0.2459336817264557, 0.15142855048179626, 0.009251685813069344, 0.14378628134727478, -0.05968888849020004, 0.12582632899284363, -0.009438531473279, -0.11659549921751022, 0.01871701329946518, 0.1087704598903656, 0.5619325637817383, -0.2405301332473755, 0.08136490732431412, 0.22564081847667694, -0.22077541053295135, -0.0027449275366961956, 0.17003439366817474, -0.23751498758792877, -0.1057409718632698, -0.3307079076766968, 0.11682543903589249, -0.07550293207168579, 0.07225093990564346, -0.06732898950576782, -0.19501343369483948, -0.1696312129497528, -0.24820347130298615, -0.31090450286865234, 0.07930809259414673, 0.05809414014220238, -0.20603762567043304, -0.025969501584768295, 0.10948605090379715, 0.25654661655426025, -0.031252749264240265, -0.23452311754226685, -0.22430431842803955, -0.00479466887190938, 0.14728443324565887, 0.12138061225414276, -0.02447543293237686, -0.19996105134487152, -0.3154944181442261, 0.2517463266849518, -0.16749589145183563, -0.018210893496870995, 0.06868591904640198, 0.22232720255851746, 0.04044889286160469, -0.22554506361484528, 0.12259150296449661, -0.028090013191103935, -0.06804908066987991, -0.006725342944264412, 0.15862499177455902, -0.2225770205259323, 0.0026996585074812174, -0.05123212933540344, -0.038203150033950806, -0.0742080807685852, 0.046813249588012695, 0.0008522839052602649, 0.07455087453126907, 0.06207314506173134, -0.017745397984981537, 0.11275531351566315, -0.2341795414686203, -0.26522526144981384, 0.018455347046256065, -0.14562435448169708, 0.22354859113693237, 0.06461201608181, 0.08529216796159744, 0.13666903972625732, 0.42053455114364624, -0.06099702790379524, -0.3917900621891022, -0.011640885844826698, 0.006749960593879223, 0.02272181585431099, -0.2165842205286026, -0.05420874059200287, 0.33940303325653076, -0.27612465620040894, 0.007903718389570713, -0.44127824902534485, -0.3003014326095581, -0.23887954652309418, 0.22619710862636566, 0.17969253659248352, 0.059596553444862366, 0.13337798416614532, 0.32932257652282715, -0.0013152160681784153, -0.15905798971652985, 0.09652156382799149, 0.07705268263816833, 0.26833343505859375, -0.16108107566833496, -0.09204217046499252, 0.12418577075004578, -0.09870459884405136, 0.08357807248830795, -0.030204782262444496, 0.0978679284453392, -0.04248806834220886, 0.04659036919474602, -0.21292686462402344, -0.14310288429260254, -0.029123825952410698, 0.354616641998291, 0.06771709769964218, -0.17204155027866364, 0.16480690240859985, 0.16550543904304504, -0.14233289659023285, -0.13717074692249298, -0.12329301238059998, -0.12528300285339355, -0.059807609766721725, 0.14972659945487976, 0.1371557116508484, 0.025644425302743912, 0.09661456197500229, -0.0885753184556961, -0.12394046783447266, 0.03930499404668808, 0.11507079005241394, 0.010503227822482586, -0.08639924228191376, -0.04658292979001999, 0.15728403627872467, -0.2073657214641571, -0.11176411807537079, -0.012760811485350132, -0.03922543302178383, 0.017825957387685776, 0.25842389464378357, 0.20457014441490173, 0.31050682067871094, 0.16057462990283966, 0.22540739178657532, -0.08083226531744003, -0.050454139709472656, 0.022554578259587288, -0.11731176823377609, -0.10446538776159286, -0.0005604845937341452, 0.26601818203926086, 0.06522072106599808, -0.023678556084632874, 0.10024699568748474, -0.08078537881374359, 0.19249841570854187, -0.10217735171318054, 0.13022203743457794, -0.012020514346659184, -0.14713995158672333, -0.010208401829004288, 0.12051283568143845, 0.15847109258174896, -0.08743864297866821, 0.21838296949863434, 0.16732724010944366, 0.16450849175453186, -0.22293533384799957, -0.18643233180046082, -0.16210032999515533, 0.29497021436691284, 0.05307783558964729, 0.14136946201324463, -0.17315302789211273, 0.07576719671487808, -0.13433383405208588, 0.3474351763725281, 0.1295257806777954, 0.08352750539779663, -0.11207856982946396, 0.025808075442910194, -0.20580819249153137, 0.21571201086044312, 0.1056971624493599, 0.27008968591690063, -0.24860987067222595, -0.019809845834970474, -0.309955358505249, 0.37220630049705505, 0.01280883327126503, -0.1545354127883911, -0.14562080800533295, 0.16058100759983063, 0.16617049276828766, -0.09831297397613525, 0.1778274029493332, -0.15253520011901855, 0.23429326713085175, -0.10359100997447968, 0.12635771930217743, 0.14516642689704895, 0.0515935942530632, 0.004308037925511599, 0.018213436007499695, 0.1365652233362198, -0.027245352044701576, 0.030843380838632584, -0.25877371430397034, -0.23854658007621765, -0.09721934795379639, 0.12350969761610031, -0.28468576073646545, -0.1918051689863205, -0.05446963757276535, -0.005649734288454056, -0.03433088958263397, -0.2494555115699768, 0.05369026958942413, -0.047301627695560455, 0.10950401425361633, -0.336495965719223, -0.1294724941253662, -0.06687112897634506, 0.14538045227527618, -0.01243412122130394, 0.36424246430397034, 0.40574443340301514, 0.19300423562526703, -0.025815969333052635, 0.14323066174983978, -0.11240226775407791, -0.06683817505836487, 0.1625470668077469, 0.1316753625869751, 0.05222901329398155, 0.07672076672315598, -0.015837496146559715, 0.007922236807644367, -0.2297075092792511, 0.06151166558265686, 0.13971702754497528, 0.1821954846382141, 0.04471055418252945, 0.002911954652518034, 0.3620627224445343, 0.2115994393825531, -0.14493773877620697, -0.14306797087192535, 0.03309568390250206, 0.13559968769550323, 0.5005417466163635, 0.07716596126556396, 0.10008617490530014, -0.17634254693984985, -0.07449834048748016, -0.5466627478599548, 0.03901587799191475, -0.05365792289376259, -0.04520269110798836, 0.14819182455539703, -0.03636390343308449, -0.07665057480335236, -0.07358676940202713, 0.2536833882331848, -0.08498828113079071, 0.06887076795101166, 0.13675224781036377, 0.39739927649497986, 0.2274298369884491, -0.3072926104068756, -0.27515122294425964, 0.019808052107691765, 0.03215715289115906, 0.14961862564086914, -0.149581179022789, -0.1989806443452835, -0.10161341726779938, 0.06328821182250977, -0.14551839232444763, -0.26800093054771423, 0.014509272761642933, -0.06129632890224457, -0.12074998021125793, 0.4381791651248932, 0.4393386244773865, -0.20845022797584534, 0.32402047514915466, 0.24251854419708252, -0.01870085299015045, 0.04737257957458496, 0.5371402502059937, 0.129365473985672, 0.4687390625476837, 0.7613554000854492, 0.009338577277958393, -0.33543768525123596, -0.009965158998966217, 0.39468392729759216, 0.004412798676639795, 0.18866418302059174, 0.23543187975883484, 0.12333791702985764, -0.08829335868358612, 0.07675712555646896, -0.055850572884082794, -0.057613637298345566, 0.2302549183368683, -0.08545847982168198, -0.10043103247880936, -0.05332941561937332, 0.02217264287173748, -0.2552758753299713, -0.04628633335232735, 0.14546801149845123, 0.0923265889286995, -0.1359865367412567, -0.06598501652479172, -0.1835326999425888, -0.03521663695573807, 0.020466910675168037, 0.04445485398173332, -0.14511553943157196, -0.11087848246097565, -0.26065096259117126, 0.2503766119480133, 0.2035636603832245, 0.08325158059597015, -0.0799156129360199, 0.02957906574010849, -0.26315292716026306, 0.1099495068192482, 0.34781011939048767, -0.14363431930541992, 0.003809445071965456, -0.09231055527925491, -0.13357391953468323, -0.014154323376715183, -0.10875794291496277, -0.05841374397277832, 0.018554197624325752, 0.3104307949542999, 0.04843554645776749, 0.4212809205055237, -0.09793634712696075, 0.17662037909030914, -0.13249745965003967, -0.11055171489715576, 0.09858652204275131, -0.04906292259693146, 0.03649260848760605, 0.22515396773815155, -0.06562502682209015, 0.4037800133228302, 0.20533715188503265, 0.39776188135147095, 0.27792486548423767, 0.12009122222661972, 0.17359769344329834, 0.3026885986328125, 0.18834689259529114, 0.17131608724594116, -0.5521246194839478, -0.2294369488954544, -0.20987868309020996, 0.4768025577068329, 0.3520669639110565, 0.28120481967926025, -0.500520646572113, -0.21509738266468048, -0.21615076065063477, 0.2264014333486557, -0.15385456383228302, 0.2637423276901245, 0.002350802766159177, 0.3350529670715332, -0.010830380953848362, 0.3420714735984802, 0.08792469650506973, 0.06158953532576561, -0.39256978034973145, 0.052607808262109756, -0.27629801630973816, 0.3423753082752228, 0.3346605896949768, 0.2808440327644348, 0.01829085312783718, -0.2652864158153534, -0.25723910331726074, -0.35899752378463745, -0.05475116893649101, -0.5582103133201599, -0.14375491440296173, -0.2707252502441406, -0.023839669302105904, 0.034377310425043106, 0.15503853559494019, -0.40808072686195374, 0.10718519240617752, 0.33495044708251953, 0.2594584822654724, -0.2381509691476822, -0.16962620615959167, -0.14371612668037415, -0.010792049579322338, 0.13672827184200287, 0.057538047432899475, 0.19842220842838287, 0.2713744342327118, 0.144211545586586, -0.1674240678548813, -0.1930239498615265, -0.05734684318304062, 0.10216394811868668, -0.31403622031211853, 0.10556557029485703, -0.06799401342868805, -0.025111092254519463, 0.12084559351205826, -0.15017710626125336, 0.07821139693260193, -0.021682292222976685, -0.00807808805257082, -0.09399846941232681, 0.1279187798500061, -0.05568390712141991, 0.08608219027519226, 0.1083480641245842, 0.1270437389612198, 0.23223315179347992, -0.35729268193244934, -0.05415324494242668, -0.2338981330394745, -0.18495239317417145, -0.17804445326328278, 0.008119302801787853, 0.11426880210638046, 0.1157437264919281, 0.2998409867286682, -0.11045029014348984, -0.12497954815626144, -0.21184471249580383, 0.08725662529468536, -0.034760814160108566, 0.06760228425264359, -0.23564782738685608, -0.10475828498601913, 0.1037852019071579, -0.06717454642057419, -0.14969642460346222, -0.28310951590538025, -0.016661744564771652, 0.013457879424095154, -0.08818569034337997, 0.08025646209716797, -0.0026949490420520306, -0.04275403916835785, -0.013927802443504333, 0.1591716706752777, 0.12880274653434753, -0.03356810286641121, -0.056954607367515564, 0.06763801723718643, 0.12944014370441437, 0.0879063680768013, 0.2308659851551056, 0.007845998741686344, -0.22521699965000153, -0.1688985377550125, 0.12879401445388794, 0.02014046721160412, -0.042829688638448715, -0.1451757401227951, 0.013610491529107094, -0.15390169620513916, 0.013608962297439575, 0.11596015095710754, 0.1888887584209442, -0.3237290382385254, -0.04209430143237114, -0.23826070129871368, -0.0395498052239418, -0.0032154733780771494, -0.20027516782283783, 0.11819545924663544, 0.23162086308002472, 0.08556610345840454, 0.06071693077683449, 0.029276389628648758, -0.06452776491641998, 0.09015143662691116, 0.11378505825996399, -0.14643293619155884, -0.4332614541053772, -0.11077496409416199, -0.1467481553554535, 0.08128130435943604, -0.12969763576984406, 0.0012744810665026307, 0.057229917496442795, 0.057308096438646317, -0.02023048885166645, -0.10377603024244308, 0.05862005054950714, -0.17627032101154327, 0.018547028303146362, 0.24665559828281403, 0.2374354600906372, -0.1455119401216507, -0.12087920308113098, 0.010596209205687046, 0.08088832348585129, 0.061453450471162796, 0.23137874901294708, -0.09816927462816238, 0.03302271291613579, -0.22098594903945923, 0.1727316528558731, -0.09915006160736084, 0.060179971158504486, -0.19783256947994232, -0.28553006052970886, -0.13842350244522095, 0.11619476228952408, -0.01746063120663166, 0.10518227517604828, -0.08591587841510773, -0.12781082093715668, -0.03698519617319107, 0.1395503431558609, 0.1851237565279007, 0.024019191041588783, 0.09547875821590424, 0.0365985631942749, -0.17277826368808746, -0.12262619286775589, 0.19472476840019226, 0.1259312629699707, -0.19548305869102478, -0.12939564883708954, 0.365329384803772, 0.12385398894548416, 0.17005644738674164, -0.1303817182779312, -0.18914246559143066, -0.0914706289768219, 0.18915438652038574, 0.034421298652887344, -0.3857429325580597, 0.005521008279174566, -0.1914261430501938, 0.23804230988025665, -0.018368367105722427, -0.39086630940437317, -0.17648418247699738, -0.1424591988325119, 0.04992842301726341, -0.27690237760543823, -0.10620336979627609, 0.03262642025947571, -0.14256325364112854, -0.19945888221263885, 0.17367057502269745, 0.202113077044487, 0.199491947889328, 0.15145444869995117, -0.2048252671957016, -0.2029174119234085, -0.02756362594664097, 0.305426687002182, 0.2780124843120575, -0.005703549832105637, -0.1403028964996338, -0.10344085842370987, 0.32093074917793274, -0.29811885952949524, -0.08671156316995621, 0.15626148879528046, 0.2151884138584137, 0.14979703724384308, -0.23338040709495544, 0.042046789079904556, -0.17399099469184875, -0.03577366843819618, -0.15596601366996765, -0.0015976452268660069, -0.049738459289073944, 0.033012449741363525, 0.12835170328617096, 0.24702970683574677, 0.09176378697156906, 0.020926153287291527, 0.10527079552412033, 0.17619791626930237, -0.06651456654071808, 0.15877386927604675, -0.22935014963150024, 0.026918647810816765, -0.2453814595937729, 0.05890491604804993, 0.12702542543411255, 0.05827094987034798, -0.23218894004821777, 0.007259096950292587, -0.11988674104213715, -0.016535548493266106, -0.19527584314346313, -0.18494831025600433, -0.11172220855951309, -0.011691217310726643, -0.03975679725408554, 0.4306931495666504, 0.12331749498844147, 0.3486710488796234, -0.1925499141216278, -0.1870536357164383, 0.0628240555524826, 0.23779016733169556, 0.02255980297923088, 0.087490513920784, -0.25528085231781006, 0.2674635052680969, 0.32442763447761536, 0.019229717552661896, 0.08506575971841812, -0.05569848790764809, 0.1663999706506729, 0.33814460039138794, 0.033053264021873474, -0.020047105848789215, 0.6953355669975281, 0.19133074581623077, -0.13447637856006622, -0.2254500836133957, -0.19316430389881134, -0.47390416264533997, 0.27882450819015503, -0.18260468542575836, -0.09616696089506149, 0.26895570755004883, -0.15889061987400055, -0.125423863530159, 0.17567941546440125, -0.09827541559934616, -0.05449948459863663, -0.2211194783449173, -0.003999694716185331, 0.0547671876847744, 0.18627063930034637, 0.014362141489982605, -0.025828005746006966, -0.237132728099823, -0.030379479750990868, -0.18703457713127136, -0.06419965624809265, -0.056388240307569504, -0.10315826535224915, -0.1100865826010704, -0.052154019474983215, 0.442324697971344, -0.038551121950149536, -0.06107446551322937, -0.4259032607078552, -0.06020611152052879, 0.07156573235988617, 0.22346872091293335, 0.10082016885280609, -0.01248503290116787, -0.13165874779224396, 0.32656383514404297, -0.04192199930548668, 0.13945317268371582, 0.1435880959033966, 0.06589707732200623, 0.12052006274461746, -0.2600192725658417, -0.038384560495615005, -0.36561301350593567, 0.1424921303987503, -0.3224267363548279, -0.05753064155578613, -0.332655668258667, 0.11031447350978851, -0.013161391951143742, 0.06195276230573654, 0.08062154799699783, -0.008894859813153744, -0.06161718815565109, 0.05813943222165108, -0.051790766417980194, 0.29091739654541016, -0.022022360935807228, 0.012053104117512703, 0.19785712659358978, -0.1577816903591156, -0.1558879315853119, 0.08956265449523926, 0.03611547127366066, 0.01882258430123329, -0.24790294468402863, 0.026268858462572098, -0.04637173190712929, 0.18660618364810944, -0.06666705757379532, 0.12985849380493164, -0.2857733368873596, -0.07617030292749405, -0.13155511021614075, -0.034536752849817276, -0.3160887658596039, -0.192848339676857, 0.13158270716667175, 0.22365838289260864, -0.1169322058558464, 0.19617076218128204, -0.17530803382396698, -0.2522325813770294, 0.23491171002388, 0.31934085488319397, -0.18174684047698975, 0.1639876514673233, 0.12052974104881287, -0.10175248980522156, 0.24067683517932892, -0.14252930879592896, -0.2687358856201172, 0.09905017912387848, 0.13678386807441711, 0.13607369363307953, 0.03022749163210392, 0.1591775119304657, 0.389082670211792, 0.2883717119693756, 0.21790854632854462, 0.10149291157722473, -0.16297553479671478, 0.33577919006347656, 0.3814420998096466, 0.16674692928791046, -0.19333012402057648, -0.18146225810050964, -0.011392990127205849, 0.11460860818624496, 0.279142290353775, 0.26239216327667236, 0.18083354830741882, -0.00022737817198503762, -0.5003570914268494, 0.3751177191734314, 0.4455930292606354, -0.5794057250022888, -0.12485173344612122, -0.9218510389328003, -0.27790597081184387, -0.45748019218444824, 0.36451876163482666, -0.8723673224449158, -0.5617144703865051, -0.8538143634796143, 0.19238074123859406, -0.6109445691108704, 0.3576700985431671, -0.5678138136863708, -0.09856158494949341, -0.050404492765665054, 0.0063247159123420715, 0.16272112727165222, 0.15187104046344757, -0.20972312986850739, -0.34574857354164124, 0.017525890842080116, 0.04661044478416443, 0.028338991105556488, -0.07986856251955032, 0.20757520198822021, -0.0859258770942688, 0.10174092650413513, -0.14468663930892944, -0.08665771782398224, -0.06682097166776657, -0.09950016438961029, 0.1256258338689804, -0.208171546459198, -0.38297271728515625, 0.1756163388490677, 0.02301291935145855, -0.11027000844478607, 0.061396438628435135, -0.3995589017868042, 0.14869706332683563, 0.26271578669548035, 0.1593870222568512, 0.11225005984306335, 0.07183618098497391, 0.0937117412686348, -0.03352143615484238, -0.11113885045051575, -0.05107516422867775, 0.3674471080303192, 0.0942699983716011, 0.07818682491779327, -0.01737968809902668, 0.24452897906303406, 0.032104358077049255, 0.010175886563956738, -0.07131383568048477, -0.12058145552873611, 0.13259901106357574, 0.08949267119169235, 0.17694485187530518, -0.06266290694475174, 0.32799625396728516, 0.1513674408197403, -0.16951781511306763, -0.0830119252204895, -0.004038720857352018, 0.3329843282699585, -0.15292413532733917, -0.054194845259189606, -0.055794961750507355, -0.0016383930342271924, 0.21172671020030975, 0.1168988049030304, 0.39298126101493835, -0.12776567041873932, -0.014679127372801304, 0.04295913130044937, 0.38921022415161133, 0.10588731616735458, -0.11825509369373322, -0.031765516847372055, 0.08806096762418747, 0.15811629593372345, -0.1695629358291626, 0.3410525321960449, 0.07398863136768341, 0.05428929999470711, -0.06018317863345146, 0.3070973753929138, -0.21032124757766724, -0.12918463349342346, -0.19919800758361816, -0.17343145608901978, 0.0699625313282013, 0.2391263097524643, -0.4532748758792877, -0.22785760462284088, -0.026089182123541832, -0.0188138447701931, 0.029274970293045044, 0.04663257673382759, 0.06744349002838135, 0.4630088806152344, 0.013945693150162697, -0.08813665807247162, -0.21043893694877625, 0.14498941600322723, 0.1221856027841568, 0.0662151426076889, 0.1644906997680664, -0.2559976875782013, 0.2699573338031769, -0.13106682896614075, -0.0627903863787651, 0.18100228905677795, -0.17396540939807892, -0.09966814517974854, -0.050575122237205505, -0.13078409433364868, -0.11838462203741074, 0.12664775550365448, -0.023984668776392937, -0.1726004183292389, -0.010186535306274891, 0.19480101764202118, 0.02977575734257698, 0.11354194581508636, -0.20590664446353912, 0.18398180603981018, 0.2432640939950943, -0.2230326533317566, -0.024631742388010025, -0.0716075524687767, -0.007769219111651182, 0.393003910779953, -0.20697925984859467, 0.1538432389497757, -0.2703157961368561, 0.2993064820766449, 0.21934829652309418, 0.19493849575519562, -0.1912156641483307, 0.19293923676013947, -0.14334964752197266, -0.27112269401550293, -0.16799066960811615, -0.1755995899438858, 0.1041693463921547, -0.039997030049562454, 0.02934698760509491, 0.10506367683410645, 0.19768083095550537, -0.21664093434810638, 0.1584220975637436, 0.18371544778347015, 0.057597603648900986, 0.08454463630914688, -0.23417659103870392, 0.2109866440296173, -0.15019762516021729, -0.11814022064208984, 0.11936028301715851, -0.1665743738412857, 0.22165460884571075, -0.08120512217283249, -0.13687023520469666, 0.04774903878569603, 0.1894802302122116, 0.3514792323112488, 0.1289241462945938, 0.18301115930080414, 0.25568270683288574, 0.09587633609771729, 0.048657920211553574, -0.10602379590272903, 0.004648291971534491, 0.05686784163117409, -0.05763396993279457, -0.008827553130686283, 0.15680664777755737, 0.12499352544546127, 0.15587207674980164, 0.16202124953269958, -0.03240891918540001, 0.11499609053134918, 0.1408606618642807, -0.08710897713899612, 0.017291534692049026, 0.002038889564573765, 0.19853274524211884, 0.29296669363975525, -0.2916980981826782, -0.056927941739559174, -0.10169712454080582, -0.1283770203590393, 0.06932984292507172, 0.10650725662708282, -0.18878056108951569, 0.2613208591938019, 0.22233350574970245, -0.08401582390069962, -0.0032775464933365583, -0.19995880126953125, 0.16901616752147675, 0.005332954693585634, -0.20952939987182617, -0.18127256631851196, -0.3118722438812256, 0.4124877154827118, -0.16992643475532532, 0.03672013804316521, 0.1751132607460022, 0.16472932696342468, -0.16281573474407196, 0.018467571586370468, -0.1554691195487976, -0.20825865864753723, 0.28370609879493713, -0.367378294467926, -0.17856836318969727, 0.07548844069242477, 0.0611066035926342, 0.10680816322565079, -0.261138379573822, 0.13757310807704926, -0.09107893705368042, 0.09739959239959717, 0.09065382927656174, -0.1683807224035263, 0.09111415594816208, 0.18528789281845093, 0.023310592398047447, -0.17869383096694946, 0.36760276556015015, 0.20429877936840057, 0.1410495638847351, 0.08069537580013275, 0.04516962170600891, 0.29862281680107117, -0.22012442350387573, -0.22693075239658356, -0.12792545557022095, -0.09554843604564667, 0.21770305931568146, 0.008362164720892906, 0.015182259492576122, 0.15036581456661224, -0.13172568380832672, 0.005340547300875187, -0.0022534586023539305, -0.03926417976617813, 0.26239287853240967, 0.1756337285041809, 0.2573810815811157, -0.3197215497493744, 0.04660719260573387, -0.05479210987687111, -0.13912709057331085, 0.154433012008667, -0.3488980531692505, 0.12605400383472443, 0.1595683991909027, -0.23540249466896057, 0.26172754168510437, 0.25267353653907776, -0.5389640927314758, 0.42164725065231323, -0.10657750815153122, -0.10270168632268906, 0.15325462818145752, -0.294302761554718, 0.038051772862672806, -0.15109507739543915, -0.004883198533207178, 0.25339728593826294, 0.03707490116357803, 0.34909969568252563, 0.04892928898334503, 0.09660792350769043, -0.09288095682859421, -0.017453918233513832, -0.048543933779001236, -0.4522320032119751, -0.33472442626953125, -0.029644690454006195, 0.2393077313899994, 0.034414008259773254, 0.005783224944025278, -0.1447320282459259, -0.1125086322426796, -0.16032221913337708, -0.28542739152908325, -0.13776002824306488, -0.014829003252089024, 0.10075335949659348, 0.018817784264683723, -0.06376469135284424, -0.036462489515542984, -0.09562039375305176, -0.1863524317741394, -0.013235627673566341, 0.1754351109266281, -0.0642886534333229, -0.3143739402294159, -0.16857092082500458, -0.018126998096704483, 0.00842277705669403, 0.06767435371875763, -0.2408425658941269, -0.028897879645228386, 0.10532218217849731, 0.02420181594789028, 0.06881731748580933, 0.17739206552505493, -0.13503658771514893, -0.31488463282585144, -0.10668423771858215, -0.18709412217140198, -0.07649511843919754, 0.03408876061439514, -0.050380486994981766, -0.03095267526805401, -0.04097267612814903, 0.15347373485565186, -0.17635613679885864, 0.22226008772850037, -0.01016732957214117, -0.07188290357589722, 0.2443252056837082, -0.14544139802455902, 0.043987736105918884, -0.2818112373352051, -0.08558378368616104, -0.05461793765425682, -0.20578733086585999, 0.06303785741329193, -0.2320907562971115, 0.4442065358161926, -0.25431641936302185, -0.04296740144491196, -0.0936204344034195, 0.05286899209022522, 0.11935783922672272, -0.15109224617481232, -0.08156602829694748, 0.11309323459863663, -0.10470958054065704, 0.0048228478990495205, 5.74330406379886e-05, 0.3755859136581421, 0.3557685315608978, 0.018956709653139114, -0.0387130007147789, -0.13647042214870453, 0.006187287624925375, -0.06835723668336868, 0.06782734394073486, -0.0875319093465805, 0.12820178270339966, -0.2418990582227707, 0.22718025743961334, 0.04578567296266556, -0.051718439906835556, 0.005435870494693518, 0.18681885302066803, 0.016190379858016968, 0.08077195286750793, 0.2461560219526291, 0.15974698960781097, -0.11033981293439865, -0.0480925552546978, -0.07107403874397278, -0.15843318402767181, 0.16150452196598053, -0.12360192835330963, -0.18982970714569092, 0.5151471495628357, 0.07201889902353287, 0.21572723984718323, -0.20294401049613953, 0.011808482930064201, 0.22406341135501862, -0.12299855053424835, -0.3689625859260559, 0.040959082543849945, 0.14275364577770233, -0.052872318774461746, 0.32062771916389465, -0.007762806955724955, 0.21066217124462128, -0.3268353044986725, -0.2708154618740082, 0.1441802829504013, -0.02869080938398838, -0.3015548884868622, 0.18463198840618134, 0.17777621746063232, 0.12921002507209778, -0.0029058957006782293, 0.06135169789195061, 0.03440628945827484, 0.025437278673052788, 0.00843893177807331, 0.20438243448734283, -0.008805819787085056, -0.06294325739145279, 0.14533035457134247, -0.03894541785120964, 0.017736846581101418, 0.0005516609526239336, -0.2680808901786804, -0.13479718565940857, 0.07642068713903427, -0.045816220343112946, -0.31886792182922363, 0.1296478509902954, -0.1835196167230606, 0.08945578336715698, -0.27244943380355835, 0.08874998986721039, -0.10673665255308151, -0.1414833664894104, 0.21799799799919128, -0.026865215972065926, -0.1969987452030182, -0.2150696963071823, 0.12478852272033691, 0.01924409158527851, 0.2337922602891922, 0.017146354541182518, -0.19089753925800323, 0.15232066810131073, 0.15092989802360535, 0.288919597864151, 0.04397358000278473, 0.03463873639702797, -0.006277100183069706, -0.19864493608474731, -0.07313729077577591, -0.18999837338924408, 0.058800872415304184, 0.000403481419198215, -0.15342938899993896, 0.09263454377651215, -0.22879894077777863, -0.0895087793469429, 0.2624729871749878, 0.14723707735538483, -0.048440344631671906, -0.041522227227687836, -0.05159856751561165, 0.08980663120746613, 0.18670865893363953, -0.05075610429048538, 0.08128678053617477, -0.10053776949644089, 0.14161229133605957, 0.0001782661274774, -0.20263200998306274, 0.050520166754722595, 0.08749671280384064, -0.05262601003050804, 0.14171858131885529, 0.09394745528697968, 0.2530061900615692, 0.13402538001537323, -0.23243561387062073, 0.1637880504131317, 0.04698677361011505, -0.028518950566649437, 0.07739729434251785, 0.04156837612390518, 0.04943851754069328, 0.09859266132116318, -0.2395714819431305, -0.07999123632907867, -0.017419733107089996, -0.08526665717363358, -0.31890398263931274, -0.0596068874001503, -0.018835121765732765, 0.05984814092516899, 0.2789746820926666, -0.01108428742736578, 0.1517491191625595, 0.0014471901813521981, 0.06659293919801712, 0.40789303183555603, -0.23903809487819672, 0.07465238869190216, 0.2384430319070816, -0.31435468792915344, -0.08642087876796722, -0.029083075001835823, 0.04617840796709061, -0.1779608130455017, -0.13671351969242096, 0.13887137174606323, 0.05052480101585388, -0.20048734545707703, 0.13450036942958832, -0.07323631644248962, -0.0468047633767128, 0.28150448203086853, 0.14566481113433838, 0.08185982704162598, 0.4122704863548279, -0.1328226923942566, -0.036943238228559494, 0.08821339905261993, 0.027796663343906403, -0.03716163709759712, -0.006014276761561632, -0.26156356930732727, -0.21555134654045105, 0.01323939673602581, -0.192389577627182, 0.05961008742451668, 0.2094043791294098, -0.0936879813671112, -0.27937307953834534, 0.3799895942211151, 0.09385988116264343, 0.01828325167298317, -0.494894802570343, -0.16073107719421387, 0.13125069439411163, -0.1755037009716034, 0.21355868875980377, -0.07607340812683105, -0.22155630588531494, 0.18905439972877502, -0.05616958439350128, -0.22124657034873962, -0.12259197235107422, 0.1852336972951889, 0.027829589322209358, 0.07908757030963898, -0.16741406917572021, 0.08903839439153671, 0.0723721832036972, -0.3749525547027588, -0.19683970510959625, -0.1868004947900772, 0.2630171477794647, -0.1639048308134079, -0.20031358301639557, -0.0019368547946214676, 0.1661948710680008, 0.3197023272514343, -0.23361290991306305, -0.1480158120393753, -0.23858188092708588, 0.03647654876112938, 0.4718916118144989, 0.38397741317749023, -0.0629659965634346, -0.13461467623710632, -0.017814796417951584, -0.012946205213665962, -0.0600130632519722, -0.009903134778141975, 0.2290267050266266, -0.2241070717573166, 0.3385158181190491, -0.03549399971961975, -0.14000831544399261, 0.2534889280796051, -0.23131558299064636, -0.20672747492790222, -0.1012248545885086, 0.00030380181851796806, 0.2723889648914337, 0.10780276358127594, 0.2258508801460266, 0.07646826654672623, 0.00023271249665413052, -0.1648351103067398, -0.1406610757112503, 0.01789441518485546, -0.34069740772247314, 0.05188880115747452, -0.12735438346862793, -0.005511551629751921, 0.10591403394937515, 0.034775134176015854, 0.0641714334487915, -0.16862347722053528, 0.1632562279701233, 0.045691777020692825, 0.47439083456993103, 0.0032097359653562307, -0.24630163609981537, 0.11333691328763962, 0.23346662521362305, -0.008804921060800552, 0.1785404086112976, -0.10655205696821213, -0.08841583132743835, 0.12513692677021027, -0.025230973958969116, 0.1282554417848587, -0.09318148344755173, -0.15765345096588135, 0.031105054542422295, -0.10819176584482193, 0.035719264298677444, -0.18075373768806458, -0.11071324348449707, 0.05162760987877846, -0.09902796894311905, 0.21846617758274078, -0.038224801421165466, -0.1207713857293129, 0.08689738065004349, 0.0010929269483312964, -0.025821134448051453, 0.08811558783054352, 0.18377499282360077, -0.16362766921520233, -0.11592818796634674, 0.09209173917770386, 0.23618315160274506, 0.0009560384787619114, -0.04860995337367058, 0.28387171030044556, 0.0701570212841034, 0.043949831277132034, 0.0002467928861733526, 0.07072310149669647, -0.362758994102478, 0.17917762696743011, 0.1529347002506256, -0.1932946741580963, 0.2747350335121155, -0.191518172621727, -0.240634948015213, -0.27125805616378784, -0.20309965312480927, 0.15720798075199127, 0.17819418013095856, 0.22016392648220062, 0.15268965065479279, -0.1861696094274521, 0.03327329829335213, -0.09565223008394241, 0.09414321184158325, -0.15737056732177734, -0.22169531881809235, 0.16145442426204681, 0.10524246096611023, 0.10101229697465897, 0.07551229000091553, -0.04331565275788307, 0.16174422204494476, 0.19433899223804474, -0.17182683944702148, 0.154859721660614, 0.5773361921310425, 0.33707696199417114, -0.12037153542041779, -0.14315615594387054, -0.030702948570251465, 0.2657366991043091, 0.03147164732217789, 0.03496303781867027, -0.05999097600579262, -0.13578839600086212, 0.013820009306073189, -0.040760014206171036, -0.2347414642572403, -0.00542505644261837, 0.21717651188373566, 0.045758336782455444, 0.25608715415000916, -0.2703937292098999, -0.10896287858486176, 0.03549442067742348, 0.011257956735789776, -0.15216828882694244, -0.022225113585591316, -0.018445899710059166, 0.09637890756130219, -0.16153374314308167, -0.18355999886989594, 0.08385244756937027, -0.1107395589351654, -0.0598733015358448, -0.3077246844768524, 0.14493294060230255, 0.11108318716287613, -0.06381171941757202, -0.03230804204940796, -0.0495259165763855, -0.08914059400558472, 0.04559958726167679, 0.16606007516384125, -0.0017314066644757986, 0.21552446484565735, -0.03360086306929588, 0.01561006996780634, -0.13913771510124207, 0.2825961709022522, 0.18117572367191315, 0.030003247782588005, -0.2537098228931427, -0.11079446971416473, 0.18004818260669708, -0.11224573850631714, -0.10134753584861755, 0.07368732243776321, 0.1670921891927719, 0.18136943876743317, -0.027475839480757713, 0.13121308386325836, 0.1383497714996338, -0.2518943250179291, 0.03659024462103844, -0.3332754373550415, -0.2654372453689575, 0.1401383876800537, 0.14258752763271332, 0.2541538178920746, 0.14281852543354034, 0.1132054403424263, 0.09958039224147797, 0.07901626825332642, -0.08312858641147614, -0.11602693051099777, -0.22666305303573608, -0.1426750123500824, -0.0558096319437027, -0.606619119644165, 0.034342508763074875, -0.3006695508956909, 0.009145255200564861, -0.11675378680229187, -0.13175183534622192, 0.21865880489349365, -0.27131202816963196, -0.16827507317066193, -0.33850613236427307, 0.0384441502392292, -0.054222315549850464, 0.03463313356041908, 0.13140861690044403, -0.39562976360321045, -0.20726723968982697, 0.13356629014015198, -0.16149836778640747, -0.26812273263931274, 0.3957516551017761, 0.07682739943265915, 0.09876827895641327, 0.10930836200714111, 0.03493022918701172, -0.16072098910808563, 0.04726855084300041, -0.05762439966201782, -0.2834523320198059, 0.24695727229118347, 0.002344383392482996, 0.053206976503133774, -0.3092515468597412, -0.2702329158782959, 0.0019648740999400616, -0.07660804688930511, -0.054868195205926895, -0.15413236618041992, 0.05394548550248146, -0.0016202637925744057, 0.132797971367836, 0.12874217331409454, 0.2540941834449768, 0.20847970247268677, -0.1855245977640152, 0.20969203114509583, 0.2276560664176941, 0.027561044320464134, 0.28079310059547424, 0.1216646209359169, 0.006788917351514101, -0.11524882167577744, -0.10391096770763397, -0.055125642567873, -0.08210646361112595, -0.00021722035307902843, 0.07626669108867645, -0.03643679991364479, 0.15158066153526306, 0.16768969595432281, 0.03067553974688053, -0.058046478778123856, 0.283910870552063, 0.08975548297166824, 0.11750710755586624, 0.16121171414852142, 0.18635903298854828, 0.3487752676010132, -0.05438467860221863, 0.2848479747772217, 0.05180807784199715, -0.010364720597863197, 0.2624746859073639, 0.18838801980018616, -0.17075708508491516, -0.10811758786439896, -0.16080257296562195, 0.18013368546962738, -0.17031919956207275, -0.08732616156339645, -0.2842138111591339, -0.047739993780851364, 0.14418065547943115, 0.20603342354297638, 0.020730754360556602, 0.02056269533932209, -0.17340289056301117, 0.1271890103816986, 0.052695173770189285, -0.06485895067453384, 0.18362796306610107, -0.24225984513759613, -0.21601666510105133, 0.017668476328253746, 0.06767036765813828, -0.02619411051273346, -0.13370922207832336, -0.16474352777004242, -0.10194125026464462, -0.04413362219929695, -0.025570333003997803, -0.0726047232747078, 0.2883089482784271, 0.02946549654006958, -0.05169786140322685, -0.09909649938344955, -0.06936012953519821, 0.03632622957229614, -0.1352287381887436, -0.07739842683076859, 0.03070586733520031, -0.19453179836273193, 0.0006909030489623547, -0.10757314413785934, -0.16092219948768616, 0.21848802268505096, -0.29402345418930054, -0.29610303044319153, 0.3001311421394348, -0.08066269755363464, 0.03046420030295849, -0.14968067407608032, -0.22261783480644226, 0.17271411418914795, -0.0389665812253952, -0.31328585743904114, 0.0055389306508004665, -0.01164647750556469, -0.06886202096939087, -0.10450448095798492, -0.02024398371577263, -0.08284592628479004, 0.37074965238571167, 0.12551864981651306, 0.06535156071186066, 0.04920196160674095, -0.12916669249534607, -0.16277174651622772, -0.0321844220161438, -0.1300719678401947, -0.1451096534729004, -0.012167285196483135, 0.11910928785800934, 0.09400204569101334, 0.3216666877269745, -0.09091687202453613, 0.06196210905909538, -0.016219817101955414, -0.04728950932621956, -0.0639571100473404, -0.019836347550153732, 0.08154332637786865, 0.07723629474639893, 0.002000431763008237, 0.016744812950491905, -0.010264188051223755, -0.0842275321483612, 0.04485982283949852, 0.11826396733522415, 0.04077814519405365, 0.019926562905311584, 0.02919558435678482, 0.052770115435123444, 0.2077360302209854, 0.3332703411579132, 0.27426230907440186, -0.007502101827412844, -0.12390997260808945, -0.04372501000761986, -0.026738477870821953, 0.17474545538425446, -0.08410786837339401, 0.053752973675727844, 0.4511106610298157, -0.1907355934381485, 0.021359192207455635, -0.2685621678829193, 0.004695869516581297, 0.11604811996221542, -0.008123262785375118, -0.023917464539408684, 0.017009614035487175, -0.10373595356941223, -0.13713416457176208, 0.13116201758384705, 0.02935211732983589, -0.0644240751862526, -0.20321448147296906, -0.2297322303056717, 0.1170005276799202, -0.1611202359199524, 0.07055076211690903, 0.09717364609241486, -0.3424973487854004, -0.14024026691913605, -0.37863072752952576, 0.03493329882621765, -0.11353256553411484, 0.025844689458608627, -0.07721041887998581, -0.03741568699479103, -0.14412382245063782, 0.06794441491365433, 0.1819809228181839, -0.11565642803907394, 0.11517392098903656, 0.051037807017564774, 0.053238797932863235, 0.014264778234064579, 0.10358134657144547, -0.11588294804096222, -0.19964849948883057, 0.14247407019138336, 0.03463982418179512, 0.0700998604297638, 0.20981904864311218, 0.1817658245563507, 0.01642865315079689, 0.09562481939792633, -0.25918951630592346, 0.04759268835186958, 0.08399298042058945, -0.05412798747420311, -0.21110089123249054, -0.21247075498104095, 0.0952489897608757, 0.05697892978787422, 0.16987358033657074, -0.06354709714651108, -0.4463998079299927, -0.0835241824388504, -0.11252053081989288, 0.12493579834699631, -0.25370359420776367, 0.042977068573236465, -0.009453956969082355, -0.29318422079086304, -0.030478982254862785, 0.13877812027931213, -0.2720988094806671, -0.26525983214378357, 0.09492184966802597, 0.06779040396213531, -0.24171197414398193, -0.021780408918857574, -0.09394664317369461, -0.11128737777471542, -0.07223693281412125, 0.2264084815979004, -0.14126333594322205, -0.02824591100215912, -0.09652947634458542, 0.3550333082675934, -0.16331547498703003, -0.050319116562604904, 0.0441935695707798, -0.11451192200183868, -0.18265043199062347, 0.04665994644165039, 0.2359258383512497, 0.24908983707427979, 0.06086515635251999, 0.18418700993061066, -0.12691181898117065, 0.01999136619269848, -0.26345622539520264, -0.3734212815761566, 0.24956029653549194, -0.30784884095191956, -0.1550092250108719, 0.1329834908246994, 0.1902163177728653, -0.09691918641328812, -0.24185428023338318, 0.01865377090871334, 0.13658908009529114, -0.035327471792697906, -0.22247539460659027, -0.05702982097864151, 0.4470270574092865, -0.2779231071472168, 0.08176767826080322, 0.2143625169992447, 0.016168860718607903, 0.3571912348270416, 0.10382840037345886, 0.04529019817709923, 0.26086747646331787, 0.31428825855255127, 0.2627390921115875, -0.2173434942960739, -0.10235219448804855, -0.2447880208492279, 0.12248852103948593, 0.2132270634174347, 0.13264738023281097, -0.10908195376396179, -0.17968641221523285, -0.13024328649044037, -0.04943160340189934, 0.08907249569892883, 0.12479335069656372, 0.23310470581054688, -0.18646861612796783, -0.10004468262195587, -0.0966150239109993, 0.27226728200912476, 0.012340107932686806, 0.014727924019098282, -0.24669307470321655, -0.32018229365348816, 0.3306174576282501, 0.0005339531926438212, -0.18005098402500153, 0.07892104238271713, 0.1600702404975891, -0.0950966328382492, -0.21513314545154572, 0.3020695447921753, 0.042504578828811646, 0.07440824061632156, 0.054867785423994064, 0.005209344904869795, -0.043282777070999146, 0.2560809254646301, -0.20136156678199768, 0.2020944058895111, 0.1198015883564949, -0.2023172527551651, -0.17853587865829468, 0.2851168215274811, 0.34840381145477295, 0.35183650255203247, 0.050767213106155396, -0.3559509217739105, 0.25194019079208374, 0.18019795417785645, -0.0016608797013759613, -0.20517735183238983, -0.3084276020526886, 0.6274340748786926, 0.5306622385978699, -0.30779698491096497, 0.10742279887199402, -0.10153472423553467, -0.19742585718631744, 0.6187757849693298, -0.5968557000160217, 0.6409974694252014, 0.5413709282875061, 0.11753149330615997, -0.5474350452423096, 0.04960842803120613, -0.7509503364562988, 0.2100498378276825, -0.1629043072462082, 0.10958950221538544, -0.2532525360584259, -0.039452049881219864, 0.0921073630452156, 0.10589911788702011, -0.13269467651844025, 0.22430138289928436, 0.10444486886262894, 0.21563921868801117, 0.20185747742652893, -0.1944754719734192, 0.16905070841312408, -0.11246982961893082, -0.04335279017686844, 0.16051962971687317, -0.19071513414382935, -0.14532864093780518, 0.12503398954868317, 0.1583666205406189, 0.26201921701431274, -0.13108858466148376, -0.084829181432724, -0.34480589628219604, -0.023440338671207428, 0.16927014291286469, 0.1227133721113205, -0.09644299000501633, 0.08564645797014236, 0.30848756432533264, 0.05358346551656723, 0.08161061257123947, -0.1077786237001419, 0.14491873979568481, -0.2077295482158661, 0.05591597408056259, -0.014532621018588543, -0.05730944499373436, 0.009872913360595703, -0.03067706525325775, -0.15691688656806946, -0.23746272921562195, 0.2026023417711258, 0.20563216507434845, -0.09894123673439026, 0.08164793252944946, 0.06088017672300339, 0.125949427485466, 0.05238159000873566, 0.020447058603167534, -0.000488859775941819, 0.057723887264728546, -0.02640278823673725, -0.11624915897846222, 0.04483151435852051, 0.3973428010940552, -0.10018165409564972, -0.09683243930339813, 0.17292611300945282, 0.0634787529706955, 0.1819227933883667, 0.0097337756305933, -0.04959189519286156, 0.30395129323005676, -0.21145382523536682, -0.023729193955659866, -0.2361079901456833, -0.054690584540367126, 0.0014793084701523185, 0.09427626430988312, 0.12702639400959015, 0.05011596158146858, -0.07565828412771225, 0.06813881546258926, 0.04705050587654114, -0.23780092597007751, -0.14750167727470398, 0.0017121589044108987, -0.0390220582485199, -0.04565311595797539, -0.20053145289421082, 0.11721930652856827, -0.309675931930542, -0.21005472540855408, -0.09927549958229065, 0.2329433411359787, 0.10850982367992401, 0.045937277376651764, -0.1925870180130005, 0.0635002925992012, 0.16645489633083344, -0.08167186379432678, 0.12683385610580444, 0.29933252930641174, 0.059167664498090744, 0.02257036417722702, 0.17671070992946625, -0.1136760413646698, 0.15993672609329224, 0.17822007834911346, -0.17022283375263214, -0.034275759011507034, -0.23223820328712463, -0.45279553532600403, 0.20174886286258698, 0.27219709753990173, -0.20171085000038147, 0.2630877196788788, -0.07341485470533371, 0.008457745425403118, 0.1347649097442627, 0.3160451650619507, 0.1731909066438675, -0.3434824049472809, -0.06081303581595421, -0.12148594111204147, -0.28043434023857117, 0.22839269042015076, -0.23166131973266602, 0.1237841472029686, 0.10620006173849106, 0.13535280525684357, -0.055897656828165054, -0.14200948178768158, 0.1284288763999939, -0.029864223673939705, -0.22111576795578003, -0.30567920207977295, 0.25686249136924744, 0.11264579743146896, 0.22471913695335388, 0.19664430618286133, 0.14585430920124054, -0.1741424947977066, 0.0395362414419651, -0.240306094288826, 0.01604430191218853, -0.02863958477973938, 0.22275647521018982, -0.04027191922068596, -0.06954793632030487, -0.011529677547514439, 0.042776186019182205, 0.13567081093788147, -0.02186071313917637, -0.07920677214860916, 0.20282888412475586, 0.03702227398753166, 0.10414879769086838, -0.030065303668379784, -0.16894857585430145, -0.1559683233499527, -0.030244018882513046, 0.041999198496341705, -0.17897093296051025, 0.043977588415145874, -0.06788205355405807, 0.13960020244121552, -0.25086864829063416, 0.2533179521560669, -0.1521218866109848, 0.05650758370757103, -0.183550164103508, 0.3117736876010895, -0.24550791084766388, 0.14607015252113342, -0.09446050971746445, 0.1647137850522995, 0.14345623552799225, -0.30222171545028687, 0.22701182961463928, 0.09380368888378143, -0.3675391972064972, 0.178296759724617, 0.24389584362506866, -0.0908353254199028, -0.04909035190939903, 0.007883824408054352, 0.01001724973320961, 0.14020566642284393, 0.22107461094856262, 0.069830022752285, 0.24295704066753387, -0.06648453325033188, -0.26279446482658386, -0.1367660015821457, 0.3377798795700073, -0.16216394305229187, -0.33200469613075256, 0.1305789202451706, 0.098801389336586, -0.19354411959648132, 0.08200225234031677, 0.10634680837392807, -0.05015887692570686, 0.14601054787635803, 0.004869361408054829, -0.19686828553676605, -0.14220330119132996, -0.0005555944517254829, -0.003908092621713877, -0.2716495394706726, 0.1830437332391739, 0.04650573432445526, 0.0047656213864684105, 0.17498300969600677, -0.0240543894469738, -0.22937487065792084, 0.16420990228652954, -0.1760396808385849, -0.0017127639148384333, -0.020943302661180496, -0.21658369898796082, 0.005982833448797464, -0.07255712151527405, -0.0011925252620130777, 0.10053759068250656, 0.100135937333107, -0.16703085601329803, 0.13345621526241302, 0.16841889917850494, -0.13553601503372192, 0.10320410132408142, 0.11385560780763626, 0.1476278305053711, 0.09448879957199097, 0.08484725654125214, -0.1561339944601059, -0.18018090724945068, 0.13387908041477203, -0.27896642684936523, 0.1472780555486679, 0.19438987970352173, 0.18255017697811127, 0.17697611451148987, 0.18022789061069489, 0.053767215460538864, -0.035982515662908554, -0.1264866590499878, 0.19039539992809296, 0.003357568522915244, -0.09398572891950607, -0.20224705338478088, -0.19515037536621094, -0.058613408356904984, -0.049030013382434845, -0.17193444073200226, 0.22342529892921448, 0.314075767993927, 0.3220708668231964, 0.052466005086898804, 0.04470362886786461, -0.12393433600664139, 0.021680496633052826, 0.03126939386129379, 0.2030474692583084, -0.14292895793914795, 0.018955225124955177, -0.07463877648115158, 0.0597580261528492, 0.4646821916103363, -0.006844222545623779, 0.113787941634655, -0.3212772607803345, -0.1835821121931076, -0.008434929884970188, 0.15586702525615692, 0.13236476480960846, 0.028337107971310616, 0.03801631182432175, -0.034864023327827454, 0.16968058049678802, -0.22448623180389404, 0.1202782690525055, 0.01649135909974575, 0.5415201783180237, 0.5657433271408081, -0.2666979134082794, -0.14340275526046753, 0.28049609065055847, 0.017096728086471558, 0.11895632743835449, 0.18615961074829102, -0.0493038147687912, -0.17317189276218414, -0.12392379343509674, -0.05379093810915947, -0.20173406600952148, 0.0870906338095665, -0.049981679767370224, -0.039820145815610886, 0.023477302864193916, -0.02530159428715706, -0.13024473190307617, 0.03139761462807655, -0.150401309132576, 0.024643903598189354, -0.10014467686414719, 0.09969554096460342, -0.0649530440568924, -0.24159933626651764, -0.0719040036201477, -0.06594271957874298, 0.22445102035999298, -0.08074309676885605, -0.15937699377536774, -0.09184426814317703, -0.13171686232089996, -0.06557505577802658, -0.04764118045568466, -0.08889009058475494, 0.04403373599052429, -0.11625835299491882, -0.029203886166214943, -0.1431279480457306, -0.40418413281440735, 0.17326737940311432, -0.039403434842824936, 0.017020229250192642, 0.013108765706419945, 0.09912235289812088, -0.08413397520780563, -0.2721894085407257, -0.2740415930747986, 0.1979401707649231, 0.24444901943206787, -0.0300876647233963, -0.018330659717321396, 0.03353298082947731, 0.30288130044937134, 0.40375980734825134, 0.024207228794693947, -0.028444483876228333, -0.1242050975561142, 0.1369955837726593, -0.19842080771923065, 0.05331731215119362, 0.0014119993429630995, 0.093889519572258, 0.11384265869855881, -0.033990513533353806, 0.16009274125099182, -0.4143676161766052, -0.24031221866607666, 0.031005432829260826, 0.025441085919737816, 0.012010178528726101, 0.08325771242380142, -0.1579894721508026, 0.1044231504201889, 0.008214162662625313, -0.24287132918834686, 0.07025255262851715, -0.20025432109832764, -0.1458180993795395, 0.10967206954956055, -0.14023634791374207, 0.059056930243968964, -0.4089029133319855, 0.18896839022636414, -0.044907115399837494, -0.15928789973258972, 0.0672442764043808, -0.14559246599674225, 0.29835885763168335, 0.0124459657818079, -0.1623743325471878, -0.22699110209941864, -0.1908183991909027, 0.2508378028869629, 0.003754199016839266, -0.28479892015457153, -0.4250538945198059, -0.01200935896486044, 0.3164311349391937, 0.12668271362781525, 0.10440171509981155, 0.010413045063614845, -0.0478673093020916, 0.15328621864318848, -0.09858594089746475, -0.21669985353946686, -0.15068575739860535, -0.12948016822338104, 0.3025638461112976, 0.15060009062290192, 0.1768217384815216, -0.3353428840637207, -0.17721734941005707, -0.03050185926258564, 0.35716375708580017, 0.09692666679620743, 0.09085769951343536, -0.06255058199167252, 0.03352448716759682, 0.04652654752135277, 0.26364007592201233, 0.04852483794093132, 0.25054892897605896, -0.16808854043483734, -0.09186014533042908, -0.1756504625082016, 0.02176307700574398, -0.06972134113311768, 0.08062782138586044, -0.011610924266278744, 0.01639881171286106, 0.07875296473503113, -0.23173460364341736, 0.08172939717769623, -0.09048826992511749, -0.17808638513088226, -0.18783526122570038, 0.027437856420874596, 0.0899583101272583, 0.04927108436822891, -0.011731873266398907, -0.2690207064151764, 0.017613012343645096, -0.14105689525604248, -0.21213820576667786, 0.22240059077739716, 0.2536442279815674, -0.22529692947864532, -0.11916054785251617, -0.12822295725345612, 0.06966765969991684, 0.028296753764152527, -0.12129546701908112, -0.31679025292396545, 0.009713923558592796, -0.0956396758556366, 0.5137364268302917, 0.1900842785835266, 0.11245763301849365, -0.18170426785945892, 0.017492689192295074, -0.03782062232494354, 0.2631393074989319, 0.06071038544178009, -0.06746496260166168, -0.08552107959985733, 0.0051922788843512535, -0.07478581368923187, 0.12745821475982666, -0.11497481167316437, 0.16233114898204803, -0.08526791632175446, 0.08742137998342514, 0.07538673281669617, 0.13000167906284332, 0.2876199781894684, 0.2669941186904907, -0.2151651531457901, 0.025115109980106354, 0.15548835694789886, -0.048163410276174545, -0.14969909191131592, -0.07850749045610428, 0.27410802245140076, -0.0740937665104866, -0.047442127019166946, -0.15362262725830078, 0.06633366644382477, 0.03686555474996567, 0.12159357964992523, 0.1570439636707306, -0.0025366144254803658, -0.1491633802652359, 0.05068808048963547, 0.16355080902576447, -0.1408134549856186, 0.09858798235654831, -0.06482866406440735, -0.09854692220687866, -0.009373132139444351, 0.12513062357902527, -0.1806490570306778, -0.003951813094317913, 0.2876340448856354, -0.026266153901815414, 0.0879976749420166, -0.37125715613365173, 0.062075670808553696, 0.10465738922357559, -0.20291432738304138, -0.033724330365657806, 0.01338883489370346, 0.1795715093612671, -0.07132736593484879, -0.1265917271375656, -0.014017592184245586, 0.14211539924144745, -0.007140416651964188, 0.16884179413318634, -0.17238593101501465, -0.06013968586921692, 0.37833476066589355, -0.012505777180194855, -0.1533789038658142, 0.06998088210821152, 0.00030340751982294023, 0.0013435023138299584, -0.1692761331796646, -0.048202138394117355, 0.10335927456617355, -0.2164977490901947, 0.1466953307390213, 0.010052631609141827, -0.0769166648387909, 0.05933426693081856, -0.07555832713842392, -0.0658169686794281, -0.2422686666250229, 0.3146056532859802, -0.03749924898147583, -0.12132371962070465, 0.01032412238419056, 0.2270989567041397, 0.0502876341342926, -0.0692601129412651, -0.1650967299938202, -0.2833007276058197, 0.163184255361557, 0.06254154443740845, -0.07703212648630142, -0.08310005068778992, -0.07340136915445328, -0.072214774787426, -0.15948551893234253, 0.24085447192192078, 0.2886853516101837, 0.02783607877790928, -0.06753948330879211, -0.018655266612768173, -0.16042223572731018, -0.02345600537955761, -0.08313851803541183, 0.007513531018048525, -0.20314422249794006, -0.05876811221241951, -0.02719237469136715, 0.11121205985546112, -0.3134000897407532, 0.3332616686820984, 0.16608218848705292, 0.11826985329389572, 0.03217337653040886, 0.19852915406227112, -0.16775183379650116, -0.06538117676973343, -0.09086958318948746, -0.0826726108789444, 0.025044620037078857, 0.04621431231498718, 0.18502099812030792, 0.019838722422719002, -0.022484319284558296, 0.1937987059354782, 0.20995734632015228, 0.2559112310409546, -0.3201102912425995, 0.006028587929904461, 0.016510214656591415, -0.03102169744670391, -0.173026442527771, -0.10880378633737564, 0.24984563887119293, -0.28930819034576416, 0.033431634306907654, -0.40121570229530334, 0.11282316595315933, 0.1991095244884491, -0.2675805687904358, -0.19334296882152557, -0.05056571587920189, -0.01512669026851654, -0.04719971865415573, -0.10440150648355484, 0.08610717952251434, 0.17435283958911896, 0.11846401542425156, -0.029454326257109642, -0.20166121423244476, -0.06338672339916229, 0.1222321093082428, -0.01654752530157566, 0.06331320106983185, -0.20535972714424133, 0.059075724333524704, -0.27778130769729614, 0.01255039218813181, -0.0374649278819561, -0.11715255677700043, -0.1950867772102356, 0.17064733803272247, -0.11156704276800156, -0.03510565683245659, -0.19934816658496857, -0.12771223485469818, 0.07706477493047714, 0.02234865538775921, -0.04122811183333397, 0.1343894898891449, 0.19606244564056396, 0.1495385766029358, -0.4259535074234009, 0.02617177553474903, -0.1414373815059662, 0.03052283450961113, 0.16955772042274475, 0.02456280030310154, 0.30272695422172546, -0.014264444820582867, -0.14135581254959106, 0.24451950192451477, -0.15219059586524963, -0.1853853166103363, 0.05722670629620552, -0.24686557054519653, 0.022941917181015015, 0.20956674218177795, 0.10569276660680771, -0.458257794380188, 0.03458819165825844, -0.042112112045288086, -0.09076320379972458, -0.16162800788879395, 0.013057992793619633, 0.07138869166374207, -0.02037418819963932, 0.014635578729212284, 0.07071395218372345, -0.12240786850452423, 0.26413604617118835, -0.2743247151374817, 0.01095961220562458, -0.18757151067256927, -0.07229884713888168, -0.021882852539420128, 0.13521213829517365, -0.27064403891563416, 0.26469331979751587, 0.3794994652271271, 0.11588559299707413, 0.19669947028160095, -0.038888078182935715, 0.048063404858112335, -0.11416979879140854, -0.006740843877196312, 0.022307943552732468, -0.0575612336397171, -0.04803420230746269, -0.2620292007923126, -0.00520345801487565, 0.05751672759652138, 0.1709212213754654, 0.1815173476934433, 0.037883106619119644, -0.05297882482409477, 0.17868132889270782, 0.029353363439440727, -0.10375924408435822, 0.2219884693622589, -0.05732909217476845, 0.0860084816813469, -0.20433750748634338, 0.07981842011213303, 0.17723555862903595, -0.03473871201276779, 0.05561141297221184, 0.1764112263917923, -0.42024698853492737, -0.056601740419864655, -0.137018620967865, 0.10318289697170258, 0.16277067363262177, 0.035707633942365646, -0.3614962697029114, -0.17568469047546387, -0.0812675952911377, 0.09833367168903351, 0.1571071892976761, 0.10477899760007858, -0.08168796449899673, 0.1556098759174347, -0.04061267152428627, 0.03874148800969124, 0.05448594689369202, 0.04723929613828659, -0.19958870112895966, -0.1256541907787323, -0.16754786670207977, -0.11329157650470734, -0.1545485407114029, -0.004582780413329601, 0.11352383345365524, 0.11853253841400146, 0.1409754902124405, -0.09238899499177933, 0.12899209558963776, 0.02068251743912697, 0.02279031276702881, -0.22865889966487885, -0.11765147745609283, 0.14186552166938782, 0.1665894091129303, 0.06574948877096176, 0.4946345090866089, -0.0065790931694209576, -0.26116102933883667, -0.18933367729187012, 0.1506408005952835, -0.09064981341362, 0.092194564640522, 0.10627823323011398, 0.12534569203853607, 0.1066480278968811, -0.13596580922603607, -0.07742983847856522, -0.06097041070461273, -0.010297541506588459, -0.004418094176799059, -0.19845643639564514, -0.18462395668029785, -0.20037135481834412, 0.11094710230827332, 0.17979995906352997, 0.09256652742624283, -0.16021563112735748, -0.16169743239879608, -0.04565787315368652, 0.1872468888759613, -0.17031623423099518, -0.14854872226715088, -0.3093547224998474, -0.14329732954502106, -0.27106112241744995, -0.0036181174218654633, -0.07095924764871597, -0.41597098112106323, -0.2948112487792969, 0.021653572097420692, 0.18093474209308624, -0.28657108545303345, 0.1316434144973755, 0.08682893216609955, -0.2527197599411011, -0.055990420281887054, -0.058910828083753586, 0.29876428842544556, 0.07190632820129395, -0.19947557151317596, 0.041998665779829025, -0.04110629856586456, -0.2932540476322174, 0.4091097116470337, -0.3603372275829315, 0.031090551987290382, -0.017001241445541382, 0.36538365483283997, -0.23622338473796844, -0.1332848221063614, -0.01629794016480446, -0.3533574938774109, 0.022497978061437607, 0.21699722111225128, -0.25172287225723267, 0.15045984089374542, -0.1111346185207367, 0.13558830320835114, -0.19723589718341827, 0.044867657124996185, 0.06859968602657318, 0.04567060247063637, -0.1674017459154129, 0.11920866370201111, 0.12319032102823257, 0.025780554860830307, -0.025119910016655922, -0.15809132158756256, 0.01688392087817192, 0.08159975707530975, -0.21424606442451477, 0.08342573046684265, -0.3649328947067261, -0.20602276921272278, 0.1447569578886032, 0.02373775653541088, 0.08169788867235184, -0.10112641006708145, 0.19365748763084412, 0.0810491293668747, -0.18932969868183136, -0.1887272298336029, 0.13934670388698578, 0.20821084082126617, -0.1257503628730774, -0.10632912069559097, -0.07162922620773315, 0.0643484964966774, 0.3845447599887848, 0.2588285505771637, 0.07874591648578644, 0.11341425776481628, 0.11081989854574203, -0.20278075337409973, 0.18998709321022034, -0.11232969164848328, -0.21640938520431519, 0.4467565715312958, -0.3344125747680664, -0.31325647234916687, 0.4237346351146698, -0.23627455532550812, -0.2934483587741852, 0.11095265299081802, 0.18224945664405823, -0.20390108227729797, -0.41660597920417786, -0.19469749927520752, 0.028832830488681793, -0.012223130092024803, 0.12611950933933258, 0.036390677094459534, -0.19848579168319702, -0.1510634869337082, 0.23471757769584656, 0.40748193860054016, -0.3317037522792816, -0.3388153612613678, 0.321418434381485, -0.11289457231760025, -0.17887893319129944, 0.30794787406921387, 0.20716331899166107, -0.23268431425094604, 0.06095971167087555, 0.2652323842048645, -0.0369328111410141, -0.19023142755031586, -0.07557861506938934, 0.0336562842130661, -0.507002592086792, -0.07717856764793396, -0.10469003766775131, 0.2821680009365082, 0.2592943012714386, -0.007506290916353464, -0.007569966837763786, -0.38299769163131714, -0.15178027749061584, 0.2382463663816452, 0.30144017934799194, -0.06935792416334152, -0.05417681857943535, 0.2758995294570923, 0.0946202427148819, -0.19195841252803802, 0.05866972729563713, -0.17298874258995056, 0.02761436440050602, 0.29766979813575745, -0.3167141079902649, 0.014292907901108265, -0.08984465152025223, 0.4868621826171875, -0.04231560230255127, 0.2706712484359741, 0.33876481652259827, 0.10553725808858871, -0.2429399937391281, 0.07486989349126816, -0.1723710298538208, -0.20275545120239258, 0.20078928768634796, -0.05115820840001106, 0.0707821398973465, -0.05978512763977051, -0.03035661019384861, -0.06497906893491745, -0.5180137157440186, 0.055771730840206146, 0.4428407847881317, -0.07088347524404526, -0.05179043486714363, 0.07659655809402466, 0.3227744996547699, 0.10246320068836212, -0.07632578164339066, 0.2702995240688324, 0.01706341840326786, 0.1775595247745514, 0.13265541195869446, 0.010639804415404797, 0.08194894343614578, -0.001634337822906673, -0.14704711735248566, -0.05734699219465256, -0.013054284267127514, 0.19701579213142395, -0.08287369459867477, -0.012718934565782547, 0.05548680201172829, 0.28650176525115967, 0.06135018914937973, -0.0355142317712307, 0.23667751252651215, -0.12819813191890717, 0.24672281742095947, 0.15474191308021545, 0.24460187554359436, -0.01853347197175026, -0.09380372613668442, 0.04426809772849083, 0.2905578315258026, 0.04418744519352913, 0.21898816525936127, -0.36082032322883606, -0.16359098255634308, -0.02567238174378872, 0.20351165533065796, -0.01740231364965439, -0.056661855429410934, -0.0556294247508049, 0.12987267971038818, 0.030728042125701904, 0.2617790997028351, 0.13720010221004486, -0.042132388800382614, -0.01626945100724697, 0.10096785426139832, 0.10121479630470276, 0.027129968628287315, -0.1415846049785614, -0.10655684769153595, 0.20162895321846008, -0.15325260162353516, -0.1989535093307495, 0.22952966392040253, 0.08858983963727951, 0.09131918102502823, -0.02029918134212494, 0.1933039128780365, -0.03132966533303261, 0.19500863552093506, 0.23224177956581116, 0.08749586343765259, -0.09664758294820786, -0.17584873735904694, 0.017919937148690224, 0.08889368921518326, -0.13829244673252106, -0.15402324497699738, 0.2056557685136795, 0.08834522217512131, -0.1976931244134903, 0.07003247737884521, -0.03975363075733185, -0.15964709222316742, 0.13170066475868225, 0.19829165935516357, 0.011196734383702278, 0.04789583012461662, -0.37209808826446533, 0.09503166377544403, 0.2125784009695053, -0.04321262240409851, 0.1634412407875061, -0.04321786388754845, -0.1496257483959198, 0.08850182592868805, 0.00760265439748764, -0.07985170185565948, 0.05026036500930786, 0.13835351169109344, 0.03158124163746834, -0.2911941707134247, -0.11209369450807571, -0.038403525948524475, 0.12135977298021317, -0.11103958636522293, -0.1605270802974701, 0.2922106981277466, -0.0521734394133091, -0.13750596344470978, 0.1746799200773239, -0.00039382834802381694, 0.18192853033542633, 0.024220256134867668, 0.0868353322148323, -0.11561533063650131, 0.055265720933675766, 0.07724533975124359, 0.32836106419563293, 0.28313401341438293, 0.2017226368188858, -0.10884524881839752, -0.005769218318164349, -0.4043435752391815, 0.28789040446281433, -0.18232277035713196, 0.1143464669585228, -0.2956114411354065, 0.21491914987564087, 0.22307758033275604, -0.23072966933250427, 0.1720729023218155, 0.08390702307224274, 0.11052215099334717, -0.04494721442461014, -0.029120201244950294, -0.1269536316394806, -0.20773454010486603, -0.06607048213481903, 0.24732480943202972, 0.02076883427798748, -0.044178687036037445, 0.06756658107042313, -0.2122657150030136, 0.18797911703586578, -0.3044408857822418, 0.7365614175796509, -0.018254617229104042, -0.15584498643875122, -0.017196049913764, 0.06966960430145264, -0.14539945125579834, -0.07342347502708435, -0.08611290156841278, -0.03984395042061806, 0.05305815488100052, 0.04825378209352493, 0.08828283101320267, 0.06150411069393158, 0.30677419900894165, 0.1147841140627861, 0.12542535364627838, 0.25245949625968933, 0.009159257635474205, -0.17167437076568604, -0.009112200699746609, -0.32048121094703674, 0.1318015456199646, 0.10183536261320114, 0.04050184786319733, -0.20042027533054352, 0.11420879513025284, -0.2195112258195877, 0.012112259864807129, -0.09481990337371826, 0.47261348366737366, 0.07217755913734436, 0.11190393567085266, -0.002764599397778511, 0.5370190143585205, -0.038321107625961304, 0.5555341243743896, -0.9203951358795166, -0.34958040714263916, 0.1842542439699173, 0.3308727443218231, -0.11953749507665634, 0.298408180475235, 0.4725446403026581, -0.5386520624160767, 0.2636306583881378, -0.13811852037906647, -0.8491703867912292, -0.034862782806158066, 0.012985979206860065, -0.1655750423669815, -0.19054584205150604, 0.15622194111347198, 0.11370546370744705, -0.03988848254084587, 0.245275616645813, -0.09431339055299759, -0.06434943526983261, -0.25924259424209595, 0.22113481163978577, 0.01802031509578228, 0.010250799357891083, 0.08922156691551208, -0.0801750048995018, 0.12710799276828766, 0.058118581771850586, -0.31958067417144775, -0.28688937425613403, -0.08333143591880798, -0.11081339418888092, 0.17375433444976807, -0.13856497406959534, 0.09521812945604324, -0.31808432936668396, -0.08744894713163376, -0.12744802236557007, -0.38479888439178467, 0.03078608028590679, -0.4945782423019409, 0.09395799785852432, -0.08507274091243744, 0.14257147908210754, -0.12451130151748657, 0.21951207518577576, -0.15964539349079132, -0.1121470183134079, 0.17163027822971344, -0.19722823798656464, -0.043839771300554276, -0.11522943526506424, 0.03792402520775795, -0.18888714909553528, -0.11061059683561325, -0.2034965455532074, -0.0725620836019516, 0.19758684933185577, -0.0651651918888092, 0.17901641130447388, -0.21143655478954315, -0.03720555827021599, -0.04965335130691528, 0.026386890560388565, 0.22295896708965302, 0.42413949966430664, 0.25573834776878357, -0.1274431049823761, 0.0044964454136788845, -0.19661268591880798, 0.08842996507883072, -0.26996758580207825, 0.016719473525881767, 0.14594650268554688, -0.06711094826459885, -0.20531310141086578, 0.15917666256427765, 0.15043087303638458, 0.020497577264904976, 0.11526655405759811, 0.07697299867868423, 0.22679592669010162, 0.19568638503551483, -0.3125556409358978, 0.2574092745780945, 0.275514155626297, 0.03632316738367081, 0.1736515760421753, -0.3262691795825958, -0.13726437091827393, -0.2722124457359314, -0.2767210900783539, -0.2498992532491684, 0.29043135046958923, 0.18365474045276642, 0.20508594810962677, -0.0670401081442833, 0.16258487105369568, -0.03180767595767975, -0.1183386817574501, 0.08224102109670639, 0.2536071240901947, -0.2087346464395523, 0.3127935528755188, -0.06553053110837936, -0.007602862548083067, -0.27710336446762085, -0.3171725571155548, -0.007025205995887518, -0.184940367937088, -0.023531287908554077, -0.00040062429616227746, -0.3717580735683441, -0.21781675517559052, -0.028039291501045227, 0.3733551502227783, -0.2129100114107132, 0.185895174741745, 0.01451391912996769, 0.11269014328718185, 0.20177453756332397, -0.07183030992746353, 0.2468944936990738, -0.16621184349060059, -0.11979014426469803, 0.20037683844566345, -0.08642274141311646, 0.1476137638092041, 0.18393349647521973, -0.2310832142829895, -0.10683924704790115, 0.09978150576353073, 0.03176039084792137, 0.09552619606256485, -0.060744814574718475, -0.05162624642252922, -0.2331206500530243, -0.10137955099344254, 0.08437960594892502, 0.017556872218847275, -0.21759812533855438, 0.17364297807216644, -0.06472146511077881, -0.026429560035467148, -0.09487572312355042, -0.046975813806056976, 0.080788753926754, 0.07247542589902878, -0.10615172982215881, 0.13528360426425934, 0.1284622848033905, -0.026740843430161476, 0.41055262088775635, 0.01530031394213438, 0.17602601647377014, -0.0004510647268034518, 0.08454053103923798, 0.32431671023368835, -0.004015548154711723, -0.004737915005534887, 0.10888369381427765, 0.13481935858726501, -0.020609254017472267, 0.20505240559577942, -0.11370380967855453, 0.02405020222067833, 0.24953874945640564, -0.15542827546596527, 0.12036645412445068, -0.18209941685199738, 0.06290170550346375, 0.3147927224636078, -0.07589517533779144, 0.25926101207733154, -0.22609065473079681, -0.27876725792884827, -0.14546804130077362, 0.2638329267501831, 0.2750374376773834, -0.014998833648860455, 0.28963401913642883, -0.0836651474237442, -0.10795441269874573, -0.10588033497333527, -0.0661453977227211, 0.154856339097023, 0.039875295013189316, 0.1129562109708786, 0.022564416751265526, 0.1719145029783249, -0.23387451469898224, -0.20636610686779022, -0.08276611566543579, -0.03881492838263512, 0.3064076602458954, -0.0667768269777298, 0.06186963617801666, -0.16893117129802704, 0.22267550230026245, 0.1086411252617836, -0.08762280642986298, 0.37484967708587646, -0.16091568768024445, -0.19022800028324127, -0.07021500170230865, -0.04929786175489426, 0.11639823019504547, 0.12681947648525238, -0.020676113665103912, 0.09594925493001938, -0.29465964436531067, -0.03272401914000511, 0.15272165834903717, 0.10057762265205383, -0.15177926421165466, 0.34402209520339966, -0.1167198121547699, 0.046097639948129654, -0.10387876629829407, -0.07136090844869614, 0.08148321509361267, -0.23546624183654785, -0.0032967913430184126, -0.01690540462732315, -0.16351419687271118, 0.027604524046182632, -0.03900330141186714, -0.059528648853302, 0.02510477416217327, 0.01928340271115303, -0.0033951792865991592, -0.24236249923706055, -0.3011218011379242, -0.15891411900520325, -0.10492636263370514, 0.09000611305236816, 0.32543322443962097, -0.0015641256468370557, 0.05195692926645279, -0.0522427074611187, -0.16324931383132935, -0.2933858036994934, 0.02337438054382801, 0.17033512890338898, -0.019944438710808754, -0.06259137392044067, -0.2824242413043976, 0.22351035475730896, 0.16617974638938904, 0.037815481424331665, 0.15771642327308655, -0.07933641225099564, -0.19277353584766388, 0.07478761672973633, 0.014978526160120964, -0.05830325558781624, -0.1358676552772522, -0.2538999915122986, -0.05428183823823929, 0.005519522354006767, -0.06795671582221985, 0.19455939531326294, -0.045588959008455276, 0.229760080575943, 0.21500864624977112, -0.031178239732980728, 0.07134786248207092, -0.042853329330682755, -0.08007355034351349, 0.1521577537059784, 0.04198899865150452, -0.12770168483257294, 0.21161393821239471, 0.22472260892391205, -0.08908330649137497, 0.11251804977655411, -0.08801127225160599, 0.00108348170761019, 0.015822159126400948, 0.029221177101135254, 0.04506275802850723, -0.14765320718288422, -0.16251343488693237, -0.1288754940032959, 0.20956343412399292, 0.05397055670619011, 0.054177526384592056, -0.044229164719581604, 0.2645951509475708, 0.07475344836711884, 0.13960467278957367, -0.043660473078489304, -0.08819618076086044, -0.2879689633846283, 0.08844850212335587, 0.07911282032728195, 0.08706292510032654, 0.2735413908958435, -0.034486074000597, 0.22176295518875122, 0.029067346826195717, -0.10208674520254135, 0.07431839406490326, -0.13521656394004822, 0.14071208238601685, 0.0390041209757328, 0.13309045135974884, -0.04115724563598633, -0.16859151422977448, -0.03793390467762947, -0.06662525981664658, 0.004591727163642645, 0.08896232396364212, -0.0017292567063122988, 0.14394694566726685, 0.0010075952159240842, -0.10180933773517609, 0.08202890306711197, -0.14951829612255096, 0.022184912115335464, 0.04044001176953316, -0.0922209694981575, 0.1351088285446167, -0.13309931755065918, 0.005705274175852537, 0.07523265480995178, 0.34193870425224304, -0.17978985607624054, -0.054745957255363464, -0.001018580631352961, -0.13552089035511017, 0.06719179451465607, -0.32204732298851013, -0.04397143796086311, 0.19155670702457428, 0.20383886992931366, -0.3404766023159027, 0.15761274099349976, 0.06498287618160248, -0.35439398884773254, 0.05430129915475845, 0.2566949427127838, 0.13738217949867249, -0.1544135957956314, 0.1464676409959793, -0.08710472285747528, -0.006454042624682188, 0.08397135883569717, -0.1741369366645813, 0.1966889351606369, -0.30622369050979614, 0.1986081749200821, 0.17448563873767853, -0.2490846812725067, -0.302987664937973, -0.06345640122890472, -0.056861378252506256, 0.2942030429840088, 0.05573009327054024, -0.19422267377376556, 0.39147740602493286, -0.22967813909053802, 0.38113829493522644, -0.2911447584629059, 0.04332355782389641, 0.22726117074489594, -0.14358408749103546, -0.2884698212146759, 0.18242192268371582, -0.2612175941467285, 0.08140608668327332, -0.18542800843715668, -0.08759503811597824, 0.01049451157450676, 0.2195170819759369, 0.21767504513263702, 0.05885358154773712, -0.3042754828929901, -0.07132147997617722, -0.1288852095603943, -0.11302701383829117, 0.09410043060779572, 0.09796806424856186, -0.05344294011592865, 0.6796681880950928, -0.10352268069982529, -0.09368998557329178, 0.01818920485675335, 0.01066041924059391, -0.03366248309612274, 0.14141874015331268, 0.04617711156606674, -0.22416330873966217, 0.09729215502738953, -0.041301507502794266, 0.08590134233236313, 0.15525120496749878, 0.016316965222358704, 0.04884560778737068, -0.30693498253822327, -0.11510423570871353, 0.2648938298225403, 0.07340233027935028, -0.04204321280121803, 0.09611623734235764, -0.4244564473628998, -0.1808549165725708, 0.16214807331562042, -0.2762433588504791, 0.07751226425170898, -0.18086807429790497, 0.11226695030927658, 0.005061164032667875, -0.08767930418252945, 0.0375208780169487, 0.15179041028022766, 0.04546457901597023, 0.10439999401569366, -0.03487224876880646, 0.18311817944049835, 0.00681808777153492, 0.16955013573169708, 0.12197303771972656, -0.17794269323349, -0.016113173216581345, -0.21417157351970673, -0.04304603114724159, 0.08184975385665894, 0.3829403221607208, 0.05660578981041908, 0.2183915078639984, -0.13598547875881195, 0.547427773475647, 0.019393689930438995, -0.03924211487174034, 0.22284764051437378, 0.11733376979827881, -0.1644979566335678, 0.13881361484527588, 0.04391900822520256, 0.10706492513418198, 0.1265379786491394, 0.16091306507587433, -0.04981718212366104, 0.04453682899475098, -0.07127760350704193, 0.09618636220693588, -0.35880759358406067, 0.004486999940127134, 0.2882922887802124, 0.0039148530922830105, -0.1488073170185089, -0.15581005811691284, -0.0481899194419384, -0.10237400978803635, -0.27697739005088806, -0.11208205670118332, 0.15009216964244843, -0.11765342205762863, -0.07914275676012039, 0.05622319132089615, -0.4347774386405945, -0.10274350643157959, 0.023841802030801773, -0.07835106551647186, 0.28367599844932556, 0.20134617388248444, -0.22140192985534668, 0.026867132633924484, -0.1474168598651886, -0.156302809715271, -0.2044740468263626, 0.04748580977320671, 0.2998921275138855, -0.18812954425811768, -0.07382989674806595, 0.15157665312290192, 0.08496934920549393, -0.060473497956991196, 0.0448756217956543, 0.36182859539985657, -0.34630516171455383, 0.08678143471479416, 0.0016003631753847003, 0.25102728605270386, -0.3427506387233734, -0.0019472098210826516, 0.09077941626310349, 0.1762426197528839, 0.27137309312820435, 0.01936652883887291, 0.22495125234127045, 0.1199307069182396, -0.19308669865131378, 0.20455306768417358, -0.0937657281756401, -0.06944261491298676, -0.035152263939380646, 0.19927141070365906, 0.09034445881843567, 0.06439049541950226, -0.0942288339138031, 0.20475521683692932, -0.20200708508491516, -0.09445758908987045, 0.1403198391199112, -0.015879299491643906, 0.11490292847156525, -0.014372101984918118, 0.11187054961919785, -0.1817225217819214, 0.010344943031668663, -0.2539996802806854, 0.15365147590637207, 0.18616947531700134, 0.08325891196727753, 0.15990601480007172, 0.16674569249153137, 0.08463146537542343, 0.03360981121659279, 0.08687423914670944, -0.1825825273990631, -0.05062374472618103, 0.12676897644996643, -0.05105317011475563, 0.2134283035993576, -0.26511549949645996, 0.110445037484169, -0.23859524726867676, 0.6033148765563965, 0.09231837093830109, -0.1350146383047104, -0.02455887570977211, -0.25860872864723206, 0.0031097971368581057, -0.048787686973810196, -0.313118040561676, -0.1820489764213562, 0.05583960562944412, -0.2296314835548401, 0.045297712087631226, 0.38002026081085205, 0.27060264348983765, -0.028663158416748047, -0.1519317626953125, -0.24631255865097046, 0.05496244505047798, 0.17149895429611206, 0.17442139983177185, -0.05635087937116623, -0.23113206028938293, -0.2312912493944168, 0.3157329857349396, -0.3402663767337799, -0.024736151099205017, -0.09474968910217285, 0.1152149960398674, -0.36689671874046326, 0.04500275477766991, 0.17702972888946533, -0.017746660858392715, -0.08418550342321396, 0.44197481870651245, 0.07316025346517563, -0.03501954674720764, -0.30354785919189453, 0.1273340880870819, 0.36816346645355225, 0.3692665994167328, -0.06204001605510712, 0.17527468502521515, 0.540177583694458, -0.21950294077396393, -0.04338329657912254, -0.019902821630239487, -0.17960666120052338, -0.7074378728866577, 0.32527992129325867, -0.002209691097959876, -0.2921428680419922, 0.15792883932590485, 0.3185993432998657, -0.04283803328871727, 0.24209101498126984, 0.22393707931041718, 0.15900252759456635, -0.11676689982414246, 0.09853452444076538, 0.10714112967252731, 0.2384573370218277, 0.12441927939653397, 0.2594706416130066, -0.057070422917604446, -0.10920070111751556, -0.18315880000591278, 