{"version": "0.5.4", "metadata": {"date": {"year": 2025, "month": 8, "day": 11, "hour": 13, "minute": 20, "second": 36}, "loudness": -14.600377082824707, "gain": 0.8976535511368979, "name": null, "modeled_by": null, "gear_type": null, "gear_make": null, "gear_model": null, "tone_type": null, "input_level_dbu": null, "output_level_dbu": null, "training": {"settings": {"ignore_checks": true}, "data": {"latency": {"manual": -4, "calibration": {"algorithm_version": 1, "delays": [-4], "safety_factor": 0, "recommended": -4, "warnings": {"matches_lookahead": false, "disagreement_too_high": false}}}, "checks": {"version": 1, "passed": true}}, "validation_esr": 0.008927463631461359}}, "architecture": "WaveNet", "config": {"layers": [{"input_size": 1, "condition_size": 1, "head_size": 8, "channels": 16, "kernel_size": 3, "dilations": [1, 2, 4, 8, 16, 32, 64, 128, 256, 512], "activation": "Tanh", "gated": false, "head_bias": false}, {"input_size": 16, "condition_size": 1, "head_size": 1, "channels": 8, "kernel_size": 3, "dilations": [1, 2, 4, 8, 16, 32, 64, 128, 256, 512], "activation": "Tanh", "gated": false, "head_bias": true}], "head": null, "head_scale": 0.02}, "weights": [0.03281790018081665, 0.8265659213066101, -0.9479563236236572, -0.8309329748153687, -0.4631110727787018, 0.0364808514714241, 0.09890235215425491, 0.7698341012001038, -0.2040998637676239, 0.31367167830467224, -0.3170795440673828, -0.035678815096616745, -0.9721639156341553, -0.6500458717346191, -0.45878130197525024, -0.04957855865359306, -0.025758996605873108, 0.1803143173456192, 0.06050543487071991, -0.09956105798482895, 0.1957191824913025, 0.20294511318206787, 0.007483259309083223, -0.034405071288347244, -0.10893405228853226, 0.0492493100464344, -0.0043712398037314415, -0.21997661888599396, -0.05518049746751785, -0.1688850373029709, -0.1400224268436432, 0.0834600180387497, 0.03402969613671303, 0.024248536676168442, 0.05564500018954277, -0.09334271401166916, -0.02333904430270195, 0.08877069503068924, 0.19951114058494568, 0.15618690848350525, 0.043884020298719406, -0.22430400550365448, -0.06107418239116669, -0.17063327133655548, 0.035761043429374695, 0.013125022873282433, 0.12597380578517914, -0.06150110065937042, -0.1494089961051941, 0.027305688709020615, 0.013400495983660221, 0.07709304988384247, 0.0927036851644516, -0.11422623693943024, 0.010801861062645912, -0.053503554314374924, -0.10065504908561707, -0.1961454600095749, -0.06417657434940338, -0.21138471364974976, -0.015895992517471313, 0.05415477976202965, -0.11682906001806259, -0.16735072433948517, 0.08801750838756561, -0.06521344184875488, -0.11580821871757507, 0.13467848300933838, 0.15568388998508453, 0.12992137670516968, -0.212531179189682, -0.11780700087547302, 0.06683036684989929, 0.019291730597615242, 0.0601138174533844, 0.13722790777683258, -0.06698057800531387, -0.1884019374847412, 0.02845129370689392, 0.0223758015781641, -0.07447560131549835, 0.10993685573339462, 0.09447481483221054, -0.050635404884815216, 0.14264704287052155, 0.0760728046298027, 0.04084391891956329, -0.0771898701786995, -0.0468527153134346, -0.14619484543800354, 0.06201153248548508, 0.1716727465391159, 0.1641787737607956, 0.04101615026593208, -0.24000322818756104, -0.15490344166755676, 0.08491052687168121, -0.04520810768008232, -0.14877116680145264, -0.04121602326631546, 0.03491121530532837, 0.031791914254426956, -0.05245662480592728, -0.13566221296787262, -0.20188376307487488, 0.007860017009079456, -0.20818868279457092, -0.17684419453144073, 0.0032849384006112814, 0.04842394217848778, -0.06761682033538818, 0.09248030185699463, -0.22688215970993042, 0.4333992302417755, 0.11567743867635727, -0.28061631321907043, 0.3019775152206421, 0.05616706982254982, 0.17734511196613312, -0.3019769787788391, 0.0063094571232795715, 0.16257290542125702, -0.4024430513381958, 0.015557811595499516, 0.01803305372595787, -0.4169559180736542, -0.08265681564807892, -0.19037014245986938, 0.270590603351593, -0.07036056369543076, 0.09867171943187714, -0.13426850736141205, -0.11593879759311676, -0.1600729525089264, 0.4348338842391968, 0.03629141300916672, 0.1708376109600067, -0.3402528166770935, -0.007099726237356663, -0.06634579598903656, 0.46688681840896606, 0.13820670545101166, 0.2959577143192291, -0.3469530940055847, -0.1711532175540924, 0.07356741279363632, -0.19650423526763916, -0.04913044720888138, 0.07990672439336777, -0.4429943263530731, -0.1881924420595169, 0.03051028400659561, -0.3556015193462372, 0.024643339216709137, 0.2358720749616623, -0.4691988527774811, 0.04322373494505882, -0.11354508996009827, 0.0994284376502037, -0.1742616444826126, -0.10093672573566437, -0.039366334676742554, -0.059180766344070435, -0.26527005434036255, -0.0966128557920456, 0.06378062814474106, 0.07492026686668396, 0.1279212087392807, -0.19186340272426605, 0.12867479026317596, 0.19992080330848694, -0.12120369076728821, 0.26528772711753845, 0.12203188985586166, -0.19707420468330383, -0.05907496437430382, -0.09487704187631607, -0.017261721193790436, 0.12036234140396118, -0.2000676840543747, -0.14064887166023254, -0.16898488998413086, 0.030890343710780144, 0.10294117778539658, 0.2081940770149231, 0.11837031692266464, -0.09795768558979034, -0.16624903678894043, -0.1863810420036316, 0.1445949375629425, 0.25150665640830994, 0.16687972843647003, -0.16842563450336456, 0.11659414321184158, -0.05378372594714165, -0.16192860901355743, 0.05514344945549965, 0.12237167358398438, -0.14812910556793213, 0.133082777261734, 0.0767902135848999, 0.029359465464949608, 0.028873536735773087, -0.027478789910674095, -0.1481468230485916, 0.0442078672349453, -0.04151637852191925, 0.14860482513904572, 0.2087358981370926, -0.14045444130897522, 0.11568169295787811, 0.15370945632457733, -0.175138458609581, 0.05853743851184845, -0.18029287457466125, 0.21027709543704987, -0.2035970687866211, -0.25514450669288635, 0.3057333528995514, -0.2080056518316269, -0.1910955309867859, 0.33181536197662354, -0.04168304055929184, 0.12733455002307892, -0.2867347300052643, 0.15109112858772278, -0.08531903475522995, 0.10388052463531494, -0.030774490907788277, 0.15510205924510956, -0.18674492835998535, 0.2095334380865097, -0.15179778635501862, 0.31610947847366333, -0.0028751897625625134, 0.0865730345249176, -0.12322860211133957, -0.010109894908964634, -0.23835909366607666, 0.2357349842786789, -0.043032124638557434, -0.04928350821137428, 0.11391019821166992, -0.08874329924583435, -0.10264856368303299, 0.048773013055324554, 0.014077420346438885, -0.2972961664199829, 0.18584202229976654, -0.11575151234865189, -0.2566840350627899, 0.20596344769001007, 0.024327967315912247, -0.07422683387994766, 0.0019013354321941733, 0.2714078426361084, -0.24502840638160706, 0.1555832177400589, 0.15557076036930084, -0.2182200700044632, -0.00023270526435226202, 0.3325972557067871, 0.19572198390960693, 0.025580985471606255, -0.19465838372707367, 0.06914079189300537, -0.12768219411373138, -0.19839666783809662, 0.23819559812545776, -0.047591231763362885, -0.30468985438346863, -0.15399034321308136, -0.020107414573431015, 0.24856632947921753, 0.033780574798583984, -0.0992451012134552, 0.15083296597003937, -0.20969581604003906, 0.07185512036085129, 0.2805618643760681, 0.1349107176065445, -0.17597264051437378, -0.3539758026599884, -0.006327823735773563, 0.1062399372458458, 0.3583373725414276, 0.0741724818944931, -0.03635210543870926, -0.27487075328826904, 0.10624626278877258, -0.17380137741565704, -0.13261984288692474, 0.16072097420692444, -0.09240830689668655, -0.27249675989151, 0.027223309502005577, 0.01115238107740879, -0.3410632312297821, 0.1793006956577301, -0.13335873186588287, -0.3107597827911377, -0.0005814435426145792, -0.08227244019508362, -0.17051856219768524, -0.2289438545703888, 0.1520199030637741, 0.2624625265598297, -0.2303778976202011, 0.34025415778160095, 0.327290415763855, 0.169050931930542, -0.30180078744888306, -0.28818339109420776, 0.22881726920604706, -0.22065682709217072, -0.23364053666591644, 0.2065582275390625, -0.2758970260620117, -0.27127647399902344, -0.20511996746063232, 0.25183314085006714, 0.28278058767318726, -0.010112037882208824, -0.22942377626895905, -0.09146859496831894, -0.14877423644065857, 0.3593207895755768, 0.34658282995224, 0.3652903139591217, -0.3393504321575165, -0.4539984166622162, -0.41054466366767883, 0.4199100434780121, 0.42261284589767456, 0.19018660485744476, -0.2277871072292328, -0.23136934638023376, 0.3720112442970276, -0.12022877484560013, -0.16515788435935974, 0.2448149174451828, -0.325534850358963, -0.20886456966400146, 0.3560396134853363, -0.35609886050224304, -0.19169199466705322, 0.3550737202167511, -0.19506879150867462, -0.4245912432670593, 0.03362993523478508, 0.026696614921092987, -0.07724031805992126, -0.0947011187672615, 0.27519136667251587, -0.011157362721860409, 0.0166934821754694, 0.23023127019405365, 0.0856601670384407, -0.057339947670698166, -0.24538657069206238, -0.11130130290985107, -0.09893098473548889, -0.3924627900123596, 0.10104961693286896, 0.12371234595775604, -0.1405470073223114, 0.10649248212575912, -0.14578144252300262, 0.1695547252893448, -0.002193923108279705, -0.02578132599592209, -0.030639009550213814, -0.056453101336956024, -0.11256886273622513, 0.13702085614204407, -0.06914975494146347, 0.16712361574172974, -0.15319761633872986, 0.09080590307712555, 0.06523638963699341, 0.40165984630584717, -0.026088714599609375, 0.10873760282993317, -0.14756745100021362, 0.0363725870847702, 0.19808988273143768, -0.16327224671840668, 0.10756523907184601, -0.008968684822320938, -0.20798546075820923, 0.00279689347371459, 0.009902679361402988, -0.3542715907096863, -0.09225229173898697, -0.0651089996099472, -0.17758482694625854, 0.09270239621400833, -0.033668212592601776, -0.052165642380714417, -0.11595496535301208, -0.08544550091028214, 0.17511573433876038, 0.017244549468159676, -0.06001655384898186, 0.22381630539894104, -0.07483623921871185, 0.3285060226917267, -0.058101627975702286, -0.0850105881690979, 0.2673693001270294, -0.24641191959381104, -0.055022649466991425, 0.3087175488471985, -0.15945398807525635, -0.1321425437927246, -0.19852539896965027, 0.1514514535665512, -0.009898962453007698, 0.04693212732672691, -0.07901780307292938, -0.05596458911895752, -0.2737799286842346, 0.17467352747917175, 0.10017701983451843, 0.2751602232456207, -0.3020082712173462, -0.04601987078785896, -0.2963869869709015, 0.1052388921380043, 0.0848962664604187, 0.08471629023551941, -0.115456223487854, 0.08528407663106918, 0.1599152535200119, -0.25463274121284485, -0.08875289559364319, 0.21515022218227386, -0.27694764733314514, 0.039054304361343384, 0.05228925123810768, -0.30167242884635925, -0.17203329503536224, 0.16231167316436768, -0.06719640642404556, -0.16130727529525757, 0.21583451330661774, 0.16857127845287323, 0.05049322172999382, 0.09039948135614395, -0.15227459371089935, 0.173745796084404, 0.10795021057128906, 0.03394795581698418, 0.07178584486246109, -0.12312854081392288, 0.22734332084655762, 0.007545276544988155, 0.041229650378227234, -0.012647818773984909, -0.04048812389373779, -0.1725771725177765, 0.04375815391540527, 0.02712656371295452, -0.13159607350826263, -0.04632417485117912, 0.07751742750406265, 0.04096965864300728, -0.01579299569129944, -0.23482808470726013, -0.01892472431063652, -0.03907493129372597, 0.1417158991098404, 0.06321883201599121, 0.08870483189821243, 0.05732094496488571, -0.11238262057304382, -0.22542139887809753, 0.06866972893476486, -0.11292680352926254, 0.17899100482463837, -0.10484630614519119, -0.09015334397554398, -0.05231469124555588, 0.051123104989528656, -0.04048778489232063, 0.21335464715957642, 0.09031347930431366, 0.05381348729133606, 0.10219909250736237, -0.04265028238296509, -0.06055540218949318, 0.12109725177288055, 0.06948505342006683, -0.1839076578617096, 0.040639325976371765, 0.14679616689682007, -0.02951536327600479, -0.09905187785625458, 0.04275019094347954, 0.29747334122657776, -0.07937338203191757, 0.08596755564212799, -0.09227700531482697, 0.03175029903650284, 0.1377691924571991, -0.23862265050411224, -0.006791448220610619, 0.07460032403469086, -0.20198729634284973, -0.0007437208550982177, -0.021423380821943283, 0.2630577087402344, 0.012383310124278069, -0.06792298704385757, -0.055237192660570145, 0.1554192453622818, 0.07995335012674332, 0.17417849600315094, 0.1350618302822113, -0.030516788363456726, -0.1281159371137619, -0.0878458023071289, 0.06546957045793533, 0.056353744119405746, -0.036383502185344696, -0.09279488772153854, -0.029116636142134666, -0.08616028726100922, 0.021336417645215988, -0.2001669704914093, 0.12321446090936661, 0.1845269352197647, -0.27029508352279663, -0.1689142882823944, -0.09341162443161011, -0.15877877175807953, -0.0869617760181427, -0.07800876349210739, -0.21508507430553436, -0.02541644126176834, -0.0586763359606266, 0.13854281604290009, -0.04545104131102562, -0.06810897588729858, 0.13992846012115479, 0.3067439794540405, -0.43452149629592896, 0.17388297617435455, 0.14766153693199158, -0.24127627909183502, -0.30075913667678833, -0.3314886689186096, 0.518401563167572, -0.2505103051662445, -0.15767084062099457, 0.3520157039165497, -0.19306837022304535, -0.21958988904953003, 0.45661523938179016, 0.15118108689785004, -0.006597923580557108, -0.3880636692047119, -0.20522622764110565, 0.04796897992491722, 0.1567404717206955, 0.2956552505493164, 0.1515871286392212, -0.3878481984138489, -0.07178081572055817, -0.13341788947582245, 0.4803564250469208, 0.24734418094158173, 0.146124005317688, -0.465202271938324, -0.17718605697155, -0.08073094487190247, 0.3382296562194824, -0.27264857292175293, -0.07463419437408447, 0.44095492362976074, -0.1990770697593689, -0.3018142879009247, 0.23244716227054596, -0.12101452052593231, -0.18869587779045105, 0.27787840366363525, -0.1365029364824295, -0.13678301870822906, 0.4800402820110321, 0.21922025084495544, -0.011803305707871914, -0.09675472974777222, -0.22366556525230408, 0.20241017639636993, 0.07428990304470062, -0.05925334617495537, -0.06094081327319145, 0.14028054475784302, 0.2578105330467224, 0.06550576537847519, -0.1295843869447708, 0.06595045328140259, -0.1618887484073639, 0.12781797349452972, 0.053140148520469666, -0.12988853454589844, 0.06235942617058754, -0.18135327100753784, -0.020683467388153076, -0.017585255205631256, -0.042628902941942215, -0.3329203426837921, -0.0057100653648376465, -0.182361900806427, 0.11260897666215897, 0.13394415378570557, 0.1971733123064041, -0.04895756021142006, 0.12518548965454102, -0.09983481466770172, -0.0012342105619609356, 0.14475563168525696, 0.14934027194976807, -0.20469342172145844, -0.04822830855846405, 0.0013128514401614666, 0.05865783244371414, -0.055909935384988785, -0.01233355700969696, -0.06989187747240067, 0.08209383487701416, 0.15632617473602295, -0.013653155416250229, 0.004529998172074556, 0.17125460505485535, -0.09825444221496582, -0.06875714659690857, -0.10916630923748016, -0.13384787738323212, -0.17743325233459473, -0.008884640410542488, -0.1220707967877388, 0.10144763439893723, 0.0675029382109642, -0.27935338020324707, 0.21334542334079742, -0.1399141550064087, 0.3051655888557434, -0.18984609842300415, -0.08862359821796417, 0.2646011710166931, -0.133749321103096, 0.06609164923429489, 0.08485833555459976, -0.20168201625347137, -0.031570758670568466, -0.18503433465957642, 0.1802697628736496, -0.16214005649089813, 0.19236986339092255, -0.06562386453151703, 0.02094140276312828, -0.08111308515071869, -0.03730664402246475, -0.055694229900836945, 0.3190760910511017, -0.09757401794195175, 0.17024466395378113, -0.22863173484802246, 0.19266162812709808, -0.19458000361919403, 0.16448058187961578, -0.10230793803930283, -0.005464653484523296, 0.22880159318447113, 0.030684765428304672, -0.07281080633401871, 0.18220515549182892, 0.025489531457424164, -0.09194150567054749, 0.31160303950309753, -0.1706058830022812, -0.07248271256685257, 0.17477743327617645, -0.016249438747763634, 0.05299953743815422, -0.23974309861660004, -0.15719074010849, 0.024146532639861107, 0.04118381440639496, -0.029361460357904434, -0.07048157602548599, 0.1870824247598648, 0.082572802901268, -0.007671842817217112, -0.2291616052389145, 0.15499280393123627, -0.12788526713848114, -0.06170884892344475, 0.07401449233293533, -0.08465155214071274, -0.04257829114794731, -0.0710269957780838, 0.06929267942905426, 0.007782419677823782, -0.06727524101734161, 0.06830928474664688, 0.13819794356822968, 0.10467170923948288, 0.11406415700912476, 0.07600708305835724, -0.12258809059858322, -0.141908198595047, -0.2199828177690506, 0.19891023635864258, -0.016378261148929596, 0.09867722541093826, -0.01621401496231556, 0.07970590144395828, 0.03042270988225937, 0.17207537591457367, -0.10893692821264267, -0.09026768058538437, -0.0024916299153119326, -0.10434024035930634, -0.06071750447154045, 0.1889921873807907, -0.1362762153148651, -0.005384915508329868, -0.020510904490947723, -0.046808913350105286, 0.022229548543691635, 0.02512599527835846, -0.08192690461874008, -0.10307294875383377, 0.007520103361457586, -0.03424501419067383, -0.29251909255981445, 0.25493642687797546, -0.11916539818048477, -0.3569517135620117, 0.16389107704162598, 0.13057217001914978, 0.19591814279556274, -0.08747095614671707, 0.14022710919380188, 0.32923200726509094, -0.23036447167396545, -0.0025023871567100286, 0.186921626329422, -0.2740514278411865, -0.02145753800868988, -0.06686196476221085, 0.23842260241508484, -0.011960752308368683, 0.06727652251720428, -0.08302265405654907, 0.09230729937553406, -0.2911151647567749, 0.05394178628921509, 0.03547540679574013, 0.3105376958847046, -0.27721527218818665, 0.11669732630252838, -0.17836406826972961, 0.05546186491847038, -0.01701294630765915, 0.3638995885848999, -0.27023845911026, -0.04453548043966293, 0.21935023367404938, -0.2766801714897156, 0.09592592716217041, 0.30665963888168335, -0.06447301805019379, -0.07704924792051315, 0.3698204457759857, -0.2396906018257141, 0.15819595754146576, 0.09352230280637741, -0.2845469117164612, 0.15432965755462646, 0.11195734143257141, 0.1571151167154312, 0.03679056838154793, -0.15169890224933624, -0.07466784119606018, -0.13704614341259003, -0.010127806104719639, 0.11534499377012253, -0.27280375361442566, 0.010623699985444546, 0.10496509075164795, 0.1208825632929802, -0.040357623249292374, 0.08515261113643646, -0.07108738273382187, -0.011837907135486603, -0.07305055111646652, 0.05543062090873718, 0.532072126865387, -0.4343910217285156, 0.8529324531555176, -0.6431885957717896, 0.09235603362321854, 1.143113374710083, 1.3218016624450684, -0.5629820227622986, 0.20869916677474976, 0.11447590589523315, -0.4805440306663513, -0.7084751725196838, 0.27671995759010315, -0.6239355206489563, 0.11472368985414505, 0.5847112536430359, -0.2325001209974289, 0.26596754789352417, 0.009450629353523254, 0.30615779757499695, 0.31073111295700073, -0.037469640374183655, 0.11652300506830215, -0.06901616603136063, -0.3402039706707001, -0.12448708713054657, -0.004759877920150757, -0.109744593501091, -0.08896814286708832, 0.07089868187904358, 0.24166953563690186, 0.11090940237045288, -0.03873316943645477, -0.17463505268096924, -0.14175722002983093, -0.031728506088256836, 0.21416835486888885, 0.08797425031661987, 0.03427700698375702, -0.22047752141952515, -0.018747003749012947, 0.2942989766597748, -0.10109113156795502, -0.28565144538879395, -0.06303784251213074, -0.06250263750553131, 0.060378510504961014, 0.36417433619499207, 0.039302170276641846, 0.02139919437468052, 0.00726762879639864, 0.1951482743024826, -0.29369357228279114, -0.1529999077320099, 0.09313514083623886, -0.21369105577468872, -0.12337980419397354, -0.13893474638462067, 0.17433638870716095, -0.0031585837714374065, 0.19249926507472992, 0.28252166509628296, -0.020273327827453613, -0.1281653642654419, 0.34196552634239197, -0.24505531787872314, -0.0007190140895545483, -0.2612379491329193, -0.30774661898612976, 0.1123909056186676, 0.03834063932299614, -0.022199828177690506, -0.005747077986598015, 0.1208156943321228, -0.09471584111452103, -0.049029137939214706, 0.37043508887290955, 0.1222076267004013, -0.2719423770904541, 0.04574571177363396, -0.12001236528158188, -0.27745285630226135, -0.22190067172050476, 0.15922722220420837, 0.01818876340985298, 0.032032303512096405, 0.05548018589615822, -0.1348305195569992, 0.04058757424354553, 0.16245053708553314, -0.12827417254447937, 0.31298574805259705, -0.07761494815349579, 0.1728777438402176, -0.12707921862602234, 0.08301854133605957, -0.3695213198661804, -0.12081243842840195, 0.26404449343681335, 0.143591046333313, 0.2045663595199585, 0.23149517178535461, 0.24496765434741974, 0.12571489810943604, 0.16180260479450226, 0.04632703587412834, -0.47225531935691833, -0.18553350865840912, -0.07859061658382416, -0.1556558609008789, 0.0374382920563221, 0.07833380252122879, 0.014367773197591305, -0.06925142556428909, 0.1822659969329834, 0.27259254455566406, -0.28765150904655457, -0.25598129630088806, 0.13709810376167297, 0.14249375462532043, 0.0858665257692337, -0.1018514484167099, -0.43870800733566284, 0.24643470346927643, 0.2789185345172882, -0.2060372233390808, -0.049980416893959045, -0.4383133053779602, 0.10931755602359772, 0.09773524105548859, 0.26903873682022095, -0.15120944380760193, -0.12909047305583954, 0.12080024927854538, 0.21749456226825714, 0.1552303582429886, 0.015270727686583996, -0.2008686363697052, 0.16876338422298431, -0.1115473136305809, 0.05382353812456131, -0.11903843283653259, -0.06748063117265701, -0.030587363988161087, 0.1316404789686203, -0.008346489630639553, -0.21988415718078613, -0.27126890420913696, 0.004906916059553623, -0.11835965514183044, -0.18878793716430664, 0.0014038606313988566, -0.12774398922920227, -0.23340849578380585, 0.4089511036872864, 0.35387444496154785, 0.15411117672920227, -0.10745611041784286, 0.169551819562912, -0.09879836440086365, -0.28084394335746765, -0.05929280444979668, 0.18287144601345062, -0.2006843388080597, -0.033053480088710785, 0.09930393844842911, 0.09411024302244186, -0.27221396565437317, -0.23912933468818665, 0.17023904621601105, -0.03995358198881149, 0.09362354874610901, -0.03561379760503769, 0.40733802318573, -0.2464212030172348, 0.11400341242551804, 0.1872604340314865, 0.20448824763298035, -0.24940982460975647, 0.09008169919252396, -0.2794768810272217, -0.10971368849277496, 0.07907228171825409, -0.0905660092830658, 0.07322724163532257, -0.11178731918334961, -0.12939777970314026, 0.005117828492075205, -0.07992635667324066, 0.13178861141204834, 0.001237718970514834, 0.16918335855007172, 0.11325328052043915, -0.2683497667312622, 0.2657148838043213, 0.12287876754999161, 0.1029694676399231, 0.03308674320578575, 0.10849043726921082, -0.29794859886169434, -0.07131550461053848, 0.05047287419438362, -0.158870130777359, -0.3349972665309906, -0.12140794098377228, 0.1727704554796219, -0.40521040558815, 0.10889211297035217, 0.049319393932819366, -0.036085326224565506, 0.06699935346841812, 0.07144723832607269, -0.128253772854805, -0.10570354014635086, 0.09987439215183258, 0.3143760859966278, 0.320466548204422, 0.028101498261094093, -0.058519016951322556, -0.008823510259389877, 0.41552504897117615, -0.30716344714164734, -0.20661042630672455, 0.027111725881695747, 0.1795857548713684, -0.11378108710050583, -0.1639825999736786, -0.027379881590604782, -0.07061860710382462, 0.2565256357192993, 0.2007075995206833, -0.050449494272470474, -0.015275237150490284, -0.006663060747087002, 0.16822031140327454, 0.056676436215639114, -0.06603621691465378, -0.07337138056755066, -0.14779545366764069, 0.23417559266090393, -0.052556347101926804, 0.2862556576728821, 0.033297449350357056, -0.1388426125049591, 0.30635586380958557, 0.034364670515060425, 0.1980176419019699, -0.01240468304604292, -0.4887981414794922, 0.04906877130270004, 0.07159332185983658, 0.03795108199119568, 0.14898844063282013, 0.11840930581092834, -0.16439375281333923, 0.1694595366716385, 0.08090166747570038, 0.06733907759189606, 0.11085359752178192, 0.006112285424023867, -0.3337225914001465, 0.0934041440486908, 0.03380230814218521, 0.3866291344165802, -0.00624068733304739, -0.10062023252248764, -0.09081915020942688, -0.09560041129589081, 0.10793225467205048, 0.14817768335342407, 0.024557866156101227, -0.18812762200832367, 0.1712917685508728, -0.05385695770382881, 0.07243140041828156, -0.14323164522647858, -0.11275769025087357, 0.00044904486276209354, 0.11218628287315369, -0.013528101146221161, 0.030066652223467827, -0.05979934707283974, 0.08018750697374344, 0.022550158202648163, -0.013141569681465626, -0.038736287504434586, 0.058151230216026306, 0.056847039610147476, 0.11980465799570084, -0.23757323622703552, -0.037954434752464294, 0.02078470028936863, -0.15750806033611298, 0.10588216781616211, 0.010769663378596306, 0.10016722232103348, 0.03989657387137413, -0.09397228062152863, 0.06554527580738068, -0.15801547467708588, -0.011045217514038086, 0.052199896425008774, 0.115080326795578, 0.087441086769104, -0.3854573965072632, -0.05773372948169708, -0.5586942434310913, -0.069327212870121, 0.13077525794506073, -0.07885754853487015, -0.2671249508857727, -0.2913593053817749, 0.03334641829133034, 0.38746270537376404, -0.03322621434926987, -0.023425770923495293, -0.14093300700187683, -0.09095104038715363, -0.08251918852329254, 0.12940426170825958, 0.18120191991329193, -0.14700140058994293, -0.2121894359588623, -0.005721440073102713, -0.19678379595279694, 0.07752981781959534, -0.18666918575763702, 0.19854816794395447, 0.15016889572143555, -0.22475208342075348, 0.14029307663440704, 0.12923583388328552, 0.003323365468531847, 0.050681136548519135, -0.14080727100372314, -0.31093016266822815, -0.032736893743276596, 0.25227758288383484, 0.4394987225532532, -0.20152178406715393, 0.16812272369861603, -0.019737446680665016, -0.0829012542963028, -0.05300397798418999, 0.01448796782642603, -0.06583849340677261, 0.03490911051630974, -0.3193187415599823, 0.011555403470993042, -0.0267136562615633, 0.07590948045253754, -0.1396295130252838, -0.12448834627866745, -0.15424512326717377, 0.10121538490056992, -0.2263520359992981, 0.00888904184103012, 0.09058621525764465, -0.09244119375944138, 0.004561888054013252, -0.09903890639543533, -0.08203846961259842, 0.12173167616128922, -0.09155639261007309, 0.17268846929073334, -0.02418139949440956, 0.05201719328761101, 0.0700933039188385, 0.012727359309792519, -0.020962685346603394, 0.08321685343980789, -0.15736308693885803, 0.03639630600810051, -0.20650847256183624, -0.2708967924118042, -0.08738762140274048, -0.06994059681892395, -0.3681345283985138, -0.19211310148239136, -0.07098329067230225, -0.15108467638492584, 0.0031556205358356237, 0.02034982480108738, -0.24643546342849731, -0.1558070331811905, 0.09316213428974152, -0.25047627091407776, 0.16410045325756073, 0.3874600827693939, -0.186212956905365, -0.07980391383171082, -0.151398167014122, 0.0034096306189894676, 0.11354786157608032, -0.09552531689405441, 0.014413992874324322, 0.07392215728759766, -0.04704486206173897, 0.08510521054267883, -0.015220818109810352, 0.31441646814346313, 0.17144986987113953, 0.19128933548927307, -0.24994443356990814, 0.10784060508012772, -0.03678524121642113, -0.011806447990238667, 0.2203674018383026, 0.016325531527400017, -0.37056106328964233, -0.06964397430419922, -0.23153549432754517, 0.3025929927825928, -0.09584421664476395, -0.16451722383499146, -0.23148256540298462, -0.04520175978541374, 0.0015497872373089194, 0.07284469157457352, -0.02330758236348629, 0.12322027236223221, -0.22529879212379456, 0.09340672194957733, -0.14122982323169708, -0.18981033563613892, 0.1451139599084854, -0.2329963743686676, -0.011161062866449356, 0.006935653276741505, 0.008187471888959408, 0.04029189050197601, 0.34666579961776733, -0.11078790575265884, -0.02768896147608757, -0.02585287019610405, 0.027819402515888214, 0.2063319981098175, 0.17921806871891022, 0.09256315231323242, -0.2173984795808792, -0.08865291625261307, 0.0951966792345047, 0.007011888548731804, -0.06970547884702682, -0.008326515555381775, -0.18269948661327362, -0.007316255941987038, -0.12300426512956619, 0.34781453013420105, -0.048111721873283386, -0.15942879021167755, 0.13445188105106354, -0.004269149154424667, -0.1924026757478714, 0.18189270794391632, 0.01113174855709076, 0.18111327290534973, -0.47119513154029846, 0.07782908529043198, 0.08009608089923859, -0.11328862607479095, -0.04323280230164528, 0.20957857370376587, -0.1843315064907074, 0.10894865542650223, 0.004476319067180157, 0.3137434720993042, 0.29672130942344666, 0.06921272724866867, 0.13424834609031677, -0.07811089605093002, 0.1300034523010254, -0.1566888689994812, -0.07985015213489532, -0.005747857969254255, -0.09997759759426117, 0.19997183978557587, -0.048514414578676224, 0.14469893276691437, 0.045105937868356705, -0.15063366293907166, -0.32737997174263, -0.36097365617752075, 0.14784647524356842, 0.10762173682451248, -0.0817602276802063, -0.05426566302776337, -0.19046032428741455, 0.013243766501545906, -0.12299134582281113, -0.06539393961429596, 0.17832650244235992, -0.04843328520655632, -0.20092777907848358, -0.01529634464532137, -0.08164603263139725, 0.18673576414585114, -0.11263357847929001, 0.15040834248065948, 0.15715856850147247, 0.11375147849321365, 0.0029049876611679792, 0.2929643988609314, 0.04355828836560249, 0.04305855557322502, -0.0476553738117218, -0.058628201484680176, -0.10974880307912827, -0.09955364465713501, -0.11573399603366852, 0.136939138174057, -0.22160762548446655, 0.02320452407002449, -0.11512342840433121, -0.03556406497955322, 0.1710505336523056, -0.15492163598537445, -0.07891087979078293, 0.29643112421035767, 0.03878061845898628, -0.14595799148082733, 0.05688135698437691, -0.08084194362163544, -0.4757107198238373, -0.056933432817459106, 0.09643185138702393, 0.1085352748632431, -0.0639975294470787, 0.10180537402629852, -0.1461147516965866, 0.09876546263694763, -0.30682405829429626, 0.265085369348526, -0.10726526379585266, -0.06141342595219612, 0.044118866324424744, 0.15476571023464203, -0.018188247457146645, 0.305711567401886, 0.15789368748664856, -0.04852423071861267, 0.3111221492290497, 0.0024934348184615374, 0.04843713343143463, -0.1953609585762024, -0.09265218675136566, -0.11560273915529251, -0.5898609161376953, 0.01982693560421467, 0.13825808465480804, -0.31406673789024353, 0.12751814723014832, 0.24566282331943512, 0.23450447618961334, 0.07902317494153976, 0.3013022243976593, -0.004824984818696976, 0.14495383203029633, 0.013657591305673122, 0.2857292890548706, 0.15724597871303558, 0.056564997881650925, 0.12331318110227585, -0.023690063506364822, 0.01372435037046671, 0.02509072795510292, 0.2346680462360382, 0.06740598380565643, 0.045373331755399704, 0.23898185789585114, 0.10886941850185394, 0.20368441939353943, -0.10784982144832611, -0.030153337866067886, -0.20224924385547638, 0.046977922320365906, -0.07951339334249496, 0.19111843407154083, -0.07371464371681213, 0.05470459908246994, 0.3358302414417267, -0.028656762093305588, 0.04046826437115669, -0.02894081175327301, 0.13038615882396698, 0.14029085636138916, -0.016328860074281693, -0.0385037399828434, -0.013586843386292458, 0.18667788803577423, 0.03220529109239578, 0.2513551712036133, 0.2730196416378021, 0.17521558701992035, 0.32522517442703247, -0.17592397332191467, 0.3177313804626465, -0.09359560906887054, 0.05248880758881569, -0.02901715785264969, -0.17003010213375092, -0.39763566851615906, -0.19919775426387787, -0.017227167263627052, 0.020316770300269127, -0.022336801514029503, 0.10674072057008743, -0.018817514181137085, 0.057002607733011246, 0.03951955959200859, 0.5395967364311218, 0.06652907282114029, 0.14013424515724182, 0.01936293952167034, 0.1390596628189087, 0.024088744074106216, 0.041970591992139816, -0.19130390882492065, -0.12017188966274261, 0.04415902495384216, -0.12840348482131958, -0.13704591989517212, -0.14443734288215637, -0.08941818028688431, 0.006759741343557835, -0.027377715334296227, -0.18735016882419586, 0.08673593401908875, 0.14608803391456604, -0.0831163078546524, -0.28094807267189026, -0.052724044770002365, 0.10835523158311844, -0.17693071067333221, -0.03582203760743141, -0.10710129886865616, -0.1918463408946991, -0.1499163955450058, -0.16451068222522736, 0.25156813859939575, -0.14116370677947998, -0.15446040034294128, -0.38334164023399353, -0.5903616547584534, 0.07485444843769073, 0.18647053837776184, -0.04740699380636215, -0.053186383098363876, 0.03302842751145363, -0.04087354242801666, 0.18831467628479004, 0.19088730216026306, 0.1687583029270172, -0.19470052421092987, -0.05619964376091957, -0.10284194350242615, 0.06152421236038208, -0.24038387835025787, -0.0808381661772728, 0.07437942177057266, -0.202815443277359, -0.11950922012329102, 0.10061613470315933, -0.1473727822303772, 0.07818643003702164, -0.34392407536506653, 0.05449214205145836, 0.04010710492730141, -0.1452593356370926, 0.051947008818387985, -0.025535574182868004, -0.015083962120115757, -0.1056249663233757, 0.005959647241979837, -0.23210643231868744, -0.011506687849760056, -0.31626155972480774, -0.25119081139564514, 0.1758892834186554, 0.0351330004632473, 0.13925012946128845, 0.24878373742103577, -0.05273965746164322, -0.008017722517251968, 0.24041907489299774, 0.05179725959897041, 0.026122845709323883, 0.08711238950490952, 0.1368633508682251, -0.001927262987010181, 0.6220830082893372, 0.4616906940937042, 0.0703745111823082, -0.13141019642353058, -0.062172114849090576, 0.06896643340587616, -0.5423606634140015, -0.13618262112140656, 0.17117059230804443, -0.0919492170214653, 0.20527134835720062, -0.23851867020130157, 0.03575166314840317, -0.11463230103254318, -0.09038209915161133, 0.31314706802368164, -0.1841047704219818, 0.001865537604317069, 0.19547505676746368, 0.17325685918331146, 0.11448770016431808, 0.1525278091430664, -0.18703272938728333, -0.08298806101083755, -0.1354609727859497, -0.12331457436084747, -0.03306766226887703, 0.004515187349170446, 0.07100848853588104, -0.00883765984326601, 0.13105395436286926, -0.3451693654060364, -0.15941473841667175, -0.09139662981033325, 0.013130739331245422, 0.17721766233444214, -0.11328087747097015, 0.0763438269495964, -0.15847694873809814, -0.05482834205031395, 0.2642112076282501, -0.07451840490102768, 0.17486953735351562, 0.1018361896276474, -0.12996982038021088, -0.25589674711227417, -0.3359614312648773, 0.1596793532371521, -0.34620368480682373, 0.0034498271998018026, 0.27553892135620117, -0.1757720559835434, -0.09604406356811523, 0.27111437916755676, 0.15488357841968536, 0.31402158737182617, -0.1131054237484932, 0.021268580108880997, -0.16643376648426056, 0.16053389012813568, -0.006621923763304949, 0.17472387850284576, 0.0030435039661824703, -0.04734218865633011, -0.08977198600769043, -0.027117319405078888, -0.17728012800216675, -0.06911540031433105, -0.19453370571136475, -0.17416757345199585, 0.07012881338596344, -0.10389210283756256, -0.03357279673218727, -0.24229182302951813, -0.22268736362457275, -0.17980633676052094, -0.03218529373407364, 0.09719385206699371, -0.1366586834192276, 0.23249182105064392, -0.20541106164455414, -0.21743853390216827, 0.31287702918052673, 0.007584597449749708, -0.15886379778385162, -0.04404054209589958, 0.10389330983161926, -0.1797494888305664, -0.015397090464830399, 0.12193991988897324, -0.15274333953857422, 0.06982851773500443, -0.0440700501203537, 0.1716921627521515, 0.1081843227148056, 0.008308280259370804, 0.133959099650383, -0.30804044008255005, 0.10183201730251312, 0.08744457364082336, 0.056282952427864075, 0.015536712482571602, 0.026498418301343918, -0.07066777348518372, 0.14021816849708557, -0.06914112716913223, -0.04225510358810425, -0.1291196197271347, -0.055314384400844574, -0.03966393694281578, -0.007151456084102392, -0.11699365079402924, 0.22487908601760864, 0.016840314492583275, -0.009252766147255898, -0.12902583181858063, 0.12987546622753143, -0.03657277300953865, -0.08450566977262497, 0.02069084160029888, -0.08160773664712906, 0.09412738680839539, -0.04105471819639206, 0.1611103117465973, -0.20880064368247986, -0.025976460427045822, 0.26223787665367126, -0.2564642131328583, -0.4116799831390381, -0.07093627005815506, -0.13214708864688873, -0.013426214456558228, -0.22618143260478973, 0.032112471759319305, 0.059776272624731064, 0.0784107968211174, 0.0478256493806839, -0.05020372197031975, -0.13114799559116364, 0.027903489768505096, -0.03965893015265465, 0.09051919728517532, 0.01907949149608612, -0.05473427101969719, -0.36738139390945435, 0.08775380253791809, 0.05956592410802841, 0.2514925003051758, 0.21527893841266632, 0.015910835936665535, 0.16647717356681824, 0.02149277925491333, -0.08353574573993683, -0.24491310119628906, 0.12150164693593979, -0.08546315133571625, -0.18897230923175812, -0.07850953191518784, -0.002721454482525587, -0.27073365449905396, -0.13440093398094177, 0.02739487774670124, -0.2447746992111206, -0.08755280077457428, 0.0533268079161644, 0.20253148674964905, -0.023240767419338226, -0.168780118227005, 0.13215495645999908, -0.066419318318367, -0.16071857511997223, 0.11547771096229553, 0.08094600588083267, 0.009187762625515461, -0.2300499677658081, -0.03578360751271248, -0.03324463590979576, 0.2686586081981659, 0.02764018625020981, 0.032199516892433167, -0.01582474075257778, 0.1022350862622261, -0.15951292216777802, -0.12353720515966415, -0.011300710029900074, -0.2536821961402893, 0.14109185338020325, -0.17309799790382385, -0.19584421813488007, -0.08942747116088867, -0.12059419602155685, 0.07492964714765549, -0.19784817099571228, -0.06610536575317383, -0.10144224762916565, -0.12671908736228943, -0.06071752309799194, 0.06763835996389389, -0.12421372532844543, 0.12154674530029297, 0.17842912673950195, -0.05548283830285072, -0.2591800391674042, -0.09992403537034988, 0.1507439762353897, 0.19291850924491882, -0.00016363871691282839, 0.1442529410123825, -0.26201045513153076, -0.11418858170509338, 0.0024352739565074444, 0.03346841409802437, -0.08702290058135986, -0.21496714651584625, 0.038837775588035583, -0.3015708327293396, -0.21391141414642334, -0.24202024936676025, -0.1733209788799286, -0.06948423385620117, 0.24161459505558014, -0.023572085425257683, 0.033542174845933914, -0.009806833229959011, -0.021129624918103218, 0.09782715886831284, 0.4211268723011017, 0.03641334921121597, 0.07397396862506866, -0.1886562556028366, 0.13635428249835968, -0.08727378398180008, -0.07408314943313599, 0.017020566388964653, -0.04023027420043945, 0.01267768070101738, 0.17077691853046417, -0.07955798506736755, 0.26076754927635193, -0.18972696363925934, -0.35137635469436646, 0.03208027780056, 0.2715167999267578, 0.13602212071418762, 0.16886155307292938, -0.058868408203125, 0.10569558292627335, -0.3692314624786377, 0.25877296924591064, 0.07657274603843689, -0.007426075637340546, 0.057774487882852554, -0.023751946166157722, -0.07071626931428909, 0.0062799458391964436, -0.10687317699193954, 0.39055293798446655, -0.2509474456310272, -0.27375075221061707, -0.1227436289191246, -0.009712666273117065, 0.11494871228933334, 0.11986684799194336, -0.13938426971435547, 0.07541836053133011, -0.04075831547379494, -0.0919620469212532, -0.030511504039168358, -0.052722055464982986, 0.03245677053928375, -0.0358382947742939, 0.21466337144374847, 0.042662184685468674, 0.11509371548891068, -0.08302035182714462, -0.1439444124698639, -0.0989789143204689, 0.12849494814872742, 0.04937724396586418, -0.0779910609126091, -0.06024147942662239, -0.06065269187092781, -0.08689790964126587, 0.1009419783949852, 0.043898943811655045, 0.33716505765914917, -0.2260117381811142, -0.19184008240699768, 0.5241244435310364, 0.052708666771650314, -0.12391463667154312, 0.11953263729810715, -0.04935048893094063, -0.11625146120786667, -0.29137280583381653, 0.12236285954713821, 0.027818897739052773, -0.07849906384944916, -0.0383867546916008, 0.19422972202301025, -0.10702193528413773, 0.09224723279476166, 0.09474164247512817, 0.5168359875679016, -0.23613101243972778, -0.15022286772727966, 0.12537941336631775, -0.037869736552238464, -0.12366507202386856, -0.17380951344966888, 0.04069121927022934, -0.19185498356819153, -0.2929999828338623, 0.13240252435207367, -0.14570653438568115, 0.2502535283565521, -0.056728482246398926, -0.024159304797649384, -0.23242613673210144, -0.2171928733587265, -0.2470128983259201, -0.05824263393878937, 0.2005942016839981, 0.15226268768310547, 0.03316294774413109, 0.0533590205013752, -0.18674972653388977, 0.048993296921253204, 0.24604052305221558, -0.15771420300006866, 0.03230731934309006, 0.1723189800977707, -0.19015605747699738, -0.19088158011436462, -0.20769616961479187, 0.21875394880771637, -0.008221186697483063, -0.05916642025113106, -0.027555711567401886, -0.006439524702727795, -0.23130163550376892, 0.12235047668218613, 0.06611230969429016, -0.06876170635223389, -0.14796026051044464, -0.03582946956157684, 0.18459303677082062, 0.3407710790634155, 0.055112313479185104, 0.15152516961097717, -0.3864365816116333, -0.08731571584939957, 0.052606433629989624, -0.09301859140396118, -0.07330520451068878, -0.2730054557323456, -0.06300453841686249, -0.12002303451299667, 0.006036223378032446, -0.233902707695961, 0.00918801873922348, -0.10564719140529633, -0.34521520137786865, -0.06554446369409561, 0.1316187083721161, 0.42303410172462463, 0.21329407393932343, 0.047870565205812454, -0.11607960611581802, 0.12454286962747574, -0.08556793630123138, 0.07371225208044052, 0.16379088163375854, 0.08669217675924301, -0.09144659340381622, -0.10927623510360718, 0.037437811493873596, 0.029130199924111366, 0.12623156607151031, 0.08708552271127701, 0.03271307051181793, -0.1295536905527115, -0.2914707660675049, 0.43688470125198364, 0.31533098220825195, -0.5206649303436279, 0.028773730620741844, -0.8834157586097717, -0.22526276111602783, -0.3918224275112152, 0.7658846378326416, -0.7937923669815063, -0.5578073263168335, -0.8909740447998047, 0.31098365783691406, -0.7157882452011108, 0.22857704758644104, -0.5288832783699036, -0.12436535209417343, -0.021238980814814568, 0.07929721474647522, 0.1652071177959442, 0.17993853986263275, -0.05262647569179535, -0.25460585951805115, -0.11587300896644592, -0.1153407096862793, -0.22442813217639923, 0.11152088642120361, 0.14481563866138458, 0.0800352692604065, 0.07728350907564163, -0.03884224593639374, -0.19024166464805603, 0.04993187263607979, -0.07440841943025589, 0.004699863493442535, -0.17929860949516296, -0.24678823351860046, 0.09880518913269043, -0.24539585411548615, -0.20563828945159912, 0.10837844759225845, -0.15749025344848633, -0.03237716853618622, 0.16949182748794556, 0.0854518786072731, -0.18203207850456238, 0.10860919207334518, 0.21737687289714813, -0.14013810455799103, -0.07172052562236786, 0.021409831941127777, 0.08248558640480042, -0.05373431742191315, 0.16063445806503296, 0.05745172128081322, 0.0018282330129295588, 0.09075864404439926, 0.050646569579839706, -0.2374427169561386, -0.29192376136779785, -0.025843128561973572, 0.15156134963035583, 0.07686851173639297, 0.1839808076620102, 0.10917031764984131, 0.14505866169929504, -0.2997319996356964, -0.1274147629737854, -0.2912936210632324, 0.09656871110200882, 0.0037758261896669865, -0.04112191125750542, -0.17697156965732574, 0.35453251004219055, -0.040383726358413696, 0.12001142650842667, 0.4411252737045288, -0.023239340633153915, -0.06940796971321106, 0.21539917588233948, 0.39748966693878174, 0.09926021844148636, -0.4651646018028259, -0.18180495500564575, 0.002798381494358182, 0.07944515347480774, -0.16973203420639038, 0.3613992929458618, -0.02282906137406826, 0.11913111060857773, -0.11824319511651993, 0.2868349552154541, -0.011331813409924507, -0.035952627658843994, 0.015274864621460438, -0.04555772617459297, -0.15562622249126434, -0.16243191063404083, -0.2181834578514099, -0.07862384617328644, 0.1082218587398529, -0.25915953516960144, -0.16546882688999176, -0.11716987192630768, 0.14214368164539337, 0.15959104895591736, -0.06993595510721207, -0.14593032002449036, -0.17681585252285004, -0.2041768878698349, -0.13666751980781555, -0.02579759620130062, 0.1771397590637207, 0.018743300810456276, 0.1388014256954193, -0.2914639115333557, 0.11795229464769363, 0.27240294218063354, -0.2610388994216919, -0.12979306280612946, 0.1780058592557907, -0.007491215597838163, -0.08236023038625717, 0.10747553408145905, -0.10285650938749313, -0.002178986556828022, 0.07625075429677963, 0.3235423266887665, 0.10736296325922012, 0.14962567389011383, 0.24010036885738373, -0.021668454632163048, 0.20950309932231903, -0.12688127160072327, -0.2582072913646698, 0.18850645422935486, -0.2011488974094391, 0.24215899407863617, -0.09219318628311157, 0.23879456520080566, -0.3244294822216034, -0.03787262737751007, -0.0014860378578305244, -0.03484918549656868, -0.08792871981859207, 0.15616080164909363, -0.1236581802368164, -0.03832113742828369, -0.20568683743476868, -0.08530079573392868, 0.23140612244606018, -0.027525579556822777, -0.02746414765715599, 0.018092114478349686, 0.24038159847259521, -0.11549629271030426, -0.14939071238040924, 0.26783061027526855, -0.21000710129737854, 0.28673291206359863, -0.050136640667915344, -0.14424952864646912, -0.03754974156618118, 0.10561291128396988, 0.13480506837368011, -0.23454521596431732, 0.14963304996490479, 0.028649961575865746, -0.10459061712026596, -0.2235487699508667, 0.09510684758424759, 0.26710814237594604, 0.02977820485830307, -0.05265619605779648, 0.1529453843832016, -0.2793673872947693, -0.4374801218509674, -0.11605729907751083, -0.00703815883025527, 0.12479937821626663, -0.0446111299097538, -0.14745227992534637, 0.288382887840271, -0.32785001397132874, 0.4238661229610443, 0.10894203186035156, -0.2840076684951782, -0.18695394694805145, 0.18067248165607452, 0.09753633290529251, -0.17421260476112366, 0.17818917334079742, 0.11443518102169037, 0.18545062839984894, -0.3183921277523041, -0.14952802658081055, -0.1628420054912567, -0.13412515819072723, -0.16271081566810608, 0.10097125917673111, -0.19510681927204132, 0.2504108250141144, 0.09075191617012024, -0.17560721933841705, 0.09488324075937271, -0.19328713417053223, 0.17635037004947662, -0.015548072755336761, -0.23514056205749512, -0.03136894851922989, -0.3213319778442383, 0.24969510734081268, 0.07780889421701431, -0.055934708565473557, -0.11708445101976395, 0.0038246687036007643, -0.263597309589386, 0.11362477391958237, -0.20729422569274902, -0.1863212138414383, 0.12880031764507294, -0.18353275954723358, 0.09585714340209961, 0.08035320788621902, 0.12694412469863892, 0.19889625906944275, -0.3031657636165619, 0.2904850244522095, -0.2332669049501419, 0.10621823370456696, 0.138548344373703, -0.06363111734390259, 0.15065863728523254, 0.3223225176334381, -0.0619734562933445, -0.1842624992132187, 0.3199883997440338, 0.11099249124526978, 0.17073367536067963, 0.017877602949738503, 0.06746505200862885, 0.054151903837919235, 0.043026190251111984, -0.051337532699108124, -0.4191998839378357, -0.11410611867904663, 0.1768447309732437, 0.1773771047592163, -0.1708623468875885, 0.03151927888393402, -0.10469610244035721, -0.010087775066494942, -0.012901333160698414, 0.1545543372631073, 0.07071157544851303, 0.14886735379695892, 0.2179669737815857, 0.08529258519411087, -0.2147454172372818, -0.049751196056604385, -0.13003194332122803, 0.15005505084991455, -0.3382115364074707, 0.26095637679100037, -0.05718611553311348, -0.09779640287160873, 0.29757362604141235, 0.30023306608200073, -0.23688526451587677, 0.16484740376472473, -0.03909745812416077, -0.15249821543693542, -0.044689591974020004, 0.015659460797905922, -0.010708995163440704, -0.13918842375278473, -0.1501813381910324, -0.011757656931877136, 0.11663112044334412, 0.12392549961805344, 0.09811487048864365, -0.06813357025384903, 0.22364658117294312, -0.1768471747636795, -0.009747721254825592, -0.21477793157100677, -0.08951574563980103, -0.07598632574081421, 0.11637486517429352, 0.15899929404258728, -0.12148401141166687, -0.0831703394651413, -0.40015360713005066, 0.0043459548614919186, 0.021690120920538902, -0.06450279802083969, 0.11427024751901627, 0.08310212194919586, -0.1337805986404419, -0.08490587025880814, 0.11573924124240875, -0.07024244219064713, -0.11857746541500092, 0.09506530314683914, 0.1887587159872055, -0.04828140512108803, -0.10503382980823517, -0.12444719672203064, 0.08024316281080246, 0.04663307964801788, 0.24065075814723969, -0.16870039701461792, -0.06719458848237991, 0.04065445438027382, 0.0013505402021110058, 0.08288902044296265, 0.13853198289871216, -0.1626598834991455, -0.1542816162109375, -0.018329568207263947, 0.09876624494791031, -0.017090989276766777, -0.15143105387687683, -0.053425077348947525, 0.08528652787208557, -0.08322624862194061, -0.05577433109283447, -0.10398042947053909, 0.05931517481803894, 0.06033572182059288, 0.314677357673645, 0.005530950613319874, -0.022292165085673332, 0.3351975977420807, 0.0003238982171751559, -0.1531035453081131, -0.1979149430990219, -0.006499260663986206, 0.0067798239178955555, -0.012708543799817562, -0.032272305339574814, 0.02480829320847988, 0.1958857923746109, 0.03246363624930382, 0.14307904243469238, 0.031460437923669815, -0.2092006802558899, -0.11814141273498535, 0.18842263519763947, -0.23088909685611725, 0.035718828439712524, -0.1328779011964798, 0.09565253555774689, -0.17774398624897003, 0.18114975094795227, -0.2557086944580078, -0.005093525629490614, -0.1832600086927414, -0.020786980167031288, -0.09662686288356781, 0.1292419731616974, 0.04001464694738388, -0.09711030125617981, 0.05920746549963951, 0.21440407633781433, 0.1258760690689087, 0.20035886764526367, 0.17096345126628876, 0.17872337996959686, -0.054377615451812744, -0.3286612927913666, -0.08504742383956909, -0.07541171461343765, -0.05631658807396889, -0.03387980908155441, 0.07328219711780548, -0.10977993160486221, -0.09872283786535263, 0.07724206894636154, 0.05810032784938812, 0.029500378295779228, 0.07381739467382431, -0.25219613313674927, -0.11887720227241516, 0.15543676912784576, -0.16439875960350037, -0.08709366619586945, -0.0487108938395977, 0.09268112480640411, -0.21025368571281433, 0.052022650837898254, 0.06553845852613449, 0.05309521406888962, -0.2485690414905548, 0.06307797133922577, 0.11719057708978653, -0.005353507120162249, 0.05967332795262337, 0.14077386260032654, -0.025602059438824654, -0.18495814502239227, -0.05137006565928459, -0.035427652299404144, -0.0316038653254509, -0.07925832271575928, -0.06723266839981079, -0.04125934839248657, -0.010532858781516552, 0.10714183002710342, 0.1720152348279953, 0.10774460434913635, 0.12560401856899261, 0.0015805207658559084, -0.1182866245508194, -0.20197628438472748, 0.06256485730409622, -0.1306779831647873, -0.107278972864151, 0.21531972289085388, 0.07170278578996658, 0.037007007747888565, 0.01700313203036785, 0.0728435218334198, -0.09338943660259247, 0.06868445128202438, 0.0852048471570015, -0.09529465436935425, 0.02417616732418537, -0.0003648139245342463, -0.08598870784044266, -0.07824350893497467, 0.1563740223646164, -0.21597935259342194, 0.0074417260475456715, 0.045453403145074844, 0.04484522342681885, -0.022690821439027786, 0.0410279743373394, 0.11388998478651047, 0.11823651939630508, -0.06912271678447723, 0.17124193906784058, -0.07187150418758392, -0.07816989719867706, -0.009968613274395466, -0.13390006124973297, -0.044727109372615814, -0.04605958238244057, -0.1983436495065689, 0.06266564875841141, 0.2015625536441803, -0.04155982658267021, -0.01308573130518198, -0.04427620768547058, -0.02068953961133957, 0.06639431416988373, 0.015921007841825485, 0.22478021681308746, 0.1195850595831871, -0.21550242602825165, -0.0734243094921112, -0.2515842318534851, 0.23573754727840424, 0.11210513114929199, 0.13584491610527039, 0.17634819447994232, -0.24036605656147003, -0.13364441692829132, 0.14595264196395874, -0.14919154345989227, 0.03750256448984146, 0.24604301154613495, -0.1023407056927681, 0.1364320069551468, -0.06953458487987518, -0.10647645592689514, -0.01859261281788349, -0.26658010482788086, 0.1712033897638321, 0.0665878877043724, 0.12086218595504761, -0.14828573167324066, 0.07789428532123566, 0.07264561206102371, 0.2605547308921814, 0.11686893552541733, 0.044704657047986984, 0.11850444227457047, -0.07985606789588928, -0.060948725789785385, 0.21003304421901703, -0.12292873114347458, -0.06553810834884644, 0.13986778259277344, -0.042529281228780746, 0.06876833736896515, 0.1798221617937088, -0.01331400964409113, -0.18977700173854828, -0.12022358924150467, -0.053011782467365265, -0.04431677237153053, -0.12658140063285828, 0.04919974505901337, -0.09855417907238007, -0.26795703172683716, 0.07179123163223267, 0.1622757613658905, 0.10057006776332855, 0.1308935582637787, -0.023636344820261, 0.037001531571149826, -0.04059045389294624, -0.045141544193029404, 0.21832378208637238, -0.09985751658678055, -0.1357303410768509, 0.1910621076822281, -0.05268314480781555, -0.14558401703834534, -0.03628707304596901, 0.055480826646089554, 0.01559514831751585, -0.12633895874023438, 0.21844342350959778, 0.008564027957618237, -0.19321580231189728, -0.19636085629463196, 0.013623003847897053, 0.18368156254291534, -0.15706613659858704, -0.0930495485663414, -0.3251800835132599, 0.14266973733901978, -0.0001761838502716273, -0.2019917517900467, -0.07266876846551895, 0.09934572875499725, -0.2640112638473511, 0.12574242055416107, -0.047970108687877655, -0.14599889516830444, -0.008813338354229927, -0.21480947732925415, 0.015400389209389687, 0.1090199276804924, -0.040014222264289856, 0.03308414667844772, 0.02573908492922783, -0.1464512199163437, -0.06542296707630157, 0.0923401266336441, 0.23466983437538147, 0.0034936517477035522, -0.16399292647838593, -0.289579838514328, 0.1759617030620575, -0.04791721701622009, 0.14474502205848694, 0.06975052505731583, 0.09887780994176865, 0.05775617063045502, -0.08686847984790802, 0.07584542036056519, 0.28342315554618835, -0.04398089647293091, -0.07441919296979904, 0.12931913137435913, -0.06961532682180405, 0.11242060363292694, -0.08478537946939468, -0.41808179020881653, -0.12972143292427063, 0.11611303687095642, 0.10289550572633743, -0.08773661404848099, 0.0015103938058018684, 0.03925125300884247, -0.032641489058732986, 0.10379541665315628, -0.06693967431783676, 0.0037460329476743937, 0.049209095537662506, -0.09086429327726364, 0.013791362755000591, -0.09021749347448349, 0.04788130521774292, 0.05954199284315109, -0.16054953634738922, -0.073741614818573, 0.1112578958272934, 0.03944053873419762, 0.21750430762767792, -0.03305540606379509, 0.05602656304836273, 0.1353975385427475, -0.026551295071840286, 0.2172059416770935, 0.17442485690116882, -0.21818123757839203, -0.10572655498981476, -0.1721167117357254, 0.15177778899669647, -0.09916040301322937, 0.11806215345859528, -0.21344850957393646, -0.1422301083803177, 0.025659099221229553, -0.052634600549936295, -0.10963495820760727, -0.16774193942546844, 0.02864561602473259, -0.12881825864315033, -0.07973706722259521, 0.2436196655035019, -0.0636516660451889, -0.03827270120382309, 0.03283960744738579, -0.06811273843050003, -0.021373201161623, 0.1049618050456047, 0.19833995401859283, -0.06548035889863968, -0.1288975030183792, 0.06392157077789307, -0.0022061497438699007, 0.002860443899407983, -0.005631469655781984, 0.09000803530216217, -0.07259653508663177, -0.032577868551015854, 0.16803891956806183, -0.017227251082658768, -0.06446273624897003, 0.13182514905929565, -0.02209063060581684, 0.001066270051524043, 0.19464941322803497, -0.1742205172777176, -0.03503680229187012, 0.0779256820678711, 0.057160958647727966, -0.09085475653409958, 0.2250237762928009, 0.010697584599256516, -0.14278583228588104, -0.01866375282406807, 0.02268035337328911, 0.044196080416440964, 0.05035359784960747, -0.06965222954750061, -0.11063626408576965, -0.0522175207734108, -0.0813981220126152, 0.04260183498263359, -0.03795379027724266, -0.023383086547255516, 0.07005680352449417, 0.22869472205638885, -0.2134593427181244, -0.004610008560121059, 0.2724687457084656, 0.11596732586622238, -0.07449785619974136, 0.02591911144554615, 0.03138837218284607, 0.21151934564113617, -0.40449920296669006, 0.054714202880859375, -0.07801822572946548, -0.07739700376987457, -0.09394638240337372, -0.10355999320745468, -0.3414240777492523, -0.0035170025657862425, -0.01703009568154812, -0.019084306433796883, 0.026159418746829033, -0.04185934737324715, 0.14143045246601105, -0.13402019441127777, -0.05569712072610855, 0.22340133786201477, 0.13727672398090363, -0.12641513347625732, 0.052277639508247375, 0.0032229109201580286, 0.008618848398327827, -0.256320059299469, -0.17505872249603271, 0.2440665364265442, 0.06656161695718765, -0.08225468546152115, 0.10414212197065353, -0.18930386006832123, -0.004571470431983471, 0.010417487472295761, 0.01892719976603985, 0.1471811830997467, 0.09291622042655945, 0.026608964428305626, 0.11464320123195648, -0.07176387310028076, 0.005299207754433155, -0.2531864047050476, -0.008246458135545254, 0.2510391175746918, -0.017229575663805008, -0.14310958981513977, 0.21028411388397217, -0.03328915685415268, -0.07529275119304657, 0.061905164271593094, 0.0697723850607872, 0.09384453296661377, 0.16809818148612976, 0.020139582455158234, 0.13711482286453247, 0.04005759581923485, -0.044396813958883286, 0.0444348119199276, -0.07142844051122665, -0.14853282272815704, 0.16829465329647064, 0.2724309265613556, 0.28015202283859253, 0.03042677603662014, 0.14139162003993988, 0.0036378437653183937, -0.2086247354745865, 0.04937972128391266, -0.05357879400253296, -0.08939968049526215, -0.047448500990867615, 0.07694794237613678, 0.048706699162721634, -0.12885810434818268, 0.019791604951024055, -0.14139264822006226, 0.08752626925706863, -0.061193086206912994, 0.0806702971458435, -0.10251694917678833, 0.03021567314863205, -0.14322379231452942, -8.823253665468656e-06, -0.007190495263785124, 0.22665248811244965, -0.17847900092601776, 0.054040856659412384, 0.10214857012033463, -0.019453642889857292, -0.2993053197860718, -0.21502287685871124, 0.21393749117851257, 0.04433669149875641, -0.044923149049282074, -0.24844472110271454, -0.14406637847423553, -0.20114830136299133, -0.1774292290210724, -0.21686838567256927, -0.04156209155917168, 0.5634379982948303, -0.025474637746810913, -0.14928658306598663, -0.09499160945415497, -0.04878230020403862, -0.05930783972144127, 0.06723837554454803, -0.03172995150089264, -0.26671314239501953, -0.03088127262890339, 0.16042475402355194, 0.06189945340156555, -0.05029934644699097, 0.10270597040653229, 0.08875904977321625, 0.007374415639787912, 0.12754228711128235, 0.13138151168823242, -0.28320005536079407, 0.18796712160110474, -0.10822999477386475, 0.08366702497005463, -0.09453415870666504, -0.01643512025475502, 0.04091484844684601, -0.20807389914989471, -0.0016281852731481194, 0.2341865748167038, -0.030968399718403816, 0.21285662055015564, 0.0903993770480156, -0.0055771684274077415, -0.1048412099480629, 0.054539017379283905, 0.10274984687566757, 0.0746392011642456, -0.13723571598529816, 0.02939091995358467, 0.0037313380744308233, -0.27034029364585876, 0.11530675739049911, 0.12241825461387634, -0.15420223772525787, -0.042721815407276154, 0.18629735708236694, -0.2153819352388382, -0.07342939078807831, -0.06920155882835388, 0.18232598900794983, 0.028357474133372307, 0.03848721459507942, -0.12335087358951569, 0.07681542634963989, 0.17440536618232727, -0.023970143869519234, 0.06849204003810883, -0.1577366143465042, -0.09378422796726227, -0.09447231888771057, 0.043269045650959015, -0.008601070381700993, 0.18108423054218292, -0.2547539472579956, -0.035669781267642975, 0.039802953600883484, -0.09869954735040665, -0.20314642786979675, -0.044731929898262024, 0.03163528814911842, -0.07032903283834457, -0.09941845387220383, 0.07818612456321716, 0.06724120676517487, 0.19346021115779877, 0.12830385565757751, 0.008546663448214531, -0.2371627688407898, -0.11503919214010239, -0.023286810144782066, -0.08380202203989029, 0.04991452395915985, -0.08655025064945221, -0.15857672691345215, 0.03878536447882652, -0.1281554251909256, 0.06360729783773422, 0.0238188486546278, -0.18868838250637054, -0.01761731319129467, 0.049384020268917084, -0.15308456122875214, 0.07069925963878632, -0.11784632503986359, -0.07726346701383591, 0.2041502147912979, -0.26315081119537354, 0.027664897963404655, 0.09049216657876968, 0.04862383008003235, -0.2742803394794464, -0.26945531368255615, -0.08512169122695923, -0.2551274597644806, 0.20272521674633026, 0.1811678260564804, -0.06367196142673492, -0.19144821166992188, -0.09813544899225235, -0.03532237932085991, -0.02375204861164093, -0.05715412274003029, 0.07308807224035263, -0.08614066988229752, 0.06616942584514618, 0.21020746231079102, -0.011274449527263641, -0.012548375874757767, -0.14335249364376068, 0.01799481362104416, -0.08028843253850937, 0.3148042559623718, -0.09750968217849731, 0.15976619720458984, -0.13843566179275513, 0.0723099559545517, 0.009649415500462055, -0.030974427238106728, 0.07723945379257202, -0.09907736629247665, -0.09905064105987549, -0.00840460043400526, -0.04396780952811241, 0.1848950982093811, -0.05654299259185791, 0.0009124400676228106, 0.04888993874192238, 0.0151335084810853, -0.16795817017555237, 0.22183836996555328, -0.09145867079496384, 0.027352988719940186, 0.20513178408145905, 0.05718414857983589, 0.1713261902332306, 0.06536577641963959, -0.2212875634431839, 0.1265507936477661, 0.0034330401103943586, 0.1100030466914177, 0.08173574507236481, -0.31110918521881104, -0.08020856976509094, 0.2653661072254181, 0.0776047334074974, -0.07107511907815933, 0.08147643506526947, 0.0001816252333810553, -0.1904422491788864, -0.032326389104127884, 0.04735550656914711, 0.07717416435480118, 0.029413899406790733, 0.09197024255990982, 0.005205950699746609, -0.03958069160580635, -0.16725453734397888, -0.029482608661055565, -0.20060501992702484, 0.13566148281097412, 0.07479769736528397, 0.084394171833992, 0.09026820212602615, 0.10498654097318649, -0.03557097539305687, -0.029995597898960114, -0.06318819522857666, -0.05201498791575432, -0.26116281747817993, 0.16283926367759705, -0.010819482617080212, -0.25758230686187744, -0.21197518706321716, 0.02800314873456955, 0.15928249061107635, 0.04916311800479889, 0.0569542795419693, 0.02828635647892952, 0.044089991599321365, 0.1739698350429535, 0.2327018827199936, -0.135171577334404, 0.03088446334004402, -0.09407010674476624, 0.042904190719127655, 0.09150601923465729, 0.03126244992017746, 0.14857885241508484, -0.02904014103114605, 0.12409739941358566, -0.09864792972803116, -0.04379536584019661, -0.12900277972221375, 0.0013905513333156705, -0.10925672948360443, -0.16054511070251465, -0.02339785359799862, -0.06698212027549744, -0.1790742129087448, 0.07201218605041504, -0.010688245296478271, -0.07282707095146179, -0.1253904104232788, 0.028009988367557526, 0.08939167112112045, -0.2850441634654999, -0.03141164779663086, -0.14563274383544922, -0.10686182975769043, -0.007792062126100063, -0.003797590732574463, -0.004615674261003733, 0.06530516594648361, -0.21591229736804962, 0.06872887164354324, 0.06057090684771538, 0.07354916632175446, -0.22469843924045563, -0.0792354941368103, 0.005149834789335728, -0.013553643599152565, -0.04925491288304329, 0.0003613573790062219, -0.09912607073783875, 0.13055698573589325, -0.12041095644235611, 0.14196142554283142, -0.02434665523469448, -0.08242204785346985, 0.25753575563430786, -0.5099875926971436, -0.39409810304641724, -0.11781860142946243, 0.21505236625671387, 0.17956945300102234, 0.0667700543999672, 0.014626131393015385, -0.14596404135227203, -0.01587877795100212, -0.3654051125049591, 0.22982293367385864, 0.42303553223609924, -0.1626301407814026, 0.11120737344026566, 0.06136015057563782, -0.18076927959918976, 0.22257877886295319, 0.14182192087173462, 0.014430545270442963, 0.2865974009037018, -0.03976919874548912, 0.06487781554460526, -0.058280620723962784, -0.06324193626642227, 0.17911067605018616, 0.19493725895881653, 0.07868798822164536, 0.09883725643157959, 0.01248738169670105, 0.12329958379268646, 0.048088476061820984, -0.09581533819437027, -0.06508010625839233, 0.018294375389814377, -0.0922921895980835, -0.06367296725511551, -0.2653084993362427, -0.2304070144891739, -0.04597172886133194, -0.25294291973114014, 0.3284534215927124, 0.20801620185375214, -0.20089896023273468, 0.193227618932724, -0.12493792176246643, -0.1499638855457306, 0.15470294654369354, -0.007167086936533451, 0.027941415086388588, -0.029612598940730095, 0.03249000385403633, 0.30469611287117004, -0.063351571559906, 0.048871856182813644, -0.01206210721284151, 0.035326600074768066, 0.09415692836046219, -0.04041002318263054, 0.03423842042684555, 0.015966476872563362, -0.12436308711767197, -0.05838142707943916, 0.10914937406778336, 0.005547890439629555, 0.018563132733106613, -0.09481173008680344, -0.04211649298667908, 0.11769969016313553, 0.05661362037062645, 0.0036341072991490364, -0.28369903564453125, -0.44062381982803345, 0.7451525926589966, 0.32512620091438293, -0.39599499106407166, 0.16771219670772552, -0.26274409890174866, -0.04629012942314148, 0.5672914981842041, -0.5550952553749084, 0.8642075657844543, 0.4468413293361664, 0.05125664547085762, -0.37419945001602173, 0.1782991886138916, -0.5592254400253296, 0.13764019310474396, -0.21135489642620087, 0.023812824860215187, -0.21539074182510376, 0.1666044443845749, -0.02720768004655838, 0.3386673033237457, -0.014898665249347687, 0.07937060296535492, 0.1412237137556076, 0.033137619495391846, 0.2956036329269409, -0.28357142210006714, 0.10110047459602356, -0.14063502848148346, -0.08352851867675781, -0.09286202490329742, 0.07770976424217224, -0.12417536228895187, 0.23790110647678375, 0.07058244198560715, 0.276239275932312, 0.14074094593524933, -0.21242743730545044, -0.34117937088012695, -0.13890427350997925, 0.01673712208867073, -0.3768279552459717, 0.12651705741882324, 0.17451141774654388, 0.09807983040809631, -0.41765865683555603, -0.04733877629041672, -0.17403873801231384, 0.14696049690246582, -0.26416340470314026, 0.2473122775554657, -0.09705314040184021, -0.10883841663599014, -0.14681555330753326, -0.09425266087055206, 0.05070476979017258, -0.22707606852054596, 0.07012026011943817, 0.2048902064561844, -0.173880472779274, -0.02187318168580532, 0.20568585395812988, 0.2693535089492798, -0.017869524657726288, 0.08392655849456787, 0.020227910950779915, -0.16560380160808563, 0.11714593321084976, -0.32168838381767273, 0.0973115935921669, 0.2620038390159607, -0.20801953971385956, 0.13671807944774628, 0.5246313214302063, -0.011720063164830208, 0.038902681320905685, 0.38630715012550354, 0.0391862615942955, 0.2927911877632141, 0.0026528295129537582, 0.022681312635540962, -0.16686108708381653, -0.14412622153759003, 0.0377715565264225, 0.26122596859931946, -0.1750955581665039, 0.08217611163854599, -0.09314043074846268, -0.030105605721473694, 0.14193348586559296, -0.3047419488430023, -0.10441787540912628, 0.2432011514902115, -0.06254250556230545, -0.05508001521229744, -0.14905238151550293, -0.047585610300302505, -0.21700574457645416, 0.016263645142316818, -0.024052845314145088, 0.284110963344574, 0.16410134732723236, -0.2273036539554596, -0.2617059648036957, -0.11178664863109589, 0.13022379577159882, -0.05086674913764, 0.12821799516677856, 0.31132203340530396, 0.13857783377170563, 0.07425990700721741, 0.20068922638893127, -0.17434245347976685, 0.18185146152973175, -0.09748177975416183, -0.08969353884458542, 0.11236865818500519, 0.013828456401824951, -0.26608553528785706, 0.21950088441371918, 0.22232398390769958, -0.05826243758201599, 0.1310548335313797, 0.06129888445138931, -0.04604606702923775, -0.06314277648925781, 0.39544251561164856, 0.20808586478233337, -0.36550629138946533, 0.011468938551843166, 0.08454252034425735, -0.1859430968761444, 0.12925246357917786, -0.07486709207296371, -0.12277066707611084, 0.018737182021141052, 0.08070551604032516, 0.32800084352493286, -0.15270718932151794, -0.21278777718544006, 0.05320150777697563, -0.21984928846359253, -0.10748482495546341, 0.4115614593029022, -0.18074434995651245, 0.09113235771656036, 0.09916770458221436, 0.10086049884557724, -0.16189201176166534, -0.0496523454785347, -0.37238699197769165, -0.17007222771644592, 0.00483991764485836, 0.06595757603645325, -0.3804307281970978, -0.14216701686382294, 0.15006354451179504, 0.08725767582654953, 0.3350082039833069, 0.028526699170470238, -0.3293921947479248, 0.22065523266792297, -0.02860717847943306, 0.26154854893684387, -0.03503084182739258, -0.24420936405658722, -0.2060128152370453, -0.10534181445837021, 0.15156389772891998, 0.010895309038460255, -0.1885034441947937, -0.09679074585437775, 0.37259432673454285, -0.16093917191028595, 0.11448255181312561, -0.29737308621406555, -0.01817402057349682, -0.31027570366859436, 0.33074063062667847, -0.2900370657444, 0.05748364329338074, 0.01243608258664608, 0.36023399233818054, 0.13562366366386414, -0.3991076648235321, -0.0047121974639594555, 0.14212337136268616, -0.08211694657802582, 0.06069360300898552, 0.39385631680488586, 0.09311296045780182, -0.001713855774141848, -0.12976959347724915, 0.1263040155172348, -0.11912975460290909, 0.12414424121379852, 0.06962794810533524, 0.027267789468169212, -0.36791133880615234, -0.2905890643596649, -0.10288245230913162, 0.18652714788913727, -0.23784536123275757, -0.7373862862586975, -0.007976427674293518, -0.19583475589752197, -0.35465434193611145, -0.18634438514709473, 0.11107032746076584, -0.10377584397792816, 0.12695732712745667, -0.008629518561065197, -0.3463754951953888, -0.1061868965625763, 0.2842669188976288, 0.08034336566925049, 0.015275657176971436, -0.14591605961322784, 0.1979248970746994, 0.20284350216388702, -0.06267021596431732, -0.20884867012500763, -0.30830296874046326, 0.0910663977265358, -0.03276372328400612, 0.1237972304224968, -0.05763119086623192, -0.13876670598983765, -0.14784693717956543, -0.16332799196243286, 0.17429840564727783, 0.11289326101541519, 0.12581869959831238, -0.3115245997905731, 0.08735951036214828, 0.1258152276277542, -0.20432116091251373, 0.010358328931033611, 0.06628184765577316, 0.2725602686405182, -0.01526288129389286, -0.002466524252668023, -0.19418413937091827, -0.04011313244700432, 0.11070685088634491, -0.23044930398464203, 0.1506238579750061, 0.14984680712223053, 0.2046271562576294, 0.195566788315773, -0.17853786051273346, -0.09406811743974686, 0.00637883972376585, -0.2701556980609894, 0.19013532996177673, -0.2741342782974243, -0.15129612386226654, -0.20726242661476135, -0.22277815639972687, 0.08923345059156418, 0.15690186619758606, -0.2746228277683258, -0.013817867264151573, 0.006060387007892132, 0.16360048949718475, 0.4233211278915405, -0.25649985671043396, -0.04075368121266365, -0.045597273856401443, 0.19379733502864838, 0.08549729734659195, 0.0051683466881513596, 0.07887797802686691, 0.055027686059474945, -0.09062626212835312, 0.15783098340034485, 0.0806746631860733, -0.018795592710375786, -0.23683682084083557, -0.24728408455848694, 0.08563830703496933, 0.0849170982837677, 0.10005944967269897, -0.022306762635707855, 0.07213211804628372, -0.008601482026278973, -0.0746319591999054, 0.04391059651970863, 0.21700194478034973, -0.12567155063152313, 0.2523687183856964, 0.22592084109783173, 0.1476496011018753, 0.058663737028837204, -0.122196726500988, -0.18533442914485931, -0.003264542669057846, -0.13217322528362274, -0.1093592569231987, -0.20171140134334564, -0.3166032135486603, 0.04343196377158165, 0.0931396484375, 0.18560242652893066, 0.5564577579498291, -0.020506378263235092, -0.009275302290916443, -0.18368138372898102, 0.1046542078256607, 0.24037063121795654, 0.40991854667663574, 0.18056078255176544, -0.0848342701792717, -0.06251683086156845, 0.02397429198026657, -0.014212905429303646, 0.14216510951519012, 0.011834841221570969, 0.11663474887609482, 0.32331448793411255, 0.18172888457775116, -0.1395004838705063, -0.10256801545619965, -0.04183916747570038, -0.14943136274814606, 0.06401141732931137, -0.08353583514690399, -0.22840529680252075, -0.10606928169727325, -0.08156232535839081, -0.14422626793384552, -0.3692384362220764, -0.17697367072105408, 0.05701160058379173, -0.006338710431009531, 0.06368949264287949, -0.1483459174633026, -0.10941111296415329, -0.21872802078723907, 0.031938936561346054, 0.04264407977461815, -0.12754777073860168, 0.06830784678459167, 0.15508897602558136, 0.06033560261130333, 0.24191194772720337, 0.07769438624382019, 0.07762613147497177, -0.011049707420170307, 0.12067313492298126, -0.12524405121803284, 0.08096356689929962, -0.09666559100151062, 0.33229199051856995, -0.027855178341269493, 0.03493274748325348, -0.09129881858825684, -0.05013808608055115, 0.013144650496542454, 0.4154306650161743, -0.02728852443397045, 0.10220128297805786, 0.21205218136310577, 0.17526733875274658, 0.05560420826077461, 0.22029462456703186, 0.10072071105241776, 0.16103842854499817, 0.12727394700050354, -0.14756987988948822, 0.0016326576005667448, 0.043457262217998505, 0.08885624259710312, -0.21146266162395477, 0.11519929021596909, -0.193907231092453, 0.11886995285749435, 0.23318231105804443, -0.059705961495637894, 0.13389094173908234, 0.005622461438179016, -0.09078510105609894, -0.17280390858650208, -0.13906583189964294, 0.14259913563728333, 0.1920614093542099, 0.16408511996269226, -0.229999378323555, -0.06810253113508224, 0.0030132029205560684, 0.027622519060969353, -0.07455459982156754, 0.13673754036426544, -0.1666661947965622, 0.20058658719062805, -0.13954810798168182, -0.05023736506700516, -0.18326720595359802, -0.15581923723220825, 0.00310701341368258, 0.03122822754085064, 0.33728712797164917, 0.0076525830663740635, -0.0578625425696373, -0.042820096015930176, 0.1296304315328598, -0.2360880821943283, -0.32411128282546997, 0.070869080722332, 0.008756204508244991, -0.18684972822666168, 0.04269443079829216, 0.05326959490776062, 0.11986549943685532, -0.14333271980285645, -0.04544743895530701, 0.10454800724983215, -0.11293697357177734, -0.0009436897817067802, 0.09049912542104721, -0.03130505234003067, -0.00631817476823926, 0.042585719376802444, -0.05640935152769089, 0.03606730327010155, -0.17006981372833252, -0.006038764491677284, -0.17143945395946503, -0.08776801079511642, 0.10582094639539719, -0.2750600576400757, 0.14871570467948914, 0.13166499137878418, 0.15111251175403595, 0.13529139757156372, 0.4415161907672882, 0.2656269967556, 0.008475743234157562, -0.1893603801727295, 0.02034255675971508, -0.09091708809137344, -0.39109525084495544, 0.012308815494179726, -0.15666265785694122, -0.2023836076259613, -0.2790168225765228, -0.21153050661087036, 0.22213226556777954, -0.023037172853946686, -0.008493533357977867, 0.12642906606197357, -0.1745024472475052, 0.01640946790575981, 0.32410553097724915, 0.2202584445476532, 0.018529750406742096, -0.07515112310647964, -0.30954107642173767, -0.0022817030549049377, 0.2948584258556366, 0.08291471749544144, 0.07383834570646286, -0.16806480288505554, 0.3078819215297699, 0.2425917387008667, 0.37616199254989624, 0.081836998462677, 0.16533531248569489, -0.213404580950737, 0.31572580337524414, 0.14197252690792084, -0.26378992199897766, -0.24736227095127106, 0.18948757648468018, -0.013924751430749893, -0.4064209461212158, -0.12550318241119385, -0.047439202666282654, 0.2612249255180359, -0.028140781447291374, -0.04934098944067955, -0.022462692111730576, 0.016001446172595024, -0.0760788545012474, -0.1172916442155838, 0.057936448603868484, -0.22187703847885132, 0.1836172342300415, 0.09863660484552383, 0.017844947054982185, 0.04091121628880501, -0.03519899398088455, -0.16516844928264618, -0.011216716840863228, 0.057806745171546936, 0.1705138236284256, -0.2408006191253662, -0.06324919313192368, 0.1794334352016449, 0.21629440784454346, 0.06759679317474365, 0.02268354967236519, -0.3588978052139282, 0.04161651432514191, -0.15220263600349426, -0.17260468006134033, -0.056899599730968475, 0.10757513344287872, 0.07497180253267288, -0.11406607925891876, -0.19674870371818542, -0.09736776351928711, -0.10451208055019379, -0.1469695121049881, -0.08728326857089996, 0.022955795750021935, -0.028030946850776672, -0.24334678053855896, -0.09305431693792343, -0.07266329228878021, 0.016405552625656128, -0.011090128682553768, 0.0003596687747631222, 0.13832971453666687, 0.0861915796995163, 0.12830780446529388, -0.1128544807434082, -0.0075439270585775375, -0.051998771727085114, 0.12137328833341599, 0.09038246423006058, -0.12192672491073608, -0.08544259518384933, 0.003117859596386552, 0.2406509965658188, -0.08549879491329193, 0.02994764968752861, -0.010442378930747509, -0.013880638405680656, -0.07583843916654587, -0.112503282725811, -0.1972213089466095, -0.07212433964014053, 0.008903592824935913, -0.18592652678489685, 0.16606484353542328, -0.20036426186561584, 0.0412825308740139, 0.027204494923353195, -0.04640006273984909, -0.27909398078918457, -0.2978898286819458, -0.23363013565540314, -0.0985124260187149, 0.1120201125741005, -0.12775950133800507, -0.19944484531879425, -0.38175076246261597, 0.0016324464231729507, -0.13887919485569, -0.14805397391319275, 0.024742024019360542, 0.1666102558374405, 0.009588816203176975, 0.014724134467542171, 0.09180203080177307, -0.1084958016872406, -0.08099153637886047, -0.17238028347492218, -0.039213210344314575, -0.11302100867033005, 0.001805698499083519, 0.2887367606163025, 0.009681632742285728, 0.3509378135204315, 0.06820856034755707, -0.3188515901565552, -0.19729278981685638, -0.03559112176299095, -0.14668616652488708, -0.1375170797109604, 0.2136002629995346, 0.21076886355876923, -0.2193523645401001, 0.06694222241640091, -0.028970563784241676, -0.09973893314599991, 0.5051969289779663, -0.052104294300079346, -0.015797704458236694, -0.1489821970462799, -0.05635829642415047, -0.14252761006355286, 0.31714946031570435, -0.15335161983966827, 0.2998844385147095, -0.09113118797540665, -0.2155255228281021, -0.06951835006475449, 0.35380494594573975, 0.0028609430883079767, 0.17176327109336853, 0.026952264830470085, -0.12239263206720352, -0.046191129833459854, 0.019852720201015472, 0.4050498306751251, -0.22819340229034424, -0.1319120079278946, -0.10692752152681351, 0.03702902793884277, -0.12398343533277512, 0.06679781526327133, -0.2890125513076782, 0.006485411431640387, 0.06526430696249008, -0.028215086087584496, 0.1429165005683899, -0.17772233486175537, 0.33897989988327026, 0.22557468712329865, -0.3029289245605469, -0.15048322081565857, -0.1486048698425293, 0.05201275646686554, 0.13640204071998596, -0.24760928750038147, 0.15842464566230774, -0.08925703912973404, -0.14769399166107178, 0.06497476994991302, -0.06342165917158127, 0.24657945334911346, -0.05717010423541069, -0.008697239682078362, 0.09897039085626602, -0.06847545504570007, -0.20186978578567505, -0.30671265721321106, -0.04107518866658211, -0.09003758430480957, 0.007059641182422638, 0.06289028376340866, -0.176377534866333, -0.019410470500588417, 0.04504382237792015, 0.21476367115974426, -0.027669455856084824, -0.014422280713915825, -0.0745408684015274, -0.17270933091640472, 0.1677800416946411, -0.16739819943904877, -0.18655112385749817, -0.13826777040958405, 0.122828409075737, -0.08739303052425385, 0.2055598497390747, 0.0957576334476471, 0.09595383703708649, 0.020173948258161545, 0.13710425794124603, -0.05404800549149513, -0.15996438264846802, 0.10176000744104385, 0.11800318211317062, 0.005184262525290251, -0.10271000862121582, -0.09332644939422607, 0.0763171911239624, -0.1747838258743286, 0.17889617383480072, 0.009767970070242882, 0.34068694710731506, 0.345744252204895, -0.04612887650728226, -0.1298113316297531, -0.27655336260795593, 0.20144525170326233, -0.1701318621635437, -0.13272123038768768, 0.1381543129682541, -0.4051178991794586, 0.04268626868724823, -0.056781888008117676, 0.03946411982178688, 0.17629855871200562, -0.06528200209140778, 0.0460728220641613, 0.030314378440380096, -0.6111111044883728, 0.02855381742119789, 0.020637134090065956, -0.20547287166118622, -0.13191835582256317, 0.32649627327919006, -0.18874530494213104, 0.08221282809972763, 0.30729028582572937, -0.2606752812862396, 0.006671418901532888, -0.3387298583984375, 0.2825348675251007, -0.09882210195064545, 0.10627773404121399, -0.1263381540775299, 0.20072463154792786, -0.08358853310346603, 0.08014123141765594, -0.04198138788342476, 0.005248462315648794, 0.15208761394023895, -0.04192488640546799, 0.1643814593553543, -0.04895717650651932, -0.20343108475208282, 0.052074894309043884, -0.00036527382326312363, -0.19279584288597107, 0.07332098484039307, 0.04498696327209473, 0.1083967536687851, 0.062351420521736145, 0.11218080669641495, 0.15499529242515564, 0.030228357762098312, -0.09632565081119537, 0.17610017955303192, -0.09138675034046173, -0.0471629723906517, 0.09623819589614868, 0.02693936415016651, 0.16284993290901184, -0.19745054841041565, -0.16094428300857544, -0.12632621824741364, -0.04813012108206749, -0.12184179574251175, 0.30191802978515625, -0.10910966247320175, -0.02598077617585659, 0.12288885563611984, 0.08693194389343262, -0.12609528005123138, 0.10648912191390991, -0.19155113399028778, -0.06966464966535568, 0.014911143109202385, -0.084352508187294, 0.128205806016922, -0.3174106776714325, -0.1364530324935913, -0.26065853238105774, -0.19731204211711884, 0.06990878283977509, -0.018416060134768486, -0.11115299165248871, 0.02476806566119194, 0.19258907437324524, -0.09438417851924896, 0.16016100347042084, 0.31917646527290344, -0.046062737703323364, 0.05632781237363815, -0.11814595013856888, 0.19930528104305267, -0.09151163697242737, -0.10185408592224121, 0.1038326695561409, -0.016652852296829224, -0.26136887073516846, 0.32025739550590515, -0.016637569293379784, -0.15697239339351654, 0.20565791428089142, 0.327831506729126, 0.039722196757793427, -0.05648777261376381, 0.05651770159602165, -0.11543871462345123, -0.044756706804037094, 0.024419516324996948, -0.04279061034321785, 0.08082762360572815, 0.24709422886371613, 0.17091423273086548, -0.1622377187013626, -0.20376421511173248, 0.017567025497555733, 0.10704802721738815, 0.036243539303541183, -0.01911909133195877, 0.18243958055973053, -0.1070559099316597, 0.09450600296258926, 0.015063663944602013, 0.12598168849945068, -0.06243258714675903, 0.074455626308918, 0.03481610491871834, -0.2772500813007355, -0.14735282957553864, -0.003195218974724412, -0.045389771461486816, -0.04388255998492241, 0.11553248018026352, -0.03259092941880226, -0.04946369305253029, -0.04781552404165268, 0.04562995210289955, 0.2413066327571869, 0.04770002141594887, 0.05496780574321747, 0.10927117615938187, -0.14450064301490784, 0.14311961829662323, 0.17320063710212708, 0.2553466558456421, 0.3290015459060669, 0.08035032451152802, -0.02731715515255928, 0.11173879355192184, -0.07205300778150558, -0.15410873293876648, -0.06028302386403084, -0.16792365908622742, 0.022121982648968697, -0.16315920650959015, 0.25377508997917175, -0.3055358827114105, -0.1873939484357834, -0.03754556551575661, 0.10073357075452805, -0.08619621396064758, 0.12810499966144562, -0.05417557433247566, -0.018554551526904106, 0.11192340403795242, 0.16219201683998108, 0.1362263560295105, -0.362196147441864, -0.23453377187252045, -0.05668577551841736, 0.07832777500152588, 0.06501146405935287, -0.0607026144862175, -0.05804062634706497, -0.023899639025330544, -0.1013064980506897, -0.6584495902061462, -0.011032781563699245, 0.04485897347331047, -0.1757253259420395, 0.24391716718673706, 0.008983933366835117, 0.1298074871301651, 0.047962285578250885, -0.07760919630527496, -0.3415432870388031, -0.0029913829639554024, -0.023503758013248444, 0.2864864468574524, -0.1551799327135086, 0.014941799454391003, 0.0841725543141365, -0.010949415154755116, 0.054198890924453735, 0.0005403775139711797, 0.3362978398799896, -0.06949437409639359, -0.23299577832221985, 0.054693762212991714, 0.06531768292188644, -0.28382164239883423, 0.17419424653053284, -0.09137289971113205, -0.07461244612932205, -0.05469805374741554, -0.1335001438856125, -0.09865909814834595, -0.005194664001464844, -0.23302899301052094, -0.2917788624763489, -0.0813373476266861, -0.008966636843979359, 0.18408598005771637, -0.2716200053691864, 0.0007559574441984296, 0.0216105617582798, -0.28194496035575867, 0.0459948405623436, 0.1735708862543106, 0.05903615429997444, -0.08457201719284058, -0.4473830759525299, 0.05523562431335449, 0.3117344081401825, 0.38553377985954285, 0.19872844219207764, 0.10272516310214996, -0.12309954315423965, 0.2786079943180084, 0.09088290482759476, -0.055687446147203445, -0.08884093910455704, 0.2194852977991104, 0.22591473162174225, -0.011846442706882954, -0.045921698212623596, 0.15096020698547363, 0.19507113099098206, 0.016874028369784355, -0.08421039581298828, 0.24915634095668793, 0.16429443657398224, -0.12821006774902344, -0.18892797827720642, 0.0154417110607028, 0.14276230335235596, 0.08131156861782074, -0.01768626645207405, 0.21739158034324646, 0.04529688134789467, -0.03535591438412666, 0.09687548130750656, 0.24706605076789856, 0.22167634963989258, 0.10381634533405304, -0.1928200125694275, 0.020312370732426643, 0.22226141393184662, 0.0455712266266346, 0.033185459673404694, -0.19101212918758392, -0.37847596406936646, 0.08402595669031143, -0.09799452126026154, 0.06904724985361099, -0.030350659042596817, -0.048018697649240494, 0.08202679455280304, -0.00954050850123167, 0.3673659861087799, 0.2540438175201416, 0.042154695838689804, -0.05991640314459801, -0.14210902154445648, -0.14409492909908295, 0.08227255195379257, -0.20857806503772736, -0.1648097187280655, 0.19010142982006073, 0.0937899723649025, -0.35079601407051086, -0.17518801987171173, 0.15306347608566284, 0.19039702415466309, 0.005782928317785263, -0.22328832745552063, -0.07603369653224945, 0.1432584524154663, 0.14275872707366943, -0.24449190497398376, -0.15857644379138947, 0.011026307009160519, -0.02611701376736164, 0.13602247834205627, 0.1443435698747635, 0.1858716905117035, 0.32850393652915955, -0.061316803097724915, 0.009520646184682846, -0.10734692960977554, -0.00941271148622036, -0.2726152539253235, -0.08794085681438446, -0.2841147184371948, -0.007053970824927092, 0.017740407958626747, -0.1646503061056137, -0.05193633958697319, 0.002042562933638692, 0.0022229000460356474, -0.10401817411184311, 0.07857639342546463, -0.1490478366613388, -0.008191094733774662, 0.03571811690926552, -0.0713929533958435, -0.19163508713245392, 0.019438566640019417, 0.05937818065285683, -0.32136285305023193, -0.17900057137012482, -0.07323866337537766, 0.2347753793001175, 0.1782599836587906, 0.10819314420223236, 0.24533627927303314, 0.002182793105021119, 0.1297256201505661, 0.12821811437606812, 0.08266787230968475, -0.09912768751382828, 0.11363524198532104, 0.07141487300395966, -0.18108271062374115, 0.09952836483716965, 0.13544297218322754, -0.13389413058757782, 0.04041868448257446, -0.07304427027702332, -0.0743575394153595, -0.2256925106048584, -0.2698696553707123, 0.16354109346866608, 0.08112390339374542, 0.06195143982768059, 0.012003874406218529, 0.0011248172959312797, -0.11661650985479355, -0.2086491584777832, -0.12458471953868866, 0.0727216899394989, -0.19872380793094635, 0.11377434432506561, -0.07901136577129364, -0.1690513640642166, 0.0729299858212471, -0.0388323999941349, 0.04366609826683998, -0.486465722322464, -0.1793774664402008, -0.16768808662891388, -0.10117026418447495, 0.16860739886760712, -0.1724669337272644, -0.03864757716655731, -0.18557216227054596, -0.028022734448313713, -0.28691422939300537, -0.07764708995819092, -0.09485513716936111, 0.06966497749090195, 0.014340866357088089, -0.053676437586545944, 0.06907441467046738, 0.01649143546819687, 0.009805265814065933, -0.030977610498666763, -0.04525398835539818, -0.05261538177728653, -0.06440870463848114, 0.15830868482589722, 0.05822896584868431, -0.04125300794839859, 0.20620062947273254, -0.16391421854496002, 0.15367430448532104, 0.14589665830135345, -0.11250290274620056, -0.14256499707698822, 0.18826404213905334, 0.1773698329925537, 0.05987487733364105, -0.26882269978523254, 0.07690397650003433, 0.028893135488033295, 0.0803692489862442, 0.15763798356056213, 0.8659602403640747, 0.40470200777053833, 0.5261436104774475, -0.7632363438606262, -0.49657517671585083, 0.34445637464523315, 0.021350039169192314, -0.2360358089208603, 0.44952064752578735, 0.3865219056606293, -0.8143409490585327, 0.3261035680770874, 0.07379315793514252, -0.7760599851608276, -0.1292831003665924, -0.0659889504313469, -0.040520839393138885, -0.1371317058801651, 0.35773682594299316, -0.1890716403722763, -0.006499954499304295, 0.21788284182548523, -0.1907762736082077, -0.09489256143569946, -0.1330970972776413, 0.1705315113067627, -0.29757022857666016, -0.082152359187603, 0.1781368851661682, -0.13505995273590088, 0.11090823262929916, 0.028898851945996284, -0.27665048837661743, -0.06470263004302979, 0.07301819324493408, -0.34793734550476074, 0.22912488877773285, -0.19227908551692963, 0.14267754554748535, -0.11445647478103638, -0.4664788246154785, -0.09344808757305145, -0.25070929527282715, -0.02252136543393135, -0.08725250512361526, 0.09185505658388138, 0.07835493236780167, 0.06922870874404907, -0.06821899116039276, 0.3078743517398834, -0.1673082411289215, -0.2910163998603821, 0.1597023606300354, -0.38093242049217224, -0.11754405498504639, -0.01034383475780487, 0.12581700086593628, -0.15433399379253387, -0.12424039840698242, -0.19309422373771667, 0.10674972832202911, 0.010599827393889427, -0.14304114878177643, 0.011890485882759094, -0.186294287443161, -0.22597701847553253, 0.03165134787559509, 0.16809208691120148, 0.21926839649677277, -0.16144782304763794, 0.4951314926147461, 0.1556217521429062, -0.11760105937719345, 0.13921581208705902, 0.13794276118278503, -0.3753821551799774, -0.20227676630020142, 0.14928388595581055, 0.1415339708328247, 0.16373814642429352, 0.19524933397769928, -0.1513294130563736, -0.053531330078840256, 0.16538970172405243, 0.0872223824262619, -0.18917924165725708, -0.050063468515872955, -0.2023746222257614, 0.23171181976795197, 0.2639254927635193, 0.10460107028484344, 0.0879763662815094, -0.16130279004573822, -0.12175159901380539, -0.2060660868883133, -0.053341254591941833, -0.021687112748622894, 0.02612469531595707, 0.09598939120769501, 0.036361925303936005, -0.15232081711292267, 0.10703981667757034, -0.0528501458466053, -0.0705755427479744, 0.1150352954864502, 0.20898057520389557, -0.12780244648456573, 0.0914185494184494, -0.04872288927435875, 0.008719215169548988, -0.18288390338420868, -0.014240504242479801, -0.26802337169647217, -0.10014326870441437, 0.04985233023762703, -0.03312017396092415, -0.2664511501789093, -0.1807885468006134, 0.03001122549176216, 0.3122033476829529, -0.32060474157333374, 0.16338330507278442, 0.10744673013687134, 0.010590343736112118, 0.04471462219953537, 0.050333861261606216, 0.12232321500778198, -0.001356756198219955, -0.13797472417354584, 0.2553708553314209, -0.05972861498594284, 0.1362917423248291, 0.228841170668602, -0.15310828387737274, -0.07606800645589828, 0.20956578850746155, 0.024975471198558807, 0.0631156861782074, -0.00962673407047987, -0.07886824756860733, -0.08168656378984451, -0.06627558171749115, 0.17324300110340118, 0.013066302053630352, -0.2661477327346802, 0.08390405029058456, -0.03453456982970238, -0.16777442395687103, 0.12009015679359436, 0.055268801748752594, -0.141171395778656, -0.12488873302936554, -0.059514254331588745, -0.010770716704428196, -0.19865407049655914, -0.25855201482772827, 0.12020976841449738, 0.12977562844753265, 0.041277796030044556, 0.1133359968662262, -0.049792103469371796, 0.1868664026260376, 0.14590345323085785, 0.03101869486272335, -0.22196058928966522, 0.1722109168767929, -0.28641360998153687, 0.21599318087100983, -0.15840601921081543, 0.06527300924062729, 0.13404667377471924, -0.17411354184150696, 0.18996968865394592, -0.14882223308086395, 0.32201123237609863, 0.2169051617383957, -0.06604603677988052, 0.12719859182834625, -0.3072366714477539, -0.18778231739997864, -0.10845626890659332, -0.024200115352869034, 0.13070225715637207, -0.30814889073371887, 0.28185367584228516, -0.13055278360843658, -0.11968735605478287, -0.08968158066272736, -0.12141192704439163, 0.03472672030329704, 0.024778267368674278, -0.18484987318515778, -0.10624776035547256, 0.3706277310848236, -0.05133788287639618, 0.06154470145702362, -0.06192173808813095, -0.02103588730096817, -0.008780158124864101, 0.0518905408680439, -0.035612527281045914, 0.13374193012714386, 0.23514850437641144, 0.22915682196617126, -0.022610986605286598, 0.02393060363829136, -0.08604475855827332, -0.03280940279364586, 0.015124925412237644, 0.2465580403804779, 0.14964993298053741, 0.255229651927948, 0.016496308147907257, -0.09953995794057846, -0.026509402319788933, -0.07156852632761002, 0.025447875261306763, 0.02493569254875183, -0.24063602089881897, -0.02975519187748432, -0.23724444210529327, 0.14728392660617828, -0.12049517035484314, -0.31841030716896057, -0.07354062795639038, 0.06956569850444794, -0.040868934243917465, 0.15611761808395386, 0.0737399235367775, 0.11315840482711792, -0.09269648045301437, -0.006804142612963915, 0.04824633151292801, 0.16865646839141846, -0.03292394429445267, -0.1411494016647339, -0.1247214525938034, -0.05824160575866699, -0.16543731093406677, 0.19117413461208344, 0.14462104439735413, -0.10890357941389084, 0.0985996425151825, 0.10122231394052505, 0.018512960523366928, -0.14143803715705872, 0.2071652114391327, -0.014418640173971653, -0.2784114480018616, -0.06379096210002899, -0.2549540102481842, -0.18988138437271118, -0.0386553592979908, -0.024218082427978516, -0.07534585148096085, 0.022979382425546646, -0.014775955118238926, 0.03423871099948883, -0.08067373931407928, -0.1918453425168991, -0.34354332089424133, -0.023374207317829132, 0.09835422039031982, 0.058498941361904144, -0.03528852015733719, 0.12344230711460114, -0.19079641997814178, 0.0236600823700428, 0.004090353846549988, -0.06904599070549011, 0.2057034820318222, 0.2625223696231842, -0.29319503903388977, 0.060854680836200714, 0.1927630603313446, -0.22119514644145966, 0.05710068345069885, 0.007686944212764502, -0.013466207310557365, 0.12535083293914795, -0.19482485949993134, 0.11099784076213837, 0.1310427188873291, 0.09430895745754242, 0.06790978461503983, -0.2774781286716461, 0.0006913997931405902, -0.024789446964859962, 0.0746796578168869, 0.09716925024986267, 0.08698317408561707, -0.16253310441970825, 0.1177421435713768, -0.20293688774108887, 0.13801518082618713, 0.018475675955414772, -0.19556757807731628, 0.13136598467826843, 0.011606495827436447, 0.025301475077867508, 0.11248481273651123, -0.02674730122089386, -0.15442942082881927, 0.0886927917599678, -0.03313803672790527, 0.0624227374792099, -0.1482100933790207, 0.0005392381572164595, 0.06850317120552063, 0.1576528251171112, 0.09181824326515198, -0.15982723236083984, 0.30821046233177185, -0.05993827059864998, 0.024496469646692276, 0.2085925191640854, -0.006164391525089741, -0.044114552438259125, 0.1264137625694275, -0.004628465510904789, -0.04524123668670654, 0.1862029731273651, -0.08346718549728394, 0.08995503187179565, 0.11286493390798569, -0.012158065102994442, 0.07717049866914749, -0.11121861636638641, -0.010841121897101402, 0.11722875386476517, 0.18698683381080627, -0.05780135467648506, -0.014054427854716778, -0.07405568659305573, -0.03034580871462822, 0.060342274606227875, -0.13260291516780853, -0.04561026766896248, 0.12079989165067673, 0.23197244107723236, -0.08250327408313751, 0.07650455832481384, -0.11197399348020554, -0.02064213715493679, 0.0533718466758728, -0.027244217693805695, 0.12344378978013992, 0.028157079592347145, 0.1620786190032959, 0.02394283004105091, 0.18040409684181213, 0.020690996199846268, 0.042260874062776566, 0.07711723446846008, -0.22508889436721802, 0.039915867149829865, 0.027569707483053207, -0.22558218240737915, -0.0691172331571579, -0.07426276057958603, 0.09475116431713104, 0.1254604160785675, 0.10155190527439117, -0.28129541873931885, 0.07924910634756088, 0.09437812119722366, 0.24416039884090424, -0.061084575951099396, 0.033390261232852936, -0.2214517742395401, 0.06793568283319473, -0.1369977593421936, 0.1593383252620697, -0.23315873742103577, 0.004853279795497656, 0.01607474684715271, 0.0011526854941621423, -0.18439988791942596, 0.29073837399482727, -0.21261417865753174, -0.03856554999947548, -0.2558198869228363, -0.16893921792507172, 0.0019823710899800062, 0.010166679508984089, 0.04148697480559349, 0.10998380929231644, 0.022062251344323158, 0.16218645870685577, -0.1281391680240631, -0.23264922201633453, -0.03333534672856331, -0.06644707173109055, -0.07271571457386017, -0.005624398123472929, -0.04470089077949524, -0.24693362414836884, -0.07762091606855392, -0.2541421353816986, 0.019806446507573128, 0.1660723239183426, 0.04810580611228943, 0.071378692984581, 0.12845425307750702, -0.14617346227169037, 0.10837486386299133, -0.06107186898589134, -0.07802989333868027, 0.20956598222255707, -0.09440790861845016, -0.07458941638469696, 0.3672994077205658, -0.11486606299877167, -0.049810584634542465, -0.08748654276132584, 0.13409723341464996, 0.12473726272583008, -0.06689969450235367, -0.14141063392162323, 0.09750241041183472, 0.011501855216920376, -0.12621928751468658, -0.01792900823056698, 0.14262717962265015, -0.06367573142051697, 0.18927732110023499, -0.16625232994556427, -0.19835659861564636, 0.16874933242797852, 0.11196736991405487, -0.19541513919830322, 0.07825031131505966, 0.16144394874572754, 0.004599743988364935, 0.15486006438732147, 0.11307057738304138, 0.023940032348036766, -0.13291499018669128, -0.05301804095506668, 0.10296779125928879, -0.08999396115541458, 0.23838326334953308, -0.1353878378868103, -0.022148706018924713, -0.06630726903676987, -0.012667668052017689, -0.12324836105108261, 0.08717072010040283, 0.03143034130334854, 0.10546739399433136, 0.06675207614898682, 0.05950212851166725, 0.14363956451416016, 0.34488192200660706, 0.0637124627828598, -0.10990888625383377, -0.0495968759059906, 0.08770718425512314, 0.021602537482976913, -0.0038327141664922237, 0.048143766820430756, -0.025711359456181526, -0.008535712026059628, 0.06394416838884354, 0.034625545144081116, -0.17321991920471191, 0.011786675080657005, 0.16887742280960083, -0.41911470890045166, 0.007707683835178614, 0.0072314259596168995, -0.09991531819105148, -0.006524239666759968, 0.019076401367783546, -0.21360833942890167, -0.13622845709323883, 0.08844514191150665, 0.3000788986682892, 0.020646315068006516, 0.034669820219278336, -0.178777277469635, 0.043849240988492966, 0.061640363186597824, 0.0434533916413784, 0.23742832243442535, 0.13092167675495148, 0.21161070466041565, 0.09693841636180878, 0.1780119091272354, 0.11644827574491501, 0.21775583922863007, 0.14816461503505707, 0.07318271696567535, 0.09092435240745544, 0.01740296371281147, 0.027166174724698067, -0.15736305713653564, -0.07668643444776535, 0.1409960240125656, -0.0016973982565104961, -0.18628469109535217, 0.009705724194645882, -0.06915681809186935, 0.032074011862277985, 0.17169076204299927, 0.08716893941164017, 0.13107311725616455, 0.15685349702835083, 0.010373640805482864, -0.10030517727136612, -0.061984624713659286, -0.0549614354968071, -0.01808774285018444, 0.08806979656219482, -0.23641686141490936, -0.14261654019355774, -0.13432487845420837, 0.035959336906671524, 0.04644094407558441, 0.07801321893930435, 0.16938957571983337, 0.04601046442985535, -0.13289031386375427, -0.04076055809855461, 0.062273263931274414, -0.19920344650745392, -0.21223224699497223, 0.22820249199867249, -0.3067130744457245, -0.04051288962364197, -0.08315225690603256, -0.38808760046958923, -0.21543850004673004, -1.0344536304473877, -0.18228277564048767, -0.8008518815040588, 0.09980887174606323, 0.079562246799469, -0.19916553795337677, -0.31215617060661316, -0.09127898514270782, -0.569387674331665, 0.40290367603302, -0.3271898627281189, -0.014528108760714531, 0.2623518705368042, 0.4165029227733612, 0.04069407656788826, -0.4896909296512604, -0.47085192799568176, 0.30551329255104065, 0.09302307665348053, -0.3306993842124939, -0.26146140694618225, -0.14633847773075104, 0.01619236171245575, 0.503676176071167, -0.1093313917517662, -0.18727518618106842, -0.3132776916027069, 0.3524663746356964, -0.1756744533777237, -0.28089916706085205, -0.22700314223766327, 0.1720651239156723, -0.03235878422856331, -0.35705673694610596, 0.12016771733760834, -0.05386708676815033, -0.3510693311691284, 0.03797123208642006, 0.1600448340177536, -0.13958778977394104, -0.07409405708312988, -0.5449748635292053, 0.40140393376350403, -0.0734323039650917, -0.1562625616788864, -0.09995817393064499, 0.011069828644394875, 0.14717353880405426, 0.02645471878349781, 0.011636878363788128, -0.007519825827330351, 0.1464075893163681, -0.13971100747585297, 0.00924984086304903, 