{"version": "0.5.4", "metadata": {"date": {"year": 2025, "month": 8, "day": 21, "hour": 20, "minute": 22, "second": 40}, "loudness": -12.965373039245605, "gain": 0.3882358256074585, "name": null, "modeled_by": null, "gear_type": null, "gear_make": null, "gear_model": null, "tone_type": null, "input_level_dbu": null, "output_level_dbu": null, "training": {"settings": {"ignore_checks": true}, "data": {"latency": {"manual": -4, "calibration": {"algorithm_version": 1, "delays": [-4], "safety_factor": 0, "recommended": -4, "warnings": {"matches_lookahead": false, "disagreement_too_high": false}}}, "checks": {"version": 1, "passed": true}}, "validation_esr": 0.01629492658426656}}, "architecture": "WaveNet", "config": {"layers": [{"input_size": 1, "condition_size": 1, "head_size": 8, "channels": 16, "kernel_size": 3, "dilations": [1, 2, 4, 8, 16, 32, 64, 128, 256, 512], "activation": "Tanh", "gated": false, "head_bias": false}, {"input_size": 16, "condition_size": 1, "head_size": 1, "channels": 8, "kernel_size": 3, "dilations": [1, 2, 4, 8, 16, 32, 64, 128, 256, 512], "activation": "Tanh", "gated": false, "head_bias": true}], "head": null, "head_scale": 0.02}, "weights": [-0.0024149997625499964, 0.4596608281135559, -0.7084931135177612, -0.6374558210372925, -0.35382792353630066, 0.18534711003303528, 0.0013201131951063871, 0.5554976463317871, 0.01321914978325367, 0.1380901336669922, -0.20076239109039307, -0.1447065770626068, -0.8185165524482727, -0.6137294769287109, -0.22592927515506744, -0.00022275179799180478, -0.012042194604873657, -0.08502420783042908, -0.1895635426044464, -0.016394611448049545, 0.0724557638168335, 0.048835135996341705, -0.08263025432825089, 0.08322807401418686, 0.04626854136586189, -0.03372805565595627, 0.10748828947544098, -0.06622638553380966, -0.13723662495613098, -0.056847233325242996, 0.009726779535412788, 0.18822938203811646, -0.06054932251572609, -0.12401127070188522, -0.09827348589897156, -0.17281541228294373, -0.20833297073841095, 0.17616157233715057, 0.08920041471719742, -0.0010729462374001741, -0.142630472779274, -0.16816039383411407, 0.068702332675457, -0.07526279240846634, -0.06900434195995331, -0.13749389350414276, 0.04575232416391373, 0.06900940090417862, 0.011080414056777954, -0.03689362853765488, 0.07724034041166306, 0.21570852398872375, 0.00978349894285202, -0.002053733915090561, 0.16875886917114258, -0.13233140110969543, 0.006105013191699982, -0.038912151008844376, -0.15679313242435455, -0.10530297458171844, 0.13831132650375366, 0.14619097113609314, 0.009561738930642605, -0.08315618336200714, -0.012380664236843586, -0.12902423739433289, -0.1271498203277588, -0.04692089930176735, -0.049313850700855255, 0.17245320975780487, -0.030072355642914772, 0.08847664296627045, 0.013190358877182007, 0.19822032749652863, 0.26200369000434875, 0.08981502801179886, 0.10511850565671921, 0.008522874675691128, -0.015830546617507935, -0.16115015745162964, -0.2653825283050537, 0.17535042762756348, -0.0753745511174202, -0.13352051377296448, -0.2293051928281784, -0.09808862954378128, -0.1597328633069992, -0.02176450751721859, 0.11077279597520828, 0.0316241979598999, -0.03491583839058876, 0.0030029581394046545, -0.026392977684736252, 0.09917576611042023, -0.0650247260928154, 0.04459315165877342, 0.042501434683799744, 0.1145196482539177, 0.026332642883062363, -0.09509794414043427, 0.2128591537475586, 0.23407049477100372, -0.10189028084278107, 0.04069279879331589, 0.0012113571865484118, -0.0394374281167984, -0.03428686410188675, 0.0224070493131876, -0.0548187792301178, -0.09986978024244308, -0.14859381318092346, -0.047340791672468185, -0.023713037371635437, 0.1094127967953682, 0.14994971454143524, -0.20703737437725067, 0.06240461766719818, -0.09725037962198257, 0.10261514782905579, -0.0684320256114006, 0.1700870394706726, 0.09527229517698288, -0.1683543622493744, 0.17509913444519043, -0.04588007926940918, -0.17466996610164642, 0.06910713016986847, -0.16279177367687225, 0.039199549704790115, -0.2413901388645172, -0.05188485234975815, -0.11067923158407211, -0.3248942792415619, -0.09857071936130524, 0.19672764837741852, -0.13291341066360474, 0.10993844270706177, -0.09035082161426544, 0.2711453437805176, -0.0031771142967045307, 0.2194242924451828, -0.039446063339710236, 0.23268695175647736, -0.10403625667095184, -0.03464541211724281, 0.013011621311306953, -0.001150482683442533, 0.08457747101783752, 0.016630560159683228, -0.20713771879673004, -0.026265107095241547, -0.030693069100379944, -0.12511271238327026, 0.1840014010667801, 0.16422976553440094, -0.23404966294765472, 0.21274039149284363, -0.1505168378353119, 0.01833268813788891, -0.15197189152240753, 0.03930160403251648, -0.005474751815199852, -0.07231874763965607, -0.14909368753433228, 0.1062285527586937, 0.04425697773694992, -0.04417017474770546, -0.07548405975103378, -0.16448812186717987, 0.01557449996471405, -0.0005106910248287022, -0.09839797019958496, 0.16062362492084503, -0.06769371032714844, -0.17039957642555237, 0.05788610130548477, 0.09679633378982544, -0.045385152101516724, 0.05730336531996727, -0.20343756675720215, -0.1500934213399887, -0.05948815494775772, 0.22492383420467377, 0.06880836188793182, 0.106696717441082, -0.025930138304829597, 0.09374228119850159, -0.06546240299940109, -0.01077770721167326, 0.08948420733213425, 0.14363349974155426, -0.028535502031445503, -0.15294957160949707, 0.02569672279059887, -0.23737967014312744, -0.13974541425704956, -0.05709736794233322, -0.07694767415523529, -0.12393948435783386, 0.024443620815873146, -0.12147928029298782, 0.05046156048774719, -0.08147771656513214, -0.21816106140613556, -0.10337923467159271, 0.1260659545660019, 0.034914154559373856, 0.13516440987586975, 0.037007808685302734, 0.05033063888549805, -0.08426633477210999, -0.015826405957341194, -0.141313835978508, -0.012097477912902832, -0.009585121646523476, 0.18039683997631073, -0.14038710296154022, -0.08819647878408432, 0.2757839262485504, -0.13991332054138184, -0.02899164706468582, 0.2932194769382477, 0.02838541567325592, 0.02250545658171177, -0.27348679304122925, 0.1110447347164154, -0.005740799475461245, 0.17058537900447845, 0.3284144699573517, -0.003027979051694274, -0.14998938143253326, 0.1518261730670929, -0.021425308659672737, 0.22030481696128845, -0.09356822073459625, -0.06654969602823257, -0.06976206600666046, -0.05278836190700531, -0.0815223678946495, 0.20032721757888794, 0.03497796505689621, 0.09861749410629272, 0.115885891020298, -0.007330009713768959, 0.05925362557172775, 0.01736423932015896, 0.07989668846130371, -0.13551580905914307, 0.1608969122171402, -0.04420699551701546, -0.09080729633569717, 0.16758809983730316, 0.07812643051147461, -0.033849891275167465, -0.14907467365264893, 0.04654413461685181, -0.13677462935447693, 0.15749768912792206, -0.18993370234966278, -0.13129934668540955, -0.27063488960266113, 0.16454631090164185, 0.11133863776922226, 0.2955835461616516, -0.02520751766860485, -0.011500146239995956, 0.14887841045856476, -0.03720084950327873, 0.1549280285835266, 0.22705133259296417, -0.15567165613174438, -0.10586697608232498, -0.32072708010673523, 0.11334739625453949, 0.13363422453403473, -0.12895633280277252, 0.3380149304866791, -0.1307373344898224, -0.20045830309391022, 0.12019975483417511, 0.059596698731184006, 0.023494096472859383, -0.1674540638923645, 0.08481407165527344, -0.14932172000408173, 0.2086382359266281, -0.006372010335326195, 0.23197083175182343, -0.11250023543834686, 0.026444122195243835, 0.10134312510490417, -0.03251262009143829, 0.08115135133266449, 0.1839272677898407, -0.11228787153959274, -0.048035357147455215, 0.2914074659347534, -0.18491718173027039, 0.08750695735216141, 0.12484623491764069, -0.1561964601278305, 0.16136784851551056, -0.09543753415346146, 0.16918447613716125, 0.11036854237318039, -0.13022136688232422, 0.04317689687013626, -0.07347136735916138, 0.18984024226665497, -0.10194065421819687, 0.013962406665086746, -0.15709158778190613, 0.14286597073078156, 0.08353995531797409, -0.07664771378040314, 0.18341094255447388, 0.06648379564285278, -0.12171582132577896, 0.14694486558437347, -0.13311944901943207, 0.13071969151496887, -0.08854757994413376, -0.09177455306053162, -0.07391182333230972, -0.15521515905857086, -0.010899452492594719, 0.20997530221939087, -0.07839587330818176, 0.2292303889989853, -0.13466106355190277, 0.09687458723783493, -0.2703183889389038, 0.25319933891296387, -0.022590387612581253, 0.043138228356838226, -0.07268806546926498, 0.1820479929447174, 0.27214282751083374, -0.00960067193955183, 0.17704494297504425, 0.10469105839729309, -0.18069587647914886, 0.20708373188972473, 0.2207992970943451, -0.2175334095954895, 0.21398794651031494, 0.20646581053733826, -0.04397442936897278, 0.01190914586186409, -0.08335255086421967, -0.046065036207437515, 0.036117639392614365, -0.0993785411119461, -0.07761845737695694, -0.21016065776348114, 0.026599468663334846, -0.09176052361726761, 0.20116019248962402, -0.06143154203891754, 0.07634171098470688, -0.23363526165485382, -0.10623819380998611, -0.07363761216402054, -0.018592586740851402, 0.10888421535491943, 0.16986221075057983, -0.017996225506067276, -0.15680328011512756, -0.13013075292110443, 0.12568676471710205, -0.0455041378736496, 0.11686862260103226, 0.05404762923717499, -0.10293514281511307, -0.1772029548883438, 0.05937084183096886, 0.11790194362401962, 0.1283217966556549, -0.12330079823732376, 0.08457779884338379, 0.10067181289196014, 0.11627103388309479, 0.09283727407455444, 0.16913792490959167, -0.07761143147945404, 0.1762816458940506, 0.12322131544351578, -0.025847140699625015, -0.016735520213842392, 0.10992966592311859, -0.11793751269578934, -0.0004182695411145687, -0.03841472417116165, -0.21220290660858154, -0.0800376906991005, 0.13272902369499207, -0.045433782041072845, 0.016637122258543968, -0.06542602926492691, 0.23818685114383698, 0.11802493780851364, -0.04900931194424629, -0.0010732305236160755, 0.08916646987199783, 0.2132355272769928, -0.17797334492206573, 0.17886045575141907, -0.0465170182287693, 0.026177557185292244, 0.126275897026062, -0.23484425246715546, 0.0496375747025013, 0.173318013548851, -0.13884328305721283, -0.031050819903612137, -0.09992062300443649, 0.10243809968233109, -0.11975575983524323, 0.11197379231452942, 0.12881812453269958, -0.11211374402046204, -0.13884961605072021, 0.15396972000598907, -0.013946778140962124, 0.13448522984981537, -0.24197515845298767, 0.21366435289382935, -0.16095605492591858, 0.07132788747549057, -0.04521765559911728, -0.05121545493602753, -0.09887684136629105, 0.18116749823093414, 0.046810828149318695, -0.2555743455886841, -0.0032522547990083694, 0.07828156650066376, -0.26140668988227844, 0.14506962895393372, -0.08206132799386978, -0.29043763875961304, -0.07089964300394058, 0.015697557479143143, -0.04901822283864021, -0.04765433818101883, 0.13271646201610565, 0.059652719646692276, -0.02406836487352848, 0.11948886513710022, 0.009338874369859695, 0.1060774028301239, 0.08499318361282349, -0.03735936060547829, 0.07940871268510818, -0.09920278191566467, 0.3004823625087738, -0.0060338363982737064, 0.06099509820342064, 0.0644042119383812, -0.049928124994039536, -0.15658418834209442, 0.11568430066108704, 0.02039695344865322, -0.0985972136259079, -0.11904300004243851, 0.10462061315774918, 0.11710485816001892, -0.05257170647382736, 0.1589973419904709, -0.03394928574562073, -0.10738077014684677, 0.16141919791698456, 0.08089455217123032, 0.06811041384935379, -0.12335968017578125, -0.1265133023262024, -0.2757861316204071, 0.10293467342853546, -0.09541641920804977, 0.2477848082780838, -0.10063490271568298, -0.07380658388137817, 0.07005973160266876, 0.08536612242460251, -0.02392306737601757, 0.28832024335861206, 0.07890226691961288, 0.06924376636743546, 0.18445245921611786, -0.05033009499311447, -0.03790246322751045, 0.18376070261001587, 0.04301375150680542, -0.08609689027070999, 0.08589369058609009, 0.13357359170913696, -0.17516067624092102, -0.05695188418030739, 0.15564902126789093, 0.27101096510887146, -0.2646416127681732, 0.07290025055408478, -0.0647154226899147, 0.21789830923080444, 0.1405666023492813, -0.21830114722251892, 0.1753084361553192, 0.0837714672088623, -0.18894103169441223, 0.17010311782360077, -0.015932245180010796, 0.23783531785011292, -0.15634313225746155, -0.05842714011669159, -0.06518089771270752, 0.0006910032243467867, 0.024221736937761307, 0.1570727825164795, -0.04011349380016327, -0.027698080986738205, -0.0918402150273323, 0.05390239506959915, -0.07865751534700394, 0.04277388006448746, -0.19415168464183807, -0.06816069781780243, -0.013626199215650558, 0.08880242705345154, 0.0401916541159153, -0.19946503639221191, 0.27954545617103577, 0.19028200209140778, -0.2506258189678192, 0.01128830760717392, -0.08615844696760178, -0.14506655931472778, 0.091698057949543, -0.06604671478271484, -0.19001062214374542, 0.14887703955173492, -0.06858590990304947, 0.0928192287683487, -0.06709752231836319, -0.07367464154958725, 0.022207148373126984, 0.06440576910972595, 0.011046093888580799, 0.1589338183403015, -0.03554321080446243, 0.17739033699035645, -0.2878169119358063, -0.15556961297988892, 0.09462881088256836, -0.2460094690322876, 0.007046071346849203, -0.05355648323893547, -0.1901404857635498, -0.05717558413743973, 0.05259744077920914, 0.1688191294670105, -0.11183477193117142, -0.023976076394319534, -0.20447534322738647, 0.06769143044948578, -0.36471661925315857, 0.2897407114505768, -0.009388614445924759, 0.02345588244497776, -0.023290559649467468, 0.054399941116571426, -0.09140439331531525, 0.23307226598262787, -0.013834514655172825, -0.039685867726802826, -0.17142288386821747, 0.10049544274806976, -0.07923789322376251, -0.2770741283893585, 0.04468720406293869, 0.12532447278499603, -0.19464127719402313, -0.13979652523994446, -0.17250686883926392, -0.12304486334323883, -0.03260328620672226, -0.11330518871545792, -0.114860899746418, 0.03220748156309128, 0.0640752911567688, 0.08594224601984024, 0.001940120360814035, -0.1518155336380005, -0.1654472053050995, -0.0034304135479032993, 0.019651656970381737, 0.10441505908966064, 0.011594169773161411, 0.14221139252185822, 0.08934108912944794, -0.008668364025652409, -0.1306782066822052, -0.09948909282684326, -0.23870928585529327, 0.12580539286136627, -0.10344931483268738, -0.1999165564775467, 0.06663170456886292, -0.01562941074371338, 0.06804899871349335, -0.0078054629266262054, -0.19150789082050323, -0.203257218003273, -0.3443172574043274, -0.020299561321735382, 0.18583109974861145, 0.1291487067937851, -0.012589029036462307, -0.11335515975952148, 0.20508666336536407, 0.05856822431087494, 0.058750446885824203, 0.12483128160238266, -0.0037629222497344017, -0.27550217509269714, -0.052496470510959625, -0.12861952185630798, -0.006336790509521961, -0.03293679282069206, -0.17393328249454498, -0.14573609828948975, 0.08203709870576859, -0.006889350712299347, -0.0937572717666626, 0.001667506294324994, 0.011998578906059265, -0.16627837717533112, -0.05396611988544464, -0.228468656539917, -0.057543739676475525, -0.06308673322200775, 0.015331068076193333, 0.13532660901546478, 0.03550492227077484, -0.03348137438297272, 0.0014257167931646109, 0.20787061750888824, -0.04569673538208008, 0.022677598521113396, -0.18158774077892303, 0.008890068158507347, -0.015711868181824684, -0.128959059715271, 0.16751711070537567, -0.19125062227249146, -0.19369292259216309, -0.10699417442083359, 0.10939281433820724, 0.19338247179985046, -0.018300199881196022, 0.032930728048086166, 0.25462985038757324, -0.07143472135066986, 0.19532568752765656, -0.05212242156267166, 0.00930335745215416, 0.10491090267896652, 0.017498023808002472, 0.07494758814573288, 0.03876979276537895, 0.1711079329252243, -0.08896501362323761, -0.10829366743564606, -0.08923083543777466, 0.098564513027668, -0.03641146421432495, 0.0345427468419075, 0.022181332111358643, -0.09822525829076767, 0.03350421041250229, 0.006924980785697699, 0.033084552735090256, -0.16132734715938568, 0.01798841916024685, -0.09641505032777786, 0.006862347945570946, 0.09813477843999863, -0.06299557536840439, -0.13653185963630676, 0.06186599284410477, 0.04198562726378441, 0.04485179856419563, -0.07152695208787918, -0.037905313074588776, 0.12379788607358932, -0.0030295781325548887, -0.0033340498339384794, 0.10362573713064194, -0.12581056356430054, 0.16193518042564392, 0.02969081699848175, -0.09183135628700256, 0.17106562852859497, -0.12011494487524033, 0.058554988354444504, -0.20635636150836945, -0.0018224134109914303, -0.22991086542606354, -0.02736438252031803, -0.11053051799535751, 0.1155584380030632, -0.14133583009243011, -0.06522055715322495, -0.14727164804935455, -0.04490926116704941, -0.02247382514178753, -0.008617796935141087, -0.10242283344268799, 0.05973513051867485, 0.07346664369106293, 0.25034260749816895, 0.1370704025030136, -0.1174641028046608, 0.11444239318370819, -0.05074780434370041, -0.10315806418657303, 0.1618579477071762, 0.1427295058965683, -0.13794554769992828, 0.2150801122188568, -0.06396204233169556, -0.04666103422641754, 0.23634840548038483, -0.041996508836746216, 0.024930210784077644, -0.14931930601596832, 0.128702774643898, 0.0729062408208847, -0.062196385115385056, 0.14666129648685455, -0.12686428427696228, 0.02231808379292488, -0.08110998570919037, 0.14649124443531036, -0.17156347632408142, 0.16204114258289337, 0.1517568975687027, -0.03702963516116142, 0.016557276248931885, 0.0072605060413479805, -0.17857462167739868, -0.019978005439043045, -0.04343324154615402, 0.2252432405948639, 0.009830989874899387, 0.24240785837173462, 0.13448670506477356, 0.032973259687423706, 0.07315296679735184, 0.06774138659238815, -0.19259200990200043, 0.180521622300148, 0.05072145536541939, 0.024535473436117172, 0.08304759860038757, 0.1613958477973938, -0.20403333008289337, -0.011938917450606823, -0.02012740634381771, -0.03137099742889404, -0.0329839363694191, -0.09521230310201645, -0.043975044041872025, 0.10713735967874527, -0.05876957252621651, 0.17843104898929596, -0.06498225033283234, 0.007987283170223236, 0.002893863944336772, 0.18449801206588745, -0.2586140036582947, -0.035917188972234726, 0.0069504291750490665, 0.03207043930888176, -0.09737991541624069, -0.10655789077281952, -0.7129382491111755, -0.09310341626405716, -0.03287535533308983, 0.10799073427915573, 0.053088147193193436, 0.012725530192255974, -0.017689134925603867, 0.06505195796489716, -0.01920749992132187, -0.05803298577666283, -0.18634067475795746, -0.33121055364608765, 0.08685114234685898, -0.030837886035442352, 0.021086137741804123, 0.37495386600494385, -0.38453876972198486, 0.6844558715820312, -0.666618824005127, 0.02930043265223503, 0.9776603579521179, 0.901171863079071, -0.442472904920578, 0.10027937591075897, 0.1306275874376297, -0.4874264597892761, -0.2985471189022064, 0.2808295786380768, -0.6293511986732483, 0.16243799030780792, 0.33980169892311096, -0.019991640001535416, 0.2742653489112854, -0.03117617592215538, 0.07480476796627045, 0.26325929164886475, 0.022790873423218727, 0.12900324165821075, -0.06103847548365593, 0.04301943629980087, 0.023281313478946686, -0.05121031776070595, 0.020239101722836494, 0.22408732771873474, 0.02743997424840927, 0.11589013040065765, -0.009950242005288601, -0.05465971678495407, -0.07487167418003082, -0.15227444469928741, 0.17052163183689117, 0.055014174431562424, -0.1590525507926941, -0.007803218439221382, -0.03530222922563553, -0.0273636095225811, 0.14806215465068817, 0.08260049670934677, 0.008214402943849564, 0.01705026440322399, 0.030411044135689735, 0.06654252111911774, 0.27130913734436035, 0.03663157671689987, 0.16518200933933258, -0.005990073084831238, 0.128689706325531, -0.043290380388498306, -0.14119379222393036, 0.0782977044582367, -0.04520247504115105, -0.027104901149868965, -0.1079220324754715, 0.21182969212532043, -0.05959314480423927, 0.2561710774898529, 0.19210277497768402, 0.12721166014671326, -0.08829622715711594, 0.22925879061222076, -0.47277000546455383, 0.07921798527240753, -0.08972245454788208, -0.13199201226234436, 0.007789897732436657, 0.07259860634803772, -0.04314368590712547, -0.15595966577529907, -0.05198458582162857, -0.03371143713593483, -0.029381807893514633, 0.19613490998744965, 0.06713328510522842, -0.21954645216464996, -0.028994286432862282, -0.0725570023059845, -0.18273919820785522, -0.1617126762866974, 0.2549460530281067, 0.10884280502796173, 0.09941474348306656, 0.061486050486564636, -0.2878103256225586, -0.0007786180940456688, 0.12382161617279053, -0.05561652034521103, 0.2033596634864807, 0.13567973673343658, 0.16996438801288605, -0.12730777263641357, 0.07847987115383148, -0.21173295378684998, -0.09484484791755676, 0.09889572113752365, 0.11163287609815598, 0.135777086019516, 0.3640459477901459, 0.24829736351966858, 0.07376647740602493, 0.23177853226661682, -0.041679054498672485, -0.3701644241809845, -0.22535806894302368, -0.1604343205690384, -0.08939375728368759, 0.027863241732120514, 0.08480818569660187, 0.039343200623989105, 0.2660064101219177, 0.2674126923084259, -0.006097602657973766, -0.2974326014518738, -0.13552109897136688, 0.09023305773735046, 0.1060200184583664, 0.19850558042526245, -0.23320941627025604, -0.26685675978660583, 0.1764514297246933, 0.27982503175735474, -0.2330700010061264, 0.046175356954336166, -0.14130721986293793, 0.17161214351654053, 0.05699785053730011, 0.13630446791648865, -0.25397297739982605, -0.22223344445228577, 0.2143012285232544, 0.11716756969690323, 0.07700400799512863, 0.09302617609500885, -0.26603057980537415, 0.20842893421649933, -0.206273153424263, 0.0008684243657626212, -0.07023996859788895, -0.09138023853302002, -0.054619643837213516, -0.11865001916885376, -0.02379094809293747, -0.2636765241622925, -0.2813449800014496, 0.2191459983587265, -0.13258138298988342, -0.12006297707557678, 0.06746819615364075, -0.2588956356048584, -0.11141226440668106, 0.19451086223125458, 0.13130302727222443, -0.022954678162932396, -0.13841573894023895, 0.16300508379936218, -0.011513074859976768, -0.26630133390426636, 0.03852330893278122, 0.2542486786842346, -0.21890562772750854, -0.309280663728714, -0.03548407554626465, 0.18422529101371765, -0.15984110534191132, 0.11007937788963318, 0.1519470363855362, 0.04206911101937294, -0.10528022050857544, 0.13275958597660065, 0.21416443586349487, -0.2172814905643463, 0.07058747857809067, 0.1443118453025818, 0.2354937493801117, -0.14721648395061493, 0.03793353587388992, -0.1587088257074356, -0.35388001799583435, 0.10835884511470795, -0.07148777693510056, 0.1940067857503891, -0.13583658635616302, -0.23230916261672974, -0.06874560564756393, -0.01430443488061428, 0.051659006625413895, -0.06815514713525772, 0.21519586443901062, -0.0022578106727451086, -0.2002982199192047, 0.19919759035110474, 0.0034620321821421385, -0.07025399804115295, -0.09427918493747711, -0.021195342764258385, -0.05682579055428505, 0.07375957071781158, -0.21151067316532135, -0.05817709490656853, -0.285956472158432, -0.1238865926861763, 0.05262367054820061, -0.24294830858707428, -0.1823902577161789, -0.0458514504134655, 0.009966980665922165, 0.10311359912157059, -0.04708230867981911, 0.07760605216026306, -0.1114509329199791, -0.0062520308420062065, 0.2748473286628723, 0.24476835131645203, 0.0168659258633852, -0.18156713247299194, 0.1446230560541153, 0.20921078324317932, -0.2931266129016876, -0.11436477303504944, 0.027564581483602524, -0.08695871382951736, -0.2111426591873169, 0.0196812953799963, 0.1848597228527069, -0.2491336613893509, 0.08615358173847198, 0.310815691947937, 0.03220309689640999, 0.1759272962808609, -0.11999071389436722, -0.12438151985406876, -0.03952142968773842, -0.16461177170276642, -0.10614051669836044, -0.3424825668334961, 0.2770470678806305, -0.11465071886777878, 0.309133917093277, 0.05015486851334572, -0.17241957783699036, 0.16124999523162842, 0.12145433574914932, 0.30921801924705505, 0.09459955990314484, -0.20823024213314056, 0.2890525162220001, -0.12424683570861816, -0.05842006206512451, 0.25392284989356995, 0.08645087480545044, -0.2244085967540741, 0.137049600481987, 0.137175515294075, 0.22401121258735657, 0.13991162180900574, -0.023453475907444954, -0.14049918949604034, 0.15176691114902496, 0.030611945316195488, 0.12441466003656387, -0.12488371878862381, -0.1850513219833374, 0.1373516470193863, -0.20544035732746124, 0.1759674847126007, 0.2731655240058899, 0.019879475235939026, 0.11459673941135406, 0.2066369503736496, -0.1347159445285797, 0.2502046823501587, -0.14781531691551208, -0.12609709799289703, -0.16391527652740479, 0.20512822270393372, -0.0013289822963997722, 0.00670408271253109, -0.1661709100008011, 0.10358428955078125, -0.0546424500644207, 0.08930286765098572, 0.12856927514076233, 0.19811168313026428, 0.1271282136440277, -0.16197028756141663, -0.2379404455423355, 0.006584064569324255, 0.26466113328933716, -0.04676444083452225, 0.218303844332695, -0.1326391100883484, 0.08730059862136841, 0.0015154945431277156, -0.08661879599094391, 0.21980100870132446, -0.07952865958213806, -0.034870631992816925, 0.10753148794174194, -0.07287269830703735, 0.09257054328918457, -0.27364644408226013, 0.08826563507318497, -0.03607889264822006, -0.04117840155959129, 0.028035057708621025, 0.09448133409023285, -0.1520317792892456, -0.21915893256664276, -0.10727560520172119, 0.12231997400522232, -0.09074791520833969, -0.008239643648266792, 0.05603408068418503, -0.053013402968645096, -0.0887875109910965, 0.12602952122688293, -0.018939241766929626, -0.13827675580978394, -0.02779323048889637, -0.08286916464567184, -0.2294333577156067, 0.11938413232564926, -0.07534557580947876, -0.2543770372867584, 0.1348898708820343, -0.12213929742574692, -0.2662756145000458, -0.0395156629383564, 0.17994457483291626, 0.15443484485149384, -0.08981767296791077, -0.2000657021999359, 0.18937024474143982, 0.09329015761613846, 0.16808320581912994, -0.36101481318473816, -0.07020127028226852, 0.09195353090763092, 0.05000817030668259, -0.020402835682034492, 0.08790486305952072, -0.152714341878891, -0.11530421674251556, -0.4009479582309723, 0.2386547178030014, -0.11771992594003677, -0.10303689539432526, -0.15121674537658691, -0.1408584862947464, -0.06677491217851639, 0.09774263948202133, -0.04873013496398926, 0.015876051038503647, 0.06319490075111389, -0.01029287464916706, 0.18025250732898712, -0.09559828042984009, -0.018417352810502052, -0.027264712378382683, -0.049814559519290924, 0.0026319536846131086, -0.15172545611858368, 0.06399555504322052, 0.1381758600473404, 0.11240546405315399, -0.11780276149511337, 0.05090254545211792, 0.21507756412029266, 0.0507412850856781, -0.021866608411073685, -0.2740477919578552, 0.24016495048999786, 0.1763184666633606, 0.03744884207844734, 0.07663566619157791, -0.15668582916259766, -0.3455246090888977, 0.061311863362789154, -0.020936258137226105, -0.0691373348236084, -0.0693092867732048, -0.04907117038965225, -0.06963693350553513, 0.11214873194694519, 0.22994330525398254, -0.10124977678060532, -0.18169574439525604, -0.05665108188986778, 0.07944335788488388, 0.13652734458446503, -0.008168523199856281, -0.04888832941651344, 0.19912251830101013, 0.030023830011487007, 0.08247106522321701, 0.05573387071490288, -0.020184921100735664, 0.0384703166782856, 0.5552158951759338, -0.11929163336753845, -0.1388620287179947, 0.15435728430747986, -0.030510732904076576, 0.047984879463911057, -0.24289077520370483, -0.013029237277805805, 0.06280028820037842, 0.052633266896009445, -0.030766718089580536, -0.23293165862560272, 0.017154039815068245, -0.38167497515678406, 0.11097469180822372, 0.19981649518013, -0.36368420720100403, 0.02116062305867672, 0.015238769352436066, -0.170149564743042, -0.006496550515294075, -0.0518551729619503, -0.18760265409946442, 0.11369349807500839, -0.33572885394096375, -0.11965981125831604, 0.09054359793663025, 0.03909560665488243, 0.10494187474250793, -0.06075352802872658, -0.13060317933559418, -0.04931413382291794, -0.16554845869541168, -0.2194845825433731, 0.03532024845480919, -0.00800273846834898, 0.11411269009113312, -0.09173142164945602, -0.17356111109256744, 0.09919079393148422, 0.1727084219455719, 0.06529615074396133, -0.06263922899961472, 0.039944231510162354, 0.12033500522375107, 0.05070457607507706, 0.15877686440944672, 0.08060441166162491, -0.013986160978674889, 0.16567660868167877, 0.13185466825962067, -0.19955046474933624, 0.10546787083148956, 0.17627915740013123, 0.08638410270214081, -0.2860039174556732, -0.10618190467357635, 0.11618044972419739, 0.033043261617422104, 0.1638375222682953, 0.07035402208566666, -0.04015946015715599, 0.13938811421394348, 0.13480158150196075, 0.1545586884021759, 0.33508458733558655, 0.21264755725860596, 0.16056354343891144, -0.033775608986616135, 0.19166681170463562, -0.04742644727230072, -0.0787678137421608, 0.09938012808561325, -0.044339798390865326, -0.06008019298315048, 0.06406548619270325, 0.1958397477865219, 0.2704694867134094, -0.07107415050268173, 0.015235296450555325, 0.009525134228169918, 0.05936942622065544, 0.186393603682518, -0.06917895376682281, -0.01707044243812561, 0.09806299209594727, 0.012710783630609512, -0.11506536602973938, -0.022082706913352013, 0.13616882264614105, -0.040747273713350296, -0.16682565212249756, -0.003016133327037096, -0.2097431719303131, -0.011948815546929836, -0.0319829061627388, 0.020354995504021645, -0.1427861899137497, 0.13095565140247345, -0.023121949285268784, 0.02151036448776722, 0.08786583691835403, 0.1830352395772934, 0.20326268672943115, -0.15045341849327087, -0.1535908579826355, -0.19837334752082825, 0.1116756945848465, 0.120287224650383, 0.02593493089079857, 0.24153240025043488, -0.16235584020614624, -0.0006151426350697875, 0.2214883714914322, -0.1959189474582672, -0.15354761481285095, 0.21855978667736053, -0.06877715140581131, -0.030586494132876396, 0.24723771214485168, -0.044141992926597595, -0.1400092989206314, -0.10475217550992966, 0.12308149039745331, -0.10338690131902695, 0.002598200226202607, -0.058726053684949875, -0.034076232463121414, -0.19616204500198364, -0.06728086620569229, 0.389104962348938, 0.06820382177829742, -0.20113292336463928, -0.4930863380432129, 0.08156478404998779, -0.045881882309913635, -0.32024866342544556, 0.219826802611351, -0.12089365720748901, -0.23466375470161438, -0.004015713464468718, 0.13730528950691223, 0.32120221853256226, -0.15054304897785187, 0.23477984964847565, -0.13698941469192505, 0.005274913273751736, 0.151783287525177, 0.25531241297721863, 0.14490152895450592, 0.11846637725830078, -0.04079913720488548, 0.017360156401991844, 0.12370973080396652, 0.025581318885087967, -0.0916522815823555, 0.061708204448223114, -0.46711966395378113, 0.13145019114017487, 0.2552923858165741, -0.32738691568374634, 0.2793256342411041, -0.027257222682237625, -0.45254117250442505, 0.07784589380025864, -0.09369131922721863, -0.3739878237247467, 0.12057725340127945, -0.24833637475967407, -0.08864366263151169, -0.3135410249233246, -0.21409673988819122, 0.13667429983615875, -0.16282474994659424, -0.07236262410879135, -0.01776311546564102, -0.011418880894780159, 0.021286794915795326, 0.05690548196434975, -0.025914549827575684, 0.012046914547681808, -0.0424000546336174, 0.007055476773530245, 0.15110377967357635, 0.12310982495546341, -0.05630289018154144, -0.07276013493537903, 0.2505744993686676, -0.03255178779363632, 0.07156163454055786, 0.14407294988632202, 0.13997647166252136, 0.16598866879940033, -0.07404868304729462, -0.05006604269146919, -0.08911340683698654, 0.15123461186885834, 0.08214075863361359, 0.037261802703142166, -0.2577268183231354, -0.12986190617084503, 0.05056674778461456, 0.18656282126903534, -0.04988172650337219, 0.0661228597164154, -0.08223961293697357, -0.12723247706890106, -0.09816798567771912, 0.17390450835227966, -0.08657323569059372, 0.15170884132385254, 0.1283482164144516, -0.0365334153175354, -0.02314135804772377, 0.19850975275039673, -0.3460082411766052, -0.1330467164516449, 0.06075270473957062, -0.09678039699792862, -0.17318110167980194, 0.10526412725448608, 0.030371148139238358, -0.07654054462909698, 0.16831207275390625, 0.10699833184480667, 0.15538352727890015, 0.0018402584828436375, -0.12855565547943115, -0.042307931929826736, 0.2785453796386719, 0.03291402384638786, 0.13789093494415283, 0.042420946061611176, -0.08538497239351273, 0.1252240538597107, -0.27538466453552246, -0.07938054203987122, -0.06232621520757675, -0.6122026443481445, 0.2753894031047821, 0.05048812925815582, -0.31209978461265564, -0.008083749562501907, 0.05335039272904396, -0.3702407777309418, -0.0005522442515939474, 0.03214116021990776, 0.3735167682170868, -0.0488077737390995, 0.1756725013256073, -0.1515500843524933, 0.08348912000656128, 0.07384821027517319, -0.10461819916963577, -0.0077200536616146564, -0.17175637185573578, -0.2734626829624176, 0.04945289343595505, -0.015756871551275253, 0.10694069415330887, -0.0009739486267790198, -0.28485509753227234, -0.13134489953517914, -0.007824993692338467, 0.011832109652459621, 0.11011941730976105, 0.3343295753002167, -0.0008551860228180885, -0.2822089195251465, 0.10174249112606049, 0.21975888311862946, 0.1405155509710312, 0.06847488880157471, -0.11495489627122879, -0.3059026896953583, -0.15650109946727753, 0.16062815487384796, 0.11576038599014282, 0.07251904159784317, 0.1054694652557373, 0.03288562223315239, -0.22140918672084808, 0.0020824267994612455, 0.04716556519269943, -0.1753440946340561, -0.30813828110694885, 0.16826994717121124, 0.11379222571849823, 0.0458531491458416, 0.24495390057563782, -0.13109073042869568, -0.1724027842283249, -0.0035181117709726095, 0.05426119640469551, 0.12328233569860458, -0.3407089114189148, 0.20386697351932526, -0.1217183843255043, 0.21263116598129272, -0.2744918167591095, -0.20333893597126007, 0.39247217774391174, -0.34355655312538147, -0.24235188961029053, 0.25163814425468445, -0.033287711441516876, -0.06473354250192642, 0.25975847244262695, -0.052819907665252686, -0.08723442256450653, -0.005050585139542818, -0.2177032083272934, -0.02267085574567318, -0.20597784221172333, 0.12873341143131256, -0.05016561225056648, 0.0507621169090271, -0.11080900579690933, 0.1977207064628601, 0.1061416044831276, 0.20909921824932098, 0.02318396605551243, 0.013492848724126816, 0.14943592250347137, -0.09776836633682251, 0.2574262320995331, 0.006305241025984287, -0.20039217174053192, 0.27464842796325684, -0.15949209034442902, -0.0446084700524807, 0.0613865964114666, -0.1187724769115448, -0.13619697093963623, -0.409060537815094, 0.021426774561405182, 0.033824823796749115, 0.047301992774009705, 0.2260066270828247, -0.09151200950145721, -0.12074308097362518, 0.08966656774282455, 0.027630090713500977, 0.3022584021091461, 0.03560838848352432, -0.10993796586990356, -0.15494005382061005, 0.0659312754869461, -0.09699568897485733, 0.1956241875886917, 0.14103221893310547, -0.13478824496269226, 0.014924830757081509, -0.19026893377304077, -0.0983658879995346, 0.08117644488811493, -0.03929594159126282, -0.1825520545244217, 0.1473400741815567, 0.02580251172184944, 0.020523706451058388, -0.06473692506551743, 0.23916944861412048, -0.027303675189614296, -0.030964400619268417, -0.043406713753938675, 0.05346084013581276, 0.10856595635414124, -0.11685914546251297, -0.14852431416511536, -0.06655912846326828, -0.3011365830898285, 0.01604822464287281, 0.03452885150909424, 0.03374408558011055, -0.3284949064254761, 0.06360629945993423, 0.19487297534942627, -0.26360079646110535, 0.07755077630281448, 0.10336068272590637, 0.03650471940636635, 0.07362833619117737, 0.07703296095132828, 0.027240097522735596, 0.08912628144025803, 0.09079912304878235, -0.004036282189190388, 0.09850241988897324, 0.049156833440065384, -0.05137445032596588, -0.07020547240972519, 0.10840189456939697, -0.03258896991610527, -0.17942363023757935, -0.19646938145160675, 0.33735403418540955, -0.03597012162208557, -0.12346523255109787, 0.2827960252761841, 0.18200059235095978, 0.01279660128057003, 0.037741534411907196, -0.0004043383523821831, 0.11270414292812347, 0.15203073620796204, 0.06333040446043015, 0.1966756284236908, -0.029971521347761154, -0.005054527428001165, -0.0023991765920072794, -0.04963705316185951, -0.09727263450622559, -0.044003814458847046, 0.05599379912018776, 0.04392511025071144, -0.11454081535339355, 0.2026887685060501, 0.022570524364709854, -0.053833525627851486, -0.2774116098880768, 0.09338835626840591, 0.024361053481698036, 0.02181381545960903, 0.11259625107049942, -0.06255556643009186, -0.018866129219532013, -0.00932565238326788, -0.2824552059173584, 0.00041030338616110384, 0.1783289760351181, 0.034969642758369446, -0.1540846824645996, -0.00980577152222395, -0.1452213078737259, 0.18221382796764374, 0.1517970710992813, -0.09171159565448761, 0.12177111208438873, -0.19363579154014587, 0.03749247267842293, -0.15842922031879425, 0.11442726105451584, -0.11419901251792908, -0.22327221930027008, 0.20346421003341675, -0.2572903335094452, -0.17193399369716644, 0.20384849607944489, -0.026539208367466927, -0.3001071512699127, -0.0641399547457695, -0.005716866347938776, -0.017729831859469414, 0.056172434240579605, -0.0982680469751358, -0.14358429610729218, -0.08511926978826523, -0.029827792197465897, -0.21966949105262756, -0.005768375936895609, -0.1914275586605072, -0.22623197734355927, -0.24009713530540466, -0.2825460731983185, 0.10085786879062653, 0.10136079043149948, 0.009097347036004066, 0.06838401407003403, 0.13957442343235016, -0.049022573977708817, 0.04196227341890335, 0.19146834313869476, 0.183561772108078, 0.11493131518363953, 0.09836718440055847, 0.0732184648513794, 0.0989694893360138, -0.12342946231365204, 0.08310176432132721, -0.25327837467193604, -0.051477473229169846, 0.03164028376340866, -0.12884140014648438, -0.06383289396762848, 0.08639545738697052, -0.14894096553325653, -0.052752669900655746, 0.04833448305726051, 0.021107664331793785, 0.20139512419700623, -0.04685015231370926, 0.0019414547132328153, 0.2165483832359314, 0.07552724331617355, 0.22560609877109528, 0.16534440219402313, 0.11628928780555725, 0.08321088552474976, -0.006447641644626856, 0.13837385177612305, 0.06251967698335648, 0.09298601001501083, -0.15185388922691345, 0.1503210812807083, -0.15807685256004333, -0.19443736970424652, 0.07359373569488525, 0.019303156062960625, 0.06308861076831818, -0.21091534197330475, -0.15873242914676666, -0.13335859775543213, 0.020526321604847908, 0.14743159711360931, -0.011179707013070583, 0.049890123307704926, -0.21467868983745575, 0.13433994352817535, 0.027552377432584763, -0.010859590955078602, 0.2413429170846939, 0.13001397252082825, 0.06818172335624695, 0.23606833815574646, 0.008877966552972794, 0.1780308485031128, -0.17872107028961182, 0.12068585306406021, 0.15435943007469177, -0.06512884050607681, 0.1730993092060089, 0.1744735687971115, -0.06796500086784363, -0.09369736164808273, -0.22743754088878632, 0.14521731436252594, 0.16816557943820953, 0.027549175545573235, 0.07299992442131042, 0.017519071698188782, -0.01034807600080967, -0.10631829500198364, 0.08691701292991638, 0.12784816324710846, 0.11461558192968369, -0.11332643032073975, -0.13842232525348663, -0.014359847642481327, 0.12135275453329086, 0.03644508123397827, -0.1434534341096878, -0.09300385415554047, -0.12339688092470169, -0.14278297126293182, -0.041265059262514114, -0.08227862417697906, -0.08735674619674683, -0.5089515447616577, -0.29046234488487244, -0.0053070965223014355, 0.05677272006869316, 0.16042771935462952, -0.08071888238191605, -0.06779571622610092, 0.2673758268356323, 0.18814992904663086, 0.0751040056347847, 0.12200254946947098, 0.08895114064216614, 0.14667874574661255, 0.1661326289176941, -0.05609535798430443, 0.04813240468502045, -0.2941066026687622, -0.25919482111930847, 0.21345411241054535, 0.20235876739025116, 0.005405762232840061, 0.08723261207342148, -0.02368181198835373, -0.194342240691185, -0.012391667813062668, -0.08651040494441986, 0.07782276719808578, 0.03417131304740906, 0.024975504726171494, 0.03130502626299858, 0.03927752003073692, 0.2399153858423233, 0.05500957742333412, 0.18287727236747742, 0.29150262475013733, -0.09868644177913666, 0.0694732666015625, 0.1483980417251587, 0.08052851259708405, -0.1002371534705162, 0.029551096260547638, -0.10983569920063019, -0.3529515564441681, -0.12248744070529938, -0.09210295230150223, 0.07558851689100266, -0.028450578451156616, 0.14331041276454926, 0.12041445821523666, 0.24803780019283295, 0.1489381343126297, 0.033819399774074554, -0.18622653186321259, -0.022613706067204475, 0.004206246696412563, 0.26823970675468445, -0.013987860642373562, -0.09738381952047348, 0.1978214681148529, -0.24659070372581482, -0.13123150169849396, -0.008312113583087921, -0.10744033008813858, -0.07316721230745316, -0.29158881306648254, 0.18037086725234985, 0.27158206701278687, 0.4436391592025757, -0.22395825386047363, 0.1626567244529724, -0.06552744656801224, -0.08050783723592758, -0.16000540554523468, -0.1851346492767334, -0.004828297533094883, -0.10186229646205902, 0.25014764070510864, -0.007988940924406052, 0.030513571575284004, 0.6082866787910461, -0.16732990741729736, -0.12018431723117828, 0.2876971960067749, -0.007602655794471502, -0.10685859620571136, 0.08887100964784622, -0.00197768141515553, 0.010957257822155952, 0.2940298020839691, -0.04833858460187912, 0.08796931803226471, -0.13144302368164062, 0.1997756063938141, 0.149436354637146, 0.2405647486448288, 0.11001494526863098, -0.06360834836959839, 0.25132232904434204, 0.08129188418388367, -0.009590941481292248, -0.03383045271039009, 0.11112085729837418, 0.09457249939441681, 0.04079737886786461, -0.020244374871253967, -0.013597013428807259, 0.23662205040454865, -0.00125042290892452, -0.047172196209430695, -0.08130070567131042, -0.037171218544244766, 0.09656226634979248, -0.3623809814453125, 0.5318766236305237, 0.30312108993530273, -0.5518354773521423, 0.0940728709101677, -0.725902795791626, -0.190708190202713, -0.43318551778793335, 0.842800498008728, -0.9151922464370728, -0.6343580484390259, -0.9854944348335266, 0.1743481308221817, -0.8519408106803894, 0.1726575344800949, -0.6527175903320312, -0.11791732907295227, -0.08814376592636108, 0.07760842889547348, 0.3669221103191376, 0.22882701456546783, 0.11455244570970535, -0.25819680094718933, -0.19568562507629395, -0.16924987733364105, -0.10159754753112793, 0.12936219573020935, 0.13018880784511566, 0.21120087802410126, 0.1922856718301773, -0.12705332040786743, -0.06447708606719971, 0.02948548085987568, -0.18572185933589935, -0.17988546192646027, -0.09415791183710098, -0.23085147142410278, 0.14041434228420258, 0.041569825261831284, -0.22501659393310547, 0.24431534111499786, -0.10466267168521881, 0.0870388075709343, 0.2684400975704193, -0.03630964085459709, 0.02890709601342678, 0.16140492260456085, 0.2172560691833496, -0.058594994246959686, -0.14745618402957916, -0.008371961303055286, -0.021605687215924263, 0.0007497306214645505, 0.08690817654132843, 0.10794298350811005, -0.04612978175282478, -0.00379979913122952, 0.07675070315599442, -0.27653592824935913, -0.06760862469673157, -0.02961183339357376, 0.07156479358673096, 0.23035620152950287, 0.15358152985572815, 0.19997966289520264, 0.09214412420988083, -0.30627697706222534, -0.2460174709558487, -0.0973937138915062, -0.08743593096733093, -0.35346895456314087, 0.02200487069785595, -0.11500057578086853, 0.3348262310028076, -0.0003380552807357162, 0.15807072818279266, 0.16273295879364014, -0.06991875171661377, -0.020432814955711365, -0.05628285929560661, 0.12787146866321564, -0.10760964453220367, -0.22831816971302032, -0.17880244553089142, 0.1565992534160614, -0.13019075989723206, -0.13526736199855804, 0.03600391000509262, 0.20495396852493286, -0.014745871536433697, -0.18441453576087952, 0.20378221571445465, -0.1447773426771164, -0.11776234954595566, -0.06117304041981697, 0.020845841616392136, -0.18940617144107819, -0.11603336781263351, -0.14500190317630768, -0.0815519466996193, 0.09650169312953949, -0.3276613652706146, 0.04157908633351326, -0.038871150463819504, 0.08989981561899185, 0.2548660635948181, -0.029824860394001007, -0.17910897731781006, -0.13961032032966614, -0.12158098816871643, 0.1307271271944046, 0.07018986344337463, 0.1790672391653061, 0.02678014151751995, 0.2590392827987671, 0.08666574209928513, 0.18330581486225128, 0.2938597798347473, -0.21196815371513367, -0.05932218208909035, -0.20905271172523499, 0.04314202442765236, -0.056745417416095734, 0.20773085951805115, -0.057358771562576294, -0.07124758511781693, -0.16605931520462036, 0.17553725838661194, 0.2315802425146103, -0.03451162576675415, 0.12016894668340683, 0.06085282564163208, 0.2527858316898346, -0.09954892098903656, -0.154526486992836, 0.18475545942783356, -0.18517717719078064, 0.27639350295066833, -0.21432018280029297, 0.0499364510178566, -0.2442629635334015, -0.05642922595143318, 0.04978537932038307, -0.06976468861103058, -0.09940728545188904, 0.11315673589706421, -0.24196408689022064, -0.14130885899066925, -0.19129225611686707, -0.11009048670530319, 0.018332464620471, -0.13460370898246765, 0.10488733649253845, 0.015327119268476963, 0.19817742705345154, -0.04411939159035683, -0.04122355207800865, 0.28188037872314453, -0.09703629463911057, 0.27507519721984863, -0.017826419323682785, 0.008874235674738884, -0.07310555130243301, 0.18525968492031097, -0.0011250812094658613, 0.022410249337553978, 0.17988069355487823, 0.06027445197105408, -0.24757449328899384, -0.054844941943883896, 0.11566321551799774, 0.05625976622104645, 0.15810053050518036, -0.058770060539245605, 0.08517960458993912, -0.10084211081266403, -0.1510351002216339, 0.043791063129901886, -0.2931859791278839, 0.03579815477132797, -0.09065119922161102, -0.16364482045173645, 0.12273898720741272, -0.09980206936597824, 0.2039053589105606, 0.1140432357788086, -0.19969624280929565, 0.154300719499588, 0.16571184992790222, 0.09637757390737534, 0.1152893528342247, 0.04273245111107826, 0.1318751573562622, 0.28840985894203186, -0.09827224910259247, -0.10100201517343521, -0.11208770424127579, -0.20657984912395477, -0.009517477825284004, 0.18386928737163544, -0.1995222419500351, 0.20525774359703064, 0.23173341155052185, -0.15699416399002075, 0.07620376348495483, -0.08792856335639954, 0.020689750090241432, -0.2012365758419037, -0.10462749004364014, -0.1518605500459671, -0.379119336605072, 0.24392633140087128, -0.038485314697027206, 0.0391840897500515, -0.031048735603690147, 0.11098410189151764, -0.17376768589019775, 0.12413804978132248, -0.07889944314956665, -0.09853175282478333, 0.16126590967178345, -0.1631980836391449, -0.21172185242176056, -0.09427481144666672, 0.05878954380750656, 0.18061695992946625, -0.20937389135360718, 0.2987443208694458, -0.2698598802089691, 0.009740971028804779, 0.21812431514263153, -0.08505655825138092, 0.1953503042459488, 0.2053983211517334, 0.1835293173789978, -0.10715952515602112, 0.39216330647468567, 0.281841903924942, 0.19185671210289001, 0.022871268913149834, -0.06711068004369736, 0.18682566285133362, -0.0002969515335280448, -0.030445514246821404, -0.24852417409420013, -0.07280860096216202, 0.24337387084960938, -0.048955246806144714, 0.07981429249048233, 0.13072437047958374, -0.07237018644809723, -0.0009106819634325802, -0.11723028868436813, 0.3524620532989502, 0.27380403876304626, 0.25814467668533325, 0.074490025639534, -0.2033730000257492, 0.015252632088959217, -0.11271703243255615, 0.05777090787887573, 0.07676055282354355, -0.4391247630119324, -0.05011434108018875, 0.058325689285993576, -0.1766655445098877, -0.022008076310157776, 0.21621504426002502, -0.3588712215423584, 0.19499847292900085, -0.4949064552783966, -0.22312338650226593, -0.07996844500303268, 0.023766372352838516, 0.030157605186104774, -0.006861832458525896, 0.1486322581768036, -0.06025054678320885, 0.1776195764541626, 0.16726142168045044, 0.08929285407066345, 0.009767449460923672, 0.06418973952531815, -0.22384169697761536, 0.07921551167964935, -0.3107777535915375, -0.09090200066566467, 0.0370335653424263, 0.24005241692066193, 0.04237053170800209, -0.13833637535572052, -0.013171038590371609, -0.15703310072422028, -0.31619811058044434, 0.030992848798632622, 0.04933355003595352, -0.20269981026649475, 0.04322987422347069, -0.13205586373806, -0.22279974818229675, 0.056997109204530716, -0.07577133923768997, 0.011592196300625801, 0.19817329943180084, 0.2072187066078186, 0.026899361982941628, -0.17171694338321686, -0.06162380799651146, 0.30733561515808105, -0.011436711065471172, -0.033545464277267456, 0.0729132667183876, -0.03742273151874542, 0.03700931370258331, -0.3520883023738861, 0.15538422763347626, 0.188981831073761, 0.11317487806081772, 0.13345976173877716, 0.06679365038871765, -0.2508852481842041, -0.017843173816800117, 0.16359160840511322, 0.2219896912574768, 0.07832591235637665, 0.07735053449869156, 0.04368048533797264, 0.12540282309055328, 0.3338034451007843, -0.18068349361419678, 0.24900062382221222, 0.15409702062606812, -0.45690634846687317, 0.10288269072771072, -0.3791815936565399, 0.1507701873779297, 0.0031741142738610506, -0.024681460112333298, 0.3298549950122833, -0.05747924745082855, 0.04552643373608589, 0.09506978839635849, 0.03589973226189613, 0.137389674782753, 0.30871209502220154, -0.007103379815816879, 0.03792182356119156, -0.1630636304616928, 0.060235943645238876, -0.054826728999614716, -0.3082573711872101, 0.013267066329717636, 0.06980639696121216, -0.6233513355255127, 0.04914003238081932, -0.044306181371212006, 0.3532196879386902, 0.032804008573293686, -0.08717930316925049, -0.30342286825180054, 0.0408954918384552, -0.024857332929968834, 0.020925622433423996, 0.19340229034423828, 0.20898517966270447, 0.004923895001411438, 0.14091899991035461, 0.29946452379226685, -0.28512704372406006, -0.015576884150505066, -0.07091580331325531, -0.40544965863227844, 0.0014883142430335283, 0.259747177362442, -0.10240118950605392, 0.12028264254331589, 0.29143059253692627, -0.19658413529396057, -0.03823472559452057, 0.20269528031349182, -0.04757950082421303, -0.08471789211034775, -0.20467020571231842, 0.1871476024389267, 0.11576702445745468, -0.11858581751585007, -0.0684661790728569, 0.10350658744573593, -0.08569654822349548, -0.1425943672657013, 0.34120064973831177, -0.19710217416286469, 0.12891432642936707, -0.07218577712774277, -0.20061811804771423, 0.10510647296905518, -0.029330875724554062, -0.20047159492969513, -0.15774913132190704, -0.07091040164232254, 0.10046461224555969, 0.03465799614787102, 0.26378414034843445, -0.10488918423652649, 0.0012388104805722833, -0.14319171011447906, 0.09711834788322449, -0.014431443065404892, 0.04861194267868996, -0.07677759230136871, 0.04405665770173073, -0.001561061362735927, 0.01843768171966076, -0.0018961048917844892, 0.019416626542806625, -0.13491083681583405, -0.05011339113116264, -0.052279189229011536, 0.0025304185692220926, 0.2137814462184906, 0.15028661489486694, -0.07794367522001266, 0.19336473941802979, 0.07009903341531754, -0.16801707446575165, 0.17688995599746704, 0.13908174633979797, -0.2930571138858795, 0.17567765712738037, -0.08098665624856949, 0.03835370019078255, -0.08104501664638519, 0.0770144984126091, -0.16108033061027527, 0.06198876351118088, -0.16250738501548767, 0.047907114028930664, 0.19568948447704315, 0.023477988317608833, 0.14411213994026184, -0.05725964903831482, 0.11935985088348389, 0.23009555041790009, -0.07135117053985596, -0.1529351770877838, 0.0015529427910223603, 0.11343538016080856, -0.12414705008268356, -0.049153950065374374, 0.24611984193325043, -0.005967909935861826, -0.11914287507534027, -0.15229985117912292, -0.08290592581033707, -0.08397874236106873, 0.12688235938549042, 0.1254778802394867, 0.16783511638641357, 0.16122375428676605, -0.08587650954723358, -0.09762687236070633, -0.22227546572685242, -0.17257918417453766, 0.25232601165771484, 0.0947297066450119, 0.3089033365249634, 0.24989300966262817, -0.160989910364151, 0.07239218801259995, 0.039108116179704666, -0.17211668193340302, 0.16547667980194092, 0.25388649106025696, 0.15412408113479614, 0.0801382064819336, -0.012596696615219116, 0.20658516883850098, -0.011336052790284157, 0.02658647485077381, -0.024164952337741852, 0.17015254497528076, 0.03981697931885719, 0.09617704153060913, 0.10115991532802582, -0.11246088892221451, -0.01780102029442787, 0.1787901073694229, 0.2763614058494568, 0.027141371741890907, 0.11596328765153885, 0.18366272747516632, -0.10844120383262634, -0.0059237233363091946, 0.15588778257369995, -0.035806890577077866, -0.20890289545059204, 0.1527210921049118, -0.010151399299502373, -0.017660044133663177, 0.12849804759025574, 0.11897621303796768, -0.1381835639476776, -0.05559708923101425, 0.025747688487172127, 0.10266514122486115, -0.2094138115644455, 0.10151126980781555, 0.027020903304219246, 0.16896674036979675, 0.05472523346543312, 0.04231318458914757, 0.053801532834768295, 0.11090239137411118, -0.1664203554391861, 0.056092843413352966, -0.15619227290153503, -0.029118558391928673, 0.31744256615638733, -0.01876787282526493, -0.09831280261278152, -0.1601276695728302, 0.13025061786174774, -0.15081177651882172, -0.16951648890972137, 0.0511096753180027, 0.28222179412841797, 0.1369539499282837, 0.06158056855201721, 0.10308419913053513, -0.024759022518992424, -0.09201180934906006, 0.052721258252859116, -0.05642147362232208, -0.09502442181110382, -0.3242104649543762, -0.33132660388946533, 0.05466616898775101, 0.04068991169333458, -0.08170850574970245, 0.193037211894989, -0.21627499163150787, -0.1906784325838089, 0.16130724549293518, 0.027113700285553932, -0.06958010047674179, -0.03596516326069832, -0.2773992717266083, -0.22224180400371552, 0.1997046321630478, -0.20641477406024933, -0.2491997927427292, 0.10781625658273697, 0.08365488052368164, 0.03724498674273491, -0.10313916951417923, -0.010969143360853195, -0.04358477517962456, 0.007679554633796215, 0.049092479050159454, -0.16252772510051727, 0.009431231766939163, 0.3451365828514099, 0.3716887831687927, 0.27651578187942505, 0.05604878067970276, -0.3663373589515686, 0.011878127232193947, 0.1692589372396469, 0.26108691096305847, 0.17798732221126556, 0.05204824358224869, -0.16254673898220062, -0.13978111743927002, 0.013653362169861794, -0.012674757279455662, 0.0627262145280838, -0.09363862872123718, -0.1424775868654251, -0.05856200307607651, 0.14386719465255737, 0.14870785176753998, -0.0993589237332344, 0.14012286067008972, -0.06449130177497864, -0.1498153954744339, -0.22614090144634247, -0.049490924924612045, 0.2644616663455963, -0.05968349054455757, -0.10145542025566101, 0.2879955470561981, -0.033352192491292953, 0.045017097145318985, -0.023539528250694275, 0.13610097765922546, -0.00019167998107150197, 0.09650052338838577, 0.15189939737319946, 0.04236537590622902, -0.11364289373159409, -0.21010847389698029, -0.18813186883926392, 0.058219388127326965, -0.030774997547268867, 0.290757954120636, -0.04236908629536629, 0.08202510327100754, 0.17863622307777405, -0.06632264703512192, -0.14129115641117096, -0.31133124232292175, 0.005803512409329414, -0.304095059633255, -0.13037517666816711, 0.2843528985977173, 0.21754230558872223, 0.1857624650001526, 0.03757373243570328, -0.07459717243909836, -0.09768375754356384, -0.057317476719617844, -0.07559172064065933, -0.34581002593040466, -0.0979529544711113, 0.13409392535686493, 0.168931782245636, -0.24141502380371094, 0.13004566729068756, 0.0818229541182518, 0.015061885118484497, -0.1115371584892273, 0.1490962654352188, 0.12199821323156357, -0.1629624366760254, -0.0499529205262661, 0.14020411670207977, -0.09437964856624603, -0.009410429745912552, 0.000516030821017921, 0.0709458515048027, -0.026748107746243477, -0.19610795378684998, -0.051866911351680756, 0.010848003439605236, 0.16287292540073395, -0.12848681211471558, 0.16075506806373596, 0.009974684566259384, -0.14220166206359863, -0.045335281640291214, -0.07396681606769562, 0.09085283428430557, 0.14921125769615173, -0.22127526998519897, 0.24160996079444885, -0.05082092434167862, -0.11429757624864578, 0.0006274492479860783, -0.013761747628450394, -0.1181885302066803, -0.005387049168348312, -0.10436151921749115, 0.17035651206970215, 0.2604796588420868, 0.05842429772019386, 0.09497096389532089, -0.05227815359830856, -0.1381978690624237, -0.1083507388830185, 0.026724044233560562, -0.1812930703163147, -0.042792435735464096, -0.06783061474561691, -0.2054029405117035, 0.027536777779459953, -0.05642448365688324, 0.021112415939569473, 0.184518963098526, 0.014729182235896587, 0.11803895235061646, -0.03213129937648773, 0.012937898747622967, 0.22779245674610138, 0.11292527616024017, -0.2038087248802185, 0.25769689679145813, -0.120296910405159, 0.0033112342935055494, -0.07651521265506744, -0.15311942994594574, -0.05253756046295166, -0.22666172683238983, -0.05835563689470291, -0.05551834776997566, -0.0959743931889534, 0.20614780485630035, -0.1089097410440445, -0.16684028506278992, 0.042543355375528336, 0.11463598161935806, -0.03148934245109558, 0.04309695214033127, 0.056726887822151184, -0.17354391515254974, -0.11464578658342361, 0.22391414642333984, -0.08672578632831573, -0.012910817749798298, 0.14955559372901917, 0.14757263660430908, -0.1776193529367447, 0.16555142402648926, -0.29962119460105896, 0.1906428039073944, 0.09760789573192596, 0.11413150280714035, 0.023156702518463135, 0.20301444828510284, 0.364070862531662, 0.12631773948669434, -0.26691934466362, -0.10620414465665817, -0.3850301206111908, -0.03261292353272438, 0.01773246005177498, 0.39184674620628357, -0.028238199651241302, -0.07581247389316559, 0.2548007667064667, -0.08487889170646667, -0.021108854562044144, 0.10746005922555923, 0.0747956708073616, 0.2192331999540329, 0.11865267902612686, -0.04937111586332321, -0.0013669964391738176, -0.041766420006752014, -0.148562952876091, 0.0215718112885952, -0.31611981987953186, 0.11109248548746109, -0.04208025708794594, -0.3271216154098511, -0.019191870465874672, -0.20909246802330017, 0.4828208386898041, 0.002984296064823866, -0.19406671822071075, -0.15129928290843964, -0.1379198580980301, -0.018167749047279358, 0.3443200886249542, -0.16447024047374725, -0.06715034693479538, -0.2121247500181198, -0.03421438857913017, 0.002697170013561845, -0.15392182767391205, -0.3172929584980011, -0.5216723680496216, 0.28792527318000793, -0.12402770668268204, -0.12394089996814728, 0.43645161390304565, 0.1261206418275833, 0.3643394410610199, -0.2909579873085022, -0.0445866696536541, -0.15512290596961975, -0.34051406383514404, 0.05354930832982063, 0.2783849835395813, 0.16430135071277618, -0.09741361439228058, -0.22285714745521545, 0.13013222813606262, -0.038704514503479004, -0.11051284521818161, 0.21181181073188782, -0.011794173158705235, -0.04948980733752251, 0.08431154489517212, 0.006375577766448259, -0.042225416749715805, 0.013906690292060375, 0.015820328146219254, 0.008233088999986649, -0.48009148240089417, 0.03801208734512329, 0.14510732889175415, -0.23419234156608582, -0.04097035154700279, 0.04218205437064171, 0.1039440780878067, -0.013918519020080566, 0.01177879236638546, -0.2367527335882187, -0.044160373508930206, -0.09859038144350052, -0.10935215651988983, 0.01366511732339859, -0.39594289660453796, 0.19868342578411102, -0.05615317448973656, -0.16876955330371857, 0.047850318253040314, 0.03249330446124077, -0.3365024924278259, -0.03235434368252754, -0.041675593703985214, -0.16443394124507904, 0.17716838419437408, -0.1262284815311432, -0.09464025497436523, -0.22695910930633545, 0.04074407368898392, -0.11250469833612442, 0.16254360973834991, 0.08555220812559128, 0.1332501918077469, -0.11785676330327988, -0.09952997416257858, -0.0075843241065740585, 0.1060880497097969, -0.08342196047306061, 0.023335935547947884, -0.054953210055828094, -0.03493461385369301, 0.1368473619222641, -0.01175626553595066, 0.006059783045202494, -0.1828792840242386, 0.033217158168554306, -0.08359585702419281, 0.1989845484495163, 0.13876669108867645, 0.0495741069316864, -0.07051917910575867, -0.09861911088228226, -0.11346784234046936, 0.12011612206697464, -0.18507735431194305, -0.07429254800081253, -0.11160574853420258, -0.11777221411466599, 0.05297695845365524, 0.02280905283987522, -0.09770847856998444, 0.1398071050643921, -0.2840965986251831, 0.1972675770521164, -0.0073005729354918, -0.1363794207572937, -0.01988968439400196, 0.026770398020744324, -0.21406589448451996, 0.22159363329410553, 0.00560178654268384, -0.29139888286590576, 0.09761688858270645, -0.031882379204034805, 0.04285125806927681, -0.21889202296733856, 0.08231287449598312, 0.16004827618598938, 0.08548510819673538, 0.11974205076694489, -0.0446288138628006, -0.2484378069639206, -0.1538279503583908, -0.007495677564293146, -0.2102879285812378, -0.02036607451736927, 0.016923798248171806, 0.03422342613339424, 0.10493718087673187, -0.004295187536627054, 0.3256049156188965, 0.04171682149171829, -0.09906532615423203, 0.18221649527549744, -0.022811325266957283, 0.2786192297935486, -0.1071866974234581, 0.0791613981127739, -0.1755443513393402, 0.004153587855398655, 0.025887124240398407, -0.11656621843576431, -0.09046284854412079, -0.06530414521694183, 0.13546380400657654, -0.012674324214458466, 0.04587056115269661, 0.17965495586395264, -0.018264442682266235, -0.005381257738918066, 0.0036549128126353025, 0.10474876314401627, -0.09524673968553543, 0.10500665009021759, -0.04252145066857338, 0.037332307547330856, 0.30170416831970215, -0.11049722880125046, -0.16926288604736328, 0.015963831916451454, -0.4518437385559082, 0.026167670264840126, -0.06767703592777252, 0.22881613671779633, 0.03694388270378113, -0.11750811338424683, -0.20387691259384155, 0.17965646088123322, -0.30042362213134766, 0.1102624386548996, -0.1001390814781189, -0.001809535431675613, -0.12115687876939774, -0.0826474204659462, 0.039895202964544296, 0.00263229594565928, -0.08371824026107788, 0.19055265188217163, 0.12814782559871674, -0.11886468529701233, -0.0067185270600020885, 0.10124146938323975, -0.0263669490814209, -0.04500848427414894, -0.20519767701625824, -0.06691537797451019, 0.2918783128261566, -0.19375112652778625, 0.03694622591137886, -0.11110671609640121, -0.012522894889116287, -0.03273497521877289, -0.07887379825115204, 0.06131444126367569, -0.2285703420639038, -0.0214461050927639, 0.06685098260641098, -0.1721182018518448, 0.20898830890655518, -0.04835546016693115, -0.1171083077788353, -0.009995152242481709, -0.12080533057451248, -0.12266171723604202, 0.03011992573738098, 0.0046112979762256145, -0.20826926827430725, -0.162571519613266, 0.17107106745243073, 0.1874079406261444, 0.0664411410689354, 0.031099390238523483, 0.46785274147987366, -0.04808943346142769, 0.022515306249260902, 0.12453947961330414, -0.19826318323612213, -0.18951360881328583, -0.23915016651153564, -0.13552315533161163, 0.11020485311746597, 0.022277740761637688, -0.14224529266357422, 0.08100639283657074, 0.1400763988494873, 0.05625123158097267, -0.09930118918418884, 0.26690900325775146, 0.23372957110404968, -0.2042229175567627, -0.1963539719581604, -0.18548214435577393, -0.04675452411174774, -0.13895197212696075, 0.07696240395307541, 0.021050509065389633, 0.15578727424144745, -0.21915341913700104, 0.026389561593532562, 0.1325562745332718, -0.07210440188646317, -0.07156814634799957, 0.25770750641822815, -0.12121286243200302, -0.0425182543694973, -0.2051747888326645, 0.2253253012895584, -0.0024142665788531303, 0.34365934133529663, -0.1472310721874237, -0.028012674301862717, -0.035486239939928055, -0.38449758291244507, -0.02931624837219715, -0.2664751708507538, -0.03861376270651817, -0.09184768795967102, 0.6396745443344116, 0.212906152009964, 0.2653438150882721, -0.1459663063287735, 0.02842644415795803, 0.10720577090978622, -0.1750609278678894, 0.033638302236795425, 0.0725022703409195, 0.13621363043785095, 0.22746321558952332, 0.40167805552482605, -0.009621507488191128, 0.0917527973651886, 0.1070270910859108, 0.17734533548355103, 0.08966778218746185, 0.15332750976085663, -0.06706719845533371, 0.06152518093585968, -0.2944187521934509, 0.2946591079235077, 0.2522297203540802, 0.42248284816741943, 0.1596754789352417, 0.13830441236495972, 0.13751104474067688, -0.03695588931441307, -0.07799238711595535, -0.0009450196521356702, -0.21427017450332642, 0.06174497306346893, -0.001248581218533218, -0.12407572567462921, 0.1192486360669136, 0.090858094394207, -0.15359170734882355, 0.1190275326371193, -0.08658192306756973, -0.12899504601955414, 0.3142169117927551, -0.014592313207685947, -0.2849673926830292, 0.2385353446006775, -0.2299734354019165, 0.09696003794670105, 0.03487013652920723, -0.2554287910461426, 0.06574856489896774, -0.07088838517665863, 0.4111684262752533, 0.09972096234560013, 0.06014315411448479, 0.027588294818997383, -0.14556284248828888, 0.0995357483625412, -0.05199437588453293, -0.02117248810827732, -0.06472524255514145, -0.2825261354446411, 0.10239517688751221, -0.029666103422641754, 0.04096467047929764, 0.015958677977323532, -0.03535480424761772, 0.005095299333333969, 0.13279278576374054, 0.012458889745175838, -0.5182132124900818, 0.8273050785064697, 0.2897329330444336, -0.46174055337905884, 0.0032532031182199717, -0.19281315803527832, -0.1079554334282875, 0.7003902792930603, -0.9637731313705444, 0.664860188961029, 0.7254751920700073, -0.028954487293958664, -0.3790261745452881, 0.1856149435043335, -0.788654088973999, 0.06124687194824219, 0.003417376661673188, 0.16569456458091736, -0.17250315845012665, -0.016979331150650978, 0.07511850446462631, 0.3504757881164551, 0.20969732105731964, 0.18535524606704712, 0.19768844544887543, 0.24269558489322662, 0.20418484508991241, -0.28295084834098816, 0.024338573217391968, 0.04369251802563667, -0.25194990634918213, 0.1713680475950241, -0.13567949831485748, 0.02135058492422104, -0.02683926559984684, 0.06681164354085922, 0.14714039862155914, -0.08895011246204376, -0.3807784914970398, -0.24295730888843536, 0.037995100021362305, -0.02129974402487278, -0.06973683089017868, 0.3550175130367279, 0.18656739592552185, 0.372251033782959, -0.008942721411585808, 0.15025655925273895, -0.005870826076716185, 0.011711988598108292, -0.2655998170375824, -0.17210787534713745, -0.25480616092681885, -0.10602516680955887, -0.4568076431751251, -0.20073704421520233, -0.3098299503326416, 0.07032287120819092, 0.20611314475536346, 0.2978721857070923, -0.11268027126789093, -0.07786855101585388, 0.13696034252643585, 0.2382224053144455, -0.2069738358259201, 0.0746660977602005, 0.09990816563367844, 0.005719450768083334, 0.10909076780080795, -0.319007933139801, 0.04939823970198631, 0.20259039103984833, -0.03913997486233711, 0.08742155134677887, 0.3026103675365448, -0.0256503839045763, 0.09371481090784073, 0.11254674196243286, -0.24606338143348694, 0.06374166160821915, -0.2851005494594574, 0.22859327495098114, -0.07814250886440277, 0.08913952857255936, -0.2306789755821228, 0.09757713973522186, -0.0015902133891358972, 0.19034500420093536, -0.2383778989315033, -0.10623039305210114, 0.1960637867450714, -0.31639230251312256, -0.22645971179008484, 0.09719230979681015, -0.21051646769046783, -0.12956677377223969, -0.24200060963630676, 0.06150610372424126, -0.07272059470415115, -0.1214858815073967, 0.016016172245144844, 0.15189936757087708, 0.02624412812292576, -0.1880214512348175, -0.2008589655160904, 0.034701019525527954, 0.1599528044462204, -0.11002063006162643, 0.28207331895828247, 0.12747590243816376, -0.03111387975513935, 0.24792510271072388, 0.33591845631599426, -0.25701218843460083, -0.37912455201148987, 0.13488031923770905, -0.386031836271286, 0.35743728280067444, -0.08097526431083679, -0.1881973147392273, 0.10818502306938171, -0.00875139981508255, -0.2757902145385742, 0.2696537375450134, 0.002772487699985504, 0.07926588505506516, 0.29380136728286743, 0.2438037246465683, 0.015966497361660004, -0.24672460556030273, 0.03168342635035515, 0.05043676495552063, -0.09438630938529968, 0.03100065141916275, -0.06054822728037834, 0.06346776336431503, -0.0540812611579895, 0.14121031761169434, 0.24622568488121033, -0.1003865897655487, 0.13627266883850098, 0.11683037877082825, -0.21692875027656555, -0.19316351413726807, 0.3480502665042877, -0.15440568327903748, 0.2082054167985916, 0.19479262828826904, 0.07886196672916412, -0.21109578013420105, 0.07074277848005295, -0.11178836971521378, 0.3172774910926819, -0.16853465139865875, 0.21673060953617096, -0.04105006903409958, -0.13465070724487305, -0.020308218896389008, 0.10901947319507599, 0.1703004539012909, -0.030494509264826775, -0.27840134501457214, 0.18775101006031036, 0.08882324397563934, 0.19472402334213257, -0.22268016636371613, -0.11889609694480896, -0.09318441897630692, 0.021041642874479294, 0.11696276813745499, -0.13569436967372894, -0.02829773910343647, -0.16341644525527954, 0.20020972192287445, 0.03082955814898014, 0.250283420085907, -0.05121845379471779, -0.0633852630853653, -0.1451505720615387, 0.09534135460853577, -0.105062335729599, 0.07263405621051788, -0.28143447637557983, 0.31769368052482605, -0.1603367030620575, -0.13638697564601898, 0.09323787689208984, -0.06103119999170303, -0.4193853437900543, -0.07126704603433609, 0.18503297865390778, 0.14160284399986267, -0.04163636639714241, -0.10298170149326324, 0.16901566088199615, -0.1525791436433792, 0.27508699893951416, 0.20497047901153564, 0.0766107439994812, -0.20442233979701996, -0.14986443519592285, -0.07894826680421829, 0.16797149181365967, -0.34874358773231506, -0.15691426396369934, -0.19130787253379822, -0.08413403481245041, -0.35588330030441284, -0.04543202370405197, -0.13701313734054565, -0.08265499025583267, 0.19288820028305054, 0.03135322034358978, -0.5376937985420227, -0.35278862714767456, 0.18710626661777496, -0.022793687880039215, -0.06072153151035309, 0.06974821537733078, -0.14457003772258759, 0.28281140327453613, 0.33848652243614197, -0.06737124174833298, -0.311018705368042, 0.08207525312900543, -0.06405798345804214, 0.06876863539218903, -0.03398910164833069, -0.11686758697032928, 0.1615452915430069, -0.14908289909362793, 0.019140450283885002, 0.11554314941167831, 0.15803486108779907, -0.21179312467575073, 0.16220404207706451, 0.0817013755440712, -0.17277134954929352, 0.14099526405334473, -0.0005515946540981531, 0.2362646460533142, -0.03223530575633049, -0.06780409067869186, 0.027643123641610146, -0.04798878729343414, 0.24106284976005554, -0.13128788769245148, 0.14157524704933167, 0.3951210677623749, 0.14545950293540955, 0.16884846985340118, 0.13769802451133728, 0.02765677496790886, 0.04514666274189949, -0.19379137456417084, -0.2771911323070526, -0.11748336255550385, -0.036813054233789444, 0.14389535784721375, -0.12954646348953247, -0.029134728014469147, -0.190770223736763, -0.24853408336639404, -0.050782546401023865, 0.08130167424678802, 0.41216957569122314, 0.3769856095314026, -0.20338214933872223, 0.005797465331852436, -0.2392476499080658, 0.07004272937774658, 0.0834483727812767, 0.03335796296596527, -0.04708755016326904, 0.19809381663799286, -0.00025372911477461457, 0.1094549372792244, 0.0934118777513504, -0.02983829937875271, -0.1802695095539093, -0.23671360313892365, 0.03803268447518349, 0.04974481463432312, 0.12493816018104553, 0.06424504518508911, 0.10917804390192032, 0.005841206293553114, 0.18401695787906647, 0.10398878902196884, 0.2223857194185257, -0.11922134459018707, 0.1290883719921112, 0.11437081545591354, 0.09927236288785934, -0.04882609471678734, 0.1921377032995224, -0.30151402950286865, 0.2039637416601181, 0.2510754466056824, -0.026418810710310936, -0.08669868111610413, -0.1911003738641739, -0.1281713843345642, -0.10980149358510971, 0.03788401186466217, 0.22465676069259644, -0.07748409360647202, -0.028651246801018715, -0.3063574731349945, 0.10090765357017517, -0.12456750869750977, 0.11214979737997055, -0.11271920800209045, 0.1244133785367012, -0.07711351662874222, 0.08440525084733963, -0.1358916014432907, -0.1476704180240631, -0.25602075457572937, 0.17936581373214722, -0.009709316305816174, -0.20576147735118866, 0.043497923761606216, -0.3471188247203827, 0.19516947865486145, 0.08163059502840042, 0.005527958273887634, -0.19577158987522125, -0.143220454454422, -0.08621757477521896, -0.04914112761616707, -0.029228826984763145, -0.24001076817512512, -0.11498803645372391, 0.08716268092393875, -0.1581587940454483, -0.08661846071481705, -0.025144726037979126, 0.0888717770576477, 0.022522911429405212, -0.16017340123653412, 0.09171576797962189, -0.21061758697032928, 0.2087014615535736, 0.060204651206731796, 0.13083453476428986, -0.007395296823233366, 0.019190113991498947, -0.04788342863321304, 0.022722449153661728, -0.12574753165245056, -0.057561058551073074, 0.1104993224143982, -0.1873423457145691, 0.10302688181400299, 0.17510029673576355, -0.19755588471889496, -0.059591542929410934, -0.044319186359643936, 0.31309622526168823, 0.13082215189933777, -0.16565339267253876, -0.0381588377058506, 0.23854024708271027, 0.13271494209766388, -0.06897573918104172, 0.1488536298274994, 0.046913303434848785, 0.12988346815109253, -0.02159818448126316, -0.06399712711572647, 0.26418420672416687, 0.25001776218414307, -0.2710615396499634, -0.3598984479904175, 0.14226703345775604, -0.02086642198264599, 0.12824955582618713, 0.12016262859106064, 0.05234387144446373, -0.1290241777896881, 0.080542653799057, -0.1729680299758911, 0.11784879863262177, 0.20097410678863525, -0.15204931795597076, 0.17118297517299652, -0.07321952283382416, -0.3432638645172119, -0.30164191126823425, -0.025587720796465874, -0.17949029803276062, -0.03557157143950462, 0.06604337692260742, -0.156269833445549, 0.13745903968811035, 0.16473470628261566, -0.12630747258663177, -0.23316748440265656, -0.12403664737939835, 0.01984010636806488, 0.18064157664775848, 0.07613634318113327, -0.22522622346878052, 0.043576937168836594, 0.02801455371081829, 0.19304001331329346, -0.16630622744560242, 0.05394331365823746, 0.08246064186096191, 0.17766349017620087, -0.09638966619968414, 0.07530677318572998, 0.052556902170181274, 0.06769778579473495, -0.3933979272842407, -0.12828388810157776, -0.14589208364486694, -0.02265053242444992, -0.09000609815120697, 0.10548797249794006, 0.028396928682923317, 0.027964871376752853, -0.09474123269319534, 0.04326077923178673, -0.09528820961713791, -0.28803664445877075, 0.0714469626545906, 0.13703998923301697, 0.42915645241737366, -0.06189572811126709, -0.030374053865671158, 0.1442635953426361, 0.1758337765932083, -0.06895149499177933, -0.13160458207130432, 0.24800562858581543, 0.15669548511505127, 0.07161999493837357, -0.08136453479528427, -0.013103893958032131, 0.017375042662024498, 0.1267513781785965, -0.0567486546933651, 0.09520308673381805, -0.06284809112548828, 0.047575466334819794, -0.19800317287445068, 0.07457607239484787, 0.15774093568325043, 0.08496666699647903, 0.07762118428945541, 0.19202205538749695, -0.039815738797187805, 0.04360734298825264, 0.08480823040008545, -0.16622145473957062, -0.06590809673070908, -0.05949551612138748, -0.08595457673072815, -0.05511919781565666, 0.0856497585773468, 0.2033585160970688, 0.01751091144979, 0.11132737994194031, 0.11069480329751968, 0.014010678045451641, 0.33431732654571533, 0.05050516128540039, -0.08717101067304611, 0.10118143260478973, 0.10314479470252991, -0.16402871906757355, 0.07474076747894287, 0.09177370369434357, 0.0226240586489439, -0.4461473822593689, 0.11408766359090805, -0.17423352599143982, 0.04226957634091377, -0.11353925615549088, -0.09709800779819489, 0.03313538432121277, -0.008741929195821285, -0.0017493891064077616, 0.18172112107276917, 0.02324414625763893, -0.049143556505441666, 0.32154494524002075, 0.008233197033405304, -0.05938015505671501, 0.08496890217065811, -0.13219457864761353, -0.07870923727750778, -0.20274461805820465, 0.16330057382583618, 0.12981626391410828, -0.02223122864961624, -0.11677664518356323, -0.018528884276747704, 0.2819421589374542, 0.0861700102686882, -0.14562316238880157, -0.10258319228887558, 0.014878978952765465, -0.16389378905296326, -0.0017119153635576367, 0.16708654165267944, 0.09885988384485245, 0.10511992126703262, 0.16240602731704712, -0.22221145033836365, 0.1262483149766922, -0.03237682953476906, -0.16304318606853485, 0.043725691735744476, 0.37955400347709656, -0.06431084871292114, -0.07221788913011551, -0.0064256745390594006, 0.03981154039502144, 0.04317404702305794, -0.27226370573043823, 0.21400503814220428, -0.03795110061764717, -0.24383686482906342, -0.03083498775959015, -0.14997228980064392, -0.16569644212722778, -0.5414680242538452, -0.013076952658593655, 0.03902202844619751, -0.13299645483493805, -0.12466296553611755, -0.02011781372129917, 0.3414713442325592, 0.11031363904476166, 0.012199854478240013, -0.23018111288547516, 0.1621534824371338, -0.06925185769796371, -0.0688437670469284, -0.21030095219612122, 0.02241913415491581, -0.049962662160396576, 0.011969511397182941, -0.07552461326122284, 0.11227405071258545, -0.008175455965101719, -0.00045758785563521087, -0.07348565757274628, -0.1383129358291626, 0.013870886527001858, -0.2649529278278351, 0.08640190213918686, 0.15990495681762695, 0.03217300400137901, -0.26622170209884644, -0.1305096596479416, -0.08717020601034164, 0.11978331208229065, -0.03493395447731018, 0.14535102248191833, 0.1353912055492401, 0.1034514382481575, -0.161127507686615, -0.14657433331012726, -0.029086526483297348, -0.17989730834960938, -0.15578892827033997, -0.06937544792890549, -0.2528744637966156, 0.20795661211013794, 0.04588942229747772, -0.30092477798461914, 0.08664363622665405, 0.3020569682121277, -0.1878785789012909, 0.12216100096702576, -0.14327286183834076, -0.156674325466156, 0.027241691946983337, 0.08454866707324982, 0.046172987669706345, -0.2220323234796524, -0.22080159187316895, -0.13143375515937805, 0.0605866014957428, 0.020844388753175735, 0.18648655712604523, -0.12884578108787537, -0.11635545641183853, -0.09579269587993622, -0.11464949697256088, -0.03469036892056465, -0.050436899065971375, 0.09322187304496765, 0.13777410984039307, -0.0270426943898201, -0.2021683007478714, -0.19536912441253662, -0.1134055107831955, 0.06073608621954918, 0.3730649948120117, 0.16774097084999084, -0.009600909426808357, 0.11219199001789093, -0.008810285478830338, -0.1445121467113495, -0.2364814281463623, -0.016788654029369354, -0.14427371323108673, -0.49534979462623596, 0.026695597916841507, -0.03872058913111687, 0.18323351442813873, 0.07863304018974304, 0.060081079602241516, 0.13286283612251282, 0.13320064544677734, 0.08009025454521179, 0.18803179264068604, -0.06419207900762558, 0.10053672641515732, -0.1509837657213211, 0.1712580770254135, 0.08768320083618164, -0.25055068731307983, 0.09091593325138092, -0.13423462212085724, -0.08725672215223312, -0.0191706120967865, -0.21358594298362732, 0.1121121421456337, 0.14612774550914764, -0.1998000144958496, 0.09286284446716309, -0.07221363484859467, -0.006045234389603138, -0.11699806898832321, 0.02832186408340931, -0.0810694471001625, -0.054760366678237915, 0.08028289675712585, -0.14743776619434357, 0.09565335512161255, -0.010331940837204456, 0.35735249519348145, 0.040481388568878174, 0.0923871248960495, -0.18746991455554962, -0.09032143652439117, -0.003973491955548525, 0.12138072401285172, -0.054564133286476135, 0.11065791547298431, -0.11258256435394287, -0.08582086861133575, 0.08047056943178177, -0.11608385294675827, 0.16459259390830994, 0.0972805917263031, 0.25507882237434387, -0.19743698835372925, -0.10909809172153473, 0.2895691394805908, -0.09859759360551834, -0.08806420862674713, -0.15218360722064972, -0.000929772388190031, 0.23819094896316528, -0.39192214608192444, -0.10857703536748886, 0.11873601377010345, 0.13278299570083618, -0.09009440243244171, 0.21590787172317505, -0.14800894260406494, 0.09858003258705139, 0.21558678150177002, -0.22534704208374023, -0.04175557568669319, 0.0066407774575054646, -0.2747427225112915, -0.054507967084646225, -0.10866221785545349, -0.009938880801200867, -0.05812855809926987, 0.03707554563879967, -0.08217751234769821, -0.14635069668293, -0.07005931437015533, 0.007303696591407061, -0.11897023767232895, -0.19354549050331116, 0.19617533683776855, 0.10018064826726913, -0.04626801982522011, 0.11270557343959808, 0.020948519930243492, 0.035829950124025345, -0.047505494207143784, -0.07831288874149323, 0.23229460418224335, 0.08249267190694809, 0.171004056930542, -0.1156483069062233, 0.16287343204021454, -0.41456153988838196, -0.08921150118112564, 0.022880934178829193, 0.008067050948739052, 0.12347296625375748, 0.18179678916931152, 0.2023264467716217, -0.14137355983257294, 0.133195698261261, -0.08483673632144928, 0.36320021748542786, 0.24972432851791382, -0.011657286435365677, 0.0823964849114418, 0.3495545983314514, -0.046937115490436554, 0.05921318754553795, 0.16383980214595795, -0.17923909425735474, 0.29687896370887756, 0.035761233419179916, -0.13732707500457764, 0.16890430450439453, 0.1437581181526184, 0.053709398955106735, 0.10947894304990768, -0.16167773306369781, 0.11117744445800781, -0.022022301331162453, 0.16858676075935364, 0.008573130704462528, 0.12680168449878693, -0.1445075273513794, 0.08065733313560486, -0.10123977065086365, 0.10304839164018631, -0.06513220816850662, 0.1535932868719101, -0.168789342045784, 0.21843476593494415, -0.1691565364599228, -0.0623350590467453, 0.17692992091178894, 0.07324668765068054, -0.18870463967323303, -0.15994440019130707, 0.0547599159181118, 0.09891840070486069, 0.04891395568847656, -0.019565528258681297, -0.005718820262700319, 0.22389866411685944, -0.08770395070314407, 0.25993961095809937, 0.07450296729803085, -0.0058161551132798195, 0.11930514872074127, -0.17534570395946503, -0.028665577992796898, -0.19454941153526306, -0.06033500283956528, 0.28885719180107117, 0.16954170167446136, 0.06794378906488419, 0.3310147821903229, 0.08960700780153275, 0.02192631922662258, 0.032368775457143784, 0.1586376428604126, 0.19543126225471497, -0.16965733468532562, -0.08515936881303787, -0.12974733114242554, 0.09299943596124649, -0.08913880586624146, -0.09049182385206223, 0.12164562195539474, 0.2127704620361328, -0.0024124374613165855, -0.17094074189662933, -0.08997199684381485, -0.14169210195541382, -0.06058795377612114, 0.04881341755390167, 0.03197077289223671, -0.0032127173617482185, -0.03001287207007408, 0.15595026314258575, 0.009195096790790558, 0.04442772641777992, 0.042590390890836716, 0.3059055805206299, -0.0436311811208725, 0.03769516572356224, -0.22110943496227264, -0.07162722945213318, 0.20522835850715637, 0.029986994341015816, 0.09486973285675049, -0.049050867557525635, -0.006373309995979071, 0.14235959947109222, 0.03845733031630516, -0.08027182519435883, -0.08658567070960999, -0.08319204300642014, 0.19541645050048828, -0.01121047418564558, -0.011430645361542702, 0.015696117654442787, 0.23010358214378357, 0.11145757138729095, -0.22029973566532135, -0.010320174507796764, -0.06554633378982544, 0.22865065932273865, -0.05292259529232979, -0.058885492384433746, 0.26644688844680786, -0.13478527963161469, -0.13328304886817932, 0.31226733326911926, -0.05682334676384926, 0.01145029254257679, 0.031432174146175385, -0.0453326478600502, -0.010981899686157703, -0.04284769296646118, 0.031696535646915436, -0.08496179431676865, 0.41398611664772034, -0.100681371986866, -0.0714913010597229, -0.3539749085903168, -0.08971073478460312, 0.04778227210044861, 0.07278569787740707, -0.018790703266859055, 0.0976547971367836, -0.04408109933137894, 0.12597355246543884, 0.09313516318798065, 0.3328448235988617, 0.12745939195156097, -0.17178741097450256, -0.19230566918849945, 0.06852419674396515, 0.30071109533309937, -0.14871257543563843, -0.08557721227407455, -0.05522769317030907, -0.2790757119655609, 0.08485420048236847, -0.165873184800148, -0.08306128531694412, -0.21958626806735992, 0.06802670657634735, 0.0036493483930826187, 0.35404136776924133, -0.44336336851119995, -0.03396103158593178, 0.025567252188920975, 0.13723084330558777, -0.07504314184188843, -0.08295383304357529, -0.04226097837090492, -0.19087658822536469, 0.09380406886339188, 0.10323511064052582, -0.017337702214717865, 0.5253040194511414, -0.01462646760046482, -0.2024080753326416, -0.5829127430915833, 0.0200040303170681, -0.09476928412914276, -0.00991173554211855, -0.0038796337321400642, 0.09724057465791702, -0.24709546566009521, 0.14473973214626312, -0.17689959704875946, -0.12695370614528656, -0.05490587279200554, 0.036786556243896484, -0.29647064208984375, 0.06641527265310287, -0.07025834918022156, -0.22247055172920227, 0.22127582132816315, 0.05756594240665436, 0.027768658474087715, -0.3603522777557373, 0.04515010118484497, 0.16609272360801697, 0.010164319537580013, 0.17497700452804565, 0.03757551312446594, 0.05154535546898842, 0.0296601802110672, 0.33034250140190125, 0.36135736107826233, -0.08332149684429169, -5.30934521520976e-05, 0.004608565475791693, -0.015869980677962303, 0.1614387482404709, -0.10289954394102097, 0.018976304680109024, -0.3613571226596832, -0.18117831647396088, -0.1254759579896927, 0.051785558462142944, 0.02893214300274849, -0.13373583555221558, -0.04741642624139786, -0.10016225278377533, 0.18017582595348358, 0.11548225581645966, 0.19520150125026703, 0.17118294537067413, -0.3055375814437866, 0.12860777974128723, 0.05114321783185005, -0.1551337093114853, -0.03367363288998604, -0.01905713975429535, 0.050559237599372864, 0.03690293803811073, -0.10285357385873795, 0.22997252643108368, -0.15540547668933868, 0.23977836966514587, 0.04496525228023529, -0.18016037344932556, -0.06720560789108276, 0.21683791279792786, 0.1531265527009964, -0.16724705696105957, 0.1543734073638916, -0.3396887481212616, 0.19447776675224304, 0.08106739073991776, -0.061223000288009644, 0.01403605006635189, -0.08486716449260712, -0.15908965468406677, 0.01618831418454647, 0.07517828792333603, 0.049459632486104965, 0.05082074552774429, -0.060648687183856964, -0.06781592220067978, 0.21417255699634552, -0.033401377499103546, -0.21025100350379944, -0.14875929057598114, -0.04763352870941162, 0.012902959249913692, -0.2022734433412552, 0.15200451016426086, 0.10222168266773224, 0.18706977367401123, 0.006838224828243256, 0.005844164174050093, 0.07614091038703918, 0.11335276812314987, -0.17183776199817657, 0.05800573155283928, 0.03437330201268196, -0.1303008645772934, -0.15824615955352783, 0.03507353737950325, -0.004083160310983658, 0.05968397855758667, 0.009920362383127213, 0.14553846418857574, 0.05161191150546074, -0.09284507483243942, 0.18878482282161713, 0.12524405121803284, -0.041098833084106445, 0.0029142871499061584, 0.19509992003440857, 0.11477909982204437, -0.035272661596536636, -0.09799227863550186, 0.005512607749551535, 0.45983055233955383, 0.02329297363758087, 0.04241751506924629, 0.2239578664302826, 0.053181082010269165, 0.001632595551200211, 0.030850665643811226, -0.03231998533010483, 0.1671462059020996, 0.2323647141456604, 0.08547116070985794, -0.15295128524303436, 0.33843761682510376, 0.6036473512649536, -0.013596705161035061, -0.19390986859798431, -0.07281090319156647, -0.08107393234968185, -0.026582399383187294, -0.41401249170303345, 0.06823408603668213, 0.08911154419183731, 0.12859873473644257, -0.10281465202569962, 0.18854697048664093, 0.07201647758483887, -0.09889771789312363, -0.16062016785144806, 0.10439324378967285, 0.00741281034424901, -0.02551974542438984, -0.2963699996471405, -0.034454669803380966, 0.20558679103851318, -0.10307390242815018, 0.02846813015639782, -0.06157276779413223, 0.09202270954847336, 0.004535240586847067, -0.016282865777611732, 0.10534235835075378, 0.0035232719965279102, 0.11205074191093445, -0.05754790082573891, 0.0926099345088005, 0.03584062308073044, -0.21812188625335693, -0.1973074972629547, 0.10844023525714874, -0.00014926877338439226, -0.04638108238577843, -0.09041668474674225, 0.2134339064359665, 0.02897294983267784, 0.0740022286772728, 0.28721535205841064, -0.1920883059501648, -0.012389822863042355, 0.32500728964805603, 0.011196292005479336, -0.023827532306313515, 0.11890499293804169, -0.18964707851409912, 0.07076049596071243, 0.08913134783506393, -0.3819422721862793, -0.0884784460067749, 0.05676396191120148, -0.034208815544843674, -0.10131533443927765, -0.05749156326055527, 0.0915297120809555, 0.05241023749113083, -0.10868526250123978, 0.13870081305503845, 0.31956323981285095, 0.39275532960891724, 0.5248351097106934, -0.9105525612831116, -0.48208269476890564, 0.1417364925146103, 0.08412793278694153, -0.06229810789227486, 0.4177780747413635, 0.011189746670424938, -0.5452642440795898, 0.3287614583969116, 0.0022606034763157368, -0.44285911321640015, 0.05591873824596405, -0.260088175535202, -0.06882227957248688, -0.19487130641937256, 0.3034546375274658, -0.10484930872917175, 0.10892444849014282, 0.10092999786138535, -0.02824566885828972, -0.259634792804718, -0.4082605838775635, 0.06335955858230591, -0.01594376564025879, 0.0711095854640007, 0.38415271043777466, -0.015233022160828114, 0.03094022534787655, -0.062221281230449677, -0.16417141258716583, -0.15186822414398193, 0.34792450070381165, -0.21520715951919556, -0.09529769420623779, 0.04465782642364502, 0.3141080141067505, -0.2192230373620987, -0.13878527283668518, -0.01666160486638546, -0.2365267276763916, 0.11969123780727386, 0.291263222694397, 0.26252561807632446, 0.04498599097132683, 0.059607088565826416, 0.03353817015886307, 0.05241817608475685, -0.06035340577363968, -0.23485499620437622, 0.04791579395532608, -0.21768538653850555, -0.07821033149957657, 0.027296699583530426, 0.24257799983024597, -0.20650902390480042, -0.07852509617805481, -0.1642896831035614, 0.0126896221190691, 0.04145345464348793, -0.09907804429531097, 0.30917391180992126, -0.29857954382896423, 0.0064676254987716675, -0.13952992856502533, 0.2036140263080597, 0.23503661155700684, 0.22832481563091278, 0.27713292837142944, -0.10047656297683716, -0.1912781298160553, -0.2379218339920044, 0.10149962455034256, -0.05745634436607361, 0.3477048873901367, 0.18851976096630096, 0.090595543384552, -0.11126601696014404, 0.22071050107479095, 0.018046382814645767, -0.3366609811782837, 0.12935352325439453, -0.08699724078178406, -0.012675365433096886, 0.09882471710443497, 0.047874532639980316, 0.2319514900445938, 0.1608564853668213, 0.07206171005964279, 0.3536487817764282, -0.4321978688240051, -0.31052377820014954, -0.2558516561985016, -0.27899572253227234, -0.2029050886631012, 0.1097870022058487, 0.07765822112560272, 0.08066995441913605, -0.0822247639298439, 0.25578638911247253, 0.02029997482895851, -0.09368960559368134, 0.1145159900188446, 0.11497624963521957, -0.15797178447246552, 0.3062523603439331, 0.03031834214925766, 0.17895445227622986, -0.22682398557662964, -0.011536836624145508, -0.13858060538768768, -0.11056819558143616, 0.020170532166957855, 0.24256950616836548, 0.02431878261268139, -0.27480658888816833, 0.08600126206874847, -0.020579131320118904, -0.3724994957447052, 0.05092301964759827, 0.11123809963464737, -0.3537599742412567, 0.08576411008834839, -0.1646624654531479, 0.10076894611120224, -0.010459470562636852, -0.10142095386981964, 0.3075994849205017, -0.2678387463092804, 0.0742565467953682, 0.37596091628074646, -0.19589397311210632, -0.3573788106441498, 0.23601773381233215, -0.15849356353282928, 0.08041942119598389, 0.14424528181552887, 0.06264519691467285, -0.4117908477783203, 0.15326817333698273, 0.12129872292280197, 0.01362168975174427, -0.3059026002883911, 0.194838285446167, -0.05651520565152168, 0.050436560064554214, 0.1985478401184082, -0.03225443512201309, -0.10081873089075089, -0.3276972472667694, 0.10496675968170166, -0.12652334570884705, 0.028119657188653946, -0.32052066922187805, 0.31673571467399597, 0.34433114528656006, -0.017786040902137756, 0.18522828817367554, 0.1243685632944107, 0.10869090259075165, 0.16157996654510498, -0.04477997124195099, 0.12682627141475677, 0.1820894479751587, -0.28056323528289795, 0.2114727646112442, -0.18025144934654236, -0.0923968181014061, 0.09811902046203613, -0.19728811085224152, -0.23842811584472656, -0.14181342720985413, 0.3917124271392822, 0.2265845537185669, -0.060815636068582535, 0.09844847023487091, -0.09626279771327972, -0.2304134964942932, -0.034474704414606094, 0.1302921324968338, 0.09573286026716232, -0.21415990591049194, 0.29486536979675293, -0.05502743646502495, -0.13146160542964935, 0.136520117521286, 0.19619224965572357, 0.2701328694820404, 0.1469387263059616, -0.025009576231241226, 0.06384094059467316, 0.3026799261569977, -0.12472283095121384, 0.07050539553165436, -0.04980744794011116, -0.05631571263074875, 0.02245590277016163, 0.008347033523023129, -0.08441584557294846, 0.17805719375610352, 0.417179673910141, 0.28093457221984863, 0.0035871611908078194, 0.2221120297908783, -0.08508950471878052, -0.2027996927499771, -0.08709130436182022, -0.03068825975060463, 0.09746653586626053, 0.5032989978790283, -0.30398237705230713, 0.2828076481819153, -0.2158956676721573, 0.019943824037909508, 0.1091541275382042, 0.17632029950618744, -0.2130940705537796, 0.18292216956615448, -0.22164349257946014, 0.09959644079208374, -0.2420484572649002, -0.05797186866402626, 0.007250823546200991, 0.04667108505964279, 0.023590395227074623, 0.1846841424703598, 0.1159110963344574, 0.07562559098005295, -0.20691558718681335, 0.14372485876083374, -0.014422268606722355, 0.2693880796432495, 0.02297469973564148, -0.13957351446151733, -0.2567465007305145, -0.2585884630680084, -0.0045553939417004585, 0.009286128915846348, 0.14858309924602509, 0.006431514862924814, 0.1634737253189087, 0.1380116194486618, -0.2334696650505066, -0.3681715726852417, 0.09829701483249664, 0.12916627526283264, -0.08566226065158844, -0.021575570106506348, -0.2852267026901245, -0.19074484705924988, -0.051642246544361115, -0.06508666276931763, 0.09694774448871613, 0.1104830726981163, 0.023950012400746346, -0.000998703995719552, -0.22329069674015045, -0.1276145875453949, -0.3616825342178345, -0.07068803906440735, 0.1988050639629364, 0.006896518636494875, -0.1842346042394638, 0.020216234028339386, -0.10022325068712234, 0.06329885125160217, 0.262246310710907, -0.05952092632651329, 0.056627172976732254, -0.07405795156955719, -0.024729572236537933, 0.11643639951944351, 0.024979690089821815, -0.014069543220102787, 0.06504561007022858, -0.033733781427145004, 0.051747098565101624, -0.02248018980026245, -0.15801578760147095, -0.013636373914778233, 0.09217500686645508, -0.035916659981012344, -0.15471550822257996, -0.2153434008359909, -0.02256096713244915, 0.008250444196164608, 0.1474795937538147, 0.09705282747745514, 0.15703508257865906, -0.09396630525588989, 0.12427210807800293, 0.01270187459886074, -0.07883576303720474, -0.12064409255981445, -0.33598995208740234, 0.10272300243377686, 0.11091520637273788, 0.037686802446842194, 0.05014678090810776, 0.2035457342863083, 0.015820935368537903, 0.216985285282135, -0.0011570489732548594, 0.04847807064652443, -0.09064117074012756, -0.13448309898376465, 0.05384323373436928, 0.24012240767478943, 0.07631008327007294, -0.18507979810237885, 0.10757861286401749, -0.13222430646419525, 0.09707135707139969, -0.08180706948041916, -0.07937729358673096, 0.03124719299376011, 0.0947921946644783, 0.017599189653992653, -0.11496321111917496, 0.20547375082969666, 0.05473501980304718, -0.05887826532125473, -0.14694622159004211, 0.10707298666238785, -0.04260309785604477, -0.06965208798646927, -0.14325472712516785, 0.14380978047847748, 0.12465336173772812, -0.3702029883861542, 0.11374102532863617, -0.3522971570491791, -0.037690382450819016, -0.28587356209754944, 0.001848064363002777, 0.0874733030796051, 0.331605464220047, 0.01590178720653057, -0.14083030819892883, 0.10447374731302261, -0.04933524876832962, 0.30183902382850647, -0.3106439709663391, 0.08095475286245346, 0.3183191418647766, 0.27862271666526794, 0.05103440582752228, 0.16231775283813477, 0.08409972488880157, -0.14301180839538574, 0.23864711821079254, 0.0014830204891040921, -0.18334434926509857, -0.08559118211269379, 0.06417335569858551, -0.17421936988830566, 0.17849615216255188, -0.17865359783172607, 0.019209645688533783, -0.09788133203983307, 0.1926196664571762, 0.0014341796049848199, -0.26880311965942383, -0.1515718549489975, 0.10208317637443542, -0.005794051568955183, 0.21987976133823395, 0.050498466938734055, 0.051284756511449814, -0.1906452476978302, -0.16341252624988556, -0.001477763056755066, -0.18386542797088623, -0.025640331208705902, -0.0504775270819664, -0.014195706695318222, -0.0416533499956131, 0.11416156589984894, -0.21880972385406494, -0.3206285536289215, -0.014367063529789448, 0.2057771235704422, -0.07355471700429916, 0.08633258938789368, 0.035177502781152725, -0.014379210770130157, -0.00046781901619397104, 0.031069613993167877, -0.056657575070858, -0.095676489174366, -0.11846710741519928, -0.05141393095254898, 0.1922978013753891, -0.02475760690867901, -0.21221160888671875, 0.09430820494890213, 0.04083035886287689, 0.11836551874876022, 0.21843326091766357, 0.07648716866970062, -0.04726530984044075, 0.009076718240976334, -0.0143231600522995, 0.03733937069773674, 0.023088490590453148, -0.1372142732143402, 0.09701421856880188, -0.3896699845790863, -0.08249083161354065, 0.21834196150302887, -0.16599997878074646, -0.03362392634153366, 0.21480689942836761, 0.13837486505508423, -0.08105915784835815, 0.11454561352729797, 0.21159106492996216, 0.08549917489290237, -0.02308054268360138, 0.2442333698272705, 0.20657023787498474, 0.1025281548500061, -0.02818174473941326, 0.20599931478500366, 0.019361799582839012, -0.24023765325546265, 0.07911189645528793, -0.07193825393915176, 0.09816407412290573, 0.16159315407276154, -0.22591349482536316, 0.07941658049821854, -0.05132334679365158, -0.12805654108524323, -0.030481893569231033, -0.21175721287727356, 0.26705360412597656, -0.08304790407419205, 0.09251431375741959, -0.030255408957600594, -0.18815357983112335, 0.08753907680511475, -0.04135711118578911, 0.19334366917610168, 0.09930195659399033, -0.09493152052164078, 0.23177455365657806, 0.16675803065299988, 0.1066131517291069, -0.5101582407951355, 0.10331180691719055, 0.11341547966003418, -0.19571328163146973, -0.12431523948907852, 0.20228612422943115, -0.028194060549139977, 0.004508825019001961, -0.18412987887859344, -0.15254370868206024, -0.018686244264245033, 0.07054983079433441, 0.12175942957401276, 0.11685556918382645, -0.04772458225488663, 0.08487904071807861, 0.16022735834121704, 0.3532124161720276, -0.03766994923353195, 0.002414935966953635, -0.05347876623272896, 0.1619337797164917, -0.32231786847114563, -0.07818509638309479, -0.013158348388969898, -0.00669755507260561, 0.029869720339775085, 0.1491016000509262, 0.26519373059272766, -0.19440464675426483, 0.0019635274074971676, 0.274319589138031, -0.09203937649726868, 0.020792094990611076, 0.21417607367038727, 0.010332209058105946, 0.286961168050766, 0.19452141225337982, -0.27607619762420654, -0.028040263801813126, 0.2704390287399292, 0.06483913958072662, -0.20563717186450958, 0.0190897136926651, 0.1491347700357437, -0.022763770073652267, -0.003077958943322301, 0.2912050187587738, 0.14985017478466034, 0.02361884154379368, -0.07279373705387115, -0.0850432813167572, 0.04835997521877289, -0.026270629838109016, -0.010237671434879303, 0.14738428592681885, -0.0886082872748375, 0.12238610535860062, 0.0207009706646204, -0.05821958929300308, 0.10806982964277267, -0.037768855690956116, -0.013732236810028553, -0.22454215586185455, -0.13848908245563507, -0.10459300130605698, 0.19928205013275146, 0.2063550353050232, -0.011776715517044067, 0.053113024681806564, 0.03924306854605675, 0.13768446445465088, 0.06467137485742569, 0.11012915521860123, -0.0654323473572731, 0.16774441301822662, 0.11134450137615204, -0.000850859796628356, 0.24235613644123077, -0.2468498796224594, -0.053389593958854675, -0.13746017217636108, -0.24571770429611206, 0.05904749035835266, -0.06573864817619324, -0.06734245270490646, -0.05906572565436363, 0.18503987789154053, -0.10220251977443695, 0.013330564834177494, 0.1833975911140442, 0.19863726198673248, -0.12170130759477615, -0.04546406865119934, -0.10045311599969864, 0.05139791592955589, 0.05744416266679764, -0.222466379404068, 0.040004290640354156, 0.20718082785606384, 0.04188220575451851, -0.09844641387462616, -0.2394925355911255, 0.012722966261208057, -0.13248395919799805, -0.16493578255176544, 0.13896611332893372, 0.010944448411464691, -0.3385235667228699, -0.13228756189346313, -0.1969597041606903, 0.554166853427887, 0.15750545263290405, -0.05758904665708542, -0.35392993688583374, 0.19386149942874908, 0.0228049848228693, -0.1778658628463745, 0.045831482857465744, -0.038352303206920624, 0.2651069462299347, -0.2093503326177597, 0.45879194140434265, -0.1582256555557251, 0.23480376601219177, -0.021580060943961143, 0.01298787072300911, -0.05526617914438248, 0.09194087237119675, -0.17539994418621063, -0.16918042302131653, 0.10423222184181213, -0.2742699682712555, 0.015550324693322182, 0.06386209279298782, -0.08045646548271179, 