{"version": "0.5.4", "metadata": {"date": {"year": 2025, "month": 9, "day": 5, "hour": 11, "minute": 42, "second": 12}, "loudness": -24.663198471069336, "gain": 0.8360165408199605, "name": null, "modeled_by": null, "gear_type": null, "gear_make": null, "gear_model": null, "tone_type": null, "input_level_dbu": null, "output_level_dbu": null, "training": {"settings": {"ignore_checks": true}, "data": {"latency": {"manual": -4, "calibration": {"algorithm_version": 1, "delays": [-4], "safety_factor": 0, "recommended": -4, "warnings": {"matches_lookahead": false, "disagreement_too_high": false}}}, "checks": {"version": 1, "passed": true}}, "validation_esr": 0.01755794521601758}}, "architecture": "WaveNet", "config": {"layers": [{"input_size": 1, "condition_size": 1, "head_size": 8, "channels": 16, "kernel_size": 3, "dilations": [1, 2, 4, 8, 16, 32, 64, 128, 256, 512], "activation": "Tanh", "gated": false, "head_bias": false}, {"input_size": 16, "condition_size": 1, "head_size": 1, "channels": 8, "kernel_size": 3, "dilations": [1, 2, 4, 8, 16, 32, 64, 128, 256, 512], "activation": "Tanh", "gated": false, "head_bias": true}], "head": null, "head_scale": 0.02}, "weights": [-0.08357259631156921, 1.0982400178909302, -0.8409795165061951, -1.0617715120315552, -0.6652624607086182, 0.2953723073005676, -0.12388649582862854, 0.9219287037849426, -0.11426521092653275, 0.3152814507484436, -0.4611371159553528, -0.30240893363952637, -1.0484942197799683, -1.0250191688537598, -0.781588613986969, -0.2119300663471222, -0.05238873511552811, 0.31121790409088135, -0.03189973905682564, 0.045330457389354706, -0.16155339777469635, 0.02654803916811943, -0.13283535838127136, 0.31879138946533203, 0.07534521073102951, -0.09145531058311462, 0.3432108759880066, -0.041726112365722656, -0.19710800051689148, 0.1795467734336853, 0.03862209618091583, 0.23145698010921478, -0.303077757358551, -0.16316866874694824, -0.20053790509700775, 0.09528226405382156, 0.03551589697599411, 0.22777409851551056, -0.14495758712291718, -0.026761624962091446, -0.09745219349861145, 0.14340582489967346, 0.12348327040672302, -0.025031736120581627, -0.31610968708992004, -0.16693808138370514, -0.009875823743641376, 0.30102819204330444, 0.03925346955657005, -0.1125151515007019, 0.2952926456928253, 0.2327744960784912, -0.04483674466609955, 0.228928342461586, 0.1973847597837448, -0.18853750824928284, 0.23630918562412262, -0.01154617965221405, -0.20520755648612976, 0.1459718644618988, 0.1608915776014328, -0.023300940170884132, 0.15877565741539001, 0.00038734645931981504, 0.05991874635219574, -0.38555899262428284, 0.16291789710521698, 0.06321491301059723, 0.37835443019866943, -0.0443645678460598, -0.1395454853773117, -0.31912943720817566, 0.24630534648895264, 0.08364738523960114, -0.15999779105186462, 0.31219175457954407, -0.011906739324331284, -0.4187643826007843, 0.1983327567577362, -0.04009579122066498, 0.14975634217262268, -0.04935561493039131, 0.05053621158003807, -0.4481062889099121, 0.2183298021554947, 0.010612648911774158, 0.24939262866973877, -0.24821513891220093, 0.010253368876874447, -0.3773270547389984, 0.23700597882270813, 0.11915724724531174, 0.38207370042800903, -0.14061351120471954, -0.18526175618171692, -0.36885881423950195, 0.25720012187957764, -0.01971784234046936, -0.40004676580429077, 0.08807004243135452, 0.10095179080963135, -0.1676989495754242, 0.12206379324197769, -0.07050848007202148, -0.40493735671043396, 0.1815756857395172, -0.1387026607990265, -0.40720972418785095, 0.17729221284389496, -0.11420775949954987, -0.5115296244621277, 0.2030538022518158, 0.30198365449905396, -0.0774606317281723, -0.1805240511894226, -0.4906938970088959, 0.13570620119571686, 0.27513620257377625, 0.37118467688560486, -0.1435822695493698, -0.20047113299369812, 0.37678971886634827, -0.24424970149993896, -0.18821510672569275, 0.23709066212177277, -0.2606038451194763, -0.29163962602615356, -0.4317069351673126, 0.1301037222146988, 0.12900105118751526, 0.35052958130836487, -0.17089225351810455, -0.3305264115333557, -0.3663715720176697, 0.2702754735946655, 0.23625044524669647, 0.3841789662837982, -0.18451127409934998, -0.20190000534057617, -0.2819446325302124, 0.31929656863212585, 0.3328726887702942, 0.5013176202774048, -0.18278314173221588, -0.37564486265182495, 0.30192825198173523, -0.06462284177541733, -0.2426338791847229, 0.2795318067073822, -0.2812357544898987, -0.3873326778411865, 0.23410797119140625, -0.19550567865371704, -0.17490214109420776, 0.45101410150527954, -0.3171948194503784, -0.17413268983364105, 0.35991132259368896, -0.20062752068042755, -0.26738566160202026, -0.2126537263393402, 0.373930424451828, -0.11233583837747574, 0.05441984906792641, -0.3929113447666168, -0.041762180626392365, -0.23632654547691345, 0.42608293890953064, -0.08941248059272766, -0.1947673112154007, 0.4992218315601349, -0.025240350514650345, -0.06335815787315369, 0.4265599846839905, -0.10003579407930374, 0.2775716185569763, -0.3905324935913086, -0.0928247720003128, -0.10402560979127884, 0.26914703845977783, 0.020056825131177902, 0.1481189727783203, -0.2570078670978546, 0.004184842109680176, -0.1331043392419815, 0.4197405278682709, -0.026050666347146034, 0.17042948305606842, -0.500098466873169, 0.0604025274515152, -0.07316946238279343, 0.46248531341552734, -0.07648400962352753, -0.18544524908065796, 0.25254249572753906, -0.05019565671682358, -0.2574356198310852, 0.41162100434303284, -0.04540247470140457, -0.1774207055568695, 0.3639501929283142, 0.13433556258678436, -0.29257041215896606, 0.28061172366142273, -0.05033070221543312, -0.24903693795204163, 0.30086007714271545, 0.030669504776597023, 0.016117269173264503, -0.02927699126303196, -0.17293238639831543, -0.03872499242424965, 0.04759998992085457, 0.0959363803267479, 0.004796470515429974, -0.0051438575610518456, -0.23701289296150208, -0.07270011305809021, 0.09268337488174438, -0.24306896328926086, -0.0076119983568787575, 0.11852891743183136, -0.07450131326913834, -0.00458628311753273, -0.10589364916086197, 0.1953894942998886, -0.09130765497684479, -0.05766284838318825, -0.17327752709388733, -0.025958005338907242, 0.032043199986219406, 0.2470790445804596, 0.0037173123564571142, 0.09817689657211304, -0.05613676458597183, -0.08406011015176773, 0.08595165610313416, 0.028476392850279808, -0.05697154253721237, 0.013116632588207722, -0.08335070312023163, 0.11823742836713791, -0.07218220084905624, -0.1221839040517807, 0.08029744029045105, -0.16949793696403503, -0.023150969296693802, -0.10840093344449997, -0.030277160927653313, -0.15259741246700287, -0.07009075582027435, -0.002290718024596572, -0.0056194644421339035, 0.007550983224064112, 0.020167816430330276, -0.09453330188989639, 0.15195339918136597, 0.2352074831724167, -0.4657984972000122, -0.3591761291027069, -0.2196468561887741, 0.43896251916885376, 0.3275040090084076, 0.23355340957641602, -0.29526856541633606, 0.2203284502029419, 0.09735586494207382, -0.30983805656433105, 0.3966083228588104, 0.18081600964069366, -0.4257962703704834, -0.3363046646118164, -0.26854002475738525, 0.38010942935943604, 0.22795280814170837, 0.009095769375562668, -0.23951412737369537, -0.35250794887542725, -0.14832384884357452, 0.3789327144622803, 0.2893996238708496, 0.04990227892994881, -0.46675488352775574, -0.16630829870700836, -0.11468759179115295, 0.47942110896110535, 0.21938055753707886, 0.17837202548980713, -0.37364739179611206, 0.2699829936027527, 0.054605673998594284, -0.2817247807979584, 0.2980150282382965, 0.12167159467935562, -0.37003669142723083, 0.16532374918460846, 0.22776435315608978, -0.4419930577278137, 0.328428715467453, 0.09121158719062805, -0.4333714544773102, 0.4657299220561981, 0.17937839031219482, -0.37222135066986084, 0.22456763684749603, -0.09911754727363586, -0.02354441024363041, -0.1183682456612587, 0.03672328591346741, 0.01920253224670887, 0.06420798599720001, -0.0020357188768684864, 0.015343202278017998, 0.13144218921661377, 0.07323407381772995, 0.059962112456560135, 0.11104141920804977, 0.01912950538098812, 0.023684624582529068, -0.17212316393852234, -0.0038913229946047068, 0.05740944668650627, 0.07693011313676834, 0.01486208662390709, 0.04945830628275871, -0.04868202656507492, 0.0646403431892395, 0.0543261356651783, 0.2665044367313385, -0.04384167119860649, -0.14711588621139526, -0.3223666250705719, 0.12031398713588715, 0.12089776992797852, 0.07795977592468262, 0.07074224203824997, 0.06675978004932404, 0.31776708364486694, 0.13750986754894257, 0.06792910397052765, 0.14592860639095306, -0.029919281601905823, 0.08345558494329453, 0.25677940249443054, -0.06710539013147354, 0.09135621041059494, 0.25643864274024963, 0.09698709845542908, -0.12690004706382751, 0.20669323205947876, -0.09140313416719437, 0.04217437282204628, -0.4028036892414093, 0.028012512251734734, 0.227361798286438, 0.41577059030532837, -0.01416340097784996, -0.12240753322839737, -0.43804728984832764, 0.0019934438169002533, 0.08732335269451141, -0.496041476726532, -0.1546095311641693, 0.2980410158634186, -0.2806030213832855, 0.09642217308282852, 0.30172407627105713, 0.2176387906074524, -0.0612386092543602, -0.19844473898410797, -0.4291195273399353, 0.09609366953372955, 0.09360327571630478, 0.275395005941391, -0.10191889107227325, -0.26178470253944397, -0.2509978413581848, 0.06838484108448029, 0.26423725485801697, 0.4692644774913788, 0.17243607342243195, -0.20519788563251495, -0.2803722023963928, 0.09398838877677917, 0.22755180299282074, -0.20562754571437836, 0.034411635249853134, 0.2649155259132385, -0.3884684443473816, 0.03506987914443016, 0.19539278745651245, -0.37189868092536926, -0.11395695805549622, 0.10055796802043915, -0.4681777060031891, 0.06194734945893288, 0.29504576325416565, -0.3021821081638336, 0.011664927937090397, 0.44536304473876953, 0.34573376178741455, -0.22547617554664612, -0.2007446587085724, -0.08735423535108566, 0.2870580554008484, 0.0060660880990326405, 0.3392523229122162, -0.11576862633228302, -0.17365068197250366, 0.29865798354148865, -0.30199989676475525, -0.13660471141338348, 0.344999223947525, -0.21473373472690582, -0.21584369242191315, -0.26591891050338745, 0.17355582118034363, 0.08339546620845795, 0.241017684340477, -0.09570464491844177, -0.11570946872234344, -0.2998880445957184, 0.22578316926956177, 0.17979687452316284, 0.30295008420944214, -0.33607202768325806, -0.12651480734348297, -0.32292070984840393, 0.15316317975521088, 0.16765394806861877, 0.10687097907066345, -0.1701822727918625, 0.0028944823425263166, 0.23375247418880463, -0.30317360162734985, -0.1505100578069687, 0.23343545198440552, -0.33250099420547485, -0.044600311666727066, 0.07549567520618439, -0.362782746553421, -0.2541765570640564, 0.19273963570594788, -0.12990039587020874, -0.25508877635002136, 0.4350237548351288, -0.22603589296340942, -0.10062459856271744, 0.3481312692165375, -0.5682262182235718, -0.13313207030296326, -0.2325609177350998, 0.5478397607803345, 0.3372125029563904, 0.19977809488773346, -0.27703985571861267, -0.24611619114875793, 0.38021644949913025, -0.5183020234107971, -0.2976224422454834, 0.17857852578163147, -0.4627533555030823, -0.2278069406747818, -0.42297524213790894, 0.4476419985294342, 0.32561400532722473, 0.36726540327072144, -0.5120167136192322, -0.35938000679016113, -0.3467501401901245, 0.45236802101135254, 0.3916856348514557, 0.4016205966472626, -0.4150625765323639, -0.18567007780075073, -0.4629712998867035, 0.2840701937675476, 0.3130924105644226, 0.23071421682834625, -0.3248947560787201, -0.34708261489868164, 0.2452629953622818, -0.5010682940483093, -0.16603100299835205, 0.28152263164520264, -0.2775522768497467, -0.16034100949764252, 0.379679799079895, -0.3819005489349365, -0.29454663395881653, 0.2826584279537201, -0.39520591497421265, -0.19361631572246552, 0.3802604675292969, -0.26880258321762085, -0.22150148451328278, -0.06349866092205048, -0.3370198905467987, 0.19534887373447418, 0.09444212168455124, 0.13371475040912628, 0.04724275320768356, 0.10494443029165268, -0.17266945540905, 0.17493146657943726, -0.03619007766246796, -0.2133353352546692, 0.1191057562828064, 0.005057111848145723, -0.21184025704860687, 0.023571858182549477, 0.05088847875595093, 0.22841085493564606, -0.10481993108987808, 0.11385808140039444, -0.21172623336315155, 0.02375415340065956, -0.02551271952688694, 0.33879509568214417, -0.06999466568231583, 0.1037726104259491, -0.2770162522792816, 0.12811851501464844, -0.15237292647361755, 0.1768244057893753, -0.14103925228118896, 0.1745954006910324, -0.29855993390083313, 0.06094179302453995, -0.021691879257559776, -0.11195777356624603, 0.19561171531677246, -0.07470481097698212, -0.37356048822402954, -0.05667036771774292, 0.03343018516898155, -0.2968425154685974, -0.04227914661169052, -0.012679650448262691, -0.23786206543445587, -0.013630229979753494, 0.1943444460630417, -0.22665493190288544, 0.1238638162612915, 0.2554832696914673, -0.027537938207387924, -0.01347893662750721, -0.2313966304063797, 0.08760079741477966, 0.0896027460694313, 0.09857963025569916, -0.2713882327079773, 0.1910744309425354, 0.13950473070144653, -0.11910241842269897, 0.028939610347151756, 0.19945719838142395, -0.1807849109172821, 0.13009218871593475, -0.22249934077262878, -5.594822141574696e-05, -0.1265265792608261, 0.18727533519268036, -0.05325046926736832, -0.051641419529914856, -0.09440290927886963, 0.10585466772317886, -0.06938760727643967, 0.32479944825172424, -0.08561144769191742, 0.1521293669939041, -0.15060876309871674, 0.10208183526992798, -0.13232022523880005, 0.22915126383304596, -0.01402636431157589, -0.0005524465814232826, 0.09313002973794937, -0.07649970054626465, 0.1827644258737564, 0.1921195089817047, -0.25194987654685974, -0.08528400957584381, 0.2701907753944397, -0.14385651051998138, -0.02667294256389141, 0.2639589309692383, -0.09421102702617645, 0.1600494533777237, 0.3919304311275482, -0.15333174169063568, -0.026282424107193947, 0.27006492018699646, 0.42460915446281433, 0.11047274619340897, -0.3459590971469879, -0.38748273253440857, 0.11915498226881027, 0.5297340154647827, 0.377525269985199, -0.11393702775239944, 0.3521677255630493, 0.15948596596717834, 0.1468753218650818, 0.3478837013244629, 0.1949537694454193, 0.08423934131860733, -0.4696381390094757, -0.3309513032436371, -0.031063642352819443, 0.38842785358428955, 0.1470828503370285, 0.13413570821285248, -0.46466922760009766, -0.20370618999004364, 0.10998028516769409, 0.46437275409698486, 0.2718152105808258, 0.1310875564813614, -0.3924926519393921, -0.32740482687950134, 0.12696832418441772, 0.4445059597492218, 0.12040874361991882, -0.022758079692721367, 0.3106978237628937, 0.39128577709198, 0.0036551053635776043, 0.26463982462882996, 0.23926463723182678, 0.10246542096138, 0.4403771162033081, 0.29866838455200195, 0.029611162841320038, 0.46062126755714417, 0.22462090849876404, -0.051737360656261444, 0.21041519939899445, 0.10395451635122299, 0.036867134273052216, -0.32966190576553345, -0.008408207446336746, 0.3445493280887604, 0.2485993653535843, -0.0729159563779831, -0.1294848769903183, -0.30828791856765747, 0.10486692935228348, 0.15275870263576508, -0.2749713063240051, 0.053156375885009766, 0.20510154962539673, -0.1250593066215515, -0.12691108882427216, 0.145586296916008, 0.17474736273288727, 0.047925759106874466, -0.1322452276945114, -0.3213519752025604, 0.03170529752969742, 0.257086843252182, 0.20079566538333893, 0.1267004758119583, -0.3708711862564087, -0.2255905270576477, 0.10333151370286942, 0.24800339341163635, 0.35366931557655334, -0.019054433330893517, -0.15860266983509064, -0.37496334314346313, -0.03929683566093445, 0.24328932166099548, -0.20227380096912384, 0.021011630073189735, 0.3572252094745636, -0.24674290418624878, -0.020029596984386444, 0.36278036236763, -0.26803523302078247, 0.1112164705991745, 0.16633400321006775, -0.25781628489494324, -0.031558092683553696, 0.3340452313423157, -0.2715475261211395, -0.14079563319683075, 0.18550832569599152, -0.012541634030640125, 0.16005752980709076, -0.1121629998087883, -0.041043721139431, -0.028166232630610466, 0.24793750047683716, -0.03849329054355621, -0.02270430140197277, -0.01082584261894226, -0.15387490391731262, 0.15745262801647186, -0.08835050463676453, -0.10939881950616837, 0.18006470799446106, -0.2361440509557724, 0.07184349000453949, -0.2116059809923172, 0.09445755928754807, -0.002039946150034666, 0.25245821475982666, -0.1768052577972412, 0.14111630618572235, -0.1298927515745163, 0.04135418310761452, -0.17469707131385803, -0.013177946209907532, 0.021043922752141953, 0.011406252160668373, -0.11678216606378555, 0.15517787635326385, 0.04994859918951988, 0.2354535013437271, 0.0019692133646458387, -0.13948747515678406, 0.0999906063079834, -0.18508827686309814, -0.13147221505641937, 0.1420413851737976, 0.024529000744223595, -0.1624215692281723, 0.19641341269016266, -0.1845468282699585, -0.07453083246946335, 0.24744509160518646, -0.1398232877254486, 0.07033330202102661, 0.19946353137493134, 0.0407063290476799, 0.1973493993282318, 0.22882109880447388, -0.256722092628479, -0.30597901344299316, -0.3973515033721924, 0.3124120533466339, 0.3072958290576935, 0.21952103078365326, -0.23537904024124146, 0.3304401636123657, 0.373748242855072, -0.37421149015426636, 0.1927289217710495, 0.2358582466840744, -0.41470253467559814, -0.2064497470855713, -0.1639682501554489, 0.41139888763427734, 0.20861901342868805, 0.29897862672805786, -0.3649466931819916, -0.09192988276481628, -0.33060023188591003, 0.19532571732997894, 0.2300064116716385, 0.3688087463378906, -0.42037233710289, -0.07969378679990768, -0.220704585313797, 0.19155512750148773, 0.1684378832578659, 0.3893577456474304, -0.4126177430152893, 0.17249754071235657, 0.331772118806839, -0.403918981552124, 0.27335187792778015, 0.33505794405937195, -0.20990800857543945, 0.10358988493680954, 0.40767163038253784, -0.38495680689811707, 0.3470851480960846, 0.1422404795885086, -0.43665122985839844, 0.31378623843193054, 0.340435653924942, -0.3020617663860321, 0.0032918634824454784, -0.08840569853782654, 0.008073925971984863, -0.025459222495555878, 0.031303808093070984, 0.018423061817884445, 0.002798467641696334, 0.01795334927737713, 0.16111361980438232, 0.004197581205517054, 0.060607969760894775, -0.05313750356435776, -0.02327295020222664, -0.08028693497180939, -0.029393093660473824, 0.009616438299417496, 0.34667930006980896, -0.609927773475647, 1.049394965171814, -0.7477319836616516, 0.12839478254318237, 1.2318272590637207, 1.0282849073410034, -0.7540814876556396, 0.2904666066169739, 0.3669612407684326, -0.5157763957977295, -0.3890623450279236, 0.25704509019851685, -0.9553996324539185, 0.2749294340610504, 0.7270310521125793, -0.20271719992160797, 0.1461334079504013, -0.17861972749233246, 0.14411836862564087, 0.2700097858905792, -0.2451898604631424, 0.3597484230995178, 0.07351067662239075, 0.024616623297333717, -0.1703304499387741, 0.10536281019449234, -0.07452168315649033, 0.03539588302373886, 0.08212444186210632, 0.17671321332454681, -0.15094242990016937, -0.00830620527267456, -0.0022392654791474342, -0.04914760962128639, 0.1612834483385086, -0.07786203175783157, -0.005279142875224352, -0.21290422976016998, -0.1497166007757187, -0.06694971770048141, 0.11136691272258759, -0.12056663632392883, 0.09248223155736923, 0.18968108296394348, 0.06512213498353958, -0.13621096312999725, 0.19630412757396698, -0.1566847413778305, -0.0038695724215358496, -0.17092137038707733, 0.18978072702884674, 0.16669729351997375, -0.11830805987119675, 0.1592709720134735, 0.08063573390245438, 0.11762015521526337, -0.27965104579925537, 0.05977178364992142, -0.19869191944599152, 0.0582151785492897, 0.13523735105991364, 0.03446918725967407, -0.09675867855548859, 0.15792067348957062, 0.1510760635137558, 0.07287561148405075, -0.1668701320886612, -0.15301816165447235, -0.03394125774502754, 0.35502898693084717, 0.05125907063484192, -0.11476881802082062, 0.06469004601240158, 0.01743214949965477, 0.24315592646598816, 0.04386673495173454, 0.18598780035972595, -0.2258322685956955, -0.21276171505451202, -0.12284182012081146, 0.051059313118457794, -0.14790880680084229, 0.2639051377773285, 0.07900992035865784, -0.0976477712392807, 0.2962183356285095, -0.029719356447458267, -0.07799666374921799, 0.0031372280791401863, -0.042031172662973404, 0.32723644375801086, -0.1323697417974472, 0.11100265383720398, -0.002285825787112117, 0.03270437568426132, -0.014735089614987373, -0.07547897845506668, 0.2529147267341614, -0.05323302373290062, 0.04128313809633255, 0.2012522667646408, -0.2069522738456726, -0.05479888617992401, 0.12354080379009247, 0.10772170126438141, -0.2295098751783371, -0.21378959715366364, 0.0985286608338356, -0.06344158202409744, 0.009885999374091625, 0.23272451758384705, -0.249139204621315, 0.08400160819292068, 0.11195915192365646, 0.2119399756193161, 0.038518767803907394, -0.08965250104665756, 0.4628696143627167, 0.009510482661426067, 0.029487373307347298, -0.21324613690376282, -0.11754349619150162, 0.12119989842176437, 0.12328463792800903, -0.16478309035301208, -0.028984909877181053, -0.19922098517417908, 0.17032445967197418, -0.06956400722265244, 0.13294671475887299, -0.2353212684392929, -0.2565411329269409, 0.01895757205784321, -0.03928316757082939, 0.0021355561912059784, 0.28617730736732483, -0.16978995501995087, 0.2378854602575302, -0.3055650293827057, 0.21704070270061493, -0.18459314107894897, -0.11394381523132324, 0.015453909523785114, -0.0016111532459035516, -0.015986967831850052, -0.20488522946834564, -0.034320708364248276, 0.4160444140434265, -0.044641073793172836, -0.02576521225273609, 0.1956905573606491, -0.04000772908329964, -0.1256440281867981, 0.0061901831068098545, -0.2291382998228073, 0.04297100007534027, 0.029901588335633278, 0.3366379737854004, -0.005320624448359013, 0.2177582085132599, -0.05568034201860428, 0.24752168357372284, -0.28374937176704407, -0.2770088315010071, -0.07669637352228165, 0.20197930932044983, -0.41914257407188416, -0.07488689571619034, 0.3283926248550415, -0.062562495470047, 0.0751241073012352, 0.22336964309215546, 0.16388510167598724, -0.16465984284877777, 0.32135334610939026, 0.06025705859065056, 0.07220298796892166, -0.17623905837535858, 0.21034014225006104, 0.04631389304995537, -0.14946861565113068, 0.15425215661525726, -0.09079774469137192, 0.03949186950922012, -0.09878840297460556, -0.15196257829666138, 0.034612998366355896, -0.197950541973114, 0.09487216919660568, -0.03997338190674782, 0.16773629188537598, 0.005141531117260456, 0.07240740954875946, -0.06497327238321304, 0.03094635158777237, 0.18597424030303955, -0.07351099699735641, 0.08415256440639496, 0.049132026731967926, -0.10510709881782532, -0.11968259513378143, -0.039839234203100204, -0.13243083655834198, -0.22380965948104858, 0.16096360981464386, -0.048139788210392, -0.08332931250333786, -0.13309641182422638, -0.11730699241161346, -0.031444430351257324, 0.04028276354074478, 0.23388671875, -0.12434319406747818, 0.03941929712891579, 0.10364095121622086, 0.2510872483253479, -0.10804267227649689, -0.12624138593673706, -0.029840175062417984, 0.1651221364736557, -0.18881668150424957, -0.2240862101316452, 0.13882821798324585, -0.24053575098514557, -0.21723181009292603, 0.1627209484577179, -0.05367644131183624, 0.026996679604053497, 0.17548933625221252, 0.3216661810874939, -0.04214072227478027, 0.18129704892635345, 0.09323300421237946, 0.055739548057317734, -0.1116153821349144, -0.08118785172700882, -0.16970252990722656, -0.1545790433883667, 0.21581019461154938, -0.2573651969432831, 0.17838813364505768, -0.14508333802223206, -0.04025779291987419, 0.2530921399593353, -0.1667967140674591, 0.3261319100856781, 0.27840837836265564, -0.08642975986003876, -0.07524292171001434, 0.17736755311489105, -0.09903367608785629, 0.00936994981020689, 0.26169353723526, 0.016934845596551895, -0.2496708333492279, -0.03659449517726898, 0.12412978708744049, -0.1491374969482422, 0.16328191757202148, -0.10081839561462402, 0.08610159903764725, 0.4978547990322113, 0.25402867794036865, 0.028369076550006866, -0.3033216595649719, -0.035800714045763016, -0.10304810106754303, -0.09625432640314102, 0.03297100588679314, 0.10886617749929428, -0.3224693238735199, -0.020857935771346092, -0.09574440121650696, 0.16087129712104797, -0.10894498974084854, -0.06299260258674622, 0.08000069856643677, 0.03193880245089531, -0.009722290560603142, -0.003648733254522085, -0.1952202469110489, -0.01163435447961092, 0.045697882771492004, -0.008323500864207745, 0.08879948407411575, 0.04609915241599083, -0.057507116347551346, -0.07856486737728119, -0.31073710322380066, 0.529167115688324, -0.12649068236351013, -0.032265812158584595, 0.024012723937630653, -0.2412954568862915, -0.06336268037557602, 0.22671851515769958, -0.19664736092090607, -0.028893157839775085, 0.1621207594871521, -0.1417461633682251, -0.10304361581802368, 0.2386653572320938, 0.18616889417171478, -0.05964469164609909, -0.24300485849380493, -0.30256199836730957, -0.2929297685623169, 0.16064345836639404, 0.10872483253479004, -0.0850120559334755, -0.3306608498096466, -0.34609878063201904, 0.41103285551071167, 0.20865873992443085, -0.01660309173166752, -0.01341657992452383, -0.4279177784919739, -0.28097039461135864, -0.06213994696736336, 0.1946476697921753, -0.2727552056312561, -0.0509643629193306, 0.33645960688591003, -0.2326292246580124, 0.024691594764590263, 0.11659467965364456, -0.055268432945013046, 0.015410334803164005, -0.12985266745090485, -0.014809316955506802, -0.009494084864854813, 0.40359100699424744, -0.046303655952215195, -0.04150775447487831, 0.24592718482017517, -0.44298404455184937, 0.2944837808609009, -0.02226906642317772, -0.08475575596094131, -0.2326790988445282, -0.10218542069196701, -0.05091487988829613, 0.07139863818883896, 0.010499988682568073, -0.1386508047580719, 0.2185184508562088, -0.061020031571388245, 0.029534319415688515, -0.0201749075204134, 0.12372157722711563, -0.07507969439029694, -0.4525706470012665, -0.0201453547924757, 0.04679159075021744, 0.055905506014823914, -0.1919938027858734, 0.14617055654525757, -0.12834420800209045, 0.06983096897602081, 0.02088540978729725, -0.17453885078430176, -0.44091492891311646, 0.09522272646427155, -0.1898055374622345, 0.040460407733917236, 0.028033744543790817, 0.08677726238965988, -0.13061587512493134, -0.03359808400273323, 0.16162700951099396, 0.10453808307647705, -0.11395825445652008, -0.07702676206827164, -0.08873429149389267, -0.0725187286734581, 0.06785944104194641, 0.07965771108865738, -0.20364230871200562, 0.2128133922815323, 0.12487905472517014, 0.0005812092567794025, 0.5310694575309753, -0.09858023375272751, 0.4535024166107178, -0.11266882717609406, -0.04275457561016083, 0.04754238948225975, 0.2019871473312378, -0.03882449120283127, -0.022405199706554413, -0.04134718328714371, -0.05031619966030121, 0.17488764226436615, 0.0024382974952459335, -0.04608490318059921, 0.21052129566669464, 0.01259641908109188, 0.08070629835128784, -0.1919064223766327, 0.08636876195669174, 0.17113099992275238, 0.3865720331668854, -0.17993353307247162, -0.1320202350616455, -0.30215761065483093, -0.18383793532848358, 0.14092612266540527, 0.09130445867776871, -0.36886775493621826, -0.24579645693302155, -0.527442455291748, 0.11654412746429443, -0.015182881616055965, -0.07919987291097641, -0.18148551881313324, -0.04613597318530083, 0.4356899857521057, 0.11188264191150665, -0.04949243739247322, -0.13170315325260162, -0.2731079161167145, -0.23122352361679077, -0.21791717410087585, -0.1944713443517685, -0.14253588020801544, 0.08244019001722336, 0.1728110909461975, 0.21514758467674255, 0.3359687924385071, 0.15947236120700836, 0.13962168991565704, -0.1509743183851242, -0.15048153698444366, -0.29096749424934387, -0.11346494406461716, 0.2934822142124176, 0.17321249842643738, 0.23051275312900543, -0.043423015624284744, -0.10334346443414688, 0.19875618815422058, 0.15701720118522644, 0.09582236409187317, 0.11273957788944244, 0.02441680245101452, 0.02881331369280815, -0.06035188212990761, 0.10954400151968002, -0.0033608186058700085, 0.13882789015769958, 0.01394311711192131, 0.05774589255452156, -0.28795990347862244, -0.14764434099197388, -0.11827847361564636, 0.2752196192741394, -0.030049432069063187, 0.00971632357686758, -0.09816078841686249, -0.0556473545730114, 0.18570132553577423, 0.33518186211586, 0.09193108230829239, 0.10990377515554428, 0.19184903800487518, 0.2048160284757614, 0.1298622488975525, 0.1587599813938141, 0.1775423139333725, 0.0617121160030365, 0.27822038531303406, -0.29404783248901367, -0.22939151525497437, -0.07176567614078522, -0.07287522405385971, 0.05422369763255119, 0.20902268588542938, -0.020776692777872086, 0.04214834049344063, -0.1920388787984848, -0.09408236294984818, -0.24672247469425201, 0.20133677124977112, 0.3633717894554138, 0.17805272340774536, -0.01544317789375782, 0.11187515407800674, 0.05676092207431793, -0.16299955546855927, 0.003946996293962002, 0.1910749226808548, -0.034832168370485306, -0.013048656284809113, -0.1476714015007019, -0.07207915931940079, 0.11246521025896072, -0.03162751719355583, 0.09273497015237808, -0.10894961655139923, -0.025174569338560104, -0.1038505956530571, -0.05881139263510704, 0.0380215086042881, 0.14660732448101044, 0.19440089166164398, 0.046101685613393784, -0.09435540437698364, -0.15223461389541626, 0.08959092944860458, 0.17729616165161133, 0.004214142914861441, 0.01881653629243374, 0.12018110603094101, 0.06517977267503738, 0.06460234522819519, -0.23014217615127563, -0.1700040102005005, 0.1542890965938568, 0.048472825437784195, -0.22500789165496826, -0.02202806994318962, -0.022477950900793076, -0.11274978518486023, -0.02507135272026062, 0.09975294768810272, 0.07703828066587448, -0.12491239607334137, -0.08657297492027283, -0.44419434666633606, 0.5413180589675903, -0.1475108414888382, 0.15168574452400208, 0.03845306485891342, -0.17197199165821075, -0.20301401615142822, 0.28132203221321106, -0.11062932759523392, -0.08491522818803787, 0.17438139021396637, -0.16831696033477783, -0.05998586118221283, 0.15130509436130524, 0.22280943393707275, 0.1862902194261551, -0.45745301246643066, -0.03229266405105591, -0.33497411012649536, 0.21704448759555817, 0.18976037204265594, 0.052729710936546326, 0.014144250191748142, 0.15499354898929596, -0.0809084102511406, 0.07144349813461304, 0.16778913140296936, 0.15145237743854523, -0.42101478576660156, 0.0022779779974371195, -0.05549785867333412, 0.3288497030735016, 0.10531321167945862, -0.22901086509227753, 0.4046492874622345, -0.018566392362117767, -0.002697278978303075, 0.18286164104938507, -0.11604505777359009, -0.11951316148042679, 0.03556862473487854, -0.23634938895702362, -0.32479530572891235, -0.09233899414539337, -0.1682163029909134, -0.24382886290550232, 0.47803568840026855, 0.27563077211380005, -0.23125998675823212, -0.41267937421798706, -0.05326462537050247, 0.20530080795288086, -0.22225245833396912, 0.02077845111489296, -0.18828023970127106, -0.1894223690032959, 0.21623000502586365, -0.03772788494825363, -0.14432090520858765, 0.03647579625248909, 0.08755699545145035, -0.1810927540063858, -0.040010642260313034, 0.18773646652698517, 0.39030754566192627, 0.16116958856582642, -0.12494564056396484, -0.05930401012301445, -0.18102669715881348, 0.14396287500858307, 0.20580273866653442, 0.26144373416900635, -0.39857661724090576, -0.6162382364273071, -0.027675071731209755, 0.19406698644161224, 0.2821352183818817, 0.1668817549943924, -0.08702413737773895, -0.18449635803699493, 0.009226894937455654, 0.00946003571152687, -0.2778642475605011, 0.16423778235912323, 0.00316718895919621, -0.0850873813033104, 0.04484875872731209, 0.13220222294330597, -0.036516088992357254, 0.06945526599884033, -0.24190062284469604, -0.39028480648994446, 0.026616213843226433, -0.22843852639198303, -0.278728187084198, -0.07751988619565964, -0.3777543604373932, 0.05747228488326073, 0.20235837996006012, 0.1390475034713745, 0.12137220054864883, -0.07161414623260498, -0.18895134329795837, 0.06942197680473328, 0.09145743399858475, -0.1570824682712555, -0.1792675256729126, 0.049630336463451385, -0.14013122022151947, -0.19524195790290833, 0.13287435472011566, 0.17649909853935242, 0.00539217097684741, 0.038686443120241165, -0.4776010513305664, -0.0636940598487854, -0.01277629379183054, -0.08241232484579086, -0.024843264371156693, -0.008911269716918468, -0.2564125061035156, 0.27710533142089844, 0.06784217804670334, 0.4922785460948944, -0.05212530493736267, 0.09445712715387344, -0.19807203114032745, 0.012815205380320549, 0.03139977157115936, -0.4043971002101898, 0.0023632445372641087, -0.015990758314728737, -0.004648745059967041, -0.022247854620218277, -0.05986772105097771, 0.20016370713710785, -0.025629714131355286, 0.19916802644729614, -0.08439260721206665, 0.07196583598852158, -0.017301062121987343, -0.5679243803024292, -0.05295122042298317, -0.12216766923666, 0.014084720984101295, -0.12090673297643661, 0.032186541706323624, 0.43299323320388794, -0.29692214727401733, 0.0881209671497345, 0.21017174422740936, 0.1786143183708191, 0.16586074233055115, -0.10944110155105591, -0.01031538937240839, 0.16497702896595, -0.006576728541404009, 0.08613845705986023, 0.02971208654344082, 0.31117191910743713, -0.03295959159731865, 0.10983501374721527, 0.10833536833524704, 0.0876641497015953, -0.1396012157201767, -0.10637969523668289, 0.09509655088186264, -0.3440729081630707, 0.26633572578430176, -0.15454815328121185, 0.22620898485183716, 0.07777808606624603, -0.04422450065612793, 0.1009456068277359, 0.12116662412881851, -0.07509124279022217, -0.14143191277980804, 0.07252620160579681, 0.14524340629577637, 0.07906455546617508, 0.21842870116233826, 0.13204389810562134, -0.004345187451690435, -0.26582765579223633, -0.07201503217220306, -0.22072172164916992, -0.5457174181938171, 0.04852011054754257, -0.30811548233032227, -0.0709298700094223, -0.08127684146165848, -0.4338621199131012, 0.4301670491695404, -0.028134148567914963, -0.04961301386356354, -0.15812858939170837, 0.19366952776908875, -0.10755506902933121, -0.05469413101673126, 0.07854639738798141, 0.0035430691204965115, 0.1597370207309723, -0.07378197461366653, 0.06694726645946503, -0.00016798253636807203, -0.007398352958261967, 0.08025121688842773, -0.19492091238498688, 0.125978484749794, 0.02840602956712246, 0.0009188594412989914, -0.01658693514764309, -0.05860094726085663, 0.12586739659309387, -0.004196298308670521, -0.2179858684539795, -0.1910097301006317, 0.2950589060783386, 0.3424254059791565, 0.03292208909988403, -0.10725048184394836, -0.1499982476234436, -0.08939001709222794, 0.22158989310264587, -0.25891321897506714, -0.2774987518787384, 0.1508198231458664, 0.13914944231510162, -0.17322607338428497, -0.0917239636182785, -0.0792032927274704, 0.07818211615085602, 0.08925250917673111, -0.19886988401412964, 0.22366805374622345, -0.06366588920354843, -0.4464416205883026, -0.2062709927558899, -0.11540981382131577, 0.14907538890838623, -0.16455279290676117, 0.03693445771932602, -0.4294382631778717, -0.34214168787002563, -0.5942010879516602, 0.09607651084661484, 0.09458689391613007, 0.09838954359292984, -0.4377959966659546, -0.16995081305503845, -0.28469258546829224, -0.34611788392066956, -0.2574232816696167, -0.35727155208587646, 0.19039981067180634, 0.30969899892807007, 0.1397906243801117, -0.14184880256652832, 0.052536491304636, 0.12670426070690155, 0.20194938778877258, 0.18074890971183777, 0.26205867528915405, 0.12904664874076843, 0.09824120998382568, 0.0974099189043045, -0.13845285773277283, -0.20700591802597046, -0.05874373018741608, -0.05463247001171112, -0.18510796129703522, -0.23996728658676147, -0.009764811024069786, -0.05040651932358742, -0.22493992745876312, 0.07930170744657516, 0.12207014858722687, 0.13803991675376892, 0.40106409788131714, 0.32718774676322937, 0.39639416337013245, 0.23499268293380737, 0.15698066353797913, 0.13309481739997864, -0.1244986280798912, -0.14406009018421173, -0.1114136353135109, 0.08238411694765091, -0.005782036110758781, 0.167720228433609, -0.1773805320262909, -0.0987681895494461, -0.057064179331064224, -0.23392778635025024, 0.03136409446597099, 0.0865737721323967, -0.08922821283340454, -0.14379970729351044, -0.14576970040798187, -0.17948344349861145, -0.15958088636398315, -0.17503328621387482, 0.08087277412414551, 0.24061940610408783, -0.07615597546100616, -0.13388122618198395, 0.0015147774247452617, 0.12782728672027588, 0.39134660363197327, 0.4317275881767273, 0.16481785476207733, 0.09419757127761841, -0.19852200150489807, 0.16276182234287262, -0.009540021419525146, 0.15222454071044922, -0.13764071464538574, -0.26659154891967773, -0.10702872276306152, -0.0843755453824997, -0.24789118766784668, -0.22192582488059998, 0.01068798452615738, -0.11793506145477295, -0.0437156967818737, 0.09531136602163315, 0.1965392827987671, 0.10885442793369293, -0.14038632810115814, -0.08236762136220932, -0.24244286119937897, -0.18864428997039795, -0.07245440036058426, 0.09793678671121597, 0.228229358792305, 0.0072845593094825745, -0.07850096374750137, -0.11116588115692139, -0.20655210316181183, -0.0174605343490839, 0.19958238303661346, 0.025464877486228943, -0.025514718145132065, 0.027284961193799973, 0.028974607586860657, 0.03625475615262985, -0.016802804544568062, 0.18649058043956757, -0.008743640035390854, -0.016860421746969223, -0.19986476004123688, -0.11505422741174698, 0.1083637923002243, -0.11424674093723297, -0.21897096931934357, 0.002140594879165292, -0.16567395627498627, -0.14658018946647644, -0.02763439156115055, -0.42440474033355713, -0.16803711652755737, 0.35116440057754517, 0.08414206653833389, 0.128142312169075, -0.23614107072353363, 0.08084417134523392, 0.13752180337905884, 0.1674714833498001, 0.13620372116565704, -0.19413338601589203, 0.1675754189491272, 0.022861013188958168, -0.11986254155635834, 0.05115737020969391, -0.028408754616975784, 0.055987123399972916, -0.39048272371292114, 0.17832311987876892, -0.10056690126657486, -0.12910881638526917, -0.00737092224881053, -0.11835488677024841, 0.2363322228193283, 0.3713206648826599, -0.4487271308898926, 0.5843105912208557, 0.181893989443779, 0.2687791585922241, -0.0050150370225310326, 0.22291383147239685, -0.18718084692955017, 0.17378950119018555, -0.042016491293907166, -0.08750993013381958, 0.08138338476419449, 0.04359908401966095, -0.028481928631663322, 0.21215231716632843, -0.20237299799919128, 0.3147370219230652, -0.40810978412628174, 0.13547737896442413, -0.11535640060901642, 0.3234732449054718, 0.028988201171159744, 0.027245117351412773, -0.03339840844273567, 0.19829878211021423, 0.038526687771081924, 0.021525243297219276, -0.11461460590362549, -0.029657600447535515, -0.0472971610724926, 0.1601729393005371, -0.008525557816028595, 0.09169584512710571, 0.1014275774359703, -0.019758867099881172, 0.1505032628774643, -0.03142451122403145, -0.061444513499736786, 0.007080733776092529, -0.0034408073406666517, 0.09914740920066833, -0.26093748211860657, -0.13456933200359344, -0.3232211470603943, 0.029444724321365356, 0.09895004332065582, -0.42625534534454346, 0.24438174068927765, 0.1721925586462021, 0.2710675895214081, -0.3604947030544281, -0.24658818542957306, 0.11779265850782394, -0.10477503389120102, 0.03990144282579422, 0.2604992091655731, -0.04199917986989021, -0.020684577524662018, 0.11590656638145447, 0.0165004450827837, 0.10083839297294617, 0.20258867740631104, 0.027947045862674713, -0.1978568285703659, -0.387393057346344, 0.07999551296234131, 0.12026765197515488, 0.20710504055023193, 0.034481681883335114, 0.014636415988206863, -0.0007212506025098264, 0.034141574054956436, -0.16753628849983215, 0.0766291618347168, -0.2235226184129715, -0.16682840883731842, -0.1646827906370163, 0.26464611291885376, 0.1311120241880417, 0.21195867657661438, 0.029962915927171707, 0.15391021966934204, 0.13980528712272644, -0.11122938990592957, 0.126911923289299, 0.2016790211200714, 0.08248540759086609, -0.06592264026403427, -0.1372179090976715, -0.08939509093761444, -0.00925726443529129, 0.24624647200107574, -0.21326544880867004, 0.23892293870449066, 0.10196138918399811, -0.11751454323530197, -0.5094707012176514, 0.5269190669059753, 0.013422400690615177, -0.07200971245765686, -0.07823953032493591, 0.30070632696151733, -0.0623762421309948, 0.26308950781822205, 0.28236693143844604, -0.05078020691871643, 0.12264827638864517, -0.08658870309591293, -0.1814533919095993, 0.13655753433704376, 0.15513430535793304, 0.10765613615512848, -0.5128419399261475, -0.09948701411485672, -0.27254727482795715, 0.21825022995471954, -0.1020023450255394, -0.006342018488794565, -0.3175753355026245, -0.22303321957588196, -0.1516191065311432, 0.044979315251111984, 0.1935233473777771, -0.10974301397800446, -0.1187799945473671, 0.05547887459397316, -0.09628601372241974, 0.3811688721179962, 0.10908084362745285, -0.012508687563240528, 0.2341029793024063, 0.13652947545051575, -0.21065005660057068, -0.0350913479924202, 0.12129451334476471, -0.02143443003296852, 0.03372635319828987, -0.1460748314857483, -0.14032195508480072, 0.09271713346242905, 0.18783529102802277, -0.12335102260112762, 0.3507830500602722, 0.22217634320259094, -0.06114792078733444, -0.008926092647016048, 0.015136581845581532, 0.06143438071012497, 0.011052476242184639, 0.02540651522576809, 0.07806340605020523, 0.07559306919574738, 0.010909623466432095, 0.022823458537459373, 0.46502676606178284, -0.051291875541210175, 0.09782233834266663, 0.04305801913142204, 0.04800844565033913, -0.0057611665688455105, -0.5630632042884827, 0.31184718012809753, 0.3664330542087555, -0.8436974287033081, 0.043521586805582047, -0.9261078834533691, -0.17136426270008087, -0.3404749929904938, 0.7389076352119446, -0.963294267654419, -0.46865952014923096, -0.8640630841255188, 0.1833263337612152, -0.7548984885215759, 0.27978697419166565, -0.6749668717384338, -0.14744815230369568, -0.02838437631726265, 0.08441944420337677, 0.36336687207221985, 0.30827489495277405, -0.14711500704288483, 0.16395869851112366, 0.13827496767044067, 0.02890908159315586, -0.03165815398097038, 0.1585315316915512, 0.06192679703235626, -0.09989003092050552, -0.041416846215724945, -0.004941252060234547, -0.2567504942417145, -0.031060580164194107, 0.07123363018035889, -0.24900659918785095, -0.1971740573644638, 0.010208336636424065, 0.05666514113545418, -0.15939019620418549, -0.3826899230480194, 0.18884052336215973, 0.08363567292690277, 0.1486710011959076, 0.1412235051393509, 0.1891576051712036, 0.010704399086534977, 0.2791299521923065, 0.3442688286304474, 0.0014577636029571295, -0.3059464395046234, -0.06540263444185257, 0.15151433646678925, -0.05132406949996948, 0.08652077615261078, 0.16241447627544403, -0.02444712072610855, 0.23674072325229645, -0.18207870423793793, -0.2999207377433777, -0.13029707968235016, 0.2044900804758072, 0.14229299128055573, 0.06333477050065994, -0.17702651023864746, 0.13206957280635834, 0.21244210004806519, -0.18003037571907043, -0.2940923273563385, -0.32985562086105347, 0.13402269780635834, -0.030456921085715294, 0.020032541826367378, -0.2778383195400238, 0.26008230447769165, 0.10569863766431808, 0.3417438566684723, 0.1589517891407013, -0.09497090429067612, -0.03324056789278984, 0.09256681054830551, -0.06501070410013199, -0.22220653295516968, -0.07396622002124786, -0.11810997873544693, 0.5543688535690308, 0.05897107720375061, 0.1290929913520813, 0.34209272265434265, 0.09541945159435272, -0.14924605190753937, 0.1544933170080185, 0.23577353358268738, -0.26063764095306396, 0.18827100098133087, -0.12712323665618896, -0.30697154998779297, -0.2621876895427704, 0.19814717769622803, -0.5131029486656189, -0.10335247963666916, -0.03406722471117973, -0.12831197679042816, 0.013905355706810951, -0.17398931086063385, 0.2968151867389679, 0.3471250534057617, -0.3572556972503662, -0.16193516552448273, -0.40073150396347046, -0.15745241940021515, 0.09066110849380493, 0.1372225135564804, 0.39206042885780334, -0.06849230825901031, 0.10745690762996674, -0.31397712230682373, 0.21799221634864807, 0.4339308440685272, -0.4566980004310608, -0.0718945562839508, 0.1570371836423874, 0.08230912685394287, -0.0031587546691298485, 0.10285983234643936, 0.05114056169986725, 0.10518909245729446, -0.11600460112094879, 0.11398952454328537, 0.07650086283683777, -0.04293953254818916, -0.3214668035507202, 0.19674958288669586, -0.2017745077610016, -0.062163401395082474, -0.24169707298278809, 0.018393533304333687, -0.23893319070339203, 0.04146638885140419, -0.3108466565608978, 0.13324928283691406, -0.26701268553733826, -0.10371478646993637, 0.13589440286159515, 0.06098474562168121, 0.012750400230288506, 0.33902379870414734, 0.09135079383850098, -0.1066891998052597, -0.15091009438037872, -0.14062827825546265, -0.0034931704867631197, -0.13215482234954834, 0.156394824385643, 0.24522414803504944, 0.17698490619659424, -0.24054910242557526, 0.2802785634994507, -0.2054765224456787, 0.19457216560840607, 0.2523314952850342, -0.19788801670074463, 0.05165815353393555, -0.18904563784599304, 0.07748489081859589, -0.49276310205459595, -0.24579353630542755, 0.19765856862068176, -0.13953134417533875, -0.07744017243385315, 0.12195418775081635, 0.23703540861606598, 0.21181157231330872, 0.20337030291557312, -0.14740300178527832, 0.08627088367938995, -0.04313119128346443, 0.04870873689651489, -0.07679156959056854, -0.15915948152542114, -0.002551343059167266, 0.19482557475566864, -0.021765075623989105, 0.00884102750569582, 0.010306081734597683, 0.3664051592350006, 0.11611030250787735, 0.009924819692969322, 0.16908496618270874, 0.16308464109897614, -0.11031218618154526, -0.0026744119822978973, -0.07025176286697388, 0.1314212679862976, 0.11143103241920471, -0.04084594175219536, -0.1507740616798401, -0.11832582205533981, -0.0380508117377758, 0.0474647581577301, 0.19742782413959503, -0.14518576860427856, 0.13043129444122314, 0.16128213703632355, -0.016723020002245903, 0.061848267912864685, -0.1759742647409439, -0.11241596937179565, -0.14725132286548615, -0.06425029039382935, -0.0740102231502533, -0.13210110366344452, 0.1834062784910202, -0.20973420143127441, -0.08786359429359436, -0.03386320173740387, -0.01519685797393322, -0.012168113142251968, -0.10450048744678497, -0.17619267106056213, -0.1977093517780304, 0.3684628903865814, -0.02172067016363144, 0.12867167592048645, 0.001276120194233954, 0.12006025016307831, -0.1149933785200119, -0.22554266452789307, 0.2046380341053009, -0.534872829914093, 0.10335704684257507, -0.09172575175762177, -0.18525171279907227, 0.12673825025558472, -0.09706850349903107, -0.19809462130069733, -0.03796805068850517, 0.033239301294088364, 0.12708842754364014, 0.0033074738457798958, 0.09190978109836578, -0.11941026896238327, 0.1197252869606018, -0.03482823818922043, -0.035942442715168, -0.30379703640937805, -0.18524213135242462, 0.1657046526670456, -0.172259122133255, -0.10610077530145645, 0.21335378289222717, 0.12867078185081482, 0.08597840368747711, 0.09286417812108994, -0.13697707653045654, 0.2775285840034485, -0.0033211619593203068, 0.13411559164524078, -0.24407675862312317, -0.17895342409610748, 0.14360487461090088, 0.282845675945282, 0.2397361397743225, -0.012109850533306599, 0.21485121548175812, 0.20704324543476105, -0.4831238090991974, 0.18274591863155365, 0.1480775624513626, -0.05561664327979088, 0.21092690527439117, -0.2218199372291565, -0.2527787983417511, -0.10589966922998428, -0.07244829833507538, 0.014205616898834705, -0.04492798075079918, -0.10648515820503235, 0.05049748346209526, 0.01586546190083027, 0.13273897767066956, 0.015153218060731888, -0.0822041854262352, -0.05124164745211601, -0.20773150026798248, 0.12155546993017197, -0.09882763028144836, -0.17987915873527527, -0.1677325963973999, -0.1222371757030487, 0.9712234139442444, -0.45696935057640076, 0.3682997524738312, -0.7462433576583862, -0.1896933913230896, 0.13435427844524384, -0.05446844920516014, -0.2299272119998932, -0.43797582387924194, -0.7654876112937927, -0.07473981380462646, -0.28666654229164124, 0.03588232398033142, -0.2739962637424469, 0.5731335878372192, 0.25116604566574097, -0.22060340642929077, -0.13797785341739655, -0.7604432106018066, 0.24968868494033813, -0.01877080835402012, -0.021162549033761024, -0.06146743521094322, -0.01855832152068615, -0.1727171540260315, 0.08187773823738098, 0.007278398144990206, 0.5852823257446289, -0.28550535440444946, -0.04154087230563164, -0.12649483978748322, -0.3699451684951782, -0.4230782985687256, -0.07475026696920395, 0.1458846777677536, 0.15505796670913696, -0.1590612828731537, -0.13382448256015778, 0.23323385417461395, -0.12221858650445938, -0.11281278729438782, -0.3999697268009186, 0.2647192180156708, -0.2835814654827118, -0.19336387515068054, -0.16561612486839294, 0.1893463432788849, 0.18795013427734375, -0.12399539351463318, -0.1505746990442276, 0.10956674069166183, 0.2333056777715683, -0.039271917194128036, 0.22903363406658173, 0.09139009565114975, -0.043687280267477036, 0.055875539779663086, 0.1376921534538269, -0.07678250223398209, 0.1377129852771759, -0.21311607956886292, -0.021216008812189102, -0.3358921408653259, 0.15850408375263214, 0.11971490830183029, 0.3710522949695587, -0.12107373774051666, 0.16423633694648743, -0.4787941873073578, -0.3839169144630432, -0.019204996526241302, 0.009203155525028706, 0.0070917862467467785, -0.32570120692253113, 0.17618219554424286, 0.3118269443511963, 0.16346023976802826, 0.3519737124443054, 0.16307592391967773, -0.11083680391311646, -0.04368764907121658, -0.06591656059026718, 0.04144652932882309, 0.07825684547424316, 0.09606333076953888, -0.20657314360141754, -0.05688824504613876, 0.004653903655707836, -0.07449077814817429, -0.41014355421066284, 0.55043625831604, -0.27638137340545654, 0.2771567702293396, -0.3154180943965912, -0.16592350602149963, -0.24421368539333344, -0.14796340465545654, -0.12384150922298431, 0.01930990442633629, -0.09190504997968674, -0.10740194469690323, 0.02726900950074196, -0.003683297196403146, 0.20727601647377014, -0.06936422735452652, -0.22802479565143585, 0.06849449872970581, 0.018714243546128273, -0.15324866771697998, 0.022112229838967323, 0.2498231828212738, -0.11978698521852493, -0.13845013082027435, -0.03404991701245308, 0.18902835249900818, 0.13489162921905518, 0.37218567728996277, 0.3249204456806183, 0.2626383304595947, -0.11826376616954803, -0.18316751718521118, 0.04215433821082115, 0.03654557093977928, 0.014536251313984394, -0.18964390456676483, -0.36672019958496094, 0.028186453506350517, -0.07102412730455399, -0.10068406164646149, 0.029282094910740852, 0.017211569473147392, 0.02689535543322563, -0.04095689579844475, 0.15448053181171417, 0.04022989794611931, 0.08747342973947525, 0.16580019891262054, 0.5662156343460083, -0.7570953369140625, 0.044567469507455826, -0.23057322204113007, 0.14693869650363922, 0.2450818419456482, -0.2596059739589691, -0.34845325350761414, 0.4119143784046173, -0.03811454027891159, 0.18413959443569183, 0.09708662331104279, -0.11017321795225143, 0.018631596118211746, -0.11572812497615814, 0.1521708071231842, 0.3948145806789398, 0.014824540354311466, 0.04513183608651161, -0.07598152756690979, -0.22582338750362396, -0.08964739739894867, -0.10876964032649994, 0.1756170690059662, 0.249280646443367, 0.23206165432929993, -0.08258826285600662, -0.06651077419519424, 0.15716078877449036, 0.1835034191608429, 0.16747190058231354, 0.06686878204345703, 0.0974724069237709, -0.3263421356678009, -0.2621188461780548, -0.11751038581132889, -0.04437633231282234, -0.08586550503969193, -0.08357102423906326, 0.26322638988494873, -0.06687343120574951, -0.16757789254188538, -0.14383867383003235, -0.0499035120010376, -0.004223051480948925, -0.09034520387649536, 0.02402721345424652, 0.0329320915043354, -0.21432152390480042, 0.31324803829193115, 0.4187546670436859, 0.06572728604078293, -0.05661023408174515, -0.10416965186595917, 0.15922658145427704, -0.28021475672721863, -0.09145042300224304, -0.1671953946352005, 0.3681079149246216, 0.039469823241233826, 0.07200496643781662, 0.1390771120786667, -0.13150450587272644, 0.23895366489887238, 0.12709851562976837, -0.13669726252555847, -0.17501100897789001, -0.07938837260007858, 0.12408307194709778, -0.11087798327207565, 0.16811031103134155, 0.0033979974687099457, -0.15438349545001984, -0.017841609194874763, 0.1016179546713829, 0.005386971402913332, -0.08614489436149597, -0.048458170145750046, 0.028658928349614143, 0.029749583452939987, -0.09810704737901688, 0.0717659667134285, 0.08052166551351547, 0.023164520040154457, -0.09037940204143524, -0.05243030562996864, -0.21085762977600098, 0.14715096354484558, -0.009675650857388973, -0.37910348176956177, -0.04046831279993057, 0.11789882928133011, -0.07045379281044006, -0.0746295303106308, -0.09519613534212112, 0.13506244122982025, 0.5677433609962463, -0.38871631026268005, 0.009000943042337894, 0.046308666467666626, -0.08583123981952667, -0.04081902652978897, 0.15167275071144104, -0.20295284688472748, -0.009546265937387943, 0.06350186467170715, 0.06450814008712769, -0.11392246186733246, -0.13201221823692322, -0.2065582424402237, -0.0539204366505146, -0.021577822044491768, -0.020347053185105324, -0.06829403340816498, 0.16264188289642334, 0.004722498822957277, 0.14434142410755157, -0.31886550784111023, 0.1376877725124359, 0.21089377999305725, -0.0906083881855011, 0.02173811011016369, -0.09387071430683136, -0.32924360036849976, -0.15700441598892212, 0.19428709149360657, 0.006646014750003815, 0.14159302413463593, -0.15081489086151123, -0.08910467475652695, 0.10476656258106232, 0.00878112018108368, -0.013844281435012817, -0.04481811448931694, 0.05712369829416275, 0.05676816403865814, 0.0658787190914154, -0.030524088069796562, 0.01465848833322525, -0.11120361089706421, -0.08707363903522491, -0.07037026435136795, -0.06344941258430481, 0.04045988619327545, -0.16246524453163147, 0.20502907037734985, -0.14282813668251038, 0.3006941080093384, -0.2078815996646881, 0.03789360448718071, -0.32687726616859436, 0.008097660727798939, -0.23104193806648254, 0.0027019463013857603, -0.21121330559253693, -0.14943991601467133, 0.11312098801136017, -0.058098286390304565, -0.05771990492939949, -0.06825744360685349, -0.06621520966291428, 0.18910501897335052, -0.059618785977363586, -0.15587131679058075, 0.20596033334732056, -0.2060355544090271, 0.07386454194784164, -0.10587240755558014, 0.03719685971736908, -0.14345264434814453, -0.06680940836668015, 0.7265588045120239, 0.47369399666786194, -0.05717560276389122, -0.20251630246639252, -0.002210143953561783, 0.1544496864080429, -0.16301535069942474, 0.22419168055057526, -0.10787337273359299, -0.38850629329681396, 0.0611913837492466, 0.0070420121774077415, -0.08468910306692123, -0.17550808191299438, 0.21118348836898804, 0.0015921868616715074, -0.09472942352294922, 0.14203965663909912, 0.028373055160045624, -0.04208725690841675, 0.11820604652166367, -0.03788435831665993, 0.1925690770149231, 0.09426511079072952, -0.03737800568342209, -0.08029212057590485, 0.11131011694669724, -0.548025369644165, 0.11217934638261795, -0.5909265279769897, -0.2637875974178314, -0.3622700273990631, 0.11295084655284882, -0.328803688287735, 0.09607360512018204, -0.01099809817969799, 0.043280310928821564, -0.06901456415653229, 0.21343715488910675, -0.18205195665359497, 0.22786416113376617, 0.006963272113353014, -0.008716610260307789, 0.03915103152394295, -0.12648728489875793, -0.013886645436286926, -0.07731013745069504, 0.22345884144306183, 0.26639091968536377, 0.01934884488582611, -0.10839090496301651, -0.2674480676651001, -0.06862568110227585, -0.021926427260041237, 0.03666099160909653, 0.044333428144454956, -0.15305960178375244, -0.2385658323764801, -0.11371740698814392, 0.08279655128717422, 0.09946440160274506, 0.11477416008710861, -0.16376911103725433, -0.09714449197053909, 0.022846290841698647, 0.19882814586162567, -0.07127006351947784, -0.07607793807983398, 0.20038475096225739, -0.21802307665348053, -0.2581377327442169, -0.17527422308921814, -0.3218455910682678, -0.018274007365107536, -0.018466444686055183, 0.0004637631354853511, -0.218794047832489, -0.3167707026004791, -0.039369769394397736, 0.008736682124435902, 0.04536354914307594, 0.19978377223014832, 0.10833368450403214, -0.17042234539985657, -0.2143373191356659, 0.25422021746635437, 0.1928286850452423, -0.191051185131073, 0.10274594277143478, 0.13410727679729462, 0.15760552883148193, -0.17604441940784454, -0.07798952609300613, 0.04962491616606712, 0.02511555142700672, 0.09404187649488449, 0.05822573974728584, -0.2300519496202469, 0.13857842981815338, -0.02097242884337902, -0.21993418037891388, -0.22227436304092407, -0.16073136031627655, 0.09847081452608109, 0.048298612236976624, 0.16207414865493774, -0.11471693217754364, -0.27335724234580994, 0.015549994073808193, -0.05385754257440567, -0.33095794916152954, -0.014619066379964352, 0.11730841547250748, -0.05767345428466797, 0.19065365195274353, 0.019298065453767776, 0.23541337251663208, -0.13408471643924713, 0.10340084880590439, -0.33227360248565674, 0.19519944489002228, 0.018267348408699036, 0.12251859158277512, 0.14263330399990082, -0.34033259749412537, -0.18659354746341705, 0.029384298250079155, 0.43560323119163513, 0.03649463877081871, 0.23861384391784668, -0.01907595619559288, 0.026557214558124542, -0.02286027930676937, 0.005177879240363836, -0.10562720894813538, -0.07049586623907089, -0.21278657019138336, 0.2592957019805908, -0.1705653965473175, 0.338134765625, 0.017890624701976776, -0.20400404930114746, -0.04907006397843361, -0.058088477700948715, -0.14550036191940308, -0.1508495956659317, -0.05569033697247505, -0.002770977094769478, 0.04315834492444992, -0.09549923241138458, 0.2704288959503174, 0.023528553545475006, -0.02791166864335537, 0.35945600271224976, 0.182172954082489, -0.09620250016450882, -0.048934999853372574, 0.13386325538158417, -0.03157976269721985, 0.13561590015888214, 0.009576543234288692, -0.15695029497146606, 0.021399766206741333, -0.11684825271368027, -0.04916014522314072, 0.11238670349121094, 0.22368532419204712, -0.5489329099655151, 0.047552239149808884, -0.3642130196094513, 0.10546641796827316, -0.29402804374694824, 0.09590602666139603, -0.4247897267341614, -0.01186405960470438, -0.2379159927368164, -0.1580776423215866, 0.1087084636092186, -0.026786036789417267, -0.0098512452095747, -0.19699056446552277, -0.45787960290908813, -0.012173067778348923, 0.03439496085047722, -0.2323710024356842, 0.14410264790058136, 0.26891884207725525, 0.2128763496875763, 0.23785968124866486, 0.17911334335803986, -0.22158493101596832, -0.15582740306854248, 0.42972803115844727, 0.3180845379829407, 0.016023337841033936, -0.14919045567512512, -0.0745425671339035, -0.2144935429096222, -0.36667054891586304, -0.0778726264834404, -0.13358795642852783, 0.12473078817129135, -0.11707954853773117, 0.10358705371618271, 0.020044008269906044, -0.1117851734161377, 0.08768977969884872, 0.13261279463768005, -0.09773214161396027, -0.04132071137428284, 0.21594670414924622, -0.22829864919185638, 0.002705635968595743, -0.05519769713282585, -0.10124541074037552, -0.4315902590751648, 0.03250380605459213, -0.2151820808649063, -0.22341834008693695, -0.2148270308971405, -0.23577597737312317, -0.2505704164505005, -0.011718856170773506, 0.05852249637246132, -0.0717657208442688, 0.25309664011001587, 0.08494193851947784, 0.06784544140100479, -0.09820914268493652, 0.1083090528845787, 0.022258335724473, 0.028694765642285347, -0.036646027117967606, 0.23902736604213715, -0.07704667747020721, 0.1944800168275833, -0.12830907106399536, 0.027864249423146248, 0.01620280183851719, 0.21938778460025787, -0.01896877959370613, -0.10363335907459259, -0.024852503091096878, -0.036708977073431015, 0.0019458394963294268, -0.36821237206459045, -0.3801926076412201, -0.04633220657706261, -0.16335012018680573, 0.10809405893087387, 0.021274147555232048, 0.10119468718767166, 0.15242011845111847, -0.21783165633678436, 0.09885022044181824, 0.14012089371681213, 0.042547307908535004, -0.07277543097734451, 0.05382542684674263, -0.06306194514036179, 0.24266208708286285, -0.1589871048927307, 0.06951919198036194, -0.39381667971611023, 0.12231065332889557, -0.25513941049575806, 0.1359519213438034, -0.36009830236434937, -0.19675758481025696, 0.3694254755973816, 0.09021184593439102, -0.12992019951343536, -0.21785153448581696, -0.24170491099357605, -0.31743133068084717, 0.15549129247665405, 0.05724714323878288, 0.0588112398982048, -0.17443302273750305, 0.14081208407878876, 0.2292982041835785, -0.2116236388683319, 0.2634463310241699, -0.0700395256280899, 0.06071670353412628, -0.29929155111312866, 0.24440711736679077, -0.1850345879793167, -0.12846480309963226, 0.13724714517593384, 0.23821957409381866, 0.055357854813337326, -0.03861221298575401, 0.2944364845752716, 0.14962108433246613, -0.07713574916124344, 0.07948439568281174, -0.034370001405477524, -0.04477805644273758, -0.06710305064916611, -0.10352082550525665, -0.023141974583268166, 0.06638156622648239, -0.20731620490550995, -0.0720142349600792, 0.05485445633530617, -0.011056579649448395, -0.061078425496816635, 0.04040101170539856, 0.2048618644475937, -0.09311266243457794, 0.09256190061569214, -0.07132073491811752, 0.173701673746109, -0.17949245870113373, -0.5248996019363403, 0.30883559584617615, -0.2746778428554535, 0.30836576223373413, -0.1790691763162613, 0.04057617112994194, 0.03801839053630829, 0.0034075675066560507, -0.08501804620027542, -0.08146349340677261, -0.35540565848350525, 0.23386874794960022, -0.10593865811824799, 0.095008485019207, -0.17126187682151794, 0.20592592656612396, 0.04662386327981949, -0.17241697013378143, 0.22872304916381836, -0.19082172214984894, 0.16538670659065247, -0.07128606736660004, -0.06508289277553558, 0.13649071753025055, -0.029325740411877632, 0.018218159675598145, 0.1399151235818863, 0.05846846103668213, -0.1194780245423317, 0.014662392437458038, -0.010514745488762856, 0.04100564867258072, -0.18613223731517792, -0.2710719406604767, 0.02320646494626999, 0.1670651137828827, -0.07603984326124191, 0.023577598854899406, 0.040829047560691833, 0.12651954591274261, 0.09570342302322388, -0.10167170315980911, -0.04250800609588623, -0.0087594510987401, 0.39797258377075195, -0.08900856971740723, 0.11286314576864243, -0.04456603154540062, -0.2466965913772583, 0.2903023064136505, -0.0020282624755054712, 0.14677202701568604, -0.3067297339439392, 0.027488987892866135, -0.012059465050697327, -0.014521678909659386, 0.10146552324295044, -0.11299817264080048, -0.281354159116745, 0.0423242412507534, 0.002788185840472579, 0.11646033078432083, -0.20136968791484833, 0.4998527467250824, -0.27637213468551636, -0.21523728966712952, -0.055674631148576736, -0.0577503927052021, -0.1404341608285904, 0.08002334833145142, 0.1730557680130005, 0.09227241575717926, 0.0765080451965332, -0.305083304643631, 0.2622468173503876, 0.08485879004001617, -0.031652577221393585, -0.0034247850999236107, -0.04338591918349266, 0.008090339601039886, 0.10556402057409286, -0.16508528590202332, 0.20885570347309113, 0.12187741696834564, -0.0628076046705246, -0.14532174170017242, -0.0771433636546135, 0.03318282961845398, -0.15926659107208252, -0.02318877913057804, -0.05773256719112396, -0.5705406069755554, 0.17623229324817657, 0.03549129143357277, 0.44014790654182434, 0.03458378091454506, 0.09283972531557083, -0.007709503173828125, 0.2113807499408722, -0.021754752844572067, 0.08487832546234131, 0.43144533038139343, -0.16456232964992523, 0.046520620584487915, 0.1213262751698494, 0.14595092833042145, 0.4493389129638672, 0.23879820108413696, 0.031064843758940697, 0.3956190049648285, 0.029980948194861412, -0.20135807991027832, -0.2441965937614441, -0.2834714651107788, -0.09456334263086319, 0.025170903652906418, 0.3872431218624115, -0.23685896396636963, -0.4590446949005127, -0.245078444480896, 0.0821482390165329, -0.02550852857530117, 0.060471635311841965, 0.24110083281993866, 0.14443743228912354, -0.11620887368917465, -0.06702198088169098, -0.041810113936662674, 0.22036674618721008, 0.025893256068229675, 0.13944858312606812, 0.08896511793136597, -0.1721123605966568, 0.09351041913032532, -0.1289924681186676, -0.0857982188463211, 0.05741006135940552, 0.08172163367271423, -0.16133083403110504, -0.08089134097099304, 0.1529715657234192, -0.19612964987754822, 0.14074064791202545, 0.37658363580703735, -0.07673665136098862, 0.010544008575379848, 0.1198827400803566, -0.10932189971208572, -0.0002620435261633247, -0.03326193243265152, 0.07993529736995697, -0.03640327602624893, 0.1174057275056839, 0.08484134078025818, 0.09851968288421631, 0.035603731870651245, -0.02766025997698307, -0.045704055577516556, 0.014254267327487469, -0.0775638297200203, 0.19297730922698975, -0.31335869431495667, 0.7137044072151184, 0.2970227599143982, -0.4524437487125397, 0.3001966178417206, -0.3116941452026367, -0.07454627752304077, 0.40577298402786255, -0.5770258903503418, 1.0077276229858398, 0.5195140242576599, 0.010817431844770908, -0.37070921063423157, 0.17189830541610718, -0.7689655423164368, 0.2505455017089844, 0.05237611383199692, 0.005173705518245697, -0.27724793553352356, 0.11941633373498917, -0.0344122014939785, 0.03833033889532089, -0.05995619297027588, 0.22096361219882965, 0.22895547747612, 0.16716423630714417, 0.14224565029144287, -0.16615787148475647, 0.021979650482535362, 0.09430563449859619, -0.08402029424905777, -0.03464026004076004, -0.08158034831285477, 0.1002679392695427, 0.1686273217201233, -0.03689439222216606, -0.00535696791484952, 0.01768583431839943, -0.15279726684093475, -0.16082894802093506, -0.13821806013584137, -0.08526551723480225, -0.09718980640172958, 0.12386680394411087, 0.36697906255722046, 0.3005489706993103, -0.06738835573196411, 0.07122589647769928, -0.05884866416454315, 0.3587537109851837, -0.2674391269683838, 0.49269384145736694, -0.1172320693731308, -0.2209862321615219, -0.024370968341827393, 0.37619197368621826, 0.08509346842765808, 0.02552417851984501, -0.00012769518070854247, -0.05115256458520889, -0.2601884603500366, -0.12696406245231628, 0.0008306218660436571, 0.24558286368846893, -0.030276648700237274, -0.002692627487704158, -0.04869059845805168, -0.22155383229255676, 0.3500273525714874, 0.0030833175405859947, 0.16150951385498047, 0.27382075786590576, -0.12439816445112228, 0.045195821672677994, 0.27232569456100464, 0.1795455813407898, 0.004555757623165846, 0.1638472080230713, 0.13983410596847534, 0.012915167026221752, -0.0963430106639862, 0.13534513115882874, -0.24799774587154388, -0.13498567044734955, -0.03592383861541748, 0.15814751386642456, -0.06995746493339539, 0.09700144082307816, -0.07192431390285492, -0.10176945477724075, 0.01722896471619606, -0.01573644019663334, -0.08224773406982422, 0.12878848612308502, 0.09076280891895294, -0.030416499823331833, -0.3621390461921692, 0.1765454262495041, -0.15146373212337494, -0.10196363180875778, -0.21985206007957458, 0.5435256958007812, 0.2909628450870514, -0.44067224860191345, -0.23172521591186523, 0.01298815943300724, -0.2462395280599594, 0.22165744006633759, 0.5115011930465698, 0.4156024754047394, 0.1065274253487587, 0.12076817452907562, 0.07897816598415375, -0.18514953553676605, 0.151694193482399, 0.03697613254189491, -0.009114375337958336, 0.09635862708091736, 0.03276684135198593, -0.2620057463645935, -0.016174662858247757, 0.04771051183342934, 0.0495128259062767, 0.011847891844809055, 0.24871240556240082, -0.05650949478149414, 0.05091071501374245, 0.3041553795337677, 0.23197287321090698, -0.1341218501329422, -0.14333996176719666, -0.0380483902990818, -0.26241335272789, 0.1482236683368683, -0.007140291389077902, 0.03957749158143997, 0.07371837645769119, 0.2041357457637787, 0.22409218549728394, -0.14207696914672852, 0.26512643694877625, 0.2038007378578186, 0.029205551370978355, -0.10593623667955399, 0.36824125051498413, -0.16695989668369293, 0.161708265542984, 0.11663857102394104, -0.06980878114700317, -0.3059154748916626, -0.04126225784420967, -0.011483664624392986, 0.04273541271686554, -0.041343193501234055, 0.2375470995903015, -0.21152016520500183, 0.09802988916635513, -0.23611785471439362, -0.04513360559940338, 0.06933959573507309, -0.06503342092037201, -0.2786729633808136, 0.2971014976501465, 0.354058176279068, 0.4201311469078064, -0.14497366547584534, -0.11678161472082138, 0.057082608342170715, 0.09176870435476303, 0.033376384526491165, -0.2645111083984375, 0.2325035184621811, -0.002488246653228998, 0.04893537983298302, -0.1288910210132599, 0.08798768371343613, -0.35585159063339233, 0.2311401218175888, -0.04155131056904793, 0.27706217765808105, -0.1324392855167389, -0.1331557333469391, 0.11610148102045059, 0.5622512102127075, -0.05423206835985184, -0.37893402576446533, -0.12868955731391907, 0.09163665771484375, -0.16657517850399017, 0.24354329705238342, 0.3302510380744934, 0.08417702466249466, -0.07294110953807831, -0.2957709729671478, 0.15600678324699402, 0.014288554899394512, 0.31063100695610046, 0.0630224198102951, 0.3002684712409973, 0.1573895663022995, -0.16526643931865692, -0.13196305930614471, 0.5154955387115479, -0.3006068766117096, -0.21216058731079102, -0.0580584742128849, 0.15055279433727264, -0.22832266986370087, 0.02145286835730076, 0.021960973739624023, 0.06034089997410774, 0.11315112560987473, -0.34760725498199463, -0.17663419246673584, -0.28774207830429077, 0.26749593019485474, -0.026967985555529594, -0.01561166811734438, 0.01263229176402092, -0.28388991951942444, 0.37106019258499146, 0.06494408845901489, -0.19112896919250488, -0.365213006734848, 0.25290754437446594, -0.045151226222515106, 0.29621627926826477, 0.06679505109786987, -0.418719619512558, 0.17705193161964417, -0.1877835988998413, 0.028172258287668228, 0.13810738921165466, 0.10185208171606064, 0.11352384835481644, -0.05863626301288605, 0.18877647817134857, -0.2594881057739258, -0.054472293704748154, 0.09687214344739914, 0.25419795513153076, 0.036941032856702805, -0.1405750960111618, -0.21885865926742554, -0.024676954373717308, -0.06213446334004402, -0.10193468630313873, 0.33638501167297363, 0.24223528802394867, 0.3527083098888397, 0.48800206184387207, -0.36771008372306824, -0.013060989789664745, 0.051685381680727005, -0.167941153049469, -0.22260721027851105, -0.12047425657510757, 0.3229198753833771, -0.043768130242824554, 0.11013756692409515, 0.07039013504981995, 0.26433005928993225, -0.003850495908409357, 0.08713596314191818, 0.17368176579475403, 0.2404463142156601, 0.1049218624830246, -0.07368013262748718, -0.5789229273796082, -0.22220514714717865, -0.19414730370044708, 0.0431007519364357, -0.006506204139441252, 0.0005310256383381784, 0.07487983256578445, -0.0940561518073082, 0.09853978455066681, 0.050645697861909866, 0.005268972832709551, -0.06517227739095688, -0.10460074245929718, 0.019152073189616203, 0.03900071978569031, 0.17904488742351532, 0.13373786211013794, 0.04365319386124611, -0.0557529516518116, 0.22795714437961578, -0.1009698361158371, 0.17128397524356842, 0.22564579546451569, 0.08478495478630066, 0.197316974401474, -0.14905910193920135, 0.010232432745397091, 0.12338719516992569, 0.08982580900192261, 0.21066920459270477, 0.18865884840488434, 0.15876133739948273, 0.08878108114004135, -0.11068455129861832, 0.24061733484268188, -0.004402451682835817, -0.12432845681905746, 0.027343489229679108, 0.08500678837299347, 0.1330241858959198, -0.1598033756017685, 0.2230783998966217, 0.011774725280702114, -0.0772416964173317, -0.18924392759799957, 0.1627221256494522, 0.2127700001001358, 0.04432343319058418, -0.09091717004776001, -0.20051497220993042, 0.06085056811571121, 0.43566375970840454, 0.12614132463932037, -0.12803202867507935, -0.08507110923528671, -0.20999471843242645, 0.04825714975595474, 0.2081313282251358, -0.07769910991191864, -0.029866915196180344, 0.11524774879217148, -0.2955456078052521, -0.02893560752272606, 0.03600847348570824, 0.30564025044441223, 0.33262988924980164, 0.10091415792703629, -0.2717550992965698, -0.2655724585056305, -0.17410260438919067, 0.061383530497550964, 0.019179724156856537, -0.018732961267232895, 0.03587660565972328, -0.16226549446582794, 0.3038580119609833, 0.06482023000717163, 0.29249924421310425, -0.21825213730335236, 0.014692716300487518, 0.07515264302492142, -0.028863295912742615, 0.027188552543520927, -0.16960690915584564, -0.2723945081233978, 0.014695377089083195, 0.12095513939857483, -0.19819994270801544, -0.14676229655742645, -0.3084949254989624, -0.36134880781173706, 0.015505935065448284, 0.0944226011633873, 0.1288108229637146, 0.09804430603981018, 0.20452409982681274, 0.005167958792299032, -0.050802916288375854, 0.36606213450431824, 0.2920576333999634, 0.29945266246795654, 0.20393821597099304, -0.14695216715335846, -0.02968447469174862, -0.0012780098477378488, 0.19695360958576202, -0.07598594576120377, 0.16074883937835693, -0.005820900667458773, 0.1367749720811844, 0.06297066807746887, -0.09683715552091599, -0.0017256146529689431, -0.2983340322971344, -0.011031955480575562, -0.026374369859695435, -0.31440019607543945, 0.2887321710586548, 0.08774461597204208, 0.07768895477056503, -0.052129391580820084, -0.2571220099925995, -0.008567321114242077, 0.17957435548305511, -0.14910875260829926, -0.1451907902956009, -0.09140446782112122, 0.09686900675296783, -0.21884988248348236, 0.05595002695918083, -0.17023946344852448, -0.2428058385848999, -0.018962709233164787, -0.22135020792484283, 0.14400041103363037, 0.08990775048732758, -0.0006241789669729769, 0.04557911679148674, 0.332030326128006, -0.049530766904354095, 0.19643601775169373, 0.1420639306306839, 0.29831382632255554, 0.02113015577197075, -0.06340064108371735, -0.022289618849754333, 0.026482203975319862, 0.04389098659157753, 0.19948971271514893, -0.052069272845983505, -0.2557015120983124, -0.17375531792640686, 0.06686073541641235, 0.01952730119228363, -0.18732941150665283, 0.07861904799938202, -0.006678719539195299, -0.08432752639055252, -0.007540563587099314, 0.11113473027944565, -0.2870649993419647, -0.10570942610502243, 0.26804473996162415, 0.10401551425457001, -0.6142413020133972, 0.157633438706398, -0.051264334470033646, 0.38252681493759155, 0.019946210086345673, 0.22994710505008698, 0.15190058946609497, -0.2194429636001587, 0.12467508763074875, -0.13189898431301117, 0.09740804880857468, 0.11284064501523972, -0.13096579909324646, -0.13685570657253265, -0.14218418300151825, -0.21566195785999298, 0.1978074610233307, 0.22962862253189087, 0.017004337161779404, -0.08003148436546326, -0.04601510986685753, -0.5071284770965576, 0.22169964015483856, 0.14317648112773895, 0.05143527314066887, -0.2018008679151535, -0.30289119482040405, -0.015111630782485008, 0.28270041942596436, 0.1727571040391922, 0.46565067768096924, -0.2218455672264099, 0.1606854647397995, 0.08557839691638947, 0.35439562797546387, 0.06721770763397217, 0.3432375192642212, -0.27734261751174927, 0.1154550239443779, 0.22107157111167908, -0.2957064211368561, -0.058556560426950455, -0.04654242843389511, -0.17140865325927734, -0.08286222815513611, -0.4344511032104492, -0.4662424325942993, 0.5548274517059326, 0.03727295994758606, 0.008502206765115261, -0.007256834302097559, -0.37652501463890076, 0.15679995715618134, -0.1560504138469696, 0.2015271931886673, -0.030072009190917015, 0.17553779482841492, -0.17982225120067596, 0.20475605130195618, 0.2274084985256195, -0.1263105869293213, -0.4347589910030365, -0.14627209305763245, 0.003521551610901952, 0.07469747960567474, -0.1467851847410202, -0.2809050381183624, 0.29842352867126465, 0.19962231814861298, -0.010938335210084915, 0.13278143107891083, -0.1267055869102478, 0.03819045051932335, 0.09409098327159882, -0.07364492118358612, 0.14473173022270203, 0.08393964171409607, -0.07406672835350037, 0.0650651827454567, -0.1675659418106079, -0.08691689372062683, -0.028526656329631805, 0.020899727940559387, -0.18812651932239532, 0.0006812110659666359, -0.01971360482275486, -0.21921928226947784, -0.14387564361095428, -0.009897354058921337, 0.01339965220540762, -0.06925972551107407, 0.2537219822406769, 0.04922836273908615, 0.32011300325393677, -0.08413602411746979, 0.06236206367611885, 0.005687778815627098, -0.08201020956039429, 0.18156655132770538, 0.02316262014210224, -0.005597641691565514, -0.06543350219726562, 0.12003381550312042, 0.15720747411251068, -0.09493943303823471, -0.04864273592829704, -0.2238173931837082, 0.033833716064691544, -0.18683558702468872, -0.22924475371837616, -0.03386538475751877, -0.28751295804977417, -0.11147038638591766, 0.11044991761445999, 0.009544928558170795, 0.033452097326517105, -0.002346707507967949, 0.12105115503072739, -0.05860930308699608, 0.019751766696572304, 0.19556209444999695, -0.039670828729867935, 0.07323747128248215, 0.3339829444885254, 0.0006094368291087449, -0.18500714004039764, -0.2296387255191803, -0.18347007036209106, 0.09846239537000656, -0.07480891793966293, -0.03725503757596016, -0.1454625129699707, -0.07870753854513168, -0.1567220389842987, -0.1942387968301773, -0.13505440950393677, -0.15309740602970123, -0.13357234001159668, 0.1794247180223465, 0.07160384953022003, -0.10260801017284393, -0.19489051401615143, 0.026926949620246887, 0.31488075852394104, 0.04312879964709282, -0.32394951581954956, 0.05848931893706322, -0.24285206198692322, 0.11270054429769516, 0.1688370704650879, 0.08851997554302216, -0.0927526131272316, -0.16420432925224304, -0.09444519132375717, 0.22551289200782776, -0.2261892408132553, -0.11228857934474945, 0.1260630041360855, -0.2289893478155136, -0.14276249706745148, 0.27301377058029175, -0.03559699282050133, 0.019271649420261383, 0.08289604634046555, 0.15673235058784485, 0.11305271834135056, -0.1533588021993637, 0.06187054142355919, 0.14970873296260834, -0.23314616084098816, -0.0400317944586277, 0.27150532603263855, 0.10877668112516403, 0.23465824127197266, -0.1414690911769867, 0.05220762640237808, -0.1961091309785843, -0.046402767300605774, 0.20897607505321503, 0.31745612621307373, -0.06260527670383453, -0.22572822868824005, -0.02366219274699688, 0.025721333920955658, -0.3421472907066345, 0.0986577495932579, 0.2015976905822754, -0.12113839387893677, -0.2959554195404053, 0.16089513897895813, -0.6821631193161011, -0.1321486234664917, 0.17529840767383575, 0.09114057570695877, 0.061699651181697845, -0.22229920327663422, 0.08450765162706375, -0.20223279297351837, -0.09634973853826523, 0.15076647698879242, 0.008794302120804787, 0.1452479511499405, 0.09135328233242035, -0.0860673040151596, 0.1749609112739563, 0.05851244926452637, -0.013183154165744781, 0.09584733098745346, -0.20975904166698456, 0.07595758885145187, -0.23640982806682587, 0.11594898253679276, -0.17825117707252502, 0.21194535493850708, 0.10049830377101898, -0.07216891646385193, -0.1249472051858902, 0.15751799941062927, -0.19910123944282532, -0.0718575194478035, 0.06022462248802185, -0.20310115814208984, -0.07844410836696625, -0.07947679609060287, 0.2689451277256012, -0.251490980386734, 0.11015874892473221, 0.04961271956562996, -0.003154689446091652, 0.1831367015838623, 0.004483316093683243, -0.21470579504966736, 0.06448966264724731, -0.18571148812770844, 0.0068234531208872795, 0.2577104866504669, 0.1708812266588211, 0.033345166593790054, 0.13167710602283478, 0.09576746821403503, 0.13643568754196167, -0.03137979283928871, 0.2331634908914566, -0.16219836473464966, 0.22276604175567627, 0.061366401612758636, -0.10080519318580627, 0.10224155336618423, -0.11991740018129349, -0.03827337548136711, 0.12199082970619202, -0.19468869268894196, -0.053412970155477524, 0.023945720866322517, -0.02189510688185692, 0.03237391263246536, 0.05193709954619408, -0.085037000477314, 0.050049684941768646, -0.0704997107386589, 0.02407900057733059, 0.039426472038030624, -0.3775024712085724, 0.06062331423163414, 0.04168342426419258, -0.21610787510871887, 0.08040451258420944, 0.14826129376888275, -0.16578662395477295, 0.03079887293279171, -0.24515147507190704, 0.11785008013248444, -0.08620620518922806, 0.08670082688331604, -0.027874546125531197, 0.19010740518569946, 0.003708715084940195, -0.16523729264736176, -0.01756627857685089, 0.13032595813274384, -0.12178744375705719, 0.1855044662952423, 0.17544572055339813, -0.270344078540802, -0.1984228938817978, 0.15502645075321198, 0.06590881198644638, 0.0655008926987648, -0.1566285640001297, -0.006349962670356035, 0.22937405109405518, 0.0552603080868721, -0.0185624361038208, 0.18037831783294678, 0.09384104609489441, -0.0447293259203434, -0.014491092413663864, -0.19525718688964844, 0.22600965201854706, 0.10163339227437973, 0.005914236418902874, 0.29873377084732056, -0.06991089135408401, -0.0588412843644619, 0.06094839423894882, -0.009503848850727081, 0.014852103777229786, 0.10789387673139572, -0.06928322464227676, -0.17873810231685638, -0.043094098567962646, 0.12138963490724564, 0.14897699654102325, -0.10377788543701172, -0.15323719382286072, -0.04336057975888252, -0.04742127284407616, 0.09549932181835175, 0.15758495032787323, 0.08868066221475601, -0.2815511226654053, -0.2321295142173767, 0.24820232391357422, 0.07381301373243332, 0.052973680198192596, -0.22422155737876892, -0.033413324505090714, 0.1951427161693573, -0.19413217902183533, -0.00749563705176115, 0.12741625308990479, -0.2831624150276184, 0.11049600690603256, 0.07637759298086166, 0.05765717849135399, 0.07980527728796005, 0.06597385555505753, 0.01966032013297081, -0.1851552575826645, -0.1907767951488495, 0.1260373592376709, -0.2543848752975464, -0.0715169757604599, 0.25218066573143005, 0.1538633108139038, 0.06826867163181305, -0.3452168405056, 0.054372381418943405, 0.06818639487028122, -0.19057923555374146, 0.1987534612417221, 0.15653522312641144, -0.16532935202121735, 0.011499832384288311, 0.01762286387383938, -0.12179305404424667, -0.08316560089588165, 0.12639100849628448, -0.006006618496030569, -0.20877395570278168, -0.06110120564699173, 0.2282232642173767, 0.057461053133010864, -0.0010666196467354894, -0.05159280076622963, -0.0725606381893158, 0.14949338138103485, -0.002719755284488201, 0.18479302525520325, 0.157673180103302, -0.3907230794429779, -0.06563900411128998, -0.18785130977630615, 0.2794307768344879, -0.08693347126245499, -0.10216490179300308, 0.23595333099365234, -0.18791626393795013, -0.04192909970879555, 0.2028084397315979, 0.21484071016311646, 0.34780353307724, -0.05785054713487625, 0.38352933526039124, -0.015648311004042625, 0.4243423044681549, 0.009481930173933506, 0.14028781652450562, -0.40258195996284485, 0.10038487613201141, 0.05075416341423988, -0.1374603658914566, -0.17972923815250397, -0.22706899046897888, 0.2039879560470581, -0.19834594428539276, -0.3144708275794983, 0.2464379221200943, -0.19402170181274414, -0.15793700516223907, 0.11564559489488602, 0.008622592315077782, -0.08778078854084015, -0.3042396306991577, 0.0348786860704422, -0.03619029000401497, 0.21635249257087708, 0.11059894412755966, 0.029284410178661346, -0.1579592376947403, -0.17703382670879364, 0.13359636068344116, 0.4134778380393982, 0.23521748185157776, -0.07728628814220428, -0.08669868111610413, 0.10758784413337708, -0.1449463665485382, 0.1864529848098755, 0.19486913084983826, 0.2154950499534607, -0.3587736487388611, 0.265451043844223, -0.014938686043024063, -0.20001283288002014, 0.0970650315284729, -0.01669364608824253, -0.18697136640548706, -0.1098785251379013, -0.07887211441993713, -0.20806467533111572, 0.18580922484397888, 0.21362997591495514, -0.3850416839122772, 0.06760682165622711, -0.04961249232292175, -0.01119137927889824, 0.18382859230041504, -0.02280965819954872, -0.1282133013010025, -0.2728947699069977, 0.03223992511630058, -0.4317265748977661, 0.12397374212741852, 0.2046615332365036, -0.14625871181488037, -0.19949465990066528, 0.18731293082237244, -0.15370287001132965, -0.12229318916797638, 0.09284936636686325, -0.03725852817296982, 0.017105506733059883, 0.27833324670791626, -0.04125393182039261, -0.03663962334394455, 0.03134917840361595, -0.11006809026002884, -0.1885572373867035, -0.06503649055957794, 0.0035572308115661144, -0.05063726752996445, 0.18096499145030975, -0.34420034289360046, -0.1925787478685379, 0.2585195302963257, 0.20110255479812622, 0.11621063947677612, -0.1600368469953537, -0.01794213056564331, 0.19626839458942413, -0.15821616351604462, 0.1139330267906189, 0.20082709193229675, -0.16000694036483765, 0.00604278827086091, 0.15596060454845428, 0.08745922148227692, 0.032700829207897186, -0.10599839687347412, -0.08641472458839417, 0.01227436400949955, -0.28563135862350464, 0.2533647418022156, -0.027545619755983353, -0.254404753446579, -0.0009113865671679378, 0.31372639536857605, -0.006651701405644417, 0.08850588649511337, -0.230802521109581, 0.13219031691551208, 0.04203418642282486, -0.04729978367686272, 0.13277123868465424, 0.1923215538263321, -0.14023515582084656, -0.21513819694519043, 0.016340019181370735, 0.3504351079463959, -0.14590981602668762, 0.1165025383234024, -0.15007221698760986, -0.1657843440771103, -0.027030041441321373, 0.2518594264984131, 0.130071222782135, -0.17053759098052979, -0.2384658306837082, -0.14228059351444244, -0.12810319662094116, 0.29329439997673035, 0.18436753749847412, -0.06563473492860794, -0.2258458435535431, -0.10924957692623138, -0.07942109555006027, 0.1543845236301422, -0.12017432600259781, -0.12067754566669464, 0.30685046315193176, -0.22783198952674866, -0.1332252323627472, 0.16343171894550323, 0.19058415293693542, 0.005467517767101526, 0.5152063965797424, 0.1927022933959961, 0.5093067288398743, -0.37905260920524597, 0.23626922070980072, -0.25414004921913147, -0.10770688951015472, 0.15584009885787964, -0.05930224061012268, -0.1749192476272583, -0.3135659396648407, 0.14895747601985931, 0.3461981415748596, -0.3087911307811737, 0.12976814806461334, -0.04491439089179039, -0.10317961871623993, -0.08660387247800827, -0.06107933819293976, 0.1588251143693924, -0.20835332572460175, -0.14863431453704834, -0.06234478950500488, 0.2568340301513672, -0.644909143447876, 0.2612101435661316, 0.03722164407372475, 0.09412606060504913, -0.1322064995765686, 0.11209208518266678, 0.285133957862854, 0.14998109638690948, -0.19161637127399445, -0.19827091693878174, -0.18280531466007233, 0.10083723068237305, 0.3346697688102722, 0.06842705607414246, -0.06706946343183517, -0.14857976138591766, 0.12693846225738525, 0.04115980863571167, -0.16851253807544708, 0.13459749519824982, 0.056874074041843414, -0.1885945200920105, -0.22842159867286682, 0.3327704668045044, -0.372634619474411, 0.2204383760690689, 0.0661720260977745, 0.0028466973453760147, -0.2569420039653778, -0.19801586866378784, 0.012303902767598629, -0.078936368227005, -0.23325464129447937, -0.13623149693012238, 0.08422204107046127, -0.1723463535308838, -0.17420928180217743, 0.09983555972576141, 0.23047000169754028, -0.054028548300266266, -0.006687319837510586, -0.06581331789493561, 0.1417943835258484, -0.12714309990406036, -0.2370055615901947, -0.03165604546666145, 0.2784021198749542, 0.19186608493328094, -0.04171363264322281, -0.07284694164991379, -0.08185047656297684, 0.034196481108665466, -0.25633472204208374, -0.07341572642326355, 0.1273033618927002, 0.09295955300331116, -0.23035702109336853, -0.18951964378356934, -0.24548344314098358, -0.14122752845287323, -0.26555749773979187, -0.08043552935123444, 0.05328405275940895, 0.0966891348361969, -0.08369460701942444, 0.15400473773479462, 0.1853744238615036, 0.07578671723604202, 0.16381192207336426, -0.013286585919559002, 0.05118613317608833, 0.149471253156662, 0.1531267911195755, 0.17504878342151642, -0.053876642137765884, 0.04510164260864258, -0.15112274885177612, 0.0447283573448658, -0.019620468840003014, -0.05820707604289055, -0.038335639983415604, 0.002352799056097865, 0.040625978261232376, 0.049002815037965775, -0.007031528279185295, 0.047828588634729385, 0.04235294461250305, -0.08929091691970825, 0.07175399363040924, 0.47373414039611816, 0.3192671835422516, 0.5605224967002869, -0.7444002628326416, -0.47419849038124084, 0.2585597038269043, 0.23973774909973145, -0.09878090023994446, 0.39739081263542175, 0.21652752161026, -0.9056494235992432, 0.537674605846405, -0.11979855597019196, -0.7884282469749451, 0.028972944244742393, 0.0062444694340229034, 0.062317654490470886, -0.03673030063509941, 0.2134941667318344, 0.10273949801921844, 0.04567258059978485, -0.10499303787946701, -0.08023973554372787, -0.10640524327754974, -0.23472312092781067, 0.08147098124027252, -0.11610875278711319, 0.2397463172674179, -0.07544408738613129, -0.07622601091861725, -0.007499336265027523, 0.12258245795965195, -0.04402032867074013, -0.2441491037607193, -0.13023975491523743, -0.28860437870025635, -0.12915867567062378, -0.15501783788204193, 0.14993757009506226, -0.1397353559732437, 0.24047452211380005, -0.002871724544093013, -0.031343091279268265, -0.03499298915266991, 0.20405535399913788, -0.06327909231185913, 0.23994439840316772, 0.3110012114048004, -0.21498417854309082, 0.31524717807769775, 0.012492616660892963, -0.2305489033460617, 0.007534405682235956, -0.08896274864673615, -0.13754713535308838, -0.3360571563243866, 0.2065073549747467, 0.06646133959293365, -0.004433977883309126, -0.09578604251146317, -0.009050636552274227, 0.19981755316257477, -0.15085545182228088, 0.24172745645046234, -0.14173524081707, -0.08184856176376343, -0.5232322812080383, 0.18100570142269135, 0.19032073020935059, -0.1201605349779129, 0.5258960723876953, 0.4401857852935791, -0.11432500928640366, -0.16371116042137146, -0.10576494038105011, -0.2438739836215973, 0.26552361249923706, -0.16659671068191528, 0.23893241584300995, -0.15017147362232208, 0.24397124350070953, -0.16014818847179413, -0.06970784068107605, 0.04516655206680298, -0.010133538395166397, -0.0569557324051857, 0.06402724981307983, -0.13046519458293915, 0.24632485210895538, 0.16895301640033722, 0.0017347629182040691, 0.15435285866260529, -0.31312665343284607, -0.18967284262180328, -0.07248561829328537, -0.21321812272071838, -0.0029009475838392973, 0.14356857538223267, 0.046065740287303925, 0.35851213335990906, 0.079862080514431, 0.2254515141248703, 0.32266750931739807, -0.16790838539600372, 0.14300572872161865, 0.12493354082107544, -0.11104472726583481, 0.2301679104566574, -0.3088810443878174, -0.08681979775428772, -0.36376678943634033, 0.017641473561525345, -0.39039674401283264, 0.13374391198158264, -0.3002050817012787, -0.029056252911686897, -0.15925073623657227, 0.05663203075528145, 0.14175410568714142, -0.18441694974899292, 0.08034029603004456, -0.05111103132367134, -0.06067809462547302, -0.19885797798633575, 0.07778897881507874, -0.12180212140083313, 0.20501969754695892, 0.10335055738687515, -0.23868761956691742, 0.07816282659769058, -0.27660566568374634, 0.30431994795799255, 0.2590361535549164, -0.4458054006099701, -0.014688484370708466, 0.19741271436214447, -0.34691038727760315, 0.13507576286792755, -0.11205095797777176, 0.22780437767505646, 0.15911738574504852, -0.03872040659189224, 0.18149647116661072, 0.12446736544370651, -0.3348694443702698, 0.0797169879078865, -0.015435176901519299, 0.01395609974861145, -0.10642857849597931, 0.10287623852491379, -0.3390578329563141, -0.36436837911605835, 0.10769425332546234, -0.003320177784189582, 0.1888369470834732, -0.16325759887695312, 0.14755548536777496, 0.3486064672470093, -0.1368337720632553, -0.05149047449231148, 0.05544426664710045, 0.17793333530426025, -0.019205238670110703, 0.13285709917545319, 0.023690760135650635, -0.0735786184668541, -0.1606474220752716, 0.06593852490186691, -0.4119092524051666, -0.09699537605047226, 0.20693755149841309, 0.12763255834579468, 0.040241070091724396, -0.19458532333374023, 0.17606744170188904, 0.03761522099375725, -0.08026053011417389, 0.3702278435230255, -0.23938769102096558, -0.16797836124897003, -0.15108351409435272, -0.06756226718425751, 0.1253361999988556, -0.2056542932987213, 0.34361714124679565, 0.026224728673696518, -0.20532068610191345, -0.030465759336948395, -0.22132936120033264, 0.010930199176073074, -0.0643552914261818, 0.08899111300706863, -0.008780397474765778, 0.3098251223564148, -0.05200519785284996, -0.08144524693489075, 0.027539007365703583, -0.2613970637321472, -0.10598158836364746, 0.025793515145778656, -0.35929426550865173, 0.029089944437146187, 0.10857049375772476, -0.05305793881416321, -0.1394956409931183, 0.3351128101348877, -0.12672817707061768, -0.14005200564861298, -0.08211388438940048, 0.029877783730626106, 0.22334714233875275, 0.09306604415178299, -0.16907988488674164, 0.19472813606262207, -0.12100984156131744, -0.5134775042533875, 0.2535850405693054, 0.21982048451900482, -0.1192149817943573, -0.051338616758584976, -0.1255103349685669, 0.23828771710395813, -0.2602950632572174, -0.15820737183094025, -0.23043765127658844, 0.18039438128471375, 0.09533531963825226, 0.1841311901807785, -0.14091767370700836, 0.052874062210321426, -0.2059970200061798, -0.28126779198646545, -0.18351119756698608, 0.15466824173927307, 0.15680253505706787, -0.11015095561742783, -0.01864985190331936, -0.02579796127974987, -0.16726899147033691, 0.06419413536787033, -0.032965682446956635, -0.0625433698296547, 0.11024215072393417, 0.25232091546058655, 0.03407598286867142, -0.18907301127910614, 0.013336673378944397, -0.23836764693260193, -0.41687294840812683, 0.10375429689884186, -0.1291802078485489, 0.06295924633741379, 0.13011476397514343, 0.02897808514535427, -0.08786799013614655, -0.010728316381573677, -0.16753675043582916, 0.1288536787033081, -0.27575406432151794, 0.04820166528224945, -0.2805945873260498, -0.39076682925224304, 0.34932515025138855, -0.08398133516311646, -0.04324955493211746, 0.16869375109672546, -0.43374550342559814, 0.274738609790802, 0.22879458963871002, -0.25834646821022034, 0.30987557768821716, -0.0003227553970646113, -0.04032368212938309, 0.011677311733365059, 0.07721900939941406, 0.03593657910823822, 0.011082189157605171, 0.002210526028648019, 0.046752676367759705, 0.1002756655216217, -0.034960709512233734, 0.15948879718780518, 0.07284577190876007, -0.02699061669409275, 0.04742961376905441, -0.08810307830572128, -0.01566949114203453, 0.05936315283179283, 0.4004721939563751, -0.41238802671432495, -0.16347470879554749, 0.5886754989624023, 0.4433215260505676, -0.13725195825099945, 0.004647233057767153, -0.014694266952574253, -0.23879197239875793, -0.2296479046344757, 0.16197428107261658, 0.0016977263148874044, -0.18000128865242004, -0.09011894464492798, 0.04717683792114258, -0.03296434506773949, -0.061957668513059616, 0.15104655921459198, 0.1625649482011795, 0.21936899423599243, -0.08114635944366455, 0.22290053963661194, -0.19477435946464539, -0.226060688495636, 0.2572668492794037, -0.29174280166625977, -0.04387196898460388, 0.4489830732345581, -0.018511317670345306, 0.10677947103977203, 0.2784186601638794, 0.012907708995044231, 0.08817417919635773, -0.18797901272773743, -0.26690271496772766, 0.022426052019000053, 0.05668800324201584, -0.23956181108951569, 0.22139626741409302, 0.04324664548039436, -0.3336956799030304, -0.09294594824314117, 0.45678526163101196, -0.3679567575454712, 0.04583011940121651, 0.5017357468605042, 0.3834962844848633, -0.11234312504529953, -0.036859285086393356, -0.020417120307683945, -0.0378207303583622, -0.03188322111964226, -0.08525450527667999, -0.07492998987436295, -0.16344894468784332, -0.17250998318195343, 0.22345490753650665, 0.04062298685312271, -0.03541556000709534, -0.33562055230140686, 0.04733169823884964, 0.08720017969608307, -0.23185692727565765, 0.010742312297224998, 0.03210897371172905, -0.519367516040802, -0.1471528708934784, -0.028800586238503456, 0.08028116077184677, -0.15937210619449615, -0.046650905162096024, -0.3829268515110016, -0.08415587991476059, 0.02356131188571453, 0.3786771893501282, 0.044777289032936096, 0.24514223635196686, -0.05646269768476486, -0.013017600402235985, -0.1724676489830017, -0.04903572052717209, -0.010573185048997402, -0.1342141181230545, 0.1465897560119629, -0.1305379420518875, -0.22304318845272064, 0.18302065134048462, -0.0754479169845581, -0.15228870511054993, 0.27286937832832336, -0.016002628952264786, -0.09863246977329254, 0.093119315803051, -0.21043553948402405, -0.19344955682754517, -0.1656474471092224, -0.06985127925872803, -0.13919329643249512, 0.023588454350829124, -0.25754469633102417, 0.021525923162698746, -0.3635631799697876, -0.18564027547836304, -0.09230124950408936, 0.015083454549312592, 0.06001536548137665, 0.1724006086587906, -0.2807401716709137, -0.0333760604262352, -0.21273253858089447, -0.16469460725784302, 0.0862167552113533, 0.15760968625545502, 0.09292550384998322, -0.11591105163097382, 0.13800863921642303, 0.016982220113277435, -0.25416967272758484, -0.1248621717095375, -0.11596015840768814, -0.002820284105837345, 0.004154106602072716, 0.17154547572135925, 0.031185274943709373, -0.19622831046581268, 0.05848993360996246, 0.01894691027700901, 0.1218939945101738, -0.09435669332742691, 0.042281411588191986, 0.23551879823207855, 0.30192428827285767, -0.10104476660490036, 0.09560729563236237, 0.2855291962623596, -0.051029931753873825, 0.15365734696388245, 0.2868728041648865, -0.15919522941112518, 0.04340199753642082, 0.29590728878974915, -0.11875218898057938, -0.2773248553276062, -0.3038252294063568, -0.1857466846704483, 0.06393657624721527, 0.02970714122056961, 0.02997237630188465, 0.12445151060819626, 0.004516498185694218, 0.17480319738388062, 0.1409628689289093, -0.20569337904453278, 0.09186907857656479, -0.12631309032440186, 0.4886709153652191, 0.04226404055953026, -0.06411164999008179, 0.27098745107650757, -0.06851483881473541, 0.022310912609100342, 0.5199786424636841, 0.08744525164365768, -0.0215563103556633, 0.16976957023143768, 0.12139425426721573, -0.026460131630301476, -0.08761626482009888, 0.16785183548927307, 0.044673480093479156, -0.18809418380260468, -0.15865150094032288, 0.05055290833115578, 0.07923159748315811, 0.10309343039989471, 0.10465098172426224, 0.13821779191493988, -0.09772247076034546, -0.1365794688463211, -0.21227139234542847, 0.20174333453178406, 0.12970910966396332, -0.20235493779182434, 0.11131318658590317, 0.14183923602104187, -0.330696165561676, 0.2898949980735779, 0.012815520167350769, -0.12321685254573822, 0.047145403921604156, 0.1890169382095337, 0.09373164921998978, 0.010949190706014633, 0.18197762966156006, 0.23255324363708496, -0.2378765344619751, 0.14431796967983246, 0.16198910772800446, -0.08909407258033752, -0.08864786475896835, 0.03969806805253029, 0.05043105036020279, -0.14577415585517883, -0.03882227838039398, 0.046253398060798645, -0.05381140857934952, -0.009325031191110611, 0.09036674350500107, -0.16006194055080414, -0.3215521275997162, 0.11296194046735764, 0.06423036009073257, 0.17242567241191864, -0.08423471450805664, 0.02886953204870224, -0.10518945008516312, -0.006696596741676331, 0.05142435058951378, 0.19017210602760315, 0.029809284955263138, -0.1506069004535675, -0.0719895288348198, -0.10570960491895676, -0.10780952870845795, -0.14645293354988098, 0.08130495995283127, -0.10592163354158401, -0.39002087712287903, -0.19179916381835938, 0.08213385194540024, -0.1508367955684662, -0.12101873755455017, -0.03479450196027756, -0.17274203896522522, -0.10487116873264313, 0.06164317950606346, -0.06366783380508423, 0.08298473060131073, 0.15890182554721832, 0.030027659609913826, -0.1657334566116333, 0.24799402058124542, -0.5354894399642944, 0.11493269354104996, 0.018281234428286552, -0.205268993973732, 0.19505473971366882, 0.009902452118694782, -0.16439814865589142, -0.11999402940273285, -0.18629489839076996, 0.2010062038898468, -0.2736682891845703, -0.24986499547958374, -0.13504455983638763, -0.057938456535339355, -0.14035075902938843, 0.08985798060894012, 0.1691870093345642, -0.20152445137500763, -0.19778718054294586, 0.1639900803565979, 0.08801575750112534, -0.40577948093414307, 0.039772141724824905, -0.037661951035261154, -0.1884351670742035, -0.17047660052776337, 0.3597929775714874, 0.11261920630931854, 0.19325552880764008, 0.003628023201599717, -0.0900890976190567, -0.17929042875766754, -0.14546716213226318, 0.3236178457736969, 0.30435705184936523, 0.034635916352272034, -0.2767625153064728, 0.07724468410015106, 0.08150706440210342, -0.12956808507442474, 0.303772896528244, 0.26073846220970154, -0.20680011808872223, 0.1703241467475891, 0.3641435205936432, 0.05654264986515045, -0.15375521779060364, -0.22719067335128784, -0.020745037123560905, -0.052182089537382126, -0.01733454316854477, -0.31193071603775024, -0.0709012970328331, -0.1660570651292801, 0.28745853900909424, -0.0549582913517952, 0.022713426500558853, -0.20406801998615265, 0.24602177739143372, 0.28576910495758057, -0.345807820558548, 0.15394189953804016, 0.13973742723464966, -0.19102539122104645, -0.025231948122382164, 0.020403781905770302, 0.028507910668849945, -0.2114821821451187, -0.102780781686306, -0.038901690393686295, -0.18218791484832764, -0.09064190089702606, 0.3875160217285156, 0.01943948119878769, -0.04353998973965645, 