{"version": "0.5.4", "metadata": {"date": {"year": 2025, "month": 8, "day": 22, "hour": 13, "minute": 48, "second": 12}, "loudness": -23.103130340576172, "gain": 0.8424288137388672, "name": null, "modeled_by": null, "gear_type": null, "gear_make": null, "gear_model": null, "tone_type": null, "input_level_dbu": null, "output_level_dbu": null, "training": {"settings": {"ignore_checks": true}, "data": {"latency": {"manual": -4, "calibration": {"algorithm_version": 1, "delays": [-4], "safety_factor": 0, "recommended": -4, "warnings": {"matches_lookahead": false, "disagreement_too_high": false}}}, "checks": {"version": 1, "passed": true}}, "validation_esr": 0.0783983267386496}}, "architecture": "WaveNet", "config": {"layers": [{"input_size": 1, "condition_size": 1, "head_size": 8, "channels": 16, "kernel_size": 3, "dilations": [1, 2, 4, 8, 16, 32, 64, 128, 256, 512], "activation": "Tanh", "gated": false, "head_bias": false}, {"input_size": 16, "condition_size": 1, "head_size": 1, "channels": 8, "kernel_size": 3, "dilations": [1, 2, 4, 8, 16, 32, 64, 128, 256, 512], "activation": "Tanh", "gated": false, "head_bias": true}], "head": null, "head_scale": 0.02}, "weights": [-0.012914983555674553, 0.7371999621391296, -1.0153346061706543, -1.0660415887832642, -0.46059536933898926, 0.4328509271144867, -0.2077489197254181, 0.7704563736915588, -0.44232243299484253, 0.49216213822364807, -0.3364349603652954, -0.27408984303474426, -0.9223476052284241, -0.7957424521446228, -0.6794159412384033, 0.03721543774008751, 0.12416600435972214, -0.01116220559924841, -0.06469787657260895, 0.003543206723406911, 0.15852755308151245, 0.20610466599464417, -0.0953749567270279, -0.002473890781402588, -0.1141309067606926, -0.056713275611400604, 0.01807994768023491, -0.23097321391105652, -0.16296596825122833, -0.14608818292617798, -0.14493724703788757, 0.1822493076324463, 0.018168855458498, 0.024269049987196922, -0.14469996094703674, -0.2102975994348526, -0.1302415132522583, 0.1946329027414322, 0.176677405834198, 0.1601293981075287, -0.05829496681690216, -0.20667919516563416, -0.07502951472997665, -0.06944596767425537, 0.016853494569659233, 0.024840032681822777, 0.030349455773830414, -0.019445480778813362, -0.14167740941047668, -0.07114394009113312, -0.022702455520629883, 0.04452943801879883, -0.012154423631727695, -0.09074243903160095, 0.007436733227223158, -0.149525448679924, -0.0781669169664383, -0.19996042549610138, -0.16920728981494904, -0.1886715143918991, -0.03330400586128235, 0.08460544049739838, -0.018516505137085915, 0.08488772809505463, 0.03411638364195824, -0.19900546967983246, -0.10371318459510803, 0.10200261324644089, 0.28523343801498413, 0.08881714195013046, -0.175345778465271, -0.24873515963554382, 0.10321161150932312, 0.05658335983753204, -0.07027494162321091, 0.1727224588394165, -0.02748146466910839, -0.3109719157218933, 0.07175850868225098, -0.019533803686499596, 0.06805885583162308, 0.0879991203546524, -0.006397515535354614, -0.3439561724662781, 0.09128322452306747, 0.03884480521082878, 0.1710382103919983, -0.11085972934961319, -0.006962181068956852, -0.2833798825740814, 0.10481694340705872, 0.1288287192583084, 0.29390957951545715, 0.003898405935615301, -0.21786141395568848, -0.2912159562110901, 0.12331735342741013, -0.02721189148724079, -0.29677480459213257, -0.033937498927116394, 0.07119130343198776, -0.09831755608320236, -0.018349671736359596, -0.09554488211870193, -0.32835471630096436, 0.046451058238744736, -0.17036588490009308, -0.30851373076438904, 0.035725850611925125, 0.05868494138121605, 0.044051509350538254, -0.02734609693288803, 0.05163717269897461, 0.021798107773065567, 0.05779988318681717, -0.4220602810382843, 0.05663319677114487, 0.17797042429447174, 0.3253951668739319, -0.054178621619939804, -0.10720844566822052, 0.3188382685184479, -0.154656782746315, -0.09586992859840393, 0.1706373542547226, -0.16699112951755524, -0.19575858116149902, -0.3679009675979614, 0.04574419558048248, 0.0524466298520565, 0.23568838834762573, -0.0923750251531601, -0.31521230936050415, -0.31177836656570435, 0.1892019361257553, 0.14671525359153748, 0.3284655511379242, -0.09774620831012726, -0.13324861228466034, -0.2218637615442276, 0.21774382889270782, 0.24985866248607635, 0.430332213640213, -0.10680673271417618, -0.29949620366096497, 0.24124771356582642, 0.012429043650627136, -0.16270872950553894, 0.23233962059020996, -0.19529098272323608, -0.2958654463291168, 0.18357981741428375, -0.11290796101093292, -0.0822032019495964, 0.3905890882015228, -0.22631362080574036, -0.0746687650680542, -0.3775191307067871, 0.05869024991989136, 0.08002041280269623, -0.16276560723781586, -0.01634432189166546, -0.21706512570381165, -0.02771393395960331, -0.06677931547164917, 0.005698137450963259, -0.16517111659049988, 0.09853702038526535, -0.13614071905612946, -0.1106652244925499, 0.16819258034229279, -0.060825735330581665, 0.023816188797354698, 0.08939232677221298, -0.14105233550071716, 0.18407876789569855, -0.06817664206027985, -0.06279760599136353, 0.06064145639538765, -0.049709443002939224, 0.018717054277658463, 0.07044319063425064, 0.059033483266830444, 0.04667834937572479, -0.03600110113620758, 0.0936204344034195, -0.04265619441866875, 0.07520928978919983, -0.1589028239250183, 0.0859433263540268, 0.022478437051177025, 0.1489679217338562, -0.11573291569948196, -0.09906091541051865, -0.06419620662927628, -0.08343514055013657, -0.1830715537071228, 0.0940660610795021, -0.09196551144123077, -0.10614320635795593, 0.04604097455739975, 0.08390666544437408, -0.21220022439956665, -0.058717403560876846, -0.08349863439798355, 0.20456792414188385, -0.033556267619132996, 0.17428657412528992, -0.13825218379497528, -0.00830669142305851, -0.031183907762169838, 0.13381224870681763, 0.007672495674341917, -0.09203814715147018, -0.1673782467842102, 0.026713145896792412, -0.05629219114780426, -0.2426224648952484, 0.1234116181731224, -0.06229374557733536, -0.17868630588054657, 0.14491082727909088, 0.10174599289894104, 0.16790832579135895, -0.14055797457695007, 0.007288169115781784, -0.21788503229618073, 0.0096206059679389, 0.06043876335024834, 0.1444719135761261, -0.004437911324203014, 0.06672600656747818, -0.17504914104938507, 0.12932813167572021, 0.13751190900802612, 0.0838329941034317, 0.060733504593372345, -0.1523764431476593, -0.22276584804058075, 0.052388183772563934, 0.11028271168470383, -0.05296378210186958, -0.03674757480621338, 0.051097720861434937, -0.08931251615285873, -0.13247959315776825, 0.1589106172323227, -0.2839740812778473, 0.007905767299234867, 0.02956235408782959, -0.2533348798751831, 0.02105601318180561, 0.16860918700695038, 0.09569244086742401, -0.06851233541965485, -0.07771843671798706, 0.10315169394016266, 0.17734450101852417, -0.17446179687976837, -0.3844437301158905, -0.2201339602470398, 0.3001549541950226, 0.3669634759426117, 0.25109776854515076, -0.15842881798744202, 0.24745531380176544, 0.10476914793252945, -0.16599877178668976, 0.4144231379032135, 0.18442492187023163, -0.27637767791748047, -0.3537919521331787, -0.27084988355636597, 0.2509094774723053, 0.1892777532339096, -0.021481085568666458, -0.13782058656215668, -0.3896641433238983, -0.15954025089740753, 0.250624418258667, 0.33112162351608276, 0.060993414372205734, -0.3434530794620514, -0.1847859025001526, -0.1242491602897644, 0.3284693658351898, 0.23757107555866241, 0.1730484962463379, -0.2534344494342804, 0.2910616397857666, 0.056885454803705215, -0.15904517471790314, 0.33869612216949463, 0.13983850181102753, -0.2382558137178421, 0.19397588074207306, 0.23774343729019165, -0.3129321038722992, 0.35823047161102295, 0.09625732898712158, -0.2842586636543274, -0.20134298503398895, -0.15605850517749786, 0.2643277943134308, -0.021090831607580185, 0.06763672828674316, 0.05000508576631546, -0.03954107314348221, -0.14416080713272095, 0.26110509037971497, -0.017292991280555725, 0.1787198781967163, -0.2250739485025406, 0.05095620080828667, 0.25923627614974976, -0.17908258736133575, 0.027746859937906265, 0.20191244781017303, -0.21844615042209625, -0.08827802538871765, -0.19246478378772736, 0.28996676206588745, 0.0015455010579898953, 0.2018384486436844, -0.21874476969242096, 0.0299362912774086, -0.12114852666854858, 0.28544923663139343, 0.1696578413248062, 0.16118742525577545, -0.4054778218269348, -0.2228103131055832, -0.06330258399248123, 0.36418601870536804, 0.0005927297752350569, 0.2559223175048828, -0.1635178029537201, 0.23926730453968048, 0.3282206952571869, -0.16220831871032715, 0.07021599262952805, 0.1531250774860382, -0.14806708693504333, 0.18114623427391052, 0.10479670763015747, -0.14692093431949615, 0.16832870244979858, 0.28372764587402344, -0.372325599193573, 0.02729887329041958, -0.2034384161233902, 0.3925737142562866, 0.044400133192539215, -0.0448211245238781, -0.1041131541132927, -0.010170127265155315, 0.23164252936840057, 0.24180126190185547, -0.023159215226769447, -0.24560363590717316, -0.2700081467628479, -0.062110889703035355, -0.3954276442527771, -0.063482366502285, 0.1634352058172226, -0.13553869724273682, -0.051402442157268524, -0.1988500952720642, 0.1864730566740036, 0.1549513190984726, -0.06881998479366302, -0.18616633117198944, -0.25663140416145325, -0.14909867942333221, 0.13545532524585724, 0.09348548203706741, 0.21137893199920654, -0.16801229119300842, -0.09663579612970352, 0.02172735333442688, 0.40092700719833374, 0.14342442154884338, 0.1318291425704956, -0.14727938175201416, -0.11397948116064072, 0.2278396189212799, -0.19309552013874054, -0.08326250314712524, 0.02529934048652649, -0.2075340747833252, -0.15550388395786285, 0.045981697738170624, -0.35491544008255005, -0.2462683618068695, -0.025129901245236397, -0.1823318749666214, -0.08404906839132309, -0.13409319519996643, 0.07864939421415329, 0.15929311513900757, 0.29400554299354553, 0.19134213030338287, -0.027620185166597366, -0.13255123794078827, -0.10793308168649673, -0.1853662133216858, 0.40368080139160156, 0.2755531966686249, 0.024670172482728958, 0.3504071533679962, 0.08709478378295898, 0.059734802693128586, 0.3902404010295868, 0.17227107286453247, -0.02403736673295498, -0.31209203600883484, -0.2048681080341339, -0.10294445604085922, 0.250122606754303, 0.2667161822319031, 0.028328586369752884, -0.35762906074523926, -0.16273580491542816, -0.011413135565817356, 0.35744142532348633, 0.05500626191496849, 0.06254435330629349, -0.38039347529411316, -0.2357158064842224, -0.031771253794431686, 0.15875405073165894, 0.21354903280735016, 0.18644371628761292, 0.281023770570755, 0.08307958394289017, 0.04142120108008385, 0.29855433106422424, 0.05838187411427498, 0.14966663718223572, 0.13350331783294678, 0.024587033316493034, -0.06319348514080048, 0.24421426653862, 0.26778262853622437, -0.04960550740361214, -0.07917066663503647, -0.24175569415092468, -0.08283119648694992, -0.047561511397361755, 0.06640218943357468, 0.15554292500019073, 0.2531944811344147, -0.05979786440730095, 0.11602593213319778, -0.26989537477493286, 0.3194863200187683, -0.03763090819120407, -0.10606609284877777, 0.08530005067586899, -0.08695486932992935, -0.31376370787620544, 0.14023807644844055, -0.019379178062081337, 0.06683377921581268, -0.1593233346939087, 0.11769308149814606, -0.14972473680973053, 0.13738738000392914, -0.1236899197101593, 0.12812627851963043, -0.13726270198822021, 0.18780435621738434, -0.12458163499832153, 0.21950572729110718, 0.005154422018676996, 0.039927732199430466, -0.3265779912471771, 0.11533434689044952, -0.2562203109264374, 0.2696450352668762, -0.1412634253501892, -0.2451876997947693, 0.09248586744070053, 0.034729503095149994, -0.1829133927822113, 0.3091941177845001, 0.0463702492415905, -0.08980847150087357, 0.19205109775066376, -0.09270787984132767, -0.2180415838956833, 0.22049742937088013, 0.017049428075551987, 0.1268966943025589, -0.08646828681230545, 0.01356658898293972, -0.016315404325723648, -0.12341438978910446, 0.1755942553281784, 0.17489653825759888, 0.015363911166787148, 0.03682170435786247, 0.02990853600203991, -0.0640774741768837, 0.18618911504745483, -0.11785922199487686, -0.1037379801273346, 0.11957108229398727, -0.0777229592204094, -0.0923687070608139, 0.030637050047516823, 0.1341858059167862, 0.11618622392416, -0.1138436421751976, -0.02797619067132473, -0.07719948887825012, 0.03903360664844513, 0.04812882840633392, 0.22961626946926117, -0.07426577806472778, 0.018546801060438156, -0.19463421404361725, 0.1203361302614212, -0.0722300186753273, 0.06159377470612526, -0.13822273910045624, 0.08907915651798248, -0.18005649745464325, 0.07557572424411774, -0.09711206704378128, -0.002700107404962182, 0.19252441823482513, -0.14913976192474365, -0.26362344622612, -0.048258762806653976, -0.04402211308479309, -0.17855405807495117, -0.027061408385634422, -0.0887291431427002, -0.1256205141544342, -0.016557959839701653, -0.003846995998173952, 0.10170628875494003, -0.14425741136074066, -0.024122603237628937, 0.18243740499019623, -0.03096376173198223, 0.019249211996793747, -0.16850703954696655, 0.21445372700691223, -0.15330727398395538, -0.023898093029856682, 0.06945258378982544, -0.10785044729709625, 0.14268538355827332, -0.08452975749969482, -0.05424776300787926, 0.07370290905237198, 0.011826906353235245, 0.020408978685736656, -0.2582229673862457, -0.015049801208078861, -0.03035932034254074, 0.2018173635005951, -0.16869153082370758, 0.15458990633487701, -0.143397256731987, 0.043340831995010376, 0.08280786871910095, 0.1887752264738083, 0.03878273069858551, 0.10863728821277618, -0.15205375850200653, -0.019052470102906227, -0.02185259759426117, 0.23361164331436157, -0.12143992632627487, -0.150081068277359, 0.17582930624485016, 0.07390190660953522, -0.05796562135219574, -0.008089945651590824, -0.2008810043334961, 0.015328451991081238, 0.09518343955278397, -0.15370741486549377, 0.008480544202029705, 0.17047494649887085, 0.040938131511211395, 0.1095774844288826, -0.11311231553554535, -0.0026684103067964315, -0.25206223130226135, 0.3108261227607727, 0.22006389498710632, 0.09168931841850281, -0.2266780138015747, 0.12303345650434494, 0.1000189557671547, 0.22765174508094788, -0.11376547813415527, -0.0890091136097908, -0.0026875839103013277, 0.1445838361978531, -0.10288175940513611, 0.026384957134723663, 0.07633790373802185, -0.033138807862997055, -0.17667636275291443, -0.03057783469557762, -0.00556978490203619, -7.407774683088064e-05, 0.13515731692314148, -0.025541996583342552, -0.046697717159986496, 0.11775986105203629, 0.011991307139396667, 0.11651270091533661, 0.13199202716350555, 0.06564720720052719, -0.161936417222023, 0.1273624151945114, 0.006280850153416395, -0.033722151070833206, -0.026081329211592674, -0.13536705076694489, 0.21860995888710022, -0.01991937682032585, -0.16594703495502472, 0.08912811428308487, 0.0987224131822586, 0.005316304042935371, 0.14241401851177216, 0.022750094532966614, 0.010507272556424141, 0.05913857743144035, -0.050778694450855255, -0.10629669576883316, -0.19002147018909454, 0.05795431509613991, -0.2345219999551773, 0.10842151939868927, 0.08413610607385635, 0.14318472146987915, -0.3182598650455475, 0.08979552984237671, -0.2226453721523285, 0.3370524048805237, -0.07240824401378632, -0.1762542575597763, 0.2957647144794464, -0.01978740654885769, -0.02370213344693184, 0.11224110424518585, -0.08477362245321274, 0.06632669270038605, -0.2036491185426712, 0.0816880613565445, -0.15025658905506134, 0.33832359313964844, 0.07310885190963745, 0.11093296110630035, -0.10697861760854721, -0.15222465991973877, -0.13636735081672668, 0.35479530692100525, 0.023186910897493362, 0.25929808616638184, -0.2576521933078766, 0.07931303232908249, -0.2699880599975586, 0.20466777682304382, 0.02895529754459858, -0.09800749272108078, 0.2674243152141571, 0.14283300936222076, -0.16201986372470856, 0.208107128739357, 0.13944081962108612, -0.17776986956596375, 0.3430442810058594, -0.05684206262230873, -0.1588086187839508, 0.2103126049041748, 0.10395972430706024, 0.2011418342590332, -0.1811445951461792, -0.15843750536441803, -0.0359833799302578, -0.1562616378068924, -0.1319439560174942, -0.23169982433319092, 0.14031623303890228, 0.25620511174201965, 0.15423257648944855, -0.1843847632408142, -0.022942576557397842, 0.03838497772812843, -0.019216151908040047, -0.1071210652589798, 0.07863959670066833, 0.001080901944078505, -0.2515704929828644, -0.1092403382062912, -0.042890772223472595, 0.10757116228342056, 0.14895173907279968, 0.08766859024763107, -0.17603091895580292, -0.04457029327750206, 0.03911382332444191, 0.0608653798699379, 0.022964080795645714, -0.201670303940773, -0.017814818769693375, -0.1799887716770172, 0.062449295073747635, 0.17460975050926208, 0.22087204456329346, 0.06784003973007202, -0.0032878511119633913, 0.050575125962495804, -0.0657244622707367, -0.20850586891174316, 0.05114886537194252, -0.022070197388529778, 0.010573371313512325, 0.02369232475757599, 0.04146519675850868, -0.19473393261432648, 0.12504038214683533, 0.0625995323061943, -0.168592631816864, -0.15695898234844208, -0.10848113149404526, 0.18547621369361877, -0.059748630970716476, -0.008600104600191116, 0.12192462384700775, -0.05851348862051964, -0.4995048940181732, 0.03141586109995842, 0.06602182239294052, 0.3428763747215271, 0.04774709418416023, 0.07451779395341873, 0.48634448647499084, -0.09233558177947998, -0.07041094452142715, 0.3338862359523773, -0.14192543923854828, 0.042491666972637177, -0.2788820266723633, 0.13642555475234985, 0.0032192631624639034, 0.41926392912864685, -0.12433093786239624, 0.15673936903476715, -0.43986162543296814, -0.08558192849159241, -0.03447079658508301, 0.4910784661769867, -0.14618419110774994, 0.18789339065551758, -0.3298303782939911, -0.08638637512922287, -0.07206534594297409, 0.4953051209449768, -0.13781002163887024, -0.09242536872625351, 0.42951124906539917, -0.1420079916715622, 0.03227757662534714, 0.45414218306541443, 0.07231326401233673, -0.14480124413967133, 0.5213849544525146, -0.10803677886724472, 0.09042465686798096, 0.2555423676967621, -0.14225326478481293, 0.13396486639976501, -0.2412049025297165, 0.05612446367740631, -0.09937601536512375, -0.13600711524486542, 0.10054560750722885, -0.13450825214385986, 0.039476219564676285, 0.14037026464939117, 0.00663089519366622, -0.08273263275623322, -0.11363513767719269, -0.03350061923265457, 0.05348014831542969, -0.06541597843170166, 0.002719870302826166, -0.16694431006908417, -0.0142041752114892, -0.08331798017024994, 0.5343680381774902, -0.4664844572544098, 0.9619038105010986, -0.6991475820541382, -0.052653275430202484, 1.1056221723556519, 1.2628291845321655, -0.4049903452396393, 0.09992256760597229, 0.16358409821987152, -0.5251308083534241, -0.2756821811199188, 0.2581273913383484, -0.7390013933181763, 0.28922387957572937, 0.4473046660423279, -0.0737307220697403, 0.5810036063194275, -0.11006501317024231, -0.005680635571479797, 0.03437424823641777, -0.1736678183078766, -0.09754186868667603, 0.07251598685979843, -0.0915568619966507, -0.15330874919891357, 0.11180054396390915, -0.17117619514465332, -0.15992531180381775, 0.1685655415058136, 0.3231990337371826, -0.19695277512073517, 0.05259023606777191, -0.03831415995955467, -0.2403481900691986, 0.09766636788845062, 0.2516583204269409, -0.06225137040019035, -0.04742780327796936, 0.10478455573320389, -0.06838618218898773, 0.26611390709877014, 0.22299335896968842, 0.07175860553979874, 0.010419655591249466, 0.03955475240945816, 0.18090681731700897, 0.2295653074979782, 0.11900120228528976, 0.17878858745098114, -0.2944505512714386, 0.05149555206298828, -0.14905451238155365, -0.2712216377258301, -0.05774649977684021, -0.08105071634054184, -0.130809023976326, -0.19613149762153625, 0.17195503413677216, -0.31625157594680786, -0.009348791092634201, 0.36476609110832214, 0.24376901984214783, -0.02519369125366211, 0.223483607172966, -0.1513718068599701, 0.00020561374549288303, -0.23078669607639313, -0.20283612608909607, 0.06431935727596283, -0.15889085829257965, 0.0488567054271698, -0.3481205999851227, -0.15985107421875, -0.03286900371313095, -0.0017980821430683136, 0.11142663657665253, 0.20661596953868866, -0.15732818841934204, -0.07667232304811478, -0.10968883335590363, -0.2540293037891388, -0.10619345307350159, 0.18394188582897186, 0.07464465498924255, 0.15917319059371948, 0.10038424283266068, -0.1922036111354828, 0.0005349990678951144, 0.13377782702445984, -0.11204132437705994, 0.05068502202630043, -0.06410513818264008, 0.16614051163196564, -0.13024629652500153, 0.19728441536426544, -0.2109009027481079, -0.02616691216826439, 0.23213563859462738, 0.17390590906143188, 0.4192381799221039, 0.2222875952720642, 0.39166536927223206, 0.08092530816793442, 0.2962217628955841, 0.031878963112831116, -0.09472177177667618, 0.024415722116827965, 0.07120178639888763, -0.14444686472415924, 0.08059264719486237, 0.2328149378299713, -0.04244600608944893, -0.023078080266714096, 0.24178485572338104, 0.15510468184947968, -0.18657968938350677, 0.017814096063375473, 0.04587886482477188, 0.023159543052315712, 0.22310055792331696, -0.1000186875462532, -0.21575962007045746, 0.14468200504779816, 0.24344906210899353, -0.31574109196662903, -0.1193057969212532, -0.21776993572711945, 0.09354524314403534, 0.07780399918556213, 0.14446108043193817, -0.23602266609668732, -0.07562580704689026, 0.1409747451543808, -0.010059334337711334, 0.12647272646427155, 0.27359524369239807, -0.18461158871650696, 0.3333100378513336, -0.21351656317710876, -0.0492786206305027, -0.2684616446495056, -0.189615398645401, 0.09154967218637466, -0.10896075516939163, 0.09973087161779404, -0.2859501838684082, -0.32270488142967224, -0.13971777260303497, -0.3304511308670044, -0.36037346720695496, 0.01566397398710251, -0.1495821475982666, -0.21127010881900787, 0.29339325428009033, -0.11450070142745972, -0.13999806344509125, -0.11226709932088852, 0.08965202420949936, -0.24705110490322113, -0.3071465790271759, -0.09871669113636017, 0.1463090032339096, -0.1235748827457428, -0.0672728642821312, 0.17153051495552063, 0.23269405961036682, -0.40964603424072266, 0.005227747373282909, -0.10903333127498627, 0.011046084575355053, 0.05573710799217224, 0.2432139664888382, 0.18195931613445282, -0.24648422002792358, 0.25964656472206116, 0.25872042775154114, 0.21135133504867554, -0.4103962481021881, -0.011186962947249413, -0.13983316719532013, -0.2775164544582367, 0.12398484349250793, -0.07114183902740479, -0.10973851382732391, -0.05883338674902916, -0.3730522394180298, -0.18810929358005524, -0.0840952917933464, 0.2185082733631134, 0.07305978983640671, 0.20387989282608032, 0.0005025785649195313, -0.047343943268060684, 0.15556113421916962, -0.004549973178654909, -0.14823438227176666, -0.11685148626565933, -0.1027352511882782, 0.06271841377019882, 0.06667982786893845, -0.27518051862716675, 0.016768917441368103, -0.10881270468235016, -0.0776527151465416, -0.1336449384689331, -0.21303464472293854, -0.3177475333213806, 0.03635145351290703, 0.06272626668214798, -0.021983200684189796, 0.050824280828237534, 0.08661094307899475, -0.33095085620880127, -0.2600918412208557, 0.18925431370735168, 0.1439799964427948, -0.18263566493988037, -0.13641659915447235, 0.17696958780288696, 0.18543680012226105, -0.1331050843000412, -0.06471303105354309, -0.0035813285503536463, 0.17339777946472168, -0.2044862061738968, 0.10458727180957794, 0.16675697267055511, -0.2719874680042267, 0.14075155556201935, -0.12373580038547516, 0.22220346331596375, -0.23715119063854218, -0.11686703562736511, -0.13994085788726807, 0.17542505264282227, 0.05390535667538643, 0.06190662831068039, -0.06920071691274643, -0.09306322783231735, 0.04807598143815994, 0.22391481697559357, -0.20511387288570404, -0.08572165668010712, 0.23546645045280457, -0.2020469605922699, 0.22529202699661255, 0.18919818103313446, -0.34368130564689636, 0.32065048813819885, -0.09486186504364014, 0.09938083589076996, 0.25576430559158325, 0.40778055787086487, 0.018790286034345627, -0.04266269877552986, 0.19723528623580933, 0.2625906765460968, 0.31108424067497253, -0.1836787611246109, -0.2367432713508606, 0.10030648112297058, -0.030085666105151176, 0.3671351373195648, -0.00644642161205411, 0.026029659435153008, 0.06645265966653824, -0.14287550747394562, 0.03371501713991165, 0.006966217886656523, -0.044590502977371216, -0.1448822319507599, 0.10348568856716156, 0.02495424821972847, 0.1493752896785736, -0.13446374237537384, -0.19692370295524597, -0.023706331849098206, 0.06049048900604248, -0.05716371908783913, 0.07709790021181107, -0.17227716743946075, 0.16826219856739044, -0.026943795382976532, 0.06960974633693695, 0.06943340599536896, 0.07407935708761215, 0.06890682876110077, 0.14717812836170197, -0.06294368952512741, -0.13717588782310486, 0.20800550282001495, 0.005152558442205191, -0.169147327542305, -0.1635211706161499, -0.08464103937149048, 0.15220236778259277, -1.1324923038482666, -0.5802841782569885, -0.4461285173892975, -0.21771375834941864, -0.266777902841568, 0.05693769454956055, 0.2769312560558319, 0.16727904975414276, 0.28618648648262024, 0.08657427132129669, -0.050612084567546844, 0.451015442609787, 0.4429125487804413, 0.16495946049690247, -0.15479762852191925, 0.11296974122524261, -0.022510800510644913, -0.0951528400182724, -0.29472947120666504, 0.1076188012957573, -0.0902920663356781, -0.01962783746421337, -0.1867145597934723, 0.17474359273910522, -0.19811539351940155, -0.4812398850917816, -0.06316403299570084, -0.19759924709796906, -0.3254678547382355, 0.2598801851272583, -0.3345974385738373, -0.0995781272649765, 0.06846336275339127, -0.37910741567611694, -0.02676163613796234, -0.102178655564785, 0.04095739126205444, -0.06893985718488693, -0.1744462251663208, -0.31057122349739075, 0.07006627321243286, 0.26492106914520264, -0.2322157323360443, -0.08210518956184387, 0.27789247035980225, -0.3535354435443878, -0.2595846354961395, 0.18433687090873718, -0.2665555775165558, 0.08978201448917389, -0.038014668971300125, 0.15641503036022186, -0.2394944429397583, 0.05697023123502731, 0.28187447786331177, -0.08534561097621918, -0.09565594047307968, 0.12353941798210144, -0.056529004126787186, -0.20475713908672333, 0.38723841309547424, 0.2583901882171631, -0.10194326937198639, -0.5058111548423767, -0.1813417375087738, -0.05703042820096016, 0.40040141344070435, 0.10567020624876022, -0.15562237799167633, -0.20230132341384888, -0.437446266412735, 0.40857553482055664, -0.12654781341552734, 0.05690109729766846, -0.19264645874500275, -0.17804984748363495, -0.26083946228027344, -0.14134778082370758, -0.08605310320854187, 0.039744727313518524, -0.04905543848872185, -0.3737639784812927, -0.13507060706615448, 0.1857953518629074, -0.14834551513195038, 0.4317912459373474, 0.0018116266001015902, -0.16516739130020142, -0.19145971536636353, 0.02572590485215187, -0.16477254033088684, -0.07094753533601761, -0.08463689684867859, 0.09953715652227402, 0.3326168954372406, 0.0868874043226242, 0.0012156898155808449, 0.1180853322148323, 0.009829831309616566, 0.10917134582996368, 0.04191465303301811, 0.0008550432394258678, 0.058205097913742065, -0.0798630565404892, 0.13320481777191162, 0.32106098532676697, -0.01579173281788826, -0.0638735443353653, -0.009360099211335182, -0.3299817144870758, 0.16340015828609467, -0.018236087635159492, 0.1080881655216217, -0.06627119332551956, -0.014962398447096348, 0.006936473306268454, -0.2443677932024002, -0.2470283806324005, 0.08867384493350983, 0.09693237394094467, 0.20542530715465546, 0.010743241757154465, 0.04883936047554016, 0.34856104850769043, 0.42648693919181824, -0.013864503242075443, -0.015372855588793755, 0.16659952700138092, 0.17468217015266418, -0.2811041474342346, 0.13031165301799774, 0.2925625741481781, -0.019888419657945633, 0.042234309017658234, 0.2731900215148926, 0.0032769672106951475, -0.22785086929798126, 0.08284395188093185, 0.037846922874450684, -0.004441619850695133, 0.05108257755637169, 0.12790197134017944, -0.2427469938993454, -0.2490488439798355, 0.15140847861766815, 0.10070352256298065, -0.1769961565732956, -0.048260513693094254, -0.05036083981394768, -0.16860170662403107, -0.19113634526729584, 0.38768547773361206, -0.03529869019985199, -0.03449813276529312, 0.14682407677173615, 0.05766512453556061, -0.4534953236579895, 0.09915842860937119, 0.129414364695549, 0.11406884342432022, -0.3797036409378052, 0.07616488635540009, 0.05935683101415634, -0.06581413745880127, 0.005702683702111244, 0.5037750005722046, -0.37378838658332825, -0.030058300122618675, -0.14673833549022675, 0.10986340045928955, 0.3247329294681549, 0.04285136237740517, 0.1723661720752716, -0.05053121596574783, 0.11236018687486649, -0.06521996110677719, -0.20549874007701874, 0.17461064457893372, -0.18682169914245605, 0.053533006459474564, -0.008723916485905647, 0.00941793154925108, 0.06288785487413406, -0.1593330353498459, 0.08783547580242157, -0.19694600999355316, 0.005713249556720257, -0.007647254038602114, -0.027307700365781784, 0.03612203150987625, 0.28532400727272034, 0.11752603203058243, -0.12759801745414734, 0.13471165299415588, 0.23379255831241608, -0.05780158191919327, -0.0293437372893095, 0.09070145338773727, -0.17931154370307922, -0.21994401514530182, -0.12582343816757202, 0.18702325224876404, 0.05668538808822632, -0.13925690948963165, -0.06582029908895493, 0.0031986283138394356, -0.028075065463781357, 0.09865983575582504, 0.35605400800704956, 0.0034984087105840445, -0.09323693811893463, -0.28277450799942017, 0.08945810049772263, -0.02764941193163395, 0.15290193259716034, 0.19629396498203278, -0.09806423634290695, 0.07716142386198044, -0.12339495122432709, 0.08746320009231567, 0.23484638333320618, 0.23273107409477234, -0.012856843881309032, 0.09173109382390976, 0.16578610241413116, 0.03972947597503662, 0.006745010614395142, -0.06187819689512253, 0.09749408066272736, -0.021955974400043488, -0.32141560316085815, 0.1215718612074852, -0.2510268986225128, 0.0999814122915268, -0.1631409227848053, 0.015411140397191048, 0.14691483974456787, 0.21715684235095978, -0.07962974905967712, -0.033304277807474136, 0.04213868826627731, 0.09326129406690598, 0.011160621419548988, -0.021613657474517822, 0.07150765508413315, -0.1307877153158188, -0.06256560981273651, 0.13322961330413818, -0.17358386516571045, 0.08598430454730988, -0.12307242304086685, 0.022571267560124397, -0.11901737749576569, 0.013211104087531567, 0.15067477524280548, 0.3504481017589569, 0.02643166109919548, 0.09623413532972336, -0.016750747337937355, -0.029952742159366608, -0.19939111173152924, 0.13703355193138123, -0.1865062266588211, 0.17344175279140472, 0.29302889108657837, 0.11057206988334656, 0.3153899013996124, 0.31697121262550354, 0.2890058755874634, 0.03198610618710518, 0.035992104560136795, -0.04452794790267944, -0.007059212774038315, 0.05377381294965744, -0.07047668844461441, -0.10213818401098251, -0.0890517458319664, 0.051031358540058136, 0.06072375178337097, -0.18569202721118927, 0.24424010515213013, -0.01414214912801981, 0.07719215005636215, 0.1997828185558319, 0.08078493922948837, -0.22617456316947937, -0.03857786953449249, 0.11523789912462234, -0.01902567781507969, 0.07105369120836258, 0.04185338690876961, -0.011439223773777485, 0.007869035936892033, 0.07992704212665558, 0.45463499426841736, -0.224204882979393, 0.09041167050600052, 0.027369126677513123, -0.1317758709192276, -0.11070962250232697, 0.07628408074378967, 0.0878988653421402, -0.04574085399508476, -0.27553197741508484, 0.10847223550081253, -0.24083521962165833, 0.28050684928894043, -0.07825290411710739, 0.001334542641416192, -0.12494072318077087, -0.01101336907595396, 0.06499532610177994, -0.2842770218849182, 0.3638588786125183, -0.20239071547985077, 0.04264265298843384, 0.09174364060163498, 0.08912799507379532, -0.21838241815567017, -0.04113715887069702, -0.1781778335571289, -0.38609328866004944, 0.06045739725232124, 0.08880496770143509, -0.18232767283916473, 0.11956488341093063, -0.006792717147618532, -0.18152181804180145, 0.16273252665996552, 0.14130550622940063, 0.0482904314994812, -0.08568304032087326, 0.05468127876520157, 0.08753053098917007, 0.07102198898792267, 0.1759447157382965, -0.07397902756929398, -0.09012236446142197, -0.17455904185771942, 0.0409567765891552, -0.34324201941490173, -0.17979532480239868, 0.3310975730419159, -0.20438726246356964, 0.014136251993477345, -0.09225068986415863, 0.030866265296936035, 0.04601716250181198, -0.10491246730089188, 0.10461985319852829, 0.016426175832748413, -0.113827645778656, -0.031813401728868484, 0.11315778642892838, 0.20320020616054535, -0.10125686973333359, -0.1093696728348732, 0.14095710217952728, -0.18144531548023224, 0.2235315442085266, -0.2833267152309418, 0.031079277396202087, -0.33913618326187134, -0.09778904169797897, 0.07479453086853027, -0.07055078446865082, -0.013958396390080452, 0.1508098989725113, -0.02987336926162243, 0.09554547816514969, 0.14620113372802734, 0.1999158263206482, -0.15094199776649475, 0.4089960753917694, 0.10533412545919418, 0.2516249716281891, 0.010536669753491879, -0.12623007595539093, -0.08546163886785507, -0.12746521830558777, -0.14741075038909912, 0.19456306099891663, -0.006296589970588684, 0.10096477717161179, 0.08423307538032532, -0.04075242206454277, 0.01443819236010313, 0.13702954351902008, 0.19115173816680908, 0.13019594550132751, -0.26233285665512085, 0.19825352728366852, 0.06876207888126373, -0.00743801798671484, 0.07908879965543747, -0.03020831197500229, -0.10328391939401627, -0.14049117267131805, 0.019969210028648376, 0.0654456838965416, -0.19884838163852692, 0.03236902877688408, -0.06557179242372513, 0.17968717217445374, -0.09307295829057693, 0.11328615248203278, -0.04570356011390686, -0.19985269010066986, -0.07249134033918381, -0.05379548296332359, 0.12346312403678894, -0.10264326632022858, 0.12871381640434265, 0.009736367501318455, -0.08019055426120758, -0.07446581870317459, -0.04140711575746536, 0.0420236736536026, -0.2088937908411026, 0.017177356407046318, 0.0019827757496386766, -0.18409597873687744, -0.13652795553207397, -0.05543557181954384, 0.24618269503116608, 0.04196741431951523, -0.06589129567146301, 0.04414777830243111, 0.19765911996364594, -0.0750807523727417, 0.11278236657381058, 0.003732026321813464, -0.08065509796142578, 0.1897534281015396, 0.01496013905853033, 0.30928629636764526, -0.17721723020076752, -0.0886882022023201, 0.15576954185962677, -0.22858849167823792, 0.02177487127482891, -0.08578800410032272, 0.0518401600420475, 0.1370367705821991, -0.2493259161710739, 0.1418110877275467, 0.145331472158432, -0.2641276717185974, 0.3144603669643402, -0.033625226467847824, 0.046327143907547, -0.2413749247789383, -0.0024906315375119448, -0.043541885912418365, -0.08603274077177048, 0.0641188770532608, -0.4098675847053528, 0.3723997175693512, -0.1625463366508484, -0.07504147291183472, -0.018342839553952217, -0.20313698053359985, -0.1007419303059578, 0.09791561216115952, 0.07521741092205048, -0.10252457857131958, -0.024887802079319954, 0.19651173055171967, -0.3366049528121948, 0.2851046621799469, 0.07517293840646744, -0.17795529961585999, 0.14547820389270782, 0.060160379856824875, -0.24353717267513275, 0.14234787225723267, 0.012936286628246307, -0.24895310401916504, -0.09071606397628784, 0.23629078269004822, -0.3198775351047516, -0.16248288750648499, -0.07414543628692627, -0.15365152060985565, -0.036389194428920746, -0.21131804585456848, 0.4087318480014801, 0.2144237607717514, -0.022981377318501472, 0.13647997379302979, -0.02403411641716957, 0.13285180926322937, 0.29562804102897644, 0.24256663024425507, -0.02018183283507824, -0.34853142499923706, -0.13864408433437347, 0.22389261424541473, 0.04705820232629776, -0.15451280772686005, -0.165379136800766, -0.16031797230243683, 0.21548518538475037, 0.30546632409095764, 0.21672023832798004, -0.2837779223918915, -0.03222718834877014, -0.0008710983674973249, -0.0504407100379467, 0.08676686882972717, 0.012896138243377209, -0.1978548914194107, -0.04259110614657402, -0.2661476135253906, 0.05488505959510803, 0.13788054883480072, 0.09773692488670349, -0.1591254323720932, -0.0021380085963755846, 0.01718532107770443, -0.12047524750232697, 0.05867666006088257, -0.03908315300941467, -0.0067283036187291145, -0.07268843799829483, -0.029017630964517593, 0.15528260171413422, 0.07033340632915497, 0.1548975706100464, 0.0978165864944458, 0.006758098024874926, 0.18241363763809204, 0.1855914145708084, -0.17147447168827057, 0.02427871897816658, 0.26994818449020386, -0.057761237025260925, -0.15723660588264465, -0.20805567502975464, 0.046860404312610626, 0.016491999849677086, 0.035213403403759, 0.0940711721777916, 0.007533534895628691, -0.26121222972869873, -0.10038653761148453, -0.11517694592475891, 0.16119547188282013, -0.17557331919670105, -0.17309917509555817, 0.15136262774467468, -0.07733676582574844, -0.15924912691116333, 0.016865720972418785, 0.23669971525669098, 0.021145643666386604, -0.03788917511701584, 0.08341482281684875, 0.22490903735160828, -0.008808862417936325, -0.16530399024486542, 0.10152683407068253, 0.0313648097217083, 0.006969986483454704, -0.21855653822422028, -0.1607862114906311, 0.1460755318403244, -0.08627255260944366, -0.023360153660178185, -0.17191827297210693, 0.15252302587032318, -0.03710101544857025, -0.13770273327827454, 0.1693498194217682, 0.1037483662366867, -0.16067080199718475, -0.07884225249290466, 0.10810121893882751, 0.01576903648674488, 0.27132871747016907, 0.1076359674334526, -0.1420787274837494, -0.059986215084791183, -0.06898099184036255, 0.1633186787366867, -0.19031137228012085, 0.007126166485249996, 0.03829518333077431, -0.12199686467647552, -0.15704795718193054, 0.10316789895296097, -0.1175626590847969, 0.004822339862585068, 0.03431723266839981, 0.14944976568222046, 0.1615215390920639, 0.06211703643202782, 0.15171407163143158, 0.08633625507354736, -0.06408598273992538, -0.10407774150371552, -0.053962431848049164, 0.13509412109851837, 0.06536561250686646, -0.07904453575611115, 0.06846096366643906, -0.2795826196670532, 0.08573929965496063, -0.16429740190505981, 0.09016431123018265, -0.105336494743824, -0.07322035729885101, -0.040855370461940765, 0.009829586371779442, 0.04694106802344322, -0.1407507359981537, -0.21508517861366272, 0.0823788195848465, 0.029756037518382072, 0.07712563872337341, 0.10207482427358627, 0.14324478805065155, -0.2218160629272461, 0.06048774719238281, 0.001049439306370914, -0.12605147063732147, 0.050838079303503036, 0.12798503041267395, 0.04543409124016762, 0.12817956507205963, -0.03887559846043587, 0.25357866287231445, -0.11027972400188446, -0.04513607174158096, 0.11101948469877243, 0.017052892595529556, 0.020420420914888382, 0.1852756291627884, -0.03599339351058006, -0.029799742624163628, -0.16983982920646667, 0.075551338493824, 0.0954643040895462, -0.054636482149362564, 0.11078783869743347, 0.21266168355941772, -0.18996886909008026, -0.12846623361110687, -0.3809147775173187, 0.2265787422657013, -0.09587698429822922, -0.2276572287082672, 0.008806725963950157, -0.1260727345943451, 0.1833239495754242, 0.03649457171559334, -0.10837240517139435, 0.016825513914227486, -0.23053869605064392, -0.02879885770380497, -0.2563677132129669, -0.19165144860744476, -0.041333213448524475, -0.06714825332164764, 0.19439497590065002, -0.06505271792411804, 0.06517509371042252, 0.27104341983795166, 0.12408251315355301, -0.2615935802459717, 0.251360148191452, 0.03242802992463112, -0.14749228954315186, -0.005037838593125343, -0.030930574983358383, -0.17302772402763367, 0.01039972249418497, -0.0033653646241873503, 0.20095619559288025, -0.21882353723049164, -0.0006798446993343532, 0.060125578194856644, -0.047120820730924606, 0.0466158427298069, 0.3226003348827362, -0.087750643491745, -0.05517008155584335, -0.01656283810734749, -0.06756860762834549, -0.10767008364200592, -0.15316399931907654, -0.18949569761753082, 0.06213150545954704, -0.2199670970439911, 0.24259346723556519, 0.2442488670349121, 0.2031528800725937, -0.1541774868965149, -0.309870183467865, -0.040583714842796326, -0.11905079334974289, -0.03302038833498955, -0.05889914929866791, -0.006585937924683094, 0.01725887693464756, -0.17796698212623596, 0.2559521496295929, -0.021421998739242554, 0.3155965805053711, 0.1019931510090828, 0.12071645259857178, -0.12100861966609955, 0.1441822201013565, -0.16765959560871124, 0.11831459403038025, 0.21739378571510315, 0.27392327785491943, 0.10059857368469238, 0.15347464382648468, 0.309125155210495, 0.03828444704413414, -0.1104716807603836, -0.1071549504995346, 0.15093666315078735, 0.029224250465631485, 0.2663865387439728, 0.035379379987716675, -0.2231893092393875, -0.14675801992416382, -0.06930488348007202, -0.029111173003911972, -0.619056761264801, -0.1726749837398529, -0.11048292368650436, -0.3999934196472168, -0.2338489592075348, 0.026175817474722862, 0.10558146238327026, -0.08221985399723053, 0.08020768314599991, 0.2815794050693512, 0.03371467813849449, 0.3491721749305725, 0.21766376495361328, -0.19968965649604797, 0.204122856259346, -0.09151007980108261, 0.22249293327331543, 0.09765662252902985, 0.24722936749458313, -0.08015000075101852, -0.26438701152801514, -0.3932171165943146, 0.14447815716266632, -0.10539799183607101, 0.08542636781930923, -0.16938696801662445, 0.06516818702220917, -0.3977871239185333, 0.43077874183654785, 0.09726867079734802, 0.07945360243320465, 0.08645495772361755, -0.08900640159845352, 0.11455685645341873, 0.10926622897386551, 0.27279117703437805, -0.08732768893241882, -0.0008890857570804656, 0.06837330013513565, 0.005311261862516403, 0.02026936784386635, 0.0489148311316967, 0.1398460417985916, -0.16599170863628387, -0.44864457845687866, 0.5320068001747131, 0.21013052761554718, -0.5587927103042603, -0.06389635056257248, -0.6760888695716858, -0.1871608942747116, -0.1411927044391632, 0.6593628525733948, -0.7585916519165039, -0.39331912994384766, -0.948909342288971, 0.1149265244603157, -0.7989923357963562, 0.5667902231216431, -0.7879649996757507, -0.2234565019607544, 0.020146740600466728, -0.02774968557059765, 0.1605253964662552, 0.32952478528022766, -0.07064669579267502, -0.19695596396923065, -0.050059735774993896, -0.15376393496990204, 0.1079983115196228, 0.16040100157260895, 0.06582599878311157, -0.12183237075805664, -0.009842474944889545, -0.030186070129275322, 0.12286218255758286, 0.11737854778766632, -0.1738220602273941, -0.3232085108757019, 0.1139029711484909, -0.3833754062652588, 0.04907415062189102, -0.16154932975769043, -0.1707007735967636, 0.18841713666915894, -0.04532778635621071, 0.004598250146955252, 0.2759285867214203, 0.3239688277244568, 0.10515167564153671, -0.01689130626618862, 0.035518400371074677, -0.2023317515850067, -0.1646592915058136, 0.06109330430626869, 0.012587963603436947, 0.18743225932121277, 0.061480533331632614, -0.01938987709581852, -0.19489291310310364, 0.21263262629508972, 0.165735125541687, -0.30783388018608093, -0.22185581922531128, 0.16509771347045898, 0.1054096668958664, -0.10476743429899216, -0.1759929358959198, 0.09522547572851181, 0.1139683723449707, -0.04313936457037926, 0.12210953235626221, -0.23098745942115784, 0.006331835873425007, -0.06815717369318008, 0.20154902338981628, -0.09418924897909164, 0.36773547530174255, 0.10694694519042969, 0.31192031502723694, 0.31950843334198, -0.1691408008337021, -0.00575451971963048, 0.08887112140655518, 0.19776344299316406, -0.41144493222236633, -0.13859403133392334, -0.05357063561677933, 0.1625460982322693, -0.09930149465799332, -0.06389843672513962, 0.02519509568810463, 0.13503973186016083, 0.15561014413833618, -0.31024789810180664, 0.13941054046154022, 0.18636445701122284, -0.18482469022274017, -0.08478690683841705, -0.1717226803302765, -0.12318090349435806, -0.13201628625392914, -0.2792845070362091, -0.0867726132273674, 0.18098220229148865, -0.2330169975757599, 0.07547734677791595, -0.24857789278030396, 0.1251516342163086, 0.3365415036678314, -0.2922030985355377, -0.31394311785697937, -0.058266256004571915, -0.17327478528022766, 0.18656596541404724, 0.07067746669054031, 0.020635707303881645, 0.1521127074956894, 0.5705997347831726, -0.2496851086616516, 0.11466812342405319, 0.3559819459915161, 0.0554419606924057, -0.19054225087165833, 0.19243787229061127, 0.0676669180393219, 0.14873379468917847, 0.41770878434181213, -0.09568820893764496, 0.17763766646385193, -0.22776126861572266, 0.18632489442825317, 0.42267468571662903, -0.16674959659576416, -0.34172555804252625, 0.3882749676704407, 0.1397087574005127, -0.014145232737064362, -0.31817594170570374, 0.0500812754034996, -0.02985077165067196, 0.05269844830036163, -0.10784134268760681, -0.05349685624241829, -0.4994138777256012, 0.12352198362350464, -0.07005766034126282, 0.5418696403503418, 0.2633417844772339, 0.303952157497406, -0.15911167860031128, -0.1215716078877449, 0.0574951246380806, 0.025885773822665215, 0.19526958465576172, 0.3046032190322876, -0.05913270637392998, 0.16001620888710022, 0.2486763745546341, -0.059136778116226196, -0.09166152775287628, 0.1448570042848587, 0.12677101790905, 0.33516010642051697, 0.04638539254665375, -0.06712441146373749, -0.014884969219565392, -0.20456355810165405, -0.026793790981173515, -0.41179487109184265, 0.13636821508407593, -0.24071285128593445, 0.1256922036409378, -0.3216968774795532, 0.10627974569797516, 0.4035688042640686, 0.2105926126241684, 0.032269950956106186, 0.29243385791778564, 0.05648317560553551, -0.1926010549068451, 0.051807254552841187, -0.10498901456594467, -0.06827140599489212, -0.05310172960162163, -0.2796175181865692, 0.33936360478401184, -0.019864613190293312, 0.24552127718925476, 0.23504742980003357, 0.0010944624664261937, 0.3045031428337097, 0.31768798828125, 0.16607308387756348, -0.09964364022016525, 0.24659907817840576, 0.08188025653362274, 0.20637094974517822, -0.23596569895744324, -0.16568221151828766, -0.12557131052017212, -0.1071806326508522, 0.1088033989071846, 0.28069713711738586, -0.2597965598106384, 0.2770988345146179, 0.10568001121282578, -0.11608707159757614, 0.01741676963865757, -0.11294569820165634, 0.09750276058912277, -0.09870629757642746, -0.2743101119995117, -0.22913940250873566, -0.5356007814407349, 0.10061295330524445, -0.0055230846628546715, 0.05881212279200554, -0.2797989845275879, 0.06667787581682205, -0.06109566241502762, -0.3562285602092743, -0.16493937373161316, -0.060150668025016785, -0.05723965913057327, -0.24399137496948242, -0.20517903566360474, -0.007098797243088484, 0.016777025535702705, 0.13949894905090332, -0.013303257524967194, 0.2174844592809677, -0.3183788061141968, 0.06566106528043747, 0.11606427282094955, -0.1653585582971573, 0.0958675891160965, 0.26105770468711853, 0.01499083824455738, -0.0882243737578392, 0.255321204662323, 0.2793254256248474, -0.04847518354654312, -0.1845293492078781, 0.10080160945653915, 0.1604631543159485, -0.07153812050819397, -0.038882579654455185, -0.17091862857341766, -0.12199199199676514, 0.24292708933353424, 0.23792625963687897, -0.042753711342811584, 0.1305956095457077, -0.07289121299982071, 0.06995238363742828, -0.0774940699338913, 0.021352464333176613, 0.17171815037727356, -0.04090359807014465, 0.08546100556850433, -0.24800513684749603, -0.0857866033911705, 0.26827260851860046, -0.39803844690322876, 0.11451652646064758, -0.229422926902771, -0.08758056163787842, 0.3287319839000702, -0.34202802181243896, 0.1111312210559845, 0.2609025537967682, -0.10137283056974411, 0.3561965525150299, -0.3053978681564331, -0.25230032205581665, -0.15469956398010254, 0.048888321965932846, 0.02179267629981041, -0.04840285703539848, -0.19513969123363495, 0.06629777699708939, 0.25875553488731384, 0.08913180977106094, 0.24956098198890686, 0.052070412784814835, 0.22817958891391754, -0.18168944120407104, 0.031301677227020264, -0.1152416318655014, -0.19561293721199036, -0.052111998200416565, -0.2814761996269226, -0.13671782612800598, -0.21160876750946045, -0.10837079584598541, -0.20536965131759644, -0.1609756201505661, -0.06688034534454346, 0.05584178492426872, 0.024286314845085144, 0.3073800504207611, -0.12218064814805984, -0.13479159772396088, 0.18895165622234344, 0.02383974753320217, -0.05201764404773712, -0.14846362173557281, -0.09507722407579422, 0.020146487280726433, -0.09238693118095398, 0.17139028012752533, 0.2343597114086151, 0.21284180879592896, 0.03381283953785896, -0.15033899247646332, 0.1911807805299759, 0.18622316420078278, 0.18646091222763062, 0.07243558764457703, -0.12406696379184723, -0.16493721306324005, -0.3395795524120331, -0.2841736078262329, -0.15043282508850098, 0.19101759791374207, -0.0458504743874073, -0.10465371608734131, 0.03750099614262581, -0.18284443020820618, -0.17755551636219025, -0.2436424344778061, 0.026419734582304955, 0.040451399981975555, 0.38235148787498474, 0.09414488077163696, -0.02822074480354786, -0.15169689059257507, 0.03118712082505226, 0.09775584936141968, -0.0003915140696335584, -0.04383618384599686, 0.10792054235935211, -0.06442853063344955, 0.298749715089798, -0.2453482300043106, 0.1361720860004425, 0.06697449088096619, 0.004827237222343683, 0.08544164896011353, -0.029936114326119423, 0.13509008288383484, 0.21824140846729279, -0.12203294038772583, -0.10759089887142181, 0.04168594256043434, -0.00882901344448328, -0.2285052239894867, 0.280576229095459, -0.17053410410881042, -0.1616683006286621, -0.13888660073280334, -0.08804138749837875, -0.22666442394256592, 0.060537341982126236, -0.12838999927043915, -0.24619972705841064, 0.16967043280601501, 0.13665910065174103, -0.014622352086007595, 0.41356605291366577, 0.0732598751783371, -0.1328396201133728, -0.22813338041305542, -0.15374289453029633, 0.1608114093542099, -0.04912145063281059, -0.02805345132946968, -0.01564835198223591, -0.014948775991797447, 0.21375878155231476, -0.18064719438552856, -0.16483278572559357, 0.17054900527000427, 0.34665730595588684, 0.02597188390791416, 0.18538989126682281, -0.06529353559017181, 0.048317939043045044, -0.10743734985589981, -0.018589843064546585, -0.03540005534887314, -0.28834643959999084, -0.21452802419662476, 0.3333912789821625, 0.1976318657398224, 0.04974791035056114, -0.0503578707575798, -0.03126940876245499, 0.14978811144828796, 0.06430429220199585, -0.03515765070915222, 0.02031409554183483, -0.10129436105489731, -0.018188416957855225, -0.04203970730304718, 0.1449456810951233, 0.06969322264194489, 0.07203041017055511, -0.060608502477407455, -0.014455154538154602, 0.3254016637802124, 0.10955263674259186, -0.07159236073493958, -0.01733403280377388, 0.019514579325914383, -0.08302127569913864, -0.21821719408035278, -0.07406940311193466, -0.021812008693814278, -0.12190688401460648, -0.1664063036441803, 0.04630221053957939, 0.06216811016201973, 0.13304030895233154, 0.02205975167453289, -0.21321776509284973, -0.05190807208418846, 0.10510973632335663, 0.17568786442279816, -0.003272527828812599, -0.13533581793308258, -0.024534936994314194, -0.17231151461601257, -0.061455704271793365, 0.3013787865638733, -0.22608749568462372, -0.30140024423599243, 0.35946202278137207, -0.3400987684726715, 0.2860628366470337, -0.020833197981119156, 0.1114434227347374, 0.1762417107820511, -0.2658352553844452, -0.02217303216457367, -0.062381137162446976, -0.04367361590266228, -0.08076793700456619, -0.14500494301319122, -0.2597026824951172, 0.04206215590238571, -0.04206324368715286, 0.09637422114610672, 0.4579100012779236, -0.07058287411928177, -0.18236804008483887, 0.09522636979818344, -0.15592247247695923, 0.22947774827480316, 0.028389230370521545, 0.06503710150718689, 0.116443932056427, 0.1323087513446808, 0.11011053621768951, -0.4274498522281647, 0.20097088813781738, 0.12427444756031036, -0.1571890264749527, -0.01442567165941, -0.009959759190678596, 0.18053756654262543, 0.09531110525131226, -0.05078962445259094, -0.260355144739151, 0.28555482625961304, 0.07289585471153259, 0.10274302959442139, -0.3891198933124542, 0.005835338961333036, 0.2675999402999878, 0.12247534096240997, -0.023122459650039673, 0.16090688109397888, -0.046690311282873154, -0.24235489964485168, 0.29033949971199036, -0.0974612906575203, 0.1960074007511139, -0.03289387747645378, -0.14951084554195404, -0.0071596368215978146, 0.12328702956438065, 0.27036231756210327, -0.003025374375283718, -0.2265237420797348, -0.03799423575401306, 0.08521939069032669, 0.016947178170084953, 0.1859969198703766, 0.2651071548461914, -0.1459372341632843, -0.41320255398750305, -0.0880420133471489, 0.21670325100421906, 0.012858882546424866, -0.15193022787570953, -0.04643627628684044, -0.18052038550376892, -0.2563939392566681, 0.08584385365247726, 0.16727511584758759, 0.2792705297470093, -0.033961761742830276, -0.35119879245758057, -0.0283034760504961, 0.0992310419678688, 0.10277633368968964, -0.10065725445747375, -0.2163081020116806, -0.071290522813797, 0.04340780898928642, 0.22303825616836548, -0.2083059549331665, -0.12606041133403778, 0.10396567732095718, 0.09260901808738708, -0.08461479842662811, -0.008055583573877811, -0.17078442871570587, -0.3031866252422333, 0.4221203029155731, 0.23385879397392273, -0.034767888486385345, 0.295406311750412, 0.15569870173931122, 0.032897062599658966, 0.15737727284431458, 0.020825019106268883, -0.09029846638441086, -0.04864140972495079, 0.009650144726037979, -0.3481082022190094, 0.05834594741463661, 0.14655017852783203, -0.00408797524869442, 0.08673550188541412, -0.11220047622919083, 0.1413644552230835, 0.23767849802970886, -0.23455962538719177, -0.2357283979654312, 0.0006964016938582063, -0.2482832670211792, -0.195649653673172, 0.025330618023872375, 0.012360110878944397, -0.137238547205925, -0.2627202272415161, 0.22825534641742706, 0.08686172217130661, 0.004776137415319681, -0.13502752780914307, 0.019846882671117783, 0.04314998909831047, 0.10382705926895142, 0.25961223244667053, 0.13293808698654175, -0.03713269531726837, -0.05676760524511337, 0.012964779511094093, -0.1728161871433258, -0.020608745515346527, 0.20616164803504944, 0.11151520162820816, -0.03742175176739693, -0.06259177625179291, 0.18253661692142487, -0.27916255593299866, 0.1621095985174179, -0.2384718805551529, -0.4828129708766937, -0.08792909979820251, 0.07079147547483444, -0.24562203884124756, -0.01575675792992115, 0.2266029715538025, -0.05516831576824188, -0.1321062594652176, -0.07045698910951614, 0.10183604061603546, 5.841214078827761e-05, 0.0893392562866211, -0.060382504016160965, -0.05062935873866081, -0.06702078878879547, -0.12985625863075256, -0.1660100817680359, 0.33970367908477783, 0.21503479778766632, -0.00758848013356328, 0.10229247808456421, -0.10208536684513092, -0.092399463057518, 0.01055931020528078, 0.08592095971107483, 0.07094676792621613, 0.044239405542612076, 0.25009822845458984, -0.09352411329746246, 0.18353746831417084, 0.16737182438373566, -0.062962107360363, -0.23827867209911346, -0.09493929892778397, -0.025213951244950294, -0.1006464958190918, -0.11196150630712509, 0.012530666776001453, 0.14211268723011017, 0.0909712091088295, -0.02419816516339779, -0.1915065050125122, 0.11254359036684036, 0.16124828159809113, 0.1700812429189682, -0.1109539344906807, 0.09125909209251404, 0.00810188613831997, 0.055871132761240005, 0.10990812629461288, 0.07832852751016617, 0.07341543585062027, 0.05364103242754936, -0.035618748515844345, 0.34733739495277405, -0.06045139953494072, 0.0799298956990242, -0.0595664456486702, 0.6928744912147522, 0.035012099891901016, 0.20069411396980286, -0.053104400634765625, 0.11816337704658508, 0.2246619611978531, -0.17440345883369446, -0.022784005850553513, -0.1888158768415451, -0.029810192063450813, -0.09986834228038788, -0.055353619158267975, -0.01718943566083908, -0.04049452021718025, -0.003916433546692133, 0.03399524465203285, 0.0943366065621376, 0.17377401888370514, -0.3311142027378082, 0.2607472836971283, 0.004122637212276459, 0.08945729583501816, 0.013266224414110184, 0.04196997731924057, 0.15511225163936615, 0.08414758741855621, 0.3276490271091461, 0.03812522813677788, -0.0824408084154129, -0.07511334866285324, 0.19484442472457886, 0.013223146088421345, 0.14865705370903015, 0.2626599073410034, -0.2459474354982376, -0.6240253448486328, -0.034306321293115616, -0.21134145557880402, -0.17950224876403809, -0.1602948009967804, 0.1417716145515442, -0.1222914606332779, 0.09367095679044724, 0.06996124982833862, -0.06783141195774078, -0.13897784054279327, 0.13837909698486328, 0.13446204364299774, 0.05789351463317871, -0.10086490213871002, -0.17605997622013092, -0.0010043943766504526, -0.14998358488082886, -0.12154410034418106, 0.023426324129104614, -0.17697365581989288, 0.04364141821861267, 0.03358343243598938, 0.1061495915055275, -0.060680896043777466, -0.010360253043472767, 0.3274248540401459, 0.056685641407966614, 0.30199816823005676, -0.059119775891304016, -0.025033777579665184, 0.11079902946949005, 0.0756518691778183, -0.020689064636826515, -0.0771038830280304, 0.4116363227367401, 0.03403623774647713, -0.1635439693927765, -0.11666499078273773, -0.086949922144413, -0.01676703244447708, 0.02077641896903515, -0.12574276328086853, 0.09063004702329636, 0.44763097167015076, 0.2774052917957306, -0.018863491714000702, 0.06319507956504822, 0.0872187539935112, -0.08231986314058304, -0.004219159483909607, -0.0068332357332110405, 0.018230101093649864, 0.27752870321273804, 0.1687568724155426, 0.15286259353160858, 0.022490693256258965, -0.1637061983346939, 0.3155546188354492, -0.15120673179626465, 0.4352760314941406, 0.10696808248758316, -0.12815086543560028, 0.1064513549208641, 0.0661521777510643, -0.04610411450266838, -0.056576918810606, -0.26999518275260925, -0.21365541219711304, 0.07337813079357147, 0.06652723252773285, -0.08924484997987747, -0.21194994449615479, -0.33508530259132385, -0.14497236907482147, -0.14087419211864471, 0.11981412768363953, -0.043049078434705734, 0.028636250644922256, 0.09079541265964508, -0.06235281750559807, 0.022865744307637215, 0.2470407336950302, -0.1605837196111679, 0.12492106109857559, -0.22759175300598145, -0.21604180335998535, 0.046608831733465195, 0.28150391578674316, 0.0420573391020298, -0.15290382504463196, -0.0016501127975061536, 0.1474681943655014, 0.13594135642051697, -0.35328879952430725, 0.26464617252349854, -0.022280709818005562, 0.01344619132578373, 0.19408826529979706, -0.0020161543507128954, -0.20883435010910034, 0.1121358573436737, -0.28760743141174316, 0.2905385494232178, 0.24096103012561798, -0.1328352689743042, 0.2913365364074707, 0.08805736154317856, 0.21461622416973114, 0.08585299551486969, 0.06897095590829849, -0.29718270897865295, 0.09129051119089127, -0.20747239887714386, -0.13261590898036957, -0.01692107878625393, 0.16916681826114655, 0.07209577411413193, -0.11564566195011139, 0.13941168785095215, 0.15402382612228394, 0.08346229046583176, 0.1114826500415802, 0.34994813799858093, -0.06362495571374893, -0.23865890502929688, -0.23835782706737518, 0.0816211998462677, 0.1633685678243637, -0.0109165133908391, 0.2012658566236496, -0.1413344293832779, 0.19981910288333893, -0.16532491147518158, 0.1853308081626892, -0.03803642839193344, 0.1367415487766266, 0.24615634977817535, -0.27241405844688416, 0.13349498808383942, -0.09202484786510468, 0.30909672379493713, -0.11722073704004288, 0.48501908779144287, -1.0381414890289307, 0.203272745013237, 0.10479909181594849, 0.10278161615133286, 0.22666478157043457, -0.03635197505354881, -0.02330964058637619, -0.08349599689245224, 0.04220966622233391, 0.0833742693066597, 0.0891391709446907, -0.31710347533226013, -0.033811237663030624, -0.06111305579543114, 0.18699297308921814, -0.014315243810415268, 0.037212125957012177, -0.09974760562181473, 0.07223381847143173, -0.04721466824412346, -0.15403559803962708, -0.11154821515083313, 0.2525213658809662, 0.09415379166603088, -0.28902220726013184, -0.3616052269935608, -0.15618209540843964, -0.03950243443250656, 0.006923699751496315, -0.01624291203916073, -0.20008711516857147, -0.11289279162883759, -0.31136128306388855, -0.0710853785276413, -0.07951707392930984, 0.19010797142982483, -0.03547098860144615, 0.09791621565818787, 0.0030460236594080925, 0.010236380621790886, -0.16802743077278137, -0.28919661045074463, -0.060263972729444504, 0.07606278359889984, -0.13422971963882446, -0.07395361363887787, 0.030330030247569084, -0.07745517790317535, -0.08331329375505447, -0.023162171244621277, -0.3863029181957245, -0.20034310221672058, -0.034741390496492386, -0.10729042440652847, -0.006214411463588476, -0.11893263459205627, -0.13964179158210754, -0.29012301564216614, -0.04638783261179924, -0.0024742053356021643, 0.1064787283539772, -0.1538226157426834, 0.07857564091682434, 0.07526227831840515, 0.00013705453602597117, -0.04844103381037712, -0.07283846288919449, 0.08186261355876923, -0.14223049581050873, 0.21600468456745148, -0.10651009529829025, 0.05066678300499916, -0.018231840804219246, 0.13073864579200745, -0.002121917437762022, -0.22678279876708984, 0.04642164707183838, -0.02094288356602192, 0.21421727538108826, 0.07077836245298386, -0.08423927426338196, 0.04768844321370125, -0.07387331873178482, -0.02651907131075859, -0.21708333492279053, 0.040107134729623795, -0.04541192203760147, 0.0837961733341217, 0.031407687813043594, 0.11889513581991196, 0.010527336038649082, -0.17944656312465668, 0.10125347226858139, 0.007610187400132418, -0.24623720347881317, -0.05143090337514877, -0.047895632684230804, -0.06059117615222931, 0.03175876662135124, -0.03871394693851471, 0.1254339963197708, 0.16527853906154633, -0.3002590835094452, -0.04826861992478371, 0.29806968569755554, -0.09306170791387558, -0.0394425243139267, 0.05101047456264496, 0.09189032763242722, 0.1605978161096573, 0.015297489240765572, -0.042036350816488266, 0.050038255751132965, -0.04168124124407768, -0.09481820464134216, -0.016627777367830276, 0.2747986912727356, -0.10234027355909348, -0.166941300034523, -0.10835450142621994, -0.0844251736998558, -0.0872398093342781, 0.016302188858389854, 0.07521136105060577, -0.06603480130434036, 0.03542368859052658, -0.08799432963132858, 0.06032619625329971, 0.5010945200920105, -0.06680257618427277, -0.15449082851409912, -0.177449569106102, 0.2639274299144745, 0.14660175144672394, 0.0022905850782990456, 0.033441297709941864, 0.0822424367070198, 0.3903558552265167, 0.001141117769293487, -0.3401229977607727, -0.42936235666275024, 0.175225168466568, 0.17413243651390076, 0.10500617325305939, -0.23050247132778168, -0.2576342523097992, 0.22793713212013245, 0.08984047919511795, -0.060095760971307755, -0.07858394086360931, 0.16328077018260956, 0.12972231209278107, -0.1281055212020874, 0.06234338879585266, 0.025804026052355766, -0.0867350623011589, -0.05200757086277008, -0.12885892391204834, 0.055303096771240234, -0.002267623320221901, -0.07522568851709366, 0.09402341395616531, 0.0058268276043236256, -0.17386187613010406, -0.2140873670578003, -0.10665912181138992, -0.03920576721429825, 0.14906221628189087, -0.15828968584537506, -0.05387437716126442, 0.21556296944618225, -0.05858025699853897, 0.16102606058120728, 0.12916803359985352, -0.06696067750453949, 0.09520197659730911, -0.16950903832912445, -0.0007002722704783082, -0.07244131714105606, 0.17425262928009033, 0.235175222158432, -0.15479062497615814, 0.02104390785098076, -0.22526238858699799, -0.318132609128952, -0.2883262634277344, 0.03370906040072441, 0.17589060962200165, 0.039652034640312195, 0.1456400603055954, 0.10392063856124878, -0.21907223761081696, 0.03970475494861603, -0.029882395640015602, -0.005773501470685005, 0.024396950379014015, 0.18611739575862885, -0.03483722731471062, 0.17910978198051453, 0.05489927902817726, -0.05150905251502991, 0.4817095696926117, -0.01732533425092697, -0.09217128902673721, -0.12131081521511078, 0.3723393380641937, 0.13434827327728271, 0.3656395673751831, -0.09382270276546478, 0.23371735215187073, 0.23481786251068115, -0.22980426251888275, 0.04267938435077667, 0.050920598208904266, 0.02480512298643589, -0.09199248999357224, -0.09351339191198349, -0.1523653119802475, -0.013602673076093197, -0.2606240212917328, 0.10778159648180008, -0.10442694276571274, 0.1395350843667984, -0.19736646115779877, -0.031605370342731476, 0.006914112251251936, 0.10796299576759338, -0.054424963891506195, -0.25837767124176025, 0.31096529960632324, -0.11592935025691986, 0.3842185139656067, -0.17379048466682434, -0.3624477982521057, 0.2757262587547302, -0.0023710932582616806, 0.15260529518127441, -0.2062896341085434, 0.3628934621810913, -0.7832449078559875, 0.039125148206949234, 0.16439922153949738, 0.23989126086235046, -0.0116402143612504, 0.06338779628276825, -0.06012894958257675, 0.0626690611243248, -0.210713729262352, 0.1399865746498108, -0.24594642221927643, 0.3224223256111145, 0.006482815369963646, 0.15190555155277252, -0.057368937879800797, -0.044511858373880386, 0.019321521744132042, -0.0912775918841362, -0.019480032846331596, -0.45624595880508423, -0.4578864574432373, 0.9082226157188416, 0.6120917201042175, -0.6034489870071411, 0.23082700371742249, -0.19736216962337494, -0.07796870917081833, 0.37744757533073425, -0.9400399327278137, 0.6498604416847229, 0.7520570158958435, 0.002538898028433323, -0.27073177695274353, 0.11938141286373138, -0.5475744605064392, 0.03123670071363449, -0.25801408290863037, -0.15449751913547516, -0.3967610001564026, 0.06490208953619003, 0.14539138972759247, 0.3216436505317688, -0.09940996766090393, 0.01693756878376007, 0.3476593494415283, 0.5184888243675232, -0.07314135879278183, 0.08145173639059067, 0.0892072468996048, -0.12955503165721893, -0.37688586115837097, 0.027229968458414078, 0.11493966728448868, -0.2080647498369217, 0.07596293836832047, 0.17416727542877197, 0.1441008597612381, 0.08151697367429733, -0.45440390706062317, -0.20449841022491455, 0.11655355989933014, 0.017947612330317497, -0.025921260938048363, 0.04661966487765312, 0.09765058010816574, 0.1319708377122879, -0.12412040680646896, 0.01989658549427986, -0.3511199355125427, -0.13970960676670074, -0.2669394016265869, 0.2830227017402649, -0.05176151171326637, -0.28537800908088684, -0.316189169883728, 0.03585219755768776, -0.00541097903624177, 0.1260458081960678, 0.2978498935699463, 0.2291160672903061, -0.4722701609134674, -0.1187383234500885, -0.021042227745056152, 0.41113370656967163, 0.03182214871048927, 0.16293859481811523, 0.018955007195472717, -0.07242634892463684, 0.40337106585502625, 0.03083287924528122, 0.23932836949825287, 0.25495266914367676, 6.01769752393011e-05, 0.12580068409442902, 0.454725980758667, -0.23936064541339874, 0.06751707196235657, 0.28628644347190857, 0.06063118204474449, 0.0982748344540596, -0.4946490228176117, 0.005568316671997309, -0.22881703078746796, -0.010048392228782177, -0.015415654517710209, -0.09672887623310089, -0.053812965750694275, 0.3134923279285431, -0.13270534574985504, 0.059106193482875824, 0.2775122821331024, -0.1573261022567749, -0.15384727716445923, 0.056412793695926666, -0.22748176753520966, -0.32802292704582214, 0.09458470344543457, 0.08701787889003754, -0.1911448985338211, -0.32991907000541687, -0.2123926877975464, 0.36248576641082764, -0.11026773601770401, -0.3771834671497345, -0.352312833070755, -0.000534595747012645, -0.01140549685806036, -0.34273606538772583, 0.3943374454975128, 0.17968447506427765, -0.0805620327591896, 0.03789829462766647, 0.28189602494239807, 0.24843750894069672, -0.05665825307369232, 0.28697288036346436, -0.3011987507343292, -0.1592847853899002, 0.007953180000185966, -0.2406192272901535, 0.12848412990570068, 0.0050972201861441135, -0.2501026690006256, 0.27256056666374207, 0.1268443912267685, 0.11351894587278366, 0.29758259654045105, 0.5563552975654602, 0.057891856878995895, -0.4080899655818939, -0.1560302972793579, 0.11139718443155289, -0.15809108316898346, -0.12337052822113037, -0.19038830697536469, 0.3017009496688843, 0.22346629202365875, -0.11893002688884735, 0.31833794713020325, 0.20647236704826355, -0.032976847141981125, 0.2425745725631714, 0.06455419957637787, -0.3590784966945648, 0.07961684465408325, 0.06256664544343948, 0.0582273006439209, 0.23242096602916718, -0.016544945538043976, 0.08625300228595734, 0.08056140691041946, -0.27491143345832825, 0.11281827837228775, -0.2821851372718811, 0.07829934358596802, -0.25466838479042053, 0.026553303003311157, -0.22121168673038483, 0.061941348016262054, 0.3695322275161743, -0.3734035789966583, -0.09366117417812347, 0.05956007167696953, 0.04514509066939354, 0.18074609339237213, -0.14397144317626953, -0.007105985656380653, 0.12581346929073334, 0.03264661133289337, 0.2683316469192505, 0.2577911913394928, -0.030204448848962784, 0.04228895902633667, 0.36067795753479004, -0.19582237303256989, 0.3439302146434784, -0.16728326678276062, -0.27332937717437744, -0.33733388781547546, 0.40455812215805054, -0.0986902117729187, -0.17276914417743683, -0.10238350182771683, 0.34049805998802185, 0.037000611424446106, -0.2886216640472412, 0.034783318638801575, 0.1592053771018982, -0.5167348980903625, 0.3285011053085327, 0.2788046598434448, 0.16878920793533325, 0.01619701460003853, 0.03819330781698227, 0.16423527896404266, -0.05632992088794708, 0.2453935295343399, 0.17934131622314453, 0.35015758872032166, 0.027728985995054245, -0.22165659070014954, -0.4652736783027649, 0.2760741710662842, -0.05027328431606293, -0.24456970393657684, 0.079330675303936, 0.38051632046699524, -0.1150764599442482, -0.29582029581069946, -0.09924186766147614, 0.009046942926943302, 0.2508070468902588, 0.13114897906780243, -0.09978184849023819, -0.017132269218564034, 0.3374328315258026, -0.06002276763319969, -0.19258569180965424, 0.27101653814315796, -0.150331050157547, -0.11713303625583649, 0.08106480538845062, -0.16265887022018433, -0.4276483952999115, 0.3107090890407562, -0.17911136150360107, -0.10294460505247116, 0.011609279550611973, -0.27461960911750793, 0.10399487614631653, -0.13835035264492035, -0.12248194962739944, 0.0745702013373375, 0.19597399234771729, -0.33104047179222107, 0.13769809901714325, 0.307612806558609, -0.08113320171833038, -0.08615809679031372, -0.11394593864679337, 0.0683116689324379, 0.10984662920236588, 0.10750555992126465, -0.23053042590618134, 0.08557980507612228, -0.07209496945142746, -0.24408090114593506, 0.2081601768732071, -0.03756444901227951, 0.29181787371635437, 0.45834943652153015, -0.1744457483291626, 0.0454421266913414, 0.0048277536407113075, -0.2116248905658722, -0.29716187715530396, 0.05831014737486839, -0.17989826202392578, -0.21053870022296906, -0.18062901496887207, -0.04924935847520828, -0.15345774590969086, -0.42231252789497375, -0.01239338144659996, 0.19774068892002106, 0.38346144556999207, 0.07409095764160156, -0.034654006361961365, -0.23396159708499908, -0.19041237235069275, -0.01401091180741787, 0.0365678146481514, 0.05508141592144966, 0.025686070322990417, 0.07218299806118011, -0.18659818172454834, 0.1652023196220398, 0.3226566016674042, 0.05417145416140556, -0.08075880259275436, -0.24869856238365173, 0.16930583119392395, 0.11773636192083359, 0.11905056238174438, 0.21341988444328308, -0.017856914550065994, -0.04263823851943016, 0.003548715030774474, -0.1009964719414711, 0.26986828446388245, -0.0074598537757992744, -0.3062109649181366, 0.01782125234603882, -0.0686839297413826, -0.1575540453195572, 0.05257200822234154, -0.1893811672925949, 0.1989046335220337, 0.16870906949043274, -0.12328747659921646, -0.30920422077178955, -0.13213369250297546, 0.07310669869184494, 0.02569754049181938, 0.4337758421897888, 0.32618555426597595, -0.0853268951177597, -0.2856146991252899, -0.16212572157382965, 0.03408573195338249, 0.14242447912693024, 0.08138598501682281, -0.09307221323251724, -0.21721269190311432, -0.2922299802303314, 0.047295667231082916, -0.23805296421051025, 0.06822742521762848, -0.272267609834671, 0.026864301413297653, -0.19333283603191376, 0.07086252421140671, -0.07428965717554092, -0.2984860837459564, -0.010753052309155464, 0.16378651559352875, 0.26881304383277893, -0.21136987209320068, -0.2445041835308075, -0.30625781416893005, 0.07474422454833984, 0.1910538226366043, -0.14856399595737457, -0.2563959062099457, -0.10270269215106964, 0.24040809273719788, 0.6938894987106323, -0.020236145704984665, -0.05445745587348938, -0.01919499784708023, -0.18622444570064545, 0.12015638500452042, -0.20107285678386688, -0.12154942750930786, -0.029980061575770378, 0.21944072842597961, -0.002036093268543482, -0.001341751660220325, -0.06764274090528488, -0.09553888440132141, 0.12899716198444366, 0.13914351165294647, 0.12225222587585449, -0.20372018218040466, -0.08793067932128906, 0.060379307717084885, 0.013455850072205067, -0.21309618651866913, -0.030212579295039177, -0.06801839917898178, 0.2145104557275772, -0.15523330867290497, -0.2645900845527649, -0.192525714635849, -0.33819591999053955, -0.12985633313655853, -0.029487773776054382, -0.0076502240262925625, 0.19116368889808655, -0.1403380036354065, -0.3133432865142822, 0.15572835505008698, 0.07242971658706665, -0.20680183172225952, -0.22741413116455078, 0.11311013251543045, 0.054508026689291, 0.12308362871408463, 0.34179651737213135, 0.03414604812860489, -0.40339091420173645, -0.03706011548638344, -0.148011714220047, -0.0017098465468734503, 0.053225960582494736, -0.20013900101184845, 0.01884680986404419, -0.11620176583528519, -0.11541368067264557, -0.25712716579437256, 0.15770450234413147, -0.23143039643764496, -0.003949530888348818, 0.027682237327098846, -0.09465403854846954, 0.21160036325454712, 0.04926163703203201, -0.058181148022413254, 0.14223475754261017, -0.11536944657564163, 0.33875975012779236, -0.10475531965494156, 0.1245218962430954, -0.1932125687599182, 0.045343756675720215, 0.052145786583423615, 0.12853042781352997, -0.2512862980365753, -0.14505431056022644, -0.09510539472103119, 0.029439369216561317, 0.27710896730422974, 0.002728393068537116, -0.3074944019317627, 0.18251194059848785, -0.2342042624950409, -0.07406187057495117, -0.21323183178901672, -0.057583730667829514, 0.03356051445007324, 0.06629925221204758, -0.14618603885173798, -0.14597515761852264, -0.02221546322107315, -0.04080670699477196, 0.18182477355003357, -0.17362335324287415, -0.021461406722664833, 0.012195577844977379, -0.11202028393745422, 0.027420079335570335, -0.3000023066997528, 0.2843587398529053, -0.1257234513759613, -0.019593821838498116, 0.2792638838291168, 0.03896237537264824, 0.36670997738838196, 0.08534873276948929, 0.015470863319933414, 0.1990199238061905, -0.34344717860221863, 0.05347741022706032, 0.20085033774375916, 0.04211200401186943, -0.06041397899389267, 0.1627149134874344, -0.03313342481851578, 0.07834586501121521, -0.0994192510843277, 0.09872596710920334, -0.00245134299620986, 0.04410514980554581, 0.027032656595110893, 0.03338415175676346, -0.32338747382164, -0.0653015673160553, -0.19729766249656677, -0.27410978078842163, -0.2997657060623169, 0.14170798659324646, -0.004367206245660782, 0.4843987226486206, -0.0019979188218712807, 0.04593772068619728, 0.04999474436044693, 0.3150996267795563, 0.3034690320491791, 0.04076254367828369, -0.10575024783611298, 0.0021233954466879368, 0.12192323803901672, -0.17206716537475586, -0.05510009825229645, -0.2588297426700592, -0.15257954597473145, 0.07329346239566803, -0.04587065801024437, -0.21152827143669128, 0.07798708975315094, -0.07843799889087677, 0.3100886642932892, -0.04724687337875366, -0.1523672342300415, 0.08538171648979187, 0.1250849813222885, 0.1646992713212967, -0.2337634414434433, 0.31805679202079773, 0.08861079066991806, -0.13040664792060852, 0.10138992965221405, 0.03394847363233566, -0.35961899161338806, -0.2187875360250473, -0.018934933468699455, 0.15521100163459778, 0.059538379311561584, -0.14315922558307648, 0.27370110154151917, 0.25288861989974976, 0.06637392193078995, 0.07617365568876266, -0.30327481031417847, 0.10879331827163696, 0.009225589223206043, -0.09889769554138184, 0.09968193620443344, 0.1877065896987915, 0.26247403025627136, -0.055061180144548416, 0.09308036416769028, 0.05080252140760422, -0.020442264154553413, -0.1247648224234581, -0.09304048866033554, -0.03904825821518898, -0.25666922330856323, -0.058476049453020096, -0.2258126437664032, 0.04027827829122543, -0.08440734446048737, -0.11384555697441101, -0.08758930116891861, -0.027693932875990868, -0.17075154185295105, 0.16199202835559845, -0.1144796684384346, -0.28094345331192017, 0.21867303550243378, -0.14157025516033173, -0.04981028661131859, 0.04086936637759209, -0.014732235111296177, 0.4263903796672821, -0.18179205060005188, 0.3066645860671997, -0.07107987254858017, -0.2975230813026428, 0.22832712531089783, -0.04278967157006264, -0.21844778954982758, -0.2375904619693756, -0.5667729377746582, 0.19793039560317993, -0.35531356930732727, 0.2603989541530609, 0.18319731950759888, 0.12462218850851059, 0.03316154703497887, -0.12196525931358337, -0.3462357819080353, 0.005160180386155844, 0.02619168721139431, 0.22353097796440125, 0.09735490381717682, -0.15843957662582397, -0.09607613831758499, 0.37302759289741516, -0.15130431950092316, 0.40643778443336487, -0.07615058124065399, -0.0882829949259758, 0.3894300162792206, -0.03423013910651207, -0.39819180965423584, -0.36019665002822876, 0.10543868690729141, 0.22323089838027954, 0.09837979823350906, -0.2471945434808731, -0.10881666839122772, -0.07024756073951721, 0.09446138143539429, 0.013456537388265133, -0.09028317779302597, 0.1048242375254631, 0.049742117524147034, -0.268842875957489, -0.25566884875297546, 0.02900947630405426, 0.07719412446022034, 0.2577059864997864, 0.26769259572029114, 0.131960928440094, -0.031201807782053947, -0.1895483285188675, -0.18835707008838654, 0.16913126409053802, -0.1554381102323532, -0.1014852300286293, -0.022340362891554832, 0.17568610608577728, 0.035621121525764465, -0.06483149528503418, 0.05729278177022934, 0.38952118158340454, 0.22531890869140625, 0.14154788851737976, -0.41405540704727173, -0.09602026641368866, -0.07385500520467758, -0.027279792353510857, -0.22459517419338226, -0.07924659550189972, 0.17216823995113373, -0.06918510049581528, 0.23001033067703247, -0.0928499847650528, -0.26177167892456055, -0.06329647451639175, 0.1844755858182907, 0.07598307728767395, -0.04828038811683655, -0.05798431858420372, -0.04736538976430893, 0.03927446901798248, 0.0023105309810489416, 0.16970530152320862, 0.11009232699871063, -0.026365766301751137, -0.07627376168966293, -0.13106326758861542, 0.1172177866101265, 0.708844780921936, -0.12134625762701035, -0.019795851781964302, -0.22418007254600525, -0.046648524701595306, -0.5469592809677124, 0.35092252492904663, 0.23672236502170563, -0.13166454434394836, 0.36829593777656555, 0.011968624778091908, -0.41392114758491516, 0.5595468282699585, 0.007685048971325159, 0.07840538024902344, -0.01310955360531807, -0.03823645040392876, 0.20593592524528503, -0.3218800127506256, 0.0632898211479187, -0.21795770525932312, -0.04314352944493294, -0.04141378030180931, 0.2364616096019745, 0.012008112855255604, -0.0018496157135814428, -0.6915823817253113, 0.38609060645103455, -0.20760810375213623, -0.17505870759487152, 0.06915666908025742, -0.12037286162376404, -0.08274930715560913, -0.0023242374882102013, 0.2175712138414383, -0.29156187176704407, 0.15103423595428467, 0.11984587460756302, 0.2695411741733551, -0.36306658387184143, -0.11928384751081467, -0.14326445758342743, -0.004755089059472084, -0.052859045565128326, -0.12474241852760315, -0.40232303738594055, 0.03514743968844414, 0.027418889105319977, 0.20990213751792908, 0.08113344758749008, 0.052518799901008606, -0.004037343431264162, 0.04320486634969711, 0.21648763120174408, -0.3529933989048004, 0.013299987651407719, 0.039748236536979675, -0.06198299676179886, -0.1337095946073532, -0.07712392508983612, 0.0337505117058754, -0.13852772116661072, 0.062404680997133255, 0.2558552622795105, 0.043123841285705566, -0.16205717623233795, -0.08565784990787506, 0.01959730125963688, -0.020861424505710602, -0.23991388082504272, -0.1889241635799408, -0.04537663236260414, 0.1417955607175827, 0.045538198202848434, 0.33998697996139526, 0.21147261559963226, -0.08912384510040283, 0.006565811578184366, -0.3289169371128082, -0.04604475572705269, 0.24866972863674164, 0.0738115906715393, -0.12490994483232498, 0.2730710506439209, -0.09913202375173569, -0.19664926826953888, -0.18340682983398438, 0.000850569223985076, 0.02499697357416153, 0.09051049500703812, -0.020856959745287895, -0.10719060897827148, -0.1850593388080597, -0.21906228363513947, 0.2536676228046417, -0.5462955832481384, 1.0551340579986572, -0.24306635558605194, 0.1968926340341568, 0.005103161558508873, 0.034866686910390854, -0.01357823796570301, 0.4534471035003662, -0.10624213516712189, 0.12384223192930222, -0.1773800551891327, 0.08416587114334106, -0.11349330842494965, 0.24432119727134705, 0.03458795323967934, 0.024798687547445297, 0.03907229006290436, 0.02268647775053978, -0.17502176761627197, -0.0313245952129364, 0.24603784084320068, 0.06169560179114342, 0.2557910680770874, 0.11478926986455917, -0.03985873982310295, -0.10850337892770767, 0.049918342381715775, -0.20286063849925995, 0.47446367144584656, -0.0860552042722702, -0.1568315029144287, 0.6131693124771118, 0.08499149233102798, 0.06287571787834167, -0.37747734785079956, -0.21255142986774445, 0.028256526216864586, 0.29666128754615784, -0.08730707317590714, -0.15394678711891174, 0.11258651316165924, 0.06900916248559952, 0.3278284966945648, 0.09297781437635422, -0.20672781765460968, 0.09315624833106995, -0.38173311948776245, 0.12979261577129364, -0.144180029630661, -0.09552370011806488, 0.004161201883107424, 0.04310024157166481, -0.01578223891556263, 0.09948083758354187, -0.10592478513717651, -0.19814816117286682, 0.09075683355331421, 0.07729730755090714, 0.22839081287384033, -0.07899830490350723, -0.1985037475824356, -0.13157880306243896, -0.12966065108776093, 0.21949969232082367, -0.08021249622106552, 0.033383894711732864, 0.26127246022224426, 0.10560368001461029, -0.06772410869598389, -0.017925307154655457, -0.0510212741792202, 0.08885056525468826, -0.17791883647441864, 0.34365740418434143, 0.058735840022563934, -0.14821934700012207, 0.052145522087812424, -0.07923230528831482, 0.09167518466711044, 0.07203841209411621, 0.06843951344490051, -0.15069828927516937, 0.23674295842647552, -0.05159388482570648, -0.037081748247146606, -0.0729130432009697, 0.08947163820266724, 0.17980293929576874, -0.10588792711496353, -0.00970180332660675, -0.19327978789806366, 0.09700482338666916, -0.031860701739788055, 0.10578283667564392, -0.11868448555469513, -0.04604253172874451, 0.05111353099346161, -0.2871231436729431, -0.029741691425442696, 0.27678176760673523, 0.06334509700536728, -0.20573680102825165, -0.035699836909770966, -0.13447892665863037, 0.05024952068924904, -0.23867017030715942, -0.16160951554775238, 0.39880889654159546, 0.007022386882454157, -0.03080538474023342, 0.18896976113319397, 0.03903455659747124, -0.2063569873571396, -0.028301667422056198, 0.27846577763557434, 0.02002369612455368, -0.6694660782814026, -0.160623699426651, -0.17807826399803162, -0.022720571607351303, 0.02998358942568302, 0.01446771714836359, -0.06981576979160309, -0.09288175404071808, 0.2724403440952301, 0.056031484156847, 0.32595211267471313, -0.08754583448171616, -0.6128185987472534, -0.28231292963027954, -0.11486411094665527, 0.36745625734329224, -0.14202873408794403, -0.024327615275979042, 0.17006812989711761, 0.5470616817474365, 0.025287974625825882, -0.18963955342769623, -0.26883822679519653, -0.1687370091676712, 0.32821860909461975, -0.08033367246389389, -0.26281267404556274, -0.017688538879156113, 0.1390220671892166, 0.2022508829832077, -0.02781120128929615, -0.01835302822291851, -0.025943342596292496, 0.1585300862789154, 0.37465447187423706, -0.17255748808383942, -0.6424548029899597, -0.19877055287361145, -0.007302979473024607, 0.062495745718479156, -6.53675087960437e-05, 0.07601415365934372, -0.11479975283145905, -0.17068994045257568, -0.0243193581700325, 0.20379666984081268, 0.10792302340269089, 0.12607860565185547, -0.3376731872558594, 0.09853503108024597, 0.04403483495116234, 0.031275663524866104, -0.10157978534698486, 0.05139295756816864, -0.30518510937690735, 0.07871821522712708, -0.19588607549667358, 0.08943574875593185, -0.0335882268846035, 0.09324882179498672, -0.45809808373451233, -0.16811127960681915, -0.0828261524438858, 0.3427125811576843, -0.031851012259721756, 0.032070644199848175, -0.03063322603702545, 0.1614246815443039, 0.0858004242181778, -0.05520741268992424, -0.09559838473796844, 0.007763617672026157, 0.1910003274679184, 0.12692329287528992, 0.24877206981182098, -0.06045689061284065, -0.00013552138989325613, -0.37738049030303955, 0.2114882618188858, -0.06532654166221619, -0.0549905002117157, 0.027039330452680588, -0.24189898371696472, -0.09307090938091278, 0.028950480744242668, 0.19286052882671356, 0.19435378909111023, -0.1702863872051239, 0.0448840968310833, -0.13854143023490906, 0.13702642917633057, 0.0948655903339386, 0.09848609566688538, 0.07928954809904099, -0.20084302127361298, -0.004050813615322113, 0.3018610179424286, -0.09432747215032578, 0.019260801374912262, 0.11447101831436157, -0.043338872492313385, -0.0008588339551351964, 0.11764127761125565, -0.05126485973596573, 0.04471392184495926, -0.06430402398109436, -0.1498151570558548, -0.19023790955543518, 0.33228278160095215, 0.3206518590450287, 0.17194586992263794, -0.16331766545772552, 0.10320926457643509, -0.04561915248632431, -0.2674907147884369, -0.24509991705417633, -0.14822924137115479, 0.17605262994766235, 0.09883233904838562, 0.0018539107404649258, 0.04909451678395271, -0.03160795941948891, -0.08731672912836075, -0.08061281591653824, -0.20122063159942627, -0.005621557589620352, -0.15780895948410034, -0.07397956401109695, 0.2515353262424469, -0.24318712949752808, 0.23036155104637146, 0.12742090225219727, 0.22224517166614532, -0.09194588661193848, -0.2250148057937622, 0.2989833652973175, 0.04775813966989517, -0.18407857418060303, -0.03401143476366997, 0.2962152063846588, -0.1702759861946106, -0.07111269980669022, 0.13564026355743408, 0.12560786306858063, -0.012253518216311932, -0.1647668331861496, 0.15902754664421082, 0.05957987532019615, 0.12409309297800064, -0.16856181621551514, -0.07843687385320663, 0.25779664516448975, 0.11599769443273544, 0.10880088806152344, 0.09782017022371292, -0.007862200029194355, 0.005758915562182665, -0.05866245552897453, -0.3446432948112488, -0.03894279897212982, -0.16995851695537567, 0.014331684447824955, 0.2391301542520523, -0.03882405534386635, 0.15505072474479675, -0.30839234590530396, -0.02011680230498314, -0.03438166528940201, 0.058978185057640076, 0.04019339010119438, 0.43646240234375, 0.07605671882629395, -0.23935095965862274, 0.6218813061714172, 0.003108744975179434, -0.10836105793714523, 0.16001391410827637, 0.2852732241153717, -0.30409663915634155, 0.20848441123962402, -0.25628480315208435, 0.16167184710502625, 0.09788669645786285, 0.22124114632606506, -0.22323282063007355, 0.0408531092107296, -0.07222868502140045, -0.32055097818374634, 0.15722352266311646, 0.05286332592368126, 0.09326060861349106, 0.0337538868188858, -0.04193189740180969, -0.0856853574514389, 0.14177347719669342, -0.028082281351089478, 0.09058227390050888, -0.2298598736524582, -0.03295760601758957, -0.21822579205036163, 0.06406136602163315, -0.05801422894001007, -0.20142272114753723, 0.19812272489070892, -0.11868615448474884, 0.03285090625286102, -0.38662320375442505, -0.151239812374115, -0.13236379623413086, 0.0320001021027565, -0.10245463997125626, -0.08658699691295624, 0.14073094725608826, 0.1130538061261177, 0.2531929314136505, 0.22216607630252838, 0.12236519902944565, 0.005447773728519678, 0.17148461937904358, 0.061696507036685944, 0.28602147102355957, 0.023631010204553604, 0.10890256613492966, -0.180688738822937, 0.12215447425842285, 0.04656866565346718, 0.026981964707374573, -0.13603749871253967, 0.06207934767007828, 0.20506420731544495, 0.10974757373332977, -0.07276380807161331, 0.10732992738485336, 0.11617693305015564, 0.05348070710897446, 0.1674845963716507, 0.7727370262145996, 0.30725082755088806, 0.640956461429596, -0.9253658652305603, -0.5187532305717468, -0.0894019827246666, 0.2385084480047226, 0.049171872437000275, 0.4311557710170746, 0.027812084183096886, -0.6891728043556213, 0.258513480424881, 0.1313668191432953, -0.6088256239891052, 0.14033427834510803, -0.110963836312294, -0.2500249147415161, -0.08460725098848343, 0.11682558059692383, -0.09666851907968521, -0.35428598523139954, 0.2864021360874176, -0.2935151755809784, -0.21715235710144043, -0.11666157096624374, 0.12446116656064987, -0.15600799024105072, -0.10680388659238815, -0.0001827642845455557, 0.08674966543912888, 0.26077157258987427, 0.06656597554683685, -0.0561557337641716, -0.1603168249130249, 0.039912596344947815, -0.30206120014190674, 0.0225200355052948, 0.14868666231632233, 0.08148127794265747, -0.144492968916893, -0.19561327993869781, 0.04359753802418709, -0.3844917416572571, -0.0259606521576643, -0.16381381452083588, 0.07144680619239807, 0.1660003513097763, 0.23707929253578186, 0.22506427764892578, 0.3179120421409607, 0.016306158155202866, -0.5831664204597473, 0.11367814987897873, -0.4020569324493408, -0.20895621180534363, 0.06076570600271225, 0.29049715399742126, -0.12412534654140472, 0.0036126680206507444, -0.32360535860061646, -0.04604892432689667, 0.046184394508600235, -0.08430514484643936, 0.13292597234249115, -0.22862984240055084, -0.306146502494812, -0.133646160364151, 0.25718042254447937, 0.5456499457359314, 0.21025246381759644, 0.4019889533519745, -0.0886194258928299, -0.08717905730009079, -0.2207142561674118, 0.20647744834423065, -0.18439002335071564, 0.14171214401721954, -0.03662402555346489, -0.21541453897953033, -0.14932850003242493, 0.007019727490842342, 0.20735304057598114, -0.02888474240899086, 0.2709077000617981, 0.38863661885261536, -0.04047397896647453, 0.26442399621009827, 0.02407805249094963, 0.5408619046211243, 0.05008319392800331, 0.15342217683792114, 0.028533032163977623, -0.23100268840789795, -0.3650311231613159, -0.13528956472873688, -0.17604167759418488, -0.23307830095291138, 0.3065837621688843, 0.14197073876857758, 0.30817732214927673, -0.14658239483833313, 0.4734896123409271, 0.11944717913866043, -0.12323129177093506, -0.017720993608236313, 0.3582574427127838, -0.27538999915122986, 0.04298871383070946, -0.10547226667404175, 0.049027543514966965, -0.20014016330242157, 0.2845075726509094, -0.15213464200496674, -0.07185406982898712, 0.03618701919913292, 0.20795266330242157, -0.3130115270614624, -0.09409405291080475, -0.086040198802948, 0.25120142102241516, -0.47296351194381714, -0.10564348101615906, 0.015641486272215843, 0.2966710329055786, 0.012177697382867336, -0.03393629565834999, 0.06558365374803543, -0.20804157853126526, -0.06522263586521149, 0.017870452255010605, -0.20457755029201508, 0.179996058344841, 0.1366650015115738, -0.384179949760437, -0.27810078859329224, 0.24135085940361023, 0.04144847393035889, -0.11893417686223984, 0.10834655165672302, 0.3616751730442047, -0.18355543911457062, -0.009754284285008907, 0.05454464629292488, -0.21160966157913208, -0.25340795516967773, 0.11125054210424423, 0.04514350742101669, 0.023549819365143776, 0.1674981415271759, 0.17428168654441833, -0.08765394985675812, -0.26507437229156494, -0.17976486682891846, 0.27866896986961365, -0.1880640834569931, -0.2624255418777466, 0.0892508253455162, 0.1832054704427719, 0.2328352928161621, 0.20759917795658112, 0.15334907174110413, 0.465311199426651, 0.12502267956733704, 0.09813246130943298, -0.2952807545661926, -0.030339444056153297, -0.24427330493927002, -0.14969231188297272, -0.40544363856315613, 0.08598559349775314, 0.0959383025765419, -0.18228022754192352, 0.22259637713432312, -0.049497198313474655, -0.027493182569742203, 0.15666885673999786, -0.07602434605360031, 0.1149774119257927, -0.11883005499839783, 0.0032760347239673138, -0.21468903124332428, -0.2936675548553467, -0.0684736892580986, -0.2106591910123825, 0.23306594789028168, -0.10779530555009842, -0.05947067588567734, 0.20249350368976593, -0.011843962594866753, -0.014870057813823223, -0.01597467251121998, -0.11630953103303909, 0.09758862853050232, 0.11460287123918533, -0.10772579163312912, -0.20001015067100525, -0.12017891556024551, -0.11696957796812057, -0.16482166945934296, 0.05794529616832733, -0.06595436483621597, -0.02146242745220661, 0.40689903497695923, -0.04832332953810692, 0.007073279935866594, 0.32015180587768555, -0.35554152727127075, -0.14297787845134735, 0.2516937255859375, 0.1843038946390152, 0.22844256460666656, 0.09388071298599243, 0.025164885446429253, 0.19491849839687347, -0.09927938133478165, -0.049762215465307236, 0.3669392466545105, 0.12013076990842819, -0.18601717054843903, -0.4192292392253876, -0.3459910750389099, 0.19172416627407074, -0.21811555325984955, -0.06741466373205185, -0.017202293500304222, 0.15107110142707825, 0.059343431144952774, 0.2442309558391571, -0.07907812297344208, 0.09715526551008224, -0.2497764676809311, 0.1903398633003235, -0.1430383324623108, 0.2731955349445343, 0.1615435928106308, -0.17979839444160461, -0.17049290239810944, -0.28115057945251465, -0.0049058180302381516, 0.15151013433933258, 0.033597324043512344, -0.17745162546634674, -0.07308708131313324, 0.02116655744612217, -0.25505611300468445, -0.2010040134191513, 0.08348778635263443, 0.19125241041183472, -0.3401152491569519, -0.10634176433086395, -0.00746450899168849, 0.14783936738967896, 0.2718827724456787, -0.1722668707370758, 0.18667550384998322, -0.03763187676668167, -0.16906870901584625, 0.33438846468925476, -0.31143948435783386, 0.17236098647117615, -0.5268717408180237, -0.3940923810005188, 0.3191237151622772, -0.09153632074594498, -0.28066542744636536, 0.059306275099515915, -0.4067939221858978, 0.2992818057537079, 0.11992178857326508, -0.42775532603263855, 0.6259821653366089, 0.17812226712703705, -0.2557699680328369, -0.059614911675453186, 0.05544963479042053, -0.03961723670363426, -0.12096960842609406, -0.09223223477602005, 0.22907988727092743, 0.1561448574066162, -0.30549633502960205, -0.1255648136138916, 0.2228989154100418, 0.21340887248516083, -0.08314994722604752, -0.16462476551532745, -0.06651511788368225, -0.06146250665187836, -0.03522391617298126, -0.28261569142341614, -0.07477476447820663, -0.1021837517619133, -0.07609645277261734, -0.2100399136543274, -0.2924564778804779, 0.21125595271587372, 0.030326329171657562, -0.05290650576353073, 0.07691194117069244, -0.07014147192239761, 0.09229797124862671, 0.10131268203258514, 0.049956392496824265, -0.034578971564769745, -0.19023345410823822, 0.16653941571712494, 0.33448925614356995, 0.001595196663402021, -0.002867990406230092, 0.33004748821258545, 0.22564205527305603, -0.09105472266674042, 0.011312372051179409, -0.3467807173728943, 0.0579911507666111, 0.15072105824947357, 0.022685809060931206, 0.06875109672546387, 0.3729240596294403, 0.1742868721485138, -0.14452692866325378, -0.04855402931571007, 0.08477617800235748, -0.04775957763195038, -0.2719380259513855, 0.08234017342329025, 0.15655158460140228, 0.13707925379276276, -0.17389808595180511, -0.015775736421346664, -0.18817584216594696, 0.01752828061580658, 0.12524060904979706, -0.12665876746177673, 0.1678224354982376, -0.00041175755904987454, 0.035608746111392975, 0.04461587592959404, -0.053433049470186234, -0.03964117914438248, -0.0726025402545929, -0.06927359104156494, 0.08582964539527893, -0.12266143411397934, -0.10753639042377472, -0.0876409262418747, -0.07395415008068085, 0.20254945755004883, 0.018830349668860435, 0.1433231681585312, 0.1517426073551178, -0.029315901920199394, 0.04924701526761055, 0.015810782089829445, -0.027619855478405952, 0.1301470249891281, -0.2303171157836914, -0.13589142262935638, -0.3182229995727539, -0.08336791396141052, -0.06165728718042374, 0.337279736995697, 0.12168094515800476, -0.01823674701154232, -0.04841945692896843, -0.016271254047751427, 0.09968367218971252, -0.07077755033969879, 0.07729227840900421, -0.08399911969900131, -0.16852867603302002, -0.11328643560409546, -0.08270952850580215, -0.19578495621681213, 0.09585978835821152, 0.04860413819551468, 0.07307912409305573, 0.019396277144551277, 0.2108551561832428, 0.1044246256351471, -0.035273320972919464, 0.027461105957627296, 0.1402691900730133, -0.010818506591022015, -0.025184042751789093, 0.024358205497264862, -0.09168487787246704, 0.33885273337364197, -0.07014370709657669, 0.1956031322479248, 0.07253265380859375, 0.19754669070243835, 0.06545505672693253, -0.15647554397583008, 0.16369189321994781, 0.0001449816336389631, -0.2513332664966583, -0.1099780723452568, -0.20107118785381317, -0.0013179548550397158, -0.3897168040275574, 0.012117435224354267, 0.1636483073234558, -0.14628846943378448, 0.052219659090042114, -0.02919301949441433, 0.2506968677043915, 0.07119740545749664, 0.07310866564512253, -0.2944328188896179, -0.12977319955825806, -0.032710712403059006, 0.003821150865405798, -0.0183712150901556, 0.1962035596370697, 0.16618302464485168, 0.2577281892299652, -0.17182429134845734, 0.2026921957731247, -0.013826316222548485, -0.2416335642337799, 0.14810362458229065, 0.15541405975818634, 0.2134309709072113, -0.19415119290351868, 0.13207440078258514, 0.042542465031147, 0.23349685966968536, 0.015445832163095474, 0.13906092941761017, -0.19348958134651184, -0.0629500076174736, 0.0164776723831892, -0.14860738813877106, 0.1264944076538086, -0.009574769996106625, -0.22962741553783417, -0.11348722875118256, -0.46161511540412903, 0.48956969380378723, 0.09851015359163284, -0.25948646664619446, -0.39737725257873535, -0.03087717294692993, -0.1151873841881752, 0.12418287992477417, 0.03150971978902817, -0.25690028071403503, -0.25728052854537964, 0.24543236196041107, 0.4090823829174042, -0.2062581330537796, -0.020807985216379166, 0.17702363431453705, 0.12530545890331268, -0.010935815051198006, -0.08545985072851181, -0.15129424631595612, 0.011502623558044434, -0.36025524139404297, 0.4154818654060364, 0.019188441336154938, 0.18500055372714996, 0.09984590113162994, -0.03214777633547783, -0.24275745451450348, 0.12930409610271454, -0.048839062452316284, -0.5528174638748169, 0.1351933628320694, 0.20085403323173523, 0.18064852058887482, -0.10977081209421158, -0.18828383088111877, 0.13915491104125977, 0.2669013738632202, 0.06426302343606949, 0.29484254121780396, 0.4041365683078766, 0.15768228471279144, 0.042871106415987015, 0.1535528004169464, -0.02227427065372467, 0.07932264357805252, 0.09311594814062119, -0.021520446985960007, 0.22950370609760284, 0.2152760922908783, 0.08642732352018356, -0.0178667102009058, 0.09564705938100815, 0.030802981927990913, 0.2911249101161957, -0.17179390788078308, 0.17287524044513702, 0.07575689256191254, -0.07132934778928757, -0.031024402007460594, 0.1006263941526413, -0.3019174337387085, -0.14112432301044464, -0.11798761785030365, 0.08845643699169159, -0.07922488451004028, 0.22260482609272003, -0.16602681577205658, 0.32493898272514343, 0.493124395608902, -0.17632576823234558, -0.0025705902371555567, 0.047318506985902786, -0.07536725699901581, -0.06306412816047668, 0.049053601920604706, 0.11129768192768097, 0.07479707151651382, 0.07166971266269684, 0.14507867395877838, -0.07561873644590378, -0.14648084342479706, 0.007186295930296183, -0.08557257801294327, -0.08129406720399857, -0.24035288393497467, 0.013930022716522217, -0.06733888387680054, -0.4488714039325714, 0.05526982247829437, -0.20712162554264069, -0.04027169197797775, 0.018044350668787956, 0.3313763737678528, 0.3427208662033081, 0.2659256160259247, 0.01795024797320366, -0.07607104629278183, -0.20176878571510315, -0.18127502501010895, 0.13657377660274506, -0.057897210121154785, -0.11851689964532852, -0.09939923137426376, -0.13254152238368988, 0.051893990486860275, -0.0027814500499516726, -0.09278566390275955, 0.1183198019862175, -0.13995769619941711, 0.09146562218666077, -0.09537816792726517, -0.22104670107364655, 0.30726611614227295, -0.026060983538627625, -0.40011221170425415, -0.01931851916015148, 0.05578295513987541, 0.12817789614200592, -0.464678019285202, -0.3017843961715698, -0.22631168365478516, -0.09318049252033234, -0.19894668459892273, 0.17176693677902222, -0.003026713617146015, 0.024451106786727905, -0.05309341102838516, -0.355131596326828, -0.09811477363109589, -0.014057576656341553, 0.029971756041049957, 0.11826461553573608, 0.039158500730991364, -0.14385145902633667, 0.13108135759830475, 0.18464355170726776, 0.09055701643228531, 0.03690359741449356, 0.2786841094493866, -0.13827082514762878, -0.26587817072868347, 0.1911492943763733, -0.16634944081306458, 0.21396726369857788, -0.13755853474140167, 0.15365265309810638, 0.0062128761783242226, -0.14141356945037842, 0.17971011996269226, 0.1283138543367386, 0.043265994638204575, 0.017364593222737312, 0.29432645440101624, 0.36582285165786743, 0.007256665267050266, -0.195586696267128, 0.17119748890399933, -0.03275186941027641, -0.345647394657135, -0.22457122802734375, 0.054733194410800934, -0.07355669140815735, 0.39456337690353394,